svm_type c_svc
kernel_type rbf
gamma 0.00031250000000000001
nr_class 2
total_sv 20
rho -0.28328198010160627
label 1 2
nr_sv 10 10
SV
2.2430885853144957 1:-0.843115 2:0.897058 3:0.7647 4:0.93978 5:0.842012 6:0.812809 7:0.840409 8:0.842778 9:0.471962 10:0.690957 11:0.873774 12:-0.674708 13:-0.857512 14:-0.887318 15:-0.538978 16:0.706921 17:-0.105435 18:-0.267336 19:0.504314 20:-0.276455 21:0.701377 22:0.89764 23:0.181228 24:0.61115 25:-0.901721 26:-1 27:0.243697 28:0.0340681 29:1 30:0.927273 31:1 32:0.929607 33:0.802985 34:1 35:0.755435 36:1 37:0.836735 38:-0.147868 39:0.692067 40:0.546362 41:0.108753 42:0.848073 43:0.313237 44:-0.559846 45:-0.774166 46:-0.7491 47:-0.193193 48:0.459408 49:0.689897 50:0.356709 51:-1 52:0.243697 53:0.0340681 54:1 55:0.927273 56:1 57:0.929607 58:0.802985 59:1 60:0.755435 61:1 62:0.836735 63:-0.147868 64:0.692067 65:0.546362 66:0.108753 67:0.848073 68:0.313237 69:-0.559846 70:-0.774166 71:-0.7491 72:-0.193193 73:0.459408 74:0.689897 75:0.356709 76:1 77:0.131572 78:0.919102 79:0.835565 80:0.32604 81:-0.0631653 82:-0.159339 83:-0.0784642 84:0.415 85:-0.185432 86:-0.0311268 87:0.950716 88:0.0308218 89:0.127539 90:-1 91:-0.824944 92:-0.495519 93:1 94:1 95:0.0807132 96:0.162502 97:1 98:0.731171 99:0.838143 100:-0.0695335 101:-1 102:0.320643 103:-0.462239 104:0.932784 105:0.938838 106:0.996745 107:0.972228 108:0.933365 109:0.951488 110:0.110478 111:-0.109619 112:-0.150257 113:-0.395796 114:0.891399 115:0.986735 116:0.774677 117:-0.396965 118:0.579584 119:0.512056 120:-0.0257349 121:0.634407 122:-0.398956 123:0.544958 124:0.834002 125:0.150759 126:0.901677 127:-0.455197 128:-0.832841 129:-0.841067 130:0.0503428 131:0.428278 132:-0.588218 133:-0.85672 134:0.835319 135:0.816463 136:-0.697739 137:0.441018 138:0.149592 139:0.920265 140:0.470257 141:-0.460465 142:0.376194 143:-0.186168 144:-0.857014 145:0.497464 146:0.401382 147:-0.570489 148:0.967697 149:0.792299 150:-0.181463 151:0.901677 152:-0.455197 153:-0.832841 154:-0.841067 155:0.0503428 156:0.428278 157:-0.588218 158:-0.85672 159:0.835319 160:0.816463 161:-0.697739 162:0.441018 163:0.149592 164:0.920265 165:0.470257 166:-0.460465 167:0.376194 168:-0.186168 169:-0.857014 170:0.497464 171:0.401382 172:-0.570489 173:0.967697 174:0.792299 175:-0.181463 176:-0.933328 177:0.873971 178:0.769328 179:0.973394 180:0.967487 181:0.720982 182:0.923133 183:0.84492 184:0.489238 185:0.915886 186:0.988838 187:0.548816 188:-0.901941 189:-0.518296 190:0.986418 191:-0.893682 192:-0.928327 193:-0.982261 194:-0.692786 195:-0.41762 196:0.92949 197:0.698773 198:0.851099 199:-0.991428 200:0.982681 201:0.493443 202:0.0821256 203:0.332364 204:-0.0760069 205:-0.162702 206:0.325428 207:1 208:1 209:0.193031 210:1 211:-0.428307 212:0.110812 213:-1 214:0.333687 215:0.768928 216:-0.562707 217:0.775945 218:0.518431 219:-1 220:-0.459246 221:-0.339095 222:-0.803277 223:-1 224:0.521684 225:-1 226:1 227:0.083871 228:-0.618651 229:0.176535 230:0.884382 231:-0.489939 232:1 233:-0.334595 234:0.967563 235:-1 236:-0.933239 237:0.185969 238:-0.0507896 239:-0.233017 240:-0.171723 241:0.733593 242:-1 243:0.764478 244:-0.781333 245:-0.66362 246:-0.524319 247:1 248:0.909782 249:-0.00334423 250:-0.165523 251:-0.185283 252:-1 253:-0.629553 254:0.237334 255:0.709741 256:-0.11113 257:0.863752 258:1 259:1 260:1 261:0.66872 262:1 263:0.613524 264:-0.191349 265:0.137702 266:-0.388716 267:0.0261449 268:-0.220132 269:1 270:1 271:-0.198281 272:-1 273:-1 274:-0.584179 275:1 276:0.760756 277:-0.49819 278:-0.626264 279:-0.578545 280:0.529465 281:0.622798 282:-0.883896 283:-0.672806 284:1 285:1 286:-0.925558 287:0.406106 288:-0.0292826 289:1 290:0.87047 291:0.0281187 292:-0.932479 293:0.602532 294:-1 295:0.353291 296:0.208338 297:0.652391 298:0.901751 299:0.0560005 300:0.456868 301:0.760756 302:-0.49819 303:-0.626264 304:-0.578545 305:0.529465 306:0.622798 307:-0.883896 308:-0.672806 309:1 310:1 311:-0.925558 312:0.406106 313:-0.0292826 314:1 315:0.87047 316:0.0281187 317:-0.932479 318:0.602532 319:-1 320:0.353291 321:0.208338 322:0.652391 323:0.901751 324:0.0560005 325:0.456868 326:-0.603112 327:0.436955 328:0.218839 329:0.838788 330:0.724176 331:0.780524 332:0.790326 333:0.0912014 334:-0.0717186 335:0.604768 336:0.162769 337:0.205585 338:-0.274953 339:-0.0205535 340:-0.0410417 341:0.792876 342:0.361738 343:-0.321415 344:-0.628603 345:-0.488934 346:-0.790336 347:-0.0489798 348:0.170765 349:-0.258904 350:0.168318 351:-0.993379 352:0.411238 353:-0.482352 354:1 355:0.920765 356:0.985457 357:0.690674 358:-0.534225 359:-0.519424 360:0.0585987 361:0.686085 362:-0.243058 363:-0.79642 364:-0.0812452 365:0.143253 366:-0.717876 367:0.739082 368:-0.672712 369:-0.144283 370:-0.960791 371:-0.840724 372:0.135507 373:-0.905041 374:-0.702399 375:-0.946468 376:-0.993379 377:0.411238 378:-0.482352 379:1 380:0.920765 381:0.985457 382:0.690674 383:-0.534225 384:-0.519424 385:0.0585987 386:0.686085 387:-0.243058 388:-0.79642 389:-0.0812452 390:0.143253 391:-0.717876 392:0.739082 393:-0.672712 394:-0.144283 395:-0.960791 396:-0.840724 397:0.135507 398:-0.905041 399:-0.702399 400:-0.946468 401:0.66953 402:-1 403:0.108482 404:0.0998112 405:0.58941 406:-0.327386 407:0.89092 408:0.15641 409:-0.13233 410:0.580282 411:-0.206429 412:0.40191 413:-0.168368 414:0.506091 415:0.373669 416:0.240458 417:-0.0293906 418:0.49715 419:0.0931513 420:0.528369 421:0.72954 422:-0.125574 423:-1 424:0.326954 425:-0.256837 426:0.240915 427:0.845415 428:-0.031413 429:-1 430:1 431:-0.768208 432:0.685817 433:-0.400158 434:0.657924 435:0.028299 436:-0.783289 437:1 438:-1 439:0.0421331 440:0.39641 441:-0.524613 442:-0.0634177 443:-1 444:-0.0363699 445:-0.723686 446:-0.555557 447:-0.606674 448:-1 449:-0.611867 450:0.865948 451:-0.256655 452:0.178736 453:-0.175 454:0.508259 455:0.623929 456:0.409932 457:0.262567 458:0.351167 459:0.556853 460:0.762421 461:-0.0489095 462:-0.69189 463:0.222934 464:0.125693 465:0.282411 466:-0.162673 467:0.65189 468:-0.222071 469:-0.439223 470:-0.223293 471:0.662782 472:0.120354 473:-0.501381 474:0.0767903 475:-0.367252 476:-0.202587 477:-0.170901 478:-1 479:0.744841 480:-0.72141 481:0.358763 482:0.850725 483:-0.296247 484:0.762425 485:0.720365 486:0.657545 487:-0.882321 488:-0.628098 489:-0.964559 490:-0.70342 491:0.787931 492:-0.898512 493:0.815847 494:0.360768 495:-0.396612 496:0.458685 497:0.622757 498:0.873189 499:-0.962535 500:0.645393 501:1 502:1 503:-0.136234 504:-1 505:1 506:1 507:-1 508:-1 509:1 510:-0.478025 511:1 512:-1 513:1 514:0.0307644 515:-1 516:1 517:1 518:-1 519:-1 520:-1 521:-0.16071 522:-1 523:1 524:0.762115 525:1 526:1 527:-1 528:1 529:-1 530:1 531:-1 532:-1 533:1 534:-1 535:-1 536:-1 537:-1 538:1 539:-0.318607 540:1 541:1 542:1 543:1 544:0.297083 545:1 546:1 547:1 548:1 549:1 550:-0.674014 551:-0.670493 552:-1 553:-1 554:1 555:0.810113 556:1 557:1 558:-0.15342 559:1 560:0.321003 561:-0.228378 562:0.818517 563:1 564:0.521123 565:0.0245684 566:-1 567:0.308231 568:0.144307 569:-0.463712 570:-1 571:-1 572:0.171657 573:-0.05243 574:0.619538 575:1 576:-0.670493 577:-1 578:-1 579:1 580:0.810113 581:1 582:1 583:-0.15342 584:1 585:0.321003 586:-0.228378 587:0.818517 588:1 589:0.521123 590:0.0245684 591:-1 592:0.308231 593:0.144307 594:-0.463712 595:-1 596:-1 597:0.171657 598:-0.05243 599:0.619538 600:1 601:1 602:0.245064 603:0.597748 604:-0.0404671 605:-0.586989 606:-0.530547 607:0.622897 608:-0.804432 609:0.155612 610:1 611:0.199321 612:0.113855 613:-0.775839 614:0.907045 615:0.237137 616:-0.106117 617:0.34065 618:-0.903459 619:0.684908 620:-0.284124 621:-0.118134 622:0.123956 623:-0.322179 624:0.579541 625:0.0940401 626:0.997196 627:-0.868722 628:-0.604231 629:-0.320452 630:-0.863071 631:0.113358 632:0.578651 633:0.904996 634:-0.429791 635:-0.707022 636:-0.587626 637:0.885963 638:0.555305 639:0.670952 640:-0.461827 641:0.658412 642:0.779268 643:0.696791 644:0.123701 645:-0.403252 646:0.439468 647:0.799989 648:0.476697 649:-0.333989 650:-0.778026 651:0.997196 652:-0.868722 653:-0.604231 654:-0.320452 655:-0.863071 656:0.113358 657:0.578651 658:0.904996 659:-0.429791 660:-0.707022 661:-0.587626 662:0.885963 663:0.555305 664:0.670952 665:-0.461827 666:0.658412 667:0.779268 668:0.696791 669:0.123701 670:-0.403252 671:0.439468 672:0.799989 673:0.476697 674:-0.333989 675:-0.778026 676:-0.555299 677:0.156513 678:-0.506201 679:0.998422 680:0.412996 681:0.744992 682:0.65087 683:0.160762 684:0.603936 685:0.254281 686:0.433056 687:0.860874 688:-0.375801 689:-0.29481 690:-0.0322528 691:-0.726273 692:-0.29772 693:-0.118329 694:-0.211414 695:-0.143614 696:0.343551 697:-0.251067 698:-0.526571 699:0.173235 700:-0.0774086 701:-0.555299 702:0.156513 703:-0.506201 704:0.998422 705:0.412996 706:0.744992 707:0.65087 708:0.160762 709:0.603936 710:0.254281 711:0.433056 712:0.860874 713:-0.375801 714:-0.29481 715:-0.0322528 716:-0.726273 717:-0.29772 718:-0.118329 719:-0.211414 720:-0.143614 721:0.343551 722:-0.251067 723:-0.526571 724:0.173235 725:-0.0774086 726:-1 727:-0.152023 728:0.583241 729:1 730:1 731:1 732:1 733:0.488649 734:0.162992 735:0.516087 736:1 737:-0.0953838 738:-0.537699 739:-0.583345 740:-0.257462 741:-0.349943 742:0.637644 743:-0.475973 744:-0.755888 745:-0.244582 746:0.589907 747:0.353766 748:-0.618842 749:-0.250247 750:-0.514073 751:1 752:1 753:1 754:-1 755:-1 756:1 757:-1 758:-1 759:0.62397 760:-0.18587 761:-1 762:-1 763:1 764:-1 765:-0.215766 766:1 767:0.232273 768:0.196646 769:1 770:0.289474 771:-0.75531 772:-0.168829 773:-0.638312 774:-0.0741819 775:-1 776:1 777:1 778:1 779:-1 780:-1 781:1 782:-1 783:-1 784:0.62397 785:-0.18587 786:-1 787:-1 788:1 789:-1 790:-0.215766 791:1 792:0.232273 793:0.196646 794:1 795:0.289474 796:-0.75531 797:-0.168829 798:-0.638312 799:-0.0741819 800:-1 801:0.92938 802:-0.435489 803:-0.66063 804:-0.371791 805:-0.893829 806:-0.796128 807:-0.389886 808:0.5669 809:0.645293 810:-0.0414352 811:-0.710404 812:0.995911 813:-0.516386 814:1 815:-0.033521 816:-0.952117 817:-1 818:0.473561 819:-0.2575 820:0.276302 821:1 822:0.455045 823:-0.31574 824:0.723355 825:-0.523634 826:0.795131 827:-0.645745 828:-0.792803 829:0.783608 830:-0.688097 831:-0.39178 832:-0.230256 833:0.669273 834:1 835:1 836:-0.382443 837:1 838:-0.381121 839:-1 840:0.297179 841:-0.945917 842:0.86043 843:-0.281867 844:0.12073 845:0.781233 846:-0.7208 847:-0.674797 848:1 849:-0.47037 850:0.106733 851:-0.521333 852:-0.796911 853:-0.36743 854:0.786234 855:0.323914 856:0.206768 857:0.739088 858:0.552054 859:0.319998 860:-0.605463 861:1 862:-0.456369 863:0.0340817 864:0.843782 865:0.933581 866:-0.900727 867:-0.631437 868:0.570676 869:0.572585 870:1 871:0.614744 872:-1 873:0.0341351 874:0.256516 875:0.785629 876:0.64457 877:-0.771566 878:-0.214942 879:-0.903864 880:-0.356924 881:0.253072 882:0.90813 883:0.00843721 884:1 885:1 886:-1 887:0.370253 888:0.514754 889:-0.100741 890:0.237175 891:0.566767 892:-0.648118 893:-0.66245 894:-0.178834 895:-0.762178 896:-0.364891 897:-0.465422 898:0.849915 899:0.769567 900:0.0113418 901:-1 902:0.646764 903:-0.278215 904:-0.960124 905:1 906:-1 907:0.23212 908:-0.445998 909:0.460889 910:0.166282 911:-1 912:1 913:-0.803823 914:-1 915:-0.629494 916:-0.830193 917:-0.667427 918:1 919:0.92032 920:0.818458 921:1 922:1 923:-0.259821 924:-0.0758191 925:0.545455 926:1 927:0.0829821 928:0.260115 929:0.299021 930:-0.198349 931:-1 932:0.740268 933:-0.848736 934:-0.385861 935:0.0576835 936:-0.427292 937:1 938:-0.37387 939:-1 940:-1 941:0.313531 942:0.38619 943:0.0575495 944:0.969154 945:-0.0557785 946:0.0302903 947:-0.162413 948:-0.172431 949:-0.198759 950:-1 951:1 952:0.0499506 953:0.758128 954:-0.84685 955:-0.874567 956:-0.421399 957:0.939912 958:-0.603937 959:-0.752164 960:0.39787 961:-0.816061 962:0.536116 963:0.880245 964:0.876926 965:-0.157215 966:0.837151 967:0.214737 968:-0.0319774 969:0.760591 970:-0.879954 971:0.733508 972:0.596798 973:-0.172194 974:-0.680514 975:-0.738491 976:1 977:-1 978:1 979:-1 980:-1 981:-0.725558 982:-1 983:-0.46728 984:-1 985:-1 986:-0.0430974 987:0.0248741 988:1 989:1 990:0.441086 991:0.0826946 992:1 993:0.390768 994:0.701456 995:1 996:-0.387325 997:0.0275908 998:-0.875276 999:-0.980038 1000:-0.78128 1001:0.343063 1002:0.252902 1003:0.730615 1004:-0.743808 1005:-0.596451 1006:-0.768402 1007:-0.320323 1008:-0.226459 1009:-0.855889 1010:-0.244553 1011:-0.397576 1012:0.120729 1013:-0.627693 1014:-0.47236 1015:0.515911 1016:-0.608354 1017:0.285269 1018:0.423203 1019:0.199023 1020:0.0481875 1021:-0.0532827 1022:0.383236 1023:-0.126408 1024:-0.218311 1025:0.819555 1026:0.858041 1027:-0.0479957 1028:-0.721385 1029:0.434242 1030:0.389739 1031:-0.493868 1032:0.61959 1033:-0.17542 1034:1 1035:0.729045 1036:-0.908422 1037:0.304642 1038:0.214841 1039:-0.992912 1040:-0.198573 1041:-0.206651 1042:-0.689487 1043:0.206099 1044:-0.380219 1045:-0.280114 1046:0.820366 1047:0.634068 1048:-0.503179 1049:-0.102543 1050:0.158572 1051:0.605309 1052:-0.852832 1053:0.306012 1054:-0.828572 1055:-0.74045 1056:-0.709025 1057:0.3803 1058:0.46917 1059:-0.571847 1060:-0.780346 1061:-0.695042 1062:0.307645 1063:-0.350687 1064:0.819454 1065:0.341006 1066:-0.283382 1067:-0.773361 1068:-0.330529 1069:0.319171 1070:-0.360892 1071:0.37519 1072:0.730615 1073:0.739707 1074:-0.0833799 1075:-0.0477839 1076:1 1077:0.521887 1078:-1 1079:0.42879 1080:0.73677 1081:0.0958052 1082:-0.685616 1083:1 1084:-1 1085:0.134928 1086:0.0829788 1087:-0.632105 1088:0.407182 1089:0.558643 1090:-0.801709 1091:-0.966746 1092:0.959591 1093:0.349205 1094:-0.853922 1095:0.862056 1096:0.228883 1097:-0.119295 1098:-0.612038 1099:-0.137893 1100:-0.311077 1101:0.996094 1102:0.20737 1103:-0.903644 1104:0.204273 1105:0.0629727 1106:-0.616549 1107:-0.155614 1108:-0.802018 1109:-0.416476 1110:-1 1111:-0.562217 1112:-0.146917 1113:0.713995 1114:-0.509201 1115:0.36999 1116:0.519751 1117:-0.27001 1118:-0.0730505 1119:0.574085 1120:0.879384 1121:-0.786126 1122:-0.31907 1123:-0.381361 1124:-0.0929442 1125:-0.174408 1126:-0.0523556 1127:0.216204 1128:-0.453614 1129:0.755416 1130:0.503109 1131:0.459841 1132:0.73153 1133:-0.164875 1134:0.47196 1135:-0.464777 1136:0.702502 1137:-0.720041 1138:-0.628762 1139:-0.599926 1140:0.931477 1141:1 1142:0.232717 1143:0.909756 1144:-0.458168 1145:-0.335464 1146:-0.0365315 1147:-0.757466 1148:0.78788 1149:-0.0969223 1150:-0.525986 1151:0.869991 1152:-0.652209 1153:-0.649802 1154:-0.618218 1155:-1 1156:-0.63507 1157:0.553399 1158:0.0633026 1159:0.694035 1160:0.265638 1161:-0.563169 1162:0.31263 1163:-1 1164:-0.0227444 1165:0.680521 1166:-0.125526 1167:0.0525249 1168:-0.155026 1169:0.364641 1170:0.325329 1171:0.199324 1172:0.594837 1173:-0.235586 1174:0.16795 1175:-0.175314 1176:0.869991 1177:-0.652209 1178:-0.649802 1179:-0.618218 1180:-1 1181:-0.63507 1182:0.553399 1183:0.0633026 1184:0.694035 1185:0.265638 1186:-0.563169 1187:0.31263 1188:-1 1189:-0.0227444 1190:0.680521 1191:-0.125526 1192:0.0525249 1193:-0.155026 1194:0.364641 1195:0.325329 1196:0.199324 1197:0.594837 1198:-0.235586 1199:0.16795 1200:-0.175314 1201:-1 1202:-0.479499 1203:-0.645587 1204:0.875812 1205:0.990883 1206:0.981743 1207:0.854192 1208:0.0149537 1209:-0.603733 1210:0.530091 1211:0.986791 1212:0.878247 1213:0.93951 1214:0.917832 1215:0.680693 1216:-0.608032 1217:0.735815 1218:0.648695 1219:0.0551154 1220:0.155598 1221:-0.713772 1222:-0.23771 1223:0.655491 1224:0.593775 1225:-0.177226 1226:-1 1227:1 1228:1 1229:0.3419 1230:0.935885 1231:1 1232:-1 1233:0.357074 1234:-1 1235:-1 1236:0.200947 1237:0.821634 1238:0.0200746 1239:-0.761051 1240:1 1241:0.419382 1242:1 1243:0.617725 1244:0.470616 1245:-1 1246:-0.25606 1247:-0.273479 1248:0.587389 1249:0.578575 1250:-0.265253 1251:-1 1252:1 1253:1 1254:0.3419 1255:0.935885 1256:1 1257:-1 1258:0.357074 1259:-1 1260:-1 1261:0.200947 1262:0.821634 1263:0.0200746 1264:-0.761051 1265:1 1266:0.419382 1267:1 1268:0.617725 1269:0.470616 1270:-1 1271:-0.25606 1272:-0.273479 1273:0.587389 1274:0.578575 1275:-0.265253 1276:0.918779 1277:-0.765815 1278:-0.690294 1279:-0.859265 1280:0.486015 1281:0.937759 1282:-1 1283:-0.863203 1284:-0.567302 1285:-0.520245 1286:-0.159661 1287:0.544347 1288:0.76318 1289:0.0461655 1290:-0.0434741 1291:-0.671958 1292:-0.761807 1293:0.374639 1294:-0.433957 1295:-0.0458581 1296:-0.272361 1297:0.591672 1298:1 1299:-0.628785 1300:0.869045 1301:0.918779 1302:-0.765815 1303:-0.690294 1304:-0.859265 1305:0.486015 1306:0.937759 1307:-1 1308:-0.863203 1309:-0.567302 1310:-0.520245 1311:-0.159661 1312:0.544347 1313:0.76318 1314:0.0461655 1315:-0.0434741 1316:-0.671958 1317:-0.761807 1318:0.374639 1319:-0.433957 1320:-0.0458581 1321:-0.272361 1322:0.591672 1323:1 1324:-0.628785 1325:0.869045 1326:-0.890726 1327:0.010423 1328:-0.304165 1329:1 1330:0.941592 1331:1 1332:0.37368 1333:0.365007 1334:0.299613 1335:0.320359 1336:0.692574 1337:0.499112 1338:-0.327263 1339:0.300617 1340:-0.259005 1341:-0.110749 1342:-0.182396 1343:-0.399937 1344:0.171416 1345:-0.135559 1346:0.411089 1347:0.199748 1348:-0.133243 1349:0.0860312 1350:0.0990152 1351:-0.890726 1352:0.010423 1353:-0.304165 1354:1 1355:0.941592 1356:1 1357:0.37368 1358:0.365007 1359:0.299613 1360:0.320359 1361:0.692574 1362:0.499112 1363:-0.327263 1364:0.300617 1365:-0.259005 1366:-0.110749 1367:-0.182396 1368:-0.399937 1369:0.171416 1370:-0.135559 1371:0.411089 1372:0.199748 1373:-0.133243 1374:0.0860312 1375:0.0990152 1376:0.595075 1377:-0.560696 1378:-0.401485 1379:0.44708 1380:-1 1381:0.27953 1382:0.480947 1383:-0.629023 1384:0.963247 1385:0.364391 1386:-0.69394 1387:0.37457 1388:1 1389:-0.303385 1390:-0.555098 1391:0.724291 1392:0.258451 1393:-0.700955 1394:0.32402 1395:0.385768 1396:-0.254611 1397:0.89299 1398:0.47595 1399:-0.452546 1400:-0.0596967 1401:0.595075 1402:-0.560696 1403:-0.401485 1404:0.44708 1405:-1 1406:0.27953 1407:0.480947 1408:-0.629023 1409:0.963247 1410:0.364391 1411:-0.69394 1412:0.37457 1413:1 1414:-0.303385 1415:-0.555098 1416:0.724291 1417:0.258451 1418:-0.700955 1419:0.32402 1420:0.385768 1421:-0.254611 1422:0.89299 1423:0.47595 1424:-0.452546 1425:-0.0596967 1426:0.264963 1427:-1 1428:-0.284541 1429:0.896243 1430:1 1431:1 1432:0.143753 1433:-0.83853 1434:1 1435:-0.30774 1436:-0.331468 1437:0.854994 1438:1 1439:0.0758401 1440:-0.522174 1441:1 1442:-0.633424 1443:0.868316 1444:-0.459977 1445:-1 1446:1 1447:0.267665 1448:0.337937 1449:-0.056816 1450:-0.684438 1451:0.264963 1452:-1 1453:-0.284541 1454:0.896243 1455:1 1456:1 1457:0.143753 1458:-0.83853 1459:1 1460:-0.30774 1461:-0.331468 1462:0.854994 1463:1 1464:0.0758401 1465:-0.522174 1466:1 1467:-0.633424 1468:0.868316 1469:-0.459977 1470:-1 1471:1 1472:0.267665 1473:0.337937 1474:-0.056816 1475:-0.684438 1476:-1 1477:-0.499494 1478:-0.253276 1479:1 1480:0.329468 1481:0.666575 1482:-0.199422 1483:-0.472047 1484:-0.481549 1485:-0.253643 1486:1 1487:0.420608 1488:-0.195307 1489:-0.395117 1490:-0.132847 1491:-0.267732 1492:0.658399 1493:0.459001 1494:-0.101511 1495:0.0714738 1496:0.142656 1497:0.509982 1498:0.533145 1499:0.131075 1500:-0.350272 1501:-1 1502:-0.499494 1503:-0.253276 1504:1 1505:0.329468 1506:0.666575 1507:-0.199422 1508:-0.472047 1509:-0.481549 1510:-0.253643 1511:1 1512:0.420608 1513:-0.195307 1514:-0.395117 1515:-0.132847 1516:-0.267732 1517:0.658399 1518:0.459001 1519:-0.101511 1520:0.0714738 1521:0.142656 1522:0.509982 1523:0.533145 1524:0.131075 1525:-0.350272 1526:-0.963971 1527:0.92709 1528:0.390422 1529:0.995076 1530:-0.404278 1531:0.974486 1532:0.71001 1533:0.713844 1534:0.181272 1535:0.952865 1536:0.991069 1537:0.441237 1538:-0.981111 1539:-0.709855 1540:-0.937483 1541:0.346579 1542:-0.269882 1543:-0.119526 1544:-0.601063 1545:-0.00505483 1546:-0.548567 1547:0.0415708 1548:-0.0604098 1549:0.668304 1550:0.879125 1551:-0.651837 1552:0.287818 1553:-0.0717666 1554:0.29498 1555:0.43535 1556:0.00999424 1557:-0.24904 1558:0.000756274 1559:-0.327175 1560:0.201785 1561:1 1562:0.675345 1563:1 1564:-1 1565:0.16999 1566:0.19695 1567:-0.537724 1568:0.732926 1569:-0.341728 1570:-0.138627 1571:-0.386367 1572:0.811421 1573:0.622888 1574:-0.347291 1575:-0.117789 1576:-0.651837 1577:0.287818 1578:-0.0717666 1579:0.29498 1580:0.43535 1581:0.00999424 1582:-0.24904 1583:0.000756274 1584:-0.327175 1585:0.201785 1586:1 1587:0.675345 1588:1 1589:-1 1590:0.16999 1591:0.19695 1592:-0.537724 1593:0.732926 1594:-0.341728 1595:-0.138627 1596:-0.386367 1597:0.811421 1598:0.622888 1599:-0.347291 1600:-0.117789 1601:-0.260641 1602:-1 1603:-0.711933 1604:0.799856 1605:1 1606:-0.0780121 1607:1 1608:0.805486 1609:1 1610:1 1611:0.113582 1612:1 1613:0.266974 1614:-0.0857902 1615:0.294039 1616:-0.246836 1617:-0.559074 1618:0.56723 1619:0.259531 1620:-0.206246 1621:0.139596 1622:0.562767 1623:1 1624:1 1625:0.920782 1626:0.896052 1627:-0.793828 1628:-0.877922 1629:-0.0665427 1630:-0.861453 1631:-0.866181 1632:-0.454588 1633:0.7125 1634:1 1635:0.0882545 1636:-0.723286 1637:1 1638:0.0224584 1639:-1 1640:0.555202 1641:-0.521128 1642:0.82049 1643:-0.629805 1644:-0.630454 1645:0.682706 1646:-0.23922 1647:-1 1648:1 1649:0.623927 1650:-0.41771 1651:0.93446 1652:0.282157 1653:-0.750464 1654:0.444605 1655:0.790611 1656:0.577041 1657:-0.908837 1658:-0.821203 1659:0.0894786 1660:0.833556 1661:-0.647219 1662:0.0671751 1663:-0.480056 1664:0.755118 1665:-0.145993 1666:-0.800599 1667:-0.644279 1668:-0.635143 1669:0.976403 1670:-0.0853285 1671:-0.441415 1672:0.873884 1673:0.908965 1674:0.825412 1675:-0.882671 1676:0.789245 1677:0.131912 1678:-0.651863 1679:0.653271 1680:0.129265 1681:0.631459 1682:0.921494 1683:0.541219 1684:-0.233584 1685:-0.729792 1686:-0.861336 1687:0.882223 1688:0.772919 1689:-0.175677 1690:0.490753 1691:-0.47609 1692:-0.764572 1693:-0.878362 1694:-0.285183 1695:-0.236264 1696:-0.32961 1697:-0.730465 1698:-0.530679 1699:-0.346883 1700:0.745358 1701:0.850383 1702:-0.507479 1703:-0.660051 1704:-0.263013 1705:0.850177 1706:-0.0978355 1707:0.611719 1708:-1 1709:-0.953638 1710:-0.120736 1711:-0.284743 1712:-0.208004 1713:-0.107715 1714:1 1715:0.148694 1716:-0.482558 1717:0.594234 1718:-0.971068 1719:-0.92834 1720:-0.421617 1721:0.859991 1722:-0.988974 1723:-0.851678 1724:0.897631 1725:0.0016042 1726:0.709919 1727:0.223928 1728:0.0581606 1729:0.403422 1730:-0.563762 1731:0.0408425 1732:0.582064 1733:-0.223686 1734:0.996426 1735:0.984452 1736:-0.522475 1737:1 1738:-1 1739:0.123295 1740:0.434077 1741:-0.603885 1742:-0.437037 1743:0.0845184 1744:-1 1745:0.70613 1746:0.830443 1747:0.03035 1748:-1 1749:0.984455 1750:-1 1751:0.305815 1752:0.385326 1753:0.224839 1754:-0.480322 1755:1 1756:-1 1757:0.950524 1758:0.812242 1759:0.0719036 1760:0.625222 1761:0.119791 1762:1 1763:-1 1764:0.330222 1765:-0.466921 1766:0.737551 1767:-0.0237408 1768:-0.885088 1769:1 1770:-0.810081 1771:0.715825 1772:0.41539 1773:-1 1774:0.117693 1775:-0.793639 1776:0.859385 1777:-0.666307 1778:0.793001 1779:-0.961955 1780:-0.850395 1781:-0.790801 1782:0.309897 1783:0.647965 1784:0.429525 1785:0.630809 1786:-0.664646 1787:-0.124671 1788:0.0182129 1789:-0.545308 1790:0.140192 1791:0.213432 1792:-0.0940845 1793:-0.527048 1794:-0.789568 1795:0.619787 1796:-0.314762 1797:-0.58444 1798:-0.163206 1799:0.112746 1800:0.360063 1801:0.372972 1802:0.107186 1803:0.0581974 1804:0.581911 1805:0.746473 1806:-0.00447539 1807:-0.570527 1808:-1 1809:-1 1810:0.192452 1811:0.779473 1812:0.528205 1813:-1 1814:0.0614493 1815:1 1816:0.296604 1817:0.483226 1818:-0.397198 1819:-0.537142 1820:0.741742 1821:-0.448442 1822:-1 1823:-1 1824:-0.737357 1825:0.574381 1826:0.929095 1827:-0.471425 1828:0.594407 1829:0.518848 1830:-0.157059 1831:-0.696474 1832:-0.570428 1833:0.179165 1834:0.992359 1835:0.266894 1836:0.0879905 1837:0.157842 1838:-0.239528 1839:0.195035 1840:-0.190515 1841:-0.560633 1842:-0.438401 1843:-0.628327 1844:0.313808 1845:-0.755197 1846:-0.326563 1847:0.450024 1848:-0.0308729 1849:0.290044 1850:-0.372156 1851:0.296328 1852:-0.0759857 1853:0.769782 1854:-0.197711 1855:-0.886593 1856:-0.549344 1857:-0.392967 1858:0.332676 1859:0.389336 1860:0.672046 1861:-0.876822 1862:-0.627083 1863:0.432032 1864:-0.587457 1865:-0.229062 1866:-0.890577 1867:-0.65378 1868:0.36096 1869:-0.0891899 1870:-0.140032 1871:0.871046 1872:-0.1 1873:-0.624793 1874:-0.297847 1875:0.2369 1876:1 1877:-0.104537 1878:1 1879:-0.530531 1880:-1 1881:-0.450339 1882:-1 1883:-0.808711 1884:-0.238672 1885:1 1886:-0.10941 1887:-1 1888:0.354683 1889:1 1890:-0.249233 1891:-0.112919 1892:0.603984 1893:0.507326 1894:-0.704168 1895:1 1896:0.396151 1897:-1 1898:-0.0924745 1899:-0.768793 1900:-1 1901:0.313242 1902:0.819647 1903:0.729225 1904:-0.871067 1905:-0.878357 1906:-0.545617 1907:0.736706 1908:-0.837196 1909:0.104359 1910:0.946483 1911:-0.870273 1912:-0.54887 1913:-0.00564711 1914:0.665185 1915:-0.100424 1916:-0.806394 1917:0.703212 1918:-1 1919:0.843522 1920:0.258009 1921:0.467079 1922:0.283852 1923:-0.363726 1924:0.49259 1925:0.410522 1926:0.0513248 1927:0.378977 1928:-0.818756 1929:0.366146 1930:-0.101346 1931:0.408432 1932:-0.183326 1933:-0.457979 1934:0.25828 1935:-0.40417 1936:-0.371092 1937:-1 1938:-0.478166 1939:-0.715523 1940:0.374052 1941:1 1942:-0.260547 1943:-0.336351 1944:-0.449422 1945:-0.00690181 1946:0.00949487 1947:-0.40757 1948:0.213883 1949:0.72043 1950:0.192784 1951:1 1952:-0.900361 1953:-0.559543 1954:-0.338569 1955:-0.0903013 1956:-0.382318 1957:0.604861 1958:-0.744909 1959:0.670953 1960:1 1961:-0.889416 1962:0.0858857 1963:-0.303844 1964:-0.964788 1965:-0.28265 1966:0.719185 1967:-0.986559 1968:-0.864317 1969:-0.0886968 1970:0.186366 1971:0.415944 1972:-0.511579 1973:0.80537 1974:-0.492618 1975:0.0186658 1976:-0.99762 1977:0.0446753 1978:-0.999356 1979:0.999794 1980:0.997523 1981:-0.1183 1982:0.995839 1983:-0.63822 1984:0.997119 1985:0.982596 1986:-0.0778715 1987:0.639607 1988:0.998462 1989:0.666191 1990:0.93329 1991:-0.999487 1992:-0.026593 1993:-0.584779 1994:-0.999613 1995:-0.57641 1996:-0.433607 1997:-0.47777 1998:-0.999405 1999:0.533874 2000:0.427828 2001:0.294098 2002:0.916069 2003:-0.187041 2004:0.288396 2005:0.802188 2006:-1 2007:1 2008:0.257144 2009:-0.0829178 2010:-0.767081 2011:-1 2012:-0.688259 2013:1 2014:-1 2015:-1 2016:1 2017:-0.346946 2018:1 2019:1 2020:0.0457049 2021:1 2022:1 2023:-0.0925323 2024:-0.994837 2025:-1 2026:0.154253 2027:-0.163679 2028:-0.14225 2029:0.573108 2030:0.842899 2031:0.119962 2032:0.576634 2033:-0.454903 2034:-0.581257 2035:-0.561977 2036:-0.677503 2037:-1 2038:0.380112 2039:0.648844 2040:-0.410926 2041:-0.462691 2042:-0.118903 2043:0.471327 2044:0.548373 2045:0.604996 2046:0.0289783 2047:0.151651 2048:-0.888509 2049:-0.931767 2050:0.215734 2051:1 2052:-1 2053:-0.421202 2054:0.607238 2055:0.235307 2056:0.857334 2057:0.388548 2058:-0.313624 2059:-0.233646 2060:-0.0221855 2061:0.28684 2062:-1 2063:0.940539 2064:1 2065:-1 2066:0.810062 2067:1 2068:-0.277112 2069:0.909817 2070:-0.675288 2071:-0.559235 2072:1 2073:-1 2074:0.624146 2075:-1 2076:-0.804567 2077:-0.0440202 2078:-0.766329 2079:-1 2080:1 2081:-1 2082:0.859405 2083:-1 2084:-1 2085:-0.334159 2086:-1 2087:1 2088:-0.888841 2089:0.947667 2090:-0.755223 2091:-1 2092:0.241203 2093:0.00432648 2094:0.852044 2095:-1 2096:0.356235 2097:0.355566 2098:-1 2099:-1 2100:1 2101:0.8324 2102:0.994071 2103:-0.515173 2104:0.981803 2105:0.857356 2106:-0.995088 2107:0.85796 2108:-0.993021 2109:0.761527 2110:0.646909 2111:-0.566531 2112:0.567096 2113:0.625396 2114:0.921682 2115:0.965695 2116:-0.993152 2117:-0.927207 2118:-0.528481 2119:-0.986482 2120:-0.992176 2121:0.163804 2122:0.0122996 2123:-0.996437 2124:-0.934379 2125:0.968745 2126:-1 2127:-0.271434 2128:0.146496 2129:1 2130:1 2131:1 2132:0.612487 2133:0.373896 2134:-0.319808 2135:0.214917 2136:1 2137:0.245723 2138:0.112154 2139:-0.112446 2140:0.0547237 2141:-0.204362 2142:0.0911559 2143:-0.0573202 2144:0.0873452 2145:0.459608 2146:0.303287 2147:0.245575 2148:-0.0253534 2149:-0.0801683 2150:-0.14849 2151:-0.579358 2152:0.811588 2153:0.360112 2154:0.850965 2155:0.592403 2156:-0.688573 2157:0.747643 2158:0.147231 2159:0.220684 2160:-0.0240837 2161:0.293951 2162:-0.139556 2163:0.463361 2164:-0.810183 2165:-0.790254 2166:-0.847457 2167:-0.920729 2168:1 2169:0.2656 2170:0.689901 2171:0.871645 2172:-0.341656 2173:0.182339 2174:-0.889795 2175:0.415091 2176:0.700459 2177:-0.182028 2178:0.663815 2179:-0.0912986 2180:-0.101571 2181:0.175173 2182:0.215408 2183:0.438829 2184:-0.43176 2185:0.216333 2186:0.565167 2187:-0.123823 2188:0.193546 2189:-0.814009 2190:0.0431874 2191:0.647997 2192:-0.788872 2193:-0.109209 2194:-0.295502 2195:-0.423156 2196:-0.653076 2197:-0.100435 2198:-0.161868 2199:-0.726481 2200:-0.417946 2201:0.559985 2202:1 2203:0.829874 2204:1 2205:0.363282 2206:1 2207:-0.0141776 2208:-1 2209:1 2210:1 2211:1 2212:1 2213:1 2214:-0.792924 2215:-1 2216:0.309406 2217:0.195668 2218:0.116727 2219:-0.917206 2220:-1 2221:0.943827 2222:-0.435111 2223:-1 2224:-0.484602 2225:0.081301 2226:0.675129 2227:-0.46711 2228:-0.802165 2229:-0.0681449 2230:-0.75013 2231:-0.752315 2232:0.872394 2233:-0.606684 2234:0.303817 2235:-0.401033 2236:-1 2237:0.907976 2238:0.233575 2239:0.224179 2240:0.338588 2241:0.323209 2242:-0.746123 2243:-0.0821075 2244:-0.350928 2245:0.947056 2246:0.647041 2247:-0.0132777 2248:0.913594 2249:0.325499 2250:0.833783 2251:0.288625 2252:-0.242935 2253:-0.368663 2254:0.610093 2255:-1 2256:-0.761902 2257:0.306432 2258:0.198574 2259:0.926837 2260:0.146456 2261:-0.404863 2262:0.0888396 2263:0.938852 2264:0.0237361 2265:-1 2266:-0.312236 2267:0.470253 2268:0.0756016 2269:-0.117105 2270:-0.470955 2271:-0.748378 2272:-0.467705 2273:0.491591 2274:0.314967 2275:0.248115 2276:0.288625 2277:-0.242935 2278:-0.368663 2279:0.610093 2280:-1 2281:-0.761902 2282:0.306432 2283:0.198574 2284:0.926837 2285:0.146456 2286:-0.404863 2287:0.0888396 2288:0.938852 2289:0.0237361 2290:-1 2291:-0.312236 2292:0.470253 2293:0.0756016 2294:-0.117105 2295:-0.470955 2296:-0.748378 2297:-0.467705 2298:0.491591 2299:0.314967 2300:0.248115 2301:-1 2302:-0.466728 2303:-0.634355 2304:0.999902 2305:0.927374 2306:0.581729 2307:0.780459 2308:0.814795 2309:0.0313454 2310:0.147962 2311:0.657924 2312:0.95705 2313:-0.518544 2314:0.430645 2315:0.610821 2316:0.518178 2317:0.385469 2318:0.601255 2319:0.636407 2320:0.746872 2321:-0.0746554 2322:-0.606205 2323:-0.18486 2324:-0.114879 2325:-0.0546159 2326:-1 2327:-0.466728 2328:-0.634355 2329:0.999902 2330:0.927374 2331:0.581729 2332:0.780459 2333:0.814795 2334:0.0313454 2335:0.147962 2336:0.657924 2337:0.95705 2338:-0.518544 2339:0.430645 2340:0.610821 2341:0.518178 2342:0.385469 2343:0.601255 2344:0.636407 2345:0.746872 2346:-0.0746554 2347:-0.606205 2348:-0.18486 2349:-0.114879 2350:-0.0546159 2351:-0.82594 2352:-0.560006 2353:-0.350373 2354:0.577007 2355:0.763855 2356:0.775576 2357:0.625151 2358:0.23793 2359:0.0845531 2360:0.008647 2361:0.0634368 2362:0.448587 2363:1 2364:0.145236 2365:-0.251805 2366:0.117625 2367:-0.0954754 2368:1 2369:0.583773 2370:0.523852 2371:0.179074 2372:0.414963 2373:-0.246158 2374:0.492502 2375:-0.164185 2376:-0.253937 2377:-0.258221 2378:-0.246301 2379:0.736082 2380:0.70114 2381:1 2382:0.543898 2383:-0.0132318 2384:0.0465332 2385:-0.817521 2386:0.659572 2387:1 2388:0.216494 2389:0.0458732 2390:-0.487244 2391:0.540712 2392:0.118152 2393:0.195883 2394:-0.0860391 2395:0.0753599 2396:0.672765 2397:0.496288 2398:0.0971475 2399:-0.0218861 2400:-0.742228 2401:-0.253937 2402:-0.258221 2403:-0.246301 2404:0.736082 2405:0.70114 2406:1 2407:0.543898 2408:-0.0132318 2409:0.0465332 2410:-0.817521 2411:0.659572 2412:1 2413:0.216494 2414:0.0458732 2415:-0.487244 2416:0.540712 2417:0.118152 2418:0.195883 2419:-0.0860391 2420:0.0753599 2421:0.672765 2422:0.496288 2423:0.0971475 2424:-0.0218861 2425:-0.742228 2426:0.406198 2427:0.803099 2428:-0.876737 2429:-1 2430:0.282059 2431:-0.38838 2432:0.764942 2433:-0.548438 2434:0.754055 2435:-0.321542 2436:-0.698539 2437:-0.342345 2438:1 2439:-0.26877 2440:-0.19418 2441:1 2442:-1 2443:0.612504 2444:-0.194739 2445:-0.612642 2446:0.385608 2447:0.78744 2448:-0.063509 2449:-0.318984 2450:-0.358813 2451:-0.144713 2452:-0.066557 2453:-1 2454:-0.170942 2455:0.294484 2456:-0.536792 2457:-0.274655 2458:0.168298 2459:-0.358312 2460:0.163036 2461:-0.468971 2462:0.153212 2463:-1 2464:0.38264 2465:-0.728088 2466:-0.0187996 2467:0.0485487 2468:0.805372 2469:0.323983 2470:0.387016 2471:1 2472:-0.00122534 2473:0.241482 2474:-0.819398 2475:0.814225 2476:0.657642 2477:1 2478:1 2479:-1 2480:-1 2481:0.717906 2482:0.0658616 2483:-0.999764 2484:0.91817 2485:0.957995 2486:-0.99865 2487:-0.536556 2488:-0.735368 2489:-1 2490:0.859437 2491:-0.995806 2492:-0.842532 2493:0.985198 2494:-0.970596 2495:0.95131 2496:0.938908 2497:0.998596 2498:-0.999187 2499:-0.416763 2500:0.926389 2501:0.69545 2502:-0.961346 2503:-0.734181 2504:-0.743929 2505:0.150556 2506:-0.734572 2507:0.253694 2508:-0.597093 2509:0.96232 2510:0.458133 2511:-0.887967 2512:-0.384472 2513:-0.501129 2514:-0.878777 2515:0.555012 2516:0.867003 2517:0.521589 2518:-0.71178 2519:-0.389058 2520:0.801896 2521:0.440768 2522:0.944425 2523:1 2524:0.932649 2525:-0.00708681 2526:0.69545 2527:-0.961346 2528:-0.734181 2529:-0.743929 2530:0.150556 2531:-0.734572 2532:0.253694 2533:-0.597093 2534:0.96232 2535:0.458133 2536:-0.887967 2537:-0.384472 2538:-0.501129 2539:-0.878777 2540:0.555012 2541:0.867003 2542:0.521589 2543:-0.71178 2544:-0.389058 2545:0.801896 2546:0.440768 2547:0.944425 2548:1 2549:0.932649 2550:-0.00708681 2551:0.985889 2552:-0.916965 2553:-0.91038 2554:-0.931126 2555:-0.535316 2556:-0.195972 2557:-0.141439 2558:-0.07299 2559:-0.868209 2560:-0.941493 2561:-0.838053 2562:-0.116024 2563:0.185004 2564:-0.54481 2565:0.192831 2566:0.0274813 2567:-0.214452 2568:-0.0902698 2569:-0.872734 2570:-0.451457 2571:0.962142 2572:-0.558315 2573:-0.277772 2574:0.0688438 2575:0.0304151 2576:0.985889 2577:-0.916965 2578:-0.91038 2579:-0.931126 2580:-0.535316 2581:-0.195972 2582:-0.141439 2583:-0.07299 2584:-0.868209 2585:-0.941493 2586:-0.838053 2587:-0.116024 2588:0.185004 2589:-0.54481 2590:0.192831 2591:0.0274813 2592:-0.214452 2593:-0.0902698 2594:-0.872734 2595:-0.451457 2596:0.962142 2597:-0.558315 2598:-0.277772 2599:0.0688438 2600:0.0304151 2601:-0.336188 2602:-1 2603:-1 2604:-0.098731 2605:0.600677 2606:-0.899078 2607:0.750248 2608:-0.224 2609:0.754868 2610:0.559782 2611:-1 2612:-0.910066 2613:1 2614:-0.304293 2615:-0.340416 2616:-0.406835 2617:0.488101 2618:-0.152574 2619:0.408964 2620:-1 2621:-0.464044 2622:-0.0985535 2623:0.41351 2624:-0.291391 2625:-0.414474 2626:-0.336188 2627:-1 2628:-1 2629:-0.098731 2630:0.600677 2631:-0.899078 2632:0.750248 2633:-0.224 2634:0.754868 2635:0.559782 2636:-1 2637:-0.910066 2638:1 2639:-0.304293 2640:-0.340416 2641:-0.406835 2642:0.488101 2643:-0.152574 2644:0.408964 2645:-1 2646:-0.464044 2647:-0.0985535 2648:0.41351 2649:-0.291391 2650:-0.414474 2651:0.963294 2652:-0.723931 2653:-0.899474 2654:-0.902642 2655:0.622231 2656:0.308337 2657:-0.952362 2658:-0.46334 2659:0.940002 2660:0.915054 2661:0.26864 2662:0.0289871 2663:0.293402 2664:-0.873278 2665:-0.940496 2666:0.650647 2667:0.550695 2668:0.258504 2669:-0.902465 2670:0.958078 2671:-0.143597 2672:-0.414356 2673:0.368519 2674:0.359947 2675:0.819413 2676:0.963294 2677:-0.723931 2678:-0.899474 2679:-0.902642 2680:0.622231 2681:0.308337 2682:-0.952362 2683:-0.46334 2684:0.940002 2685:0.915054 2686:0.26864 2687:0.0289871 2688:0.293402 2689:-0.873278 2690:-0.940496 2691:0.650647 2692:0.550695 2693:0.258504 2694:-0.902465 2695:0.958078 2696:-0.143597 2697:-0.414356 2698:0.368519 2699:0.359947 2700:0.819413 2701:1 2702:0.04816 2703:-0.00844772 2704:1 2705:-0.98921 2706:-0.784525 2707:0.774051 2708:-1 2709:0.486083 2710:0.743437 2711:-0.0979399 2712:0.88581 2713:0.615985 2714:0.564005 2715:0.0430642 2716:0.235069 2717:-0.422841 2718:-0.443805 2719:-0.0637591 2720:-0.722416 2721:-0.734311 2722:-0.572332 2723:0.390969 2724:-0.551327 2725:-0.183287 2726:1 2727:0.04816 2728:-0.00844772 2729:1 2730:-0.98921 2731:-0.784525 2732:0.774051 2733:-1 2734:0.486083 2735:0.743437 2736:-0.0979399 2737:0.88581 2738:0.615985 2739:0.564005 2740:0.0430642 2741:0.235069 2742:-0.422841 2743:-0.443805 2744:-0.0637591 2745:-0.722416 2746:-0.734311 2747:-0.572332 2748:0.390969 2749:-0.551327 2750:-0.183287 2751:-1 2752:-0.48097 2753:-0.282235 2754:1 2755:0.196916 2756:0.60494 2757:-0.122348 2758:0.187705 2759:-0.180128 2760:-0.641467 2761:0.263323 2762:0.773763 2763:-0.000145229 2764:-0.0866839 2765:-0.159331 2766:0.302815 2767:-0.175364 2768:0.0413715 2769:0.266229 2770:-0.24174 2771:-0.408509 2772:0.808215 2773:0.585424 2774:-0.137403 2775:-0.0878298 2776:-1 2777:-0.48097 2778:-0.282235 2779:1 2780:0.196916 2781:0.60494 2782:-0.122348 2783:0.187705 2784:-0.180128 2785:-0.641467 2786:0.263323 2787:0.773763 2788:-0.000145229 2789:-0.0866839 2790:-0.159331 2791:0.302815 2792:-0.175364 2793:0.0413715 2794:0.266229 2795:-0.24174 2796:-0.408509 2797:0.808215 2798:0.585424 2799:-0.137403 2800:-0.0878298 2801:0.942688 2802:0.119169 2803:-0.914347 2804:-0.883132 2805:-0.0642771 2806:0.12606 2807:-0.808344 2808:-0.252811 2809:-0.502205 2810:0.91244 2811:-0.964021 2812:0.672168 2813:0.535863 2814:0.673402 2815:0.601974 2816:0.342377 2817:0.844837 2818:-0.61748 2819:-0.35337 2820:-0.268802 2821:0.459243 2822:0.829595 2823:0.236708 2824:0.00115659 2825:0.241468 2826:0.942688 2827:0.119169 2828:-0.914347 2829:-0.883132 2830:-0.0642771 2831:0.12606 2832:-0.808344 2833:-0.252811 2834:-0.502205 2835:0.91244 2836:-0.964021 2837:0.672168 2838:0.535863 2839:0.673402 2840:0.601974 2841:0.342377 2842:0.844837 2843:-0.61748 2844:-0.35337 2845:-0.268802 2846:0.459243 2847:0.829595 2848:0.236708 2849:0.00115659 2850:0.241468 2851:1 2852:-0.801634 2853:-0.400145 2854:0.162287 2855:-0.76033 2856:-0.127284 2857:-0.0974136 2858:-1 2859:-0.126101 2860:-1 2861:-0.708146 2862:0.553506 2863:-0.790977 2864:-0.00278334 2865:-0.329625 2866:-0.635731 2867:0.113283 2868:0.541482 2869:-0.118842 2870:-0.111505 2871:-0.411285 2872:-1 2873:0.323026 2874:0.144219 2875:-0.424489 2876:1 2877:-0.801634 2878:-0.400145 2879:0.162287 2880:-0.76033 2881:-0.127284 2882:-0.0974136 2883:-1 2884:-0.126101 2885:-1 2886:-0.708146 2887:0.553506 2888:-0.790977 2889:-0.00278334 2890:-0.329625 2891:-0.635731 2892:0.113283 2893:0.541482 2894:-0.118842 2895:-0.111505 2896:-0.411285 2897:-1 2898:0.323026 2899:0.144219 2900:-0.424489 2901:-1 2902:0.272394 2903:-0.100022 2904:1 2905:0.916229 2906:1 2907:0.93405 2908:0.974489 2909:0.328697 2910:0.861734 2911:0.944172 2912:0.938901 2913:-0.855841 2914:-0.447079 2915:0.621697 2916:-0.68877 2917:-0.700504 2918:-0.0701405 2919:-0.0218087 2920:0.183253 2921:0.00952018 2922:0.259484 2923:0.0209341 2924:0.279352 2925:0.815146 2926:-1 2927:0.272394 2928:-0.100022 2929:1 2930:0.916229 2931:1 2932:0.93405 2933:0.974489 2934:0.328697 2935:0.861734 2936:0.944172 2937:0.938901 2938:-0.855841 2939:-0.447079 2940:0.621697 2941:-0.68877 2942:-0.700504 2943:-0.0701405 2944:-0.0218087 2945:0.183253 2946:0.00952018 2947:0.259484 2948:0.0209341 2949:0.279352 2950:0.815146 2951:0.687204 2952:0.220795 2953:0.121115 2954:0.618301 2955:0.00279284 2956:0.556766 2957:-0.381774 2958:-0.518697 2959:0.463296 2960:0.0378039 2961:-0.517576 2962:0.0421573 2963:0.852496 2964:-1 2965:-0.178839 2966:0.802575 2967:-0.498119 2968:0.101951 2969:-0.288129 2970:0.190903 2971:0.238184 2972:-0.669388 2973:-0.786185 2974:-0.706151 2975:-0.885657 2976:0.687204 2977:0.220795 2978:0.121115 2979:0.618301 2980:0.00279284 2981:0.556766 2982:-0.381774 2983:-0.518697 2984:0.463296 2985:0.0378039 2986:-0.517576 2987:0.0421573 2988:0.852496 2989:-1 2990:-0.178839 2991:0.802575 2992:-0.498119 2993:0.101951 2994:-0.288129 2995:0.190903 2996:0.238184 2997:-0.669388 2998:-0.786185 2999:-0.706151 3000:-0.885657 3001:0.02188 3002:-0.541513 3003:0.596379 3004:-0.637049 3005:-0.517884 3006:-0.0868614 3007:0.605555 3008:-0.199229 3009:-0.347999 3010:0.405521 3011:-0.555528 3012:-0.166277 3013:-0.543283 3014:-0.723489 3015:-0.259545 3016:-0.199951 3017:0.0551367 3018:0.421924 3019:-0.788742 3020:-0.632318 3021:0.128375 3022:-0.388543 3023:0.23554 3024:-0.258529 3025:0.126813 3026:0.02188 3027:-0.541513 3028:0.596379 3029:-0.637049 3030:-0.517884 3031:-0.0868614 3032:0.605555 3033:-0.199229 3034:-0.347999 3035:0.405521 3036:-0.555528 3037:-0.166277 3038:-0.543283 3039:-0.723489 3040:-0.259545 3041:-0.199951 3042:0.0551367 3043:0.421924 3044:-0.788742 3045:-0.632318 3046:0.128375 3047:-0.388543 3048:0.23554 3049:-0.258529 3050:0.126813 3051:-1 3052:1 3053:0.706481 3054:-0.374602 3055:0.546673 3056:0.839467 3057:-0.121403 3058:1 3059:-1 3060:0.0703809 3061:0.749366 3062:-0.405585 3063:1 3064:0.08603 3065:0.913003 3066:-0.112753 3067:-0.425403 3068:0.141177 3069:-0.442225 3070:-0.193645 3071:0.207505 3072:-0.584372 3073:0.565167 3074:-0.569422 3075:-0.107614 3076:-0.828729 3077:-0.0755048 3078:-0.324852 3079:0.919513 3080:0.662131 3081:1 3082:-0.167478 3083:-0.808048 3084:0.175287 3085:0.268961 3086:0.756043 3087:1 3088:0.303058 3089:0.613091 3090:0.627679 3091:0.552028 3092:0.108709 3093:0.206276 3094:-0.423923 3095:-0.537179 3096:0.275412 3097:-0.0620216 3098:0.417724 3099:0.29344 3100:-0.396199 3101:-0.828729 3102:-0.0755048 3103:-0.324852 3104:0.919513 3105:0.662131 3106:1 3107:-0.167478 3108:-0.808048 3109:0.175287 3110:0.268961 3111:0.756043 3112:1 3113:0.303058 3114:0.613091 3115:0.627679 3116:0.552028 3117:0.108709 3118:0.206276 3119:-0.423923 3120:-0.537179 3121:0.275412 3122:-0.0620216 3123:0.417724 3124:0.29344 3125:-0.396199 3126:-0.322064 3127:0.0357083 3128:-0.135581 3129:0.751039 3130:0.290077 3131:-0.0750744 3132:0.0606139 3133:-0.192573 3134:-0.50115 3135:-0.123399 3136:0.540608 3137:0.0683915 3138:0.181131 3139:0.160565 3140:-0.520353 3141:0.22522 3142:0.357116 3143:-0.192606 3144:-0.315068 3145:-0.0715304 3146:-0.0454102 3147:0.020311 3148:0.341678 3149:-0.247619 3150:-0.698258 3151:-0.322064 3152:0.0357083 3153:-0.135581 3154:0.751039 3155:0.290077 3156:-0.0750744 3157:0.0606139 3158:-0.192573 3159:-0.50115 3160:-0.123399 3161:0.540608 3162:0.0683915 3163:0.181131 3164:0.160565 3165:-0.520353 3166:0.22522 3167:0.357116 3168:-0.192606 3169:-0.315068 3170:-0.0715304 3171:-0.0454102 3172:0.020311 3173:0.341678 3174:-0.247619 3175:-0.698258 3176:-0.9379 3177:0.831581 3178:-0.645178 3179:0.980103 3180:0.962867 3181:0.996415 3182:0.976408 3183:0.934122 3184:0.962146 3185:-0.650306 3186:-0.0314939 3187:0.388961 3188:0.227483 3189:-0.101721 3190:-0.404188 3191:0.963964 3192:0.608215 3193:0.0302088 3194:0.583111 3195:0.717909 3196:0.706044 3197:-0.838451 3198:-0.295205 3199:-0.393466 3200:-0.360595 
4 1:-0.819518 2:0.349512 3:0.486293 4:0.657833 5:0.50643 6:0.377744 7:0.669381 8:0.744 9:0.190156 10:0.423522 11:0.996468 12:-0.178113 13:-0.553594 14:-0.627405 15:0.452597 16:0.689315 17:-0.184503 18:-0.712292 19:-1 20:-0.0652805 21:1 22:-1 23:1 24:1 25:-0.62219 26:-0.788679 27:-0.142857 28:-0.09499 29:0.648895 30:0.689256 31:0.782477 32:0.78882 33:0.704478 34:0.865794 35:0.445652 36:0.427673 37:0.663265 38:0.0771092 39:0.810743 40:0.486448 41:-0.485411 42:0.555556 43:0.237221 44:-0.432432 45:-0.68349 46:-0.893157 47:-0.189189 48:0.833811 49:0.938957 50:0.0902489 51:-0.788679 52:-0.142857 53:-0.09499 54:0.648895 55:0.689256 56:0.782477 57:0.78882 58:0.704478 59:0.865794 60:0.445652 61:0.427673 62:0.663265 63:0.0771092 64:0.810743 65:0.486448 66:-0.485411 67:0.555556 68:0.237221 69:-0.432432 70:-0.68349 71:-0.893157 72:-0.189189 73:0.833811 74:0.938957 75:0.0902489 76:0.880661 77:0.889037 78:0.322265 79:0.908558 80:0.48139 81:0.507914 82:-0.408394 83:0.844986 84:0.768008 85:0.0932911 86:-0.673702 87:0.526369 88:-0.846705 89:0.797218 90:-0.0682183 91:-0.192447 92:-0.469742 93:0.137585 94:0.96554 95:0.799512 96:0.13991 97:0.637631 98:0.947716 99:0.827952 100:-0.887172 101:-0.979002 102:0.293943 103:-0.529814 104:0.956119 105:0.956094 106:0.994725 107:0.992587 108:0.941647 109:0.969149 110:0.147153 111:-0.0949707 112:-0.214557 113:-0.412684 114:0.931364 115:0.983051 116:0.779845 117:-0.372283 118:0.592189 119:0.498902 120:-0.0118297 121:0.620109 122:-0.378858 123:0.539187 124:0.792124 125:0.208095 126:0.999445 127:-0.393937 128:-0.99948 129:-0.890411 130:0.0315667 131:0.52229 132:-0.729922 133:-0.961358 134:0.81478 135:0.827237 136:-0.671531 137:0.430123 138:0.130394 139:0.966017 140:0.312699 141:-0.54555 142:0.361574 143:-0.120075 144:-0.811829 145:0.508175 146:0.324833 147:-0.659267 148:0.964805 149:0.810388 150:-0.336951 151:0.999445 152:-0.393937 153:-0.99948 154:-0.890411 155:0.0315667 156:0.52229 157:-0.729922 158:-0.961358 159:0.81478 160:0.827237 161:-0.671531 162:0.430123 163:0.130394 164:0.966017 165:0.312699 166:-0.54555 167:0.361574 168:-0.120075 169:-0.811829 170:0.508175 171:0.324833 172:-0.659267 173:0.964805 174:0.810388 175:-0.336951 176:-0.974194 177:0.942636 178:0.852391 179:0.993452 180:0.985843 181:0.806127 182:0.983397 183:0.922829 184:0.915358 185:0.886065 186:0.994419 187:0.796649 188:-0.829058 189:-0.715057 190:0.971131 191:-0.849404 192:-0.954619 193:-0.993376 194:-0.692529 195:-0.639282 196:0.95526 197:0.76791 198:0.874122 199:-0.981905 200:0.984682 201:0.966584 202:0.8147 203:-0.964503 204:-0.936445 205:-0.127193 206:0.736944 207:-0.684105 208:-0.912276 209:-0.881045 210:-0.281644 211:-0.977784 212:0.77675 213:0.378655 214:-0.747639 215:-0.458224 216:-0.985668 217:0.590045 218:1 219:0.59166 220:-0.838085 221:-0.735909 222:-0.0328685 223:-0.542714 224:0.867681 225:0.889936 226:0.277234 227:0.926882 228:0.88914 229:0.956538 230:0.915764 231:-0.117673 232:0.624034 233:0.762535 234:0.842871 235:0.375372 236:-0.486499 237:0.101071 238:-0.912079 239:-0.574164 240:-0.168886 241:0.928531 242:-0.304174 243:0.811028 244:-0.391407 245:0.426569 246:-0.614464 247:0.154464 248:0.934387 249:-0.480158 250:-0.908467 251:-0.0442336 252:1 253:0.227186 254:0.697053 255:1 256:-0.958734 257:-1 258:0.117465 259:-0.359514 260:-1 261:-0.233521 262:0.191912 263:1 264:-0.161296 265:-0.869479 266:0.444047 267:-0.312356 268:-1 269:0.144683 270:-0.364894 271:-1 272:-0.236829 273:-0.129749 274:-0.544887 275:0.474735 276:0.999717 277:-0.0930384 278:-0.946266 279:-1 280:0.371742 281:0.779531 282:-0.970809 283:-0.870476 284:0.527909 285:0.0261445 286:-0.856189 287:0.441958 288:-0.107558 289:0.6789 290:0.374072 291:0.627515 292:-0.673594 293:0.677491 294:0.0902051 295:0.519911 296:0.174235 297:0.830912 298:0.753622 299:0.0544344 300:0.0419047 301:0.999717 302:-0.0930384 303:-0.946266 304:-1 305:0.371742 306:0.779531 307:-0.970809 308:-0.870476 309:0.527909 310:0.0261445 311:-0.856189 312:0.441958 313:-0.107558 314:0.6789 315:0.374072 316:0.627515 317:-0.673594 318:0.677491 319:0.0902051 320:0.519911 321:0.174235 322:0.830912 323:0.753622 324:0.0544344 325:0.0419047 326:0.0723503 327:-1 328:1 329:0.111805 330:-1 331:-1 332:-1 333:0.189115 334:1 335:-1 336:1 337:1 338:-0.321926 339:-0.229097 340:1 341:0.862841 342:1 343:0.649885 344:-1 345:1 346:1 347:-1 348:1 349:0.473542 350:1 351:-0.507111 352:-1 353:1 354:-0.039723 355:-0.539207 356:-0.0686966 357:-1 358:-0.254689 359:1 360:-1 361:1 362:0.891231 363:-1 364:-0.0661638 365:1 366:-0.196859 367:1 368:-0.101822 369:-1 370:-0.111071 371:1 372:-1 373:-0.064959 374:-0.566061 375:0.104847 376:-0.507111 377:-1 378:1 379:-0.039723 380:-0.539207 381:-0.0686966 382:-1 383:-0.254689 384:1 385:-1 386:1 387:0.891231 388:-1 389:-0.0661638 390:1 391:-0.196859 392:1 393:-0.101822 394:-1 395:-0.111071 396:1 397:-1 398:-0.064959 399:-0.566061 400:0.104847 401:0.870591 402:0.734934 403:0.314706 404:0.620031 405:0.0412601 406:-0.509403 407:0.0455796 408:-0.071811 409:-0.270575 410:-1 411:0.037628 412:0.134513 413:-0.154721 414:0.11376 415:0.251564 416:-0.425874 417:-0.0862943 418:0.779985 419:-0.205123 420:0.852492 421:0.601491 422:-0.226208 423:0.774725 424:-0.55075 425:-0.666935 426:0.696034 427:0.889288 428:0.91574 429:0.970069 430:-0.649785 431:-0.929943 432:0.770572 433:0.677508 434:0.731866 435:0.215688 436:-0.776228 437:0.840468 438:0.0126554 439:0.933765 440:0.791739 441:0.701312 442:0.0770985 443:0.181986 444:-0.715953 445:-0.430759 446:-0.840775 447:-0.512546 448:0.922993 449:-0.762705 450:-0.935451 451:0.0427817 452:0.290939 453:-0.1077 454:0.859991 455:0.708363 456:0.189919 457:0.268165 458:0.0562028 459:0.965796 460:0.655904 461:-0.226716 462:-0.587817 463:0.468715 464:0.257914 465:0.177676 466:-0.00500001 467:0.3985 468:-0.651933 469:-0.844658 470:-0.319069 471:1 472:-0.337902 473:-0.443126 474:0.181192 475:0.130338 476:-0.297624 477:-0.0536861 478:-0.89569 479:1 480:-0.493121 481:0.451048 482:1 483:-0.407321 484:0.991416 485:0.928734 486:0.92479 487:-0.756494 488:-1 489:-0.993578 490:-0.947083 491:0.995045 492:-0.553523 493:0.979869 494:0.519703 495:-0.233633 496:0.640472 497:0.737531 498:0.996274 499:-0.596158 500:0.454269 501:-0.066556 502:-0.992829 503:0.994217 504:0.879957 505:-0.988828 506:-0.99539 507:0.800345 508:0.974435 509:-0.699613 510:0.29649 511:-0.278658 512:0.951352 513:-0.776551 514:0.877323 515:0.923516 516:-0.791103 517:-0.812385 518:0.895512 519:0.992782 520:-0.808084 521:0.838954 522:0.839134 523:-0.129162 524:0.513185 525:-0.922938 526:-1 527:0.930148 528:-1 529:1 530:-0.0919652 531:0.553304 532:1 533:-0.994497 534:0.987753 535:0.995564 536:0.876733 537:0.849909 538:-0.0419708 539:0.419428 540:-1 541:-0.411361 542:-0.184623 543:-0.444094 544:0.162405 545:-0.822912 546:-0.866883 547:0.151632 548:-0.768203 549:0.0739143 550:-0.345662 551:0.275895 552:1 553:0.881393 554:0.602772 555:0.398195 556:-0.297511 557:-0.622036 558:-0.399838 559:-0.510219 560:0.110398 561:0.173522 562:0.84491 563:-0.13783 564:0.848906 565:-0.28434 566:-0.287866 567:-0.640164 568:0.661684 569:-0.232012 570:0.272398 571:-0.0138596 572:0.00659034 573:1 574:0.727316 575:0.75618 576:0.275895 577:1 578:0.881393 579:0.602772 580:0.398195 581:-0.297511 582:-0.622036 583:-0.399838 584:-0.510219 585:0.110398 586:0.173522 587:0.84491 588:-0.13783 589:0.848906 590:-0.28434 591:-0.287866 592:-0.640164 593:0.661684 594:-0.232012 595:0.272398 596:-0.0138596 597:0.00659034 598:1 599:0.727316 600:0.75618 601:-0.902974 602:1 603:-0.733235 604:-1 605:0.755141 606:0.586031 607:-0.484637 608:1 609:0.759512 610:-1 611:1 612:-0.420863 613:-0.875814 614:0.478598 615:-0.626434 616:0.0972876 617:0.256286 618:0.0934912 619:-0.438678 620:-0.497911 621:-0.763115 622:-0.321805 623:-1 624:-0.0863687 625:0.00554348 626:0.98684 627:-0.990475 628:-0.978155 629:-0.507598 630:0.388577 631:0.638786 632:0.811529 633:0.971329 634:-0.369767 635:-0.777601 636:-0.893996 637:0.874642 638:-0.311148 639:0.86855 640:-0.476252 641:0.626741 642:0.899117 643:0.606508 644:0.103657 645:-0.503998 646:0.407352 647:0.629447 648:0.511527 649:-0.300909 650:-0.989117 651:0.98684 652:-0.990475 653:-0.978155 654:-0.507598 655:0.388577 656:0.638786 657:0.811529 658:0.971329 659:-0.369767 660:-0.777601 661:-0.893996 662:0.874642 663:-0.311148 664:0.86855 665:-0.476252 666:0.626741 667:0.899117 668:0.606508 669:0.103657 670:-0.503998 671:0.407352 672:0.629447 673:0.511527 674:-0.300909 675:-0.989117 676:-0.796231 677:0.235216 678:-0.348678 679:0.763506 680:0.791748 681:0.83354 682:0.854061 683:0.855183 684:0.376961 685:0.503906 686:0.561472 687:0.614125 688:-0.650164 689:-0.267774 690:-0.0278007 691:-0.445374 692:-0.131862 693:-0.0987964 694:-0.436644 695:-0.904195 696:-0.0214387 697:-0.239685 698:-0.438558 699:-0.244111 700:0.281772 701:-0.796231 702:0.235216 703:-0.348678 704:0.763506 705:0.791748 706:0.83354 707:0.854061 708:0.855183 709:0.376961 710:0.503906 711:0.561472 712:0.614125 713:-0.650164 714:-0.267774 715:-0.0278007 716:-0.445374 717:-0.131862 718:-0.0987964 719:-0.436644 720:-0.904195 721:-0.0214387 722:-0.239685 723:-0.438558 724:-0.244111 725:0.281772 726:-0.736669 727:-0.335392 728:0.270616 729:0.601081 730:0.672964 731:0.823341 732:0.859042 733:0.181107 734:-0.803937 735:0.169263 736:0.764268 737:-0.365172 738:-0.646056 739:-0.545745 740:-0.169767 741:-0.0708121 742:0.717206 743:-0.2168 744:-0.771447 745:-0.0337539 746:0.751464 747:0.545278 748:-0.86932 749:-0.349619 750:-0.142997 751:-0.622524 752:-0.484517 753:0.9331 754:0.43254 755:0.536594 756:-0.396381 757:0.333365 758:-0.0192068 759:-0.408795 760:-0.32099 761:0.685659 762:0.316489 763:-0.762867 764:-0.391111 765:-0.281502 766:-0.257159 767:-0.0257822 768:0.561798 769:-0.194636 770:0.726876 771:1 772:-0.245681 773:0.205628 774:0.290691 775:0.384456 776:-0.622524 777:-0.484517 778:0.9331 779:0.43254 780:0.536594 781:-0.396381 782:0.333365 783:-0.0192068 784:-0.408795 785:-0.32099 786:0.685659 787:0.316489 788:-0.762867 789:-0.391111 790:-0.281502 791:-0.257159 792:-0.0257822 793:0.561798 794:-0.194636 795:0.726876 796:1 797:-0.245681 798:0.205628 799:0.290691 800:0.384456 801:0.998734 802:-0.790071 803:-0.862668 804:-0.558698 805:-0.922114 806:-0.987322 807:-0.959842 808:0.839109 809:0.640557 810:-0.232928 811:-0.885313 812:0.526993 813:-0.348429 814:0.301297 815:-0.886853 816:-0.986057 817:0.520446 818:0.781312 819:-0.280105 820:0.300567 821:0.894874 822:0.416181 823:-0.456847 824:0.536577 825:-0.173208 826:0.979202 827:-0.449756 828:-0.731094 829:0.78308 830:-0.731737 831:-0.403434 832:-0.87001 833:0.44488 834:0.84339 835:0.85282 836:-0.6452 837:0.135174 838:-0.568373 839:0.284122 840:0.644084 841:-0.610575 842:0.886664 843:-0.382265 844:0.381808 845:0.615957 846:-0.92837 847:-0.726297 848:0.482179 849:-0.63078 850:-0.919232 851:-0.84411 852:-0.991972 853:-0.792986 854:0.780029 855:0.77453 856:0.328975 857:0.956551 858:0.797459 859:0.376493 860:-0.581782 861:0.744479 862:-0.425693 863:0.633151 864:0.435826 865:0.505867 866:-0.893889 867:-0.750423 868:0.470015 869:0.619936 870:0.695286 871:0.780848 872:-0.528303 873:0.137095 874:0.305891 875:0.991039 876:0.77123 877:-0.713879 878:0.395109 879:-0.592141 880:-0.619127 881:-0.4415 882:0.0015879 883:0.21628 884:0.787074 885:0.495733 886:-0.827222 887:0.42498 888:0.466902 889:-0.107818 890:0.175331 891:0.539653 892:-0.186275 893:-0.485629 894:-0.229197 895:-0.112978 896:-0.412582 897:-0.372674 898:0.497167 899:0.369005 900:0.0603984 901:-0.585338 902:0.847459 903:-0.574715 904:0.32859 905:-0.0181145 906:1 907:-1 908:-0.503645 909:-0.384914 910:-1 911:1 912:-0.344468 913:0.0420814 914:-0.411561 915:-0.29261 916:-0.0866098 917:-0.652465 918:-1 919:-0.121871 920:-1 921:-1 922:0.813685 923:0.00166564 924:-0.0381777 925:0.992681 926:0.546561 927:0.998367 928:0.997347 929:0.999891 930:-0.934214 931:-0.828827 932:0.990507 933:-0.625398 934:0.130382 935:0.311174 936:-0.399138 937:0.610671 938:-0.996908 939:-0.678051 940:-0.30239 941:0.990719 942:0.874515 943:0.842531 944:0.998365 945:0.0732469 946:0.127791 947:0.321676 948:0.793704 949:0.312465 950:-0.511975 951:0.512407 952:1 953:-0.262715 954:-0.425749 955:0.0145755 956:1 957:-1 958:1 959:-0.606286 960:-1 961:1 962:-1 963:-1 964:-1 965:-0.957162 966:1 967:0.158119 968:1 969:0.370448 970:0.979053 971:0.49248 972:-1 973:1 974:-1 975:-0.0524271 976:-0.762592 977:0.924112 978:-0.477224 979:0.737173 980:0.623393 981:0.809495 982:0.788688 983:0.0793987 984:0.632829 985:0.39568 986:0.853941 987:0.28042 988:-0.146524 989:0.0128226 990:0.189872 991:0.135614 992:-0.200582 993:-0.170399 994:-0.627959 995:-0.503451 996:0.0189627 997:-0.600178 998:0.0534334 999:0.46432 1000:-0.223693 1001:0.200181 1002:0.398522 1003:0.975713 1004:-0.933328 1005:-0.961935 1006:-0.945813 1007:-0.668415 1008:-0.672724 1009:-0.963181 1010:-0.288364 1011:-0.658426 1012:0.114341 1013:-0.501419 1014:-0.71555 1015:0.701543 1016:-0.817332 1017:-0.0427279 1018:0.446969 1019:0.286757 1020:-0.112107 1021:-0.0883067 1022:0.573091 1023:-0.0866787 1024:-0.171956 1025:0.929481 1026:0.148503 1027:0.930419 1028:-0.269358 1029:0.638 1030:0.60569 1031:-0.704658 1032:0.373827 1033:0.0227263 1034:0.664241 1035:0.0753503 1036:-1 1037:-0.262538 1038:0.707541 1039:-0.447502 1040:0.367633 1041:-0.561605 1042:-0.43738 1043:0.217769 1044:-0.71868 1045:-0.405985 1046:0.772377 1047:0.736297 1048:-0.655347 1049:-0.328036 1050:0.658098 1051:0.514317 1052:-0.962217 1053:0.252545 1054:-0.94976 1055:-0.817356 1056:-0.745733 1057:0.41761 1058:0.475353 1059:-0.858487 1060:-0.956413 1061:-0.799498 1062:0.237903 1063:-0.350522 1064:0.928333 1065:0.505484 1066:-0.18993 1067:-0.778825 1068:-0.391877 1069:0.322061 1070:-0.435645 1071:0.31869 1072:0.830074 1073:0.711991 1074:-0.115738 1075:-0.229333 1076:-0.531331 1077:-0.543735 1078:0.372494 1079:0.544988 1080:0.772794 1081:0.240898 1082:0.759799 1083:-0.17628 1084:0.322651 1085:0.52269 1086:0.427491 1087:0.300999 1088:-0.0894281 1089:0.776799 1090:-0.785138 1091:0.138351 1092:0.629177 1093:0.277621 1094:-0.182313 1095:0.219894 1096:0.623902 1097:0.0389128 1098:-0.411657 1099:0.266416 1100:0.0809889 1101:-0.996499 1102:0.38797 1103:-0.695144 1104:0.99835 1105:0.997825 1106:-0.31475 1107:0.905123 1108:-0.653945 1109:0.827094 1110:0.439221 1111:-0.014694 1112:0.522518 1113:-0.196243 1114:-0.568337 1115:-0.703505 1116:0.578616 1117:-0.608984 1118:-0.657957 1119:0.822566 1120:-0.323837 1121:-0.00748178 1122:0.665209 1123:0.114593 1124:0.496679 1125:0.997326 1126:-0.946024 1127:0.318654 1128:-0.27933 1129:0.986368 1130:0.641108 1131:0.629215 1132:0.918187 1133:-0.0767937 1134:0.946601 1135:0.0428668 1136:0.996743 1137:-0.46815 1138:-0.705021 1139:-0.180105 1140:0.964157 1141:0.109011 1142:0.937422 1143:0.948361 1144:-0.47046 1145:-0.380873 1146:-0.239705 1147:-0.814883 1148:0.758767 1149:0.0568317 1150:-0.954548 1151:0.988932 1152:-1 1153:-1 1154:-0.984263 1155:-0.763152 1156:-0.506497 1157:0.00985 1158:0.373415 1159:0.692371 1160:-0.0333413 1161:-0.739082 1162:-0.327427 1163:-0.781734 1164:-0.152614 1165:0.00913386 1166:0.0393457 1167:0.158269 1168:-0.155479 1169:0.457731 1170:0.189771 1171:0.286228 1172:0.440072 1173:-0.423113 1174:0.146465 1175:-0.160256 1176:0.988932 1177:-1 1178:-1 1179:-0.984263 1180:-0.763152 1181:-0.506497 1182:0.00985 1183:0.373415 1184:0.692371 1185:-0.0333413 1186:-0.739082 1187:-0.327427 1188:-0.781734 1189:-0.152614 1190:0.00913386 1191:0.0393457 1192:0.158269 1193:-0.155479 1194:0.457731 1195:0.189771 1196:0.286228 1197:0.440072 1198:-0.423113 1199:0.146465 1200:-0.160256 1201:-0.897213 1202:-0.538218 1203:-0.649009 1204:0.970111 1205:0.994966 1206:1 1207:0.884729 1208:-0.189765 1209:-0.529546 1210:0.583316 1211:1 1212:0.91373 1213:0.948554 1214:0.942224 1215:0.854416 1216:-0.563796 1217:0.737048 1218:0.35436 1219:0.029969 1220:0.145251 1221:-0.682248 1222:-0.238788 1223:0.705679 1224:0.605224 1225:0.274664 1226:-0.402475 1227:-1 1228:-0.624328 1229:-0.0744167 1230:0.562143 1231:0.433026 1232:0.79842 1233:1 1234:1 1235:1 1236:-0.142943 1237:0.120091 1238:1 1239:-0.124055 1240:0.560419 1241:-1 1242:-0.165096 1243:0.918613 1244:-0.877807 1245:0.93729 1246:-0.265769 1247:0.0328926 1248:0.116713 1249:-0.137026 1250:-0.366736 1251:-0.402475 1252:-1 1253:-0.624328 1254:-0.0744167 1255:0.562143 1256:0.433026 1257:0.79842 1258:1 1259:1 1260:1 1261:-0.142943 1262:0.120091 1263:1 1264:-0.124055 1265:0.560419 1266:-1 1267:-0.165096 1268:0.918613 1269:-0.877807 1270:0.93729 1271:-0.265769 1272:0.0328926 1273:0.116713 1274:-0.137026 1275:-0.366736 1276:0.995344 1277:-0.756457 1278:-0.836068 1279:-0.99553 1280:0.475253 1281:0.998089 1282:-0.993854 1283:-0.957331 1284:-0.788351 1285:-0.555655 1286:-0.146544 1287:0.568188 1288:0.616754 1289:-0.140691 1290:-0.17949 1291:-0.592301 1292:-0.708735 1293:0.434098 1294:-0.336477 1295:-0.0360835 1296:-0.151094 1297:0.689513 1298:0.931522 1299:-0.66748 1300:0.785181 1301:0.995344 1302:-0.756457 1303:-0.836068 1304:-0.99553 1305:0.475253 1306:0.998089 1307:-0.993854 1308:-0.957331 1309:-0.788351 1310:-0.555655 1311:-0.146544 1312:0.568188 1313:0.616754 1314:-0.140691 1315:-0.17949 1316:-0.592301 1317:-0.708735 1318:0.434098 1319:-0.336477 1320:-0.0360835 1321:-0.151094 1322:0.689513 1323:0.931522 1324:-0.66748 1325:0.785181 1326:0.431396 1327:-0.904314 1328:-0.530957 1329:-1 1330:-0.668406 1331:0.875607 1332:1 1333:-0.265907 1334:0.826934 1335:1 1336:-1 1337:0.0364162 1338:-0.771894 1339:-1 1340:-0.278366 1341:-1 1342:-0.900086 1343:-1 1344:-1 1345:-0.769025 1346:0.805825 1347:-0.330643 1348:-0.63989 1349:-0.044748 1350:0.285471 1351:0.431396 1352:-0.904314 1353:-0.530957 1354:-1 1355:-0.668406 1356:0.875607 1357:1 1358:-0.265907 1359:0.826934 1360:1 1361:-1 1362:0.0364162 1363:-0.771894 1364:-1 1365:-0.278366 1366:-1 1367:-0.900086 1368:-1 1369:-1 1370:-0.769025 1371:0.805825 1372:-0.330643 1373:-0.63989 1374:-0.044748 1375:0.285471 1376:0.987083 1377:-1 1378:-0.996885 1379:-0.990753 1380:-0.118158 1381:0.524342 1382:-0.180511 1383:0.160627 1384:0.903588 1385:0.195887 1386:-0.882129 1387:-0.898073 1388:0.102539 1389:-0.655783 1390:-0.433271 1391:0.483641 1392:0.275769 1393:-0.0999891 1394:0.377044 1395:0.518192 1396:0.0375312 1397:0.561502 1398:-0.308514 1399:-0.749934 1400:-0.489792 1401:0.987083 1402:-1 1403:-0.996885 1404:-0.990753 1405:-0.118158 1406:0.524342 1407:-0.180511 1408:0.160627 1409:0.903588 1410:0.195887 1411:-0.882129 1412:-0.898073 1413:0.102539 1414:-0.655783 1415:-0.433271 1416:0.483641 1417:0.275769 1418:-0.0999891 1419:0.377044 1420:0.518192 1421:0.0375312 1422:0.561502 1423:-0.308514 1424:-0.749934 1425:-0.489792 1426:-0.0865543 1427:-0.799979 1428:0.776118 1429:-0.522088 1430:-0.43819 1431:-0.770312 1432:-0.176181 1433:-0.230134 1434:-0.650481 1435:0.276841 1436:-0.334734 1437:0.24635 1438:0.479583 1439:-0.107794 1440:-0.267099 1441:0.206769 1442:-0.00328768 1443:0.408141 1444:-0.263811 1445:-0.393951 1446:0.352699 1447:0.326392 1448:0.114739 1449:-0.138842 1450:-0.388164 1451:-0.0865543 1452:-0.799979 1453:0.776118 1454:-0.522088 1455:-0.43819 1456:-0.770312 1457:-0.176181 1458:-0.230134 1459:-0.650481 1460:0.276841 1461:-0.334734 1462:0.24635 1463:0.479583 1464:-0.107794 1465:-0.267099 1466:0.206769 1467:-0.00328768 1468:0.408141 1469:-0.263811 1470:-0.393951 1471:0.352699 1472:0.326392 1473:0.114739 1474:-0.138842 1475:-0.388164 1476:0.349452 1477:-0.939932 1478:-0.0397111 1479:-0.366558 1480:0.149372 1481:0.145153 1482:0.800993 1483:0.0380986 1484:-0.567246 1485:-0.191371 1486:-0.308284 1487:-1 1488:-0.95 1489:-1 1490:-1 1491:-0.500172 1492:0.601 1493:0.788186 1494:0.623656 1495:-0.111336 1496:-0.977732 1497:0.336934 1498:1 1499:0.434293 1500:0.293589 1501:0.349452 1502:-0.939932 1503:-0.0397111 1504:-0.366558 1505:0.149372 1506:0.145153 1507:0.800993 1508:0.0380986 1509:-0.567246 1510:-0.191371 1511:-0.308284 1512:-1 1513:-0.95 1514:-1 1515:-1 1516:-0.500172 1517:0.601 1518:0.788186 1519:0.623656 1520:-0.111336 1521:-0.977732 1522:0.336934 1523:1 1524:0.434293 1525:0.293589 1526:-0.958048 1527:0.893545 1528:0.316231 1529:0.980732 1530:-0.417992 1531:0.94436 1532:0.7004 1533:0.720105 1534:0.143046 1535:0.948753 1536:0.963868 1537:0.398045 1538:-0.977363 1539:-0.637491 1540:-0.938902 1541:0.339774 1542:-0.266333 1543:-0.143938 1544:-0.615239 1545:-0.0157866 1546:-0.537852 1547:0.0160976 1548:-0.0518778 1549:0.658428 1550:0.900015 1551:-0.240892 1552:0.133322 1553:0.351842 1554:-0.387118 1555:-0.0992289 1556:-0.154454 1557:-0.26509 1558:-0.44518 1559:-0.0238567 1560:0.537291 1561:-0.882827 1562:0.278329 1563:0.529402 1564:0.419868 1565:-1 1566:-0.194749 1567:-0.753387 1568:-1 1569:0.10365 1570:0.0638964 1571:0.305313 1572:0.257757 1573:0.0546033 1574:0.170995 1575:0.470535 1576:-0.240892 1577:0.133322 1578:0.351842 1579:-0.387118 1580:-0.0992289 1581:-0.154454 1582:-0.26509 1583:-0.44518 1584:-0.0238567 1585:0.537291 1586:-0.882827 1587:0.278329 1588:0.529402 1589:0.419868 1590:-1 1591:-0.194749 1592:-0.753387 1593:-1 1594:0.10365 1595:0.0638964 1596:0.305313 1597:0.257757 1598:0.0546033 1599:0.170995 1600:0.470535 1601:0.0949963 1602:0.899657 1603:0.645575 1604:0.496949 1605:0.594482 1606:-0.775834 1607:-0.673836 1608:-0.383112 1609:-0.211073 1610:-0.761057 1611:-0.424867 1612:0.153974 1613:0.712684 1614:-0.125891 1615:-0.689272 1616:0.673678 1617:0.438621 1618:0.0197223 1619:-0.397493 1620:-0.575086 1621:-0.938464 1622:-0.23461 1623:0.51449 1624:0.514752 1625:0.45592 1626:0.990533 1627:-0.976777 1628:-0.941684 1629:-0.877659 1630:-0.802913 1631:-0.992243 1632:-0.991667 1633:0.981006 1634:0.965535 1635:-0.643756 1636:-0.86196 1637:0.40612 1638:-0.567825 1639:0.911616 1640:0.877534 1641:-0.429981 1642:0.891693 1643:-0.679757 1644:-0.063153 1645:0.663285 1646:-0.229263 1647:-0.852577 1648:0.726591 1649:0.820528 1650:-0.9383 1651:0.981309 1652:0.383651 1653:-0.936948 1654:-0.372187 1655:0.801115 1656:0.781214 1657:-0.967413 1658:-0.663784 1659:-0.232953 1660:0.900207 1661:-0.679476 1662:-0.160066 1663:-0.908963 1664:0.957724 1665:-0.0336626 1666:-0.680838 1667:-0.614107 1668:-0.791768 1669:0.97766 1670:-0.0455074 1671:-0.555916 1672:0.814099 1673:0.654656 1674:0.803748 1675:-0.982207 1676:0.156556 1677:0.138598 1678:-0.751188 1679:0.747513 1680:0.339131 1681:0.560649 1682:0.860003 1683:0.582864 1684:-0.184235 1685:-0.859496 1686:-0.902415 1687:0.895383 1688:0.932008 1689:0.00334261 1690:0.594368 1691:-0.679559 1692:-0.804977 1693:-0.911228 1694:-0.369717 1695:-0.35229 1696:-0.438834 1697:-0.862842 1698:-0.663453 1699:-0.368943 1700:0.960172 1701:0.994702 1702:-0.950162 1703:-0.967098 1704:-0.653004 1705:-0.0609267 1706:-0.93175 1707:0.496449 1708:-0.20786 1709:-0.913768 1710:-0.985037 1711:-0.972107 1712:-0.191314 1713:0.958151 1714:-0.663479 1715:-0.0700974 1716:-0.881647 1717:0.00340175 1718:-0.867651 1719:-0.952634 1720:-0.2728 1721:0.773131 1722:-0.995334 1723:-0.974177 1724:0.91637 1725:0.945828 1726:0.975945 1727:0.0437377 1728:-0.748998 1729:-0.121096 1730:-0.482329 1731:-0.244242 1732:-0.824775 1733:-0.928269 1734:0.94101 1735:0.613071 1736:-0.780881 1737:-0.763535 1738:0.87518 1739:-0.559989 1740:-0.460753 1741:-0.900979 1742:-0.488461 1743:0.73779 1744:-0.791395 1745:0.565231 1746:0.820471 1747:0.505038 1748:-0.682685 1749:0.68288 1750:-0.571587 1751:0.449831 1752:1 1753:-0.505549 1754:0.643668 1755:-0.126374 1756:-0.773853 1757:0.016532 1758:1 1759:0.0770179 1760:-1 1761:0.711799 1762:0.404749 1763:0.317656 1764:0.238101 1765:0.273265 1766:0.116549 1767:-1 1768:1 1769:-0.365865 1770:-0.252843 1771:0.193988 1772:-0.196958 1773:0.933018 1774:-1 1775:-1 1776:0.880674 1777:-0.621804 1778:0.79594 1779:-0.992073 1780:-0.881909 1781:-0.925454 1782:0.213164 1783:0.652653 1784:0.362023 1785:0.632008 1786:-0.652291 1787:-0.0876628 1788:0.119554 1789:-0.5467 1790:0.0620439 1791:0.524231 1792:0.250356 1793:-0.512836 1794:-0.761568 1795:0.720911 1796:-0.333195 1797:-0.549506 1798:-0.227567 1799:0.131301 1800:0.384135 1801:-0.815584 1802:0.351629 1803:-0.0774247 1804:0.983696 1805:0.66661 1806:0.189655 1807:0.977561 1808:0.725344 1809:0.284925 1810:-0.547013 1811:0.866404 1812:0.826748 1813:0.703966 1814:-0.764238 1815:0.476849 1816:-0.0554808 1817:0.0100292 1818:-0.94206 1819:-0.560493 1820:-0.512143 1821:0.00608014 1822:-0.592796 1823:-0.850316 1824:-0.567648 1825:0.970111 1826:0.879173 1827:-0.779347 1828:0.693177 1829:0.541534 1830:-0.596815 1831:-0.910069 1832:-0.532908 1833:0.105235 1834:0.67362 1835:0.208014 1836:-0.8116 1837:0.444985 1838:-0.0831983 1839:0.85556 1840:-0.131844 1841:-0.349554 1842:-0.45009 1843:-0.418485 1844:0.0359 1845:-0.734823 1846:-0.347284 1847:0.395929 1848:-0.0348037 1849:0.117229 1850:-0.910474 1851:0.266331 1852:-0.0606014 1853:0.834522 1854:-0.185197 1855:-0.962568 1856:-0.559327 1857:-0.465289 1858:0.312524 1859:0.371444 1860:0.672629 1861:-0.835792 1862:-0.654414 1863:0.457071 1864:-0.599846 1865:-0.213653 1866:-0.915777 1867:-0.644543 1868:0.44086 1869:-0.0681907 1870:-0.0600598 1871:0.877212 1872:-0.0797465 1873:-0.595902 1874:-0.308147 1875:0.267725 1876:-0.469537 1877:-0.336869 1878:-0.0332338 1879:-0.109853 1880:0.438811 1881:-0.426607 1882:0.501999 1883:0.0838526 1884:0.592283 1885:0.824347 1886:0.24594 1887:0.158801 1888:0.725147 1889:0.385184 1890:0.855215 1891:0.026132 1892:-0.290486 1893:0.0718709 1894:-0.32863 1895:-0.0113469 1896:-0.212835 1897:-0.865007 1898:0.354194 1899:0.221102 1900:0.41193 1901:-0.197329 1902:-0.538197 1903:-0.441286 1904:0.63535 1905:-0.108436 1906:0.158621 1907:-1 1908:0.498173 1909:1 1910:-0.973437 1911:0.766591 1912:-1 1913:-1 1914:0.530288 1915:-0.852571 1916:0.217085 1917:1 1918:-0.408997 1919:0.0769706 1920:-1 1921:-1 1922:0.053959 1923:-1 1924:-0.30188 1925:0.379404 1926:-0.929447 1927:0.308138 1928:-0.699428 1929:0.894279 1930:0.309688 1931:0.38237 1932:-0.169645 1933:-0.480984 1934:0.432128 1935:-0.568732 1936:0.282326 1937:-0.250051 1938:0.847791 1939:0.443881 1940:0.651092 1941:-0.00172043 1942:0.702786 1943:-0.561411 1944:-0.710804 1945:-0.42378 1946:-0.672135 1947:-0.636127 1948:-0.317122 1949:0.560887 1950:-0.308737 1951:-0.120466 1952:1 1953:-1 1954:0.249964 1955:0.543428 1956:0.14832 1957:-1 1958:-0.847321 1959:-0.351344 1960:-0.528759 1961:-0.145195 1962:-0.731168 1963:-1 1964:-0.0466721 1965:-0.684487 1966:0.714449 1967:0.829033 1968:-0.942182 1969:0.906722 1970:-0.191152 1971:0.174245 1972:1 1973:-0.264697 1974:-0.81406 1975:1 1976:-1 1977:0.0450761 1978:-0.999418 1979:0.999954 1980:0.997582 1981:-0.118407 1982:0.996041 1983:-0.638411 1984:0.997653 1985:0.982764 1986:-0.0779088 1987:0.640667 1988:1 1989:0.666669 1990:0.934049 1991:-0.999679 1992:-0.0273007 1993:-0.585426 1994:-1 1995:-0.578791 1996:-0.433978 1997:-0.47777 1998:-0.999144 1999:0.534891 2000:0.427629 2001:1 2002:0.510875 2003:0.834053 2004:-0.505965 2005:-0.817408 2006:0.115532 2007:-0.243775 2008:-0.618194 2009:-0.901503 2010:-0.8144 2011:-0.227561 2012:-0.964962 2013:0.444059 2014:-0.353165 2015:0.410079 2016:-0.741235 2017:-0.0765153 2018:0.307376 2019:0.211516 2020:-0.536431 2021:-0.287105 2022:-0.0338486 2023:0.320532 2024:-0.951719 2025:0.861804 2026:-0.997585 2027:-0.0210019 2028:-0.0566708 2029:0.732259 2030:0.633617 2031:0.901451 2032:0.99256 2033:-0.251299 2034:0.0719408 2035:-0.10942 2036:-0.608064 2037:-0.512331 2038:0.808376 2039:-0.772312 2040:-0.517688 2041:-0.986825 2042:-0.944882 2043:-0.563684 2044:0.404095 2045:0.0149173 2046:0.437865 2047:0.782379 2048:-0.593654 2049:-0.785415 2050:0.995762 2051:-1 2052:0.0373403 2053:-0.999976 2054:0.999962 2055:1 2056:0.17311 2057:1 2058:-0.998214 2059:0.992638 2060:0.998558 2061:-0.694896 2062:0.841228 2063:0.729533 2064:-0.574157 2065:-0.610139 2066:0.818322 2067:0.309064 2068:-0.819342 2069:0.706327 2070:-0.6692 2071:-0.836667 2072:0.316457 2073:0.752103 2074:0.849041 2075:-0.609909 2076:-0.565483 2077:-0.352061 2078:-1 2079:0.456855 2080:-0.294 2081:0.520703 2082:-1 2083:0.905898 2084:-0.594224 2085:-1 2086:0.51175 2087:-0.807839 2088:1 2089:-1 2090:0.571555 2091:0.583132 2092:-1 2093:-1 2094:1 2095:-0.0249416 2096:-1 2097:0.861815 2098:0.0957212 2099:0.230506 2100:0.862929 2101:0.946879 2102:0.952029 2103:-0.542349 2104:0.993799 2105:0.893204 2106:-0.824983 2107:0.850516 2108:-0.978429 2109:0.830568 2110:0.637676 2111:-0.629464 2112:0.525587 2113:0.458609 2114:0.938525 2115:0.935871 2116:-0.960482 2117:-0.802053 2118:-0.513902 2119:-0.98348 2120:-0.91355 2121:0.20337 2122:-0.0713968 2123:-0.963531 2124:-0.877055 2125:0.977151 2126:-0.252172 2127:-0.0521984 2128:-0.0119965 2129:0.426418 2130:0.113478 2131:0.41039 2132:0.496562 2133:-0.205801 2134:-0.728424 2135:0.214427 2136:0.25642 2137:-0.126935 2138:-0.340932 2139:0.0219479 2140:0.0779268 2141:0.14188 2142:0.152 2143:-0.347438 2144:-0.128469 2145:0.483613 2146:0.108114 2147:0.909748 2148:-0.196078 2149:-0.0985963 2150:0.393788 2151:-0.590291 2152:0.720819 2153:0.340365 2154:0.974142 2155:0.524174 2156:-0.508298 2157:0.534283 2158:0.15642 2159:-0.648241 2160:-0.248212 2161:0.392704 2162:-0.211198 2163:0.468978 2164:-0.946959 2165:-0.771669 2166:-0.894572 2167:-0.764216 2168:0.585815 2169:0.399725 2170:0.923165 2171:0.711086 2172:-0.214648 2173:0.205572 2174:-0.774617 2175:0.246614 2176:-0.292742 2177:0.205706 2178:-0.0659947 2179:0.235718 2180:0.295769 2181:-0.00827753 2182:0.457595 2183:0.231182 2184:0.530958 2185:0.53573 2186:0.476779 2187:0.641392 2188:0.492188 2189:0.536436 2190:0.214581 2191:0.522576 2192:-0.890142 2193:-0.309042 2194:-0.474491 2195:-0.315288 2196:-0.0126921 2197:-0.282647 2198:0.111214 2199:0.169142 2200:0.83931 2201:0.681659 2202:-0.954676 2203:-0.570265 2204:-0.877367 2205:-0.233674 2206:-0.665128 2207:-0.732382 2208:0.979997 2209:0.578209 2210:0.0217681 2211:-0.726303 2212:-0.189837 2213:-0.247667 2214:-0.746721 2215:0.604573 2216:0.88166 2217:-0.941524 2218:-0.98031 2219:0.552109 2220:0.504869 2221:0.652897 2222:-0.762151 2223:-0.116489 2224:0.929637 2225:-0.203358 2226:0.402308 2227:-0.975994 2228:-0.976476 2229:-0.670418 2230:-0.941087 2231:-0.654336 2232:0.903629 2233:-0.40061 2234:-0.0823064 2235:-0.968302 2236:-0.767764 2237:0.877314 2238:-0.48233 2239:0.394922 2240:0.737619 2241:0.420074 2242:-0.981077 2243:0.0230065 2244:-0.291319 2245:0.745728 2246:-0.0298025 2247:-0.0414018 2248:0.927874 2249:0.103035 2250:0.683603 2251:0.931757 2252:-0.948129 2253:-0.941346 2254:-0.363723 2255:-0.155024 2256:-0.493819 2257:-0.184319 2258:0.768379 2259:0.582705 2260:-0.587559 2261:-0.980773 2262:-0.85858 2263:0.430215 2264:0.700218 2265:0.0742762 2266:-0.210975 2267:0.711119 2268:0.309406 2269:-0.235795 2270:-0.370787 2271:-0.573347 2272:-0.245945 2273:0.17758 2274:0.176521 2275:-0.205545 2276:0.931757 2277:-0.948129 2278:-0.941346 2279:-0.363723 2280:-0.155024 2281:-0.493819 2282:-0.184319 2283:0.768379 2284:0.582705 2285:-0.587559 2286:-0.980773 2287:-0.85858 2288:0.430215 2289:0.700218 2290:0.0742762 2291:-0.210975 2292:0.711119 2293:0.309406 2294:-0.235795 2295:-0.370787 2296:-0.573347 2297:-0.245945 2298:0.17758 2299:0.176521 2300:-0.205545 2301:1 2302:0.864703 2303:1 2304:-1 2305:-1 2306:-1 2307:0.325998 2308:-0.0470015 2309:1 2310:0.746848 2311:-1 2312:-1 2313:1 2314:0.286008 2315:-1 2316:-1 2317:-1 2318:-1 2319:-1 2320:-1 2321:-0.767942 2322:1 2323:1 2324:0.328725 2325:-1 2326:1 2327:0.864703 2328:1 2329:-1 2330:-1 2331:-1 2332:0.325998 2333:-0.0470015 2334:1 2335:0.746848 2336:-1 2337:-1 2338:1 2339:0.286008 2340:-1 2341:-1 2342:-1 2343:-1 2344:-1 2345:-1 2346:-0.767942 2347:1 2348:1 2349:0.328725 2350:-1 2351:0.111678 2352:-0.872825 2353:-0.290412 2354:-0.581422 2355:-0.0933053 2356:0.16545 2357:-0.454343 2358:-0.197091 2359:-1 2360:0.195169 2361:-0.164903 2362:0.122631 2363:-1 2364:0.600297 2365:0.758848 2366:0.318193 2367:-0.0572831 2368:0.573563 2369:0.842589 2370:1 2371:-0.825558 2372:0.491862 2373:-0.496066 2374:0.192495 2375:1 2376:-0.396779 2377:-0.238307 2378:-0.460093 2379:0.462206 2380:0.575263 2381:0.281117 2382:0.690129 2383:0.271989 2384:-0.178431 2385:-0.0541078 2386:0.887783 2387:0.718979 2388:0.0267109 2389:0.113486 2390:-0.602069 2391:0.463339 2392:-0.0591932 2393:0.252026 2394:0.93679 2395:0.109417 2396:0.373651 2397:0.580535 2398:0.18446 2399:-0.127742 2400:-0.310072 2401:-0.396779 2402:-0.238307 2403:-0.460093 2404:0.462206 2405:0.575263 2406:0.281117 2407:0.690129 2408:0.271989 2409:-0.178431 2410:-0.0541078 2411:0.887783 2412:0.718979 2413:0.0267109 2414:0.113486 2415:-0.602069 2416:0.463339 2417:-0.0591932 2418:0.252026 2419:0.93679 2420:0.109417 2421:0.373651 2422:0.580535 2423:0.18446 2424:-0.127742 2425:-0.310072 2426:0.0244293 2427:-1 2428:-0.788642 2429:0.640865 2430:-1 2431:-1 2432:-0.616597 2433:-0.73248 2434:-1 2435:-0.0518869 2436:0.670007 2437:1 2438:0.858135 2439:-0.972235 2440:1 2441:-0.0640158 2442:-0.822399 2443:-1 2444:-0.078878 2445:0.807606 2446:0.0499166 2447:-0.188822 2448:1 2449:0.506289 2450:1 2451:0.158121 2452:0.680064 2453:0.565015 2454:0.931536 2455:0.402904 2456:-0.629691 2457:-0.0632603 2458:-0.808993 2459:0.191497 2460:-0.227986 2461:-0.5907 2462:0.311683 2463:-0.440513 2464:-0.253029 2465:0.0580893 2466:0.215571 2467:0.0584769 2468:0.683317 2469:0.220001 2470:0.202776 2471:0.327663 2472:0.729887 2473:-0.290411 2474:-0.648472 2475:0.667739 2476:0.657642 2477:1 2478:1 2479:-1 2480:-1 2481:0.717906 2482:0.0658616 2483:-0.999764 2484:0.91817 2485:0.957995 2486:-0.99865 2487:-0.536556 2488:-0.735368 2489:-1 2490:0.859437 2491:-0.995806 2492:-0.842532 2493:0.985198 2494:-0.970596 2495:0.95131 2496:0.938908 2497:0.998596 2498:-0.999187 2499:-0.416763 2500:0.926389 2501:0.999348 2502:-0.988643 2503:-0.857993 2504:-0.984468 2505:0.43512 2506:-0.0760946 2507:-0.239405 2508:-0.432441 2509:0.891328 2510:0.649167 2511:-0.772505 2512:-0.615414 2513:-0.293981 2514:-0.544259 2515:0.442507 2516:-0.0364845 2517:0.691212 2518:-0.50263 2519:-0.594223 2520:0.690203 2521:-0.182501 2522:0.648239 2523:0.690389 2524:0.5822 2525:0.536478 2526:0.999348 2527:-0.988643 2528:-0.857993 2529:-0.984468 2530:0.43512 2531:-0.0760946 2532:-0.239405 2533:-0.432441 2534:0.891328 2535:0.649167 2536:-0.772505 2537:-0.615414 2538:-0.293981 2539:-0.544259 2540:0.442507 2541:-0.0364845 2542:0.691212 2543:-0.50263 2544:-0.594223 2545:0.690203 2546:-0.182501 2547:0.648239 2548:0.690389 2549:0.5822 2550:0.536478 2551:0.971117 2552:-0.978022 2553:-0.987811 2554:-0.954177 2555:-0.518101 2556:-0.198705 2557:-0.143723 2558:-0.0123483 2559:-0.976944 2560:-0.986819 2561:-0.884481 2562:-0.123556 2563:0.173734 2564:-0.604547 2565:0.150768 2566:0.0252518 2567:-0.0831906 2568:-0.0794207 2569:-0.868565 2570:-0.450501 2571:0.930095 2572:-0.564339 2573:-0.32137 2574:0.0917142 2575:0.0739727 2576:0.971117 2577:-0.978022 2578:-0.987811 2579:-0.954177 2580:-0.518101 2581:-0.198705 2582:-0.143723 2583:-0.0123483 2584:-0.976944 2585:-0.986819 2586:-0.884481 2587:-0.123556 2588:0.173734 2589:-0.604547 2590:0.150768 2591:0.0252518 2592:-0.0831906 2593:-0.0794207 2594:-0.868565 2595:-0.450501 2596:0.930095 2597:-0.564339 2598:-0.32137 2599:0.0917142 2600:0.0739727 2601:-0.661453 2602:0.141157 2603:0.495764 2604:-0.237694 2605:0.276134 2606:-0.313449 2607:-0.527027 2608:0.00563433 2609:0.420654 2610:-0.20703 2611:0.692148 2612:-0.049715 2613:-0.617276 2614:0.385842 2615:0.261784 2616:0.266257 2617:0.544094 2618:0.399409 2619:0.341677 2620:0.113294 2621:-0.5543 2622:-1 2623:0.285926 2624:0.53414 2625:-0.229838 2626:-0.661453 2627:0.141157 2628:0.495764 2629:-0.237694 2630:0.276134 2631:-0.313449 2632:-0.527027 2633:0.00563433 2634:0.420654 2635:-0.20703 2636:0.692148 2637:-0.049715 2638:-0.617276 2639:0.385842 2640:0.261784 2641:0.266257 2642:0.544094 2643:0.399409 2644:0.341677 2645:0.113294 2646:-0.5543 2647:-1 2648:0.285926 2649:0.53414 2650:-0.229838 2651:0.995069 2652:-0.741431 2653:-0.993738 2654:-0.992618 2655:0.638447 2656:0.370499 2657:-0.996302 2658:-0.47037 2659:0.85017 2660:0.936103 2661:0.324851 2662:-0.00208593 2663:0.26491 2664:-0.945219 2665:-0.935352 2666:0.712845 2667:0.586913 2668:0.207451 2669:-0.928621 2670:0.955438 2671:-0.0752647 2672:-0.328206 2673:0.323093 2674:0.297211 2675:0.822509 2676:0.995069 2677:-0.741431 2678:-0.993738 2679:-0.992618 2680:0.638447 2681:0.370499 2682:-0.996302 2683:-0.47037 2684:0.85017 2685:0.936103 2686:0.324851 2687:-0.00208593 2688:0.26491 2689:-0.945219 2690:-0.935352 2691:0.712845 2692:0.586913 2693:0.207451 2694:-0.928621 2695:0.955438 2696:-0.0752647 2697:-0.328206 2698:0.323093 2699:0.297211 2700:0.822509 2701:0.405371 2702:-0.979484 2703:-0.980813 2704:0.0801166 2705:0.557677 2706:0.113816 2707:0.445534 2708:0.9801 2709:-0.267697 2710:-0.946537 2711:-0.773105 2712:0.574856 2713:0.193434 2714:0.221068 2715:-0.366905 2716:0.596555 2717:0.239543 2718:0.490989 2719:0.205249 2720:0.422523 2721:0.0448553 2722:-0.13645 2723:0.533269 2724:-0.545548 2725:-0.515886 2726:0.405371 2727:-0.979484 2728:-0.980813 2729:0.0801166 2730:0.557677 2731:0.113816 2732:0.445534 2733:0.9801 2734:-0.267697 2735:-0.946537 2736:-0.773105 2737:0.574856 2738:0.193434 2739:0.221068 2740:-0.366905 2741:0.596555 2742:0.239543 2743:0.490989 2744:0.205249 2745:0.422523 2746:0.0448553 2747:-0.13645 2748:0.533269 2749:-0.545548 2750:-0.515886 2751:-0.13329 2752:-0.829555 2753:-0.253634 2754:-0.322062 2755:-0.136707 2756:0.207253 2757:1 2758:0.418514 2759:-0.207242 2760:0.27786 2761:-0.0279594 2762:-0.604874 2763:-0.188907 2764:0.315388 2765:1 2766:0.704881 2767:-0.15964 2768:-0.14591 2769:0.126869 2770:-0.216129 2771:0.561018 2772:0.202209 2773:-0.959276 2774:-1 2775:0.768492 2776:-0.13329 2777:-0.829555 2778:-0.253634 2779:-0.322062 2780:-0.136707 2781:0.207253 2782:1 2783:0.418514 2784:-0.207242 2785:0.27786 2786:-0.0279594 2787:-0.604874 2788:-0.188907 2789:0.315388 2790:1 2791:0.704881 2792:-0.15964 2793:-0.14591 2794:0.126869 2795:-0.216129 2796:0.561018 2797:0.202209 2798:-0.959276 2799:-1 2800:0.768492 2801:0.999332 2802:0.308333 2803:-0.999186 2804:-0.999539 2805:-0.0116993 2806:0.158847 2807:-0.908724 2808:-0.191026 2809:-0.845835 2810:0.799745 2811:-0.972096 2812:0.599039 2813:0.443851 2814:0.606315 2815:0.503662 2816:0.297272 2817:0.918678 2818:-0.642779 2819:-0.338372 2820:-0.191243 2821:0.409915 2822:0.700069 2823:0.119395 2824:-0.0662051 2825:0.192226 2826:0.999332 2827:0.308333 2828:-0.999186 2829:-0.999539 2830:-0.0116993 2831:0.158847 2832:-0.908724 2833:-0.191026 2834:-0.845835 2835:0.799745 2836:-0.972096 2837:0.599039 2838:0.443851 2839:0.606315 2840:0.503662 2841:0.297272 2842:0.918678 2843:-0.642779 2844:-0.338372 2845:-0.191243 2846:0.409915 2847:0.700069 2848:0.119395 2849:-0.0662051 2850:0.192226 2851:-0.737715 2852:-0.19455 2853:-0.517591 2854:0.137405 2855:-0.173953 2856:0.0225523 2857:0.389391 2858:1 2859:0.598301 2860:-0.0351609 2861:-0.182277 2862:0.00797036 2863:-0.509825 2864:0.363712 2865:-0.403998 2866:-0.427555 2867:-0.460398 2868:0.297429 2869:0.397212 2870:-0.272963 2871:-0.0451913 2872:-0.00602905 2873:-0.0163876 2874:-0.00605055 2875:0.310205 2876:-0.737715 2877:-0.19455 2878:-0.517591 2879:0.137405 2880:-0.173953 2881:0.0225523 2882:0.389391 2883:1 2884:0.598301 2885:-0.0351609 2886:-0.182277 2887:0.00797036 2888:-0.509825 2889:0.363712 2890:-0.403998 2891:-0.427555 2892:-0.460398 2893:0.297429 2894:0.397212 2895:-0.272963 2896:-0.0451913 2897:-0.00602905 2898:-0.0163876 2899:-0.00605055 2900:0.310205 2901:-0.552 2902:-0.00293686 2903:-0.203356 2904:0.414106 2905:0.757289 2906:0.835702 2907:0.814337 2908:0.750662 2909:0.242679 2910:0.715316 2911:0.684773 2912:0.788137 2913:-0.814703 2914:-0.403894 2915:0.56632 2916:-0.768494 2917:-0.832913 2918:-0.166998 2919:-0.122739 2920:0.139275 2921:0.00774308 2922:0.376601 2923:0.108846 2924:0.37466 2925:0.743661 2926:-0.552 2927:-0.00293686 2928:-0.203356 2929:0.414106 2930:0.757289 2931:0.835702 2932:0.814337 2933:0.750662 2934:0.242679 2935:0.715316 2936:0.684773 2937:0.788137 2938:-0.814703 2939:-0.403894 2940:0.56632 2941:-0.768494 2942:-0.832913 2943:-0.166998 2944:-0.122739 2945:0.139275 2946:0.00774308 2947:0.376601 2948:0.108846 2949:0.37466 2950:0.743661 2951:1 2952:1 2953:-0.803656 2954:-0.715545 2955:0.833466 2956:-0.500114 2957:-1 2958:-0.273341 2959:-1 2960:-0.451943 2961:0.13441 2962:0.545645 2963:-0.0396776 2964:-0.995902 2965:-0.283789 2966:-1 2967:-0.169926 2968:0.382938 2969:-1 2970:-1 2971:1 2972:0.673416 2973:1 2974:0.759239 2975:-1 2976:1 2977:1 2978:-0.803656 2979:-0.715545 2980:0.833466 2981:-0.500114 2982:-1 2983:-0.273341 2984:-1 2985:-0.451943 2986:0.13441 2987:0.545645 2988:-0.0396776 2989:-0.995902 2990:-0.283789 2991:-1 2992:-0.169926 2993:0.382938 2994:-1 2995:-1 2996:1 2997:0.673416 2998:1 2999:0.759239 3000:-1 3001:-0.718105 3002:-0.101378 3003:-0.352448 3004:0.988462 3005:0.745659 3006:-0.0874698 3007:-0.767977 3008:0.852719 3009:0.466406 3010:0.957711 3011:-1 3012:0.195873 3013:1 3014:-0.238811 3015:-0.114322 3016:0.395367 3017:-0.429708 3018:0.481936 3019:-0.729856 3020:-0.872133 3021:0.961289 3022:1 3023:-0.059953 3024:-1 3025:-0.204745 3026:-0.718105 3027:-0.101378 3028:-0.352448 3029:0.988462 3030:0.745659 3031:-0.0874698 3032:-0.767977 3033:0.852719 3034:0.466406 3035:0.957711 3036:-1 3037:0.195873 3038:1 3039:-0.238811 3040:-0.114322 3041:0.395367 3042:-0.429708 3043:0.481936 3044:-0.729856 3045:-0.872133 3046:0.961289 3047:1 3048:-0.059953 3049:-1 3050:-0.204745 3051:-0.0689808 3052:-0.807419 3053:-0.303624 3054:-0.412533 3055:0.0456708 3056:-0.0797518 3057:0.583547 3058:0.239636 3059:-0.745603 3060:0.64648 3061:0.0915442 3062:-0.305318 3063:0.339052 3064:-0.196555 3065:0.356647 3066:0.901558 3067:0.795527 3068:-0.504061 3069:0.493396 3070:-0.700043 3071:-0.187203 3072:0.376615 3073:0.67198 3074:0.392604 3075:-0.35325 3076:0.198839 3077:-1 3078:-0.101292 3079:-1 3080:-1 3081:0.367509 3082:0.125176 3083:-0.916179 3084:-0.460933 3085:0.989755 3086:0.0597151 3087:-1 3088:-0.974103 3089:0.208406 3090:0.477804 3091:0.49708 3092:1 3093:-0.0179247 3094:-1 3095:-1 3096:0.807037 3097:1 3098:0.359147 3099:-0.185985 3100:-0.760523 3101:0.198839 3102:-1 3103:-0.101292 3104:-1 3105:-1 3106:0.367509 3107:0.125176 3108:-0.916179 3109:-0.460933 3110:0.989755 3111:0.0597151 3112:-1 3113:-0.974103 3114:0.208406 3115:0.477804 3116:0.49708 3117:1 3118:-0.0179247 3119:-1 3120:-1 3121:0.807037 3122:1 3123:0.359147 3124:-0.185985 3125:-0.760523 3126:0.0366427 3127:1 3128:0.527798 3129:-1 3130:-0.7288 3131:-0.312337 3132:0.388914 3133:-0.477209 3134:-0.378896 3135:1 3136:0.604894 3137:-0.349317 3138:-0.195495 3139:1 3140:1 3141:-0.613443 3142:0.262682 3143:1 3144:-0.247955 3145:0.0498986 3146:-0.0451061 3147:-1 3148:-1 3149:1 3150:1 3151:0.0366427 3152:1 3153:0.527798 3154:-1 3155:-0.7288 3156:-0.312337 3157:0.388914 3158:-0.477209 3159:-0.378896 3160:1 3161:0.604894 3162:-0.349317 3163:-0.195495 3164:1 3165:1 3166:-0.613443 3167:0.262682 3168:1 3169:-0.247955 3170:0.0498986 3171:-0.0451061 3172:-1 3173:-1 3174:1 3175:1 3176:-0.954666 3177:0.868933 3178:-0.707601 3179:0.994205 3180:0.981357 3181:0.993539 3182:0.971903 3183:0.95245 3184:0.953753 3185:-0.626246 3186:-0.0121612 3187:0.390282 3188:0.229501 3189:-0.0910549 3190:-0.404905 3191:0.966654 3192:0.632451 3193:0.0332971 3194:0.596552 3195:0.714718 3196:0.685991 3197:-0.831617 3198:-0.293323 3199:-0.392263 3200:-0.328334 
