svm_type c_svc
kernel_type rbf
gamma 0.00031250000000000001
nr_class 2
total_sv 20
rho -0.99956338049378246
label 1 2
nr_sv 10 10
SV
0.0009765625 1:-0.969887 2:0.599234 3:-0.301867 4:0.913968 5:0.905214 6:0.848181 7:0.787184 8:0.608752 9:0.904006 10:0.612137 11:0.277912 12:0.414337 13:-0.756403 14:-0.742497 15:-0.949924 16:0.862966 17:0.188824 18:0.803502 19:0.599097 20:0.873 21:0.401747 22:0.131646 23:0.954905 24:-0.316741 25:-0.208846 26:-0.896146 27:0.727036 28:-0.299898 29:0.953575 30:0.905192 31:0.956701 32:-0.120346 33:0.78181 34:-0.655327 35:-0.821945 36:0.959565 37:0.925092 38:0.877103 39:-0.802754 40:0.976563 41:0.873717 42:0.795317 43:-0.692308 44:-1 45:0.574349 46:0.987853 47:-0.110664 48:-0.934188 49:-0.925689 50:-0.49093 51:-0.896146 52:0.727036 53:-0.299898 54:0.953575 55:0.905192 56:0.956701 57:-0.120346 58:0.78181 59:-0.655327 60:-0.821945 61:0.959565 62:0.925092 63:0.877103 64:-0.802754 65:0.976563 66:0.873717 67:0.795317 68:-0.692308 69:-1 70:0.574349 71:0.987853 72:-0.110664 73:-0.934188 74:-0.925689 75:-0.49093 76:0.988569 77:0.705003 78:-0.449414 79:0.965602 80:0.738252 81:-0.0568749 82:-0.224482 83:0.126029 84:0.685709 85:0.405911 86:-0.357244 87:0.0303398 88:-0.941747 89:-0.00546584 90:0.948677 91:0.859539 92:0.566316 93:-0.285547 94:0.714405 95:0.0237924 96:-0.0322152 97:-0.391193 98:0.952389 99:0.562688 100:-0.602679 101:-0.993936 102:-0.147653 103:0.579322 104:0.998049 105:0.997255 106:0.998016 107:0.984128 108:0.966067 109:0.928034 110:-0.553869 111:0.940485 112:0.827987 113:-0.778962 114:0.271608 115:-0.642227 116:-0.513913 117:0.688465 118:0.216506 119:-0.066855 120:0.330821 121:-0.639967 122:0.561426 123:0.372234 124:0.474091 125:0.287555 126:0.99979 127:-0.82029 128:-0.513295 129:-0.657167 130:0.66764 131:-0.51266 132:-0.999697 133:-0.316823 134:0.851846 135:0.983003 136:-0.889832 137:-0.021866 138:0.761302 139:-0.270444 140:0.386424 141:0.856093 142:-0.293074 143:-0.760417 144:0.30558 145:-0.631413 146:0.600892 147:0.650111 148:0.64284 149:0.984595 150:-0.960645 151:0.99979 152:-0.82029 153:-0.513295 154:-0.657167 155:0.66764 156:-0.51266 157:-0.999697 158:-0.316823 159:0.851846 160:0.983003 161:-0.889832 162:-0.021866 163:0.761302 164:-0.270444 165:0.386424 166:0.856093 167:-0.293074 168:-0.760417 169:0.30558 170:-0.631413 171:0.600892 172:0.650111 173:0.64284 174:0.984595 175:-0.960645 176:-0.990438 177:0.478099 178:0.0512787 179:0.992308 180:0.631194 181:0.920482 182:0.995307 183:0.476921 184:0.690682 185:0.428125 186:0.415227 187:0.735559 188:0.194525 189:-0.0843259 190:-0.623734 191:-0.355804 192:0.193016 193:-0.806625 194:0.459486 195:-0.33197 196:-0.151919 197:0.113656 198:-0.40865 199:-0.435517 200:0.850002 201:0.999294 202:0.493269 203:-0.886405 204:-0.868256 205:0.521626 206:0.426599 207:-0.456256 208:-0.15976 209:0.00467864 210:-0.183654 211:-0.721587 212:0.545962 213:0.06358 214:-0.657161 215:-0.0870519 216:-0.800863 217:0.236499 218:-0.579019 219:-0.78258 220:0.120031 221:0.281416 222:0.803324 223:-0.386551 224:0.703679 225:-0.262747 226:-0.53536 227:0.988438 228:0.974643 229:0.981972 230:0.52126 231:0.398932 232:0.277018 233:0.057609 234:0.832715 235:0.0707851 236:-0.14236 237:0.762721 238:-0.995771 239:-0.409002 240:0.134632 241:0.979734 242:-0.194081 243:0.99018 244:-0.521674 245:0.973186 246:-0.419579 247:-0.848557 248:0.992623 249:0.400723 250:-0.981918 251:0.216505 252:0.645067 253:0.836498 254:-0.819973 255:0.179631 256:-0.16344 257:0.248296 258:-0.0631469 259:0.158911 260:-0.013445 261:0.245494 262:1 263:0.300635 264:-0.187315 265:0.313741 266:0.357902 267:-0.325351 268:0.0666418 269:-0.175312 270:-0.0995285 271:-0.618921 272:-1 273:-0.451514 274:0.0205793 275:0.880862 276:0.999578 277:-0.485414 278:-0.453074 279:-0.997613 280:0.746513 281:0.554978 282:0.472701 283:0.340836 284:-0.620499 285:0.840426 286:-0.838935 287:0.824447 288:0.64 289:0.475894 290:0.562818 291:0.437511 292:-0.447363 293:0.415107 294:0.332572 295:0.364033 296:-0.619776 297:0.504861 298:-0.0929342 299:0.12868 300:-0.305235 301:0.999578 302:-0.485414 303:-0.453074 304:-0.997613 305:0.746513 306:0.554978 307:0.472701 308:0.340836 309:-0.620499 310:0.840426 311:-0.838935 312:0.824447 313:0.64 314:0.475894 315:0.562818 316:0.437511 317:-0.447363 318:0.415107 319:0.332572 320:0.364033 321:-0.619776 322:0.504861 323:-0.0929342 324:0.12868 325:-0.305235 326:-0.91097 327:-0.884395 328:-0.904275 329:0.876673 330:0.92704 331:0.968915 332:0.0862379 333:0.955339 334:0.982728 335:0.913102 336:0.948054 337:0.928647 338:-0.705652 339:-0.493085 340:0.89928 341:0.733319 342:0.746219 343:-0.666335 344:0.905997 345:0.824094 346:0.567883 347:0.399034 348:-0.849925 349:-0.894062 350:0.87009 351:-0.954976 352:-0.429038 353:-0.735851 354:0.94205 355:0.630033 356:0.323651 357:0.501679 358:-0.269229 359:0.253817 360:0.490805 361:0.953254 362:0.771306 363:0.247694 364:0.597506 365:0.304727 366:-0.731888 367:-0.861474 368:-0.864575 369:-0.438689 370:0.250089 371:-0.4813 372:0.578721 373:0.464888 374:0.425749 375:-0.508766 376:-0.954976 377:-0.429038 378:-0.735851 379:0.94205 380:0.630033 381:0.323651 382:0.501679 383:-0.269229 384:0.253817 385:0.490805 386:0.953254 387:0.771306 388:0.247694 389:0.597506 390:0.304727 391:-0.731888 392:-0.861474 393:-0.864575 394:-0.438689 395:0.250089 396:-0.4813 397:0.578721 398:0.464888 399:0.425749 400:-0.508766 401:0.857143 402:-0.41167 403:0.584209 404:0.313527 405:-0.784074 406:-0.99454 407:0.324337 408:-0.0714588 409:-0.770655 410:0.484635 411:-0.603702 412:-0.270011 413:-0.1398 414:-0.593701 415:0.255781 416:-0.158671 417:-0.276589 418:-0.255361 419:0.485833 420:-0.0288913 421:-0.193713 422:0.83718 423:-0.475552 424:-0.114826 425:0.755363 426:0.826917 427:0.527067 428:0.986989 429:0.862055 430:-0.434237 431:-0.951104 432:0.757363 433:0.803709 434:0.333143 435:0.244557 436:-0.955295 437:-0.147847 438:-0.990851 439:0.932814 440:0.117413 441:0.927084 442:-0.552061 443:0.59376 444:-0.933512 445:-0.542193 446:-0.371853 447:-0.94579 448:0.867772 449:0.0194491 450:-0.948248 451:0.331504 452:0.133317 453:0.427125 454:-0.809383 455:0.116763 456:0.346077 457:0.339864 458:-0.800317 459:1 460:0.294546 461:-0.75508 462:-1 463:0.250309 464:-0.79546 465:0.346707 466:-0.457991 467:0.0182903 468:0.453848 469:-0.111148 470:-0.0573906 471:-0.190598 472:0.493205 473:-0.00920135 474:0.521158 475:-0.913589 476:1 477:-0.444569 478:0.960636 479:0.397263 480:1 481:1 482:0.224386 483:0.610534 484:-0.520925 485:0.631173 486:-1 487:-1 488:-0.798126 489:-0.424298 490:-0.741473 491:-1 492:0.160966 493:0.320714 494:0.162372 495:-1 496:-1 497:0.727939 498:0.828609 499:0.772207 500:1 501:0.863527 502:-0.961679 503:0.981229 504:-0.81802 505:-0.955409 506:-0.979508 507:-0.554925 508:0.966636 509:-0.753501 510:-0.543507 511:-0.0443014 512:0.91816 513:-0.943094 514:0.983434 515:0.969997 516:-0.0193172 517:-0.956197 518:0.888087 519:-0.0853776 520:-0.926367 521:-0.925249 522:-0.514291 523:0.274739 524:-0.75347 525:0.579377 526:-0.982864 527:0.856871 528:-0.979677 529:0.953815 530:0.988528 531:0.966202 532:0.919801 533:-0.989104 534:0.321205 535:0.995313 536:0.989832 537:1 538:0.590714 539:0.993918 540:-0.982137 541:-1 542:-1 543:-1 544:-0.999108 545:-0.992192 546:1 547:-0.940239 548:0.979131 549:0.985354 550:-0.933363 551:0.823067 552:0.375007 553:0.856438 554:0.462917 555:-0.711106 556:-0.66886 557:-0.391873 558:-0.917641 559:0.010059 560:0.118509 561:-0.731144 562:0.108416 563:0.341089 564:-0.162466 565:-0.228484 566:0.13443 567:0.0920668 568:0.669736 569:-0.15109 570:0.463163 571:-0.0855426 572:-0.60226 573:0.0242774 574:0.204325 575:0.498334 576:0.823067 577:0.375007 578:0.856438 579:0.462917 580:-0.711106 581:-0.66886 582:-0.391873 583:-0.917641 584:0.010059 585:0.118509 586:-0.731144 587:0.108416 588:0.341089 589:-0.162466 590:-0.228484 591:0.13443 592:0.0920668 593:0.669736 594:-0.15109 595:0.463163 596:-0.0855426 597:-0.60226 598:0.0242774 599:0.204325 600:0.498334 601:1 602:0.0128786 603:0.422036 604:-0.573878 605:0.444097 606:-1 607:0.744777 608:-0.723881 609:-0.59961 610:1 611:-0.827475 612:-0.174933 613:-0.0256929 614:-0.0121061 615:0.710279 616:0.159667 617:0.225786 618:0.473085 619:-0.0454475 620:0.340826 621:0.0284985 622:0.00218376 623:-0.67217 624:-0.0118001 625:0.154869 626:0.456157 627:-0.979757 628:-0.96526 629:0.901488 630:0.449038 631:0.866719 632:0.508752 633:0.49024 634:0.823058 635:-0.727483 636:-0.771603 637:0.0266579 638:0.00259586 639:-0.194015 640:-0.252127 641:-0.290526 642:0.396016 643:-0.233081 644:0.437111 645:0.281247 646:0.233266 647:-0.396362 648:0.198763 649:0.743688 650:-0.1993 651:0.456157 652:-0.979757 653:-0.96526 654:0.901488 655:0.449038 656:0.866719 657:0.508752 658:0.49024 659:0.823058 660:-0.727483 661:-0.771603 662:0.0266579 663:0.00259586 664:-0.194015 665:-0.252127 666:-0.290526 667:0.396016 668:-0.233081 669:0.437111 670:0.281247 671:0.233266 672:-0.396362 673:0.198763 674:0.743688 675:-0.1993 676:-0.82973 677:-0.470521 678:-0.73834 679:0.888001 680:0.791858 681:0.685795 682:0.85005 683:0.776827 684:0.254792 685:0.459576 686:0.0504091 687:0.694038 688:0.0195469 689:0.0678392 690:-0.698589 691:-0.226182 692:-0.384328 693:-0.0183269 694:-0.791421 695:-0.496864 696:-0.560663 697:-0.208877 698:-0.0768013 699:0.553125 700:-0.195753 701:-0.82973 702:-0.470521 703:-0.73834 704:0.888001 705:0.791858 706:0.685795 707:0.85005 708:0.776827 709:0.254792 710:0.459576 711:0.0504091 712:0.694038 713:0.0195469 714:0.0678392 715:-0.698589 716:-0.226182 717:-0.384328 718:-0.0183269 719:-0.791421 720:-0.496864 721:-0.560663 722:-0.208877 723:-0.0768013 724:0.553125 725:-0.195753 726:-0.856897 727:0.351854 728:0.605693 729:0.951338 730:0.819189 731:0.905322 732:0.488133 733:-0.103504 734:-0.260707 735:0.539489 736:0.981722 737:0.856939 738:-0.529543 739:0.37128 740:0.679423 741:0.363018 742:0.516893 743:0.203455 744:-0.683133 745:0.30784 746:0.183697 747:-0.61494 748:0.605517 749:0.624274 750:-0.451622 751:-0.857002 752:0.175927 753:0.548761 754:0.903022 755:0.524543 756:0.378021 757:0.846638 758:0.847136 759:0.538314 760:-0.860008 761:0.852063 762:0.849313 763:-0.858245 764:-0.556612 765:-0.303737 766:-0.296674 767:0.863946 768:0.2872 769:-0.0750257 770:0.320991 771:0.361953 772:-0.0730233 773:-0.391208 774:-0.504605 775:0.505112 776:-0.857002 777:0.175927 778:0.548761 779:0.903022 780:0.524543 781:0.378021 782:0.846638 783:0.847136 784:0.538314 785:-0.860008 786:0.852063 787:0.849313 788:-0.858245 789:-0.556612 790:-0.303737 791:-0.296674 792:0.863946 793:0.2872 794:-0.0750257 795:0.320991 796:0.361953 797:-0.0730233 798:-0.391208 799:-0.504605 800:0.505112 801:0.971476 802:-0.948251 803:-0.833267 804:-0.196351 805:-0.138936 806:-0.950606 807:-0.965593 808:0.858565 809:0.898245 810:-0.55436 811:-0.608677 812:-0.86298 813:-0.152387 814:-0.38746 815:0.140506 816:-0.418471 817:0.128232 818:0.668067 819:-0.869592 820:0.684248 821:0.830511 822:-0.406784 823:-0.447893 824:-0.306237 825:-0.626585 826:1 827:0.34314 828:0.713061 829:0.689428 830:0.243977 831:-0.0847247 832:-0.972398 833:-0.0140443 834:-0.335849 835:0.607763 836:-0.066708 837:0.46075 838:0.609734 839:0.772366 840:0.0188428 841:-0.120143 842:0.239351 843:0.209614 844:0.573407 845:-0.156004 846:-0.293157 847:-0.161991 848:0.716445 849:0.351084 850:-0.0440969 851:-0.331442 852:-0.46917 853:-0.486255 854:0.69546 855:0.580632 856:-0.273834 857:0.6689 858:0.653544 859:0.473597 860:-0.286625 861:0.649315 862:0.0513227 863:0.00158008 864:-0.311872 865:0.421771 866:-0.1032 867:-0.298598 868:0.0611782 869:-0.206864 870:0.243435 871:0.122934 872:-0.580682 873:-0.718508 874:0.0607901 875:0.928027 876:0.590627 877:-0.148805 878:0.641441 879:-1 880:0.0880541 881:-0.207299 882:0.648631 883:-0.152793 884:-0.29603 885:1 886:-0.473742 887:0.354244 888:-0.534912 889:-0.672512 890:-0.490645 891:0.797043 892:0.0829658 893:0.510517 894:1 895:0.695279 896:0.34595 897:0.155979 898:0.226189 899:-0.175567 900:-0.323449 901:0.576467 902:0.915059 903:0.969178 904:-0.805726 905:-0.482105 906:0.0993075 907:0.829818 908:-0.96614 909:0.261387 910:0.932816 911:-0.879989 912:-0.317611 913:-0.817603 914:0.910314 915:0.333344 916:0.962426 917:-0.879828 918:0.863186 919:-0.814152 920:0.498464 921:0.664512 922:-0.906334 923:0.99598 924:0.20362 925:-0.606365 926:0.838992 927:0.908115 928:0.799698 929:0.973843 930:-0.871811 931:-0.970288 932:0.193538 933:-0.98773 934:0.530595 935:-0.935686 936:-0.756435 937:-0.390569 938:-0.87745 939:-0.23521 940:-1 941:0.932157 942:0.458638 943:0.462704 944:0.902464 945:-0.106036 946:0.321265 947:-0.0989052 948:0.180598 949:0.612367 950:-0.938139 951:-0.671477 952:-0.779728 953:0.817494 954:-0.73496 955:-0.917504 956:-0.614124 957:0.729607 958:-0.910838 959:-0.989877 960:0.638225 961:0.355314 962:-0.828121 963:0.155963 964:0.82003 965:0.886523 966:0.628422 967:0.820689 968:-0.721017 969:0.788397 970:0.714071 971:-0.938328 972:0.819121 973:-0.933654 974:-0.21317 975:-0.737831 976:-0.950251 977:0.178177 978:-0.411465 979:0.90006 980:0.923336 981:1 982:0.530856 983:-0.0704827 984:0.739504 985:0.561981 986:0.882379 987:0.646644 988:-0.101547 989:0.503867 990:0.848647 991:-0.165582 992:-0.197552 993:-0.0555917 994:0.240106 995:0.191533 996:0.229916 997:-0.0829003 998:-0.391233 999:0.00833897 1000:0.45651 1001:-0.263847 1002:-0.157435 1003:0.986048 1004:-0.938397 1005:-0.957527 1006:-1 1007:-0.618126 1008:-0.72791 1009:-0.946884 1010:0.763251 1011:-0.505054 1012:-0.39328 1013:-0.152077 1014:-0.932284 1015:0.653107 1016:-0.164694 1017:0.634074 1018:-0.493083 1019:0.0668396 1020:-0.402836 1021:-0.30029 1022:0.856487 1023:-0.91845 1024:0.670996 1025:0.0274041 1026:0.0924306 1027:0.578416 1028:0.785364 1029:-0.318822 1030:0.075908 1031:0.131833 1032:0.220631 1033:-0.0644229 1034:-0.264176 1035:-0.649486 1036:-0.24777 1037:0.759776 1038:0.580577 1039:-0.44838 1040:0.306437 1041:-0.239048 1042:0.669835 1043:-1 1044:-0.351649 1045:-0.0821317 1046:-0.0665648 1047:0.440976 1048:-0.115172 1049:0.93563 1050:-1 1051:0.532821 1052:-0.986512 1053:-0.127829 1054:-0.507843 1055:-0.624773 1056:-0.982409 1057:0.314294 1058:-0.0911689 1059:-0.873633 1060:-0.77383 1061:-0.505382 1062:-0.213646 1063:-0.0645935 1064:0.998466 1065:0.73967 1066:-0.87088 1067:-0.537692 1068:-0.532413 1069:-0.566795 1070:-0.512402 1071:-0.888797 1072:0.501234 1073:0.931728 1074:0.126715 1075:-0.709766 1076:-0.0415015 1077:0.0137113 1078:-0.70949 1079:0.277571 1080:0.826775 1081:-0.46976 1082:-0.476183 1083:0.183877 1084:-0.453674 1085:-0.18022 1086:0.301136 1087:0.151738 1088:-0.794289 1089:0.618246 1090:-0.275068 1091:-0.985272 1092:0.538616 1093:0.563375 1094:-0.0655074 1095:-0.215217 1096:0.561879 1097:0.386185 1098:-0.39813 1099:-0.507109 1100:0.648049 1101:0.650122 1102:-0.256957 1103:-0.411629 1104:-0.154171 1105:1 1106:-0.416912 1107:0.553757 1108:-0.47275 1109:-0.082854 1110:-0.194751 1111:-0.0486544 1112:0.0425484 1113:0.99298 1114:-0.503504 1115:-0.663303 1116:0.497977 1117:-1 1118:-0.516238 1119:0.902998 1120:-0.42328 1121:0.843152 1122:0.342456 1123:0.361405 1124:-0.202547 1125:-0.431031 1126:-0.975333 1127:0.990274 1128:-0.96567 1129:0.998296 1130:0.965064 1131:-0.11512 1132:0.996729 1133:0.581198 1134:0.612546 1135:0.631498 1136:0.992834 1137:0.462306 1138:-0.915263 1139:-0.755359 1140:0.885856 1141:-0.0590611 1142:-0.379156 1143:0.854623 1144:-0.072713 1145:-0.504595 1146:-0.68967 1147:0.955113 1148:-0.45554 1149:0.729928 1150:0.435775 1151:0.705113 1152:-0.55051 1153:-0.575339 1154:-0.567155 1155:-0.439792 1156:0.0184395 1157:-0.708394 1158:0.735877 1159:0.769472 1160:-0.516817 1161:-0.715768 1162:-0.872869 1163:-0.816251 1164:-0.439451 1165:-0.00532684 1166:0.488636 1167:0.25119 1168:0.294608 1169:-0.1775 1170:0.236236 1171:0.00820823 1172:-0.799375 1173:-0.718332 1174:0.102569 1175:-0.665708 1176:0.705113 1177:-0.55051 1178:-0.575339 1179:-0.567155 1180:-0.439792 1181:0.0184395 1182:-0.708394 1183:0.735877 1184:0.769472 1185:-0.516817 1186:-0.715768 1187:-0.872869 1188:-0.816251 1189:-0.439451 1190:-0.00532684 1191:0.488636 1192:0.25119 1193:0.294608 1194:-0.1775 1195:0.236236 1196:0.00820823 1197:-0.799375 1198:-0.718332 1199:0.102569 1200:-0.665708 1201:-0.955407 1202:0.55294 1203:-0.864977 1204:0.961749 1205:0.715016 1206:0.941622 1207:0.455136 1208:0.55294 1209:0.544594 1210:-0.563637 1211:0.963673 1212:0.879771 1213:-0.786152 1214:0.128739 1215:-0.362773 1216:-0.943427 1217:0.838693 1218:0.735992 1219:-0.441287 1220:0.260086 1221:-0.589631 1222:-0.528923 1223:-0.0531066 1224:-0.0216236 1225:0.366265 1226:-0.161786 1227:-0.44801 1228:-0.200918 1229:0.293724 1230:-0.538336 1231:0.958418 1232:-0.0994861 1233:-0.0125596 1234:0.189155 1235:0.0300515 1236:1 1237:-0.0906541 1238:-0.134601 1239:0.360144 1240:-0.268525 1241:-0.343281 1242:-0.128152 1243:0.236471 1244:0.0315653 1245:1 1246:0.0676766 1247:-0.185004 1248:0.539684 1249:0.85896 1250:1 1251:-0.161786 1252:-0.44801 1253:-0.200918 1254:0.293724 1255:-0.538336 1256:0.958418 1257:-0.0994861 1258:-0.0125596 1259:0.189155 1260:0.0300515 1261:1 1262:-0.0906541 1263:-0.134601 1264:0.360144 1265:-0.268525 1266:-0.343281 1267:-0.128152 1268:0.236471 1269:0.0315653 1270:1 1271:0.0676766 1272:-0.185004 1273:0.539684 1274:0.85896 1275:1 1276:0.99736 1277:-0.285302 1278:-0.792641 1279:-0.995745 1280:0.833548 1281:0.859465 1282:-0.158508 1283:-0.544673 1284:-0.0721739 1285:0.891998 1286:-0.546205 1287:0.0945019 1288:0.772009 1289:-0.444803 1290:-0.036895 1291:-0.164182 1292:-0.403784 1293:0.578516 1294:-0.725299 1295:-0.932735 1296:0.363155 1297:0.282451 1298:0.787155 1299:-0.0694856 1300:0.932035 1301:0.99736 1302:-0.285302 1303:-0.792641 1304:-0.995745 1305:0.833548 1306:0.859465 1307:-0.158508 1308:-0.544673 1309:-0.0721739 1310:0.891998 1311:-0.546205 1312:0.0945019 1313:0.772009 1314:-0.444803 1315:-0.036895 1316:-0.164182 1317:-0.403784 1318:0.578516 1319:-0.725299 1320:-0.932735 1321:0.363155 1322:0.282451 1323:0.787155 1324:-0.0694856 1325:0.932035 1326:-0.752785 1327:-0.231609 1328:-0.0522289 1329:0.733969 1330:0.0702452 1331:0.570627 1332:0.278366 1333:0.429549 1334:0.153897 1335:0.0114061 1336:0.612717 1337:-0.296677 1338:0.607404 1339:-0.310324 1340:-0.460942 1341:0.386773 1342:0.180122 1343:-0.306208 1344:-1 1345:0.446614 1346:0.831835 1347:-0.0733333 1348:-1 1349:-0.677575 1350:0.196516 1351:-0.752785 1352:-0.231609 1353:-0.0522289 1354:0.733969 1355:0.0702452 1356:0.570627 1357:0.278366 1358:0.429549 1359:0.153897 1360:0.0114061 1361:0.612717 1362:-0.296677 1363:0.607404 1364:-0.310324 1365:-0.460942 1366:0.386773 1367:0.180122 1368:-0.306208 1369:-1 1370:0.446614 1371:0.831835 1372:-0.0733333 1373:-1 1374:-0.677575 1375:0.196516 1376:0.434991 1377:-0.908955 1378:-0.937572 1379:-0.180568 1380:-0.119938 1381:0.642474 1382:-0.867864 1383:0.195089 1384:0.837227 1385:0.654809 1386:-0.968585 1387:-0.874438 1388:0.199793 1389:-0.479508 1390:0.0390694 1391:0.309811 1392:0.641921 1393:0.166532 1394:-0.424469 1395:-0.665006 1396:0.531526 1397:-0.283317 1398:-0.731109 1399:-0.404842 1400:0.640631 1401:0.434991 1402:-0.908955 1403:-0.937572 1404:-0.180568 1405:-0.119938 1406:0.642474 1407:-0.867864 1408:0.195089 1409:0.837227 1410:0.654809 1411:-0.968585 1412:-0.874438 1413:0.199793 1414:-0.479508 1415:0.0390694 1416:0.309811 1417:0.641921 1418:0.166532 1419:-0.424469 1420:-0.665006 1421:0.531526 1422:-0.283317 1423:-0.731109 1424:-0.404842 1425:0.640631 1426:0.296534 1427:-0.346154 1428:0.671879 1429:0.36184 1430:-0.387148 1431:-0.675698 1432:-0.0322461 1433:0.209414 1434:-1 1435:-0.463285 1436:0.258014 1437:0.806161 1438:0.597339 1439:-0.779057 1440:-0.753075 1441:0.340831 1442:0.236842 1443:0.532167 1444:-0.247862 1445:-0.380241 1446:-0.723265 1447:0.0912782 1448:0.290452 1449:-0.801448 1450:-0.702328 1451:0.296534 1452:-0.346154 1453:0.671879 1454:0.36184 1455:-0.387148 1456:-0.675698 1457:-0.0322461 1458:0.209414 1459:-1 1460:-0.463285 1461:0.258014 1462:0.806161 1463:0.597339 1464:-0.779057 1465:-0.753075 1466:0.340831 1467:0.236842 1468:0.532167 1469:-0.247862 1470:-0.380241 1471:-0.723265 1472:0.0912782 1473:0.290452 1474:-0.801448 1475:-0.702328 1476:0.033139 1477:-0.849854 1478:-0.874794 1479:0.213423 1480:-0.487273 1481:0.711016 1482:0.0284748 1483:0.338044 1484:0.915048 1485:-0.706716 1486:0.407488 1487:-0.597578 1488:-0.0157373 1489:0.0178674 1490:-0.296791 1491:-0.300726 1492:0.141939 1493:0.299254 1494:-0.347111 1495:-0.790797 1496:0.102587 1497:1 1498:-0.182259 1499:-0.207971 1500:-0.620131 1501:0.033139 1502:-0.849854 1503:-0.874794 1504:0.213423 1505:-0.487273 1506:0.711016 1507:0.0284748 1508:0.338044 1509:0.915048 1510:-0.706716 1511:0.407488 1512:-0.597578 1513:-0.0157373 1514:0.0178674 1515:-0.296791 1516:-0.300726 1517:0.141939 1518:0.299254 1519:-0.347111 1520:-0.790797 1521:0.102587 1522:1 1523:-0.182259 1524:-0.207971 1525:-0.620131 1526:-0.334926 1527:-0.217209 1528:-0.690151 1529:0.249864 1530:0.0859416 1531:0.117908 1532:-1 1533:-0.699201 1534:-0.29304 1535:0.416909 1536:0.19583 1537:0.877381 1538:-0.323085 1539:-0.656022 1540:-0.60597 1541:-0.327624 1542:-0.232264 1543:0.196253 1544:0.904433 1545:0.516144 1546:-0.269042 1547:-0.101946 1548:0.341163 1549:0.925844 1550:-0.166706 1551:-0.157772 1552:-1 1553:-0.558081 1554:0.571086 1555:0.192257 1556:-0.613276 1557:0.286379 1558:0.114949 1559:0.68831 1560:-0.238587 1561:-0.0293909 1562:-0.0264029 1563:0.813223 1564:-0.204219 1565:0.457957 1566:-0.560454 1567:-0.295646 1568:-0.653589 1569:-0.159986 1570:0.589806 1571:0.880001 1572:-0.257281 1573:0.160268 1574:0.0111715 1575:-0.556816 1576:-0.157772 1577:-1 1578:-0.558081 1579:0.571086 1580:0.192257 1581:-0.613276 1582:0.286379 1583:0.114949 1584:0.68831 1585:-0.238587 1586:-0.0293909 1587:-0.0264029 1588:0.813223 1589:-0.204219 1590:0.457957 1591:-0.560454 1592:-0.295646 1593:-0.653589 1594:-0.159986 1595:0.589806 1596:0.880001 1597:-0.257281 1598:0.160268 1599:0.0111715 1600:-0.556816 1601:0.345506 1602:0.187873 1603:1 1604:-0.720353 1605:-0.410842 1606:-0.668485 1607:0.18445 1608:-0.119681 1609:-0.380943 1610:0.556611 1611:-0.396054 1612:0.953481 1613:0.505353 1614:-0.248396 1615:0.426757 1616:-0.357321 1617:0.142964 1618:0.300624 1619:-0.813259 1620:0.503616 1621:-0.714739 1622:0.241227 1623:-0.40509 1624:0.118622 1625:0.184815 1626:0.450426 1627:-0.609328 1628:-0.93107 1629:0.676077 1630:-0.590251 1631:-0.97617 1632:-0.996168 1633:0.942784 1634:0.219069 1635:-0.106004 1636:-0.995837 1637:0.181624 1638:-0.0325727 1639:0.961143 1640:0.690184 1641:-0.143596 1642:0.158568 1643:-0.940503 1644:0.83331 1645:-0.390144 1646:0.502391 1647:-0.558291 1648:0.874005 1649:0.451024 1650:0.524239 1651:1 1652:-0.375808 1653:-0.99348 1654:0.129611 1655:0.586035 1656:-0.294073 1657:-0.874697 1658:-0.880155 1659:0.478073 1660:0.962081 1661:-0.556734 1662:-0.539339 1663:0.103042 1664:0.989513 1665:0.901885 1666:0.897363 1667:-0.162682 1668:0.594559 1669:-0.132938 1670:-0.932352 1671:-0.164622 1672:0.0140488 1673:0.841581 1674:-0.465833 1675:-1 1676:-0.8319 1677:-0.298889 1678:-0.332086 1679:0.847177 1680:0.665996 1681:-0.232934 1682:0.456689 1683:0.506533 1684:-0.393441 1685:0.370167 1686:0.721722 1687:0.643675 1688:0.91341 1689:0.471489 1690:0.500177 1691:-0.274515 1692:-0.284486 1693:-0.158215 1694:-0.768652 1695:-0.876357 1696:0.173688 1697:-0.979035 1698:-0.97394 1699:0.19172 1700:0.967411 1701:-0.260674 1702:-0.919727 1703:-0.880812 1704:-0.441717 1705:-0.651812 1706:-0.976973 1707:-0.0846878 1708:0.252581 1709:0.437616 1710:-0.970755 1711:-0.684141 1712:0.273088 1713:0.7683 1714:-0.97843 1715:-0.130622 1716:-0.669669 1717:-0.100917 1718:-0.389453 1719:-0.936641 1720:0.354242 1721:0.67147 1722:-0.478807 1723:-0.828172 1724:0.445062 1725:-0.0601013 1726:1 1727:-0.622584 1728:-0.62999 1729:-0.272185 1730:0.183654 1731:-0.00588833 1732:-1 1733:-0.064665 1734:0.134194 1735:-0.186102 1736:-0.570429 1737:-0.6668 1738:0.778544 1739:-0.676423 1740:0.116401 1741:-0.502015 1742:-0.074066 1743:-0.0541387 1744:-0.877145 1745:0.523705 1746:0.0545597 1747:-0.0757374 1748:-0.00997811 1749:-0.173731 1750:-0.0994714 1751:0.637601 1752:0.889985 1753:0.309214 1754:-0.536719 1755:-0.761152 1756:-0.643648 1757:-0.587794 1758:-0.433274 1759:-0.583389 1760:-0.739349 1761:-0.727103 1762:-0.304837 1763:-0.343029 1764:-0.290368 1765:-0.360552 1766:-0.0341926 1767:0.443647 1768:-0.350052 1769:-0.0403915 1770:0.216089 1771:0.104667 1772:0.124444 1773:0.125566 1774:-0.376602 1775:-0.31462 1776:0.907883 1777:-0.486261 1778:0.0215552 1779:-0.901393 1780:-0.823163 1781:-0.920849 1782:0.458433 1783:0.358792 1784:-0.234246 1785:-0.17942 1786:-0.555929 1787:-0.0118021 1788:0.501153 1789:-0.644336 1790:-0.169589 1791:0.125331 1792:0.0287489 1793:0.049296 1794:0.0250599 1795:0.346283 1796:0.886772 1797:-0.129635 1798:0.418943 1799:0.497242 1800:0.0978174 1801:-1 1802:0.314014 1803:-0.551017 1804:0.994124 1805:0.976995 1806:0.419324 1807:0.949494 1808:0.209555 1809:0.436403 1810:-0.133481 1811:0.311778 1812:0.403446 1813:0.0374685 1814:0.0869134 1815:-0.161913 1816:-0.275943 1817:0.00829957 1818:-0.668645 1819:-0.349944 1820:-0.10283 1821:-0.0450157 1822:-0.150819 1823:-0.492102 1824:-0.420762 1825:0.689478 1826:0.954629 1827:-0.895896 1828:0.585408 1829:0.338181 1830:-0.194572 1831:-0.928763 1832:0.213375 1833:0.429345 1834:-0.316487 1835:0.733905 1836:-0.893919 1837:0.0117048 1838:0.355736 1839:0.832959 1840:0.16135 1841:0.750138 1842:-0.263177 1843:0.0871983 1844:-0.844976 1845:-0.640784 1846:0.0126608 1847:-0.353736 1848:0.46527 1849:-0.0686437 1850:-0.283892 1851:0.27865 1852:-0.217414 1853:0.608194 1854:-0.558317 1855:1 1856:-0.964737 1857:-0.0640337 1858:0.505638 1859:0.447794 1860:0.334615 1861:0.314658 1862:0.648089 1863:1 1864:-0.362364 1865:0.223481 1866:-0.921356 1867:-0.278539 1868:-1 1869:-0.877205 1870:-0.402182 1871:-0.227464 1872:0.894947 1873:-0.355383 1874:0.253908 1875:-0.736674 1876:-0.191788 1877:0.0648591 1878:-0.258081 1879:0.0906275 1880:0.863154 1881:-0.758319 1882:-0.333787 1883:-0.35 1884:-0.108336 1885:-0.383398 1886:-0.439013 1887:0.161614 1888:-1 1889:1 1890:0.623783 1891:0.161188 1892:-0.0106022 1893:-0.572508 1894:-0.389461 1895:-0.346887 1896:-0.734554 1897:0.436281 1898:-0.567365 1899:0.113952 1900:0.195737 1901:0.662552 1902:0.466085 1903:0.672345 1904:-0.586816 1905:0.130538 1906:-1 1907:0.0665353 1908:-0.543906 1909:-1 1910:0.886755 1911:-0.648636 1912:0.382389 1913:0.625868 1914:-0.00228182 1915:0.145607 1916:-0.304385 1917:0.140121 1918:0.653742 1919:-0.364635 1920:1 1921:0.357014 1922:0.978537 1923:-0.45929 1924:-0.0299394 1925:-0.834079 1926:-0.821983 1927:0.632421 1928:-0.616114 1929:0.776407 1930:0.646995 1931:-0.66407 1932:0.845677 1933:0.281391 1934:0.376332 1935:-0.382853 1936:0.540924 1937:0.508644 1938:-0.22688 1939:0.697631 1940:0.800833 1941:0.221055 1942:0.153817 1943:0.0858109 1944:-0.150144 1945:0.466573 1946:-0.0436523 1947:0.249283 1948:0.042228 1949:-0.472542 1950:0.139284 1951:0.799351 1952:-0.248732 1953:0.930935 1954:-0.332789 1955:-0.302843 1956:-0.663443 1957:0.120365 1958:-0.397755 1959:-0.834541 1960:0.921927 1961:-0.874537 1962:-0.123038 1963:-0.00974143 1964:0.576689 1965:-0.570428 1966:0.561467 1967:-0.36386 1968:0.472799 1969:-0.522435 1970:0.535525 1971:0.423026 1972:-0.0492011 1973:0.561636 1974:-0.166629 1975:0.395446 1976:-0.0849486 1977:-0.0675266 1978:-0.626561 1979:0.637026 1980:1 1981:-0.830137 1982:0.896835 1983:-1 1984:0.730747 1985:0.638222 1986:0.0366479 1987:-0.370445 1988:0.73846 1989:0.702544 1990:0.816634 1991:-0.178544 1992:-0.14204 1993:-0.371995 1994:-0.25788 1995:0.681646 1996:-0.998727 1997:-0.197965 1998:-0.0488034 1999:0.382677 2000:-1 2001:0.732505 2002:0.62896 2003:0.557381 2004:-0.562791 2005:-0.515477 2006:-0.626421 2007:-0.728974 2008:-0.460843 2009:-0.994036 2010:-0.397999 2011:-0.740389 2012:-0.527242 2013:0.577162 2014:-0.741455 2015:-0.538972 2016:0.639648 2017:0.953603 2018:-0.136049 2019:0.246054 2020:-0.0880444 2021:-0.573943 2022:0.652543 2023:-0.491825 2024:-0.669859 2025:-0.977602 2026:-0.839639 2027:-0.8753 2028:0.0560358 2029:0.95456 2030:0.485815 2031:-0.666219 2032:0.945907 2033:0.91279 2034:-0.174712 2035:-0.191949 2036:0.835733 2037:0.292441 2038:0.822676 2039:-0.328619 2040:-0.573264 2041:-0.523075 2042:-0.893717 2043:-0.969631 2044:0.609208 2045:0.258966 2046:-0.225639 2047:-0.825939 2048:0.795329 2049:-0.471294 2050:0.934953 2051:-0.173564 2052:-1 2053:-0.726724 2054:0.59083 2055:0.603161 2056:-0.860497 2057:0.820014 2058:-0.386796 2059:0.894527 2060:-0.255136 2061:0.762754 2062:1 2063:-1 2064:1 2065:-0.274423 2066:-1 2067:0.860179 2068:-0.238728 2069:-0.308348 2070:-1 2071:0.600405 2072:-0.51838 2073:-1 2074:-0.510986 2075:1 2076:0.231146 2077:0.791433 2078:0.666218 2079:0.879661 2080:0.224393 2081:0.600251 2082:0.336981 2083:-0.615857 2084:-0.0308199 2085:0.601701 2086:-0.133111 2087:0.141487 2088:-0.975124 2089:-0.185182 2090:0.180836 2091:0.385099 2092:0.618057 2093:0.919034 2094:-0.549456 2095:-0.251025 2096:0.0680222 2097:-0.745234 2098:0.786747 2099:-0.247449 2100:-0.230694 2101:0.546086 2102:0.43918 2103:0.327822 2104:0.381191 2105:1 2106:-0.616298 2107:1 2108:-0.975903 2109:-1 2110:0.744055 2111:-0.909925 2112:-0.0676231 2113:0.106086 2114:0.308474 2115:-0.238612 2116:-0.431145 2117:-0.515837 2118:-0.889483 2119:-0.622927 2120:0.165221 2121:-1 2122:0.0309753 2123:0.263879 2124:0.509429 2125:-0.618953 2126:-0.446249 2127:0.205471 2128:-0.471648 2129:0.421606 2130:-0.04712 2131:0.318202 2132:0.0097788 2133:0.602333 2134:0.0833294 2135:0.101339 2136:0.746126 2137:-0.171473 2138:-0.331799 2139:0.520178 2140:0.347276 2141:0.408914 2142:0.200425 2143:0.0903397 2144:-0.294935 2145:0.493215 2146:-0.237324 2147:-0.674551 2148:-0.00441172 2149:0.404636 2150:0.869334 2151:-1 2152:0.963328 2153:0.761119 2154:0.9475 2155:0.618662 2156:0.669275 2157:0.704375 2158:0.406491 2159:0.51104 2160:-0.934745 2161:0.471808 2162:0.842977 2163:-0.683091 2164:-0.935326 2165:-0.71767 2166:-0.407894 2167:0.528332 2168:-0.275637 2169:-0.335758 2170:0.872401 2171:0.0459429 2172:0.504518 2173:0.887547 2174:-0.693005 2175:0.533154 2176:-0.678967 2177:-0.576202 2178:-0.207556 2179:0.692878 2180:0.957272 2181:0.346965 2182:0.330507 2183:0.562209 2184:0.750223 2185:0.173667 2186:0.588808 2187:0.331333 2188:-0.299318 2189:0.417507 2190:0.0937599 2191:-0.41876 2192:0.25036 2193:-0.174017 2194:0.16608 2195:0.179936 2196:-0.0393504 2197:-0.0948366 2198:0.246274 2199:-0.306289 2200:-0.0955659 2201:0.85156 2202:-0.839246 2203:-0.814653 2204:-0.735164 2205:-0.247036 2206:-0.847812 2207:-0.874433 2208:0.865114 2209:0.890957 2210:-0.930652 2211:-0.911567 2212:-0.392849 2213:-0.77329 2214:-0.512446 2215:0.966333 2216:0.321022 2217:-0.932909 2218:-0.8653 2219:0.436716 2220:0.639917 2221:-0.923664 2222:-0.927104 2223:-0.612558 2224:0.382922 2225:0.513037 2226:-0.430317 2227:-0.976482 2228:-0.925519 2229:-0.725326 2230:-0.896798 2231:0.167098 2232:0.584224 2233:0.084621 2234:-0.936206 2235:-0.987536 2236:0.287067 2237:0.512621 2238:-0.107625 2239:0.640183 2240:0.979509 2241:-0.18218 2242:-0.877938 2243:-0.550705 2244:0.251459 2245:0.725956 2246:-0.589395 2247:-0.249798 2248:-0.118328 2249:-0.329013 2250:0.627192 2251:0.646554 2252:-0.973692 2253:-0.946297 2254:-0.232232 2255:0.0555626 2256:0.604259 2257:-0.207977 2258:0.487004 2259:0.593386 2260:-0.927797 2261:-0.964393 2262:-0.541842 2263:0.459628 2264:0.808367 2265:-0.0822564 2266:-0.150241 2267:0.755827 2268:-0.448677 2269:0.00293173 2270:-0.561556 2271:-0.138142 2272:0.172371 2273:0.0573396 2274:0.0321046 2275:0.154539 2276:0.646554 2277:-0.973692 2278:-0.946297 2279:-0.232232 2280:0.0555626 2281:0.604259 2282:-0.207977 2283:0.487004 2284:0.593386 2285:-0.927797 2286:-0.964393 2287:-0.541842 2288:0.459628 2289:0.808367 2290:-0.0822564 2291:-0.150241 2292:0.755827 2293:-0.448677 2294:0.00293173 2295:-0.561556 2296:-0.138142 2297:0.172371 2298:0.0573396 2299:0.0321046 2300:0.154539 2301:-0.674022 2302:0.0874465 2303:-0.393905 2304:0.758291 2305:-0.443286 2306:-0.334666 2307:0.061734 2308:-0.0273161 2309:0.055431 2310:-0.0925736 2311:1 2312:0.529446 2313:0.439173 2314:-0.510133 2315:0.170387 2316:0.184316 2317:0.251821 2318:0.30261 2319:-0.714247 2320:-0.12686 2321:0.415599 2322:-0.320844 2323:-0.544767 2324:-0.80873 2325:0.682063 2326:-0.674022 2327:0.0874465 2328:-0.393905 2329:0.758291 2330:-0.443286 2331:-0.334666 2332:0.061734 2333:-0.0273161 2334:0.055431 2335:-0.0925736 2336:1 2337:0.529446 2338:0.439173 2339:-0.510133 2340:0.170387 2341:0.184316 2342:0.251821 2343:0.30261 2344:-0.714247 2345:-0.12686 2346:0.415599 2347:-0.320844 2348:-0.544767 2349:-0.80873 2350:0.682063 2351:-0.777676 2352:-0.587806 2353:-1 2354:0.784916 2355:0.504931 2356:1 2357:-0.492217 2358:0.122441 2359:0.358345 2360:-0.782787 2361:0.0883243 2362:-0.24889 2363:0.374021 2364:-0.581158 2365:-0.284162 2366:0.751496 2367:-0.253114 2368:-0.24447 2369:-0.178358 2370:0.297874 2371:-0.019262 2372:-0.128125 2373:-0.185013 2374:0.835289 2375:0.927682 2376:0.0351105 2377:-0.0367656 2378:-0.890446 2379:0.373034 2380:-0.758874 2381:-0.284341 2382:0.00195433 2383:0.327778 2384:0.600717 2385:-0.497213 2386:0.996755 2387:-0.00419985 2388:0.660844 2389:-0.592126 2390:-1 2391:-0.506788 2392:-0.00188786 2393:0.530287 2394:-0.444525 2395:-0.674799 2396:0.211017 2397:0.368417 2398:0.84521 2399:-0.432315 2400:-0.345684 2401:0.0351105 2402:-0.0367656 2403:-0.890446 2404:0.373034 2405:-0.758874 2406:-0.284341 2407:0.00195433 2408:0.327778 2409:0.600717 2410:-0.497213 2411:0.996755 2412:-0.00419985 2413:0.660844 2414:-0.592126 2415:-1 2416:-0.506788 2417:-0.00188786 2418:0.530287 2419:-0.444525 2420:-0.674799 2421:0.211017 2422:0.368417 2423:0.84521 2424:-0.432315 2425:-0.345684 2426:-0.413564 2427:-0.460411 2428:-0.237132 2429:0.112084 2430:0.344065 2431:0.255622 2432:0.302179 2433:0.553017 2434:-0.427111 2435:-0.273294 2436:0.151252 2437:-0.0202543 2438:-0.717065 2439:0.38717 2440:-1 2441:0.348141 2442:0.413441 2443:0.265363 2444:0.499184 2445:-0.000124853 2446:-0.0239913 2447:-0.819741 2448:-0.0693158 2449:-0.403861 2450:-0.345831 2451:0.734721 2452:-0.582254 2453:-0.0556052 2454:-0.926046 2455:0.310836 2456:-1 2457:-0.2276 2458:-0.484936 2459:-0.870022 2460:0.495949 2461:0.165132 2462:0.520447 2463:0.0419363 2464:0.476465 2465:-0.496347 2466:-0.357879 2467:-0.775274 2468:1 2469:-0.497061 2470:0.477309 2471:-0.462947 2472:-0.124913 2473:-0.693822 2474:-0.383112 2475:-0.25705 2476:0.793796 2477:0.89344 2478:0.726663 2479:-0.860326 2480:0.16204 2481:-0.86455 2482:-0.0610292 2483:-0.877614 2484:-0.594897 2485:0.85527 2486:-0.782627 2487:-0.643766 2488:-0.671563 2489:0.577573 2490:0.363168 2491:-0.844394 2492:-0.81046 2493:0.511974 2494:-0.427632 2495:0.848149 2496:0.687922 2497:0.727843 2498:-0.440089 2499:-0.642577 2500:0.400801 2501:0.994479 2502:-0.857442 2503:-0.236669 2504:-0.955329 2505:0.838699 2506:-0.628903 2507:-0.991865 2508:-0.0116391 2509:0.936338 2510:0.951343 2511:-0.954263 2512:-0.22581 2513:-0.485277 2514:0.995542 2515:0.858481 2516:0.604215 2517:0.643516 2518:-0.737222 2519:0.0360915 2520:0.381503 2521:-0.796417 2522:0.842205 2523:-0.282735 2524:0.916563 2525:-0.812292 2526:0.994479 2527:-0.857442 2528:-0.236669 2529:-0.955329 2530:0.838699 2531:-0.628903 2532:-0.991865 2533:-0.0116391 2534:0.936338 2535:0.951343 2536:-0.954263 2537:-0.22581 2538:-0.485277 2539:0.995542 2540:0.858481 2541:0.604215 2542:0.643516 2543:-0.737222 2544:0.0360915 2545:0.381503 2546:-0.796417 2547:0.842205 2548:-0.282735 2549:0.916563 2550:-0.812292 2551:-0.0285198 2552:0.363083 2553:0.757844 2554:-0.365844 2555:-1 2556:-0.305514 2557:0.628707 2558:0.500399 2559:0.219216 2560:-0.742372 2561:-0.88411 2562:-0.0981106 2563:-1 2564:-0.0488145 2565:-0.399837 2566:0.678482 2567:0.379152 2568:0.35203 2569:-0.0152251 2570:-0.195199 2571:0.414344 2572:-0.282128 2573:-0.125079 2574:0.219167 2575:-1 2576:-0.0285198 2577:0.363083 2578:0.757844 2579:-0.365844 2580:-1 2581:-0.305514 2582:0.628707 2583:0.500399 2584:0.219216 2585:-0.742372 2586:-0.88411 2587:-0.0981106 2588:-1 2589:-0.0488145 2590:-0.399837 2591:0.678482 2592:0.379152 2593:0.35203 2594:-0.0152251 2595:-0.195199 2596:0.414344 2597:-0.282128 2598:-0.125079 2599:0.219167 2600:-1 2601:0.368198 2602:-0.517613 2603:0.513205 2604:-0.0975417 2605:-0.593387 2606:-0.513722 2607:0.535467 2608:0.558499 2609:-0.276739 2610:0.523223 2611:-0.810736 2612:-0.456474 2613:-0.290561 2614:0.368246 2615:0.377391 2616:0.17637 2617:0.33578 2618:0.831717 2619:-0.164338 2620:0.200451 2621:0.459542 2622:0.115235 2623:-0.347854 2624:-0.0565213 2625:-0.1008 2626:0.368198 2627:-0.517613 2628:0.513205 2629:-0.0975417 2630:-0.593387 2631:-0.513722 2632:0.535467 2633:0.558499 2634:-0.276739 2635:0.523223 2636:-0.810736 2637:-0.456474 2638:-0.290561 2639:0.368246 2640:0.377391 2641:0.17637 2642:0.33578 2643:0.831717 2644:-0.164338 2645:0.200451 2646:0.459542 2647:0.115235 2648:-0.347854 2649:-0.0565213 2650:-0.1008 2651:0.966444 2652:-0.72457 2653:-0.996781 2654:-0.989716 2655:0.638727 2656:-0.89414 2657:-0.907332 2658:-0.481315 2659:0.147182 2660:0.709682 2661:0.238316 2662:0.617795 2663:-0.839356 2664:0.640399 2665:-0.823742 2666:-0.465419 2667:0.594254 2668:-0.144446 2669:-0.792632 2670:0.879261 2671:0.714193 2672:-0.770328 2673:0.787944 2674:0.860905 2675:0.714966 2676:0.966444 2677:-0.72457 2678:-0.996781 2679:-0.989716 2680:0.638727 2681:-0.89414 2682:-0.907332 2683:-0.481315 2684:0.147182 2685:0.709682 2686:0.238316 2687:0.617795 2688:-0.839356 2689:0.640399 2690:-0.823742 2691:-0.465419 2692:0.594254 2693:-0.144446 2694:-0.792632 2695:0.879261 2696:0.714193 2697:-0.770328 2698:0.787944 2699:0.860905 2700:0.714966 2701:-0.259025 2702:-0.356614 2703:-0.506067 2704:0.386599 2705:0.180018 2706:0.309371 2707:0.662586 2708:0.0376192 2709:1 2710:-0.881415 2711:-0.94841 2712:0.0872446 2713:-1 2714:-0.457759 2715:0.0733116 2716:0.360496 2717:0.305603 2718:0.326785 2719:0.558189 2720:0.186849 2721:-0.0656605 2722:1 2723:1 2724:0.868499 2725:0.134431 2726:-0.259025 2727:-0.356614 2728:-0.506067 2729:0.386599 2730:0.180018 2731:0.309371 2732:0.662586 2733:0.0376192 2734:1 2735:-0.881415 2736:-0.94841 2737:0.0872446 2738:-1 2739:-0.457759 2740:0.0733116 2741:0.360496 2742:0.305603 2743:0.326785 2744:0.558189 2745:0.186849 2746:-0.0656605 2747:1 2748:1 2749:0.868499 2750:0.134431 2751:-0.12644 2752:-0.594629 2753:-0.481796 2754:0.349636 2755:-0.090105 2756:0.735799 2757:0.333311 2758:0.438877 2759:-0.144534 2760:0.179573 2761:0.559961 2762:-0.736797 2763:-0.0992431 2764:0.479683 2765:-0.216686 2766:0.645133 2767:0.5859 2768:0.93657 2769:0.234039 2770:0.0831007 2771:0.074463 2772:-0.622581 2773:0.176541 2774:-0.134172 2775:1 2776:-0.12644 2777:-0.594629 2778:-0.481796 2779:0.349636 2780:-0.090105 2781:0.735799 2782:0.333311 2783:0.438877 2784:-0.144534 2785:0.179573 2786:0.559961 2787:-0.736797 2788:-0.0992431 2789:0.479683 2790:-0.216686 2791:0.645133 2792:0.5859 2793:0.93657 2794:0.234039 2795:0.0831007 2796:0.074463 2797:-0.622581 2798:0.176541 2799:-0.134172 2800:1 2801:0.999374 2802:0.657651 2803:-0.999619 2804:-0.999217 2805:0.0681511 2806:0.862405 2807:-0.996536 2808:-0.229754 2809:0.376695 2810:-0.0633148 2811:0.236956 2812:0.0308141 2813:-0.389912 2814:-0.288404 2815:0.417765 2816:0.29265 2817:0.603665 2818:0.409157 2819:-0.647075 2820:-0.514154 2821:0.363347 2822:-0.273154 2823:-0.131192 2824:-0.440421 2825:0.273175 2826:0.999374 2827:0.657651 2828:-0.999619 2829:-0.999217 2830:0.0681511 2831:0.862405 2832:-0.996536 2833:-0.229754 2834:0.376695 2835:-0.0633148 2836:0.236956 2837:0.0308141 2838:-0.389912 2839:-0.288404 2840:0.417765 2841:0.29265 2842:0.603665 2843:0.409157 2844:-0.647075 2845:-0.514154 2846:0.363347 2847:-0.273154 2848:-0.131192 2849:-0.440421 2850:0.273175 2851:0.565248 2852:0.333271 2853:-0.654139 2854:-0.0186242 2855:-0.96777 2856:-0.0477095 2857:-0.167059 2858:0.958151 2859:0.353959 2860:-0.757287 2861:0.444033 2862:-0.0492075 2863:0.442565 2864:0.614062 2865:-0.350436 2866:-0.780588 2867:0.224475 2868:0.410706 2869:0.265691 2870:-0.315302 2871:-0.00532103 2872:-0.581502 2873:-0.964864 2874:-0.542011 2875:0.325202 2876:0.565248 2877:0.333271 2878:-0.654139 2879:-0.0186242 2880:-0.96777 2881:-0.0477095 2882:-0.167059 2883:0.958151 2884:0.353959 2885:-0.757287 2886:0.444033 2887:-0.0492075 2888:0.442565 2889:0.614062 2890:-0.350436 2891:-0.780588 2892:0.224475 2893:0.410706 2894:0.265691 2895:-0.315302 2896:-0.00532103 2897:-0.581502 2898:-0.964864 2899:-0.542011 2900:0.325202 2901:-0.865711 2902:0.708653 2903:-1 2904:0.928782 2905:0.802889 2906:0.896361 2907:-0.831437 2908:-0.677445 2909:-0.747267 2910:-0.949753 2911:1 2912:0.749843 2913:0.948751 2914:-0.955697 2915:0.974758 2916:-0.300527 2917:0.883358 2918:-0.81846 2919:-1 2920:-0.86071 2921:0.760756 2922:-1 2923:-0.941675 2924:-0.823534 2925:-0.646491 2926:-0.865711 2927:0.708653 2928:-1 2929:0.928782 2930:0.802889 2931:0.896361 2932:-0.831437 2933:-0.677445 2934:-0.747267 2935:-0.949753 2936:1 2937:0.749843 2938:0.948751 2939:-0.955697 2940:0.974758 2941:-0.300527 2942:0.883358 2943:-0.81846 2944:-1 2945:-0.86071 2946:0.760756 2947:-1 2948:-0.941675 2949:-0.823534 2950:-0.646491 2951:-0.901297 2952:-0.883551 2953:0.857246 2954:0.698916 2955:0.756715 2956:-0.313816 2957:0.411963 2958:0.872186 2959:0.541718 2960:0.121468 2961:0.903305 2962:0.270511 2963:0.138053 2964:0.233587 2965:-0.14262 2966:-0.549585 2967:-0.551974 2968:-0.341269 2969:0.220262 2970:-0.207881 2971:-0.148884 2972:0.627268 2973:0.442215 2974:0.000775932 2975:0.558207 2976:-0.901297 2977:-0.883551 2978:0.857246 2979:0.698916 2980:0.756715 2981:-0.313816 2982:0.411963 2983:0.872186 2984:0.541718 2985:0.121468 2986:0.903305 2987:0.270511 2988:0.138053 2989:0.233587 2990:-0.14262 2991:-0.549585 2992:-0.551974 2993:-0.341269 2994:0.220262 2995:-0.207881 2996:-0.148884 2997:0.627268 2998:0.442215 2999:0.000775932 3000:0.558207 3001:-0.571953 3002:-0.937854 3003:0.968449 3004:-0.893409 3005:-0.933232 3006:-0.816369 3007:0.674736 3008:-0.766163 3009:-0.949839 3010:-0.526226 3011:-0.956106 3012:0.663719 3013:0.76685 3014:-0.819436 3015:0.0678648 3016:-0.80619 3017:0.255993 3018:0.951135 3019:0.581609 3020:0.11855 3021:-0.0509 3022:-0.968238 3023:-0.428927 3024:0.105691 3025:0.885092 3026:-0.571953 3027:-0.937854 3028:0.968449 3029:-0.893409 3030:-0.933232 3031:-0.816369 3032:0.674736 3033:-0.766163 3034:-0.949839 3035:-0.526226 3036:-0.956106 3037:0.663719 3038:0.76685 3039:-0.819436 3040:0.0678648 3041:-0.80619 3042:0.255993 3043:0.951135 3044:0.581609 3045:0.11855 3046:-0.0509 3047:-0.968238 3048:-0.428927 3049:0.105691 3050:0.885092 3051:-0.25844 3052:-0.477426 3053:-0.895187 3054:-0.1061 3055:0.517643 3056:0.436971 3057:0.59655 3058:-0.230736 3059:-1 3060:-0.0275759 3061:-0.60303 3062:0.237536 3063:-0.256158 3064:-1 3065:-0.652697 3066:1 3067:0.457191 3068:-0.202795 3069:0.41944 3070:-0.457897 3071:0.0425148 3072:0.1796 3073:-0.706986 3074:0.275856 3075:-0.310818 3076:-0.57425 3077:0.167126 3078:-0.833363 3079:0.403305 3080:-0.975895 3081:0.508 3082:-0.497996 3083:0.731702 3084:0.240297 3085:-0.68785 3086:0.872846 3087:0.793328 3088:0.240699 3089:0.515414 3090:-0.137396 3091:-0.55777 3092:-0.431634 3093:0.251681 3094:0.468264 3095:1 3096:0.286648 3097:-0.535761 3098:0.529888 3099:0.26583 3100:-0.153191 3101:-0.57425 3102:0.167126 3103:-0.833363 3104:0.403305 3105:-0.975895 3106:0.508 3107:-0.497996 3108:0.731702 3109:0.240297 3110:-0.68785 3111:0.872846 3112:0.793328 3113:0.240699 3114:0.515414 3115:-0.137396 3116:-0.55777 3117:-0.431634 3118:0.251681 3119:0.468264 3120:1 3121:0.286648 3122:-0.535761 3123:0.529888 3124:0.26583 3125:-0.153191 3126:-0.619911 3127:-0.166679 3128:-0.30743 3129:0.836484 3130:0.588459 3131:-0.313074 3132:0.0157355 3133:0.339437 3134:0.555756 3135:-0.401337 3136:-0.325169 3137:0.495232 3138:0.742908 3139:-0.663084 3140:0.751188 3141:0.649596 3142:-0.0741215 3143:0.287133 3144:0.312651 3145:-0.145037 3146:0.18546 3147:0.0942677 3148:0.628865 3149:0.202452 3150:0.413131 3151:-0.619911 3152:-0.166679 3153:-0.30743 3154:0.836484 3155:0.588459 3156:-0.313074 3157:0.0157355 3158:0.339437 3159:0.555756 3160:-0.401337 3161:-0.325169 3162:0.495232 3163:0.742908 3164:-0.663084 3165:0.751188 3166:0.649596 3167:-0.0741215 3168:0.287133 3169:0.312651 3170:-0.145037 3171:0.18546 3172:0.0942677 3173:0.628865 3174:0.202452 3175:0.413131 3176:0.95376 3177:1 3178:-0.0941389 3179:-0.348867 3180:-0.629645 3181:-0.353295 3182:-1 3183:-1 3184:0.490444 3185:-1 3186:-1 3187:-1 3188:-0.805254 3189:-1 3190:-1 3191:-1 3192:1 3193:0.494219 3194:1 3195:-0.299277 3196:-1 3197:0.725136 3198:-1 3199:-1 3200:1 
0.0009765625 1:-0.891756 2:0.543698 3:-0.254817 4:0.895329 5:0.942291 6:0.833481 7:0.766312 8:0.587236 9:0.92079 10:0.5986 11:0.271111 12:0.400332 13:-0.735241 14:-0.74965 15:-0.894275 16:0.913848 17:0.136659 18:0.847992 19:0.537259 20:0.790303 21:0.353227 22:0.0841672 23:0.969297 24:-0.269193 25:-0.173416 26:-1 27:0.936742 28:-0.204713 29:1 30:0.981915 31:1 32:0.105053 33:0.872538 34:-0.493352 35:-0.737026 36:1 37:0.988948 38:0.872071 39:-0.85323 40:0.978001 41:0.897962 42:0.864816 43:-0.63607 44:-0.939942 45:0.41585 46:0.982538 47:-0.109658 48:-0.936302 49:-0.940676 50:-0.558291 51:-1 52:0.936742 53:-0.204713 54:1 55:0.981915 56:1 57:0.105053 58:0.872538 59:-0.493352 60:-0.737026 61:1 62:0.988948 63:0.872071 64:-0.85323 65:0.978001 66:0.897962 67:0.864816 68:-0.63607 69:-0.939942 70:0.41585 71:0.982538 72:-0.109658 73:-0.936302 74:-0.940676 75:-0.558291 76:0.960395 77:0.677121 78:-0.407593 79:0.949623 80:0.716938 81:-0.0495101 82:-0.223341 83:0.141386 84:0.689292 85:0.406564 86:-0.344083 87:0.0362049 88:-0.884226 89:-0.00980749 90:0.867063 91:0.810989 92:0.557055 93:-0.28649 94:0.695569 95:-0.00566651 96:-0.0220843 97:-0.391661 98:0.939469 99:0.530412 100:-0.564986 101:-0.994423 102:-0.141304 103:0.579499 104:0.998441 105:0.999473 106:0.998744 107:0.982924 108:0.962686 109:0.927508 110:-0.562418 111:0.939969 112:0.829103 113:-0.777464 114:0.266317 115:-0.642511 116:-0.516909 117:0.691725 118:0.220144 119:-0.066274 120:0.32587 121:-0.644586 122:0.560017 123:0.368102 124:0.477105 125:0.285886 126:0.996943 127:-0.819703 128:-0.512374 129:-0.654125 130:0.66806 131:-0.513276 132:-0.998793 133:-0.318645 134:0.851724 135:0.981773 136:-0.890829 137:-0.0227383 138:0.761938 139:-0.271354 140:0.388019 141:0.857304 142:-0.291337 143:-0.760797 144:0.304658 145:-0.631392 146:0.602263 147:0.650933 148:0.642127 149:0.983473 150:-0.961084 151:0.996943 152:-0.819703 153:-0.512374 154:-0.654125 155:0.66806 156:-0.513276 157:-0.998793 158:-0.318645 159:0.851724 160:0.981773 161:-0.890829 162:-0.0227383 163:0.761938 164:-0.271354 165:0.388019 166:0.857304 167:-0.291337 168:-0.760797 169:0.304658 170:-0.631392 171:0.602263 172:0.650933 173:0.642127 174:0.983473 175:-0.961084 176:-0.993641 177:0.483694 178:0.0430445 179:0.996757 180:0.631363 181:0.918192 182:0.994442 183:0.471834 184:0.682095 185:0.427374 186:0.423641 187:0.743226 188:0.195487 189:-0.0971385 190:-0.627763 191:-0.358045 192:0.183106 193:-0.810235 194:0.460993 195:-0.337164 196:-0.149016 197:0.115681 198:-0.409677 199:-0.43393 200:0.851567 201:0.999152 202:0.492827 203:-0.887896 204:-0.869 205:0.521627 206:0.426999 207:-0.456558 208:-0.159723 209:0.00392847 210:-0.183906 211:-0.721844 212:0.545833 213:0.0640999 214:-0.657955 215:-0.0876852 216:-0.801159 217:0.236404 218:-0.578457 219:-0.781699 220:0.118217 221:0.281515 222:0.803465 223:-0.385539 224:0.703115 225:-0.263102 226:-0.377698 227:0.741161 228:0.745864 229:0.558299 230:0.690997 231:1 232:0.167171 233:0.272522 234:0.794121 235:-0.232578 236:-0.077311 237:0.705564 238:-0.546095 239:0.359816 240:-0.0907576 241:0.228864 242:-0.507998 243:0.938623 244:-0.664121 245:-0.694622 246:-0.545353 247:-0.896548 248:0.905561 249:0.260668 250:-0.642192 251:0.248903 252:0.534449 253:0.409847 254:-0.269423 255:0.416206 256:-0.165751 257:0.274495 258:-0.185994 259:-0.427606 260:-0.0327434 261:0.0562524 262:0.271949 263:0.87345 264:-0.733609 265:0.837281 266:0.828074 267:0.163836 268:0.647826 269:0.28464 270:-0.879422 271:0.136519 272:-0.677479 273:-0.0547108 274:-0.448949 275:0.476961 276:0.998906 277:-0.486129 278:-0.453394 279:-0.99587 280:0.74693 281:0.554937 282:0.473356 283:0.338413 284:-0.620752 285:0.840567 286:-0.839004 287:0.823709 288:0.641881 289:0.475933 290:0.564995 291:0.43824 292:-0.446342 293:0.415447 294:0.333072 295:0.364101 296:-0.619313 297:0.506674 298:-0.0928522 299:0.128666 300:-0.306661 301:0.998906 302:-0.486129 303:-0.453394 304:-0.99587 305:0.74693 306:0.554937 307:0.473356 308:0.338413 309:-0.620752 310:0.840567 311:-0.839004 312:0.823709 313:0.641881 314:0.475933 315:0.564995 316:0.43824 317:-0.446342 318:0.415447 319:0.333072 320:0.364101 321:-0.619313 322:0.506674 323:-0.0928522 324:0.128666 325:-0.306661 326:-0.965854 327:-0.886247 328:-0.924809 329:0.91587 330:0.783187 331:0.947 332:0.0787105 333:0.93177 334:0.980223 335:0.933479 336:0.962799 337:0.930773 338:-0.701867 339:-0.590372 340:0.904087 341:0.802279 342:0.553466 343:-0.624156 344:0.903837 345:0.780939 346:0.642286 347:0.418657 348:-0.836138 349:-0.883037 350:0.845548 351:-0.889093 352:-0.143542 353:-0.791489 354:0.862863 355:0.422777 356:0.0544484 357:0.414965 358:-0.102023 359:0.481876 360:0.526 361:0.980238 362:0.499672 363:0.496895 364:0.755953 365:0.365816 366:-0.155367 367:-0.703357 368:-0.893864 369:-1 370:0.242997 371:-0.6248 372:0.545622 373:0.608288 374:0.47316 375:-0.604846 376:-0.889093 377:-0.143542 378:-0.791489 379:0.862863 380:0.422777 381:0.0544484 382:0.414965 383:-0.102023 384:0.481876 385:0.526 386:0.980238 387:0.499672 388:0.496895 389:0.755953 390:0.365816 391:-0.155367 392:-0.703357 393:-0.893864 394:-1 395:0.242997 396:-0.6248 397:0.545622 398:0.608288 399:0.47316 400:-0.604846 401:-0.138802 402:-1 403:0.672892 404:0.52269 405:0.181738 406:-0.151623 407:-0.0282299 408:1 409:0.133992 410:0.0787957 411:0.289382 412:-0.0376614 413:0.267307 414:-1 415:0.753676 416:0.108672 417:1 418:-1 419:0.134806 420:1 421:-0.31159 422:0.455752 423:-0.681756 424:0.35186 425:0.034462 426:0.714406 427:0.40153 428:0.857518 429:0.641132 430:0.0667637 431:-0.391623 432:0.707079 433:0.942062 434:0.553715 435:0.240973 436:-0.874307 437:-0.163384 438:-0.527518 439:1 440:-0.0344392 441:0.612607 442:-1 443:0.643514 444:-0.839215 445:-1 446:-0.356849 447:-0.835276 448:1 449:-0.0526084 450:-0.606249 451:-0.012752 452:0.0483483 453:0.221404 454:0.431992 455:-0.0656179 456:0.305616 457:0.418126 458:0.436871 459:0.394429 460:-0.169589 461:0.858024 462:0.29695 463:-0.058116 464:0.201856 465:0.50211 466:-0.631714 467:0.324697 468:0.48245 469:-0.216415 470:-0.17858 471:-0.139418 472:0.15655 473:-0.447753 474:0.183194 475:-0.141222 476:-0.966994 477:0.980605 478:0.975376 479:0.998788 480:0.536392 481:0.905556 482:0.981278 483:0.478868 484:0.986835 485:0.74158 486:0.995653 487:-0.63951 488:-0.99908 489:-0.989698 490:-0.999166 491:0.228191 492:0.990387 493:0.961284 494:-0.655106 495:-0.655103 496:0.972251 497:0.998411 498:0.988621 499:0.951133 500:0.30198 501:0.767221 502:-0.907533 503:0.866622 504:-0.900758 505:-0.875993 506:-0.894648 507:-0.447088 508:0.928538 509:-0.720192 510:-0.527133 511:-0.0974188 512:0.972312 513:-0.692347 514:0.825489 515:0.787615 516:-0.0122408 517:-0.772964 518:0.703881 519:-0.31871 520:-1 521:-1 522:-0.931643 523:0.243555 524:-0.706054 525:0.441539 526:-0.999786 527:0.923793 528:-0.999924 529:1 530:0.963017 531:0.977411 532:0.998883 533:-0.99973 534:0.989368 535:0.997541 536:1 537:0.982909 538:0.950758 539:0.996731 540:-0.997517 541:-0.982579 542:-0.948348 543:-0.997392 544:-0.985824 545:-0.979149 546:-0.107871 547:-0.939999 548:0.99606 549:0.999126 550:-0.994413 551:0.198448 552:0.356961 553:0.820345 554:-0.000398635 555:-0.327002 556:-0.385433 557:-0.0666862 558:-0.810395 559:0.00220709 560:0.0587498 561:-0.480408 562:0.19929 563:0.680791 564:-0.347013 565:0.505006 566:0.023547 567:0.724179 568:0.519362 569:-0.195485 570:1 571:0.230834 572:-0.789293 573:-0.508916 574:0.642534 575:0.251728 576:0.198448 577:0.356961 578:0.820345 579:-0.000398635 580:-0.327002 581:-0.385433 582:-0.0666862 583:-0.810395 584:0.00220709 585:0.0587498 586:-0.480408 587:0.19929 588:0.680791 589:-0.347013 590:0.505006 591:0.023547 592:0.724179 593:0.519362 594:-0.195485 595:1 596:0.230834 597:-0.789293 598:-0.508916 599:0.642534 600:0.251728 601:0.481538 602:0.154286 603:0.979911 604:-0.11403 605:0.129121 606:-0.896864 607:0.874625 608:-0.229681 609:-0.377165 610:0.923484 611:-0.271385 612:-0.729209 613:-0.183175 614:0.688189 615:0.898763 616:0.0378308 617:0.206292 618:0.0484158 619:0.38845 620:-0.343981 621:-0.0719701 622:-0.510465 623:-0.79759 624:0.58161 625:0.433634 626:0.318905 627:-0.956777 628:-0.855732 629:0.88242 630:0.160655 631:0.616465 632:0.473356 633:0.543427 634:0.826479 635:-0.652221 636:-0.720263 637:0.0700608 638:0.107528 639:-0.234041 640:-0.189524 641:-0.249165 642:0.375882 643:-0.16942 644:0.433433 645:0.360845 646:0.230018 647:-0.385183 648:0.135965 649:0.767183 650:-0.0875045 651:0.318905 652:-0.956777 653:-0.855732 654:0.88242 655:0.160655 656:0.616465 657:0.473356 658:0.543427 659:0.826479 660:-0.652221 661:-0.720263 662:0.0700608 663:0.107528 664:-0.234041 665:-0.189524 666:-0.249165 667:0.375882 668:-0.16942 669:0.433433 670:0.360845 671:0.230018 672:-0.385183 673:0.135965 674:0.767183 675:-0.0875045 676:-1 677:-0.407346 678:-0.663735 679:1 680:0.974538 681:0.706692 682:0.941243 683:0.902374 684:0.361333 685:0.549463 686:0.0991732 687:0.810094 688:-0.0318106 689:0.162873 690:-0.571058 691:-0.100351 692:-0.279896 693:0.0270115 694:-0.76779 695:-0.471886 696:-0.466798 697:-0.242959 698:-0.119975 699:0.601276 700:-0.252018 701:-1 702:-0.407346 703:-0.663735 704:1 705:0.974538 706:0.706692 707:0.941243 708:0.902374 709:0.361333 710:0.549463 711:0.0991732 712:0.810094 713:-0.0318106 714:0.162873 715:-0.571058 716:-0.100351 717:-0.279896 718:0.0270115 719:-0.76779 720:-0.471886 721:-0.466798 722:-0.242959 723:-0.119975 724:0.601276 725:-0.252018 726:-0.849193 727:0.621049 728:0.57777 729:0.900675 730:0.532681 731:0.310221 732:0.402281 733:0.0141429 734:-0.128643 735:0.648534 736:0.975559 737:0.765926 738:-0.487172 739:0.632281 740:0.689894 741:0.637055 742:1 743:0.41606 744:-0.745052 745:0.525208 746:0.182886 747:-0.540763 748:0.737439 749:0.672038 750:-0.635978 751:-0.523538 752:0.107664 753:-0.383424 754:0.375686 755:-0.773311 756:0.927936 757:0.733711 758:0.832296 759:0.493933 760:0.0657541 761:-0.159162 762:0.941788 763:-0.548529 764:0.270772 765:1 766:1 767:0.749488 768:0.283747 769:-0.908366 770:0.520672 771:1 772:-0.00134344 773:-0.78292 774:-0.408834 775:-0.419876 776:-0.523538 777:0.107664 778:-0.383424 779:0.375686 780:-0.773311 781:0.927936 782:0.733711 783:0.832296 784:0.493933 785:0.0657541 786:-0.159162 787:0.941788 788:-0.548529 789:0.270772 790:1 791:1 792:0.749488 793:0.283747 794:-0.908366 795:0.520672 796:1 797:-0.00134344 798:-0.78292 799:-0.408834 800:-0.419876 801:0.984572 802:-0.994567 803:-0.828371 804:-0.20735 805:-0.136871 806:-0.96924 807:-0.986292 808:0.876833 809:0.879977 810:-0.543448 811:-0.617732 812:-0.873701 813:-0.0858808 814:-0.394364 815:0.137134 816:-0.425765 817:0.139211 818:0.672985 819:-0.900541 820:0.715755 821:0.861898 822:-0.376488 823:-0.387611 824:-0.303498 825:-0.595905 826:0.81053 827:0.395503 828:0.770315 829:0.662336 830:0.321526 831:-0.0472518 832:-0.928596 833:0.043108 834:-0.314214 835:0.563568 836:0.0350673 837:0.490163 838:0.786022 839:0.818455 840:-0.117142 841:-0.215693 842:0.219334 843:0.365559 844:0.587496 845:-0.203229 846:-0.231787 847:-0.143051 848:0.857547 849:0.290358 850:-0.100969 851:-0.317705 852:-0.469364 853:-0.42816 854:0.701175 855:0.551057 856:-0.269281 857:0.648003 858:0.662633 859:0.472144 860:-0.315573 861:0.666642 862:0.0531055 863:0.00233112 864:-0.320236 865:0.460506 866:-0.101564 867:-0.276115 868:0.0222777 869:-0.211912 870:0.276155 871:0.116963 872:-0.589883 873:-0.709871 874:0.0717005 875:0.874468 876:0.38456 877:-1 878:1 879:-0.698187 880:0.708667 881:-0.780737 882:0.535001 883:1 884:0.414082 885:0.733206 886:-1 887:0.305116 888:1 889:0.44651 890:0.24665 891:-0.638454 892:1 893:-0.644907 894:0.244434 895:-0.185402 896:-0.00788641 897:0.718076 898:-0.332731 899:0.444982 900:-0.294493 901:0.529551 902:0.9889 903:0.985536 904:-0.824964 905:-0.488908 906:0.16547 907:0.843369 908:-0.989535 909:0.310558 910:0.937309 911:-0.896668 912:-0.359052 913:-0.788557 914:0.958296 915:0.33026 916:0.992476 917:-0.867941 918:0.883069 919:-0.808461 920:0.462092 921:0.674925 922:-0.920193 923:0.987285 924:0.218911 925:-0.697068 926:0.836689 927:0.991135 928:0.831118 929:0.995553 930:-0.986142 931:-0.99686 932:0.233615 933:-0.998768 934:0.51614 935:-0.964024 936:-0.726059 937:-0.422973 938:-0.98776 939:-0.203115 940:-0.994806 941:0.997462 942:0.520752 943:0.463499 944:0.914756 945:-0.092004 946:0.361967 947:-0.10909 948:0.205713 949:0.616481 950:-0.941213 951:-0.843348 952:-0.80166 953:0.895432 954:-0.897659 955:-0.960451 956:-0.563922 957:0.747592 958:-0.967534 959:-0.987278 960:0.774074 961:0.246563 962:-0.931065 963:0.0966838 964:0.937109 965:0.988316 966:0.563866 967:0.847838 968:-0.736881 969:0.832851 970:0.501 971:-0.913304 972:0.847624 973:-0.882341 974:-0.247499 975:-0.764975 976:-0.938826 977:0.218192 978:-0.434841 979:0.928108 980:0.793228 981:0.998953 982:0.422008 983:-0.21208 984:0.72415 985:0.542107 986:0.885336 987:0.577233 988:-0.0526752 989:0.340562 990:0.795137 991:-0.0955147 992:-0.586934 993:-0.0101336 994:0.22989 995:0.0697272 996:0.374001 997:-0.176226 998:-0.271402 999:0.0703051 1000:0.321639 1001:-0.286705 1002:-0.169224 1003:0.990862 1004:-0.928603 1005:-0.986538 1006:-0.961232 1007:-0.622322 1008:-0.73175 1009:-0.915292 1010:0.765029 1011:-0.532834 1012:-0.450904 1013:-0.159865 1014:-0.970402 1015:0.667267 1016:-0.206383 1017:0.644909 1018:-0.499287 1019:0.0723297 1020:-0.38151 1021:-0.287595 1022:0.865494 1023:-0.917814 1024:0.667215 1025:0.0741173 1026:0.318435 1027:0.643648 1028:0.39273 1029:0.799479 1030:0.175942 1031:-0.438536 1032:0.152826 1033:0.537915 1034:0.412553 1035:-0.534243 1036:-0.400932 1037:0.563327 1038:0.885604 1039:-0.544257 1040:0.450603 1041:-0.544042 1042:0.455158 1043:-0.227008 1044:-0.893548 1045:-0.0790357 1046:0.793655 1047:0.846744 1048:-0.894708 1049:-0.129722 1050:0.0400128 1051:-1 1052:-0.0581968 1053:-1 1054:0.869611 1055:-1 1056:-0.0936151 1057:-0.540411 1058:1 1059:1 1060:1 1061:1 1062:1 1063:-0.418486 1064:0.696796 1065:-0.642249 1066:-0.601374 1067:1 1068:-1 1069:0.166933 1070:-0.844393 1071:0.931958 1072:0.343626 1073:0.373551 1074:-0.407606 1075:-0.948973 1076:-0.531228 1077:-0.354963 1078:-0.495045 1079:0.459229 1080:0.731342 1081:-0.201066 1082:-0.207963 1083:0.471333 1084:-0.214974 1085:-0.342848 1086:0.802574 1087:-0.204726 1088:-0.098762 1089:0.192399 1090:-0.186333 1091:-0.0610964 1092:0.252475 1093:0.0756602 1094:-0.219212 1095:0.153259 1096:0.431555 1097:0.150716 1098:0.333566 1099:0.044594 1100:-0.077882 1101:-0.789653 1102:-0.252074 1103:-0.441141 1104:0.987271 1105:0.880785 1106:-0.473938 1107:0.982625 1108:-0.274349 1109:0.904446 1110:-0.627103 1111:0.728213 1112:0.0824006 1113:0.626599 1114:-0.39764 1115:-0.931983 1116:0.978809 1117:-0.61312 1118:-0.568305 1119:0.365977 1120:-0.583979 1121:-0.00853644 1122:0.385604 1123:0.371798 1124:-0.197463 1125:0.11166 1126:-0.863573 1127:0.970496 1128:-0.968025 1129:0.97071 1130:0.917227 1131:-0.203004 1132:0.950311 1133:0.495577 1134:0.582428 1135:0.561461 1136:0.962033 1137:0.452418 1138:-0.922802 1139:-0.191267 1140:0.870393 1141:-0.106219 1142:-0.397707 1143:0.878659 1144:-0.0382532 1145:-0.65475 1146:-0.649792 1147:1 1148:-0.45316 1149:0.376455 1150:0.452225 1151:0.741014 1152:-0.718853 1153:-0.568794 1154:-0.598079 1155:-0.244184 1156:0.0599745 1157:-0.7466 1158:0.745106 1159:0.620175 1160:-0.17606 1161:-0.672775 1162:-0.951847 1163:-0.87908 1164:-0.524509 1165:0.316378 1166:0.62032 1167:0.197535 1168:0.428305 1169:-0.344125 1170:0.424477 1171:0.15863 1172:-0.631303 1173:-0.595074 1174:0.354725 1175:-0.232867 1176:0.741014 1177:-0.718853 1178:-0.568794 1179:-0.598079 1180:-0.244184 1181:0.0599745 1182:-0.7466 1183:0.745106 1184:0.620175 1185:-0.17606 1186:-0.672775 1187:-0.951847 1188:-0.87908 1189:-0.524509 1190:0.316378 1191:0.62032 1192:0.197535 1193:0.428305 1194:-0.344125 1195:0.424477 1196:0.15863 1197:-0.631303 1198:-0.595074 1199:0.354725 1200:-0.232867 1201:-0.997016 1202:0.576898 1203:-0.834457 1204:0.989429 1205:0.791756 1206:0.995494 1207:0.487245 1208:0.545504 1209:0.54476 1210:-0.57245 1211:0.9759 1212:0.920076 1213:-0.739708 1214:0.14522 1215:-0.326201 1216:-0.932561 1217:0.840204 1218:0.693345 1219:-0.425697 1220:0.189875 1221:-0.605279 1222:-0.505248 1223:-0.0671027 1224:-0.0534682 1225:0.327806 1226:-1 1227:0.154255 1228:-0.289824 1229:1 1230:0.101092 1231:0.332003 1232:0.144126 1233:-0.115478 1234:0.473999 1235:-0.665778 1236:0.484982 1237:0.617798 1238:0.250436 1239:-0.208358 1240:-0.249389 1241:-0.345013 1242:-0.00144817 1243:0.27867 1244:0.483966 1245:-0.00970951 1246:0.0812138 1247:-0.091362 1248:-0.0240656 1249:-0.280518 1250:0.317506 1251:-1 1252:0.154255 1253:-0.289824 1254:1 1255:0.101092 1256:0.332003 1257:0.144126 1258:-0.115478 1259:0.473999 1260:-0.665778 1261:0.484982 1262:0.617798 1263:0.250436 1264:-0.208358 1265:-0.249389 1266:-0.345013 1267:-0.00144817 1268:0.27867 1269:0.483966 1270:-0.00970951 1271:0.0812138 1272:-0.091362 1273:-0.0240656 1274:-0.280518 1275:0.317506 1276:0.999961 1277:-0.285444 1278:-0.800154 1279:-1 1280:0.832913 1281:0.86126 1282:-0.157693 1283:-0.544411 1284:-0.0723329 1285:0.892401 1286:-0.541017 1287:0.0942659 1288:0.773322 1289:-0.444117 1290:-0.0344242 1291:-0.162731 1292:-0.404103 1293:0.577953 1294:-0.727069 1295:-0.934222 1296:0.363711 1297:0.282648 1298:0.787763 1299:-0.0691458 1300:0.931702 1301:0.999961 1302:-0.285444 1303:-0.800154 1304:-1 1305:0.832913 1306:0.86126 1307:-0.157693 1308:-0.544411 1309:-0.0723329 1310:0.892401 1311:-0.541017 1312:0.0942659 1313:0.773322 1314:-0.444117 1315:-0.0344242 1316:-0.162731 1317:-0.404103 1318:0.577953 1319:-0.727069 1320:-0.934222 1321:0.363711 1322:0.282648 1323:0.787763 1324:-0.0691458 1325:0.931702 1326:-0.998706 1327:-0.105189 1328:0.332761 1329:1 1330:0.671035 1331:0.93867 1332:0.314792 1333:0.832477 1334:0.540557 1335:0.0243881 1336:0.538294 1337:0.135504 1338:0.420306 1339:0.0158829 1340:-0.21167 1341:0.182175 1342:-0.003647 1343:-0.361237 1344:-0.304462 1345:0.350839 1346:0.622351 1347:-0.189646 1348:-0.761851 1349:-0.355394 1350:0.110786 1351:-0.998706 1352:-0.105189 1353:0.332761 1354:1 1355:0.671035 1356:0.93867 1357:0.314792 1358:0.832477 1359:0.540557 1360:0.0243881 1361:0.538294 1362:0.135504 1363:0.420306 1364:0.0158829 1365:-0.21167 1366:0.182175 1367:-0.003647 1368:-0.361237 1369:-0.304462 1370:0.350839 1371:0.622351 1372:-0.189646 1373:-0.761851 1374:-0.355394 1375:0.110786 1376:0.457219 1377:-0.86995 1378:-0.919264 1379:-0.2272 1380:-0.0845714 1381:0.644247 1382:-0.865372 1383:0.192556 1384:0.829745 1385:0.729484 1386:-0.912109 1387:-0.87112 1388:0.309078 1389:-0.463993 1390:0.144018 1391:0.296124 1392:0.662617 1393:0.134418 1394:-0.434925 1395:-0.628785 1396:0.616843 1397:-0.304857 1398:-0.882907 1399:-0.333588 1400:0.657102 1401:0.457219 1402:-0.86995 1403:-0.919264 1404:-0.2272 1405:-0.0845714 1406:0.644247 1407:-0.865372 1408:0.192556 1409:0.829745 1410:0.729484 1411:-0.912109 1412:-0.87112 1413:0.309078 1414:-0.463993 1415:0.144018 1416:0.296124 1417:0.662617 1418:0.134418 1419:-0.434925 1420:-0.628785 1421:0.616843 1422:-0.304857 1423:-0.882907 1424:-0.333588 1425:0.657102 1426:0.159594 1427:-0.78936 1428:0.701383 1429:0.174163 1430:-0.699964 1431:-0.841524 1432:0.568874 1433:0.405573 1434:-0.784032 1435:0.38528 1436:0.422029 1437:0.570526 1438:1 1439:-0.317803 1440:-0.371162 1441:0.233744 1442:0.000163297 1443:0.143168 1444:0.00579779 1445:-0.40132 1446:-0.357359 1447:-0.0896656 1448:0.144436 1449:-0.42497 1450:-0.279815 1451:0.159594 1452:-0.78936 1453:0.701383 1454:0.174163 1455:-0.699964 1456:-0.841524 1457:0.568874 1458:0.405573 1459:-0.784032 1460:0.38528 1461:0.422029 1462:0.570526 1463:1 1464:-0.317803 1465:-0.371162 1466:0.233744 1467:0.000163297 1468:0.143168 1469:0.00579779 1470:-0.40132 1471:-0.357359 1472:-0.0896656 1473:0.144436 1474:-0.42497 1475:-0.279815 1476:-0.966332 1477:-0.272263 1478:-0.498219 1479:0.628827 1480:0.137762 1481:0.943179 1482:0.352745 1483:0.324321 1484:0.573048 1485:-0.368044 1486:1 1487:0.217573 1488:0.557476 1489:0.466044 1490:-0.280444 1491:0.731615 1492:0.252423 1493:-0.567702 1494:-0.479925 1495:0.316249 1496:0.0203903 1497:-0.787324 1498:0.102499 1499:-0.0983419 1500:-0.833569 1501:-0.966332 1502:-0.272263 1503:-0.498219 1504:0.628827 1505:0.137762 1506:0.943179 1507:0.352745 1508:0.324321 1509:0.573048 1510:-0.368044 1511:1 1512:0.217573 1513:0.557476 1514:0.466044 1515:-0.280444 1516:0.731615 1517:0.252423 1518:-0.567702 1519:-0.479925 1520:0.316249 1521:0.0203903 1522:-0.787324 1523:0.102499 1524:-0.0983419 1525:-0.833569 1526:-0.895709 1527:0.0448874 1528:-0.442337 1529:0.913339 1530:0.86253 1531:0.509728 1532:-0.383096 1533:0.0765514 1534:0.452091 1535:0.82572 1536:0.88205 1537:0.973133 1538:-0.639041 1539:-0.887101 1540:-0.25284 1541:-0.395557 1542:-0.32019 1543:0.251281 1544:0.641576 1545:0.410068 1546:-0.122812 1547:0.372834 1548:0.788856 1549:0.915172 1550:0.01683 1551:-0.528083 1552:-0.420643 1553:-0.828769 1554:-0.117059 1555:-0.699421 1556:-0.371201 1557:0.748339 1558:-0.208017 1559:0.371025 1560:0.481904 1561:0.0624989 1562:-0.272152 1563:0.363393 1564:1 1565:0.163618 1566:-0.0556546 1567:0.187208 1568:-0.316671 1569:-0.407162 1570:0.45337 1571:-1 1572:-0.960016 1573:-0.462767 1574:-0.154029 1575:-0.85058 1576:-0.528083 1577:-0.420643 1578:-0.828769 1579:-0.117059 1580:-0.699421 1581:-0.371201 1582:0.748339 1583:-0.208017 1584:0.371025 1585:0.481904 1586:0.0624989 1587:-0.272152 1588:0.363393 1589:1 1590:0.163618 1591:-0.0556546 1592:0.187208 1593:-0.316671 1594:-0.407162 1595:0.45337 1596:-1 1597:-0.960016 1598:-0.462767 1599:-0.154029 1600:-0.85058 1601:0.47203 1602:-0.0113581 1603:0.385272 1604:-0.4138 1605:-0.228534 1606:-0.420092 1607:0.208732 1608:-0.456239 1609:-0.296682 1610:0.671489 1611:-0.631592 1612:0.296635 1613:0.980814 1614:-0.314286 1615:0.702771 1616:-0.127773 1617:0.510799 1618:0.140673 1619:0.111546 1620:-0.0266742 1621:-0.0758556 1622:0.237666 1623:-0.125267 1624:0.246411 1625:-0.0852949 1626:0.418145 1627:-0.567988 1628:-0.908093 1629:0.696362 1630:-0.605834 1631:-0.949645 1632:-0.985462 1633:0.942824 1634:0.207851 1635:-0.0829226 1636:-0.971955 1637:0.185364 1638:0.0173358 1639:0.936411 1640:0.684769 1641:-0.155088 1642:0.191171 1643:-0.925753 1644:0.815122 1645:-0.395075 1646:0.50328 1647:-0.565578 1648:0.88237 1649:0.436655 1650:0.529503 1651:0.996916 1652:-0.375421 1653:-0.989908 1654:0.138485 1655:0.586512 1656:-0.295022 1657:-0.873942 1658:-0.879182 1659:0.478979 1660:0.961769 1661:-0.55546 1662:-0.538828 1663:0.111274 1664:0.989972 1665:0.891387 1666:0.886276 1667:-0.165223 1668:0.596575 1669:-0.133118 1670:-0.938521 1671:-0.1639 1672:0.0145919 1673:0.842914 1674:-0.467704 1675:-0.997949 1676:-0.825843 1677:-0.313163 1678:-0.313246 1679:0.846076 1680:0.655596 1681:-0.234352 1682:0.436839 1683:0.518036 1684:-0.397503 1685:0.34172 1686:0.721868 1687:0.652245 1688:0.888567 1689:0.462841 1690:0.499574 1691:-0.269668 1692:-0.258359 1693:-0.161431 1694:-0.760572 1695:-0.858756 1696:0.17179 1697:-0.975282 1698:-0.958347 1699:0.202148 1700:0.926432 1701:-0.286456 1702:-0.969248 1703:-0.745592 1704:-0.411009 1705:-0.631743 1706:-0.936329 1707:-0.136699 1708:0.280366 1709:0.420191 1710:-1 1711:-0.589601 1712:0.301897 1713:0.775708 1714:-0.991965 1715:-0.0875238 1716:-0.668247 1717:-0.0565468 1718:-0.516691 1719:-0.974521 1720:0.465632 1721:0.677085 1722:-0.459579 1723:-0.792921 1724:0.481956 1725:-0.0572309 1726:0.989026 1727:-0.620098 1728:-0.621356 1729:-0.268805 1730:0.185718 1731:-0.00486657 1732:-0.995976 1733:-0.058849 1734:0.130452 1735:-0.189819 1736:-0.570377 1737:-0.66583 1738:0.77042 1739:-0.679118 1740:0.121932 1741:-0.495539 1742:-0.0712377 1743:-0.0533339 1744:-0.870502 1745:0.526711 1746:0.0546484 1747:-0.0767226 1748:-0.00691062 1749:-0.166244 1750:-0.108835 1751:-0.111861 1752:0.0768171 1753:0.388362 1754:-0.0170253 1755:-0.873274 1756:0.955952 1757:-0.588093 1758:-0.0296286 1759:-0.0940498 1760:-1 1761:-0.0784155 1762:0.0810931 1763:0.209984 1764:-0.563703 1765:0.256087 1766:0.0872707 1767:0.745104 1768:-1 1769:-0.40131 1770:0.50729 1771:0.0706007 1772:-0.16191 1773:0.154973 1774:-0.134213 1775:-0.250713 1776:-0.130921 1777:-1 1778:1 1779:-0.342784 1780:1 1781:-0.265465 1782:-0.462335 1783:1 1784:0.201285 1785:-0.741183 1786:-0.594201 1787:0.478675 1788:0.797865 1789:0.198601 1790:0.821368 1791:-0.817094 1792:1 1793:-1 1794:0.469318 1795:1 1796:-1 1797:0.486188 1798:0.845628 1799:0.476944 1800:-0.419915 1801:-0.989293 1802:0.303825 1803:-0.527028 1804:0.997928 1805:0.969896 1806:0.425014 1807:0.938233 1808:0.211865 1809:0.436763 1810:-0.15923 1811:0.316051 1812:0.40286 1813:0.0395304 1814:0.0790761 1815:-0.155505 1816:-0.27349 1817:0.015563 1818:-0.680825 1819:-0.354409 1820:-0.0840228 1821:-0.0471491 1822:-0.152972 1823:-0.491596 1824:-0.417281 1825:0.680521 1826:0.245174 1827:-0.686435 1828:0.648026 1829:0.899288 1830:1 1831:-0.245859 1832:0.0651387 1833:1 1834:0.0316621 1835:0.624452 1836:-0.642503 1837:0.204375 1838:0.794319 1839:1 1840:-0.677402 1841:-0.358087 1842:-1 1843:0.542741 1844:-0.174048 1845:-1 1846:0.205713 1847:0.07304 1848:1 1849:-0.516458 1850:-0.188328 1851:0.698729 1852:-0.800451 1853:0.953585 1854:-0.0845251 1855:0.128566 1856:-0.880122 1857:-0.0594533 1858:1 1859:0.575199 1860:0.504141 1861:0.0448924 1862:-0.332357 1863:0.322308 1864:-1 1865:0.3675 1866:-0.987535 1867:-0.0330466 1868:0.0238368 1869:-0.838524 1870:0.139909 1871:0.650722 1872:0.984977 1873:-0.755915 1874:-0.743096 1875:0.3498 1876:-0.547543 1877:0.20747 1878:-0.594475 1879:0.693533 1880:0.571951 1881:0.0475412 1882:0.220537 1883:-0.245521 1884:0.265181 1885:-0.22614 1886:0.699211 1887:0.563657 1888:-0.0240106 1889:-0.0570641 1890:0.372469 1891:-0.112243 1892:-0.71273 1893:-0.603961 1894:0.518751 1895:0.275407 1896:-0.410474 1897:0.121462 1898:0.0394053 1899:-0.306253 1900:-0.312814 1901:0.0240603 1902:0.927325 1903:0.891238 1904:-0.931029 1905:0.00299724 1906:-0.910698 1907:0.0501266 1908:-0.656936 1909:-0.61122 1910:0.984696 1911:-0.934223 1912:-0.0412578 1913:0.704377 1914:0.50865 1915:0.213188 1916:-0.636849 1917:-0.0715872 1918:0.52821 1919:-0.0146157 1920:0.441758 1921:0.427914 1922:0.626758 1923:-0.621698 1924:0.422195 1925:-0.664096 1926:-0.590785 1927:0.492509 1928:-0.552846 1929:0.859012 1930:0.586082 1931:-0.729096 1932:0.720541 1933:0.466398 1934:0.334071 1935:-0.535766 1936:0.682139 1937:0.59155 1938:-0.426027 1939:0.825655 1940:0.699435 1941:0.166907 1942:0.28116 1943:0.124904 1944:-0.0564838 1945:0.45094 1946:0.186557 1947:0.663022 1948:0.0984399 1949:-0.546575 1950:0.122611 1951:0.755297 1952:-0.22807 1953:0.906554 1954:-0.425719 1955:-0.462011 1956:-0.532983 1957:0.222907 1958:-0.436566 1959:-0.733484 1960:0.997669 1961:-0.972927 1962:-0.263446 1963:0.203804 1964:0.59063 1965:-0.484184 1966:0.736938 1967:-0.392688 1968:0.48163 1969:-0.537826 1970:0.498426 1971:0.360544 1972:-0.18599 1973:0.402173 1974:-0.0593168 1975:0.406895 1976:-0.825006 1977:-0.419475 1978:-0.999845 1979:0.999666 1980:0.700156 1981:-0.999358 1982:0.982873 1983:0.621524 1984:0.974153 1985:0.652124 1986:0.999628 1987:0.624083 1988:0.949551 1989:0.771263 1990:0.790529 1991:-0.808937 1992:-0.998715 1993:-0.601141 1994:-0.454179 1995:0.0100311 1996:-0.857907 1997:-0.213988 1998:-0.884315 1999:-0.974428 2000:-0.595065 2001:0.550008 2002:0.655913 2003:0.62006 2004:-0.901531 2005:-0.826817 2006:-0.677776 2007:-0.710454 2008:-0.53112 2009:-0.967501 2010:-0.185579 2011:-0.931277 2012:-0.914194 2013:0.783433 2014:-0.753462 2015:-0.443376 2016:0.62481 2017:0.675319 2018:-0.219285 2019:0.344419 2020:-0.0608398 2021:-0.47073 2022:0.647999 2023:-0.389957 2024:-0.59105 2025:-0.858301 2026:-0.841565 2027:-0.944807 2028:0.0726931 2029:0.968897 2030:0.466216 2031:-0.656949 2032:0.935625 2033:0.900258 2034:-0.162578 2035:-0.201276 2036:0.842563 2037:0.287381 2038:0.829094 2039:-0.334074 2040:-0.576163 2041:-0.548226 2042:-0.907661 2043:-0.983332 2044:0.548523 2045:0.258408 2046:-0.257501 2047:-0.845229 2048:0.798997 2049:-0.471806 2050:0.998418 2051:-1 2052:-0.792049 2053:-0.998143 2054:0.89691 2055:0.998113 2056:-0.987036 2057:1 2058:-0.306973 2059:0.955596 2060:-0.096575 2061:0.883153 2062:0.869767 2063:-0.468217 2064:0.719864 2065:-0.979657 2066:-0.845668 2067:0.957271 2068:-0.552071 2069:-0.30736 2070:-0.359198 2071:-0.744069 2072:-0.394218 2073:-0.55457 2074:0.385736 2075:0.198495 2076:0.241247 2077:0.920822 2078:0.731637 2079:0.963899 2080:0.330246 2081:0.56806 2082:0.355495 2083:-0.771331 2084:-0.0263643 2085:0.631975 2086:-0.0936035 2087:0.0836493 2088:-0.967151 2089:-0.129754 2090:0.206397 2091:0.417013 2092:0.608915 2093:0.966725 2094:-0.581222 2095:-0.236336 2096:0.191767 2097:-0.751564 2098:0.864542 2099:-0.208841 2100:-0.294238 2101:0.514716 2102:0.984942 2103:-0.0480869 2104:0.639227 2105:0.591218 2106:-0.760287 2107:0.630782 2108:-0.973014 2109:-0.502508 2110:0.683385 2111:-0.697238 2112:-0.511156 2113:0.301266 2114:0.453903 2115:0.0448819 2116:-0.976127 2117:-0.961155 2118:-0.665524 2119:-0.985339 2120:-0.29482 2121:-0.754457 2122:0.383061 2123:-0.98451 2124:-0.266716 2125:0.557354 2126:-1 2127:-0.262373 2128:-0.124852 2129:1 2130:0.734324 2131:0.905448 2132:0.531645 2133:0.523709 2134:0.145945 2135:-0.00159161 2136:0.910941 2137:0.792246 2138:-0.0316055 2139:0.428435 2140:0.168372 2141:0.425643 2142:0.184724 2143:-0.229646 2144:0.269572 2145:0.374146 2146:0.17328 2147:-0.0579429 2148:0.0608075 2149:-0.0351831 2150:0.479922 2151:-0.868742 2152:0.916058 2153:0.82388 2154:0.976633 2155:0.564204 2156:0.666189 2157:0.675172 2158:0.397493 2159:0.537535 2160:-1 2161:0.527741 2162:0.865832 2163:-0.645833 2164:-0.983298 2165:-0.665481 2166:-0.398299 2167:0.542761 2168:-0.350639 2169:-0.414804 2170:1 2171:0.0365053 2172:0.436539 2173:0.840847 2174:-0.644551 2175:0.483409 2176:-0.476456 2177:-1 2178:0.495516 2179:0.601132 2180:0.0513419 2181:-0.0706626 2182:-0.492439 2183:0.26982 2184:-0.832626 2185:-0.71499 2186:0.18571 2187:0.34564 2188:-1 2189:0.232333 2190:0.136263 2191:0.783722 2192:-1 2193:0.864381 2194:-0.20138 2195:-1 2196:0.735189 2197:-1 2198:0.52599 2199:0.654905 2200:-0.238807 2201:0.883886 2202:-0.98734 2203:-0.99637 2204:-0.816878 2205:-0.268073 2206:-0.915901 2207:-0.974594 2208:0.984834 2209:0.989483 2210:-0.975574 2211:-0.982424 2212:-0.398336 2213:-0.882972 2214:-0.605304 2215:0.976427 2216:0.409771 2217:-0.976815 2218:-0.927415 2219:0.530884 2220:0.664518 2221:-1 2222:-0.935867 2223:-0.533717 2224:0.41648 2225:0.0901437 2226:-0.550119 2227:-0.955382 2228:-1 2229:-0.72462 2230:-0.91553 2231:0.304945 2232:0.574011 2233:0.12362 2234:-0.888321 2235:-0.911514 2236:0.336852 2237:0.625866 2238:0.013255 2239:0.589312 2240:0.950902 2241:-0.102043 2242:-0.869282 2243:-0.50911 2244:0.209398 2245:0.892555 2246:-0.645093 2247:-0.265764 2248:-0.1716 2249:-0.231318 2250:0.563692 2251:0.600726 2252:-0.922673 2253:-0.926123 2254:-0.212302 2255:-0.0482325 2256:0.670563 2257:-0.204861 2258:0.495674 2259:0.556053 2260:-0.916721 2261:-0.954804 2262:-0.4946 2263:0.46728 2264:0.762689 2265:-0.03633 2266:-0.146012 2267:0.772124 2268:-0.419795 2269:-0.00108343 2270:-0.491975 2271:-0.102934 2272:0.148741 2273:0.0607992 2274:0.0959629 2275:0.100807 2276:0.600726 2277:-0.922673 2278:-0.926123 2279:-0.212302 2280:-0.0482325 2281:0.670563 2282:-0.204861 2283:0.495674 2284:0.556053 2285:-0.916721 2286:-0.954804 2287:-0.4946 2288:0.46728 2289:0.762689 2290:-0.03633 2291:-0.146012 2292:0.772124 2293:-0.419795 2294:-0.00108343 2295:-0.491975 2296:-0.102934 2297:0.148741 2298:0.0607992 2299:0.0959629 2300:0.100807 2301:-1 2302:-0.0271063 2303:-0.379127 2304:1 2305:0.0497069 2306:-0.0771887 2307:0.381191 2308:0.078734 2309:0.280169 2310:-0.270489 2311:0.531341 2312:0.942301 2313:0.292042 2314:-0.400017 2315:0.292081 2316:-0.314441 2317:-0.176703 2318:0.060215 2319:-0.215032 2320:-0.258746 2321:0.197072 2322:-0.361157 2323:-0.431487 2324:-0.664493 2325:0.492561 2326:-1 2327:-0.0271063 2328:-0.379127 2329:1 2330:0.0497069 2331:-0.0771887 2332:0.381191 2333:0.078734 2334:0.280169 2335:-0.270489 2336:0.531341 2337:0.942301 2338:0.292042 2339:-0.400017 2340:0.292081 2341:-0.314441 2342:-0.176703 2343:0.060215 2344:-0.215032 2345:-0.258746 2346:0.197072 2347:-0.361157 2348:-0.431487 2349:-0.664493 2350:0.492561 2351:-1 2352:-0.216111 2353:-0.833838 2354:0.690968 2355:0.267963 2356:0.46326 2357:0.744382 2358:-0.180507 2359:0.405955 2360:-0.0928881 2361:0.261953 2362:0.284139 2363:0.00915953 2364:0.302216 2365:-0.479302 2366:-0.254015 2367:0.221572 2368:-0.249928 2369:0.0675746 2370:-0.005324 2371:-0.240121 2372:0.0719811 2373:0.254117 2374:0.463601 2375:-0.0784735 2376:-0.580828 2377:1 2378:-0.953144 2379:0.759734 2380:0.701575 2381:0.462955 2382:-0.01498 2383:0.251514 2384:-0.0094011 2385:-0.615495 2386:1 2387:0.599938 2388:1 2389:-0.413063 2390:-0.634365 2391:-0.767395 2392:0.678382 2393:0.702049 2394:-1 2395:-0.892139 2396:-0.691345 2397:0.419345 2398:-0.417539 2399:1 2400:-0.346768 2401:-0.580828 2402:1 2403:-0.953144 2404:0.759734 2405:0.701575 2406:0.462955 2407:-0.01498 2408:0.251514 2409:-0.0094011 2410:-0.615495 2411:1 2412:0.599938 2413:1 2414:-0.413063 2415:-0.634365 2416:-0.767395 2417:0.678382 2418:0.702049 2419:-1 2420:-0.892139 2421:-0.691345 2422:0.419345 2423:-0.417539 2424:1 2425:-0.346768 2426:-0.215691 2427:-0.367366 2428:-0.242484 2429:-0.244085 2430:0.0890808 2431:0.0246258 2432:0.339402 2433:-0.12083 2434:0.529878 2435:-0.227871 2436:-0.0673174 2437:-0.099802 2438:-0.441753 2439:-0.049686 2440:0.632876 2441:0.488979 2442:-0.442409 2443:0.690335 2444:0.233974 2445:1 2446:-0.147467 2447:-0.976031 2448:0.674642 2449:-0.0655127 2450:0.0713528 2451:0.106573 2452:-0.424957 2453:-0.679565 2454:0.434952 2455:0.182611 2456:1 2457:-0.00371255 2458:-0.156724 2459:-0.048918 2460:0.135985 2461:-0.633911 2462:-0.998706 2463:-0.208993 2464:-0.541561 2465:1 2466:-0.474367 2467:1 2468:0.155154 2469:-1 2470:1 2471:0.391956 2472:-0.260773 2473:0.439946 2474:-0.368331 2475:0.00175802 2476:0.829808 2477:0.999546 2478:0.787559 2479:-0.998581 2480:-0.997517 2481:-0.916645 2482:-0.23491 2483:-0.994254 2484:-0.435147 2485:0.948583 2486:-0.987169 2487:-0.988817 2488:-0.683039 2489:0.345729 2490:0.452794 2491:-0.995032 2492:-0.937294 2493:0.840074 2494:-0.420463 2495:0.854537 2496:0.952019 2497:0.988197 2498:-0.999232 2499:-0.976745 2500:0.800086 2501:0.997893 2502:-0.857456 2503:-0.239013 2504:-0.956216 2505:0.838585 2506:-0.629604 2507:-0.997966 2508:-0.0158172 2509:0.930845 2510:0.95076 2511:-0.954139 2512:-0.227934 2513:-0.482978 2514:0.994718 2515:0.857347 2516:0.602579 2517:0.645416 2518:-0.734944 2519:0.0362596 2520:0.381889 2521:-0.796598 2522:0.84253 2523:-0.280087 2524:0.918216 2525:-0.813665 2526:0.997893 2527:-0.857456 2528:-0.239013 2529:-0.956216 2530:0.838585 2531:-0.629604 2532:-0.997966 2533:-0.0158172 2534:0.930845 2535:0.95076 2536:-0.954139 2537:-0.227934 2538:-0.482978 2539:0.994718 2540:0.857347 2541:0.602579 2542:0.645416 2543:-0.734944 2544:0.0362596 2545:0.381889 2546:-0.796598 2547:0.84253 2548:-0.280087 2549:0.918216 2550:-0.813665 2551:0.174232 2552:-0.895436 2553:-0.850121 2554:-0.386163 2555:-0.507488 2556:-0.398875 2557:0.0304548 2558:0.596531 2559:-0.825479 2560:-0.892416 2561:-0.891566 2562:0.508483 2563:-0.0121955 2564:-0.427309 2565:-0.253801 2566:1 2567:0.452637 2568:0.704721 2569:-0.632072 2570:0.125254 2571:0.715335 2572:-0.555027 2573:-0.2259 2574:0.503909 2575:-0.163071 2576:0.174232 2577:-0.895436 2578:-0.850121 2579:-0.386163 2580:-0.507488 2581:-0.398875 2582:0.0304548 2583:0.596531 2584:-0.825479 2585:-0.892416 2586:-0.891566 2587:0.508483 2588:-0.0121955 2589:-0.427309 2590:-0.253801 2591:1 2592:0.452637 2593:0.704721 2594:-0.632072 2595:0.125254 2596:0.715335 2597:-0.555027 2598:-0.2259 2599:0.503909 2600:-0.163071 2601:0.774238 2602:-0.229377 2603:0.758664 2604:-0.318318 2605:-0.401191 2606:-0.635061 2607:0.490195 2608:0.583806 2609:-0.421985 2610:0.647012 2611:-0.380751 2612:0.10767 2613:-0.112965 2614:0.286231 2615:0.641548 2616:0.274264 2617:0.327247 2618:0.315231 2619:-0.177846 2620:0.10382 2621:0.464983 2622:-0.0989063 2623:-0.555764 2624:0.0891137 2625:0.114445 2626:0.774238 2627:-0.229377 2628:0.758664 2629:-0.318318 2630:-0.401191 2631:-0.635061 2632:0.490195 2633:0.583806 2634:-0.421985 2635:0.647012 2636:-0.380751 2637:0.10767 2638:-0.112965 2639:0.286231 2640:0.641548 2641:0.274264 2642:0.327247 2643:0.315231 2644:-0.177846 2645:0.10382 2646:0.464983 2647:-0.0989063 2648:-0.555764 2649:0.0891137 2650:0.114445 2651:0.965185 2652:-0.723991 2653:-0.995188 2654:-0.987429 2655:0.639023 2656:-0.894424 2657:-0.906507 2658:-0.479882 2659:0.146118 2660:0.709528 2661:0.236596 2662:0.616342 2663:-0.836264 2664:0.641775 2665:-0.822583 2666:-0.465671 2667:0.59453 2668:-0.142236 2669:-0.792499 2670:0.879026 2671:0.715054 2672:-0.769274 2673:0.788863 2674:0.86142 2675:0.716162 2676:0.965185 2677:-0.723991 2678:-0.995188 2679:-0.987429 2680:0.639023 2681:-0.894424 2682:-0.906507 2683:-0.479882 2684:0.146118 2685:0.709528 2686:0.236596 2687:0.616342 2688:-0.836264 2689:0.641775 2690:-0.822583 2691:-0.465671 2692:0.59453 2693:-0.142236 2694:-0.792499 2695:0.879026 2696:0.715054 2697:-0.769274 2698:0.788863 2699:0.86142 2700:0.716162 2701:0.202329 2702:-0.969098 2703:-0.970663 2704:0.40244 2705:0.42199 2706:0.247345 2707:0.00779461 2708:0.354105 2709:0.543102 2710:-0.910424 2711:-0.847527 2712:0.945265 2713:-0.125851 2714:0.0520036 2715:0.288105 2716:0.449063 2717:-0.0648996 2718:-0.27024 2719:0.0526874 2720:-0.164811 2721:0.193707 2722:-0.660036 2723:-0.0281508 2724:0.177164 2725:0.146822 2726:0.202329 2727:-0.969098 2728:-0.970663 2729:0.40244 2730:0.42199 2731:0.247345 2732:0.00779461 2733:0.354105 2734:0.543102 2735:-0.910424 2736:-0.847527 2737:0.945265 2738:-0.125851 2739:0.0520036 2740:0.288105 2741:0.449063 2742:-0.0648996 2743:-0.27024 2744:0.0526874 2745:-0.164811 2746:0.193707 2747:-0.660036 2748:-0.0281508 2749:0.177164 2750:0.146822 2751:-0.777049 2752:-0.0124465 2753:-0.548211 2754:-0.0389313 2755:0.288833 2756:0.0888353 2757:0.141247 2758:-0.355891 2759:-0.747697 2760:0.0926386 2761:0.361262 2762:0.512926 2763:0.888523 2764:0.505466 2765:-0.192397 2766:-0.28912 2767:-0.00761723 2768:-0.363417 2769:-0.234012 2770:0.0688868 2771:-0.109357 2772:1 2773:0.188074 2774:-0.602626 2775:0.243005 2776:-0.777049 2777:-0.0124465 2778:-0.548211 2779:-0.0389313 2780:0.288833 2781:0.0888353 2782:0.141247 2783:-0.355891 2784:-0.747697 2785:0.0926386 2786:0.361262 2787:0.512926 2788:0.888523 2789:0.505466 2790:-0.192397 2791:-0.28912 2792:-0.00761723 2793:-0.363417 2794:-0.234012 2795:0.0688868 2796:-0.109357 2797:1 2798:0.188074 2799:-0.602626 2800:0.243005 2801:0.983176 2802:0.657232 2803:-0.967437 2804:-0.982122 2805:0.0699237 2806:0.856774 2807:-0.990102 2808:-0.230221 2809:0.380823 2810:-0.0617524 2811:0.235716 2812:0.0287197 2813:-0.388855 2814:-0.295816 2815:0.425039 2816:0.290388 2817:0.595824 2818:0.402744 2819:-0.645848 2820:-0.510413 2821:0.362248 2822:-0.268009 2823:-0.141493 2824:-0.449826 2825:0.272224 2826:0.983176 2827:0.657232 2828:-0.967437 2829:-0.982122 2830:0.0699237 2831:0.856774 2832:-0.990102 2833:-0.230221 2834:0.380823 2835:-0.0617524 2836:0.235716 2837:0.0287197 2838:-0.388855 2839:-0.295816 2840:0.425039 2841:0.290388 2842:0.595824 2843:0.402744 2844:-0.645848 2845:-0.510413 2846:0.362248 2847:-0.268009 2848:-0.141493 2849:-0.449826 2850:0.272224 2851:-0.9403 2852:0.161726 2853:-0.991968 2854:0.754841 2855:0.400043 2856:-0.246102 2857:0.275812 2858:-0.0615638 2859:0.145561 2860:-0.581095 2861:0.573997 2862:0.516079 2863:0.348576 2864:-0.0336039 2865:0.106063 2866:-0.195673 2867:0.424161 2868:-0.0692309 2869:0.0270854 2870:-0.385264 2871:-0.248735 2872:0.209152 2873:-0.427185 2874:-0.183547 2875:0.117147 2876:-0.9403 2877:0.161726 2878:-0.991968 2879:0.754841 2880:0.400043 2881:-0.246102 2882:0.275812 2883:-0.0615638 2884:0.145561 2885:-0.581095 2886:0.573997 2887:0.516079 2888:0.348576 2889:-0.0336039 2890:0.106063 2891:-0.195673 2892:0.424161 2893:-0.0692309 2894:0.0270854 2895:-0.385264 2896:-0.248735 2897:0.209152 2898:-0.427185 2899:-0.183547 2900:0.117147 2901:-0.959427 2902:0.896824 2903:-0.714831 2904:0.978358 2905:0.906709 2906:0.983304 2907:-0.480455 2908:-0.755378 2909:-0.766255 2910:-0.939118 2911:0.975533 2912:0.888151 2913:0.979725 2914:-0.967244 2915:0.96257 2916:-0.800626 2917:0.534767 2918:-0.874226 2919:-0.918813 2920:-0.91522 2921:0.731797 2922:-0.893604 2923:-0.940327 2924:-0.848183 2925:-0.850877 2926:-0.959427 2927:0.896824 2928:-0.714831 2929:0.978358 2930:0.906709 2931:0.983304 2932:-0.480455 2933:-0.755378 2934:-0.766255 2935:-0.939118 2936:0.975533 2937:0.888151 2938:0.979725 2939:-0.967244 2940:0.96257 2941:-0.800626 2942:0.534767 2943:-0.874226 2944:-0.918813 2945:-0.91522 2946:0.731797 2947:-0.893604 2948:-0.940327 2949:-0.848183 2950:-0.850877 2951:-0.859337 2952:-0.668197 2953:0.736652 2954:0.476036 2955:0.574494 2956:-0.278443 2957:0.484355 2958:0.808411 2959:0.917366 2960:0.279171 2961:0.693418 2962:0.201284 2963:0.116427 2964:0.694605 2965:-0.0580066 2966:-0.614388 2967:-0.373136 2968:-0.554756 2969:0.205377 2970:-0.24127 2971:-0.81371 2972:0.0879556 2973:0.497796 2974:-0.0517028 2975:0.131908 2976:-0.859337 2977:-0.668197 2978:0.736652 2979:0.476036 2980:0.574494 2981:-0.278443 2982:0.484355 2983:0.808411 2984:0.917366 2985:0.279171 2986:0.693418 2987:0.201284 2988:0.116427 2989:0.694605 2990:-0.0580066 2991:-0.614388 2992:-0.373136 2993:-0.554756 2994:0.205377 2995:-0.24127 2996:-0.81371 2997:0.0879556 2998:0.497796 2999:-0.0517028 3000:0.131908 3001:-0.601049 3002:-0.912506 3003:0.774997 3004:-0.756597 3005:-0.714643 3006:-0.870021 3007:0.723684 3008:-0.769014 3009:-0.923908 3010:-0.128887 3011:-0.888315 3012:0.702868 3013:0.833741 3014:-0.726398 3015:0.150376 3016:-0.821225 3017:0.0470533 3018:0.845972 3019:0.528425 3020:0.12485 3021:-0.364822 3022:-0.950765 3023:-0.551893 3024:-0.151321 3025:0.825948 3026:-0.601049 3027:-0.912506 3028:0.774997 3029:-0.756597 3030:-0.714643 3031:-0.870021 3032:0.723684 3033:-0.769014 3034:-0.923908 3035:-0.128887 3036:-0.888315 3037:0.702868 3038:0.833741 3039:-0.726398 3040:0.150376 3041:-0.821225 3042:0.0470533 3043:0.845972 3044:0.528425 3045:0.12485 3046:-0.364822 3047:-0.950765 3048:-0.551893 3049:-0.151321 3050:0.825948 3051:-0.580717 3052:0.388722 3053:-0.108136 3054:0.472584 3055:0.434765 3056:0.20889 3057:0.188191 3058:-0.833898 3059:-0.391149 3060:-0.365773 3061:0.148865 3062:0.691337 3063:-0.0482133 3064:-0.337754 3065:0.0488889 3066:0.449789 3067:-0.518098 3068:0.0263857 3069:0.468729 3070:0.653225 3071:0.448727 3072:-0.295996 3073:0.415341 3074:-0.191784 3075:0.17891 3076:-1 3077:0.0168724 3078:-0.982455 3079:0.935299 3080:0.651382 3081:0.642425 3082:0.836251 3083:0.278503 3084:0.603701 3085:-0.520188 3086:0.761682 3087:0.760845 3088:0.397898 3089:0.367127 3090:0.162303 3091:-0.345679 3092:-0.619128 3093:-0.171593 3094:-0.440245 3095:-0.385973 3096:0.175685 3097:-0.166742 3098:0.725201 3099:0.144663 3100:-0.611292 3101:-1 3102:0.0168724 3103:-0.982455 3104:0.935299 3105:0.651382 3106:0.642425 3107:0.836251 3108:0.278503 3109:0.603701 3110:-0.520188 3111:0.761682 3112:0.760845 3113:0.397898 3114:0.367127 3115:0.162303 3116:-0.345679 3117:-0.619128 3118:-0.171593 3119:-0.440245 3120:-0.385973 3121:0.175685 3122:-0.166742 3123:0.725201 3124:0.144663 3125:-0.611292 3126:-0.808948 3127:-0.133034 3128:-0.334291 3129:0.40927 3130:0.424008 3131:-0.246572 3132:0.61296 3133:0.468523 3134:0.749828 3135:-0.0953734 3136:0.395453 3137:0.700688 3138:0.246318 3139:0.758596 3140:0.300398 3141:0.0864596 3142:0.339898 3143:-0.12201 3144:0.12267 3145:-1 3146:-1 3147:-0.359422 3148:0.486719 3149:0.0614719 3150:-0.103415 3151:-0.808948 3152:-0.133034 3153:-0.334291 3154:0.40927 3155:0.424008 3156:-0.246572 3157:0.61296 3158:0.468523 3159:0.749828 3160:-0.0953734 3161:0.395453 3162:0.700688 3163:0.246318 3164:0.758596 3165:0.300398 3166:0.0864596 3167:0.339898 3168:-0.12201 3169:0.12267 3170:-1 3171:-1 3172:-0.359422 3173:0.486719 3174:0.0614719 3175:-0.103415 3176:-0.949573 3177:0.41673 3178:-0.697255 3179:0.962995 3180:0.943046 3181:0.640985 3182:0.562548 3183:-0.444731 3184:0.890404 3185:0.716187 3186:0.978333 3187:0.92138 3188:-0.312207 3189:-0.244126 3190:-0.304742 3191:-0.275923 3192:0.961197 3193:0.774025 3194:0.138371 3195:0.282514 3196:-0.781593 3197:0.27457 3198:-0.524393 3199:-0.0107912 3200:0.0922678 
