svm_type c_svc
kernel_type rbf
gamma 0.00031250000000000001
nr_class 2
total_sv 38
rho 0.25217516071315432
label 1 2
nr_sv 16 22
SV
2.9324117423451974 1:-0.612393 2:0.304544 3:0.0728459 4:0.38621 5:0.536792 6:-0.126789 7:0.403244 8:0.773875 9:-0.233593 10:0.863687 11:0.393259 12:-0.275502 13:-0.193797 14:-0.80321 15:-0.0890977 16:-0.367139 17:0.494843 18:-0.111237 19:0.835069 20:0.630289 21:0.300848 22:0.631318 23:0.514582 24:0.461497 25:-0.90248 26:0.248024 27:-0.322998 28:0.431948 29:0.76024 30:0.540278 31:0.246406 32:-0.895292 33:-0.502483 34:0.464504 35:0.953365 36:0.881313 37:0.166453 38:0.521991 39:0.997989 40:0.282106 41:0.779258 42:-0.457867 43:0.575163 44:0.372038 45:-0.704077 46:-0.460374 47:-1 48:1 49:1 50:-0.447601 51:0.248024 52:-0.322998 53:0.431948 54:0.76024 55:0.540278 56:0.246406 57:-0.895292 58:-0.502483 59:0.464504 60:0.953365 61:0.881313 62:0.166453 63:0.521991 64:0.997989 65:0.282106 66:0.779258 67:-0.457867 68:0.575163 69:0.372038 70:-0.704077 71:-0.460374 72:-1 73:1 74:1 75:-0.447601 76:0.569859 77:0.74875 78:-0.34652 79:0.223684 80:-0.372244 81:-0.424742 82:-0.457177 83:-0.173636 84:0.295261 85:-0.53324 86:-0.0922239 87:0.416535 88:-0.0605331 89:-0.116287 90:0.67448 91:-0.25562 92:-0.168982 93:0.354539 94:0.412005 95:0.0359872 96:0.088467 97:0.570971 98:0.633109 99:-0.176949 100:-0.955587 101:-0.808668 102:-0.626982 103:0.959591 104:0.982144 105:-0.470633 106:0.812552 107:0.963237 108:0.904491 109:0.507275 110:0.65397 111:0.381193 112:0.186635 113:0.532778 114:-0.468043 115:0.758345 116:0.540458 117:0.359392 118:-0.380408 119:-0.955899 120:0.208159 121:-0.733764 122:-0.0839216 123:-0.0931671 124:-0.621917 125:-0.54329 126:0.564038 127:0.0825724 128:-0.391414 129:-0.295831 130:0.458264 131:-0.581806 132:-0.14331 133:0.0674345 134:-0.0851203 135:-0.161848 136:-0.141683 137:-0.712566 138:-0.311885 139:0.513227 140:-0.562735 141:0.207441 142:-0.3176 143:0.450751 144:-0.179675 145:-0.108817 146:0.222893 147:0.169183 148:0.554754 149:-0.161734 150:0.3842 151:0.564038 152:0.0825724 153:-0.391414 154:-0.295831 155:0.458264 156:-0.581806 157:-0.14331 158:0.0674345 159:-0.0851203 160:-0.161848 161:-0.141683 162:-0.712566 163:-0.311885 164:0.513227 165:-0.562735 166:0.207441 167:-0.3176 168:0.450751 169:-0.179675 170:-0.108817 171:0.222893 172:0.169183 173:0.554754 174:-0.161734 175:0.3842 176:-0.758805 177:-0.315854 178:0.152028 179:0.312527 180:-0.572649 181:0.675222 182:0.906315 183:0.0661542 184:-0.412727 185:-0.474278 186:0.1618 187:0.524535 188:-0.0981328 189:1 190:0.278941 191:-0.279885 192:0.355348 193:-0.646577 194:-0.71853 195:-0.175107 196:0.532938 197:-0.75527 198:-0.382251 199:0.534568 200:-0.252189 201:0.141978 202:0.172325 203:0.222878 204:-0.207706 205:0.0422075 206:-0.890257 207:-0.0273205 208:0.587306 209:0.153829 210:-0.885192 211:-0.226869 212:-0.891482 213:-0.35578 214:-1 215:-0.263088 216:-0.251278 217:0.0311205 218:0.349728 219:0.312865 220:-0.069405 221:0.285385 222:-0.316607 223:-0.353247 224:0.589614 225:0.361421 226:0.502552 227:0.868296 228:0.845574 229:0.980756 230:0.37041 231:-0.392517 232:-0.732439 233:-0.186425 234:0.238652 235:0.258702 236:0.153167 237:-0.554138 238:-0.806839 239:-0.988417 240:0.76452 241:0.626188 242:-0.0797215 243:-0.179919 244:-0.0529953 245:0.58978 246:-0.614268 247:0.371269 248:0.864824 249:0.221256 250:-0.863461 251:0.56267 252:-0.287148 253:0.0874793 254:1 255:-0.545151 256:-0.0810258 257:-0.437366 258:-0.824197 259:-0.596389 260:0.646073 261:-0.352829 262:-0.340025 263:0.378896 264:0.445732 265:-0.179423 266:-0.0434037 267:0.0664779 268:-0.2134 269:-0.522652 270:0.375951 271:-0.0923128 272:-0.729564 273:0.32098 274:-0.215979 275:0.434552 276:0.997591 277:0.9621 278:-0.561687 279:0.0440812 280:-0.377151 281:0.207735 282:-0.423039 283:0.182358 284:0.149813 285:-0.723532 286:-0.144231 287:-0.201059 288:0.216692 289:0.255764 290:0.571626 291:0.458544 292:-0.649679 293:0.597796 294:-0.407602 295:-0.165646 296:-0.402996 297:0.224126 298:0.168096 299:-0.598834 300:-0.00825923 301:0.997591 302:0.9621 303:-0.561687 304:0.0440812 305:-0.377151 306:0.207735 307:-0.423039 308:0.182358 309:0.149813 310:-0.723532 311:-0.144231 312:-0.201059 313:0.216692 314:0.255764 315:0.571626 316:0.458544 317:-0.649679 318:0.597796 319:-0.407602 320:-0.165646 321:-0.402996 322:0.224126 323:0.168096 324:-0.598834 325:-0.00825923 326:-0.530088 327:-0.853412 328:-0.646709 329:-0.076799 330:-0.709935 331:0.902667 332:0.907649 333:0.935118 334:-0.37176 335:0.370053 336:0.701648 337:-0.638005 338:-0.745793 339:0.143961 340:0.247279 341:0.0202322 342:-0.244326 343:-0.0536112 344:0.14289 345:-0.489918 346:-0.408329 347:-0.49272 348:-0.409829 349:0.806625 350:-0.189528 351:-0.053126 352:-0.339279 353:-0.0193837 354:0.648955 355:0.255981 356:0.795734 357:0.821013 358:0.69275 359:0.380525 360:0.0624451 361:0.608475 362:-0.117896 363:-0.125098 364:-0.385016 365:0.332033 366:-0.406976 367:0.202798 368:-0.198415 369:-0.472789 370:-0.201708 371:-0.22384 372:-0.144286 373:-0.45481 374:-0.0243814 375:0.209252 376:-0.053126 377:-0.339279 378:-0.0193837 379:0.648955 380:0.255981 381:0.795734 382:0.821013 383:0.69275 384:0.380525 385:0.0624451 386:0.608475 387:-0.117896 388:-0.125098 389:-0.385016 390:0.332033 391:-0.406976 392:0.202798 393:-0.198415 394:-0.472789 395:-0.201708 396:-0.22384 397:-0.144286 398:-0.45481 399:-0.0243814 400:0.209252 401:0.406321 402:0.671562 403:0.421863 404:-0.0807406 405:-0.772581 406:-0.237434 407:-0.481445 408:-0.217094 409:-0.280268 410:-0.123193 411:0.206045 412:0.108149 413:-0.444898 414:0.695354 415:-0.179572 416:-0.510074 417:-0.0480553 418:0.626431 419:0.0158862 420:0.0411849 421:0.367798 422:0.485154 423:0.00826158 424:0.503921 425:-0.407062 426:0.9043 427:1 428:0.33994 429:-0.11889 430:-0.185464 431:-0.710522 432:-0.229374 433:-0.503039 434:0.308753 435:0.274225 436:-0.785347 437:0.212632 438:-0.129734 439:-0.566112 440:0.806512 441:0.600341 442:0.0960422 443:-1 444:0.0956681 445:0.248711 446:-0.513637 447:0.364573 448:0.435934 449:-0.360176 450:-0.734892 451:-0.158681 452:0.65987 453:-0.0261885 454:-0.118689 455:-0.470453 456:-0.330121 457:-0.107304 458:0.443624 459:-0.0274313 460:0.0887273 461:-0.069291 462:-0.0641032 463:0.237575 464:-0.144585 465:-0.114394 466:0.322128 467:0.768224 468:0.448458 469:-0.18471 470:-0.0593227 471:0.345082 472:-0.298535 473:-0.341377 474:0.123899 475:0.211918 476:-0.659646 477:-0.108465 478:-0.0455966 479:0.447048 480:-0.474164 481:0.917684 482:0.124861 483:0.156797 484:0.520886 485:0.14095 486:-0.371281 487:0.20237 488:-0.464277 489:-0.861062 490:0.239616 491:0.434264 492:0.215702 493:0.929323 494:0.563935 495:0.980781 496:-0.479624 497:-0.113831 498:0.969662 499:0.195349 500:-0.540066 501:0.412304 502:0.805599 503:-0.169723 504:0.0467622 505:-0.315672 506:0.285715 507:-0.185993 508:-0.378401 509:0.202699 510:-0.0961189 511:-0.139134 512:0.237215 513:-0.262942 514:-0.697993 515:0.622566 516:-0.0570634 517:-1 518:0.0563757 519:0.461046 520:0.621284 521:0.369239 522:0.522142 523:0.114707 524:-0.367253 525:0.423493 526:-0.627095 527:-0.231416 528:0.312641 529:0.299786 530:0.29363 531:0.962608 532:0.14658 533:0.00345879 534:0.220933 535:0.816725 536:0.202131 537:-0.0434738 538:-0.206431 539:-0.373827 540:-0.154771 541:-0.291031 542:-0.0686889 543:-0.427383 544:-0.123665 545:-0.182551 546:0.273133 547:0.58127 548:0.455936 549:0.0611447 550:-0.241727 551:0.587597 552:-0.934049 553:0.128527 554:1 555:-0.772721 556:0.409767 557:-0.060035 558:-1 559:-0.586558 560:1 561:-0.430583 562:-0.32232 563:0.0245845 564:1 565:-1 566:-0.123212 567:0.345982 568:0.405634 569:-0.951178 570:-0.210907 571:0.664453 572:0.33539 573:0.819195 574:-1 575:0.459621 576:0.587597 577:-0.934049 578:0.128527 579:1 580:-0.772721 581:0.409767 582:-0.060035 583:-1 584:-0.586558 585:1 586:-0.430583 587:-0.32232 588:0.0245845 589:1 590:-1 591:-0.123212 592:0.345982 593:0.405634 594:-0.951178 595:-0.210907 596:0.664453 597:0.33539 598:0.819195 599:-1 600:0.459621 601:0.395146 602:0.674102 603:0.161436 604:0.304695 605:-0.812293 606:0.324683 607:-0.0962396 608:-0.254436 609:0.408257 610:-0.123797 611:0.0942278 612:-0.437266 613:0.072731 614:0.535578 615:0.696083 616:-0.329451 617:-0.336581 618:-0.758797 619:0.0984383 620:0.0702563 621:-0.0344379 622:0.401683 623:-0.0199088 624:0.4579 625:-0.511166 626:0.50959 627:-0.444466 628:-1 629:0.00138305 630:-0.234127 631:-0.277555 632:-0.00171079 633:-0.241079 634:0.521542 635:-1 636:-0.0403381 637:-0.153679 638:0.633872 639:-0.5913 640:0.241902 641:-0.466875 642:-0.526666 643:0.620202 644:-0.453468 645:0.55665 646:-0.260016 647:-0.0857072 648:0.372756 649:-0.454364 650:0.354299 651:0.50959 652:-0.444466 653:-1 654:0.00138305 655:-0.234127 656:-0.277555 657:-0.00171079 658:-0.241079 659:0.521542 660:-1 661:-0.0403381 662:-0.153679 663:0.633872 664:-0.5913 665:0.241902 666:-0.466875 667:-0.526666 668:0.620202 669:-0.453468 670:0.55665 671:-0.260016 672:-0.0857072 673:0.372756 674:-0.454364 675:0.354299 676:-0.236314 677:-0.645468 678:0.127684 679:0.142619 680:-0.0996123 681:0.443296 682:0.502421 683:-0.300207 684:0.0464936 685:0.719895 686:0.661035 687:-0.296491 688:0.472267 689:-0.155542 690:-0.0352303 691:-0.486289 692:-0.0944293 693:-0.450242 694:-0.711061 695:0.218039 696:-0.536803 697:-1 698:0.686259 699:0.326868 700:0.247098 701:-0.236314 702:-0.645468 703:0.127684 704:0.142619 705:-0.0996123 706:0.443296 707:0.502421 708:-0.300207 709:0.0464936 710:0.719895 711:0.661035 712:-0.296491 713:0.472267 714:-0.155542 715:-0.0352303 716:-0.486289 717:-0.0944293 718:-0.450242 719:-0.711061 720:0.218039 721:-0.536803 722:-1 723:0.686259 724:0.326868 725:0.247098 726:-0.863511 727:-0.913536 728:0.422845 729:0.82968 730:-0.75396 731:0.827178 732:0.7908 733:0.312098 734:0.474849 735:0.891698 736:0.970499 737:-0.564446 738:0.883223 739:0.250569 740:-0.09248 741:-0.151098 742:-0.575904 743:0.178615 744:0.39246 745:0.331937 746:-0.32546 747:-0.793851 748:0.551258 749:-0.347789 750:-0.192635 751:-0.753759 752:-0.52091 753:-0.379457 754:0.395228 755:0.0913041 756:0.191058 757:0.63206 758:0.540403 759:0.281055 760:0.177785 761:-0.0928981 762:-0.0104574 763:-0.225928 764:-0.643829 765:-0.173349 766:0.0508099 767:-0.42201 768:-0.202184 769:-0.0910029 770:0.306696 771:-0.469388 772:-0.638566 773:-0.462288 774:0.161131 775:-0.103262 776:-0.753759 777:-0.52091 778:-0.379457 779:0.395228 780:0.0913041 781:0.191058 782:0.63206 783:0.540403 784:0.281055 785:0.177785 786:-0.0928981 787:-0.0104574 788:-0.225928 789:-0.643829 790:-0.173349 791:0.0508099 792:-0.42201 793:-0.202184 794:-0.0910029 795:0.306696 796:-0.469388 797:-0.638566 798:-0.462288 799:0.161131 800:-0.103262 801:0.292962 802:-0.592738 803:-0.434626 804:0.0992044 805:-0.912344 806:-0.176609 807:-0.645825 808:-0.470866 809:0.811331 810:-0.494547 811:0.0607198 812:0.190381 813:0.474587 814:0.196946 815:-0.123314 816:0.722567 817:0.51645 818:0.295839 819:-0.268988 820:-0.602562 821:0.218639 822:0.214763 823:0.221697 824:-0.015308 825:-0.45023 826:0.619301 827:-0.267015 828:-0.178752 829:0.561019 830:0.475855 831:0.19649 832:-0.365091 833:-0.176839 834:-0.217379 835:-0.207587 836:-0.425482 837:0.264632 838:-0.818577 839:-0.747699 840:0.202808 841:0.508345 842:-0.493605 843:-1 844:-0.339715 845:0.14602 846:0.315222 847:0.204456 848:-0.478879 849:-0.266858 850:0.322231 851:0.0515196 852:-0.139405 853:0.340581 854:0.235245 855:-0.237863 856:-0.354582 857:0.0901476 858:1 859:0.447256 860:-0.19328 861:-1 862:-0.0763047 863:0.641584 864:0.140448 865:-0.312635 866:0.559785 867:-0.725818 868:-0.254811 869:-0.193765 870:0.588048 871:0.456566 872:0.0768363 873:-0.948723 874:-0.307955 875:0.0311911 876:-0.0543748 877:-0.0392081 878:0.773162 879:0.0566514 880:-0.107294 881:-0.127274 882:0.295181 883:0.0033645 884:-0.475519 885:0.864711 886:-0.616799 887:0.498992 888:-0.241145 889:0.102893 890:0.298125 891:0.643457 892:0.183565 893:-0.688574 894:-0.46755 895:-0.818668 896:0.220376 897:-0.0975963 898:0.255488 899:0.339504 900:-0.0401802 901:1 902:1 903:-1 904:1 905:0.752677 906:1 907:-1 908:0.34673 909:-0.0679873 910:-0.567227 911:1 912:1 913:1 914:-0.75989 915:1 916:-1 917:-0.385672 918:-1 919:1 920:-0.911594 921:-1 922:1 923:-1 924:1 925:-0.366679 926:0.313836 927:0.769994 928:0.329134 929:0.105492 930:-0.344222 931:-0.532078 932:-0.106634 933:-0.684111 934:0.231088 935:-0.192192 936:-0.249442 937:-0.25691 938:0.429476 939:-0.441763 940:0.137568 941:0.413612 942:0.200007 943:0.682188 944:0.509967 945:0.234342 946:-0.241779 947:0.321894 948:0.392086 949:-0.146329 950:-0.490374 951:-0.0961045 952:1 953:0.144848 954:-0.225162 955:1 956:0.936635 957:-1 958:-1 959:1 960:-0.404821 961:-0.587443 962:0.636389 963:-1 964:0.245713 965:0.794776 966:-0.682564 967:-1 968:0.614861 969:0.0431224 970:-0.115745 971:0.331968 972:-0.384902 973:0.454486 974:1 975:1 976:-0.576106 977:-0.718673 978:0.593458 979:0.203703 980:0.235132 981:0.377134 982:0.475353 983:0.596048 984:0.236502 985:0.650475 986:0.651796 987:0.402735 988:0.220628 989:-0.208087 990:-0.379742 991:-0.583667 992:-0.391782 993:0.527084 994:0.105474 995:-0.17438 996:-0.261185 997:0.292187 998:0.462572 999:-0.204225 1000:0.224943 1001:0.111521 1002:0.954629 1003:0.124896 1004:0.155313 1005:-0.339003 1006:-0.146746 1007:-0.341404 1008:-0.322151 1009:0.616733 1010:-0.56226 1011:-0.76937 1012:0.307142 1013:-0.706735 1014:0.483116 1015:-0.548376 1016:-0.317002 1017:-0.272121 1018:0.0528087 1019:0.195392 1020:0.309307 1021:0.327953 1022:-0.246685 1023:-0.738921 1024:-0.411854 1025:0.487423 1026:0.241205 1027:0.0328766 1028:0.352787 1029:-0.397141 1030:-0.408991 1031:0.578622 1032:0.087486 1033:-0.100038 1034:0.0672479 1035:-1 1036:-0.181565 1037:-0.678729 1038:0.190039 1039:-0.762355 1040:0.317066 1041:0.575667 1042:-0.129558 1043:-0.905918 1044:-0.342204 1045:-0.358165 1046:0.680603 1047:-0.618026 1048:-0.690419 1049:0.349342 1050:0.632309 1051:0.65671 1052:-0.31631 1053:-0.396867 1054:-0.228657 1055:-0.368057 1056:0.0698884 1057:-0.166949 1058:-0.566862 1059:-0.307981 1060:-0.708301 1061:0.202554 1062:0.354475 1063:0.0768442 1064:0.558388 1065:0.604069 1066:-0.350779 1067:-0.621779 1068:-0.391242 1069:-0.354068 1070:-0.147519 1071:-0.247636 1072:0.411237 1073:-0.346878 1074:-0.215791 1075:0.0101371 1076:0.106522 1077:0.0861965 1078:-0.48565 1079:-0.133257 1080:-0.843416 1081:-0.396807 1082:0.0385095 1083:0.481098 1084:-0.051447 1085:0.413112 1086:-0.0510677 1087:-0.141802 1088:-0.174274 1089:0.142751 1090:-0.762201 1091:-0.867226 1092:0.572936 1093:0.927627 1094:0.574871 1095:-0.0509557 1096:-0.0169564 1097:-0.351935 1098:0.787478 1099:-0.978394 1100:-0.194108 1101:-1 1102:-0.363679 1103:0.181913 1104:-0.16876 1105:-0.563728 1106:0.588992 1107:-0.760712 1108:0.316676 1109:-1 1110:-0.00368014 1111:-0.0631931 1112:0.40826 1113:-0.741889 1114:0.448992 1115:0.476719 1116:-0.123111 1117:0.0284346 1118:0.550449 1119:0.0537464 1120:0.202243 1121:-0.0313619 1122:0.26573 1123:0.870018 1124:-0.594742 1125:0.4886 1126:-0.262104 1127:0.275144 1128:-0.0448852 1129:-0.188783 1130:0.34911 1131:0.881095 1132:0.0726877 1133:0.976544 1134:-0.404764 1135:0.466072 1136:-0.158136 1137:0.524294 1138:-0.712939 1139:-0.497358 1140:0.933212 1141:0.327064 1142:-0.55369 1143:-0.473178 1144:0.0360356 1145:0.627534 1146:0.244872 1147:-0.331718 1148:0.345377 1149:0.0749067 1150:-0.323436 1151:0.325146 1152:-0.223045 1153:-1 1154:-0.614559 1155:-0.100794 1156:0.132853 1157:0.956134 1158:-0.266526 1159:1 1160:-1 1161:0.717953 1162:0.50748 1163:-0.0964313 1164:1 1165:-0.997601 1166:-0.885889 1167:0.96818 1168:-0.281916 1169:1 1170:0.0631543 1171:0.00487016 1172:0.17461 1173:-0.33341 1174:0.182322 1175:-0.727403 1176:0.325146 1177:-0.223045 1178:-1 1179:-0.614559 1180:-0.100794 1181:0.132853 1182:0.956134 1183:-0.266526 1184:1 1185:-1 1186:0.717953 1187:0.50748 1188:-0.0964313 1189:1 1190:-0.997601 1191:-0.885889 1192:0.96818 1193:-0.281916 1194:1 1195:0.0631543 1196:0.00487016 1197:0.17461 1198:-0.33341 1199:0.182322 1200:-0.727403 1201:-0.520336 1202:0.16551 1203:-0.394545 1204:0.669345 1205:0.472895 1206:-0.45229 1207:0.784524 1208:0.663238 1209:0.725593 1210:0.570543 1211:0.122174 1212:0.552836 1213:-0.540957 1214:0.602804 1215:-0.735589 1216:-0.694241 1217:0.124626 1218:0.41409 1219:-0.614102 1220:-0.889254 1221:0.559077 1222:0.337103 1223:-0.450799 1224:-0.525076 1225:0.15337 1226:-0.343214 1227:-0.442016 1228:0.620133 1229:0.182894 1230:0.108275 1231:-0.118453 1232:0.230799 1233:0.392665 1234:-0.369535 1235:0.495759 1236:0.412705 1237:-0.0398777 1238:0.279133 1239:0.185856 1240:0.376442 1241:0.0444767 1242:1 1243:-0.00190026 1244:-0.584327 1245:-0.0497123 1246:-0.337353 1247:-0.543085 1248:-0.0530395 1249:-0.113262 1250:0.378984 1251:-0.343214 1252:-0.442016 1253:0.620133 1254:0.182894 1255:0.108275 1256:-0.118453 1257:0.230799 1258:0.392665 1259:-0.369535 1260:0.495759 1261:0.412705 1262:-0.0398777 1263:0.279133 1264:0.185856 1265:0.376442 1266:0.0444767 1267:1 1268:-0.00190026 1269:-0.584327 1270:-0.0497123 1271:-0.337353 1272:-0.543085 1273:-0.0530395 1274:-0.113262 1275:0.378984 1276:0.869789 1277:0.436784 1278:0.0268725 1279:0.237718 1280:-0.231965 1281:-0.0840349 1282:-0.71048 1283:0.0352199 1284:-0.258766 1285:0.371316 1286:0.118736 1287:0.10775 1288:0.329423 1289:-0.360506 1290:0.00456361 1291:0.698812 1292:-0.316128 1293:0.259953 1294:-0.345628 1295:-0.0615301 1296:0.078582 1297:0.478975 1298:-0.162094 1299:-0.072295 1300:-0.377794 1301:0.869789 1302:0.436784 1303:0.0268725 1304:0.237718 1305:-0.231965 1306:-0.0840349 1307:-0.71048 1308:0.0352199 1309:-0.258766 1310:0.371316 1311:0.118736 1312:0.10775 1313:0.329423 1314:-0.360506 1315:0.00456361 1316:0.698812 1317:-0.316128 1318:0.259953 1319:-0.345628 1320:-0.0615301 1321:0.078582 1322:0.478975 1323:-0.162094 1324:-0.072295 1325:-0.377794 1326:-0.351742 1327:-0.912516 1328:-0.166837 1329:0.592191 1330:0.0747174 1331:-0.0493203 1332:0.58185 1333:0.80057 1334:-0.712539 1335:0.78194 1336:0.856146 1337:-0.237115 1338:0.0156024 1339:0.156221 1340:0.109147 1341:-0.442171 1342:-0.368676 1343:-0.352524 1344:-0.600571 1345:0.451538 1346:0.603906 1347:-0.582262 1348:-0.0297872 1349:0.090715 1350:0.30805 1351:-0.351742 1352:-0.912516 1353:-0.166837 1354:0.592191 1355:0.0747174 1356:-0.0493203 1357:0.58185 1358:0.80057 1359:-0.712539 1360:0.78194 1361:0.856146 1362:-0.237115 1363:0.0156024 1364:0.156221 1365:0.109147 1366:-0.442171 1367:-0.368676 1368:-0.352524 1369:-0.600571 1370:0.451538 1371:0.603906 1372:-0.582262 1373:-0.0297872 1374:0.090715 1375:0.30805 1376:-0.0566933 1377:-0.286096 1378:-1 1379:0.107479 1380:0.537772 1381:-0.972029 1382:0.444165 1383:-1 1384:0.841707 1385:-1 1386:0.435929 1387:0.553051 1388:-0.669269 1389:-0.0277667 1390:0.207605 1391:-0.234053 1392:0.345571 1393:0.19567 1394:-0.766395 1395:-0.371446 1396:-1 1397:-0.513137 1398:-0.797824 1399:-0.0215889 1400:1 1401:-0.0566933 1402:-0.286096 1403:-1 1404:0.107479 1405:0.537772 1406:-0.972029 1407:0.444165 1408:-1 1409:0.841707 1410:-1 1411:0.435929 1412:0.553051 1413:-0.669269 1414:-0.0277667 1415:0.207605 1416:-0.234053 1417:0.345571 1418:0.19567 1419:-0.766395 1420:-0.371446 1421:-1 1422:-0.513137 1423:-0.797824 1424:-0.0215889 1425:1 1426:-0.469566 1427:0.139901 1428:0.503634 1429:0.417843 1430:-0.355404 1431:0.617129 1432:-0.104445 1433:0.565208 1434:-0.374183 1435:0.0976445 1436:0.0431373 1437:0.542231 1438:-0.0186957 1439:0.284544 1440:0.230238 1441:0.676018 1442:0.578352 1443:-0.721389 1444:-0.295439 1445:-0.725172 1446:0.526342 1447:-0.387212 1448:-0.165475 1449:-0.150519 1450:-0.437497 1451:-0.469566 1452:0.139901 1453:0.503634 1454:0.417843 1455:-0.355404 1456:0.617129 1457:-0.104445 1458:0.565208 1459:-0.374183 1460:0.0976445 1461:0.0431373 1462:0.542231 1463:-0.0186957 1464:0.284544 1465:0.230238 1466:0.676018 1467:0.578352 1468:-0.721389 1469:-0.295439 1470:-0.725172 1471:0.526342 1472:-0.387212 1473:-0.165475 1474:-0.150519 1475:-0.437497 1476:0.00159434 1477:1 1478:0.52314 1479:0.356522 1480:0.981607 1481:-0.0346083 1482:0.0597194 1483:0.424314 1484:-1 1485:0.314615 1486:-0.345303 1487:-0.49545 1488:-0.389375 1489:0.206411 1490:-0.882102 1491:-0.11597 1492:-0.453995 1493:-0.860397 1494:0.0956046 1495:-0.16606 1496:-0.475656 1497:-1 1498:0.252522 1499:0.4053 1500:0.900546 1501:0.00159434 1502:1 1503:0.52314 1504:0.356522 1505:0.981607 1506:-0.0346083 1507:0.0597194 1508:0.424314 1509:-1 1510:0.314615 1511:-0.345303 1512:-0.49545 1513:-0.389375 1514:0.206411 1515:-0.882102 1516:-0.11597 1517:-0.453995 1518:-0.860397 1519:0.0956046 1520:-0.16606 1521:-0.475656 1522:-1 1523:0.252522 1524:0.4053 1525:0.900546 1526:-1 1527:0.351582 1528:0.622228 1529:0.0431915 1530:1 1531:-1 1532:0.95518 1533:0.647568 1534:-1 1535:-1 1536:-0.181519 1537:-0.927201 1538:-0.089177 1539:-0.165457 1540:-0.293924 1541:-0.456355 1542:0.0686127 1543:-0.0597101 1544:-0.125218 1545:-0.247265 1546:0.0202795 1547:-1 1548:-0.399027 1549:-0.0101487 1550:0.530916 1551:-0.607412 1552:-0.353067 1553:0.0366011 1554:-0.11186 1555:0.370688 1556:-0.658775 1557:0.236266 1558:0.559741 1559:-0.207318 1560:0.328232 1561:0.0720825 1562:0.339596 1563:0.00327411 1564:-0.0299083 1565:-0.714297 1566:-0.159725 1567:-0.0279532 1568:0.488374 1569:-0.165117 1570:-0.361207 1571:-0.733197 1572:-0.105074 1573:-0.0165396 1574:-0.129267 1575:-0.134766 1576:-0.607412 1577:-0.353067 1578:0.0366011 1579:-0.11186 1580:0.370688 1581:-0.658775 1582:0.236266 1583:0.559741 1584:-0.207318 1585:0.328232 1586:0.0720825 1587:0.339596 1588:0.00327411 1589:-0.0299083 1590:-0.714297 1591:-0.159725 1592:-0.0279532 1593:0.488374 1594:-0.165117 1595:-0.361207 1596:-0.733197 1597:-0.105074 1598:-0.0165396 1599:-0.129267 1600:-0.134766 1601:0.677227 1602:-0.0130414 1603:0.675993 1604:0.630558 1605:-0.0153389 1606:-0.535642 1607:-0.505297 1608:-0.315837 1609:-0.270808 1610:0.0810471 1611:-0.639313 1612:0.131984 1613:0.162443 1614:0.462906 1615:0.0655679 1616:-0.405989 1617:0.506433 1618:0.262465 1619:0.309858 1620:-0.320544 1621:-0.408598 1622:-0.461413 1623:0.383372 1624:-0.125481 1625:-0.257514 1626:-0.167366 1627:0.656166 1628:-0.63417 1629:0.0972196 1630:0.377793 1631:0.639379 1632:0.0686373 1633:-0.178794 1634:-0.782414 1635:-1 1636:0.718222 1637:-0.206662 1638:-0.2297 1639:-1 1640:1 1641:-0.826656 1642:-1 1643:-0.809572 1644:0.556366 1645:1 1646:-1 1647:0.933238 1648:-1 1649:0.67611 1650:-1 1651:0.397946 1652:0.632288 1653:-0.474892 1654:-0.199942 1655:0.175015 1656:-0.227315 1657:-0.351195 1658:0.291681 1659:0.378973 1660:-0.151817 1661:-0.37937 1662:-0.443525 1663:0.673108 1664:-0.593862 1665:0.421587 1666:0.0824145 1667:-0.311448 1668:0.299207 1669:0.862987 1670:-0.307314 1671:-0.11987 1672:0.143626 1673:0.215304 1674:0.190574 1675:-0.71355 1676:0.151567 1677:-0.522137 1678:-0.536125 1679:0.43542 1680:0.143454 1681:-0.501196 1682:-0.166362 1683:0.626432 1684:0.437301 1685:0.136037 1686:-0.203377 1687:0.905862 1688:-0.568423 1689:0.713151 1690:-0.15257 1691:0.432586 1692:-0.535962 1693:-0.713734 1694:-0.285364 1695:-0.0599429 1696:-0.203922 1697:-0.176801 1698:-0.737946 1699:0.162447 1700:0.884359 1701:0.186558 1702:0.29178 1703:-0.624568 1704:0.173133 1705:-0.210191 1706:-0.224286 1707:-0.454643 1708:-0.0324071 1709:-0.526421 1710:-0.802258 1711:0.336166 1712:0.252885 1713:0.556863 1714:0.110472 1715:-0.42193 1716:-0.233637 1717:0.691548 1718:0.215573 1719:-0.0294139 1720:-0.818875 1721:-0.164476 1722:-0.28548 1723:0.18588 1724:0.0746911 1725:-0.481231 1726:0.250823 1727:0.52462 1728:-0.967477 1729:-0.413382 1730:0.0229149 1731:-0.91769 1732:0.379447 1733:-0.326575 1734:0.223936 1735:0.253989 1736:-0.704876 1737:-0.11425 1738:0.254442 1739:0.341676 1740:-0.627858 1741:0.306525 1742:0.203264 1743:0.134896 1744:-0.0315628 1745:-0.264658 1746:-0.456996 1747:0.198861 1748:-0.240593 1749:0.376481 1750:0.379817 1751:0.868161 1752:0.992038 1753:-0.668284 1754:0.430201 1755:0.402329 1756:0.225246 1757:-1 1758:0.347428 1759:0.298503 1760:0.185213 1761:0.626929 1762:-0.961795 1763:-0.741279 1764:1 1765:0.700084 1766:-1 1767:-0.413918 1768:0.384166 1769:-1 1770:-0.651421 1771:0.588329 1772:-0.322936 1773:0.0412807 1774:0.714013 1775:0.0653483 1776:0.755312 1777:0.160367 1778:-0.273637 1779:-0.698997 1780:-0.00392699 1781:-0.191539 1782:-0.115201 1783:-0.283795 1784:0.0691015 1785:-0.57922 1786:-0.486444 1787:-0.200413 1788:0.769178 1789:-0.554038 1790:-0.0860045 1791:0.486079 1792:-0.195465 1793:0.416716 1794:-0.775004 1795:0.192655 1796:-0.63775 1797:-0.291057 1798:0.594566 1799:-0.152169 1800:-0.057481 1801:0.00798109 1802:1 1803:0.946248 1804:-0.354837 1805:-0.0672198 1806:0.0913238 1807:-0.0614419 1808:0.17307 1809:-0.885286 1810:-0.298321 1811:0.00175656 1812:0.789757 1813:-0.0189332 1814:1 1815:0.160435 1816:-0.871499 1817:-0.246341 1818:-0.466747 1819:-0.60918 1820:1 1821:0.367686 1822:0.658365 1823:-0.401473 1824:0.116478 1825:-0.508601 1826:0.911974 1827:0.676909 1828:-0.395433 1829:-0.293016 1830:-0.692918 1831:-0.682302 1832:-0.471182 1833:-0.484021 1834:0.25011 1835:-0.645304 1836:-0.264199 1837:0.644777 1838:0.312827 1839:-0.370338 1840:0.764458 1841:0.116891 1842:-0.190381 1843:-0.595714 1844:0.20177 1845:0.285897 1846:-0.473606 1847:-0.0420616 1848:0.199228 1849:0.15915 1850:0.153666 1851:-0.174876 1852:-0.358977 1853:-0.196291 1854:0.614165 1855:-0.765572 1856:0.0238386 1857:-0.133988 1858:-0.738824 1859:1 1860:-1 1861:-1 1862:0.110385 1863:0.5346 1864:-0.873718 1865:-0.798989 1866:0.336593 1867:1 1868:-0.204586 1869:-0.715088 1870:-0.842046 1871:0.258665 1872:0.869703 1873:-0.588719 1874:0.145072 1875:-0.193575 1876:0.246318 1877:-0.438145 1878:-0.106235 1879:-0.200447 1880:0.27764 1881:-0.0745085 1882:0.425444 1883:1 1884:0.360334 1885:0.359856 1886:-0.131355 1887:0.337462 1888:0.174676 1889:0.715712 1890:-0.328785 1891:-0.241768 1892:0.121738 1893:0.71998 1894:-0.187767 1895:0.214382 1896:1 1897:0.465933 1898:-0.108399 1899:-0.531242 1900:0.340415 1901:-0.255014 1902:1 1903:-0.375494 1904:0.760219 1905:-0.702565 1906:1 1907:-1 1908:-0.863613 1909:1 1910:-0.786556 1911:0.68823 1912:0.0292189 1913:-0.213838 1914:-0.658299 1915:0.757444 1916:0.103938 1917:-1 1918:0.830618 1919:-0.412459 1920:1 1921:-1 1922:-0.555252 1923:1 1924:0.776231 1925:0.702915 1926:0.151129 1927:0.366698 1928:-0.111536 1929:-0.703077 1930:-0.496278 1931:0.426773 1932:0.0547467 1933:0.293884 1934:-0.547268 1935:0.384036 1936:0.261143 1937:-0.550269 1938:-0.45959 1939:0.0898201 1940:0.404348 1941:-0.053967 1942:0.137282 1943:0.646302 1944:0.492375 1945:-0.141943 1946:0.088603 1947:-1 1948:-0.26163 1949:0.0772073 1950:1 1951:0.548699 1952:1 1953:-1 1954:-0.486776 1955:0.257771 1956:0.188881 1957:-0.47537 1958:-0.670918 1959:0.891881 1960:0.108077 1961:-0.193463 1962:0.122675 1963:0.31461 1964:-0.204967 1965:0.815677 1966:-0.90908 1967:-0.10569 1968:-0.265734 1969:-0.247475 1970:0.242607 1971:-0.410189 1972:-0.215469 1973:-0.105713 1974:0.565184 1975:0.203004 1976:-0.894194 1977:0.30587 1978:1 1979:-0.564711 1980:-0.896231 1981:1 1982:0.208684 1983:0.863976 1984:0.184248 1985:-0.740806 1986:0.0626534 1987:0.747104 1988:0.827865 1989:-0.802631 1990:-0.85092 1991:0.158845 1992:-0.914552 1993:0.115842 1994:0.922256 1995:-0.174469 1996:1 1997:-1 1998:-0.520061 1999:0.328855 2000:-0.199784 2001:-0.17425 2002:1 2003:0.581804 2004:-0.798992 2005:-0.587165 2006:-0.319552 2007:-0.541777 2008:-0.995448 2009:0.563941 2010:0.524804 2011:-0.838962 2012:0.524828 2013:-1 2014:0.546097 2015:0.0137682 2016:0.14541 2017:-0.272515 2018:0.911383 2019:-0.141502 2020:-0.545372 2021:-0.827518 2022:0.168601 2023:0.171595 2024:0.565478 2025:-0.325525 2026:0.218674 2027:0.326846 2028:-0.101733 2029:-0.258436 2030:0.137646 2031:-1 2032:-1 2033:0.300369 2034:-0.235624 2035:-0.102919 2036:-1 2037:-0.478515 2038:1 2039:0.144031 2040:-1 2041:-1 2042:0.387325 2043:-1 2044:1 2045:1 2046:0.930878 2047:0.913184 2048:-1 2049:-0.484559 2050:-0.0276517 2051:-1 2052:0.0607109 2053:0.417037 2054:-0.619478 2055:-0.228954 2056:0.662206 2057:0.0618565 2058:0.00219367 2059:0.252057 2060:0.232939 2061:0.0870119 2062:-0.442907 2063:0.414788 2064:-0.538405 2065:0.0209065 2066:-0.0456017 2067:-0.307605 2068:-0.0757285 2069:0.593741 2070:0.13809 2071:-0.182092 2072:0.197617 2073:0.240427 2074:0.0835877 2075:-0.269603 2076:-0.208447 2077:0.192966 2078:-1 2079:-0.203351 2080:-0.175931 2081:-1 2082:-0.947324 2083:-0.119925 2084:0.16949 2085:0.573799 2086:-1 2087:0.597477 2088:0.0131063 2089:-0.818244 2090:0.144024 2091:0.46589 2092:-0.551642 2093:-1 2094:0.730429 2095:0.00399188 2096:-0.767914 2097:0.205613 2098:-1 2099:-0.696674 2100:-0.520859 2101:0.312159 2102:0.692945 2103:0.181266 2104:0.0342472 2105:-0.958434 2106:0.166577 2107:0.12821 2108:-0.694665 2109:0.165401 2110:-0.104679 2111:-0.966163 2112:0.787091 2113:1 2114:0.634606 2115:-0.682571 2116:-0.510131 2117:-0.305135 2118:-1 2119:-0.561843 2120:-1 2121:1 2122:-0.376782 2123:-0.903333 2124:-0.395322 2125:-0.292293 2126:-0.371862 2127:0.0579857 2128:1 2129:-0.521017 2130:-0.120169 2131:0.142207 2132:0.0727402 2133:0.583833 2134:-0.678537 2135:0.110304 2136:0.143565 2137:-0.662205 2138:0.72754 2139:-0.0346017 2140:-0.804752 2141:-0.0888459 2142:-0.506081 2143:-0.430579 2144:0.55419 2145:-0.5666 2146:0.453154 2147:0.433481 2148:0.101438 2149:-0.0980885 2150:-0.176684 2151:0.891243 2152:-0.230458 2153:-0.208765 2154:0.122715 2155:-0.200295 2156:-0.102364 2157:-0.829898 2158:-0.387981 2159:-0.272626 2160:0.79971 2161:-0.0131826 2162:0.518755 2163:-0.66535 2164:0.0635894 2165:0.0127192 2166:-0.579979 2167:0.588925 2168:-0.378858 2169:-0.469846 2170:0.375268 2171:-0.717183 2172:-0.302287 2173:-0.823193 2174:-0.366368 2175:0.233799 2176:0.0980604 2177:-0.702253 2178:-0.660589 2179:-0.319426 2180:-0.482518 2181:-0.0639313 2182:0.363647 2183:0.754962 2184:0.174206 2185:0.034386 2186:-0.204522 2187:0.53847 2188:0.0185164 2189:0.226871 2190:-0.614409 2191:-0.430549 2192:0.116494 2193:-0.11906 2194:-1 2195:0.0651042 2196:0.000267854 2197:0.0953503 2198:-0.537034 2199:0.166372 2200:0.71366 2201:-0.0667881 2202:1 2203:-0.0157061 2204:-0.493857 2205:0.120439 2206:-0.347661 2207:0.402039 2208:1 2209:0.36114 2210:0.655286 2211:-0.874052 2212:0.489542 2213:0.546736 2214:0.127486 2215:0.214188 2216:-0.0176406 2217:0.441656 2218:0.125505 2219:0.342263 2220:-0.37342 2221:0.374599 2222:0.630588 2223:-0.572019 2224:0.169615 2225:-0.875156 2226:0.487413 2227:-0.460052 2228:-0.972798 2229:0.272117 2230:0.297715 2231:-0.148809 2232:0.858835 2233:-0.453818 2234:-0.917101 2235:-0.956827 2236:0.616957 2237:0.626704 2238:0.226009 2239:-0.087658 2240:0.49609 2241:-0.177104 2242:-0.741861 2243:0.603956 2244:0.0856419 2245:-0.0308918 2246:0.555503 2247:0.35177 2248:-0.0976809 2249:-0.64099 2250:0.681947 2251:0.050371 2252:0.33422 2253:-1 2254:0.0699576 2255:0.681049 2256:0.062247 2257:-0.0459737 2258:-0.41618 2259:-0.135441 2260:-0.78413 2261:0.423331 2262:-0.436788 2263:1 2264:0.196616 2265:0.862359 2266:-0.428531 2267:-0.28161 2268:-0.0631273 2269:0.00279112 2270:1 2271:-0.453996 2272:0.248363 2273:-0.0582359 2274:-0.758944 2275:-0.394231 2276:0.050371 2277:0.33422 2278:-1 2279:0.0699576 2280:0.681049 2281:0.062247 2282:-0.0459737 2283:-0.41618 2284:-0.135441 2285:-0.78413 2286:0.423331 2287:-0.436788 2288:1 2289:0.196616 2290:0.862359 2291:-0.428531 2292:-0.28161 2293:-0.0631273 2294:0.00279112 2295:1 2296:-0.453996 2297:0.248363 2298:-0.0582359 2299:-0.758944 2300:-0.394231 2301:0.00571559 2302:-0.752745 2303:0.0798745 2304:-0.0287243 2305:0.129741 2306:0.48254 2307:0.0583801 2308:0.0737285 2309:-0.14643 2310:0.371252 2311:0.831963 2312:0.0974536 2313:-0.109767 2314:-0.278566 2315:-0.0242589 2316:0.199881 2317:-0.397301 2318:-0.503503 2319:-0.73771 2320:0.0336673 2321:0.759634 2322:-0.233668 2323:0.415446 2324:0.322892 2325:-0.111854 2326:0.00571559 2327:-0.752745 2328:0.0798745 2329:-0.0287243 2330:0.129741 2331:0.48254 2332:0.0583801 2333:0.0737285 2334:-0.14643 2335:0.371252 2336:0.831963 2337:0.0974536 2338:-0.109767 2339:-0.278566 2340:-0.0242589 2341:0.199881 2342:-0.397301 2343:-0.503503 2344:-0.73771 2345:0.0336673 2346:0.759634 2347:-0.233668 2348:0.415446 2349:0.322892 2350:-0.111854 2351:-0.224373 2352:-0.122866 2353:0.434975 2354:0.241791 2355:0.733148 2356:-0.45487 2357:0.320279 2358:0.361235 2359:0.0404628 2360:0.121018 2361:-0.246666 2362:0.270414 2363:0.433264 2364:0.683255 2365:0.0294735 2366:0.54486 2367:0.325006 2368:0.294557 2369:0.230207 2370:0.0912993 2371:0.626879 2372:0.461906 2373:-0.304174 2374:-0.556112 2375:0.364764 2376:-0.401174 2377:-0.581655 2378:0.0733244 2379:0.544627 2380:0.199818 2381:-0.311057 2382:0.52068 2383:0.161962 2384:-0.284926 2385:0.747071 2386:0.732832 2387:0.655162 2388:-0.0701776 2389:0.0378842 2390:-0.530072 2391:-0.138639 2392:0.72484 2393:-0.332069 2394:0.00886899 2395:-0.251526 2396:0.379844 2397:0.0911476 2398:0.0321643 2399:0.527594 2400:-0.805931 2401:-0.401174 2402:-0.581655 2403:0.0733244 2404:0.544627 2405:0.199818 2406:-0.311057 2407:0.52068 2408:0.161962 2409:-0.284926 2410:0.747071 2411:0.732832 2412:0.655162 2413:-0.0701776 2414:0.0378842 2415:-0.530072 2416:-0.138639 2417:0.72484 2418:-0.332069 2419:0.00886899 2420:-0.251526 2421:0.379844 2422:0.0911476 2423:0.0321643 2424:0.527594 2425:-0.805931 2426:-0.46856 2427:0.311145 2428:0.550072 2429:0.289615 2430:0.134221 2431:-1 2432:-0.00785239 2433:-0.108748 2434:-0.494369 2435:-0.20618 2436:-0.23022 2437:0.951019 2438:-0.910607 2439:-0.0459735 2440:-0.364425 2441:-0.887367 2442:0.977095 2443:-0.109264 2444:-0.227048 2445:0.19834 2446:-0.228315 2447:-0.0664721 2448:0.154286 2449:0.469141 2450:-0.0120822 2451:0.242858 2452:0.339405 2453:0.794999 2454:-0.456544 2455:0.349641 2456:-0.352208 2457:0.450892 2458:0.0542457 2459:0.00159075 2460:0.459696 2461:-0.0892113 2462:0.00468913 2463:-0.432895 2464:0.262195 2465:-0.275971 2466:0.00522834 2467:0.476226 2468:0.499104 2469:0.0984331 2470:0.295447 2471:0.396638 2472:0.362862 2473:-0.451557 2474:-0.0846111 2475:0.280587 2476:0.0313646 2477:0.990804 2478:-0.147419 2479:-0.982404 2480:-0.999157 2481:-0.495197 2482:0.799689 2483:-0.99548 2484:0.934971 2485:0.923971 2486:-0.988438 2487:0.0889359 2488:-0.496017 2489:0.670481 2490:-0.758466 2491:-0.116951 2492:-0.790569 2493:-0.809338 2494:0.530391 2495:-0.933373 2496:0.498567 2497:0.143075 2498:-0.913 2499:-0.599342 2500:0.141807 2501:0.170422 2502:-1 2503:0.756916 2504:1 2505:-0.116231 2506:0.0375738 2507:0.654249 2508:-1 2509:0.16621 2510:-0.509658 2511:0.461395 2512:0.244466 2513:-0.150279 2514:0.629629 2515:-0.963688 2516:-0.287246 2517:1 2518:-0.456165 2519:1 2520:-0.729507 2521:0.333343 2522:-1 2523:1 2524:-0.722296 2525:-0.3255 2526:0.170422 2527:-1 2528:0.756916 2529:1 2530:-0.116231 2531:0.0375738 2532:0.654249 2533:-1 2534:0.16621 2535:-0.509658 2536:0.461395 2537:0.244466 2538:-0.150279 2539:0.629629 2540:-0.963688 2541:-0.287246 2542:1 2543:-0.456165 2544:1 2545:-0.729507 2546:0.333343 2547:-1 2548:1 2549:-0.722296 2550:-0.3255 2551:0.526789 2552:-0.0551432 2553:0.297602 2554:-0.318102 2555:-0.0889686 2556:0.322325 2557:1 2558:1 2559:1 2560:0.645533 2561:0.347192 2562:0.133777 2563:0.287395 2564:-0.629792 2565:0.292052 2566:1 2567:-0.396687 2568:0.479207 2569:0.405161 2570:-1 2571:-0.434718 2572:0.723988 2573:1 2574:1 2575:-1 2576:0.526789 2577:-0.0551432 2578:0.297602 2579:-0.318102 2580:-0.0889686 2581:0.322325 2582:1 2583:1 2584:1 2585:0.645533 2586:0.347192 2587:0.133777 2588:0.287395 2589:-0.629792 2590:0.292052 2591:1 2592:-0.396687 2593:0.479207 2594:0.405161 2595:-1 2596:-0.434718 2597:0.723988 2598:1 2599:1 2600:-1 2601:-0.585401 2602:-0.402648 2603:0.888554 2604:0.412739 2605:-0.0687305 2606:-0.336914 2607:-0.00431301 2608:-0.416988 2609:-0.251646 2610:0.569589 2611:-0.142416 2612:0.817397 2613:0.42231 2614:-0.461144 2615:-0.770493 2616:0.274557 2617:0.202568 2618:0.0374884 2619:0.276741 2620:0.377191 2621:0.777293 2622:-0.53981 2623:0.358855 2624:0.465518 2625:-0.820765 2626:-0.585401 2627:-0.402648 2628:0.888554 2629:0.412739 2630:-0.0687305 2631:-0.336914 2632:-0.00431301 2633:-0.416988 2634:-0.251646 2635:0.569589 2636:-0.142416 2637:0.817397 2638:0.42231 2639:-0.461144 2640:-0.770493 2641:0.274557 2642:0.202568 2643:0.0374884 2644:0.276741 2645:0.377191 2646:0.777293 2647:-0.53981 2648:0.358855 2649:0.465518 2650:-0.820765 2651:0.992788 2652:-0.415474 2653:-0.447061 2654:-0.643249 2655:-0.0600454 2656:0.316592 2657:-0.279467 2658:-0.142252 2659:-0.0402474 2660:-0.773172 2661:-0.697002 2662:0.328044 2663:0.0464561 2664:-0.00593043 2665:-0.180909 2666:1 2667:0.349146 2668:-0.279723 2669:0.372512 2670:-1 2671:-0.520528 2672:1 2673:-0.256884 2674:0.614746 2675:-0.48962 2676:0.992788 2677:-0.415474 2678:-0.447061 2679:-0.643249 2680:-0.0600454 2681:0.316592 2682:-0.279467 2683:-0.142252 2684:-0.0402474 2685:-0.773172 2686:-0.697002 2687:0.328044 2688:0.0464561 2689:-0.00593043 2690:-0.180909 2691:1 2692:0.349146 2693:-0.279723 2694:0.372512 2695:-1 2696:-0.520528 2697:1 2698:-0.256884 2699:0.614746 2700:-0.48962 2701:0.393431 2702:-0.32983 2703:-0.575633 2704:0.305403 2705:-0.347978 2706:-0.18322 2707:1 2708:0.454858 2709:0.524525 2710:0.0901916 2711:0.460043 2712:0.465754 2713:-0.961243 2714:-0.176378 2715:-0.0727567 2716:0.675919 2717:0.461315 2718:0.146165 2719:0.248696 2720:-0.414957 2721:-0.291852 2722:-0.4067 2723:0.461873 2724:0.507209 2725:-0.718588 2726:0.393431 2727:-0.32983 2728:-0.575633 2729:0.305403 2730:-0.347978 2731:-0.18322 2732:1 2733:0.454858 2734:0.524525 2735:0.0901916 2736:0.460043 2737:0.465754 2738:-0.961243 2739:-0.176378 2740:-0.0727567 2741:0.675919 2742:0.461315 2743:0.146165 2744:0.248696 2745:-0.414957 2746:-0.291852 2747:-0.4067 2748:0.461873 2749:0.507209 2750:-0.718588 2751:-0.313915 2752:0.608021 2753:0.446367 2754:0.285908 2755:1 2756:0.505206 2757:-0.189523 2758:0.0897383 2759:-0.372137 2760:0.663998 2761:0.378164 2762:-0.203158 2763:1 2764:-0.307893 2765:-0.19818 2766:0.673177 2767:-0.375371 2768:-0.33639 2769:1 2770:-0.0493798 2771:-0.171395 2772:0.389629 2773:-0.373707 2774:0.147615 2775:0.0326982 2776:-0.313915 2777:0.608021 2778:0.446367 2779:0.285908 2780:1 2781:0.505206 2782:-0.189523 2783:0.0897383 2784:-0.372137 2785:0.663998 2786:0.378164 2787:-0.203158 2788:1 2789:-0.307893 2790:-0.19818 2791:0.673177 2792:-0.375371 2793:-0.33639 2794:1 2795:-0.0493798 2796:-0.171395 2797:0.389629 2798:-0.373707 2799:0.147615 2800:0.0326982 2801:0.953317 2802:0.654799 2803:-0.8936 2804:-0.299519 2805:0.392342 2806:0.343236 2807:-0.842024 2808:-0.424995 2809:-0.321334 2810:-0.330683 2811:0.238906 2812:0.0349895 2813:-0.16755 2814:0.327371 2815:0.0720555 2816:-0.0345542 2817:-0.363471 2818:-0.107819 2819:-0.360751 2820:-0.303846 2821:0.143825 2822:0.23914 2823:0.473232 2824:0.290782 2825:-0.508088 2826:0.953317 2827:0.654799 2828:-0.8936 2829:-0.299519 2830:0.392342 2831:0.343236 2832:-0.842024 2833:-0.424995 2834:-0.321334 2835:-0.330683 2836:0.238906 2837:0.0349895 2838:-0.16755 2839:0.327371 2840:0.0720555 2841:-0.0345542 2842:-0.363471 2843:-0.107819 2844:-0.360751 2845:-0.303846 2846:0.143825 2847:0.23914 2848:0.473232 2849:0.290782 2850:-0.508088 2851:-0.0697142 2852:-0.556348 2853:0.0905695 2854:0.639537 2855:0.316408 2856:-0.03567 2857:0.406112 2858:-0.0251633 2859:-0.215265 2860:0.138552 2861:0.483619 2862:-0.039013 2863:0.341667 2864:0.468524 2865:-0.275997 2866:-0.0724032 2867:0.0679791 2868:0.381295 2869:-0.391127 2870:-0.766716 2871:0.254495 2872:0.604485 2873:-0.00466884 2874:-0.270131 2875:0.598541 2876:-0.0697142 2877:-0.556348 2878:0.0905695 2879:0.639537 2880:0.316408 2881:-0.03567 2882:0.406112 2883:-0.0251633 2884:-0.215265 2885:0.138552 2886:0.483619 2887:-0.039013 2888:0.341667 2889:0.468524 2890:-0.275997 2891:-0.0724032 2892:0.0679791 2893:0.381295 2894:-0.391127 2895:-0.766716 2896:0.254495 2897:0.604485 2898:-0.00466884 2899:-0.270131 2900:0.598541 2901:-0.773203 2902:-0.223699 2903:-0.19646 2904:0.329994 2905:0.0960162 2906:0.698773 2907:0.315439 2908:0.158446 2909:-1 2910:-0.204707 2911:1 2912:0.32086 2913:-0.658374 2914:-0.379405 2915:0.423626 2916:-0.228477 2917:-0.305555 2918:1 2919:0.0244845 2920:-0.207796 2921:0.693914 2922:0.539988 2923:0.212007 2924:-0.179607 2925:-0.222649 2926:-0.773203 2927:-0.223699 2928:-0.19646 2929:0.329994 2930:0.0960162 2931:0.698773 2932:0.315439 2933:0.158446 2934:-1 2935:-0.204707 2936:1 2937:0.32086 2938:-0.658374 2939:-0.379405 2940:0.423626 2941:-0.228477 2942:-0.305555 2943:1 2944:0.0244845 2945:-0.207796 2946:0.693914 2947:0.539988 2948:0.212007 2949:-0.179607 2950:-0.222649 2951:1 2952:-1 2953:-0.284827 2954:-0.329065 2955:-1 2956:0.543533 2957:0.850197 2958:1 2959:0.847339 2960:0.346307 2961:-0.111337 2962:1 2963:-1 2964:1 2965:-0.149935 2966:-0.209555 2967:-0.0282262 2968:0.0180001 2969:-0.187087 2970:-0.724386 2971:-1 2972:-0.329909 2973:0.75595 2974:-0.132468 2975:-0.842208 2976:1 2977:-1 2978:-0.284827 2979:-0.329065 2980:-1 2981:0.543533 2982:0.850197 2983:1 2984:0.847339 2985:0.346307 2986:-0.111337 2987:1 2988:-1 2989:1 2990:-0.149935 2991:-0.209555 2992:-0.0282262 2993:0.0180001 2994:-0.187087 2995:-0.724386 2996:-1 2997:-0.329909 2998:0.75595 2999:-0.132468 3000:-0.842208 3001:-0.168831 3002:0.220289 3003:-0.407813 3004:-0.457992 3005:-0.975505 3006:-0.407528 3007:0.670425 3008:-0.466693 3009:0.324848 3010:-0.21707 3011:-0.869674 3012:-0.349988 3013:0.0444826 3014:-0.471756 3015:0.0784627 3016:-0.275642 3017:-0.0309288 3018:-0.508816 3019:0.516641 3020:0.462947 3021:-0.0757622 3022:0.0178651 3023:-0.695534 3024:-0.468012 3025:0.370702 3026:-0.168831 3027:0.220289 3028:-0.407813 3029:-0.457992 3030:-0.975505 3031:-0.407528 3032:0.670425 3033:-0.466693 3034:0.324848 3035:-0.21707 3036:-0.869674 3037:-0.349988 3038:0.0444826 3039:-0.471756 3040:0.0784627 3041:-0.275642 3042:-0.0309288 3043:-0.508816 3044:0.516641 3045:0.462947 3046:-0.0757622 3047:0.0178651 3048:-0.695534 3049:-0.468012 3050:0.370702 3051:-0.75212 3052:0.994933 3053:0.262526 3054:-0.151216 3055:1 3056:-0.482129 3057:-0.353459 3058:1 3059:-0.11134 3060:0.231269 3061:0.98407 3062:0.719098 3063:0.0306938 3064:-0.929361 3065:-0.10582 3066:0.0240856 3067:0.0636838 3068:1 3069:0.262362 3070:-0.225428 3071:-0.0299169 3072:-0.714837 3073:-0.127059 3074:-0.521729 3075:0.114722 3076:-0.128578 3077:0.271576 3078:0.293618 3079:-0.00408902 3080:0.917586 3081:-0.390546 3082:-0.0977908 3083:0.374227 3084:0.0823535 3085:0.465617 3086:0.452393 3087:-0.642679 3088:0.782909 3089:-0.854788 3090:0.102932 3091:-0.135673 3092:-0.52835 3093:-0.527592 3094:0.449142 3095:-0.222088 3096:0.24117 3097:0.25696 3098:-0.258622 3099:-0.134121 3100:-0.372097 3101:-0.128578 3102:0.271576 3103:0.293618 3104:-0.00408902 3105:0.917586 3106:-0.390546 3107:-0.0977908 3108:0.374227 3109:0.0823535 3110:0.465617 3111:0.452393 3112:-0.642679 3113:0.782909 3114:-0.854788 3115:0.102932 3116:-0.135673 3117:-0.52835 3118:-0.527592 3119:0.449142 3120:-0.222088 3121:0.24117 3122:0.25696 3123:-0.258622 3124:-0.134121 3125:-0.372097 3126:-0.564369 3127:-0.890994 3128:-0.223779 3129:0.245632 3130:0.336616 3131:-0.333352 3132:0.828075 3133:0.604359 3134:0.204861 3135:0.273977 3136:0.537753 3137:0.893732 3138:-0.760997 3139:0.110189 3140:0.336771 3141:0.168738 3142:0.490012 3143:0.237963 3144:-0.140502 3145:0.0440455 3146:-0.156281 3147:0.103612 3148:-0.0790085 3149:0.0603297 3150:-0.657638 3151:-0.564369 3152:-0.890994 3153:-0.223779 3154:0.245632 3155:0.336616 3156:-0.333352 3157:0.828075 3158:0.604359 3159:0.204861 3160:0.273977 3161:0.537753 3162:0.893732 3163:-0.760997 3164:0.110189 3165:0.336771 3166:0.168738 3167:0.490012 3168:0.237963 3169:-0.140502 3170:0.0440455 3171:-0.156281 3172:0.103612 3173:-0.0790085 3174:0.0603297 3175:-0.657638 3176:-0.204903 3177:-0.620273 3178:0.292686 3179:0.145292 3180:0.448148 3181:-0.22362 3182:0.688119 3183:0.714802 3184:0.298407 3185:0.632744 3186:0.102401 3187:0.589499 3188:0.710794 3189:0.0145492 3190:0.326831 3191:0.125218 3192:0.491651 3193:-0.425834 3194:-0.562632 3195:-0.677661 3196:-0.398079 3197:-0.0437517 3198:-0.0893397 3199:-0.150051 3200:-0.170484 
2.252927393684037 1:0.64834 2:0.198141 3:0.0877899 4:0.26305 5:0.292802 6:-0.525435 7:0.175465 8:0.286723 9:-1 10:0.761755 11:0.407551 12:-0.95062 13:0.384226 14:-0.214653 15:0.453872 16:-0.538301 17:0.177107 18:-0.193009 19:0.887786 20:0.877364 21:0.326631 22:1 23:0.636811 24:0.261195 25:-0.414634 26:0.094024 27:-0.374055 28:0.418064 29:0.979091 30:0.55379 31:0.374721 32:-0.625511 33:-0.353508 34:0.819375 35:0.957845 36:0.972138 37:0.0847042 38:0.393731 39:0.903956 40:0.270486 41:0.758892 42:-0.784091 43:0.756371 44:0.616802 45:-0.775342 46:-0.555621 47:-0.859859 48:0.835164 49:0.845716 50:-0.532707 51:0.094024 52:-0.374055 53:0.418064 54:0.979091 55:0.55379 56:0.374721 57:-0.625511 58:-0.353508 59:0.819375 60:0.957845 61:0.972138 62:0.0847042 63:0.393731 64:0.903956 65:0.270486 66:0.758892 67:-0.784091 68:0.756371 69:0.616802 70:-0.775342 71:-0.555621 72:-0.859859 73:0.835164 74:0.845716 75:-0.532707 76:1 77:0.612178 78:0.107983 79:-1 80:-0.317811 81:0.88045 82:-0.374025 83:-0.558115 84:-0.236818 85:-0.793037 86:0.607435 87:-0.356511 88:0.232606 89:-0.522986 90:0.750028 91:-0.374099 92:-0.398574 93:0.435602 94:-0.272266 95:1 96:-0.12209 97:1 98:-0.188957 99:-0.844582 100:-0.951775 101:-0.78007 102:-0.64703 103:0.960238 104:0.996044 105:-0.468602 106:0.855944 107:0.981248 108:0.910215 109:0.539832 110:0.657552 111:0.397667 112:0.198018 113:0.504445 114:-0.458002 115:0.762581 116:0.548662 117:0.336491 118:-0.380276 119:-0.958378 120:0.204953 121:-0.734709 122:-0.0424196 123:-0.0907496 124:-0.629322 125:-0.579302 126:0.688457 127:0.156355 128:-0.358592 129:-0.387336 130:0.460701 131:-0.426556 132:-0.151619 133:0.142453 134:0.0364685 135:-0.130891 136:-0.371757 137:-0.750682 138:-0.272752 139:0.360359 140:-0.422295 141:0.296561 142:-0.116312 143:0.457285 144:-0.123335 145:-0.0807435 146:0.162947 147:0.268715 148:0.461554 149:-0.22916 150:0.49625 151:0.688457 152:0.156355 153:-0.358592 154:-0.387336 155:0.460701 156:-0.426556 157:-0.151619 158:0.142453 159:0.0364685 160:-0.130891 161:-0.371757 162:-0.750682 163:-0.272752 164:0.360359 165:-0.422295 166:0.296561 167:-0.116312 168:0.457285 169:-0.123335 170:-0.0807435 171:0.162947 172:0.268715 173:0.461554 174:-0.22916 175:0.49625 176:0.0358496 177:-0.610375 178:-0.327282 179:-0.633228 180:-0.813385 181:0.814808 182:0.973701 183:1 184:-0.872053 185:-0.210066 186:-0.225972 187:0.202683 188:-0.478432 189:0.734398 190:-0.137475 191:0.117779 192:0.997718 193:-0.108761 194:-1 195:-1 196:-0.063352 197:-0.470588 198:0.372552 199:0.50177 200:-0.155678 201:0.668588 202:-0.240402 203:-0.262888 204:-0.446476 205:0.169058 206:0.391001 207:-0.361554 208:-0.312907 209:0.471886 210:-0.83163 211:-0.141854 212:-0.437496 213:0.159114 214:-0.324534 215:0.182308 216:-0.863471 217:-0.325715 218:-0.193471 219:1 220:-0.335401 221:1 222:-0.88289 223:-0.523669 224:0.432329 225:0.273461 226:0.705128 227:0.686622 228:0.626273 229:0.756882 230:0.372762 231:-0.125606 232:-0.713794 233:0.163147 234:0.224161 235:0.498712 236:0.0891869 237:-0.795121 238:-0.567806 239:-0.930828 240:0.920439 241:0.576728 242:-0.249229 243:-0.483388 244:-0.16186 245:0.792049 246:-0.631784 247:0.336294 248:0.482197 249:0.164056 250:-0.885625 251:0.469799 252:0.119354 253:-0.155745 254:-0.393815 255:0.252961 256:-0.181985 257:-0.202108 258:0.864617 259:-0.322578 260:0.174375 261:-0.711628 262:-0.0524032 263:0.519721 264:-0.324347 265:-0.138932 266:0.326773 267:-0.168835 268:0.612865 269:-0.198089 270:0.727039 271:-0.303176 272:-0.209402 273:0.586953 274:-0.0535333 275:-0.0535106 276:0.714697 277:-1 278:-0.768716 279:0.19036 280:0.853825 281:-0.140378 282:1 283:-1 284:1 285:-0.950696 286:0.125844 287:-0.266481 288:1 289:0.474518 290:0.297779 291:1 292:-0.91976 293:0.942969 294:-0.674185 295:0.200858 296:-0.971926 297:0.489688 298:0.403217 299:-0.361749 300:-0.192559 301:0.714697 302:-1 303:-0.768716 304:0.19036 305:0.853825 306:-0.140378 307:1 308:-1 309:1 310:-0.950696 311:0.125844 312:-0.266481 313:1 314:0.474518 315:0.297779 316:1 317:-0.91976 318:0.942969 319:-0.674185 320:0.200858 321:-0.971926 322:0.489688 323:0.403217 324:-0.361749 325:-0.192559 326:-0.360695 327:-0.796388 328:-0.507783 329:0.0263778 330:-0.704887 331:0.97332 332:0.918194 333:1 334:-0.467692 335:0.357714 336:0.716312 337:-0.675627 338:-0.835432 339:0.182658 340:0.314868 341:-0.0355112 342:-0.101867 343:-0.0910179 344:-0.0260293 345:-0.49637 346:-0.45771 347:-0.524044 348:-0.604501 349:0.825752 350:-0.371282 351:0.790173 352:0.243596 353:0.461886 354:0.564987 355:-0.152097 356:-0.0011067 357:0.367401 358:0.419283 359:-0.981505 360:0.0437193 361:0.654904 362:-0.228236 363:-0.404873 364:0.439423 365:0.332477 366:-0.431094 367:0.35927 368:0.560796 369:-0.120809 370:0.673643 371:-0.095039 372:0.875913 373:0.220667 374:0.075749 375:0.77538 376:0.790173 377:0.243596 378:0.461886 379:0.564987 380:-0.152097 381:-0.0011067 382:0.367401 383:0.419283 384:-0.981505 385:0.0437193 386:0.654904 387:-0.228236 388:-0.404873 389:0.439423 390:0.332477 391:-0.431094 392:0.35927 393:0.560796 394:-0.120809 395:0.673643 396:-0.095039 397:0.875913 398:0.220667 399:0.075749 400:0.77538 401:0.887403 402:0.293551 403:0.604201 404:0.266557 405:0.633776 406:-1 407:-0.435445 408:-0.0973852 409:1 410:-0.449419 411:0.499146 412:0.244562 413:-0.0396426 414:-0.0180386 415:-0.696206 416:0.410054 417:-1 418:0.448233 419:1 420:-0.139075 421:0.855346 422:-0.591672 423:0.473188 424:0.591575 425:-0.226466 426:0.869197 427:0.664984 428:1 429:-0.278676 430:-0.470053 431:-0.778753 432:-0.230627 433:-0.143489 434:0.0861961 435:0.24441 436:-0.659501 437:0.1739 438:-0.514358 439:-0.330211 440:0.884625 441:0.653655 442:-0.0212834 443:-0.719687 444:0.190281 445:0.257314 446:-0.646495 447:0.440089 448:0.563559 449:-0.460549 450:-0.54475 451:-0.532832 452:0.0637575 453:-0.317467 454:0.178151 455:-0.0790943 456:0.330346 457:-0.758096 458:-0.0732053 459:-0.0648742 460:0.390453 461:0.0741212 462:0.336505 463:0.540325 464:0.432034 465:-0.292972 466:-0.309189 467:-0.286342 468:0.571677 469:0.337272 470:-0.0478658 471:0.983726 472:-0.966325 473:-0.193771 474:0.336222 475:0.147367 476:-0.761539 477:-0.402275 478:1 479:0.583961 480:-0.72574 481:-0.0495399 482:0.154137 483:0.24508 484:-0.618008 485:-0.0301482 486:-0.470179 487:0.356278 488:-0.529877 489:-0.814482 490:0.0759612 491:0.494393 492:0.323073 493:0.726577 494:0.771121 495:0.830088 496:-0.700946 497:-0.701894 498:0.524143 499:0.320204 500:-0.537862 501:0.577178 502:0.893736 503:0.505735 504:0.308701 505:-0.258554 506:0.133162 507:-0.651138 508:-0.437687 509:0.423709 510:-0.531874 511:0.122686 512:0.569286 513:-0.60866 514:-0.406153 515:-0.517835 516:0.100064 517:0.0200426 518:0.548181 519:0.129425 520:0.603748 521:-0.438443 522:0.249339 523:-0.61422 524:-0.600399 525:0.619149 526:-0.380387 527:-0.51053 528:0.435329 529:0.353596 530:-0.299896 531:0.218681 532:-0.377307 533:0.195146 534:0.149461 535:0.836184 536:-0.0453516 537:0.157561 538:0.623711 539:-0.198971 540:-0.197733 541:-0.304234 542:-0.105646 543:-0.604184 544:-0.273687 545:-0.0516498 546:0.769423 547:0.659454 548:0.46457 549:-0.657683 550:-0.527122 551:-0.402157 552:0.599212 553:-0.00909269 554:-0.246002 555:0.476817 556:0.228441 557:0.0701894 558:1 559:-0.00879778 560:0.111338 561:0.0243228 562:0.857556 563:-0.564816 564:-0.467116 565:1 566:-0.146715 567:-0.301461 568:0.0161103 569:0.483382 570:-0.285891 571:-0.715911 572:-0.0689203 573:0.203855 574:0.00641158 575:-0.658936 576:-0.402157 577:0.599212 578:-0.00909269 579:-0.246002 580:0.476817 581:0.228441 582:0.0701894 583:1 584:-0.00879778 585:0.111338 586:0.0243228 587:0.857556 588:-0.564816 589:-0.467116 590:1 591:-0.146715 592:-0.301461 593:0.0161103 594:0.483382 595:-0.285891 596:-0.715911 597:-0.0689203 598:0.203855 599:0.00641158 600:-0.658936 601:0.424858 602:0.604051 603:0.849737 604:0.30016 605:-0.987891 606:0.00901144 607:-0.0550348 608:-0.154265 609:0.322527 610:-0.203146 611:0.0515884 612:-0.4485 613:-0.428776 614:0.621197 615:0.545182 616:-0.395636 617:-0.423428 618:-0.405899 619:0.278281 620:-0.013278 621:-0.0819057 622:0.679778 623:0.178875 624:-0.243361 625:-0.354774 626:0.84947 627:-0.953291 628:-0.344557 629:0.390404 630:-0.188588 631:0.0318174 632:0.196493 633:0.0243925 634:0.328945 635:-0.0870732 636:-0.187459 637:0.22509 638:-0.647342 639:-0.362731 640:0.148834 641:-0.141145 642:-0.0677626 643:0.416487 644:0.13256 645:0.0159574 646:-0.350496 647:0.312182 648:0.449645 649:0.101036 650:-0.00493083 651:0.84947 652:-0.953291 653:-0.344557 654:0.390404 655:-0.188588 656:0.0318174 657:0.196493 658:0.0243925 659:0.328945 660:-0.0870732 661:-0.187459 662:0.22509 663:-0.647342 664:-0.362731 665:0.148834 666:-0.141145 667:-0.0677626 668:0.416487 669:0.13256 670:0.0159574 671:-0.350496 672:0.312182 673:0.449645 674:0.101036 675:-0.00493083 676:0.0386155 677:-0.690402 678:-0.135251 679:-0.246106 680:-0.405679 681:0.452811 682:0.288314 683:0.261966 684:-0.215703 685:0.680732 686:0.400242 687:-0.558537 688:0.309079 689:-0.12118 690:-0.0450343 691:-0.365933 692:-0.406632 693:-0.134549 694:-0.299827 695:0.429943 696:-0.691351 697:-0.598558 698:0.242207 699:0.0492775 700:-0.850405 701:0.0386155 702:-0.690402 703:-0.135251 704:-0.246106 705:-0.405679 706:0.452811 707:0.288314 708:0.261966 709:-0.215703 710:0.680732 711:0.400242 712:-0.558537 713:0.309079 714:-0.12118 715:-0.0450343 716:-0.365933 717:-0.406632 718:-0.134549 719:-0.299827 720:0.429943 721:-0.691351 722:-0.598558 723:0.242207 724:0.0492775 725:-0.850405 726:0.234479 727:-0.707143 728:1 729:-0.396856 730:-1 731:0.841909 732:0.986637 733:1 734:-1 735:0.812444 736:0.72126 737:-0.750327 738:0.859039 739:0.72091 740:0.331858 741:1 742:-0.217899 743:0.516348 744:1 745:0.674827 746:-1 747:-1 748:0.590201 749:1 750:-0.406002 751:-0.356237 752:-0.629055 753:-0.907653 754:0.599126 755:0.327012 756:0.481476 757:0.760804 758:0.990144 759:0.19608 760:-0.0788056 761:0.590716 762:0.601682 763:-0.079794 764:-0.588254 765:-0.00519377 766:0.157944 767:-0.0589222 768:-0.224482 769:-0.226991 770:0.640969 771:-0.444864 772:-0.485251 773:-0.266505 774:0.788859 775:0.246291 776:-0.356237 777:-0.629055 778:-0.907653 779:0.599126 780:0.327012 781:0.481476 782:0.760804 783:0.990144 784:0.19608 785:-0.0788056 786:0.590716 787:0.601682 788:-0.079794 789:-0.588254 790:-0.00519377 791:0.157944 792:-0.0589222 793:-0.224482 794:-0.226991 795:0.640969 796:-0.444864 797:-0.485251 798:-0.266505 799:0.788859 800:0.246291 801:1 802:-0.455068 803:-0.0357388 804:-0.22083 805:-0.821468 806:0.00155735 807:-1 808:-0.514267 809:0.424752 810:-0.263649 811:-0.0612874 812:-0.0443243 813:0.230274 814:0.00457135 815:-0.0724537 816:0.314901 817:0.345755 818:0.118203 819:0.0331057 820:-0.520184 821:0.327496 822:-0.106273 823:0.243822 824:-0.0616149 825:0.230512 826:0.454266 827:-0.523333 828:-0.116767 829:-0.422633 830:0.512292 831:-0.592966 832:0.0164423 833:-1 834:1 835:-0.398939 836:-0.737887 837:-0.669365 838:0.00917379 839:0.0392475 840:-0.167784 841:-0.403032 842:0.124195 843:0.420458 844:-0.920848 845:1 846:-0.798655 847:-0.0154814 848:0.941955 849:-0.219625 850:-0.573832 851:-0.241788 852:0.257883 853:0.169696 854:0.219686 855:0.72808 856:0.41832 857:-0.596294 858:0.0978988 859:-0.391097 860:0.456427 861:0.74337 862:-0.830431 863:-1 864:0.457565 865:-0.645823 866:0.297415 867:0.161497 868:0.256324 869:-1 870:-1 871:-0.259381 872:0.815826 873:0.23363 874:-0.31218 875:1 876:0.773598 877:0.200889 878:0.600663 879:-0.242508 880:-0.415179 881:-0.511358 882:-0.501958 883:0.260957 884:0.147378 885:-0.0685767 886:-0.449662 887:0.250005 888:0.102449 889:0.139425 890:0.231845 891:0.236781 892:-0.333767 893:0.0267867 894:-0.282747 895:0.013173 896:-0.510067 897:0.0247417 898:-0.320449 899:0.136628 900:0.0446535 901:0.286417 902:0.781295 903:0.652521 904:-0.763295 905:-0.371045 906:-0.418009 907:-0.215159 908:-0.709569 909:0.750546 910:-0.359652 911:-0.630539 912:-0.573571 913:-0.389979 914:0.322225 915:0.378633 916:0.395643 917:0.158284 918:0.421936 919:-0.172637 920:-0.810231 921:-0.399191 922:-0.177497 923:0.965437 924:-0.801509 925:-0.789499 926:-1 927:-0.633234 928:1 929:0.621778 930:-0.947056 931:-0.410961 932:0.216193 933:0.231641 934:-1 935:0.613237 936:-0.0597188 937:0.340313 938:0.194294 939:-1 940:-0.565772 941:0.0974564 942:-0.0630378 943:-0.000418315 944:1 945:-0.110992 946:-0.753628 947:-0.278302 948:-0.446078 949:0.0757568 950:-0.654985 951:0.666355 952:0.473515 953:0.247602 954:-0.559044 955:-0.919975 956:0.192613 957:-0.525285 958:-0.687638 959:0.409553 960:-0.201975 961:-0.853697 962:0.35215 963:0.404725 964:0.775106 965:0.96616 966:-0.175774 967:-0.344213 968:-0.0610629 969:-0.604767 970:-0.354688 971:0.43589 972:0.0362234 973:-0.0455511 974:-0.536672 975:0.0324104 976:-0.0591821 977:-0.248734 978:0.866379 979:-0.0632602 980:-0.590029 981:-0.720689 982:0.159864 983:0.909594 984:-0.203061 985:0.541144 986:-0.717337 987:0.370014 988:0.573979 989:0.212175 990:0.2127 991:-0.891355 992:-0.464282 993:0.351818 994:-0.768458 995:0.392 996:0.416296 997:0.423637 998:-1 999:-1 1000:-0.982054 1001:0.209149 1002:0.871435 1003:0.960737 1004:0.207932 1005:-0.728291 1006:-0.129846 1007:-0.372138 1008:-0.794632 1009:0.61431 1010:-0.636886 1011:-0.800237 1012:0.374867 1013:-0.50279 1014:0.159353 1015:-0.156007 1016:-0.34739 1017:-0.257638 1018:0.0646201 1019:0.236668 1020:-0.520724 1021:0.121799 1022:-0.214805 1023:-0.790704 1024:-0.29716 1025:0.65683 1026:0.721028 1027:-0.311941 1028:0.299191 1029:0.235324 1030:-1 1031:1 1032:-1 1033:0.110786 1034:-0.545773 1035:-0.228701 1036:-0.851849 1037:-0.200356 1038:1 1039:-0.831953 1040:-0.0720877 1041:0.892587 1042:-0.0653385 1043:-0.652637 1044:-0.309648 1045:-0.559893 1046:1 1047:-0.136841 1048:-1 1049:0.335392 1050:0.105717 1051:0.784979 1052:-0.47577 1053:-0.404312 1054:-0.220204 1055:-0.194574 1056:0.016127 1057:-0.084328 1058:-0.86076 1059:0.135242 1060:-0.781607 1061:0.092971 1062:0.13964 1063:0.207291 1064:0.632175 1065:0.543042 1066:-0.26423 1067:-0.552028 1068:-0.283933 1069:-0.638406 1070:-0.260346 1071:-0.431321 1072:0.328006 1073:-0.409896 1074:-0.308768 1075:-0.173374 1076:-0.304641 1077:-0.389053 1078:0.236142 1079:1 1080:-0.55294 1081:-0.768087 1082:0.304496 1083:0.335036 1084:-0.370076 1085:0.263536 1086:-0.285836 1087:0.303744 1088:0.662272 1089:0.113202 1090:-0.572622 1091:-0.949765 1092:0.334914 1093:0.117813 1094:-0.136568 1095:-0.0509292 1096:-0.0382625 1097:0.0465701 1098:0.408078 1099:-0.72727 1100:-0.830409 1101:-0.400089 1102:-0.0769217 1103:0.31573 1104:0.0427107 1105:-0.369989 1106:0.263916 1107:-0.582932 1108:0.41806 1109:-0.946162 1110:-0.0890336 1111:-0.331626 1112:0.180285 1113:-0.930544 1114:-0.000208392 1115:0.0659295 1116:0.310678 1117:-0.212685 1118:-0.34669 1119:0.155803 1120:0.22867 1121:-0.440796 1122:-0.0650734 1123:0.681157 1124:0.171641 1125:-0.253871 1126:-0.388015 1127:0.156627 1128:0.26263 1129:0.101182 1130:0.438254 1131:0.814208 1132:0.149243 1133:0.962478 1134:-0.273475 1135:0.511199 1136:-0.206619 1137:0.606234 1138:-0.774053 1139:-0.403419 1140:0.765476 1141:0.201154 1142:-0.652056 1143:-0.425664 1144:0.00256105 1145:0.70624 1146:0.253941 1147:-0.28527 1148:0.466216 1149:0.209065 1150:-0.411049 1151:0.939407 1152:-0.938337 1153:0.649715 1154:-0.587174 1155:-0.250811 1156:0.879454 1157:0.781289 1158:-1 1159:0.679752 1160:-0.607756 1161:1 1162:0.141473 1163:-0.33623 1164:0.497147 1165:-0.117748 1166:-0.943032 1167:0.716994 1168:-1 1169:0.812583 1170:-1 1171:0.980749 1172:-0.742824 1173:0.135754 1174:-0.100112 1175:0.239999 1176:0.939407 1177:-0.938337 1178:0.649715 1179:-0.587174 1180:-0.250811 1181:0.879454 1182:0.781289 1183:-1 1184:0.679752 1185:-0.607756 1186:1 1187:0.141473 1188:-0.33623 1189:0.497147 1190:-0.117748 1191:-0.943032 1192:0.716994 1193:-1 1194:0.812583 1195:-1 1196:0.980749 1197:-0.742824 1198:0.135754 1199:-0.100112 1200:0.239999 1201:0.393394 1202:0.377955 1203:-0.12432 1204:0.496245 1205:0.245377 1206:-0.306308 1207:0.776279 1208:1 1209:0.39863 1210:0.597992 1211:-0.511384 1212:0.198216 1213:-0.922635 1214:0.634675 1215:-0.669454 1216:-0.421247 1217:0.409609 1218:0.983977 1219:-0.610361 1220:-0.812091 1221:0.271648 1222:0.325957 1223:-0.0592294 1224:0.25192 1225:-0.102567 1226:-1 1227:-0.47885 1228:0.31148 1229:0.65578 1230:-0.416448 1231:-0.647004 1232:0.0188749 1233:0.264649 1234:-0.785544 1235:0.40457 1236:0.535795 1237:1 1238:0.356917 1239:-0.245078 1240:0.0473607 1241:-0.0884792 1242:0.52128 1243:0.256917 1244:-0.468191 1245:0.189621 1246:0.236315 1247:0.285048 1248:0.0647051 1249:-0.239417 1250:-0.141934 1251:-1 1252:-0.47885 1253:0.31148 1254:0.65578 1255:-0.416448 1256:-0.647004 1257:0.0188749 1258:0.264649 1259:-0.785544 1260:0.40457 1261:0.535795 1262:1 1263:0.356917 1264:-0.245078 1265:0.0473607 1266:-0.0884792 1267:0.52128 1268:0.256917 1269:-0.468191 1270:0.189621 1271:0.236315 1272:0.285048 1273:0.0647051 1274:-0.239417 1275:-0.141934 1276:1 1277:0.344044 1278:-0.341051 1279:0.00197197 1280:-0.112916 1281:-0.113202 1282:-0.176575 1283:-0.839975 1284:0.350728 1285:-0.0586767 1286:0.091231 1287:0.149972 1288:0.0965154 1289:0.078892 1290:0.276408 1291:0.319979 1292:0.166793 1293:0.827544 1294:-0.331106 1295:0.639283 1296:-0.421185 1297:-0.0501356 1298:-0.018899 1299:-0.326524 1300:-0.808308 1301:1 1302:0.344044 1303:-0.341051 1304:0.00197197 1305:-0.112916 1306:-0.113202 1307:-0.176575 1308:-0.839975 1309:0.350728 1310:-0.0586767 1311:0.091231 1312:0.149972 1313:0.0965154 1314:0.078892 1315:0.276408 1316:0.319979 1317:0.166793 1318:0.827544 1319:-0.331106 1320:0.639283 1321:-0.421185 1322:-0.0501356 1323:-0.018899 1324:-0.326524 1325:-0.808308 1326:-0.354719 1327:-0.975469 1328:-0.239063 1329:0.639595 1330:0.0606314 1331:0.0965914 1332:0.588 1333:0.833857 1334:-0.687418 1335:0.762292 1336:0.950097 1337:-0.227276 1338:-0.092062 1339:0.0398965 1340:0.0960363 1341:-0.410469 1342:-0.542735 1343:-0.177049 1344:-0.282194 1345:0.592498 1346:0.585934 1347:-0.573484 1348:-0.143468 1349:0.150419 1350:0.334154 1351:-0.354719 1352:-0.975469 1353:-0.239063 1354:0.639595 1355:0.0606314 1356:0.0965914 1357:0.588 1358:0.833857 1359:-0.687418 1360:0.762292 1361:0.950097 1362:-0.227276 1363:-0.092062 1364:0.0398965 1365:0.0960363 1366:-0.410469 1367:-0.542735 1368:-0.177049 1369:-0.282194 1370:0.592498 1371:0.585934 1372:-0.573484 1373:-0.143468 1374:0.150419 1375:0.334154 1376:1 1377:-0.459187 1378:0.481231 1379:0.263867 1380:-0.492166 1381:-0.69783 1382:0.251653 1383:-0.844494 1384:0.879543 1385:-0.562204 1386:0.286236 1387:0.652345 1388:0.155298 1389:-0.549323 1390:-0.103303 1391:0.160099 1392:0.432321 1393:-0.630786 1394:1 1395:-0.410047 1396:-0.18203 1397:0.137662 1398:-0.481201 1399:0.286292 1400:-0.0768917 1401:1 1402:-0.459187 1403:0.481231 1404:0.263867 1405:-0.492166 1406:-0.69783 1407:0.251653 1408:-0.844494 1409:0.879543 1410:-0.562204 1411:0.286236 1412:0.652345 1413:0.155298 1414:-0.549323 1415:-0.103303 1416:0.160099 1417:0.432321 1418:-0.630786 1419:1 1420:-0.410047 1421:-0.18203 1422:0.137662 1423:-0.481201 1424:0.286292 1425:-0.0768917 1426:-0.136208 1427:0.390601 1428:0.260907 1429:-0.0014707 1430:-0.472415 1431:0.440409 1432:-0.440242 1433:0.0990857 1434:0.140611 1435:-0.296064 1436:-0.271082 1437:-0.0299283 1438:0.0327903 1439:-0.108839 1440:-0.23368 1441:-0.193085 1442:-0.147295 1443:0.38935 1444:0.313136 1445:-0.0726536 1446:-0.0415596 1447:0.0845009 1448:-0.557566 1449:-0.288635 1450:0.159158 1451:-0.136208 1452:0.390601 1453:0.260907 1454:-0.0014707 1455:-0.472415 1456:0.440409 1457:-0.440242 1458:0.0990857 1459:0.140611 1460:-0.296064 1461:-0.271082 1462:-0.0299283 1463:0.0327903 1464:-0.108839 1465:-0.23368 1466:-0.193085 1467:-0.147295 1468:0.38935 1469:0.313136 1470:-0.0726536 1471:-0.0415596 1472:0.0845009 1473:-0.557566 1474:-0.288635 1475:0.159158 1476:0.470978 1477:0.277339 1478:-0.305892 1479:-0.27567 1480:0.0564818 1481:0.183776 1482:-0.260551 1483:0.576812 1484:-0.102352 1485:0.86015 1486:0.186889 1487:0.57637 1488:-0.612839 1489:0.470679 1490:0.4693 1491:-0.425284 1492:-0.197234 1493:0.800204 1494:-0.126261 1495:0.0857466 1496:-0.834558 1497:-0.816514 1498:0.452388 1499:0.539618 1500:-0.122754 1501:0.470978 1502:0.277339 1503:-0.305892 1504:-0.27567 1505:0.0564818 1506:0.183776 1507:-0.260551 1508:0.576812 1509:-0.102352 1510:0.86015 1511:0.186889 1512:0.57637 1513:-0.612839 1514:0.470679 1515:0.4693 1516:-0.425284 1517:-0.197234 1518:0.800204 1519:-0.126261 1520:0.0857466 1521:-0.834558 1522:-0.816514 1523:0.452388 1524:0.539618 1525:-0.122754 1526:-0.636673 1527:-0.637249 1528:0.80026 1529:0.913276 1530:-0.602349 1531:0.148159 1532:0.853135 1533:0.929391 1534:-0.318625 1535:0.0873351 1536:-0.107353 1537:-0.581825 1538:-0.311194 1539:-0.648252 1540:-0.430224 1541:-0.53463 1542:-0.570831 1543:0.524477 1544:-0.251457 1545:-0.192287 1546:-0.338255 1547:0.227732 1548:-0.0583737 1549:-0.00427462 1550:0.219081 1551:-0.100706 1552:-0.592471 1553:-0.212616 1554:0.0128344 1555:-0.0421815 1556:-0.0522247 1557:0.469067 1558:0.877215 1559:0.0235656 1560:0.0485441 1561:-0.00474502 1562:0.0562223 1563:0.0586457 1564:0.0728459 1565:0.386814 1566:-0.0934297 1567:-0.0393851 1568:0.42865 1569:0.362733 1570:0.375833 1571:0.00596968 1572:0.17657 1573:0.299583 1574:0.399375 1575:0.312117 1576:-0.100706 1577:-0.592471 1578:-0.212616 1579:0.0128344 1580:-0.0421815 1581:-0.0522247 1582:0.469067 1583:0.877215 1584:0.0235656 1585:0.0485441 1586:-0.00474502 1587:0.0562223 1588:0.0586457 1589:0.0728459 1590:0.386814 1591:-0.0934297 1592:-0.0393851 1593:0.42865 1594:0.362733 1595:0.375833 1596:0.00596968 1597:0.17657 1598:0.299583 1599:0.399375 1600:0.312117 1601:0.740665 1602:-0.439542 1603:0.51653 1604:0.19201 1605:0.239143 1606:-0.340586 1607:-0.180407 1608:0.169502 1609:-0.136274 1610:0.219356 1611:-0.629463 1612:0.255315 1613:0.314616 1614:-0.221969 1615:0.140518 1616:0.122737 1617:0.00837827 1618:1 1619:0.35349 1620:0.121832 1621:-0.428189 1622:-0.0495032 1623:0.480887 1624:0.172916 1625:-0.192182 1626:0.423193 1627:-1 1628:1 1629:0.735752 1630:0.738814 1631:-0.489995 1632:-0.0303391 1633:-1 1634:0.660377 1635:0.0289027 1636:-0.511212 1637:-1 1638:0.459885 1639:0.0651406 1640:0.258166 1641:-1 1642:-0.022651 1643:0.447765 1644:-1 1645:0.557332 1646:-0.267537 1647:0.210097 1648:0.330199 1649:-0.507962 1650:-0.213371 1651:-0.662859 1652:-1 1653:-0.013236 1654:0.12403 1655:1 1656:1 1657:0.682013 1658:-1 1659:0.871884 1660:-0.891459 1661:0.890942 1662:-0.821321 1663:-0.694341 1664:0.265355 1665:1 1666:-0.21728 1667:-0.556208 1668:0.867161 1669:-1 1670:1 1671:-1 1672:1 1673:0.014553 1674:-1 1675:-0.678966 1676:-0.658443 1677:0.200736 1678:-0.261899 1679:0.939148 1680:1 1681:1 1682:-1 1683:-1 1684:-1 1685:0.703719 1686:0.674383 1687:0.486231 1688:0.150745 1689:-0.329464 1690:0.23201 1691:0.515718 1692:0.0132467 1693:-0.688836 1694:1 1695:-1 1696:0.68033 1697:-1 1698:-0.351028 1699:0.481248 1700:0.027709 1701:0.355832 1702:0.0646294 1703:-0.668264 1704:0.167883 1705:-0.155553 1706:-0.366397 1707:-0.50434 1708:-0.411079 1709:-0.553283 1710:-0.870906 1711:0.382608 1712:0.207097 1713:0.642333 1714:0.0370479 1715:-0.504229 1716:-0.379252 1717:0.633238 1718:0.0200316 1719:0.153656 1720:-1 1721:-0.0252945 1722:-0.403805 1723:0.0447386 1724:0.0971347 1725:-0.456779 1726:0.245382 1727:-0.0223721 1728:-0.581659 1729:-0.727357 1730:0.0637658 1731:0.612194 1732:0.91729 1733:-0.660861 1734:0.0701116 1735:-1 1736:-0.514981 1737:-0.222652 1738:0.739456 1739:-0.292017 1740:0.133809 1741:-0.595653 1742:0.126228 1743:-0.803334 1744:0.885688 1745:-0.824773 1746:-0.0720463 1747:-0.329979 1748:-0.883506 1749:0.746803 1750:0.633704 1751:0.978585 1752:0.986333 1753:0.136698 1754:0.176544 1755:-0.254921 1756:-0.295018 1757:-0.0196233 1758:0.0058807 1759:-0.114785 1760:0.103677 1761:-0.256556 1762:-0.0109887 1763:-0.340762 1764:-0.636303 1765:0.013015 1766:0.165523 1767:0.109584 1768:-0.392764 1769:-0.119905 1770:-0.160202 1771:0.343884 1772:0.132672 1773:0.482069 1774:0.0536929 1775:0.505821 1776:0.760027 1777:0.405891 1778:-0.292173 1779:-0.795298 1780:0.065344 1781:-0.285139 1782:-0.0840441 1783:-0.243352 1784:-0.0198253 1785:-0.465223 1786:-0.582757 1787:-0.275718 1788:0.549942 1789:-0.433351 1790:-0.240557 1791:0.465269 1792:-0.062583 1793:0.368283 1794:-0.766256 1795:0.501558 1796:-0.515065 1797:-0.388205 1798:0.5267 1799:-0.0201456 1800:-0.067831 1801:-0.0656818 1802:-0.10982 1803:0.0640891 1804:-0.092144 1805:0.466653 1806:0.904292 1807:0.128236 1808:0.68772 1809:-0.492237 1810:-0.0668935 1811:0.0812671 1812:0.39431 1813:0.217093 1814:-0.313521 1815:0.0475289 1816:0.172724 1817:0.759357 1818:-0.474456 1819:-0.669551 1820:-1 1821:-0.00565307 1822:0.506873 1823:-0.219879 1824:0.25211 1825:0.528296 1826:0.98231 1827:0.529811 1828:-0.252404 1829:-0.243988 1830:-0.483233 1831:-0.671878 1832:-0.590786 1833:-0.497712 1834:0.225794 1835:-0.506135 1836:-0.246847 1837:0.53064 1838:-0.208783 1839:-0.0829827 1840:0.787107 1841:0.118031 1842:-0.100542 1843:-0.631038 1844:0.2709 1845:0.436539 1846:-0.70328 1847:0.0673311 1848:0.20045 1849:0.156048 1850:0.296211 1851:0.914398 1852:0.225569 1853:-0.112875 1854:0.573672 1855:-0.222835 1856:-0.297545 1857:-0.667436 1858:-0.360136 1859:0.522427 1860:-0.0645514 1861:-0.875011 1862:-0.316654 1863:-0.0633268 1864:-0.144521 1865:-0.536292 1866:-0.0799597 1867:0.4055 1868:0.26014 1869:-0.203867 1870:-0.265506 1871:0.330155 1872:0.312042 1873:-0.211263 1874:0.126198 1875:0.187704 1876:-0.235679 1877:0.424912 1878:0.432202 1879:0.518793 1880:-0.738346 1881:-0.615032 1882:0.184013 1883:0.517626 1884:-0.486084 1885:0.514862 1886:-0.230995 1887:-0.0795794 1888:1 1889:1 1890:-0.298702 1891:0.185811 1892:0.273909 1893:0.191913 1894:-0.268664 1895:-0.725822 1896:0.388314 1897:0.531323 1898:0.284874 1899:-0.653831 1900:-1 1901:-0.101937 1902:0.792756 1903:0.385976 1904:-0.91907 1905:-0.909431 1906:-0.227527 1907:-0.190498 1908:-0.897522 1909:0.611284 1910:-0.485328 1911:-0.875971 1912:0.233843 1913:0.08442 1914:-0.0744891 1915:0.606873 1916:-0.269461 1917:0.255557 1918:-0.576872 1919:-0.313203 1920:0.262592 1921:0.234837 1922:-0.0768325 1923:-0.138446 1924:-0.258162 1925:0.0712546 1926:0.0681537 1927:0.898284 1928:0.0147129 1929:-0.042221 1930:-0.892533 1931:-0.313598 1932:-0.316197 1933:-0.208765 1934:-0.7054 1935:0.483937 1936:0.246164 1937:-0.052936 1938:-0.955307 1939:0.537209 1940:-0.179919 1941:-0.465786 1942:0.198122 1943:0.793869 1944:-0.154444 1945:-0.288438 1946:-0.402375 1947:-0.236766 1948:0.0409855 1949:0.125032 1950:0.791549 1951:0.855789 1952:0.551112 1953:-0.505704 1954:-0.845892 1955:-0.336312 1956:-0.439324 1957:0.217051 1958:-0.717255 1959:0.605539 1960:0.438913 1961:-0.773332 1962:-0.253609 1963:0.713856 1964:-0.252536 1965:0.320151 1966:-0.702231 1967:0.190618 1968:-0.195085 1969:-0.26042 1970:0.310055 1971:-0.310057 1972:-0.452342 1973:0.104341 1974:0.385989 1975:0.29034 1976:-1 1977:0.00803394 1978:0.804598 1979:-0.3538 1980:-0.550169 1981:0.997738 1982:-0.923259 1983:0.684462 1984:-0.240153 1985:0.173027 1986:0.0854997 1987:0.395778 1988:1 1989:-0.665872 1990:-1 1991:0.247094 1992:-1 1993:1 1994:0.23438 1995:-0.26947 1996:0.283472 1997:-0.0408715 1998:-0.913848 1999:0.133405 2000:-0.335581 2001:-0.0601151 2002:0.744151 2003:0.652275 2004:-1 2005:-0.913621 2006:-0.565627 2007:-0.463821 2008:-0.98396 2009:0.358707 2010:0.521469 2011:-0.986414 2012:0.439731 2013:-0.213067 2014:0.382019 2015:-0.146961 2016:0.337984 2017:-0.168546 2018:0.612592 2019:-0.106517 2020:-0.477666 2021:-0.852356 2022:0.244984 2023:0.0606284 2024:0.465271 2025:-0.444412 2026:-0.380918 2027:-0.642548 2028:0.178071 2029:0.625113 2030:-0.184589 2031:0.0739331 2032:0.0698331 2033:-0.227555 2034:-0.339124 2035:0.358871 2036:0.737639 2037:-0.536348 2038:0.297973 2039:-0.399675 2040:0.0999091 2041:-0.930414 2042:-0.315963 2043:-0.252919 2044:0.0566871 2045:0.333001 2046:-6.59356e-05 2047:0.175932 2048:-0.579076 2049:-0.235132 2050:0.988373 2051:0.199962 2052:0.201397 2053:0.968417 2054:1 2055:-1 2056:-1 2057:-1 2058:0.900127 2059:-1 2060:-1 2061:-0.454665 2062:-0.0237946 2063:-0.280358 2064:0.0280512 2065:1 2066:0.505232 2067:0.545577 2068:1 2069:-0.307518 2070:0.0625607 2071:0.342813 2072:1 2073:1 2074:-0.214431 2075:-0.704227 2076:-0.285569 2077:0.941825 2078:0.706776 2079:0.387298 2080:0.499407 2081:0.58185 2082:0.118732 2083:-0.233436 2084:0.215068 2085:-0.208424 2086:-0.445335 2087:-0.503625 2088:-0.851578 2089:-0.937275 2090:0.573496 2091:0.672387 2092:-0.142463 2093:0.460758 2094:0.493867 2095:0.32868 2096:-0.516858 2097:0.208359 2098:0.79558 2099:-0.210731 2100:-0.706985 2101:0.401277 2102:0.765289 2103:0.180013 2104:0.0567804 2105:-0.914959 2106:0.0735624 2107:0.0755844 2108:-0.858738 2109:0.0460409 2110:0.102103 2111:-0.981228 2112:0.726094 2113:0.819992 2114:0.803975 2115:-0.654016 2116:-0.610605 2117:-0.241862 2118:-0.952511 2119:-0.814728 2120:-0.924043 2121:0.520155 2122:-0.308721 2123:-0.99027 2124:-0.440982 2125:-0.304062 2126:-0.222204 2127:-0.608969 2128:-0.0798023 2129:-0.465461 2130:-0.390409 2131:0.779426 2132:0.490142 2133:0.975753 2134:-0.0231357 2135:0.403413 2136:0.557921 2137:-0.483639 2138:0.320289 2139:0.0546374 2140:-0.187485 2141:0.958675 2142:0.473253 2143:0.00680274 2144:0.564805 2145:-0.355922 2146:-0.596279 2147:-0.379557 2148:0.815362 2149:1 2150:0.145089 2151:0.144028 2152:0.361256 2153:0.657853 2154:0.460925 2155:0.244359 2156:0.262895 2157:0.363683 2158:0.298094 2159:0.0239422 2160:0.269454 2161:0.340903 2162:-0.237941 2163:-0.278954 2164:-0.391523 2165:-0.392234 2166:-0.449623 2167:0.362117 2168:0.204896 2169:-0.528417 2170:-0.0122244 2171:-0.339795 2172:0.174589 2173:-0.11203 2174:-0.557932 2175:0.298383 2176:-0.647506 2177:-0.0889585 2178:-0.45745 2179:0.17164 2180:0.224383 2181:0.626874 2182:0.310002 2183:0.492492 2184:0.153973 2185:0.312443 2186:0.469069 2187:-0.0082818 2188:0.793525 2189:-0.141348 2190:-0.276017 2191:-0.314749 2192:0.559745 2193:-0.328006 2194:-0.518852 2195:-0.081117 2196:-0.265547 2197:-0.20618 2198:-0.0220342 2199:-0.115576 2200:0.120019 2201:1 2202:0.963935 2203:0.15799 2204:-0.0356021 2205:1 2206:-0.617999 2207:-1 2208:-0.129775 2209:-0.337707 2210:0.253477 2211:-0.492543 2212:-0.12764 2213:-0.0967753 2214:0.397874 2215:-0.0169591 2216:-0.0135691 2217:0.0752292 2218:0.0317292 2219:0.372463 2220:-0.198485 2221:0.518825 2222:0.127928 2223:0.0474078 2224:0.808197 2225:-0.244144 2226:0.501567 2227:-0.464046 2228:-0.979057 2229:0.273812 2230:0.317234 2231:-0.157827 2232:0.852112 2233:-0.48199 2234:-0.928319 2235:-0.974863 2236:0.602716 2237:0.605165 2238:0.258619 2239:-0.102522 2240:0.532087 2241:-0.168759 2242:-0.780701 2243:0.622469 2244:0.0829086 2245:-0.0202161 2246:0.566468 2247:0.362071 2248:-0.123358 2249:-0.64829 2250:0.663365 2251:0.675324 2252:-0.844614 2253:0.86356 2254:0.586755 2255:0.19036 2256:-1 2257:0.700495 2258:-1 2259:0.662905 2260:-0.161231 2261:0.00370703 2262:-0.953121 2263:-0.103328 2264:-0.322835 2265:0.861707 2266:-0.182772 2267:0.395903 2268:-0.732407 2269:0.139231 2270:0.867529 2271:-1 2272:0.553602 2273:-1 2274:-1 2275:-0.159819 2276:0.675324 2277:-0.844614 2278:0.86356 2279:0.586755 2280:0.19036 2281:-1 2282:0.700495 2283:-1 2284:0.662905 2285:-0.161231 2286:0.00370703 2287:-0.953121 2288:-0.103328 2289:-0.322835 2290:0.861707 2291:-0.182772 2292:0.395903 2293:-0.732407 2294:0.139231 2295:0.867529 2296:-1 2297:0.553602 2298:-1 2299:-1 2300:-0.159819 2301:-0.0508514 2302:-1 2303:-0.0804408 2304:-0.0154068 2305:0.0664324 2306:0.517488 2307:0.155501 2308:0.0142621 2309:-0.0539227 2310:0.347704 2311:0.823327 2312:0.203954 2313:-0.0473236 2314:-0.265515 2315:-0.104328 2316:0.331978 2317:-0.273322 2318:-0.58409 2319:-0.687905 2320:0.0684116 2321:0.747671 2322:-0.270805 2323:0.446152 2324:0.423493 2325:0.114891 2326:-0.0508514 2327:-1 2328:-0.0804408 2329:-0.0154068 2330:0.0664324 2331:0.517488 2332:0.155501 2333:0.0142621 2334:-0.0539227 2335:0.347704 2336:0.823327 2337:0.203954 2338:-0.0473236 2339:-0.265515 2340:-0.104328 2341:0.331978 2342:-0.273322 2343:-0.58409 2344:-0.687905 2345:0.0684116 2346:0.747671 2347:-0.270805 2348:0.446152 2349:0.423493 2350:0.114891 2351:0.624486 2352:0.330631 2353:0.377973 2354:0.250224 2355:0.244466 2356:0.0535616 2357:0.229943 2358:0.546071 2359:-1 2360:0.242721 2361:-0.478117 2362:-0.0512541 2363:0.197707 2364:-0.181129 2365:0.841577 2366:0.525444 2367:-0.521566 2368:-0.424777 2369:-0.638438 2370:-1 2371:0.306561 2372:-0.399415 2373:-0.437663 2374:0.631908 2375:-0.258176 2376:-0.222454 2377:-0.705006 2378:-0.22499 2379:0.40042 2380:0.131942 2381:-0.207268 2382:0.533314 2383:0.434491 2384:0.0694511 2385:0.848409 2386:0.634611 2387:0.403807 2388:0.0581755 2389:-0.163354 2390:-0.491299 2391:-0.375278 2392:0.172976 2393:-0.298267 2394:0.302796 2395:0.0737307 2396:0.229524 2397:0.502529 2398:0.415174 2399:0.57157 2400:-0.452851 2401:-0.222454 2402:-0.705006 2403:-0.22499 2404:0.40042 2405:0.131942 2406:-0.207268 2407:0.533314 2408:0.434491 2409:0.0694511 2410:0.848409 2411:0.634611 2412:0.403807 2413:0.0581755 2414:-0.163354 2415:-0.491299 2416:-0.375278 2417:0.172976 2418:-0.298267 2419:0.302796 2420:0.0737307 2421:0.229524 2422:0.502529 2423:0.415174 2424:0.57157 2425:-0.452851 2426:1 2427:-0.626486 2428:0.413528 2429:-0.171234 2430:0.0476669 2431:1 2432:-0.0241237 2433:0.691497 2434:0.360371 2435:0.267444 2436:-0.0821363 2437:-1 2438:-0.500843 2439:-0.744063 2440:1 2441:1 2442:-1 2443:-0.184939 2444:-0.337732 2445:1 2446:-0.00102131 2447:0.751089 2448:-0.369295 2449:0.558206 2450:-0.463478 2451:-0.305656 2452:-0.0726112 2453:0.356466 2454:-0.166538 2455:-0.596929 2456:-0.658818 2457:0.557211 2458:0.641375 2459:0.215442 2460:0.663364 2461:-0.297643 2462:0.197247 2463:0.256823 2464:0.537985 2465:-0.317996 2466:-0.150811 2467:0.448868 2468:0.425244 2469:-0.0258241 2470:0.0524994 2471:0.179766 2472:0.553467 2473:-0.563013 2474:-0.245561 2475:-0.40654 2476:0.0316647 2477:0.999968 2478:-0.145579 2479:-0.997222 2480:-0.999157 2481:-0.500348 2482:0.798875 2483:-0.999532 2484:0.929429 2485:0.928909 2486:-0.989683 2487:0.0797547 2488:-0.498038 2489:0.673342 2490:-0.757379 2491:-0.121658 2492:-0.790627 2493:-0.806872 2494:0.531571 2495:-0.930048 2496:0.492641 2497:0.146903 2498:-0.91441 2499:-0.601968 2500:0.140808 2501:1 2502:-0.641419 2503:1 2504:0.947025 2505:-0.885126 2506:0.639867 2507:-0.466284 2508:-0.956436 2509:0.154078 2510:-0.269125 2511:0.474719 2512:0.546056 2513:-0.245605 2514:0.561297 2515:-0.528364 2516:-1 2517:0.88718 2518:-0.652145 2519:0.501721 2520:0.72681 2521:1 2522:-0.943107 2523:0.383578 2524:-0.721079 2525:1 2526:1 2527:-0.641419 2528:1 2529:0.947025 2530:-0.885126 2531:0.639867 2532:-0.466284 2533:-0.956436 2534:0.154078 2535:-0.269125 2536:0.474719 2537:0.546056 2538:-0.245605 2539:0.561297 2540:-0.528364 2541:-1 2542:0.88718 2543:-0.652145 2544:0.501721 2545:0.72681 2546:1 2547:-0.943107 2548:0.383578 2549:-0.721079 2550:1 2551:0.25336 2552:-0.887218 2553:-0.521332 2554:0.142459 2555:0.468599 2556:-0.767729 2557:0.124967 2558:-0.555915 2559:-0.680647 2560:-0.979108 2561:0.357753 2562:0.316902 2563:-0.304807 2564:-0.318491 2565:-0.110005 2566:0.28013 2567:0.249149 2568:-0.06272 2569:-0.033314 2570:-0.0591902 2571:0.0215308 2572:-0.773241 2573:0.20021 2574:0.277197 2575:0.409938 2576:0.25336 2577:-0.887218 2578:-0.521332 2579:0.142459 2580:0.468599 2581:-0.767729 2582:0.124967 2583:-0.555915 2584:-0.680647 2585:-0.979108 2586:0.357753 2587:0.316902 2588:-0.304807 2589:-0.318491 2590:-0.110005 2591:0.28013 2592:0.249149 2593:-0.06272 2594:-0.033314 2595:-0.0591902 2596:0.0215308 2597:-0.773241 2598:0.20021 2599:0.277197 2600:0.409938 2601:-0.346831 2602:-0.164487 2603:0.761635 2604:0.350228 2605:0.0632419 2606:-0.435035 2607:-0.616257 2608:-0.175405 2609:-0.0399678 2610:-0.0287874 2611:-0.225167 2612:0.914437 2613:0.0970557 2614:0.691121 2615:0.714183 2616:-0.649653 2617:-1 2618:0.998792 2619:-0.791447 2620:0.303644 2621:-1 2622:0.744645 2623:0.70877 2624:0.390167 2625:0.0197136 2626:-0.346831 2627:-0.164487 2628:0.761635 2629:0.350228 2630:0.0632419 2631:-0.435035 2632:-0.616257 2633:-0.175405 2634:-0.0399678 2635:-0.0287874 2636:-0.225167 2637:0.914437 2638:0.0970557 2639:0.691121 2640:0.714183 2641:-0.649653 2642:-1 2643:0.998792 2644:-0.791447 2645:0.303644 2646:-1 2647:0.744645 2648:0.70877 2649:0.390167 2650:0.0197136 2651:0.774407 2652:-0.292284 2653:-0.707164 2654:-0.764892 2655:0.0815975 2656:0.0850289 2657:-0.124668 2658:-0.828951 2659:0.228976 2660:-0.874164 2661:-0.824647 2662:0.21198 2663:0.0141706 2664:0.0903452 2665:-0.323598 2666:0.226577 2667:0.168687 2668:-0.471894 2669:0.70488 2670:-0.653438 2671:-0.0445422 2672:0.527872 2673:-0.47621 2674:0.482904 2675:-0.25707 2676:0.774407 2677:-0.292284 2678:-0.707164 2679:-0.764892 2680:0.0815975 2681:0.0850289 2682:-0.124668 2683:-0.828951 2684:0.228976 2685:-0.874164 2686:-0.824647 2687:0.21198 2688:0.0141706 2689:0.0903452 2690:-0.323598 2691:0.226577 2692:0.168687 2693:-0.471894 2694:0.70488 2695:-0.653438 2696:-0.0445422 2697:0.527872 2698:-0.47621 2699:0.482904 2700:-0.25707 2701:0.690546 2702:-0.725865 2703:-0.795946 2704:0.565593 2705:0.0446185 2706:-0.641406 2707:0.481663 2708:0.0286093 2709:-0.294501 2710:-0.839096 2711:0.264282 2712:0.359478 2713:0.402708 2714:-0.128493 2715:0.0438697 2716:0.655893 2717:0.325862 2718:0.0331545 2719:0.384733 2720:0.0879991 2721:0.224016 2722:-0.507967 2723:-0.229839 2724:0.56091 2725:-0.314382 2726:0.690546 2727:-0.725865 2728:-0.795946 2729:0.565593 2730:0.0446185 2731:-0.641406 2732:0.481663 2733:0.0286093 2734:-0.294501 2735:-0.839096 2736:0.264282 2737:0.359478 2738:0.402708 2739:-0.128493 2740:0.0438697 2741:0.655893 2742:0.325862 2743:0.0331545 2744:0.384733 2745:0.0879991 2746:0.224016 2747:-0.507967 2748:-0.229839 2749:0.56091 2750:-0.314382 2751:-0.173692 2752:-0.0826029 2753:-0.11126 2754:0.032644 2755:-0.0853144 2756:0.332694 2757:0.0229428 2758:0.499886 2759:-0.151306 2760:0.520997 2761:0.251397 2762:0.275409 2763:-0.154276 2764:-0.282434 2765:0.51631 2766:0.276472 2767:0.00145987 2768:-0.445674 2769:0.663515 2770:-0.0737231 2771:0.0255186 2772:-0.0741643 2773:0.196019 2774:-0.092638 2775:0.596371 2776:-0.173692 2777:-0.0826029 2778:-0.11126 2779:0.032644 2780:-0.0853144 2781:0.332694 2782:0.0229428 2783:0.499886 2784:-0.151306 2785:0.520997 2786:0.251397 2787:0.275409 2788:-0.154276 2789:-0.282434 2790:0.51631 2791:0.276472 2792:0.00145987 2793:-0.445674 2794:0.663515 2795:-0.0737231 2796:0.0255186 2797:-0.0741643 2798:0.196019 2799:-0.092638 2800:0.596371 2801:1 2802:0.347985 2803:-0.840748 2804:-0.0623578 2805:0.291454 2806:0.258282 2807:-0.340147 2808:-0.732935 2809:0.127229 2810:-0.529528 2811:0.336989 2812:0.15281 2813:0.429341 2814:0.414781 2815:-0.522603 2816:0.0873653 2817:0.00607946 2818:-0.201962 2819:0.0245746 2820:-0.30245 2821:0.367497 2822:0.159108 2823:0.31229 2824:0.273239 2825:-0.534819 2826:1 2827:0.347985 2828:-0.840748 2829:-0.0623578 2830:0.291454 2831:0.258282 2832:-0.340147 2833:-0.732935 2834:0.127229 2835:-0.529528 2836:0.336989 2837:0.15281 2838:0.429341 2839:0.414781 2840:-0.522603 2841:0.0873653 2842:0.00607946 2843:-0.201962 2844:0.0245746 2845:-0.30245 2846:0.367497 2847:0.159108 2848:0.31229 2849:0.273239 2850:-0.534819 2851:0.22945 2852:-0.339179 2853:0.286223 2854:0.711592 2855:-0.512897 2856:0.0749314 2857:0.103339 2858:0.22664 2859:-0.502922 2860:0.351816 2861:0.58988 2862:0.588536 2863:0.684001 2864:0.657154 2865:0.136154 2866:0.111421 2867:-0.322547 2868:-0.287094 2869:-0.199949 2870:-0.792562 2871:0.00161979 2872:0.353497 2873:-0.258463 2874:-0.0174615 2875:0.43923 2876:0.22945 2877:-0.339179 2878:0.286223 2879:0.711592 2880:-0.512897 2881:0.0749314 2882:0.103339 2883:0.22664 2884:-0.502922 2885:0.351816 2886:0.58988 2887:0.588536 2888:0.684001 2889:0.657154 2890:0.136154 2891:0.111421 2892:-0.322547 2893:-0.287094 2894:-0.199949 2895:-0.792562 2896:0.00161979 2897:0.353497 2898:-0.258463 2899:-0.0174615 2900:0.43923 2901:-0.838996 2902:-0.348467 2903:-0.114038 2904:0.842941 2905:0.0629926 2906:0.807706 2907:0.66861 2908:0.316627 2909:0.421599 2910:-0.150932 2911:0.974487 2912:0.417569 2913:-0.270915 2914:-0.0771761 2915:0.393689 2916:-0.0010589 2917:0.0164706 2918:0.0126066 2919:-0.439504 2920:-0.10513 2921:0.391027 2922:0.0512072 2923:0.0627664 2924:0.486448 2925:0.204178 2926:-0.838996 2927:-0.348467 2928:-0.114038 2929:0.842941 2930:0.0629926 2931:0.807706 2932:0.66861 2933:0.316627 2934:0.421599 2935:-0.150932 2936:0.974487 2937:0.417569 2938:-0.270915 2939:-0.0771761 2940:0.393689 2941:-0.0010589 2942:0.0164706 2943:0.0126066 2944:-0.439504 2945:-0.10513 2946:0.391027 2947:0.0512072 2948:0.0627664 2949:0.486448 2950:0.204178 2951:-0.27435 2952:-0.823802 2953:0.101013 2954:0.292409 2955:0.790994 2956:0.141386 2957:0.335934 2958:0.38059 2959:0.119351 2960:0.2716 2961:0.741939 2962:0.620555 2963:0.145185 2964:0.154105 2965:0.0953407 2966:0.0285933 2967:0.0315346 2968:-0.056894 2969:-0.309451 2970:0.106352 2971:0.55984 2972:0.236881 2973:-0.230706 2974:0.184123 2975:-0.21678 2976:-0.27435 2977:-0.823802 2978:0.101013 2979:0.292409 2980:0.790994 2981:0.141386 2982:0.335934 2983:0.38059 2984:0.119351 2985:0.2716 2986:0.741939 2987:0.620555 2988:0.145185 2989:0.154105 2990:0.0953407 2991:0.0285933 2992:0.0315346 2993:-0.056894 2994:-0.309451 2995:0.106352 2996:0.55984 2997:0.236881 2998:-0.230706 2999:0.184123 3000:-0.21678 3001:-0.186771 3002:0.237493 3003:-0.479838 3004:-0.611288 3005:-0.986077 3006:-0.438235 3007:0.576561 3008:-0.844874 3009:0.380244 3010:-0.402106 3011:-0.988901 3012:-0.425183 3013:0.0906137 3014:-0.351201 3015:-0.122247 3016:-0.414921 3017:0.0560149 3018:-0.407161 3019:0.535976 3020:0.516225 3021:-0.172546 3022:0.294898 3023:-0.503958 3024:-0.287652 3025:0.333329 3026:-0.186771 3027:0.237493 3028:-0.479838 3029:-0.611288 3030:-0.986077 3031:-0.438235 3032:0.576561 3033:-0.844874 3034:0.380244 3035:-0.402106 3036:-0.988901 3037:-0.425183 3038:0.0906137 3039:-0.351201 3040:-0.122247 3041:-0.414921 3042:0.0560149 3043:-0.407161 3044:0.535976 3045:0.516225 3046:-0.172546 3047:0.294898 3048:-0.503958 3049:-0.287652 3050:0.333329 3051:0.506259 3052:0.201233 3053:0.261039 3054:0.250205 3055:-0.55888 3056:0.111762 3057:-0.232148 3058:0.526083 3059:-0.558612 3060:0.439907 3061:0.300028 3062:0.194631 3063:-0.903682 3064:0.0265928 3065:0.321026 3066:0.159923 3067:-0.252027 3068:0.215975 3069:-0.328843 3070:-0.214445 3071:-0.170341 3072:-0.502298 3073:-0.250043 3074:-0.0661283 3075:-0.147453 3076:-0.106058 3077:0.104104 3078:0.0316375 3079:0.0384269 3080:-0.250876 3081:-0.233302 3082:0.216767 3083:0.653035 3084:-0.305621 3085:0.519483 3086:0.234893 3087:-0.111128 3088:0.545302 3089:0.267662 3090:-0.155038 3091:0.403442 3092:0.380941 3093:0.0459202 3094:0.357834 3095:0.365007 3096:-0.00804716 3097:0.257047 3098:0.201821 3099:0.26775 3100:0.0559035 3101:-0.106058 3102:0.104104 3103:0.0316375 3104:0.0384269 3105:-0.250876 3106:-0.233302 3107:0.216767 3108:0.653035 3109:-0.305621 3110:0.519483 3111:0.234893 3112:-0.111128 3113:0.545302 3114:0.267662 3115:-0.155038 3116:0.403442 3117:0.380941 3118:0.0459202 3119:0.357834 3120:0.365007 3121:-0.00804716 3122:0.257047 3123:0.201821 3124:0.26775 3125:0.0559035 3126:-0.835472 3127:-0.861459 3128:-0.429737 3129:0.440783 3130:0.624023 3131:-0.563565 3132:0.210208 3133:0.404143 3134:0.010523 3135:-0.0341933 3136:0.521346 3137:0.649985 3138:-0.506189 3139:-0.0433848 3140:0.338162 3141:0.144613 3142:0.438718 3143:0.148586 3144:-0.0192282 3145:0.147648 3146:0.134904 3147:0.112116 3148:-0.441716 3149:0.225789 3150:-0.310919 3151:-0.835472 3152:-0.861459 3153:-0.429737 3154:0.440783 3155:0.624023 3156:-0.563565 3157:0.210208 3158:0.404143 3159:0.010523 3160:-0.0341933 3161:0.521346 3162:0.649985 3163:-0.506189 3164:-0.0433848 3165:0.338162 3166:0.144613 3167:0.438718 3168:0.148586 3169:-0.0192282 3170:0.147648 3171:0.134904 3172:0.112116 3173:-0.441716 3174:0.225789 3175:-0.310919 3176:0.0847208 3177:-0.678493 3178:0.208101 3179:0.199454 3180:0.364699 3181:-0.150717 3182:0.61936 3183:0.682444 3184:0.231116 3185:0.673094 3186:0.0276486 3187:0.526271 3188:0.732496 3189:0.0740824 3190:0.248985 3191:0.269289 3192:0.561807 3193:-0.219799 3194:-0.565874 3195:-0.787978 3196:-0.468009 3197:0.0606978 3198:-0.0216164 3199:-0.0857277 3200:-0.303108 
