svm_type c_svc
kernel_type rbf
gamma 0.00031250000000000001
nr_class 2
total_sv 20
rho -0.99967332619416993
label 1 2
nr_sv 10 10
SV
0.0009765625 1:-1 2:0.95696 3:-0.550529 4:0.979095 5:1 6:0.167852 7:0.443746 8:-0.659892 9:0.914685 10:0.54583 11:-0.238167 12:0.542625 13:-0.871401 14:-0.94533 15:-0.325121 16:0.486951 17:-0.926989 18:0.401096 19:-0.442706 20:0.489712 21:0.863412 22:-0.83476 23:0.984863 24:0.766831 25:-0.612052 26:-1 27:-0.0106027 28:-0.138319 29:1 30:0.961092 31:0.997467 32:0.998933 33:0.854577 34:1 35:0.370401 36:1 37:0.2465 38:-0.0677241 39:0.903118 40:0.0813908 41:-0.589333 42:-0.413695 43:0.934149 44:0.336562 45:-0.202675 46:-0.0352879 47:0.566427 48:0.430527 49:0.684786 50:0.849497 51:-1 52:-0.0106027 53:-0.138319 54:1 55:0.961092 56:0.997467 57:0.998933 58:0.854577 59:1 60:0.370401 61:1 62:0.2465 63:-0.0677241 64:0.903118 65:0.0813908 66:-0.589333 67:-0.413695 68:0.934149 69:0.336562 70:-0.202675 71:-0.0352879 72:0.566427 73:0.430527 74:0.684786 75:0.849497 76:0.104102 77:-0.544929 78:-0.322817 79:0.223522 80:0.350063 81:-0.871004 82:-0.593671 83:0.52674 84:0.725997 85:0.318506 86:-0.812876 87:-0.13479 88:-0.243157 89:0.723534 90:0.0726863 91:0.48178 92:0.74917 93:-0.352762 94:-1 95:-0.443398 96:-0.118532 97:1 98:0.520829 99:-0.248401 100:-0.192085 101:-0.819824 102:0.198107 103:0.131912 104:0.771646 105:0.964932 106:0.247642 107:0.713623 108:0.568472 109:0.687691 110:0.0639694 111:0.994146 112:0.788484 113:-0.400596 114:0.516905 115:0.732617 116:0.811811 117:0.18722 118:0.553968 119:0.464053 120:0.652014 121:0.279233 122:-0.631476 123:0.682504 124:0.706594 125:-0.555869 126:0.326986 127:0.666824 128:-0.617144 129:-0.659798 130:0.700571 131:0.00787164 132:0.220805 133:0.25844 134:0.981312 135:0.51597 136:-0.840571 137:-0.224135 138:-0.140332 139:-0.473896 140:0.502772 141:0.531336 142:-0.39332 143:0.258686 144:-0.392403 145:-0.370712 146:0.20829 147:0.410447 148:0.368607 149:-0.35717 150:0.337491 151:0.326986 152:0.666824 153:-0.617144 154:-0.659798 155:0.700571 156:0.00787164 157:0.220805 158:0.25844 159:0.981312 160:0.51597 161:-0.840571 162:-0.224135 163:-0.140332 164:-0.473896 165:0.502772 166:0.531336 167:-0.39332 168:0.258686 169:-0.392403 170:-0.370712 171:0.20829 172:0.410447 173:0.368607 174:-0.35717 175:0.337491 176:-0.81633 177:-0.121245 178:-0.779864 179:0.952554 180:0.973012 181:0.938581 182:0.909761 183:0.663914 184:0.433483 185:0.169631 186:0.208493 187:0.377489 188:0.457442 189:-0.622473 190:-0.00527856 191:0.455692 192:0.607461 193:-0.888611 194:-0.320268 195:0.314277 196:-0.53188 197:-0.0223131 198:0.263382 199:-0.631255 200:0.274759 201:0.44684 202:-0.822442 203:-0.430744 204:0.212456 205:0.98041 206:0.0830145 207:0.743052 208:-0.00717928 209:0.149242 210:-0.415238 211:0.866206 212:-0.222945 213:-0.00672915 214:-1 215:-0.918588 216:0.0687013 217:0.792493 218:-0.0421138 219:-0.182423 220:-0.243246 221:-0.0834696 222:-0.0667551 223:0.141479 224:-0.156749 225:0.398089 226:-0.923414 227:0.927238 228:0.881659 229:0.984262 230:0.627007 231:-0.148049 232:-0.648035 233:0.0641919 234:0.781051 235:0.202836 236:0.0973734 237:0.603576 238:-0.923512 239:-0.742631 240:-0.138972 241:0.835493 242:0.103178 243:-0.370154 244:-0.875878 245:0.823536 246:0.469483 247:-0.514554 248:0.983437 249:-0.751912 250:-0.772318 251:-0.366363 252:0.0464212 253:-0.145149 254:0.179957 255:0.56199 256:-0.370685 257:0.954753 258:0.107741 259:0.12098 260:0.45034 261:0.368791 262:0.147432 263:0.540125 264:-0.492332 265:0.0142787 266:0.26896 267:-0.371204 268:-0.187053 269:-0.238251 270:-0.491044 271:-0.619307 272:-0.519121 273:-0.15729 274:-0.941495 275:0.0350411 276:0.736877 277:-0.0208817 278:-0.547806 279:0.0956557 280:0.492257 281:0.927556 282:0.952873 283:-0.392314 284:-0.39151 285:0.99383 286:-0.756804 287:0.358175 288:0.809123 289:0.533084 290:0.102278 291:-0.156315 292:-0.160565 293:-0.260653 294:0.715737 295:-0.351396 296:-0.266418 297:0.864457 298:-0.604764 299:0.601407 300:0.00345155 301:0.736877 302:-0.0208817 303:-0.547806 304:0.0956557 305:0.492257 306:0.927556 307:0.952873 308:-0.392314 309:-0.39151 310:0.99383 311:-0.756804 312:0.358175 313:0.809123 314:0.533084 315:0.102278 316:-0.156315 317:-0.160565 318:-0.260653 319:0.715737 320:-0.351396 321:-0.266418 322:0.864457 323:-0.604764 324:0.601407 325:0.00345155 326:-0.903568 327:0.325903 328:-0.781712 329:0.649015 330:0.800616 331:0.75215 332:0.924819 333:-1 334:0.422474 335:-0.346273 336:0.791647 337:0.588584 338:0.730769 339:-0.711095 340:1 341:0.871366 342:-0.215542 343:0.511914 344:-0.534388 345:-1 346:-0.840212 347:-0.678384 348:0.844429 349:0.782872 350:0.775291 351:-0.132266 352:0.0524416 353:-0.941535 354:-0.186151 355:-0.70646 356:0.149707 357:0.927054 358:-0.668705 359:-0.18069 360:0.310481 361:-0.174872 362:-0.571326 363:-0.753689 364:0.456297 365:1 366:-0.526137 367:0.330872 368:0.49757 369:0.725287 370:-0.719472 371:-0.308538 372:0.34939 373:-0.830067 374:-1 375:-0.575822 376:-0.132266 377:0.0524416 378:-0.941535 379:-0.186151 380:-0.70646 381:0.149707 382:0.927054 383:-0.668705 384:-0.18069 385:0.310481 386:-0.174872 387:-0.571326 388:-0.753689 389:0.456297 390:1 391:-0.526137 392:0.330872 393:0.49757 394:0.725287 395:-0.719472 396:-0.308538 397:0.34939 398:-0.830067 399:-1 400:-0.575822 401:0.800723 402:0.401619 403:0.098024 404:0.362812 405:-0.284577 406:-0.781607 407:-0.0985794 408:-0.0889495 409:-0.348771 410:-0.318544 411:-0.707274 412:-0.253061 413:-0.64669 414:0.100041 415:-0.375094 416:-0.510811 417:0.0339684 418:-0.10994 419:0.0875732 420:0.0565886 421:0.00529862 422:0.668594 423:-0.438587 424:0.0562465 425:0.148395 426:-1 427:-0.158425 428:-0.137163 429:0.397167 430:0.366977 431:-0.14925 432:0.697584 433:0.735738 434:-0.440044 435:-0.120242 436:-1 437:0.420669 438:-0.629848 439:0.0446875 440:-0.673202 441:0.0592692 442:0.04504 443:-0.387439 444:-1 445:-0.743638 446:-0.442884 447:0.356458 448:0.067733 449:-1 450:0.728 451:-0.301359 452:0.0468056 453:0.132127 454:-0.0941276 455:0.127465 456:-1 457:-0.13731 458:0.508215 459:-0.203396 460:0.185987 461:0.5902 462:-0.0125102 463:0.528165 464:-0.246839 465:-1 466:0.19271 467:-1 468:-0.915667 469:-0.987965 470:0.406645 471:0.209234 472:-1 473:0.0965449 474:0.290232 475:-0.0908705 476:-0.908178 477:-0.77679 478:0.60717 479:0.957312 480:-0.696888 481:-0.425847 482:0.872498 483:-0.891936 484:0.850775 485:-0.116798 486:0.944312 487:-0.766333 488:-0.66926 489:-0.487313 490:-0.382215 491:-0.328025 492:0.77376 493:0.346611 494:0.919513 495:0.988612 496:0.911844 497:0.791935 498:0.284598 499:0.785216 500:-0.626851 501:-1 502:0.669819 503:0.941446 504:1 505:1 506:-1 507:0.423027 508:1 509:1 510:-1 511:0.812132 512:1 513:0.411497 514:-1 515:-0.557359 516:-1 517:1 518:0.55181 519:0.196321 520:1 521:-0.961539 522:-1 523:0.101887 524:1 525:-1 526:-0.967219 527:0.593231 528:-0.999776 529:1 530:0.941287 531:0.992851 532:0.99992 533:0.946386 534:0.995982 535:0.715249 536:1 537:-1 538:-0.965391 539:-0.17881 540:-1 541:-0.548102 542:-0.0518358 543:-0.772593 544:-0.932483 545:-0.867609 546:-0.895694 547:0.529621 548:0.923741 549:0.826041 550:0.897304 551:-0.485345 552:-0.292912 553:0.0587856 554:1 555:1 556:-0.527931 557:0.0535995 558:0.115484 559:-0.497758 560:-0.94018 561:-0.185611 562:-0.327668 563:-0.736211 564:0.931899 565:-0.124889 566:0.135175 567:-0.124192 568:-0.267776 569:1 570:0.657138 571:-0.559308 572:1 573:1 574:-0.0427813 575:1 576:-0.485345 577:-0.292912 578:0.0587856 579:1 580:1 581:-0.527931 582:0.0535995 583:0.115484 584:-0.497758 585:-0.94018 586:-0.185611 587:-0.327668 588:-0.736211 589:0.931899 590:-0.124889 591:0.135175 592:-0.124192 593:-0.267776 594:1 595:0.657138 596:-0.559308 597:1 598:1 599:-0.0427813 600:1 601:0.890113 602:0.600535 603:0.884769 604:-0.494747 605:0.56955 606:0.00813251 607:0.675677 608:0.318785 609:0.49324 610:0.363244 611:-0.906569 612:-0.482832 613:-0.341225 614:0.76164 615:0.583123 616:-0.158063 617:0.548961 618:0.372149 619:0.635061 620:0.110092 621:0.743967 622:0.00235501 623:-0.719396 624:0.64111 625:0.0387686 626:-1 627:1 628:0.892548 629:-1 630:-0.00564551 631:1 632:0.274653 633:0.196078 634:-0.232626 635:-0.187313 636:1 637:0.103468 638:-1 639:0.739921 640:0.386196 641:0.0159069 642:0.680736 643:-0.787467 644:-0.360971 645:-0.403736 646:0.333828 647:1 648:-1 649:1 650:1 651:-1 652:1 653:0.892548 654:-1 655:-0.00564551 656:1 657:0.274653 658:0.196078 659:-0.232626 660:-0.187313 661:1 662:0.103468 663:-1 664:0.739921 665:0.386196 666:0.0159069 667:0.680736 668:-0.787467 669:-0.360971 670:-0.403736 671:0.333828 672:1 673:-1 674:1 675:1 676:-0.875178 677:-0.655191 678:-0.673092 679:0.897395 680:0.551185 681:0.743381 682:0.759811 683:0.346287 684:0.942447 685:-0.371974 686:0.598083 687:0.409477 688:0.301952 689:0.0375259 690:0.0944779 691:-0.346301 692:-0.670722 693:-0.168096 694:-0.628368 695:-0.795398 696:-0.347463 697:-0.489827 698:0.171259 699:-0.00136804 700:0.0293274 701:-0.875178 702:-0.655191 703:-0.673092 704:0.897395 705:0.551185 706:0.743381 707:0.759811 708:0.346287 709:0.942447 710:-0.371974 711:0.598083 712:0.409477 713:0.301952 714:0.0375259 715:0.0944779 716:-0.346301 717:-0.670722 718:-0.168096 719:-0.628368 720:-0.795398 721:-0.347463 722:-0.489827 723:0.171259 724:-0.00136804 725:0.0293274 726:-0.97897 727:-0.81016 728:-0.923348 729:0.973562 730:0.372104 731:0.985521 732:0.805616 733:-0.593269 734:-0.252462 735:0.308431 736:0.975166 737:0.707057 738:0.459001 739:-0.403998 740:0.501816 741:-0.291529 742:-0.85403 743:-0.622755 744:-0.011266 745:0.415518 746:0.819664 747:-0.701951 748:-0.0679883 749:-0.0482293 750:-0.111175 751:-0.669758 752:-0.468257 753:-0.541985 754:0.643158 755:0.611802 756:-0.0417619 757:-0.164709 758:-0.0740469 759:0.147197 760:-0.533931 761:0.63812 762:0.805268 763:-0.0596713 764:-0.0308813 765:-0.457447 766:0.543838 767:-0.0978658 768:-0.0459487 769:0.192288 770:-0.493883 771:0.144593 772:0.498375 773:0.256374 774:0.165259 775:-0.262757 776:-0.669758 777:-0.468257 778:-0.541985 779:0.643158 780:0.611802 781:-0.0417619 782:-0.164709 783:-0.0740469 784:0.147197 785:-0.533931 786:0.63812 787:0.805268 788:-0.0596713 789:-0.0308813 790:-0.457447 791:0.543838 792:-0.0978658 793:-0.0459487 794:0.192288 795:-0.493883 796:0.144593 797:0.498375 798:0.256374 799:0.165259 800:-0.262757 801:-0.959831 802:0.867642 803:-0.571713 804:-0.105165 805:-0.030359 806:1 807:1 808:-0.4574 809:-0.184391 810:-0.34244 811:-0.394036 812:-0.745715 813:-1 814:0.506061 815:-0.689545 816:0.397969 817:-0.316478 818:0.656455 819:0.0451063 820:-0.489485 821:0.276792 822:0.112507 823:1 824:1 825:-0.395217 826:0.293814 827:1 828:-0.436664 829:-0.277887 830:0.325078 831:0.327554 832:0.185404 833:-0.286487 834:-0.472958 835:-0.179332 836:-0.217248 837:0.960363 838:0.58865 839:-0.203272 840:0.438989 841:0.626729 842:0.142281 843:-1 844:-0.668032 845:0.375388 846:0.0488834 847:-0.366365 848:-0.946017 849:0.0453596 850:0.0332237 851:-0.0235688 852:-0.394056 853:0.192258 854:0.411658 855:-0.25354 856:0.725999 857:0.888423 858:0.47303 859:-0.284014 860:-0.475204 861:0.84281 862:0.724993 863:0.186718 864:-0.990738 865:0.631247 866:-0.587752 867:-0.538283 868:0.793242 869:0.537392 870:0.437847 871:-0.295888 872:-0.851006 873:-0.0951254 874:1 875:0.292452 876:-0.157771 877:0.653271 878:0.865237 879:-0.602004 880:-0.342908 881:-0.493354 882:0.608157 883:1 884:-0.346337 885:0.624754 886:-0.514377 887:1 888:-0.498886 889:-1 890:-0.51271 891:0.878713 892:-0.747031 893:0.174115 894:1 895:-0.383375 896:-1 897:0.879006 898:-1 899:0.494159 900:-1 901:0.865266 902:0.87913 903:0.977162 904:-0.128759 905:0.626782 906:0.120525 907:0.797037 908:0.104482 909:0.457434 910:0.847134 911:-0.991197 912:0.835725 913:-0.718553 914:0.929368 915:-0.684979 916:0.966513 917:-0.633311 918:0.736527 919:-0.839586 920:-0.551696 921:-0.399792 922:-0.660383 923:0.954991 924:-1 925:0.452949 926:-1 927:-0.0353228 928:-0.172737 929:-0.13821 930:1 931:-0.599972 932:-1 933:0.151782 934:0.660824 935:0.58779 936:-1 937:-0.170439 938:0.145764 939:0.841594 940:1 941:0.100032 942:1 943:-0.141876 944:-1 945:0.311791 946:-0.842621 947:-0.0842725 948:0.228083 949:0.462204 950:-0.808275 951:0.640864 952:-0.520129 953:0.979397 954:-0.71855 955:-0.880698 956:-0.511816 957:0.720831 958:0.716268 959:-0.960915 960:-0.468722 961:-0.579865 962:-0.537251 963:0.595939 964:0.981395 965:0.949244 966:-0.324737 967:0.67056 968:-0.786208 969:-0.813064 970:0.313443 971:-0.436562 972:0.83372 973:-0.896299 974:-0.732842 975:-0.758729 976:0.6262 977:-0.371125 978:-0.393211 979:-0.753498 980:-0.169751 981:0.578874 982:-0.300893 983:-1 984:-1 985:0.349285 986:-0.202492 987:-0.287237 988:1 989:-0.940368 990:0.347985 991:0.534505 992:-0.241982 993:-0.308691 994:-0.195046 995:-1 996:-0.134583 997:1 998:1 999:-0.968095 1000:0.0503064 1001:0.542936 1002:-0.410504 1003:0.995921 1004:-0.899593 1005:-0.0244642 1006:-0.297389 1007:0.805085 1008:0.258006 1009:-0.637252 1010:0.145388 1011:-0.0466032 1012:0.55 1013:0.138231 1014:-0.890009 1015:0.611386 1016:-0.922596 1017:-0.710846 1018:-0.00889366 1019:-0.183953 1020:-0.158264 1021:0.546898 1022:0.966142 1023:0.475067 1024:0.0521278 1025:0.704392 1026:0.00187739 1027:-0.189024 1028:1 1029:-1 1030:-0.649157 1031:0.941789 1032:0.172759 1033:0.547209 1034:-0.594831 1035:0.030614 1036:0.578255 1037:0.520209 1038:0.301619 1039:-0.648583 1040:-0.483896 1041:1 1042:0.118617 1043:-0.576452 1044:1 1045:-1 1046:-0.311187 1047:0.942708 1048:-1 1049:-0.528802 1050:-1 1051:-0.29293 1052:-0.145979 1053:0.00348403 1054:-0.847939 1055:-0.0997214 1056:-0.105354 1057:0.333671 1058:0.908917 1059:-0.597107 1060:-0.659969 1061:-0.423973 1062:0.630276 1063:0.256531 1064:0.901931 1065:-0.180583 1066:0.164058 1067:-0.560009 1068:-0.873749 1069:0.216681 1070:0.423762 1071:0.670178 1072:0.369166 1073:0.356106 1074:1 1075:-0.32624 1076:0.31999 1077:0.143918 1078:0.0717368 1079:-1 1080:1 1081:-0.0112474 1082:-0.0901925 1083:0.614926 1084:-0.698239 1085:0.63316 1086:0.477158 1087:-0.808215 1088:0.676898 1089:-0.543661 1090:-0.719934 1091:-1 1092:-0.425343 1093:1 1094:-0.631612 1095:-0.477234 1096:-0.25439 1097:-1 1098:0.341717 1099:-0.852073 1100:-1 1101:-0.263098 1102:0.248537 1103:0.833986 1104:-0.834477 1105:1 1106:0.142494 1107:-0.769625 1108:0.767093 1109:-0.414256 1110:0.204049 1111:0.521101 1112:-0.461612 1113:0.737098 1114:-0.388832 1115:1 1116:-0.885462 1117:-0.215857 1118:0.714187 1119:0.0962829 1120:0.882554 1121:0.250614 1122:0.0304068 1123:0.755721 1124:0.856845 1125:-0.223961 1126:0.713231 1127:-1 1128:1 1129:-1 1130:-1 1131:-1 1132:-1 1133:1 1134:-1 1135:-0.358668 1136:-1 1137:-0.444254 1138:-0.23923 1139:0.486955 1140:0.227943 1141:0.620163 1142:-0.60625 1143:1 1144:1 1145:-0.607058 1146:-1 1147:0.0189427 1148:0.598378 1149:0.589519 1150:0.983497 1151:-0.162473 1152:0.551252 1153:-0.131631 1154:0.584246 1155:-0.231842 1156:1 1157:1 1158:0.187318 1159:-0.351202 1160:0.0292691 1161:0.445973 1162:-0.259422 1163:0.385294 1164:1 1165:-0.0898691 1166:-1 1167:0.171653 1168:0.0887459 1169:-0.511796 1170:0.705781 1171:-0.411635 1172:-0.0722598 1173:0.893418 1174:0.592655 1175:-0.404222 1176:-0.162473 1177:0.551252 1178:-0.131631 1179:0.584246 1180:-0.231842 1181:1 1182:1 1183:0.187318 1184:-0.351202 1185:0.0292691 1186:0.445973 1187:-0.259422 1188:0.385294 1189:1 1190:-0.0898691 1191:-1 1192:0.171653 1193:0.0887459 1194:-0.511796 1195:0.705781 1196:-0.411635 1197:-0.0722598 1198:0.893418 1199:0.592655 1200:-0.404222 1201:-0.961066 1202:-0.0140789 1203:-0.689539 1204:0.964356 1205:0.930941 1206:0.718952 1207:0.52339 1208:0.274691 1209:0.928043 1210:0.629286 1211:0.886684 1212:0.482494 1213:0.476085 1214:0.412409 1215:0.0148497 1216:-0.759511 1217:-0.426618 1218:-0.0554289 1219:-0.104115 1220:-0.544265 1221:-0.0348659 1222:-0.389072 1223:-0.128421 1224:0.620203 1225:-0.276287 1226:-0.272977 1227:-0.0730408 1228:-0.785799 1229:0.589495 1230:-0.133888 1231:0.488695 1232:0.333902 1233:-0.562808 1234:-0.300767 1235:-0.0118434 1236:0.451023 1237:0.500507 1238:0.548403 1239:-0.260832 1240:-0.720262 1241:0.0256214 1242:-0.268223 1243:0.74937 1244:0.591757 1245:0.0638637 1246:-0.222862 1247:-0.215076 1248:-0.143045 1249:0.0156143 1250:0.59586 1251:-0.272977 1252:-0.0730408 1253:-0.785799 1254:0.589495 1255:-0.133888 1256:0.488695 1257:0.333902 1258:-0.562808 1259:-0.300767 1260:-0.0118434 1261:0.451023 1262:0.500507 1263:0.548403 1264:-0.260832 1265:-0.720262 1266:0.0256214 1267:-0.268223 1268:0.74937 1269:0.591757 1270:0.0638637 1271:-0.222862 1272:-0.215076 1273:-0.143045 1274:0.0156143 1275:0.59586 1276:0.883447 1277:0.00267944 1278:0.0386685 1279:-0.21547 1280:0.618449 1281:0.467645 1282:-0.00484494 1283:0.128613 1284:0.0536844 1285:0.636832 1286:-0.194886 1287:-0.0369396 1288:0.879389 1289:-0.0945048 1290:-0.114475 1291:0.799933 1292:0.289162 1293:0.32694 1294:-0.322641 1295:-0.866839 1296:-0.382569 1297:0.0931735 1298:-0.207276 1299:0.67181 1300:-0.168642 1301:0.883447 1302:0.00267944 1303:0.0386685 1304:-0.21547 1305:0.618449 1306:0.467645 1307:-0.00484494 1308:0.128613 1309:0.0536844 1310:0.636832 1311:-0.194886 1312:-0.0369396 1313:0.879389 1314:-0.0945048 1315:-0.114475 1316:0.799933 1317:0.289162 1318:0.32694 1319:-0.322641 1320:-0.866839 1321:-0.382569 1322:0.0931735 1323:-0.207276 1324:0.67181 1325:-0.168642 1326:-0.946575 1327:-0.512106 1328:-0.786721 1329:1 1330:0.966624 1331:0.435577 1332:0.180981 1333:-0.36633 1334:0.508187 1335:0.201062 1336:0.705463 1337:0.0293597 1338:0.180176 1339:-0.182898 1340:-0.125183 1341:-0.262484 1342:0.301774 1343:0.0628702 1344:-0.260732 1345:0.0776065 1346:0.507845 1347:0.150816 1348:-0.0267936 1349:-0.162386 1350:-0.137533 1351:-0.946575 1352:-0.512106 1353:-0.786721 1354:1 1355:0.966624 1356:0.435577 1357:0.180981 1358:-0.36633 1359:0.508187 1360:0.201062 1361:0.705463 1362:0.0293597 1363:0.180176 1364:-0.182898 1365:-0.125183 1366:-0.262484 1367:0.301774 1368:0.0628702 1369:-0.260732 1370:0.0776065 1371:0.507845 1372:0.150816 1373:-0.0267936 1374:-0.162386 1375:-0.137533 1376:0.138052 1377:0.0286836 1378:0.476391 1379:0.361128 1380:0.486361 1381:0.832582 1382:-0.167268 1383:0.546397 1384:-0.320295 1385:0.319774 1386:-0.0540049 1387:-0.00338466 1388:0.109221 1389:1 1390:0.0333691 1391:-0.638217 1392:0.413324 1393:0.0527478 1394:0.000755302 1395:-0.248658 1396:-0.875754 1397:0.744681 1398:-1 1399:-1 1400:0.314217 1401:0.138052 1402:0.0286836 1403:0.476391 1404:0.361128 1405:0.486361 1406:0.832582 1407:-0.167268 1408:0.546397 1409:-0.320295 1410:0.319774 1411:-0.0540049 1412:-0.00338466 1413:0.109221 1414:1 1415:0.0333691 1416:-0.638217 1417:0.413324 1418:0.0527478 1419:0.000755302 1420:-0.248658 1421:-0.875754 1422:0.744681 1423:-1 1424:-1 1425:0.314217 1426:-0.359515 1427:0.265492 1428:0.615832 1429:-0.246409 1430:-0.755125 1431:-0.123183 1432:-0.0643663 1433:-0.0809522 1434:-0.200528 1435:0.515087 1436:-0.46041 1437:0.67377 1438:0.315584 1439:0.24849 1440:-0.698477 1441:0.389439 1442:0.563037 1443:0.684242 1444:0.37066 1445:0.63854 1446:0.229653 1447:1 1448:-0.851978 1449:0.210216 1450:-1 1451:-0.359515 1452:0.265492 1453:0.615832 1454:-0.246409 1455:-0.755125 1456:-0.123183 1457:-0.0643663 1458:-0.0809522 1459:-0.200528 1460:0.515087 1461:-0.46041 1462:0.67377 1463:0.315584 1464:0.24849 1465:-0.698477 1466:0.389439 1467:0.563037 1468:0.684242 1469:0.37066 1470:0.63854 1471:0.229653 1472:1 1473:-0.851978 1474:0.210216 1475:-1 1476:-0.213907 1477:0.0878498 1478:-0.780656 1479:0.019987 1480:-0.398583 1481:0.253633 1482:-0.228601 1483:-0.643514 1484:-0.0939025 1485:0.258875 1486:-0.309804 1487:0.455419 1488:0.198312 1489:-0.363042 1490:0.126469 1491:0.412794 1492:0.409765 1493:0.42902 1494:1 1495:0.391295 1496:0.196636 1497:1 1498:-0.130028 1499:-1 1500:-0.144455 1501:-0.213907 1502:0.0878498 1503:-0.780656 1504:0.019987 1505:-0.398583 1506:0.253633 1507:-0.228601 1508:-0.643514 1509:-0.0939025 1510:0.258875 1511:-0.309804 1512:0.455419 1513:0.198312 1514:-0.363042 1515:0.126469 1516:0.412794 1517:0.409765 1518:0.42902 1519:1 1520:0.391295 1521:0.196636 1522:1 1523:-0.130028 1524:-1 1525:-0.144455 1526:-0.89054 1527:0.739275 1528:-0.863447 1529:0.933961 1530:0.791794 1531:-0.307327 1532:-0.443124 1533:0.48422 1534:0.521147 1535:-0.396797 1536:0.895227 1537:0.723666 1538:-0.862565 1539:-0.768958 1540:0.176226 1541:-0.366598 1542:-0.299226 1543:0.343687 1544:-0.543613 1545:0.615006 1546:0.0828351 1547:-0.273814 1548:0.480346 1549:0.210898 1550:-0.0967339 1551:-0.00815105 1552:-0.0695724 1553:-0.650559 1554:0.240134 1555:0.559638 1556:-0.411883 1557:-0.542802 1558:-0.518719 1559:0.0495763 1560:0.104543 1561:0.510841 1562:0.351536 1563:0.0783052 1564:-0.353672 1565:-0.208047 1566:0.682789 1567:0.624354 1568:0.176665 1569:0.271697 1570:0.0616836 1571:0.306508 1572:1 1573:0.0779707 1574:-0.516934 1575:0.685366 1576:-0.00815105 1577:-0.0695724 1578:-0.650559 1579:0.240134 1580:0.559638 1581:-0.411883 1582:-0.542802 1583:-0.518719 1584:0.0495763 1585:0.104543 1586:0.510841 1587:0.351536 1588:0.0783052 1589:-0.353672 1590:-0.208047 1591:0.682789 1592:0.624354 1593:0.176665 1594:0.271697 1595:0.0616836 1596:0.306508 1597:1 1598:0.0779707 1599:-0.516934 1600:0.685366 1601:-0.13379 1602:-0.499308 1603:0.764857 1604:0.499368 1605:0.940966 1606:0.149292 1607:0.694572 1608:0.362664 1609:-0.229773 1610:0.201249 1611:-0.526152 1612:-0.191794 1613:0.938275 1614:0.171933 1615:-1 1616:-0.526581 1617:0.473815 1618:-0.49566 1619:0.0973936 1620:0.0387927 1621:-0.0971629 1622:-0.137318 1623:-1 1624:-0.591215 1625:-0.199252 1626:0.0172345 1627:0.725998 1628:0.961315 1629:0.645835 1630:-0.32501 1631:0.593309 1632:-0.23284 1633:0.682713 1634:-0.317571 1635:-0.150998 1636:0.312205 1637:0.316592 1638:-0.226907 1639:0.530217 1640:-0.0636875 1641:0.656149 1642:1 1643:-1 1644:-0.482518 1645:0.121895 1646:0.272678 1647:0.0763488 1648:-0.991535 1649:1 1650:0.463999 1651:0.764335 1652:-0.150128 1653:-0.609643 1654:0.825925 1655:0.813119 1656:-0.201622 1657:-0.318371 1658:0.0376057 1659:-0.126446 1660:0.495651 1661:-0.724302 1662:-0.814069 1663:0.151269 1664:0.726474 1665:-0.0212814 1666:0.10714 1667:-0.22119 1668:0.763101 1669:-0.972025 1670:-0.836627 1671:0.211734 1672:-0.378596 1673:0.575074 1674:0.19459 1675:-0.828217 1676:-0.0744717 1677:0.555488 1678:-0.0377733 1679:0.726554 1680:0.643537 1681:0.763174 1682:0.802456 1683:0.598606 1684:-0.711411 1685:-0.0519406 1686:0.480368 1687:0.789531 1688:0.336278 1689:0.287691 1690:0.343199 1691:-0.171268 1692:-0.341269 1693:-0.310653 1694:1 1695:0.886619 1696:-0.196688 1697:-0.129553 1698:0.0759955 1699:-0.110002 1700:-0.460955 1701:0.762447 1702:0.00244315 1703:0.639705 1704:0.52915 1705:0.0349442 1706:-0.561953 1707:0.922068 1708:0.840885 1709:-0.791186 1710:-0.519438 1711:0.419858 1712:0.436665 1713:0.626202 1714:-0.793559 1715:0.281487 1716:-0.450113 1717:-0.589025 1718:0.816048 1719:-0.456518 1720:0.303618 1721:-0.55759 1722:-0.540763 1723:-0.728662 1724:0.39014 1725:-0.583707 1726:0.488321 1727:0.150504 1728:-0.32901 1729:-0.735983 1730:0.237162 1731:0.336754 1732:0.816824 1733:0.456287 1734:0.0909837 1735:-0.231371 1736:-0.358792 1737:-0.00212932 1738:0.034318 1739:0.582747 1740:-0.751276 1741:-0.669457 1742:0.80218 1743:-0.392802 1744:-0.354873 1745:0.727821 1746:0.430041 1747:0.42042 1748:-0.844669 1749:-1 1750:0.274062 1751:0.554523 1752:0.360478 1753:0.225896 1754:-0.152484 1755:0.589824 1756:0.418174 1757:0.843655 1758:0.0898127 1759:0.193657 1760:-0.30563 1761:-0.936606 1762:-0.0194689 1763:-0.193085 1764:-0.506261 1765:-0.687179 1766:-0.13862 1767:-0.278896 1768:0.928988 1769:0.244307 1770:-1 1771:0.355421 1772:-0.0314784 1773:0.381692 1774:-0.548011 1775:-0.389318 1776:0.861445 1777:-0.758156 1778:-0.147422 1779:-0.357759 1780:-0.407391 1781:0.221584 1782:0.885267 1783:0.110185 1784:0.6068 1785:0.879454 1786:-0.994678 1787:-1 1788:0.810287 1789:0.394786 1790:-0.351164 1791:-0.0190736 1792:-0.303469 1793:0.929501 1794:0.729797 1795:-0.851343 1796:0.650914 1797:-0.803749 1798:0.142011 1799:0.611661 1800:-0.546086 1801:0.284831 1802:-0.835108 1803:-0.879928 1804:-0.054055 1805:0.965728 1806:1 1807:0.373029 1808:-0.69439 1809:-0.442942 1810:1 1811:0.187562 1812:0.208067 1813:0.478907 1814:0.262813 1815:0.0214955 1816:0.479583 1817:0.0748531 1818:-0.606825 1819:1 1820:0.821507 1821:-0.153467 1822:-0.876155 1823:-0.0229718 1824:-1 1825:-0.718457 1826:-1 1827:-0.311801 1828:0.383984 1829:0.953131 1830:-0.142201 1831:0.209987 1832:1 1833:0.837327 1834:0.00778506 1835:0.697852 1836:-0.919736 1837:1 1838:0.160659 1839:-0.313484 1840:-0.808887 1841:-0.464532 1842:0.727022 1843:0.00657027 1844:-0.638919 1845:-0.667421 1846:-0.955927 1847:-1 1848:0.295595 1849:-1 1850:1 1851:-0.0199667 1852:-0.366567 1853:0.0964481 1854:0.297344 1855:-0.0954252 1856:-0.837021 1857:0.637013 1858:-0.0238661 1859:0.72377 1860:0.665728 1861:-0.955178 1862:0.102731 1863:0.13588 1864:0.244427 1865:0.11942 1866:0.0949293 1867:-0.284236 1868:0.642995 1869:-0.65477 1870:0.029022 1871:-0.0350082 1872:-0.0644821 1873:-0.374664 1874:0.020817 1875:-0.110555 1876:1 1877:-0.0965493 1878:-0.312417 1879:-0.703694 1880:-0.53689 1881:0.811719 1882:-1 1883:-1 1884:-0.893746 1885:0.913894 1886:0.800666 1887:-0.377313 1888:1 1889:-0.605664 1890:-0.58254 1891:0.328266 1892:-0.213932 1893:-0.61707 1894:-0.195286 1895:-0.781157 1896:0.620873 1897:-0.303246 1898:0.916917 1899:0.52872 1900:-0.726685 1901:0.876353 1902:0.917219 1903:0.968017 1904:-0.792902 1905:-0.292876 1906:-0.615087 1907:-0.0492911 1908:0.161976 1909:-0.877584 1910:0.450875 1911:-0.980855 1912:-0.0593391 1913:0.82744 1914:0.87121 1915:0.379768 1916:0.776777 1917:-0.652113 1918:0.465525 1919:0.813055 1920:-0.791861 1921:0.694986 1922:-0.430705 1923:-0.618017 1924:0.723388 1925:-0.591193 1926:-0.521578 1927:0.446578 1928:1 1929:-1 1930:0.620926 1931:1 1932:-0.341147 1933:1 1934:-0.739291 1935:-1 1936:0.892362 1937:-0.109759 1938:0.153361 1939:0.390779 1940:0.893912 1941:0.392208 1942:-1 1943:1 1944:1 1945:-0.388251 1946:-1 1947:-0.565936 1948:0.299366 1949:1 1950:-1 1951:0.863568 1952:-1 1953:0.413289 1954:0.489726 1955:0.240957 1956:-0.536743 1957:0.991013 1958:-0.0186765 1959:0.216968 1960:0.792889 1961:-0.795538 1962:0.406669 1963:1 1964:0.312925 1965:-0.473371 1966:1 1967:-0.612762 1968:-0.285755 1969:-0.792951 1970:-1 1971:0.291406 1972:0.53373 1973:0.266051 1974:-0.631737 1975:0.572022 1976:0.0484497 1977:-0.942627 1978:-0.844472 1979:0.876309 1980:0.850339 1981:0.656369 1982:0.763608 1983:0.110277 1984:0.270244 1985:-0.137476 1986:0.904533 1987:-0.0540529 1988:0.623245 1989:0.647272 1990:0.343418 1991:-0.794023 1992:0.006752 1993:-0.439859 1994:0.461417 1995:-0.494648 1996:-0.236376 1997:0.513469 1998:-0.942915 1999:-0.345334 2000:0.328067 2001:0.716111 2002:0.904919 2003:0.997821 2004:-0.990339 2005:-0.200169 2006:-0.750456 2007:0.890874 2008:-0.0514011 2009:-0.793249 2010:0.949292 2011:-0.99375 2012:0.847611 2013:-0.692222 2014:0.149022 2015:-0.93777 2016:0.765233 2017:-0.909498 2018:-0.963518 2019:0.485802 2020:-0.735807 2021:0.392379 2022:0.966478 2023:0.7177 2024:0.507034 2025:0.296124 2026:-0.478079 2027:-0.984139 2028:1 2029:-0.0163398 2030:-0.0280804 2031:-0.755777 2032:0.297845 2033:0.771874 2034:0.286924 2035:1 2036:1 2037:0.508665 2038:0.750972 2039:0.413275 2040:-0.0374374 2041:-0.569129 2042:0.556573 2043:-0.649711 2044:0.708186 2045:1 2046:-0.428468 2047:0.682467 2048:1 2049:-0.108751 2050:-0.733464 2051:-0.415159 2052:-0.461675 2053:-0.0977065 2054:-0.381558 2055:1 2056:0.0102126 2057:0.0104551 2058:1 2059:0.34177 2060:0.0404728 2061:0.774186 2062:-0.438236 2063:-1 2064:-0.463286 2065:-0.401979 2066:-0.148835 2067:-0.449976 2068:-0.281609 2069:-1 2070:-0.118155 2071:-0.404484 2072:-1 2073:-0.949025 2074:0.0257558 2075:0.860909 2076:-0.660764 2077:0.849466 2078:0.817357 2079:0.904223 2080:0.818409 2081:-0.0222557 2082:-0.042584 2083:-0.412412 2084:0.352528 2085:-0.804797 2086:-0.757285 2087:-0.330878 2088:-0.935179 2089:-0.505514 2090:-0.362992 2091:-0.147367 2092:-0.349425 2093:0.303426 2094:-0.719378 2095:0.068113 2096:-0.424453 2097:0.0357867 2098:0.506149 2099:-0.892557 2100:-0.542989 2101:0.87729 2102:-0.378973 2103:0.0182955 2104:0.781553 2105:0.651336 2106:0.3673 2107:-0.178913 2108:-0.757491 2109:0.481825 2110:-0.609365 2111:0.457239 2112:-0.791347 2113:-0.0902054 2114:0.766403 2115:0.663585 2116:-0.6687 2117:0.182651 2118:-0.490817 2119:-0.451253 2120:-0.153586 2121:0.456864 2122:0.540476 2123:-0.919959 2124:-0.940132 2125:0.42482 2126:-0.566635 2127:-0.162838 2128:-0.738077 2129:0.643904 2130:-0.172631 2131:0.529374 2132:0.616244 2133:-0.602598 2134:-0.163732 2135:0.398031 2136:0.357692 2137:0.540532 2138:0.629903 2139:-0.119461 2140:-0.422439 2141:-0.152374 2142:-0.246136 2143:0.0837382 2144:-0.353964 2145:0.103104 2146:0.271602 2147:0.292806 2148:-0.0813541 2149:-0.115462 2150:0.570879 2151:0.327211 2152:-1 2153:-0.470309 2154:-1 2155:0.209863 2156:1 2157:1 2158:-1 2159:1 2160:-0.54038 2161:-0.300446 2162:-0.970004 2163:0.389764 2164:-0.399882 2165:-0.00159578 2166:-0.79981 2167:-0.128131 2168:1 2169:0.177502 2170:-1 2171:1 2172:-1 2173:0.740541 2174:-0.108028 2175:0.335411 2176:1 2177:1 2178:-0.0330842 2179:0.140214 2180:-0.676536 2181:0.171405 2182:0.109866 2183:-0.918284 2184:-1 2185:0.919676 2186:-0.368059 2187:-0.688548 2188:0.743532 2189:-0.572111 2190:-0.0935412 2191:-0.5732 2192:-0.0694998 2193:0.899721 2194:0.600089 2195:-1 2196:-0.36953 2197:0.0922972 2198:1 2199:0.99368 2200:-0.622256 2201:-0.272302 2202:1 2203:-0.162227 2204:1 2205:-0.0189815 2206:-0.514028 2207:-0.422253 2208:1 2209:0.543782 2210:1 2211:0.17234 2212:-0.734584 2213:-0.303337 2214:1 2215:0.443153 2216:1 2217:1 2218:0.610752 2219:-1 2220:-0.422697 2221:1 2222:-1 2223:0.378924 2224:1 2225:-0.891535 2226:0.984747 2227:-0.80269 2228:-0.761212 2229:-0.556509 2230:0.683977 2231:-0.195904 2232:-0.844807 2233:0.459307 2234:-0.597248 2235:-0.649877 2236:1 2237:-1 2238:0.0590445 2239:1 2240:0.707017 2241:-0.0203473 2242:-0.242349 2243:-0.0789556 2244:0.765101 2245:1 2246:-0.108065 2247:0.941361 2248:0.805941 2249:-0.284065 2250:-1 2251:0.238676 2252:-0.279919 2253:-0.00683655 2254:0.146195 2255:0.47535 2256:-0.235083 2257:-0.244615 2258:0.471496 2259:-0.481043 2260:0.671129 2261:-0.251303 2262:-0.14144 2263:-0.434013 2264:0.313894 2265:0.58469 2266:-0.747514 2267:0.46505 2268:-0.281303 2269:-0.715354 2270:-0.446796 2271:0.479539 2272:-0.800136 2273:-0.406621 2274:-0.0959199 2275:1 2276:0.238676 2277:-0.279919 2278:-0.00683655 2279:0.146195 2280:0.47535 2281:-0.235083 2282:-0.244615 2283:0.471496 2284:-0.481043 2285:0.671129 2286:-0.251303 2287:-0.14144 2288:-0.434013 2289:0.313894 2290:0.58469 2291:-0.747514 2292:0.46505 2293:-0.281303 2294:-0.715354 2295:-0.446796 2296:0.479539 2297:-0.800136 2298:-0.406621 2299:-0.0959199 2300:1 2301:-0.974295 2302:-0.534258 2303:-0.944889 2304:0.13497 2305:0.759797 2306:0.634179 2307:0.804866 2308:0.10451 2309:0.656759 2310:-0.0867794 2311:0.880054 2312:0.693059 2313:-0.609736 2314:0.11366 2315:0.508382 2316:0.164759 2317:-0.430025 2318:0.666802 2319:0.51481 2320:-0.0436494 2321:-0.707014 2322:-0.096011 2323:0.292777 2324:0.298815 2325:0.877684 2326:-0.974295 2327:-0.534258 2328:-0.944889 2329:0.13497 2330:0.759797 2331:0.634179 2332:0.804866 2333:0.10451 2334:0.656759 2335:-0.0867794 2336:0.880054 2337:0.693059 2338:-0.609736 2339:0.11366 2340:0.508382 2341:0.164759 2342:-0.430025 2343:0.666802 2344:0.51481 2345:-0.0436494 2346:-0.707014 2347:-0.096011 2348:0.292777 2349:0.298815 2350:0.877684 2351:0.50803 2352:0.515863 2353:0.126044 2354:0.137877 2355:-0.565581 2356:-0.297486 2357:-0.107629 2358:-0.485466 2359:-0.858839 2360:-0.3062 2361:-0.427864 2362:-0.00857868 2363:-0.464905 2364:-0.765046 2365:0.2358 2366:1 2367:0.445878 2368:-0.387186 2369:-0.852576 2370:1 2371:1 2372:-0.606599 2373:-0.457213 2374:0.00681065 2375:0.0653807 2376:1 2377:0.86137 2378:-0.723908 2379:-0.33993 2380:-0.841026 2381:0.234202 2382:-0.368256 2383:-0.765837 2384:-0.424516 2385:-0.536075 2386:0.491163 2387:0.202141 2388:-0.971566 2389:0.229977 2390:0.586765 2391:-0.248254 2392:-0.46332 2393:-0.421387 2394:0.581039 2395:0.552835 2396:-0.542715 2397:0.169978 2398:-0.749411 2399:-0.982124 2400:1 2401:1 2402:0.86137 2403:-0.723908 2404:-0.33993 2405:-0.841026 2406:0.234202 2407:-0.368256 2408:-0.765837 2409:-0.424516 2410:-0.536075 2411:0.491163 2412:0.202141 2413:-0.971566 2414:0.229977 2415:0.586765 2416:-0.248254 2417:-0.46332 2418:-0.421387 2419:0.581039 2420:0.552835 2421:-0.542715 2422:0.169978 2423:-0.749411 2424:-0.982124 2425:1 2426:-0.6832 2427:-0.641279 2428:-1 2429:-0.389109 2430:-0.211151 2431:-0.949043 2432:-0.736799 2433:-0.739277 2434:-0.441753 2435:1 2436:-0.197914 2437:-0.302432 2438:0.0482105 2439:0.293236 2440:0.107854 2441:-0.248663 2442:0.137053 2443:0.723202 2444:-0.925684 2445:-1 2446:-0.607395 2447:0.153733 2448:0.773232 2449:-0.174383 2450:0.368289 2451:0.0966681 2452:0.677545 2453:0.874382 2454:0.690034 2455:-0.609141 2456:0.68838 2457:0.347505 2458:-0.667502 2459:0.615119 2460:-0.863108 2461:0.784136 2462:-0.388714 2463:0.515191 2464:0.375239 2465:-0.29528 2466:-0.611599 2467:-0.511622 2468:0.0837223 2469:0.321347 2470:0.221426 2471:-0.435369 2472:-0.0878771 2473:-0.1092 2474:0.521123 2475:0.0236125 2476:0.964726 2477:-0.790578 2478:1 2479:0.806043 2480:-0.364885 2481:1 2482:-0.269847 2483:-0.650594 2484:0.87928 2485:1 2486:-0.858781 2487:-0.811678 2488:0.0909591 2489:-1 2490:0.185355 2491:-0.190399 2492:-0.531901 2493:-1 2494:1 2495:-1 2496:0.118075 2497:1 2498:-0.864953 2499:-1 2500:0.371699 2501:0.962035 2502:0.561048 2503:-0.887573 2504:-0.90103 2505:0.377662 2506:-0.0162619 2507:0.354491 2508:0.668188 2509:0.495879 2510:0.188203 2511:-0.877549 2512:-0.667449 2513:-0.927767 2514:-0.621477 2515:0.525429 2516:0.676511 2517:0.570373 2518:-0.304958 2519:-0.00480288 2520:0.284486 2521:0.942458 2522:0.0822116 2523:-0.741076 2524:0.44832 2525:0.518216 2526:0.962035 2527:0.561048 2528:-0.887573 2529:-0.90103 2530:0.377662 2531:-0.0162619 2532:0.354491 2533:0.668188 2534:0.495879 2535:0.188203 2536:-0.877549 2537:-0.667449 2538:-0.927767 2539:-0.621477 2540:0.525429 2541:0.676511 2542:0.570373 2543:-0.304958 2544:-0.00480288 2545:0.284486 2546:0.942458 2547:0.0822116 2548:-0.741076 2549:0.44832 2550:0.518216 2551:0.869063 2552:-0.401372 2553:-0.902728 2554:0.652225 2555:0.243098 2556:-0.0150469 2557:0.177543 2558:0.577837 2559:-0.113482 2560:0.0839313 2561:1 2562:-0.0393924 2563:-0.111073 2564:-0.214876 2565:-1 2566:-0.824764 2567:-0.54497 2568:0.427631 2569:-0.606001 2570:-0.0878314 2571:0.500816 2572:0.0724943 2573:0.826384 2574:-0.0980779 2575:-0.475271 2576:0.869063 2577:-0.401372 2578:-0.902728 2579:0.652225 2580:0.243098 2581:-0.0150469 2582:0.177543 2583:0.577837 2584:-0.113482 2585:0.0839313 2586:1 2587:-0.0393924 2588:-0.111073 2589:-0.214876 2590:-1 2591:-0.824764 2592:-0.54497 2593:0.427631 2594:-0.606001 2595:-0.0878314 2596:0.500816 2597:0.0724943 2598:0.826384 2599:-0.0980779 2600:-0.475271 2601:-0.458272 2602:-0.185943 2603:0.482452 2604:-0.0605429 2605:-0.473042 2606:0.0732195 2607:0.234636 2608:0.552309 2609:-0.319448 2610:0.0567248 2611:-0.176752 2612:1 2613:0.0515108 2614:1 2615:-0.584612 2616:-0.623048 2617:-0.677633 2618:0.0960488 2619:-0.322446 2620:1 2621:-1 2622:0.235014 2623:1 2624:-0.531063 2625:-0.713764 2626:-0.458272 2627:-0.185943 2628:0.482452 2629:-0.0605429 2630:-0.473042 2631:0.0732195 2632:0.234636 2633:0.552309 2634:-0.319448 2635:0.0567248 2636:-0.176752 2637:1 2638:0.0515108 2639:1 2640:-0.584612 2641:-0.623048 2642:-0.677633 2643:0.0960488 2644:-0.322446 2645:1 2646:-1 2647:0.235014 2648:1 2649:-0.531063 2650:-0.713764 2651:-0.837846 2652:-0.0524265 2653:0.0434701 2654:0.205797 2655:0.7587 2656:-1 2657:0.221585 2658:-0.279404 2659:1 2660:1 2661:-0.74257 2662:0.52051 2663:0.818094 2664:1 2665:-1 2666:-1 2667:-0.859028 2668:-1 2669:-0.1459 2670:1 2671:1 2672:-0.295706 2673:0.404495 2674:0.215534 2675:0.917133 2676:-0.837846 2677:-0.0524265 2678:0.0434701 2679:0.205797 2680:0.7587 2681:-1 2682:0.221585 2683:-0.279404 2684:1 2685:1 2686:-0.74257 2687:0.52051 2688:0.818094 2689:1 2690:-1 2691:-1 2692:-0.859028 2693:-1 2694:-0.1459 2695:1 2696:1 2697:-0.295706 2698:0.404495 2699:0.215534 2700:0.917133 2701:0.856999 2702:-0.832957 2703:-0.525226 2704:0.700969 2705:0.534962 2706:-0.393209 2707:-0.560155 2708:0.862893 2709:-0.633545 2710:-0.880442 2711:-0.232254 2712:0.195083 2713:-0.355456 2714:-0.363352 2715:0.485658 2716:-0.070477 2717:0.264001 2718:-0.0530807 2719:-0.473239 2720:0.0934828 2721:-0.287159 2722:0.628993 2723:-0.469933 2724:0.202945 2725:0.155685 2726:0.856999 2727:-0.832957 2728:-0.525226 2729:0.700969 2730:0.534962 2731:-0.393209 2732:-0.560155 2733:0.862893 2734:-0.633545 2735:-0.880442 2736:-0.232254 2737:0.195083 2738:-0.355456 2739:-0.363352 2740:0.485658 2741:-0.070477 2742:0.264001 2743:-0.0530807 2744:-0.473239 2745:0.0934828 2746:-0.287159 2747:0.628993 2748:-0.469933 2749:0.202945 2750:0.155685 2751:0.345857 2752:0.304605 2753:-0.341593 2754:0.131057 2755:-0.847364 2756:-0.17376 2757:-0.0939424 2758:-0.469468 2759:-0.243468 2760:-0.472459 2761:-0.500988 2762:-0.392275 2763:-0.925461 2764:-0.524967 2765:0.0139671 2766:-0.623995 2767:-0.497347 2768:-0.977604 2769:0.170434 2770:0.651106 2771:1 2772:-0.291253 2773:-0.230421 2774:0.106324 2775:-0.0425591 2776:0.345857 2777:0.304605 2778:-0.341593 2779:0.131057 2780:-0.847364 2781:-0.17376 2782:-0.0939424 2783:-0.469468 2784:-0.243468 2785:-0.472459 2786:-0.500988 2787:-0.392275 2788:-0.925461 2789:-0.524967 2790:0.0139671 2791:-0.623995 2792:-0.497347 2793:-0.977604 2794:0.170434 2795:0.651106 2796:1 2797:-0.291253 2798:-0.230421 2799:0.106324 2800:-0.0425591 2801:0.962042 2802:-0.0867765 2803:-0.0205533 2804:-0.699693 2805:0.255162 2806:0.96304 2807:-0.845005 2808:0.683885 2809:-0.789123 2810:0.947365 2811:-0.965337 2812:0.374035 2813:0.305339 2814:0.364527 2815:0.931159 2816:-0.524005 2817:0.694785 2818:-0.573894 2819:0.6839 2820:0.400962 2821:0.0345276 2822:-0.923111 2823:0.408394 2824:0.686706 2825:-0.793481 2826:0.962042 2827:-0.0867765 2828:-0.0205533 2829:-0.699693 2830:0.255162 2831:0.96304 2832:-0.845005 2833:0.683885 2834:-0.789123 2835:0.947365 2836:-0.965337 2837:0.374035 2838:0.305339 2839:0.364527 2840:0.931159 2841:-0.524005 2842:0.694785 2843:-0.573894 2844:0.6839 2845:0.400962 2846:0.0345276 2847:-0.923111 2848:0.408394 2849:0.686706 2850:-0.793481 2851:0.195194 2852:0.260569 2853:-0.0948886 2854:0.925186 2855:-0.776374 2856:-0.285508 2857:0.356013 2858:-0.71557 2859:-1 2860:-0.365089 2861:-0.493688 2862:0.11511 2863:0.635611 2864:0.0103094 2865:-0.355943 2866:0.285946 2867:0.524495 2868:0.5736 2869:0.501395 2870:-0.66936 2871:0.112522 2872:-0.449751 2873:-0.587817 2874:0.176633 2875:-0.438678 2876:0.195194 2877:0.260569 2878:-0.0948886 2879:0.925186 2880:-0.776374 2881:-0.285508 2882:0.356013 2883:-0.71557 2884:-1 2885:-0.365089 2886:-0.493688 2887:0.11511 2888:0.635611 2889:0.0103094 2890:-0.355943 2891:0.285946 2892:0.524495 2893:0.5736 2894:0.501395 2895:-0.66936 2896:0.112522 2897:-0.449751 2898:-0.587817 2899:0.176633 2900:-0.438678 2901:-0.904695 2902:-0.000139841 2903:-0.0585147 2904:0.968529 2905:-0.103266 2906:0.6052 2907:0.590857 2908:0.182505 2909:0.835153 2910:-0.446394 2911:0.933917 2912:0.753372 2913:-0.600111 2914:-0.223527 2915:-0.251263 2916:-0.199643 2917:-0.771722 2918:0.321982 2919:-0.19584 2920:-0.169892 2921:0.421612 2922:0.601379 2923:0.94039 2924:0.68703 2925:0.483627 2926:-0.904695 2927:-0.000139841 2928:-0.0585147 2929:0.968529 2930:-0.103266 2931:0.6052 2932:0.590857 2933:0.182505 2934:0.835153 2935:-0.446394 2936:0.933917 2937:0.753372 2938:-0.600111 2939:-0.223527 2940:-0.251263 2941:-0.199643 2942:-0.771722 2943:0.321982 2944:-0.19584 2945:-0.169892 2946:0.421612 2947:0.601379 2948:0.94039 2949:0.68703 2950:0.483627 2951:-0.926125 2952:-0.813938 2953:0.313818 2954:0.604819 2955:0.618904 2956:-0.707031 2957:0.598637 2958:0.31159 2959:0.0942877 2960:-0.276151 2961:0.924524 2962:0.898696 2963:0.47611 2964:0.635167 2965:0.122559 2966:-0.790253 2967:0.435315 2968:0.251593 2969:0.121256 2970:0.12911 2971:-0.547904 2972:0.161799 2973:0.305529 2974:0.497384 2975:-0.281143 2976:-0.926125 2977:-0.813938 2978:0.313818 2979:0.604819 2980:0.618904 2981:-0.707031 2982:0.598637 2983:0.31159 2984:0.0942877 2985:-0.276151 2986:0.924524 2987:0.898696 2988:0.47611 2989:0.635167 2990:0.122559 2991:-0.790253 2992:0.435315 2993:0.251593 2994:0.121256 2995:0.12911 2996:-0.547904 2997:0.161799 2998:0.305529 2999:0.497384 3000:-0.281143 3001:0.180407 3002:-0.845607 3003:0.953681 3004:-0.939627 3005:-0.93524 3006:-0.910562 3007:0.0654344 3008:-0.316795 3009:-0.750351 3010:0.0865933 3011:-0.107905 3012:0.563481 3013:-0.603838 3014:0.896313 3015:-0.257776 3016:0.262113 3017:-0.999975 3018:-0.786922 3019:0.706128 3020:-0.463274 3021:-0.733531 3022:0.506231 3023:0.49015 3024:-0.494647 3025:0.551238 3026:0.180407 3027:-0.845607 3028:0.953681 3029:-0.939627 3030:-0.93524 3031:-0.910562 3032:0.0654344 3033:-0.316795 3034:-0.750351 3035:0.0865933 3036:-0.107905 3037:0.563481 3038:-0.603838 3039:0.896313 3040:-0.257776 3041:0.262113 3042:-0.999975 3043:-0.786922 3044:0.706128 3045:-0.463274 3046:-0.733531 3047:0.506231 3048:0.49015 3049:-0.494647 3050:0.551238 3051:0.249916 3052:0.214643 3053:-0.487498 3054:0.557306 3055:-1 3056:-0.231328 3057:-0.209654 3058:-0.8501 3059:-0.552228 3060:-0.0878396 3061:-0.511438 3062:0.162634 3063:0.917284 3064:0.0613311 3065:-0.733003 3066:0.36201 3067:0.0711367 3068:-0.0358553 3069:-0.00942195 3070:0.551097 3071:0.507276 3072:0.2873 3073:-0.187001 3074:-0.727969 3075:0.131957 3076:-0.81119 3077:-0.783012 3078:-0.638118 3079:0.575732 3080:0.509345 3081:0.29921 3082:0.188403 3083:-0.0953504 3084:0.324599 3085:0.0955885 3086:0.528906 3087:0.463677 3088:0.218117 3089:0.177835 3090:0.584497 3091:-0.444884 3092:-0.0418463 3093:-0.18482 3094:-0.352951 3095:-0.404444 3096:-0.299858 3097:0.106144 3098:0.383194 3099:-0.16859 3100:-0.361904 3101:-0.81119 3102:-0.783012 3103:-0.638118 3104:0.575732 3105:0.509345 3106:0.29921 3107:0.188403 3108:-0.0953504 3109:0.324599 3110:0.0955885 3111:0.528906 3112:0.463677 3113:0.218117 3114:0.177835 3115:0.584497 3116:-0.444884 3117:-0.0418463 3118:-0.18482 3119:-0.352951 3120:-0.404444 3121:-0.299858 3122:0.106144 3123:0.383194 3124:-0.16859 3125:-0.361904 3126:-0.419806 3127:-0.625255 3128:-0.887981 3129:0.291215 3130:0.694503 3131:-0.707881 3132:-0.568979 3133:0.299493 3134:0.314349 3135:0.0719375 3136:0.845423 3137:0.706147 3138:-0.798031 3139:-1 3140:0.0222373 3141:-0.456031 3142:0.345786 3143:0.209411 3144:-0.107741 3145:-0.445936 3146:0.719383 3147:-0.641741 3148:-0.355269 3149:0.137253 3150:0.47791 3151:-0.419806 3152:-0.625255 3153:-0.887981 3154:0.291215 3155:0.694503 3156:-0.707881 3157:-0.568979 3158:0.299493 3159:0.314349 3160:0.0719375 3161:0.845423 3162:0.706147 3163:-0.798031 3164:-1 3165:0.0222373 3166:-0.456031 3167:0.345786 3168:0.209411 3169:-0.107741 3170:-0.445936 3171:0.719383 3172:-0.641741 3173:-0.355269 3174:0.137253 3175:0.47791 3176:-0.650951 3177:-0.322607 3178:-0.224187 3179:0.521034 3180:0.608298 3181:0.584977 3182:0.548568 3183:0.692404 3184:0.235126 3185:0.438531 3186:0.958462 3187:0.0455299 3188:0.00429995 3189:0.69627 3190:-0.688652 3191:-0.270269 3192:0.829216 3193:0.33438 3194:-0.589143 3195:0.370697 3196:0.421 3197:-0.415515 3198:0.544598 3199:0.0773057 3200:-0.63655 
0.0009765625 1:-0.974923 2:0.975871 3:-0.539238 4:0.93187 5:0.947934 6:-0.0722763 7:0.392998 8:-0.686552 9:0.947801 10:0.115641 11:-0.0254677 12:0.706415 13:-0.886184 14:-0.936887 15:-0.348997 16:0.325751 17:-0.90822 18:0.398221 19:-0.559605 20:0.415317 21:0.965619 22:-0.817094 23:0.961113 24:0.776606 25:-0.389041 26:-0.999648 27:-0.00613839 28:-0.117769 29:0.98159 30:0.904543 31:0.976725 32:0.966251 33:0.857143 34:0.97319 35:0.353336 36:0.98689 37:0.244461 38:-0.0727255 39:0.856078 40:0.0893964 41:-0.602977 42:-0.43805 43:0.920357 44:0.322732 45:-0.191932 46:-0.00854663 47:0.555513 48:0.419286 49:0.682085 50:0.880903 51:-0.999648 52:-0.00613839 53:-0.117769 54:0.98159 55:0.904543 56:0.976725 57:0.966251 58:0.857143 59:0.97319 60:0.353336 61:0.98689 62:0.244461 63:-0.0727255 64:0.856078 65:0.0893964 66:-0.602977 67:-0.43805 68:0.920357 69:0.322732 70:-0.191932 71:-0.00854663 72:0.555513 73:0.419286 74:0.682085 75:0.880903 76:0.730752 77:0.347497 78:-0.304484 79:0.611403 80:-0.0648574 81:-0.341359 82:0.546007 83:0.208604 84:0.858953 85:-0.533181 86:-0.469735 87:0.382718 88:-0.387737 89:0.325942 90:0.0101558 91:0.92889 92:-0.402859 93:-0.156682 94:-0.125178 95:-0.427555 96:0.370296 97:0.469443 98:0.864043 99:-0.765734 100:-0.94689 101:-0.869868 102:0.432441 103:0.233033 104:0.996306 105:0.892415 106:0.230837 107:0.950008 108:0.724108 109:0.837572 110:0.0374273 111:1 112:0.77743 113:-0.878029 114:0.98722 115:0.961441 116:0.908501 117:0.324616 118:0.629178 119:0.485703 120:0.670121 121:0.297519 122:-0.521657 123:0.701469 124:0.777633 125:-0.693098 126:0.829881 127:0.618469 128:-0.636307 129:-0.984915 130:0.590163 131:-0.0368116 132:-0.190949 133:0.248514 134:0.766566 135:0.622523 136:-0.878307 137:-0.220253 138:-0.0210684 139:-0.354536 140:0.633902 141:0.599941 142:-0.373577 143:0.281933 144:-0.373479 145:-0.215505 146:0.096419 147:0.364738 148:0.669067 149:-0.0667009 150:0.0252463 151:0.829881 152:0.618469 153:-0.636307 154:-0.984915 155:0.590163 156:-0.0368116 157:-0.190949 158:0.248514 159:0.766566 160:0.622523 161:-0.878307 162:-0.220253 163:-0.0210684 164:-0.354536 165:0.633902 166:0.599941 167:-0.373577 168:0.281933 169:-0.373479 170:-0.215505 171:0.096419 172:0.364738 173:0.669067 174:-0.0667009 175:0.0252463 176:-0.690517 177:0.799573 178:-1 179:0.386764 180:0.140676 181:-0.0596505 182:-0.2796 183:-1 184:-0.436924 185:-1 186:1 187:0.859135 188:1 189:-0.875997 190:-0.21731 191:-1 192:1 193:1 194:-0.34291 195:-0.400008 196:1 197:-0.087641 198:0.197463 199:-0.538632 200:1 201:0.325732 202:-0.874184 203:-0.44745 204:-1 205:1 206:0.25746 207:-0.175698 208:-0.0430554 209:1 210:-0.279526 211:1 212:-0.0826419 213:0.460359 214:-0.934591 215:-1 216:-0.699773 217:0.889248 218:0.239317 219:-1 220:-0.239716 221:-0.196622 222:-0.00656993 223:-0.66244 224:-0.739062 225:1 226:-0.82309 227:0.942519 228:0.933954 229:0.988916 230:0.567886 231:-0.132638 232:-0.587389 233:0.033257 234:0.779272 235:0.0332788 236:0.143918 237:0.631369 238:-0.902063 239:-0.672662 240:-0.122278 241:0.77019 242:0.0755711 243:-0.406085 244:-0.800027 245:0.837387 246:0.399698 247:-0.698561 248:0.997729 249:-0.627472 250:-0.781332 251:-0.0820273 252:0.479448 253:0.278468 254:0.252647 255:0.474341 256:-0.489894 257:0.330259 258:0.249966 259:-0.507937 260:-0.0570752 261:-0.0424876 262:0.791061 263:0.195781 264:-0.287404 265:0.630821 266:0.595972 267:-0.553837 268:-0.466267 269:-0.128422 270:-0.534723 271:-0.274684 272:-0.0985731 273:0.576501 274:0.395492 275:-0.0740466 276:0.21002 277:-0.527932 278:-1 279:-0.227291 280:0.824048 281:0.89807 282:0.800772 283:-0.86906 284:-0.0286682 285:0.587151 286:-0.404005 287:0.227166 288:0.859765 289:0.387722 290:-0.0435822 291:-0.124296 292:0.632551 293:-0.63381 294:0.557094 295:-0.817401 296:-0.157395 297:0.861584 298:-0.378504 299:0.626736 300:0.79516 301:0.21002 302:-0.527932 303:-1 304:-0.227291 305:0.824048 306:0.89807 307:0.800772 308:-0.86906 309:-0.0286682 310:0.587151 311:-0.404005 312:0.227166 313:0.859765 314:0.387722 315:-0.0435822 316:-0.124296 317:0.632551 318:-0.63381 319:0.557094 320:-0.817401 321:-0.157395 322:0.861584 323:-0.378504 324:0.626736 325:0.79516 326:-0.990262 327:0.0881868 328:-0.661627 329:0.99599 330:0.961267 331:0.89226 332:0.969209 333:-0.437903 334:0.686355 335:-0.0442971 336:0.977186 337:0.951643 338:0.718531 339:-0.757136 340:0.811721 341:0.806038 342:-0.33185 343:0.379693 344:-0.603063 345:-0.85464 346:-0.551163 347:-0.643459 348:0.79812 349:0.456051 350:0.898999 351:-0.937431 352:-0.270699 353:-0.617 354:0.747275 355:0.359903 356:0.39088 357:0.187071 358:-0.446237 359:-0.17362 360:-0.154031 361:0.481281 362:-0.0458175 363:-0.334925 364:0.0328008 365:-0.158102 366:-0.258714 367:-0.174979 368:0.164055 369:-0.266665 370:-0.544622 371:-0.273672 372:-0.405631 373:-0.20763 374:-0.171095 375:-0.826353 376:-0.937431 377:-0.270699 378:-0.617 379:0.747275 380:0.359903 381:0.39088 382:0.187071 383:-0.446237 384:-0.17362 385:-0.154031 386:0.481281 387:-0.0458175 388:-0.334925 389:0.0328008 390:-0.158102 391:-0.258714 392:-0.174979 393:0.164055 394:-0.266665 395:-0.544622 396:-0.273672 397:-0.405631 398:-0.20763 399:-0.171095 400:-0.826353 401:0.758666 402:0.420321 403:0.188792 404:0.400266 405:-0.29886 406:-0.865982 407:-0.138239 408:-0.0364808 409:-0.400619 410:-0.306246 411:-0.687094 412:-0.216729 413:-0.675472 414:0.143596 415:-0.274104 416:-0.487857 417:0.0215272 418:-0.12905 419:0.115712 420:0.0832463 421:-0.14926 422:0.753551 423:-0.450098 424:0.0244749 425:0.130806 426:0.223611 427:0.758067 428:0.662398 429:1 430:0.558088 431:-0.323621 432:0.280077 433:0.254059 434:0.221484 435:0.192294 436:-0.335754 437:-0.0403174 438:-0.429664 439:0.773941 440:0.0767923 441:0.280823 442:-0.19027 443:-0.461098 444:-0.42348 445:-0.115787 446:-0.817203 447:-0.84873 448:1 449:-0.362472 450:0.0707961 451:-0.532513 452:0.194148 453:-0.391397 454:0.460451 455:0.888506 456:-0.2682 457:-0.405175 458:0.692685 459:-0.0647672 460:-0.362517 461:0.692182 462:-0.761462 463:0.352387 464:0.822659 465:0.0559191 466:-0.614215 467:0.22851 468:0.149852 469:-0.654405 470:0.00880129 471:0.298335 472:-0.584139 473:0.128095 474:-0.157321 475:-0.020327 476:-0.910245 477:-0.77215 478:0.580414 479:0.978793 480:-0.867723 481:-0.344365 482:0.949045 483:-0.933052 484:0.869116 485:-0.431375 486:1 487:-0.733324 488:-0.67289 489:-0.544713 490:-0.438342 491:-0.380451 492:0.791559 493:0.361772 494:0.993529 495:0.967675 496:0.954257 497:0.800194 498:0.286104 499:0.819512 500:-0.654061 501:0.825489 502:-0.141963 503:0.596989 504:-0.669396 505:-0.726364 506:-0.174011 507:0.688344 508:-0.0650118 509:-0.74945 510:-0.00120704 511:-0.679093 512:0.00768042 513:-0.875202 514:0.853622 515:0.887459 516:-0.376862 517:0.0725286 518:0.183618 519:0.335507 520:-0.678952 521:0.325294 522:0.418467 523:0.532847 524:-0.63836 525:-0.0597009 526:-0.967219 527:0.593231 528:-0.999776 529:1 530:0.941287 531:0.992851 532:0.99992 533:0.946386 534:0.995982 535:0.715249 536:1 537:-1 538:-0.965391 539:-0.17881 540:-1 541:-0.548102 542:-0.0518358 543:-0.772593 544:-0.932483 545:-0.867609 546:-0.895694 547:0.529621 548:0.923741 549:0.826041 550:0.897304 551:0.256436 552:0.456832 553:0.708299 554:0.472084 555:0.0134338 556:-0.89816 557:-0.499538 558:0.328685 559:-0.0842172 560:-0.322413 561:-0.18436 562:0.489122 563:0.219849 564:0.642395 565:0.0338249 566:0.343225 567:-0.733876 568:-0.424522 569:-0.291527 570:-0.33193 571:0.210929 572:0.706463 573:0.25511 574:0.837982 575:0.561198 576:0.256436 577:0.456832 578:0.708299 579:0.472084 580:0.0134338 581:-0.89816 582:-0.499538 583:0.328685 584:-0.0842172 585:-0.322413 586:-0.18436 587:0.489122 588:0.219849 589:0.642395 590:0.0338249 591:0.343225 592:-0.733876 593:-0.424522 594:-0.291527 595:-0.33193 596:0.210929 597:0.706463 598:0.25511 599:0.837982 600:0.561198 601:0.909546 602:0.727083 603:0.95276 604:-0.508144 605:0.616619 606:0.125149 607:0.695026 608:0.199531 609:0.328899 610:0.383006 611:-0.941497 612:-0.618013 613:-0.399795 614:0.817707 615:0.623484 616:-0.164044 617:0.641135 618:0.397245 619:0.69473 620:-0.0076973 621:0.77526 622:-0.0665482 623:-0.652668 624:0.68644 625:0.0830424 626:0.257227 627:0.804312 628:-0.0936207 629:-0.847733 630:-0.423643 631:-0.333576 632:-0.0326014 633:-0.416031 634:0.938042 635:-0.433353 636:0.276672 637:0.183784 638:-0.226564 639:-0.247216 640:1 641:1 642:-0.427772 643:0.130196 644:-1 645:1 646:-1 647:0.204019 648:-0.402847 649:-1 650:-1 651:0.257227 652:0.804312 653:-0.0936207 654:-0.847733 655:-0.423643 656:-0.333576 657:-0.0326014 658:-0.416031 659:0.938042 660:-0.433353 661:0.276672 662:0.183784 663:-0.226564 664:-0.247216 665:1 666:1 667:-0.427772 668:0.130196 669:-1 670:1 671:-1 672:0.204019 673:-0.402847 674:-1 675:-1 676:-0.882718 677:-0.711971 678:-0.568723 679:1 680:0.584017 681:0.689876 682:0.61993 683:0.443385 684:0.78914 685:-0.247572 686:0.508822 687:0.182443 688:0.404214 689:-0.0941578 690:-0.0237735 691:-0.384889 692:-0.719084 693:-0.11057 694:-0.622722 695:-0.80218 696:-0.274957 697:-0.500848 698:0.223939 699:0.176647 700:0.0359013 701:-0.882718 702:-0.711971 703:-0.568723 704:1 705:0.584017 706:0.689876 707:0.61993 708:0.443385 709:0.78914 710:-0.247572 711:0.508822 712:0.182443 713:0.404214 714:-0.0941578 715:-0.0237735 716:-0.384889 717:-0.719084 718:-0.11057 719:-0.622722 720:-0.80218 721:-0.274957 722:-0.500848 723:0.223939 724:0.176647 725:0.0359013 726:-0.906973 727:-0.660279 728:-0.553001 729:0.965775 730:-0.0394051 731:0.830355 732:0.669616 733:-0.595531 734:-0.537114 735:0.271638 736:0.713311 737:0.698183 738:0.374403 739:-0.467896 740:0.440425 741:-0.308459 742:-0.820596 743:-0.491769 744:0.255507 745:0.681583 746:0.900538 747:-0.765642 748:-0.0292948 749:0.0161187 750:0.041257 751:-0.409364 752:0.263038 753:0.187925 754:1 755:0.00234538 756:-1 757:-0.613601 758:0.645354 759:-0.885467 760:0.614292 761:-0.484755 762:0.397425 763:-0.62203 764:0.147619 765:0.667517 766:0.851194 767:-0.477831 768:-0.407159 769:-0.575115 770:-0.608448 771:0.229081 772:1 773:1 774:0.683146 775:1 776:-0.409364 777:0.263038 778:0.187925 779:1 780:0.00234538 781:-1 782:-0.613601 783:0.645354 784:-0.885467 785:0.614292 786:-0.484755 787:0.397425 788:-0.62203 789:0.147619 790:0.667517 791:0.851194 792:-0.477831 793:-0.407159 794:-0.575115 795:-0.608448 796:0.229081 797:1 798:1 799:0.683146 800:1 801:-0.695462 802:0.62798 803:-0.314843 804:-0.0926399 805:-0.0487145 806:-0.244178 807:-0.0865538 808:0.654942 809:-0.13864 810:-0.427684 811:-0.712713 812:-0.537974 813:-0.677942 814:0.32262 815:-0.297513 816:0.887495 817:0.69469 818:0.762569 819:-0.469029 820:-0.553626 821:-0.758714 822:0.775191 823:-0.0299592 824:-0.355054 825:-0.296944 826:0.710725 827:0.933669 828:-0.383967 829:-0.163428 830:-0.0107351 831:-0.270597 832:-0.0792669 833:-0.219659 834:-0.206949 835:-0.309266 836:-0.670896 837:0.572718 838:0.290587 839:-0.0480666 840:0.396984 841:0.727627 842:0.312942 843:-0.511129 844:-0.091198 845:0.278539 846:0.134879 847:-0.509869 848:-0.654589 849:0.037628 850:-0.289524 851:-0.158281 852:-0.417786 853:-0.167652 854:0.0687968 855:-0.140472 856:0.570991 857:0.864627 858:0.738099 859:-0.190269 860:-0.376161 861:0.745056 862:0.914524 863:0.471984 864:-0.93634 865:0.702981 866:-1 867:-0.638709 868:1 869:0.407468 870:0.399775 871:-0.61439 872:-0.855579 873:-0.924378 874:0.813027 875:0.807396 876:0.392129 877:0.392144 878:0.69527 879:-0.381902 880:0.426164 881:-0.257923 882:0.402536 883:0.475353 884:-0.51776 885:0.931958 886:-1 887:-0.237759 888:0.131332 889:0.160048 890:-0.453454 891:0.3717 892:-0.0819603 893:0.298372 894:-0.508971 895:-0.744103 896:0.0411511 897:-0.050224 898:0.312232 899:-0.121273 900:1 901:0.863879 902:0.988589 903:0.984989 904:-0.25958 905:0.632295 906:0.108357 907:0.745008 908:0.0168314 909:0.456319 910:0.685618 911:-0.992296 912:0.830041 913:-0.82535 914:1 915:-0.677682 916:0.967753 917:-0.574776 918:0.786364 919:-0.877762 920:-0.513658 921:-0.388915 922:-0.841642 923:0.995468 924:-0.882553 925:0.235434 926:0.191192 927:0.395561 928:0.947133 929:0.650587 930:-0.910329 931:-0.217106 932:0.468948 933:-0.898772 934:0.492014 935:-0.956532 936:0.431489 937:-0.17425 938:0.233731 939:-0.349672 940:-0.571172 941:0.543098 942:0.663136 943:0.824438 944:0.877084 945:-0.702811 946:-0.281679 947:0.513911 948:0.547597 949:-0.590374 950:-0.897978 951:0.617 952:-0.533571 953:0.962108 954:-0.641937 955:-0.8481 956:-0.565508 957:0.715455 958:0.750266 959:-0.96738 960:-0.46827 961:-0.591022 962:-0.530299 963:0.608321 964:0.936532 965:0.914139 966:-0.273434 967:0.670841 968:-0.801289 969:-0.820553 970:0.298914 971:-0.456024 972:0.830345 973:-0.88225 974:-0.742096 975:-0.7497 976:-0.404905 977:-0.39172 978:0.330753 979:0.913256 980:-0.443304 981:0.415432 982:-0.125795 983:0.228828 984:-0.723596 985:-0.439509 986:0.392707 987:-0.0782681 988:0.0449979 989:-0.334277 990:1.2455e-05 991:0.00788078 992:-0.266015 993:0.284633 994:0.0533585 995:0.681874 996:-0.00931471 997:-0.490434 998:-0.483413 999:-0.0889564 1000:0.129689 1001:0.53641 1002:-0.404361 1003:0.995485 1004:-0.891463 1005:-0.0188839 1006:-0.311325 1007:0.804984 1008:0.275779 1009:-0.639781 1010:0.132343 1011:-0.0830473 1012:0.547402 1013:0.111713 1014:-0.883228 1015:0.638091 1016:-0.937205 1017:-0.704186 1018:0.00823498 1019:-0.234169 1020:-0.150261 1021:0.537164 1022:0.956269 1023:0.476535 1024:0.0559346 1025:0.724981 1026:0.177164 1027:0.642679 1028:0.40382 1029:0.64161 1030:0.220482 1031:-0.590613 1032:0.372816 1033:-0.172423 1034:-0.427417 1035:-0.365295 1036:-0.129971 1037:0.0765457 1038:0.566087 1039:0.295348 1040:0.412499 1041:-0.579347 1042:0.0688814 1043:-0.141404 1044:-0.482972 1045:0.25064 1046:-0.0495671 1047:0.118172 1048:-0.364722 1049:-0.0885985 1050:0.227154 1051:-0.349051 1052:-0.292641 1053:0.0933731 1054:-0.787576 1055:-0.303774 1056:-0.720241 1057:0.186293 1058:0.930965 1059:-0.803415 1060:-0.81167 1061:-0.817233 1062:0.442087 1063:0.167373 1064:0.711898 1065:-0.200532 1066:-0.220287 1067:-0.567424 1068:-0.712074 1069:0.156791 1070:0.403297 1071:0.676753 1072:0.168161 1073:0.505401 1074:0.809584 1075:-0.111613 1076:-0.197494 1077:-0.833184 1078:0.608521 1079:0.151705 1080:-0.200012 1081:-0.0983282 1082:0.858894 1083:-0.400671 1084:-0.554279 1085:0.635947 1086:0.971186 1087:-0.773729 1088:0.274018 1089:1 1090:-0.733085 1091:-0.281577 1092:0.398191 1093:-0.424041 1094:0.517815 1095:0.442013 1096:-0.60126 1097:-0.167257 1098:0.256657 1099:-0.419971 1100:0.165764 1101:-0.407428 1102:-0.0266487 1103:-0.438826 1104:0.726886 1105:0.0326181 1106:0.304295 1107:0.523813 1108:0.019012 1109:0.487707 1110:0.238168 1111:1 1112:-0.491382 1113:0.714628 1114:-0.383879 1115:-0.504683 1116:-0.393232 1117:0.00762969 1118:0.213779 1119:0.703 1120:-0.350071 1121:0.0340009 1122:0.606053 1123:0.605342 1124:0.133087 1125:0.284447 1126:-0.334195 1127:0.77854 1128:-0.681364 1129:0.971679 1130:0.942323 1131:0.355561 1132:0.960054 1133:-0.158736 1134:-0.0545204 1135:0.304949 1136:0.966189 1137:-0.437453 1138:-0.820467 1139:0.403461 1140:0.796041 1141:0.604317 1142:0.0803642 1143:-0.2404 1144:-0.682723 1145:0.809709 1146:0.568573 1147:-0.763779 1148:0.510845 1149:-0.16417 1150:-0.835917 1151:0.0870765 1152:0.151336 1153:-0.00553025 1154:-1 1155:0.0904444 1156:0.779625 1157:-0.164573 1158:0.389008 1159:0.768312 1160:0.0930542 1161:-0.169315 1162:-0.38824 1163:0.248416 1164:-0.407308 1165:0.558988 1166:0.490235 1167:0.117151 1168:-0.582149 1169:-0.00418548 1170:0.379759 1171:-0.530704 1172:-0.37804 1173:-0.0794008 1174:0.0128463 1175:-0.350592 1176:0.0870765 1177:0.151336 1178:-0.00553025 1179:-1 1180:0.0904444 1181:0.779625 1182:-0.164573 1183:0.389008 1184:0.768312 1185:0.0930542 1186:-0.169315 1187:-0.38824 1188:0.248416 1189:-0.407308 1190:0.558988 1191:0.490235 1192:0.117151 1193:-0.582149 1194:-0.00418548 1195:0.379759 1196:-0.530704 1197:-0.37804 1198:-0.0794008 1199:0.0128463 1200:-0.350592 1201:-0.799341 1202:-0.19384 1203:-0.326208 1204:0.833712 1205:-0.110685 1206:0.159974 1207:0.207525 1208:1 1209:0.491144 1210:0.707894 1211:-1 1212:-0.0230614 1213:0.52919 1214:0.604057 1215:0.799126 1216:0.670649 1217:-0.105217 1218:-0.140755 1219:-0.293474 1220:-0.682567 1221:0.41499 1222:-0.126479 1223:-0.128101 1224:0.415814 1225:0.544759 1226:-0.816281 1227:-0.328482 1228:-0.424106 1229:0.629605 1230:-0.0122449 1231:0.355088 1232:-0.509861 1233:-0.110651 1234:-0.724519 1235:0.688934 1236:0.718075 1237:-0.175525 1238:0.49123 1239:-0.828004 1240:-0.725996 1241:0.446238 1242:-0.424664 1243:0.538564 1244:0.598218 1245:0.0933092 1246:0.185614 1247:-0.910612 1248:-0.65713 1249:0.452543 1250:-0.169836 1251:-0.816281 1252:-0.328482 1253:-0.424106 1254:0.629605 1255:-0.0122449 1256:0.355088 1257:-0.509861 1258:-0.110651 1259:-0.724519 1260:0.688934 1261:0.718075 1262:-0.175525 1263:0.49123 1264:-0.828004 1265:-0.725996 1266:0.446238 1267:-0.424664 1268:0.538564 1269:0.598218 1270:0.0933092 1271:0.185614 1272:-0.910612 1273:-0.65713 1274:0.452543 1275:-0.169836 1276:0.70249 1277:-0.15007 1278:-0.0361544 1279:-0.298664 1280:0.672808 1281:0.492509 1282:-0.0938496 1283:0.0474618 1284:0.234852 1285:0.492321 1286:-0.210496 1287:-0.0837734 1288:0.946086 1289:-0.115474 1290:-0.124154 1291:0.613828 1292:0.258978 1293:0.298977 1294:-0.292376 1295:-0.857271 1296:-0.353831 1297:-0.0548802 1298:-0.173944 1299:0.717718 1300:-0.113927 1301:0.70249 1302:-0.15007 1303:-0.0361544 1304:-0.298664 1305:0.672808 1306:0.492509 1307:-0.0938496 1308:0.0474618 1309:0.234852 1310:0.492321 1311:-0.210496 1312:-0.0837734 1313:0.946086 1314:-0.115474 1315:-0.124154 1316:0.613828 1317:0.258978 1318:0.298977 1319:-0.292376 1320:-0.857271 1321:-0.353831 1322:-0.0548802 1323:-0.173944 1324:0.717718 1325:-0.113927 1326:-0.675634 1327:-0.276433 1328:-0.581692 1329:0.740263 1330:0.12633 1331:0.0685463 1332:-0.173912 1333:-0.481713 1334:-0.222902 1335:1 1336:0.446721 1337:-0.105235 1338:0.722551 1339:-0.298038 1340:-0.154859 1341:0.0348376 1342:0.410459 1343:-0.0580386 1344:-0.470511 1345:0.0917138 1346:0.362441 1347:-0.108094 1348:-0.382382 1349:-0.325929 1350:0.247498 1351:-0.675634 1352:-0.276433 1353:-0.581692 1354:0.740263 1355:0.12633 1356:0.0685463 1357:-0.173912 1358:-0.481713 1359:-0.222902 1360:1 1361:0.446721 1362:-0.105235 1363:0.722551 1364:-0.298038 1365:-0.154859 1366:0.0348376 1367:0.410459 1368:-0.0580386 1369:-0.470511 1370:0.0917138 1371:0.362441 1372:-0.108094 1373:-0.382382 1374:-0.325929 1375:0.247498 1376:-1 1377:1 1378:-1 1379:-1 1380:-1 1381:0.491383 1382:1 1383:-1 1384:1 1385:-1 1386:1 1387:1 1388:1 1389:-0.180367 1390:-1 1391:1 1392:-1 1393:-1 1394:1 1395:-0.989505 1396:0.039643 1397:0.998093 1398:-0.649548 1399:0.716454 1400:1 1401:-1 1402:1 1403:-1 1404:-1 1405:-1 1406:0.491383 1407:1 1408:-1 1409:1 1410:-1 1411:1 1412:1 1413:1 1414:-0.180367 1415:-1 1416:1 1417:-1 1418:-1 1419:1 1420:-0.989505 1421:0.039643 1422:0.998093 1423:-0.649548 1424:0.716454 1425:1 1426:-0.876526 1427:0.283964 1428:0.247609 1429:-0.276843 1430:-0.217635 1431:0.541708 1432:0.398705 1433:0.0648212 1434:-1 1435:0.590496 1436:-1 1437:0.0864136 1438:-0.0571467 1439:-0.12142 1440:-0.509392 1441:0.245194 1442:0.562643 1443:0.242279 1444:0.150825 1445:0.287873 1446:-0.275896 1447:0.533866 1448:-0.562947 1449:0.179558 1450:-0.894287 1451:-0.876526 1452:0.283964 1453:0.247609 1454:-0.276843 1455:-0.217635 1456:0.541708 1457:0.398705 1458:0.0648212 1459:-1 1460:0.590496 1461:-1 1462:0.0864136 1463:-0.0571467 1464:-0.12142 1465:-0.509392 1466:0.245194 1467:0.562643 1468:0.242279 1469:0.150825 1470:0.287873 1471:-0.275896 1472:0.533866 1473:-0.562947 1474:0.179558 1475:-0.894287 1476:-0.172922 1477:0.000713215 1478:0.777811 1479:1 1480:-1 1481:-1 1482:-0.833335 1483:0.620758 1484:-1 1485:1 1486:-1 1487:-0.0486378 1488:-1 1489:0.118755 1490:-0.59718 1491:0.263398 1492:0.512594 1493:0.22608 1494:-0.251457 1495:-0.470577 1496:0.685192 1497:-0.785387 1498:0.508329 1499:-0.478351 1500:-0.235112 1501:-0.172922 1502:0.000713215 1503:0.777811 1504:1 1505:-1 1506:-1 1507:-0.833335 1508:0.620758 1509:-1 1510:1 1511:-1 1512:-0.0486378 1513:-1 1514:0.118755 1515:-0.59718 1516:0.263398 1517:0.512594 1518:0.22608 1519:-0.251457 1520:-0.470577 1521:0.685192 1522:-0.785387 1523:0.508329 1524:-0.478351 1525:-0.235112 1526:-0.792582 1527:0.882616 1528:-0.602479 1529:0.538964 1530:0.673141 1531:-0.540412 1532:-0.633521 1533:0.383262 1534:0.201059 1535:-0.482207 1536:0.986232 1537:0.765683 1538:-0.895485 1539:-0.330105 1540:1 1541:-0.509202 1542:-0.533577 1543:0.634814 1544:-0.720218 1545:0.709219 1546:-0.297493 1547:-0.606151 1548:0.449248 1549:0.202627 1550:0.55214 1551:0.119372 1552:-0.239147 1553:0.288325 1554:1 1555:0.192289 1556:-1 1557:-0.632603 1558:0.4033 1559:-0.712351 1560:0.384176 1561:-0.126006 1562:0.110769 1563:-0.140405 1564:0.428765 1565:0.487109 1566:0.169479 1567:-1 1568:-0.413912 1569:-0.00560215 1570:-0.420254 1571:0.127094 1572:-0.839711 1573:0.216528 1574:0.66701 1575:0.31275 1576:0.119372 1577:-0.239147 1578:0.288325 1579:1 1580:0.192289 1581:-1 1582:-0.632603 1583:0.4033 1584:-0.712351 1585:0.384176 1586:-0.126006 1587:0.110769 1588:-0.140405 1589:0.428765 1590:0.487109 1591:0.169479 1592:-1 1593:-0.413912 1594:-0.00560215 1595:-0.420254 1596:0.127094 1597:-0.839711 1598:0.216528 1599:0.66701 1600:0.31275 1601:0.603297 1602:-0.0159614 1603:0.770132 1604:0.147751 1605:0.441341 1606:-0.363728 1607:0.274147 1608:0.209667 1609:-0.425631 1610:-0.206317 1611:-0.796302 1612:0.777103 1613:0.41789 1614:0.261774 1615:0.178158 1616:0.267488 1617:0.229093 1618:-0.324926 1619:-0.0629275 1620:0.0175186 1621:-0.392057 1622:0.27828 1623:-0.334552 1624:0.511859 1625:-0.387449 1626:0.356916 1627:0.0525982 1628:0.576418 1629:-0.268851 1630:-0.752229 1631:-0.157817 1632:-0.754815 1633:0.628791 1634:-0.59135 1635:-0.640908 1636:-0.527557 1637:0.235965 1638:0.452898 1639:0.467397 1640:-0.316814 1641:1 1642:0.376467 1643:-0.819178 1644:0.109841 1645:-0.269695 1646:0.592498 1647:-0.520983 1648:-0.233825 1649:-0.138168 1650:0.00872379 1651:0.0446042 1652:-0.179697 1653:-0.630297 1654:0.764136 1655:0.785466 1656:-0.0945534 1657:0.113228 1658:-0.0744082 1659:0.152521 1660:0.120235 1661:-0.475102 1662:-0.970571 1663:0.404063 1664:0.517457 1665:-0.163081 1666:0.216496 1667:-0.481436 1668:1 1669:-0.981906 1670:-0.440666 1671:-0.30916 1672:-0.263168 1673:0.386162 1674:-0.355048 1675:-0.775425 1676:-0.0883327 1677:0.556956 1678:-0.212547 1679:-0.519669 1680:0.610729 1681:1 1682:0.617331 1683:0.481864 1684:0.42657 1685:-0.822123 1686:0.416445 1687:0.506283 1688:0.224065 1689:0.0524581 1690:0.268899 1691:-0.876478 1692:0.0923613 1693:1 1694:0.535655 1695:0.848186 1696:0.0463471 1697:-0.0935107 1698:-0.0914189 1699:-0.281509 1700:0.0722914 1701:0.828016 1702:-0.148423 1703:0.513809 1704:0.404155 1705:-0.0818492 1706:-0.963415 1707:0.799603 1708:0.901811 1709:-0.871296 1710:-0.843524 1711:0.157564 1712:0.932572 1713:0.747125 1714:-0.903676 1715:0.404823 1716:-0.665501 1717:-0.675866 1718:0.805986 1719:-0.522528 1720:0.353648 1721:-0.94519 1722:-0.605839 1723:-0.982366 1724:0.49199 1725:-0.364223 1726:0.766424 1727:0.200386 1728:0.0218575 1729:-0.770085 1730:0.0506111 1731:0.209828 1732:0.375173 1733:0.357289 1734:-0.00734055 1735:-0.0548591 1736:-0.598907 1737:0.0797743 1738:0.302849 1739:0.1614 1740:-0.38454 1741:-0.819239 1742:0.705626 1743:0.289745 1744:-0.822439 1745:0.784228 1746:0.125895 1747:0.572894 1748:-0.608603 1749:-0.713432 1750:0.412391 1751:0.713742 1752:0.645382 1753:0.86781 1754:0.0285471 1755:0.121276 1756:-0.40136 1757:0.111165 1758:-0.0683666 1759:-0.174339 1760:-0.35045 1761:-0.898497 1762:-0.106302 1763:-0.423245 1764:-0.348396 1765:-0.359814 1766:0.0203946 1767:-0.251139 1768:0.311142 1769:0.479839 1770:-0.353378 1771:0.0363219 1772:0.360116 1773:0.393723 1774:-0.541249 1775:-0.530936 1776:0.860701 1777:-0.844482 1778:0.0910605 1779:-0.48268 1780:-0.696218 1781:-0.146966 1782:0.800503 1783:0.493054 1784:0.317541 1785:0.720232 1786:-1 1787:-0.877804 1788:0.823974 1789:0.167724 1790:-0.367629 1791:0.223156 1792:-0.00155857 1793:0.800765 1794:0.377774 1795:-0.649886 1796:0.831662 1797:-0.801055 1798:0.0127437 1799:0.599461 1800:-0.599952 1801:-0.190302 1802:0.699796 1803:-0.446301 1804:0.894444 1805:0.706845 1806:0.492875 1807:-0.039919 1808:-1 1809:1 1810:-0.224253 1811:1 1812:0.682481 1813:-0.100076 1814:-0.528917 1815:0.0252185 1816:-1 1817:0.57789 1818:1 1819:0.794575 1820:0.622664 1821:1 1822:-0.300948 1823:0.403225 1824:0.436434 1825:0.371447 1826:0.847917 1827:0.205219 1828:0.643743 1829:-0.248296 1830:-0.381891 1831:-0.785573 1832:0.279358 1833:-0.0669151 1834:-0.200519 1835:-0.0155054 1836:-0.924716 1837:0.148389 1838:0.101089 1839:0.868139 1840:0.505544 1841:0.552664 1842:-0.297428 1843:-0.583012 1844:-0.961038 1845:-0.452269 1846:-0.50873 1847:-0.704461 1848:0.718106 1849:-0.23514 1850:0.169277 1851:0.490769 1852:-0.0119134 1853:0.559328 1854:0.0143102 1855:0.0677067 1856:-0.660633 1857:0.469516 1858:0.330127 1859:0.153656 1860:0.394871 1861:-0.51531 1862:-0.595909 1863:0.339142 1864:-0.143027 1865:0.0686435 1866:-0.651224 1867:-0.297319 1868:0.370334 1869:-0.199309 1870:0.877171 1871:0.0615895 1872:0.665422 1873:-0.578273 1874:-0.0533516 1875:-0.104312 1876:0.323168 1877:-0.173256 1878:0.994124 1879:0.556707 1880:-0.913921 1881:0.169323 1882:-0.38974 1883:1 1884:-1 1885:0.249623 1886:0.226187 1887:-0.325312 1888:-0.0999036 1889:-1 1890:0.3662 1891:-0.183883 1892:-0.808829 1893:-0.92259 1894:-1 1895:-0.591073 1896:-1 1897:-0.0694792 1898:0.122843 1899:-0.28103 1900:-0.898824 1901:0.864736 1902:0.809317 1903:0.954117 1904:-0.69926 1905:-0.202832 1906:-0.622157 1907:-0.0504964 1908:0.184351 1909:-0.892248 1910:0.530232 1911:-0.979674 1912:-0.126195 1913:0.823665 1914:0.879104 1915:0.390135 1916:0.793382 1917:-0.605554 1918:0.49157 1919:0.818875 1920:-0.789323 1921:0.701027 1922:-0.402246 1923:-0.556499 1924:0.738302 1925:-0.544338 1926:-0.458305 1927:0.0743518 1928:-0.117035 1929:0.509223 1930:0.442818 1931:-0.298375 1932:0.9534 1933:0.197603 1934:-0.880362 1935:0.15672 1936:0.988082 1937:-0.168386 1938:-0.560874 1939:0.855396 1940:0.746173 1941:0.0308591 1942:0.160433 1943:0.402211 1944:0.240658 1945:0.641059 1946:-0.683469 1947:-0.656498 1948:-0.787444 1949:0.173878 1950:-0.351318 1951:0.805359 1952:-0.48801 1953:0.766044 1954:-0.0623967 1955:-0.168157 1956:-0.684314 1957:0.840792 1958:-0.241988 1959:-0.315815 1960:0.544101 1961:-0.869145 1962:0.313832 1963:0.42367 1964:0.597469 1965:-0.480494 1966:0.626787 1967:-0.349197 1968:-0.125955 1969:-0.873814 1970:-0.449033 1971:-0.0868479 1972:-0.590353 1973:0.810296 1974:0.411197 1975:0.249927 1976:-0.0127151 1977:-0.870939 1978:-0.963993 1979:0.998594 1980:0.982903 1981:0.756195 1982:0.786636 1983:0.0845982 1984:0.275366 1985:-0.159695 1986:1 1987:-0.388413 1988:0.842878 1989:0.628326 1990:0.38452 1991:-0.984809 1992:0.0163378 1993:-0.514517 1994:0.424645 1995:-0.526916 1996:-0.242606 1997:0.574116 1998:-0.999111 1999:-0.347705 2000:0.102679 2001:0.714734 2002:0.90282 2003:0.998123 2004:-0.987459 2005:-0.1946 2006:-0.753218 2007:0.894299 2008:-0.0364308 2009:-0.793152 2010:0.954938 2011:-0.994375 2012:0.846983 2013:-0.692832 2014:0.149131 2015:-0.934387 2016:0.765582 2017:-0.909797 2018:-0.962579 2019:0.438479 2020:-0.739575 2021:0.380495 2022:0.967108 2023:0.720592 2024:0.5048 2025:0.313955 2026:-0.316486 2027:-0.883596 2028:0.393958 2029:0.693433 2030:0.70875 2031:-0.0129663 2032:-0.0284509 2033:0.490109 2034:-0.644366 2035:-0.340868 2036:0.792943 2037:-0.103332 2038:0.864816 2039:-0.474658 2040:-0.573051 2041:-1 2042:0.714614 2043:-0.311755 2044:-0.230982 2045:0.164228 2046:-0.752829 2047:0.38717 2048:0.324629 2049:-0.885779 2050:0.953428 2051:-0.548516 2052:-0.689488 2053:-0.595285 2054:0.0465959 2055:0.500797 2056:-0.0164157 2057:0.899648 2058:0.349482 2059:0.521381 2060:0.320611 2061:0.880115 2062:-0.532067 2063:-0.311119 2064:-0.31328 2065:-0.71192 2066:0.140555 2067:0.420735 2068:-0.491788 2069:-0.570554 2070:-0.321577 2071:-0.497153 2072:-0.652896 2073:-0.0550514 2074:0.515056 2075:0.553943 2076:-1 2077:0.331431 2078:0.656958 2079:0.824077 2080:0.503423 2081:-0.550211 2082:-0.393032 2083:-0.0975917 2084:1 2085:-0.642546 2086:-0.280535 2087:-0.104435 2088:-0.59293 2089:1 2090:0.03999 2091:-1 2092:-0.443606 2093:0.172158 2094:-0.332442 2095:-0.0981469 2096:-0.877825 2097:-0.336405 2098:1 2099:-0.224511 2100:-0.00815852 2101:0.86155 2102:-0.239961 2103:0.0324103 2104:0.852957 2105:0.543385 2106:0.231903 2107:-0.309696 2108:-0.890469 2109:0.488374 2110:-0.730618 2111:0.428746 2112:-0.867168 2113:-0.0170522 2114:0.856234 2115:0.751892 2116:-0.996292 2117:0.100124 2118:-0.576545 2119:-0.813679 2120:-0.244253 2121:0.452685 2122:0.573141 2123:-0.99831 2124:-0.931487 2125:0.489143 2126:-0.777309 2127:-0.161071 2128:-0.277992 2129:1 2130:-0.297585 2131:0.150889 2132:0.224401 2133:-0.356362 2134:-0.379484 2135:0.435931 2136:-0.119296 2137:0.253286 2138:-0.0788568 2139:0.101506 2140:-0.159879 2141:-0.198196 2142:-0.232331 2143:0.187478 2144:0.599786 2145:0.49303 2146:0.965149 2147:-0.0370039 2148:-0.2373 2149:0.235476 2150:0.721922 2151:-0.806818 2152:0.780941 2153:0.681696 2154:0.715049 2155:0.779045 2156:-0.492147 2157:-0.244255 2158:-0.457771 2159:0.546323 2160:0.00621194 2161:0.972193 2162:-0.0607542 2163:-0.0585719 2164:-0.791263 2165:-0.301747 2166:-0.202273 2167:-0.321123 2168:0.543799 2169:0.766924 2170:0.256758 2171:0.459748 2172:-0.030792 2173:0.250621 2174:-0.116272 2175:0.21605 2176:-0.0338422 2177:0.0135611 2178:-0.127235 2179:0.945193 2180:-0.671705 2181:-0.27708 2182:-0.410901 2183:-0.027908 2184:-0.335709 2185:-0.208391 2186:-0.0209101 2187:-0.367879 2188:0.218732 2189:-0.280551 2190:0.249272 2191:-0.347743 2192:-0.249062 2193:-0.506127 2194:0.23655 2195:0.129833 2196:-0.321441 2197:0.137622 2198:-0.318948 2199:0.524182 2200:-0.300423 2201:0.61751 2202:0.793244 2203:-0.800149 2204:-0.00427918 2205:1 2206:0.672974 2207:-0.490692 2208:0.169228 2209:-1 2210:0.632337 2211:-0.850679 2212:0.873623 2213:0.127056 2214:0.767199 2215:0.355069 2216:-0.164526 2217:-0.512264 2218:-1 2219:1 2220:-0.796273 2221:-0.447297 2222:0.482387 2223:-0.00457705 2224:-0.0215226 2225:-1 2226:0.634807 2227:-0.930632 2228:-0.653188 2229:-0.446149 2230:0.220516 2231:-0.911141 2232:-0.885477 2233:0.346356 2234:-1 2235:-0.859437 2236:0.0845012 2237:-0.115354 2238:0.493379 2239:0.569997 2240:0.952602 2241:0.106374 2242:-0.852763 2243:-0.386205 2244:0.813203 2245:0.445087 2246:-0.342641 2247:0.882735 2248:-0.648327 2249:-0.570862 2250:0.0253125 2251:0.373261 2252:-0.404179 2253:-0.0846815 2254:-0.0264571 2255:0.0594094 2256:-0.369959 2257:-0.44462 2258:0.40302 2259:-0.384956 2260:0.522054 2261:-0.580651 2262:0.00324974 2263:0.00487965 2264:-0.0814085 2265:0.125358 2266:-0.609509 2267:0.299148 2268:-0.144985 2269:-0.807196 2270:-0.444338 2271:0.287255 2272:-0.875798 2273:0.329048 2274:0.14549 2275:0.724648 2276:0.373261 2277:-0.404179 2278:-0.0846815 2279:-0.0264571 2280:0.0594094 2281:-0.369959 2282:-0.44462 2283:0.40302 2284:-0.384956 2285:0.522054 2286:-0.580651 2287:0.00324974 2288:0.00487965 2289:-0.0814085 2290:0.125358 2291:-0.609509 2292:0.299148 2293:-0.144985 2294:-0.807196 2295:-0.444338 2296:0.287255 2297:-0.875798 2298:0.329048 2299:0.14549 2300:0.724648 2301:-1 2302:-0.517047 2303:-0.84534 2304:0.154368 2305:0.764015 2306:0.561642 2307:0.684977 2308:0.178532 2309:0.583254 2310:-0.0691793 2311:0.873059 2312:0.667529 2313:-0.662379 2314:0.015146 2315:0.529538 2316:0.232936 2317:-0.441243 2318:0.661615 2319:0.54613 2320:0.0732655 2321:-0.500668 2322:-0.101831 2323:0.292289 2324:0.31476 2325:0.77682 2326:-1 2327:-0.517047 2328:-0.84534 2329:0.154368 2330:0.764015 2331:0.561642 2332:0.684977 2333:0.178532 2334:0.583254 2335:-0.0691793 2336:0.873059 2337:0.667529 2338:-0.662379 2339:0.015146 2340:0.529538 2341:0.232936 2342:-0.441243 2343:0.661615 2344:0.54613 2345:0.0732655 2346:-0.500668 2347:-0.101831 2348:0.292289 2349:0.31476 2350:0.77682 2351:-0.259406 2352:-0.533613 2353:0.0695264 2354:1 2355:-0.416816 2356:-0.804647 2357:-0.459344 2358:0.803711 2359:-0.431494 2360:0.867335 2361:-0.208053 2362:-0.0397872 2363:-0.0414471 2364:-0.388087 2365:0.583769 2366:0.464653 2367:-0.169413 2368:-0.606513 2369:-0.185254 2370:0.0626482 2371:0.749089 2372:0.536492 2373:0.054056 2374:-0.259021 2375:-0.21571 2376:-0.531092 2377:-0.257506 2378:-0.512694 2379:0.876751 2380:-0.464505 2381:0.0883082 2382:0.242266 2383:0.321662 2384:0.405233 2385:0.349665 2386:0.523455 2387:0.398312 2388:0.414254 2389:-0.402512 2390:-0.385659 2391:0.10684 2392:-0.420876 2393:-0.100848 2394:-0.193475 2395:-0.146885 2396:0.135968 2397:-0.259814 2398:0.251338 2399:0.309501 2400:0.194559 2401:-0.531092 2402:-0.257506 2403:-0.512694 2404:0.876751 2405:-0.464505 2406:0.0883082 2407:0.242266 2408:0.321662 2409:0.405233 2410:0.349665 2411:0.523455 2412:0.398312 2413:0.414254 2414:-0.402512 2415:-0.385659 2416:0.10684 2417:-0.420876 2418:-0.100848 2419:-0.193475 2420:-0.146885 2421:0.135968 2422:-0.259814 2423:0.251338 2424:0.309501 2425:0.194559 2426:-1 2427:0.455724 2428:0.126232 2429:0.930553 2430:0.449909 2431:-0.372921 2432:-0.0197996 2433:0.066385 2434:0.345546 2435:-0.290259 2436:0.640447 2437:0.113952 2438:-0.233533 2439:-0.386597 2440:-0.425921 2441:-0.379277 2442:-0.325998 2443:0.695718 2444:-0.124883 2445:0.00262134 2446:-0.317184 2447:-0.518149 2448:0.929895 2449:0.147625 2450:-0.445163 2451:0.222195 2452:0.420706 2453:0.95365 2454:0.758693 2455:-0.712285 2456:0.638772 2457:0.384174 2458:-0.519093 2459:0.600721 2460:-0.561916 2461:0.758474 2462:-0.423852 2463:0.29307 2464:0.405642 2465:0.125577 2466:-0.475783 2467:-0.438495 2468:0.140854 2469:0.159673 2470:0.162087 2471:-0.680705 2472:-0.0513902 2473:0.0762559 2474:0.557904 2475:0.0573328 2476:0.887061 2477:0.358486 2478:0.800039 2479:-0.792213 2480:-0.915812 2481:0.597679 2482:-0.736684 2483:-0.982617 2484:0.878882 2485:-0.76082 2486:-0.718761 2487:-0.860615 2488:-0.116633 2489:0.124814 2490:0.755352 2491:-0.945708 2492:-0.703704 2493:-0.743457 2494:0.43572 2495:0.514262 2496:-0.621906 2497:0.640725 2498:-0.929171 2499:0.559872 2500:0.562536 2501:0.450062 2502:0.712651 2503:-0.727677 2504:-0.767467 2505:0.636994 2506:0.0696181 2507:0.357452 2508:0.630847 2509:0.273093 2510:0.461222 2511:-0.786028 2512:-0.759991 2513:-1 2514:-0.685074 2515:0.70544 2516:0.819223 2517:0.634917 2518:-0.381841 2519:-0.147277 2520:0.355918 2521:0.921451 2522:0.104535 2523:-0.761243 2524:0.449625 2525:0.626444 2526:0.450062 2527:0.712651 2528:-0.727677 2529:-0.767467 2530:0.636994 2531:0.0696181 2532:0.357452 2533:0.630847 2534:0.273093 2535:0.461222 2536:-0.786028 2537:-0.759991 2538:-1 2539:-0.685074 2540:0.70544 2541:0.819223 2542:0.634917 2543:-0.381841 2544:-0.147277 2545:0.355918 2546:0.921451 2547:0.104535 2548:-0.761243 2549:0.449625 2550:0.626444 2551:0.526443 2552:-0.826875 2553:-0.664437 2554:0.582405 2555:0.24278 2556:-0.580069 2557:0.0110799 2558:0.882561 2559:-0.4871 2560:-0.506116 2561:0.504774 2562:0.339503 2563:0.0442395 2564:-0.498665 2565:-0.395969 2566:0.718383 2567:-0.410675 2568:-0.0340606 2569:-0.591318 2570:-0.211819 2571:0.0375399 2572:0.164349 2573:-0.5023 2574:-0.527471 2575:-0.453572 2576:0.526443 2577:-0.826875 2578:-0.664437 2579:0.582405 2580:0.24278 2581:-0.580069 2582:0.0110799 2583:0.882561 2584:-0.4871 2585:-0.506116 2586:0.504774 2587:0.339503 2588:0.0442395 2589:-0.498665 2590:-0.395969 2591:0.718383 2592:-0.410675 2593:-0.0340606 2594:-0.591318 2595:-0.211819 2596:0.0375399 2597:0.164349 2598:-0.5023 2599:-0.527471 2600:-0.453572 2601:-0.975365 2602:0.38083 2603:0.126334 2604:1 2605:0.289353 2606:0.625214 2607:0.472746 2608:0.952419 2609:-1 2610:0.49108 2611:-1 2612:0.44011 2613:-0.775294 2614:-0.549243 2615:-1 2616:-0.581385 2617:-0.796014 2618:-1 2619:-0.0861462 2620:0.43315 2621:1 2622:0.0713565 2623:0.625989 2624:0.134024 2625:-0.617102 2626:-0.975365 2627:0.38083 2628:0.126334 2629:1 2630:0.289353 2631:0.625214 2632:0.472746 2633:0.952419 2634:-1 2635:0.49108 2636:-1 2637:0.44011 2638:-0.775294 2639:-0.549243 2640:-1 2641:-0.581385 2642:-0.796014 2643:-1 2644:-0.0861462 2645:0.43315 2646:1 2647:0.0713565 2648:0.625989 2649:0.134024 2650:-0.617102 2651:0.888825 2652:0.531728 2653:-0.623605 2654:-0.824544 2655:1 2656:0.518693 2657:-0.940227 2658:-0.526205 2659:-0.291732 2660:-0.461385 2661:-0.883733 2662:0.877734 2663:0.00337645 2664:0.408692 2665:-0.02694 2666:0.745529 2667:0.816931 2668:-0.557078 2669:-0.657418 2670:0.186109 2671:-0.085931 2672:-0.299887 2673:0.486474 2674:0.741747 2675:-0.41053 2676:0.888825 2677:0.531728 2678:-0.623605 2679:-0.824544 2680:1 2681:0.518693 2682:-0.940227 2683:-0.526205 2684:-0.291732 2685:-0.461385 2686:-0.883733 2687:0.877734 2688:0.00337645 2689:0.408692 2690:-0.02694 2691:0.745529 2692:0.816931 2693:-0.557078 2694:-0.657418 2695:0.186109 2696:-0.085931 2697:-0.299887 2698:0.486474 2699:0.741747 2700:-0.41053 2701:0.458433 2702:-0.63935 2703:-0.507686 2704:0.220076 2705:0.347227 2706:-0.371879 2707:-0.465201 2708:0.630538 2709:-0.407051 2710:-0.777993 2711:0.250172 2712:0.0905385 2713:0.00273014 2714:-0.510861 2715:0.607058 2716:0.577317 2717:-0.192046 2718:-0.299167 2719:-0.349339 2720:0.0637539 2721:-0.353797 2722:0.530346 2723:-0.38712 2724:0.328153 2725:0.297901 2726:0.458433 2727:-0.63935 2728:-0.507686 2729:0.220076 2730:0.347227 2731:-0.371879 2732:-0.465201 2733:0.630538 2734:-0.407051 2735:-0.777993 2736:0.250172 2737:0.0905385 2738:0.00273014 2739:-0.510861 2740:0.607058 2741:0.577317 2742:-0.192046 2743:-0.299167 2744:-0.349339 2745:0.0637539 2746:-0.353797 2747:0.530346 2748:-0.38712 2749:0.328153 2750:0.297901 2751:-0.17278 2752:-0.0433286 2753:0.708705 2754:1 2755:-0.804949 2756:-1 2757:-0.511966 2758:0.77875 2759:-1 2760:1 2761:-0.33034 2762:-0.322138 2763:-0.438921 2764:-0.506416 2765:0.676311 2766:0.304794 2767:0.248376 2768:-0.55229 2769:0.101769 2770:0.6157 2771:0.853395 2772:-0.575888 2773:0.5577 2774:0.257051 2775:0.0167921 2776:-0.17278 2777:-0.0433286 2778:0.708705 2779:1 2780:-0.804949 2781:-1 2782:-0.511966 2783:0.77875 2784:-1 2785:1 2786:-0.33034 2787:-0.322138 2788:-0.438921 2789:-0.506416 2790:0.676311 2791:0.304794 2792:0.248376 2793:-0.55229 2794:0.101769 2795:0.6157 2796:0.853395 2797:-0.575888 2798:0.5577 2799:0.257051 2800:0.0167921 2801:-1 2802:-1 2803:-1 2804:-0.237903 2805:1 2806:-1 2807:1 2808:-1 2809:1 2810:-1 2811:1 2812:-1 2813:0.040068 2814:1 2815:0.114549 2816:-1 2817:-1 2818:-0.92668 2819:0.628291 2820:-1 2821:0.684152 2822:1 2823:-1 2824:-0.592206 2825:0.904342 2826:-1 2827:-1 2828:-1 2829:-0.237903 2830:1 2831:-1 2832:1 2833:-1 2834:1 2835:-1 2836:1 2837:-1 2838:0.040068 2839:1 2840:0.114549 2841:-1 2842:-1 2843:-0.92668 2844:0.628291 2845:-1 2846:0.684152 2847:1 2848:-1 2849:-0.592206 2850:0.904342 2851:-0.852191 2852:-0.0507163 2853:-0.282407 2854:0.98619 2855:-0.0596698 2856:-0.357307 2857:0.19384 2858:0.15179 2859:0.0187507 2860:-0.30175 2861:0.477173 2862:0.682191 2863:0.763014 2864:0.0355668 2865:-0.451391 2866:0.0907805 2867:-0.259864 2868:0.416627 2869:0.459634 2870:-0.29576 2871:0.37589 2872:-0.346989 2873:-0.371254 2874:0.21645 2875:-0.103784 2876:-0.852191 2877:-0.0507163 2878:-0.282407 2879:0.98619 2880:-0.0596698 2881:-0.357307 2882:0.19384 2883:0.15179 2884:0.0187507 2885:-0.30175 2886:0.477173 2887:0.682191 2888:0.763014 2889:0.0355668 2890:-0.451391 2891:0.0907805 2892:-0.259864 2893:0.416627 2894:0.459634 2895:-0.29576 2896:0.37589 2897:-0.346989 2898:-0.371254 2899:0.21645 2900:-0.103784 2901:-0.958266 2902:-0.00755139 2903:0.0335942 2904:0.920399 2905:-0.251395 2906:0.444345 2907:0.224789 2908:0.26593 2909:0.759763 2910:-0.480502 2911:0.911382 2912:0.735964 2913:-0.636736 2914:-0.234295 2915:0.0612998 2916:-0.174051 2917:-0.870327 2918:0.269974 2919:-0.195628 2920:0.094575 2921:0.596617 2922:0.568015 2923:0.914538 2924:0.705976 2925:0.61367 2926:-0.958266 2927:-0.00755139 2928:0.0335942 2929:0.920399 2930:-0.251395 2931:0.444345 2932:0.224789 2933:0.26593 2934:0.759763 2935:-0.480502 2936:0.911382 2937:0.735964 2938:-0.636736 2939:-0.234295 2940:0.0612998 2941:-0.174051 2942:-0.870327 2943:0.269974 2944:-0.195628 2945:0.094575 2946:0.596617 2947:0.568015 2948:0.914538 2949:0.705976 2950:0.61367 2951:-0.45727 2952:-0.195494 2953:0.392955 2954:1 2955:0.348873 2956:-1 2957:-0.0650838 2958:0.238754 2959:-0.373963 2960:0.388524 2961:0.375716 2962:0.633036 2963:0.615504 2964:0.802004 2965:0.0780441 2966:-0.72394 2967:0.202926 2968:0.359816 2969:-0.131244 2970:0.196854 2971:-0.020144 2972:0.0820951 2973:0.460655 2974:0.643911 2975:-0.0796987 2976:-0.45727 2977:-0.195494 2978:0.392955 2979:1 2980:0.348873 2981:-1 2982:-0.0650838 2983:0.238754 2984:-0.373963 2985:0.388524 2986:0.375716 2987:0.633036 2988:0.615504 2989:0.802004 2990:0.0780441 2991:-0.72394 2992:0.202926 2993:0.359816 2994:-0.131244 2995:0.196854 2996:-0.020144 2997:0.0820951 2998:0.460655 2999:0.643911 3000:-0.0796987 3001:0.0821266 3002:-0.817334 3003:0.908583 3004:-0.757515 3005:-0.846116 3006:-0.883744 3007:0.081901 3008:0.274576 3009:-0.984023 3010:0.154891 3011:-0.0125163 3012:0.78699 3013:-0.596231 3014:0.790042 3015:0.0893865 3016:0.491166 3017:-0.86348 3018:-0.995829 3019:0.634565 3020:-0.204723 3021:-0.789529 3022:0.880167 3023:0.591883 3024:-0.659188 3025:0.500592 3026:0.0821266 3027:-0.817334 3028:0.908583 3029:-0.757515 3030:-0.846116 3031:-0.883744 3032:0.081901 3033:0.274576 3034:-0.984023 3035:0.154891 3036:-0.0125163 3037:0.78699 3038:-0.596231 3039:0.790042 3040:0.0893865 3041:0.491166 3042:-0.86348 3043:-0.995829 3044:0.634565 3045:-0.204723 3046:-0.789529 3047:0.880167 3048:0.591883 3049:-0.659188 3050:0.500592 3051:-0.436793 3052:0.648599 3053:0.416599 3054:0.638782 3055:-0.823829 3056:-1 3057:-0.674778 3058:0.54737 3059:-0.599665 3060:0.567059 3061:1 3062:0.106343 3063:-0.820323 3064:1 3065:0.024385 3066:-0.376515 3067:0.396965 3068:0.641884 3069:0.625309 3070:0.127802 3071:0.441778 3072:-0.723965 3073:-0.0287785 3074:-0.492293 3075:1 3076:-0.0880021 3077:-0.767838 3078:1 3079:0.927804 3080:-1 3081:-0.958257 3082:-0.552353 3083:1 3084:-1 3085:0.562305 3086:-0.153441 3087:-0.516431 3088:-0.521806 3089:-1 3090:-0.825978 3091:-0.136356 3092:0.252352 3093:0.159834 3094:-0.425394 3095:-0.105516 3096:0.289956 3097:-0.519159 3098:-1 3099:0.0219961 3100:-0.682961 3101:-0.0880021 3102:-0.767838 3103:1 3104:0.927804 3105:-1 3106:-0.958257 3107:-0.552353 3108:1 3109:-1 3110:0.562305 3111:-0.153441 3112:-0.516431 3113:-0.521806 3114:-1 3115:-0.825978 3116:-0.136356 3117:0.252352 3118:0.159834 3119:-0.425394 3120:-0.105516 3121:0.289956 3122:-0.519159 3123:-1 3124:0.0219961 3125:-0.682961 3126:-0.554798 3127:-0.651697 3128:-0.187038 3129:1 3130:0.330854 3131:-1 3132:-1 3133:0.315785 3134:-0.337599 3135:0.882376 3136:0.508752 3137:-0.156603 3138:-0.0889425 3139:0.0679752 3140:0.589873 3141:0.246745 3142:0.2981 3143:0.0141769 3144:-0.168739 3145:-0.778765 3146:0.695273 3147:-0.336353 3148:-0.367022 3149:-0.310972 3150:0.769644 3151:-0.554798 3152:-0.651697 3153:-0.187038 3154:1 3155:0.330854 3156:-1 3157:-1 3158:0.315785 3159:-0.337599 3160:0.882376 3161:0.508752 3162:-0.156603 3163:-0.0889425 3164:0.0679752 3165:0.589873 3166:0.246745 3167:0.2981 3168:0.0141769 3169:-0.168739 3170:-0.778765 3171:0.695273 3172:-0.336353 3173:-0.367022 3174:-0.310972 3175:0.769644 3176:-0.675549 3177:-0.376298 3178:-0.146571 3179:0.648417 3180:0.675478 3181:0.465735 3182:0.503791 3183:0.806458 3184:0.184073 3185:0.629417 3186:0.973427 3187:-0.119174 3188:-0.233574 3189:0.752503 3190:-0.657409 3191:-0.253272 3192:0.832189 3193:0.45671 3194:-0.505299 3195:0.388906 3196:0.462374 3197:-0.435308 3198:0.546694 3199:0.273234 3200:-0.681239 
