svm_type c_svc
kernel_type rbf
gamma 0.00031250000000000001
nr_class 2
total_sv 8
rho 0.0001251369685633108
label 1 2
nr_sv 4 4
SV
0.0009765625 1:1 2:-0.815954 3:0.687274 4:-0.0330521 5:0.90234 6:0.305467 7:-0.411381 8:0.670712 9:-0.886067 10:0.72947 11:-1 12:-0.0002442 13:0.809854 14:-0.655324 15:1 16:-0.788459 17:-0.387927 18:-0.299077 19:0.840216 20:0.644611 21:0.163655 22:0.74978 23:0.0845313 24:-0.573364 25:-0.390108 26:1 27:-0.52343 28:1 29:-0.576108 30:0.266314 31:-1 32:-0.0683594 33:0.394089 34:-0.88755 35:0.720727 36:-0.804819 37:-1 38:0.685077 39:0.0396955 40:-0.768396 41:-0.75963 42:-0.774691 43:0.73174 44:0.0232236 45:1 46:1 47:1 48:0.443089 49:0.589208 50:0.371601 51:1 52:-0.52343 53:1 54:-0.576108 55:0.266314 56:-1 57:-0.0683594 58:0.394089 59:-0.88755 60:0.720727 61:-0.804819 62:-1 63:0.685077 64:0.0396955 65:-0.768396 66:-0.75963 67:-0.774691 68:0.73174 69:0.0232236 70:1 71:1 72:1 73:0.443089 74:0.589208 75:0.371601 76:0.191011 77:-0.159917 78:-0.349288 79:-0.176555 80:0.693491 81:-0.123696 82:0.338972 83:-0.89231 84:-1 85:0.0288289 86:1 87:0.303881 88:-0.362378 89:-1 90:1 91:-0.543261 92:0.817112 93:0.486967 94:-1 95:0.383827 96:-0.879945 97:0.908782 98:-1 99:-0.565503 100:0.333878 101:0.967242 102:-0.987674 103:1 104:0.954919 105:-0.720227 106:1 107:0.943928 108:-0.975589 109:0.962729 110:0.993492 111:0.991934 112:-0.855601 113:0.976203 114:-0.986264 115:0.988758 116:0.984914 117:0.978969 118:0.991082 119:0.97943 120:0.933708 121:1 122:0.997874 123:0.993098 124:0.999367 125:-0.995906 126:-0.650615 127:1 128:0.490181 129:1 130:-1 131:-1 132:1 133:0.572342 134:0.527874 135:-0.350991 136:-0.402957 137:-0.0364336 138:-0.54149 139:-0.781614 140:0.827672 141:-0.299288 142:-0.394004 143:0.337241 144:-1 145:-0.446971 146:-0.15906 147:1 148:0.595454 149:-1 150:0.802679 151:-0.650615 152:1 153:0.490181 154:1 155:-1 156:-1 157:1 158:0.572342 159:0.527874 160:-0.350991 161:-0.402957 162:-0.0364336 163:-0.54149 164:-0.781614 165:0.827672 166:-0.299288 167:-0.394004 168:0.337241 169:-1 170:-0.446971 171:-0.15906 172:1 173:0.595454 174:-1 175:0.802679 176:-0.700845 177:-0.582256 178:1 179:0.745788 180:0.946089 181:0.877861 182:0.562527 183:-0.632901 184:0.184903 185:0.5771 186:0.399196 187:-0.322405 188:-0.518636 189:-0.628513 190:-0.168789 191:0.439085 192:1 193:-0.542563 194:0.425917 195:-0.393523 196:-0.872529 197:-0.719849 198:-0.40494 199:-0.189083 200:0.664394 201:-1 202:1 203:1 204:-0.192772 205:1 206:-1 207:1 208:1 209:1 210:0.603449 211:1 212:-0.920862 213:1 214:-1 215:-1 216:1 217:-1 218:-1 219:1 220:-1 221:1 222:-1 223:1 224:1 225:1 226:0.845065 227:0.995532 228:-0.857739 229:0.974685 230:0.012797 231:-0.257778 232:0.0976869 233:-0.997942 234:-0.610469 235:0.7153 236:0.560611 237:-0.781852 238:-0.591581 239:-1 240:1 241:0.718364 242:0.0258286 243:-0.126196 244:0.50642 245:0.964895 246:-0.937683 247:0.795944 248:0.994474 249:0.980052 250:-0.994713 251:-1 252:-1 253:-1 254:-0.859373 255:-1 256:0.167627 257:0.322101 258:0.24464 259:1 260:0.372502 261:0.397959 262:-0.184767 263:0.672434 264:0.728904 265:-0.858509 266:-1 267:0.991816 268:-1 269:0.807003 270:0.44187 271:-1 272:0.482556 273:-1 274:-1 275:-0.162387 276:-1 277:-0.985991 278:-0.353292 279:1 280:1 281:-1 282:1 283:0.516718 284:0.99686 285:0.357612 286:1 287:-0.576621 288:-0.491071 289:0.284429 290:-1 291:0.26196 292:1 293:-1 294:0.388683 295:-0.956892 296:-1 297:-0.278305 298:1 299:-1 300:1 301:-1 302:-0.985991 303:-0.353292 304:1 305:1 306:-1 307:1 308:0.516718 309:0.99686 310:0.357612 311:1 312:-0.576621 313:-0.491071 314:0.284429 315:-1 316:0.26196 317:1 318:-1 319:0.388683 320:-0.956892 321:-1 322:-0.278305 323:1 324:-1 325:1 326:0.752958 327:0.502109 328:1 329:-1 330:1 331:1 332:-0.866255 333:-1 334:-1 335:0.441259 336:-0.404173 337:-1 338:-0.651162 339:-1 340:-1 341:1 342:0.834552 343:1 344:0.800532 345:-0.360878 346:-0.815088 347:0.817472 348:-0.681442 349:-1 350:-1 351:-0.974277 352:-0.322591 353:-0.0659567 354:-0.278018 355:0.83065 356:0.484401 357:0.896828 358:0.973635 359:0.93089 360:0.727614 361:0.949644 362:-0.968356 363:-0.865058 364:0.145663 365:-0.826322 366:-1 367:-1 368:-0.97511 369:-0.620006 370:-0.0573974 371:1 372:0.952895 373:0.966172 374:0.631881 375:-0.9881 376:-0.974277 377:-0.322591 378:-0.0659567 379:-0.278018 380:0.83065 381:0.484401 382:0.896828 383:0.973635 384:0.93089 385:0.727614 386:0.949644 387:-0.968356 388:-0.865058 389:0.145663 390:-0.826322 391:-1 392:-1 393:-0.97511 394:-0.620006 395:-0.0573974 396:1 397:0.952895 398:0.966172 399:0.631881 400:-0.9881 401:0.0636742 402:-0.0045102 403:-0.0415262 404:0.897926 405:-0.72013 406:-0.663498 407:1 408:-0.432153 409:0.437426 410:0.144383 411:-0.888889 412:0.160847 413:-0.266599 414:-0.0251744 415:-0.401357 416:0.392858 417:-0.289071 418:0.20084 419:0.164311 420:0.67404 421:-0.468513 422:0.117075 423:-0.0587936 424:0.0286519 425:-0.358286 426:1 427:0.587396 428:-0.806974 429:-0.293123 430:0.822015 431:-0.847999 432:0.246131 433:-0.86706 434:0.46866 435:-0.221881 436:-0.927153 437:-0.653776 438:1 439:0.949234 440:0.895259 441:-0.0327214 442:1 443:0.488234 444:0.16139 445:-0.793129 446:-0.445678 447:0.507774 448:0.669701 449:-0.710948 450:-0.930896 451:-0.326728 452:-0.385311 453:0.0492985 454:0.0669894 455:0.456985 456:0.145165 457:0.236058 458:-0.173063 459:-0.866276 460:1 461:0.182676 462:-1 463:-0.321994 464:0.232536 465:0.344766 466:-0.352489 467:-0.223681 468:-0.655738 469:0.802257 470:-0.0803415 471:1 472:-0.554638 473:-0.57965 474:0.019201 475:0.191162 476:-1 477:-1 478:-0.265178 479:0.63944 480:0.49267 481:-1 482:-1 483:0.593939 484:-1 485:0.813475 486:-0.894779 487:1 488:1 489:1 490:1 491:0.815503 492:0.36252 493:0.293935 494:-1 495:1 496:-1 497:0.802899 498:1 499:1 500:-1 501:0.561511 502:-0.12828 503:-1 504:1 505:-0.704067 506:0.374079 507:1 508:1 509:0.607344 510:0.092628 511:-0.545762 512:0.609887 513:1 514:-0.153389 515:0.653727 516:0.682334 517:-1 518:1 519:-0.787231 520:1 521:-0.0825344 522:0.528505 523:1 524:-0.45462 525:-0.521117 526:-1 527:-0.358911 528:-0.0245489 529:-0.45117 530:1 531:-0.778435 532:-0.604277 533:0.972962 534:-0.525458 535:0.9902 536:1 537:-0.728386 538:-0.889258 539:-0.282162 540:-0.739264 541:-0.305648 542:-0.492977 543:0.478295 544:0.271241 545:-0.254323 546:0.930758 547:-0.901024 548:1 549:0.660338 550:0.895868 551:-0.0593502 552:-0.894031 553:-0.261415 554:-0.00108607 555:-0.59708 556:-0.436061 557:0.622152 558:0.266262 559:0.00117999 560:0.118507 561:0.534648 562:-0.361534 563:1 564:0.565422 565:-0.5583 566:0.416087 567:-1 568:-0.843114 569:-1 570:0.471734 571:-0.0305403 572:-0.0117561 573:-1 574:0.12806 575:-0.765674 576:-0.0593502 577:-0.894031 578:-0.261415 579:-0.00108607 580:-0.59708 581:-0.436061 582:0.622152 583:0.266262 584:0.00117999 585:0.118507 586:0.534648 587:-0.361534 588:1 589:0.565422 590:-0.5583 591:0.416087 592:-1 593:-0.843114 594:-1 595:0.471734 596:-0.0305403 597:-0.0117561 598:-1 599:0.12806 600:-0.765674 601:-0.274905 602:0.651724 603:0.507167 604:0.31622 605:-0.928979 606:0.234802 607:0.701988 608:-0.850887 609:0.732401 610:0.232229 611:-0.177575 612:-0.225637 613:0.398286 614:-0.235016 615:0.40868 616:0.012498 617:0.362574 618:0.470576 619:0.392053 620:0.175516 621:-0.348575 622:-0.0696959 623:-0.491641 624:-0.293398 625:-1 626:-1 627:1 628:0.688496 629:-1 630:-0.140696 631:-0.538697 632:-1 633:1 634:-1 635:1 636:1 637:-1 638:-0.71466 639:-0.119421 640:1 641:-0.327585 642:1 643:1 644:0.820193 645:1 646:-0.222228 647:-1 648:-1 649:-1 650:0.114212 651:-1 652:1 653:0.688496 654:-1 655:-0.140696 656:-0.538697 657:-1 658:1 659:-1 660:1 661:1 662:-1 663:-0.71466 664:-0.119421 665:1 666:-0.327585 667:1 668:1 669:0.820193 670:1 671:-0.222228 672:-1 673:-1 674:-1 675:0.114212 676:-0.501091 677:0.654956 678:1 679:-0.162467 680:-0.307463 681:0.185041 682:-1 683:-0.323265 684:-0.292374 685:-0.383389 686:0.562881 687:0.146815 688:-1 689:-0.138894 690:0.0518842 691:0.614202 692:-0.537645 693:0.0484943 694:-0.996636 695:-0.959677 696:1 697:1 698:1 699:1 700:-0.00609405 701:-0.501091 702:0.654956 703:1 704:-0.162467 705:-0.307463 706:0.185041 707:-1 708:-0.323265 709:-0.292374 710:-0.383389 711:0.562881 712:0.146815 713:-1 714:-0.138894 715:0.0518842 716:0.614202 717:-0.537645 718:0.0484943 719:-0.996636 720:-0.959677 721:1 722:1 723:1 724:1 725:-0.00609405 726:-0.570343 727:0.9466 728:1 729:0.762076 730:-0.194789 731:-0.388518 732:0.579237 733:0.734517 734:0.286977 735:-0.31647 736:0.404131 737:0.0741736 738:-0.682092 739:1 740:1 741:1 742:-1 743:-0.758936 744:-0.977123 745:-1 746:-1 747:-0.683588 748:0.473584 749:-0.404263 750:0.642087 751:-0.316328 752:-0.461389 753:1 754:-1 755:1 756:0.887733 757:0.0385892 758:0.250725 759:-0.998528 760:0.4555 761:-0.0147689 762:-0.3842 763:1 764:-1 765:-0.928187 766:0.290676 767:-0.230443 768:0.176342 769:1 770:0.920444 771:-0.376479 772:-0.780516 773:-0.385442 774:-0.694263 775:-0.674342 776:-0.316328 777:-0.461389 778:1 779:-1 780:1 781:0.887733 782:0.0385892 783:0.250725 784:-0.998528 785:0.4555 786:-0.0147689 787:-0.3842 788:1 789:-1 790:-0.928187 791:0.290676 792:-0.230443 793:0.176342 794:1 795:0.920444 796:-0.376479 797:-0.780516 798:-0.385442 799:-0.694263 800:-0.674342 801:0.443665 802:0.910369 803:-0.992328 804:0.438304 805:-0.737629 806:-0.694366 807:0.116098 808:-0.567195 809:0.521702 810:-0.62866 811:-0.653744 812:0.532 813:-1 814:-0.198225 815:-0.0157631 816:0.613349 817:0.48418 818:0.71185 819:-0.501344 820:0.0223652 821:0.172057 822:-0.618715 823:0.727178 824:0.863885 825:-0.32463 826:0.436641 827:0.413442 828:-0.430545 829:1 830:-0.675274 831:-0.859713 832:-0.0908292 833:0.309424 834:-0.352772 835:0.12298 836:0.193046 837:-0.898809 838:0.868567 839:0.583739 840:-1 841:-1 842:1 843:1 844:0.154204 845:-0.912317 846:-0.604936 847:0.947251 848:-0.420114 849:-0.394776 850:-0.0964784 851:-1 852:-0.0405231 853:0.563961 854:-1 855:-1 856:-0.164224 857:-1 858:-0.0921818 859:-1 860:1 861:1 862:-1 863:-1 864:1 865:-1 866:-0.99656 867:1 868:-0.338369 869:-0.182706 870:0.948616 871:-1 872:0.318198 873:1 874:0.0224369 875:1 876:-0.606409 877:-1 878:-0.404124 879:1 880:-1 881:1 882:-0.619743 883:0.0811984 884:1 885:-0.664732 886:-1 887:0.984936 888:0.637627 889:-0.629947 890:0.462047 891:0.810297 892:-0.737089 893:1 894:1 895:-1 896:-0.272383 897:1 898:1 899:-1 900:-0.546531 901:0.983117 902:0.985807 903:0.195392 904:-1 905:-1 906:-0.866734 907:0.748144 908:-0.774886 909:0.532466 910:0.984701 911:-0.995423 912:-0.298662 913:0.937512 914:-0.9922 915:0.916175 916:-0.40082 917:0.983538 918:0.755143 919:-0.678669 920:0.780062 921:-0.171251 922:0.430759 923:0.987331 924:-0.0982763 925:-0.963692 926:1 927:0.51006 928:-0.648405 929:0.268912 930:1 931:0.173358 932:-1 933:-0.255516 934:-0.107463 935:-0.3345 936:-1 937:-0.581061 938:-1 939:-0.734179 940:1 941:0.59496 942:-0.642754 943:0.151014 944:0.673216 945:0.233056 946:-0.335913 947:0.472132 948:0.378808 949:-0.324039 950:0.0372223 951:0.495135 952:0.892143 953:-0.888844 954:-0.904972 955:-0.966347 956:-0.933293 957:0.99054 958:-0.821354 959:0.839048 960:-0.116396 961:-0.342294 962:0.631092 963:0.055611 964:0.962703 965:-0.913423 966:0.0546685 967:0.139093 968:-0.409165 969:0.225201 970:-0.303246 971:0.755064 972:-0.500662 973:-1 974:0.628012 975:-0.894496 976:0.248628 977:-0.917516 978:1 979:-0.315588 980:1 981:1 982:0.18153 983:0.88636 984:-0.303777 985:0.856213 986:0.537379 987:-0.0111504 988:-0.997801 989:-0.910127 990:-0.827317 991:-0.487493 992:0.384777 993:0.550524 994:0.709863 995:0.22503 996:-0.468653 997:0.32732 998:0.966849 999:-0.539067 1000:1 1001:-0.945587 1002:0.998241 1003:0.680849 1004:0.426977 1005:-0.968661 1006:-0.947702 1007:0.992865 1008:-0.98716 1009:-0.612443 1010:0.890905 1011:-0.97486 1012:0.930241 1013:-0.431737 1014:0.802117 1015:-0.811219 1016:-0.460044 1017:-0.363778 1018:0.593004 1019:0.00105592 1020:-0.672392 1021:0.168054 1022:-0.832911 1023:-0.99414 1024:1 1025:0.964283 1026:-0.952646 1027:0.402777 1028:-1 1029:0.210074 1030:0.0192647 1031:-0.296053 1032:-1 1033:1 1034:-0.0602637 1035:1 1036:-1 1037:1 1038:1 1039:0.0365365 1040:-0.691701 1041:-0.547382 1042:-0.862178 1043:0.334953 1044:0.0050616 1045:-0.828388 1046:1 1047:-0.246441 1048:-0.283374 1049:1 1050:0.965099 1051:1 1052:0.884392 1053:0.329547 1054:1 1055:1 1056:-0.157004 1057:0.450051 1058:-1 1059:1 1060:1 1061:1 1062:0.433154 1063:1 1064:-1 1065:-0.204997 1066:-0.321524 1067:-0.411709 1068:1 1069:0.813681 1070:-1 1071:-1 1072:-1 1073:-1 1074:-0.217175 1075:-0.600594 1076:0.381177 1077:-0.852603 1078:-0.703901 1079:0.420494 1080:1 1081:0.793121 1082:-0.040564 1083:-0.573695 1084:-0.333631 1085:1 1086:-0.0916398 1087:-1 1088:0.251571 1089:0.517903 1090:-0.260399 1091:1 1092:0.522027 1093:0.773939 1094:0.647593 1095:1 1096:-0.298732 1097:0.296314 1098:-0.166867 1099:0.950688 1100:-1 1101:-1 1102:-0.556351 1103:1 1104:0.936255 1105:0.820979 1106:-0.929643 1107:0.84817 1108:0.749429 1109:-1 1110:0.864649 1111:-0.962362 1112:0.907759 1113:-1 1114:0.188891 1115:0.196406 1116:-0.0391716 1117:-0.58967 1118:-1 1119:0.0544648 1120:0.320127 1121:-0.745444 1122:-0.00274031 1123:-1 1124:-1 1125:0.232504 1126:0.181195 1127:-0.922837 1128:-0.193517 1129:-0.36643 1130:1 1131:1 1132:-0.420389 1133:0.91375 1134:-1 1135:1 1136:0.495116 1137:-1 1138:-0.00911745 1139:0.446238 1140:0.227395 1141:0.583059 1142:0.495913 1143:-0.643406 1144:0.799554 1145:0.769734 1146:0.456608 1147:-1 1148:0.895596 1149:1 1150:-0.114915 1151:-1 1152:1 1153:0.648727 1154:1 1155:-1 1156:-1 1157:1 1158:-1 1159:-0.954558 1160:-1 1161:1 1162:1 1163:-1 1164:1 1165:-0.971136 1166:-0.38427 1167:0.424246 1168:-1 1169:0.0231096 1170:-1 1171:1 1172:-1 1173:1 1174:1 1175:1 1176:-1 1177:1 1178:0.648727 1179:1 1180:-1 1181:-1 1182:1 1183:-1 1184:-0.954558 1185:-1 1186:1 1187:1 1188:-1 1189:1 1190:-0.971136 1191:-0.38427 1192:0.424246 1193:-1 1194:0.0231096 1195:-1 1196:1 1197:-1 1198:1 1199:1 1200:1 1201:1 1202:1 1203:1 1204:-1 1205:-1 1206:-1 1207:-1 1208:-0.731489 1209:-1 1210:1 1211:-1 1212:1 1213:-1 1214:-1 1215:1 1216:1 1217:-0.487271 1218:-1 1219:0.694027 1220:-1 1221:-0.319899 1222:-1 1223:-1 1224:-1 1225:1 1226:0.43599 1227:0.0901767 1228:1 1229:-0.939341 1230:0.405076 1231:0.652767 1232:-0.495777 1233:-1 1234:-0.704464 1235:1 1236:-0.971161 1237:0.0745661 1238:-1 1239:0.487056 1240:0.153207 1241:0.852357 1242:1 1243:-0.46275 1244:-0.684776 1245:1 1246:0.799081 1247:0.87978 1248:0.663801 1249:0.580953 1250:-1 1251:0.43599 1252:0.0901767 1253:1 1254:-0.939341 1255:0.405076 1256:0.652767 1257:-0.495777 1258:-1 1259:-0.704464 1260:1 1261:-0.971161 1262:0.0745661 1263:-1 1264:0.487056 1265:0.153207 1266:0.852357 1267:1 1268:-0.46275 1269:-0.684776 1270:1 1271:0.799081 1272:0.87978 1273:0.663801 1274:0.580953 1275:-1 1276:-1 1277:0.911236 1278:-0.524489 1279:1 1280:1 1281:-0.204474 1282:0.995665 1283:1 1284:0.0821496 1285:-1 1286:1 1287:-1 1288:1 1289:1 1290:0.602718 1291:0.523361 1292:-0.586047 1293:1 1294:1 1295:1 1296:-1 1297:0.401462 1298:-1 1299:0.0951083 1300:-1 1301:-1 1302:0.911236 1303:-0.524489 1304:1 1305:1 1306:-0.204474 1307:0.995665 1308:1 1309:0.0821496 1310:-1 1311:1 1312:-1 1313:1 1314:1 1315:0.602718 1316:0.523361 1317:-0.586047 1318:1 1319:1 1320:1 1321:-1 1322:0.401462 1323:-1 1324:0.0951083 1325:-1 1326:-0.921546 1327:-0.650879 1328:0.503527 1329:0.950216 1330:0.979767 1331:0.655075 1332:0.774408 1333:-0.334498 1334:0.641014 1335:0.512385 1336:0.370444 1337:0.599601 1338:-0.362479 1339:-0.542383 1340:-0.516775 1341:0.356488 1342:0.871238 1343:-0.957295 1344:-0.889002 1345:0.610588 1346:0.550189 1347:1 1348:-0.271043 1349:-0.199404 1350:-0.466661 1351:-0.921546 1352:-0.650879 1353:0.503527 1354:0.950216 1355:0.979767 1356:0.655075 1357:0.774408 1358:-0.334498 1359:0.641014 1360:0.512385 1361:0.370444 1362:0.599601 1363:-0.362479 1364:-0.542383 1365:-0.516775 1366:0.356488 1367:0.871238 1368:-0.957295 1369:-0.889002 1370:0.610588 1371:0.550189 1372:1 1373:-0.271043 1374:-0.199404 1375:-0.466661 1376:-0.0599963 1377:0.289416 1378:-0.147086 1379:0.392224 1380:-0.773792 1381:-1 1382:0.455206 1383:-1 1384:-0.533251 1385:-1 1386:1 1387:1 1388:0.40603 1389:-1 1390:0.235104 1391:0.820135 1392:1 1393:0.157336 1394:-0.691203 1395:-0.442169 1396:0.203567 1397:0.652094 1398:0.802871 1399:-1 1400:-0.258097 1401:-0.0599963 1402:0.289416 1403:-0.147086 1404:0.392224 1405:-0.773792 1406:-1 1407:0.455206 1408:-1 1409:-0.533251 1410:-1 1411:1 1412:1 1413:0.40603 1414:-1 1415:0.235104 1416:0.820135 1417:1 1418:0.157336 1419:-0.691203 1420:-0.442169 1421:0.203567 1422:0.652094 1423:0.802871 1424:-1 1425:-0.258097 1426:-0.37064 1427:0.671778 1428:-1 1429:0.87675 1430:0.63777 1431:0.71444 1432:0.10189 1433:-1 1434:0.66746 1435:0.0616891 1436:-1 1437:-1 1438:0.491488 1439:-0.209739 1440:-0.285398 1441:-0.325415 1442:0.181654 1443:0.529447 1444:-0.176063 1445:0.368634 1446:0.0335984 1447:-0.285846 1448:-0.421822 1449:-0.811995 1450:-0.187488 1451:-0.37064 1452:0.671778 1453:-1 1454:0.87675 1455:0.63777 1456:0.71444 1457:0.10189 1458:-1 1459:0.66746 1460:0.0616891 1461:-1 1462:-1 1463:0.491488 1464:-0.209739 1465:-0.285398 1466:-0.325415 1467:0.181654 1468:0.529447 1469:-0.176063 1470:0.368634 1471:0.0335984 1472:-0.285846 1473:-0.421822 1474:-0.811995 1475:-0.187488 1476:-0.301818 1477:0.10699 1478:1 1479:0.242637 1480:0.309631 1481:0.798681 1482:-0.514294 1483:-0.145941 1484:-0.527516 1485:0.430716 1486:-1 1487:0.0939255 1488:-0.60556 1489:0.753305 1490:0.666173 1491:0.782137 1492:0.16906 1493:0.134641 1494:-0.712712 1495:-1 1496:0.804558 1497:0.299886 1498:1 1499:1 1500:-0.633898 1501:-0.301818 1502:0.10699 1503:1 1504:0.242637 1505:0.309631 1506:0.798681 1507:-0.514294 1508:-0.145941 1509:-0.527516 1510:0.430716 1511:-1 1512:0.0939255 1513:-0.60556 1514:0.753305 1515:0.666173 1516:0.782137 1517:0.16906 1518:0.134641 1519:-0.712712 1520:-1 1521:0.804558 1522:0.299886 1523:1 1524:1 1525:-0.633898 1526:1 1527:1 1528:1 1529:-1 1530:-1 1531:-1 1532:-1 1533:-0.30388 1534:0.514254 1535:1 1536:-1 1537:-1 1538:1 1539:1 1540:-1 1541:-1 1542:-1 1543:1 1544:1 1545:1 1546:1 1547:-1 1548:-1 1549:-1 1550:-1 1551:0.260778 1552:-1 1553:0.215369 1554:-1 1555:1 1556:0.379395 1557:-0.105578 1558:0.729925 1559:0.320584 1560:0.673032 1561:0.0906113 1562:-0.0108476 1563:-0.570875 1564:-0.323661 1565:-0.180375 1566:-0.117834 1567:-0.755985 1568:-0.0995805 1569:-0.242502 1570:-0.19426 1571:-0.706972 1572:-0.308688 1573:1 1574:0.479713 1575:-0.231391 1576:0.260778 1577:-1 1578:0.215369 1579:-1 1580:1 1581:0.379395 1582:-0.105578 1583:0.729925 1584:0.320584 1585:0.673032 1586:0.0906113 1587:-0.0108476 1588:-0.570875 1589:-0.323661 1590:-0.180375 1591:-0.117834 1592:-0.755985 1593:-0.0995805 1594:-0.242502 1595:-0.19426 1596:-0.706972 1597:-0.308688 1598:1 1599:0.479713 1600:-0.231391 1601:-0.129514 1602:-1 1603:-0.986099 1604:0.873179 1605:-1 1606:0.389147 1607:0.816957 1608:-0.801393 1609:1 1610:0.301667 1611:0.879057 1612:0.739856 1613:0.198576 1614:1 1615:-1 1616:-1 1617:1 1618:-0.583059 1619:1 1620:0.624167 1621:-1 1622:0.40585 1623:0.381619 1624:-0.568333 1625:-0.559704 1626:0.600411 1627:0.396291 1628:-0.587162 1629:0.614281 1630:-0.352 1631:-0.806322 1632:-0.372669 1633:0.456286 1634:-0.0862262 1635:-0.919024 1636:-0.0385707 1637:0.483702 1638:0.40416 1639:-0.0457102 1640:0.855441 1641:-0.725416 1642:-0.717181 1643:-0.70868 1644:-0.539 1645:0.550629 1646:-0.0825255 1647:0.801492 1648:-1 1649:-0.0310343 1650:0.000288452 1651:-1 1652:1 1653:1 1654:0.899924 1655:1 1656:1 1657:1 1658:1 1659:-1 1660:-1 1661:1 1662:-0.238412 1663:1 1664:-1 1665:1 1666:0.231107 1667:-0.500489 1668:0.175141 1669:-0.471446 1670:-0.871652 1671:-0.0533746 1672:1 1673:-1 1674:0.434136 1675:0.770111 1676:0.565805 1677:1 1678:1 1679:-1 1680:0.892784 1681:1 1682:-1 1683:0.0931359 1684:-1 1685:0.112052 1686:0.646977 1687:-1 1688:1 1689:1 1690:-1 1691:0.36836 1692:1 1693:-1 1694:1 1695:-0.767548 1696:1 1697:-1 1698:1 1699:1 1700:-1 1701:0.35813 1702:-0.439967 1703:-0.858364 1704:-0.729035 1705:-0.639273 1706:0.315263 1707:0.903819 1708:-1 1709:-0.69355 1710:-0.27433 1711:-0.835316 1712:0.834742 1713:-1 1714:0.20404 1715:-0.742441 1716:0.119328 1717:0.527244 1718:0.336936 1719:-0.275872 1720:0.140441 1721:-0.224079 1722:-0.521346 1723:-0.54602 1724:1 1725:0.120418 1726:0.910069 1727:1 1728:-0.702252 1729:0.377568 1730:-0.747002 1731:-0.499694 1732:-0.132558 1733:-0.000783605 1734:0.101817 1735:0.00756516 1736:-0.294501 1737:0.799357 1738:0.0751078 1739:0.25417 1740:-0.533177 1741:0.535479 1742:-0.476336 1743:-1 1744:0.0242973 1745:-0.247839 1746:1 1747:-0.897944 1748:-0.353597 1749:0.310036 1750:0.59431 1751:-0.895203 1752:0.280697 1753:-0.231748 1754:1 1755:-0.309562 1756:-0.841158 1757:-1 1758:0.189939 1759:1 1760:-0.362922 1761:-1 1762:-0.762581 1763:-0.532045 1764:-1 1765:-0.546517 1766:0.240527 1767:-0.569905 1768:-0.309708 1769:0.68207 1770:-1 1771:0.292208 1772:0.0452938 1773:-1 1774:0.396249 1775:0.567589 1776:-0.212522 1777:0.586386 1778:-0.162008 1779:0.271518 1780:-1 1781:-0.592913 1782:0.686171 1783:0.375287 1784:-0.637598 1785:-0.251877 1786:-0.92647 1787:0.465026 1788:0.0514893 1789:-0.437048 1790:-0.739424 1791:0.983958 1792:0.967834 1793:-0.325171 1794:-0.622171 1795:0.934537 1796:-0.359703 1797:-0.976067 1798:0.00946938 1799:0.493395 1800:-0.894722 1801:-0.992699 1802:-0.639187 1803:1 1804:-0.309761 1805:1 1806:0.292752 1807:0.533592 1808:-0.116912 1809:-0.638635 1810:0.347379 1811:-0.736733 1812:-0.293708 1813:0.183046 1814:1 1815:-0.116015 1816:0.474489 1817:-0.194354 1818:-1 1819:0.278466 1820:-0.0686724 1821:-0.846434 1822:-0.708842 1823:-0.304571 1824:1 1825:0.198039 1826:0.113398 1827:-1 1828:-1 1829:1 1830:-0.294781 1831:-0.388784 1832:-0.578931 1833:1 1834:1 1835:0.0588247 1836:-0.22144 1837:-1 1838:1 1839:1 1840:-1 1841:-1 1842:0.701908 1843:0.186992 1844:-0.348547 1845:-1 1846:-1 1847:1 1848:-0.119022 1849:-1 1850:0.255046 1851:-1 1852:-0.0234024 1853:0.0798083 1854:1 1855:-1 1856:0.985645 1857:-1 1858:1 1859:1 1860:-0.329104 1861:-1 1862:1 1863:-0.361489 1864:-0.410768 1865:-0.15156 1866:0.894946 1867:-0.773996 1868:1 1869:-0.16288 1870:-0.202317 1871:1 1872:-0.797405 1873:-0.761277 1874:-0.129199 1875:-0.687655 1876:0.340405 1877:-1 1878:0.779538 1879:-1 1880:0.825299 1881:1 1882:-0.133565 1883:0.950037 1884:-0.649719 1885:0.773498 1886:-0.165326 1887:-0.265224 1888:-0.711883 1889:-0.00873405 1890:0.326761 1891:-0.199901 1892:1 1893:-0.268624 1894:0.74257 1895:0.480875 1896:-0.963977 1897:-0.292601 1898:0.0897743 1899:0.392483 1900:1 1901:0.593719 1902:0.857918 1903:-1 1904:0.308734 1905:-0.597688 1906:-1 1907:0.788876 1908:-0.773998 1909:0.643873 1910:0.831151 1911:-0.81772 1912:-0.417088 1913:0.858835 1914:-0.435158 1915:1 1916:1 1917:-1 1918:-1 1919:-0.627851 1920:-0.574131 1921:-0.308396 1922:0.299127 1923:0.418831 1924:-0.432743 1925:-1 1926:-1 1927:-0.21316 1928:1 1929:-0.565526 1930:0.389917 1931:0.721628 1932:-1 1933:1 1934:-1 1935:-0.422255 1936:-0.93174 1937:-0.0312784 1938:0.803181 1939:-0.515282 1940:1 1941:0.676943 1942:-1 1943:-0.798238 1944:-0.374194 1945:1 1946:0.754191 1947:-1 1948:0.232725 1949:0.453755 1950:0.26943 1951:0.0596096 1952:0.364431 1953:-0.42974 1954:0.202078 1955:-1 1956:0.0583828 1957:-0.166224 1958:-0.909462 1959:0.722854 1960:0.946002 1961:-1 1962:-0.847001 1963:0.984411 1964:-0.892602 1965:0.178329 1966:-1 1967:0.29136 1968:0.88582 1969:-0.248266 1970:-0.541994 1971:-0.103122 1972:0.745996 1973:0.890282 1974:0.355744 1975:-0.215496 1976:-1 1977:1 1978:0.258162 1979:1 1980:0.881219 1981:-0.24442 1982:-0.294339 1983:0.518673 1984:-0.179479 1985:-0.358891 1986:0.87476 1987:-0.715366 1988:1 1989:0.982722 1990:-0.165929 1991:-0.225291 1992:-1 1993:-0.845474 1994:0.0210891 1995:-0.872399 1996:-0.360995 1997:-0.94937 1998:-0.910724 1999:-0.0709283 2000:-0.589691 2001:-0.762299 2002:0.849444 2003:-0.315992 2004:-0.939427 2005:-1 2006:-0.970553 2007:0.755387 2008:-0.838859 2009:-0.384526 2010:-0.032155 2011:-0.900844 2012:0.559518 2013:0.856108 2014:-0.783167 2015:-0.81773 2016:-0.487753 2017:-0.0426034 2018:0.0252435 2019:0.791856 2020:-0.241889 2021:0.0812467 2022:-0.193696 2023:0.186806 2024:0.841379 2025:-0.73251 2026:-1 2027:-0.740938 2028:0.427079 2029:1 2030:1 2031:-1 2032:1 2033:1 2034:-1 2035:0.520577 2036:-1 2037:1 2038:1 2039:0.0210928 2040:-1 2041:0.253624 2042:0.669811 2043:-1 2044:1 2045:0.172504 2046:-1 2047:1 2048:-0.656262 2049:0.463833 2050:-0.0278483 2051:-1 2052:1 2053:1 2054:1 2055:-0.437126 2056:-1 2057:-1 2058:0.884981 2059:-1 2060:0.529753 2061:-0.223585 2062:1 2063:-0.885612 2064:1 2065:1 2066:-1 2067:-0.0727509 2068:1 2069:-1 2070:1 2071:-1 2072:-1 2073:-0.0721351 2074:-0.6323 2075:-1 2076:0.476381 2077:-0.143999 2078:0.745786 2079:0.851698 2080:1 2081:-0.697067 2082:-0.298043 2083:-0.208082 2084:0.207952 2085:1 2086:-1 2087:-0.0604653 2088:-0.733724 2089:-0.974002 2090:1 2091:0.680815 2092:-0.213947 2093:0.9509 2094:-1 2095:-0.466938 2096:-0.822355 2097:-0.817352 2098:0.709068 2099:-0.0446279 2100:-0.321845 2101:-0.244731 2102:0.890751 2103:0.669509 2104:0.11079 2105:-0.675186 2106:-0.559251 2107:-0.958028 2108:-0.432737 2109:0.228721 2110:-0.243162 2111:0.129973 2112:-0.920179 2113:0.130557 2114:1 2115:-0.133129 2116:-0.459843 2117:-0.726661 2118:-0.962677 2119:0.506215 2120:-0.810722 2121:0.458157 2122:-1 2123:-0.848964 2124:0.185405 2125:0.987418 2126:-0.773573 2127:0.0702693 2128:1 2129:1 2130:0.0166439 2131:-0.401743 2132:-0.0561353 2133:0.872656 2134:0.693181 2135:0.0481953 2136:0.756059 2137:0.562424 2138:0.579537 2139:1 2140:1 2141:0.746149 2142:0.214507 2143:0.288141 2144:-0.78956 2145:-0.762607 2146:0.0752121 2147:-0.387177 2148:1 2149:0.538671 2150:0.789268 2151:1 2152:-0.914693 2153:1 2154:-0.379243 2155:-1 2156:-0.359123 2157:-1 2158:-0.957031 2159:0.0672651 2160:1 2161:-1 2162:-0.759524 2163:-0.28922 2164:0.0117216 2165:-1 2166:-0.377375 2167:1 2168:-0.409518 2169:-0.0107312 2170:-0.0315086 2171:-1 2172:0.156504 2173:1 2174:0.00211669 2175:1 2176:0.26303 2177:1 2178:1 2179:-1 2180:1 2181:1 2182:-0.780812 2183:0.448247 2184:-1 2185:0.796637 2186:-0.256983 2187:-0.832065 2188:-0.781659 2189:-1 2190:-0.0760793 2191:1 2192:-1 2193:0.642868 2194:-0.123588 2195:-0.243742 2196:0.473211 2197:0.255024 2198:-0.983128 2199:-0.741314 2200:0.387607 2201:-1 2202:1 2203:-0.9728 2204:1 2205:0.00609437 2206:-1 2207:1 2208:-1 2209:1 2210:-1 2211:0.844402 2212:0.13682 2213:1 2214:-1 2215:-0.412809 2216:1 2217:0.347854 2218:-0.232042 2219:-1 2220:1 2221:0.724408 2222:-1 2223:-0.167267 2224:1 2225:1 2226:-0.541769 2227:-0.7477 2228:-0.504389 2229:-0.300763 2230:-0.000786357 2231:-0.963394 2232:0.931059 2233:-0.775784 2234:-0.804157 2235:-0.877412 2236:0.664261 2237:0.300172 2238:-0.833831 2239:1 2240:0.938414 2241:-0.849965 2242:-0.62581 2243:1 2244:-0.633859 2245:-0.587675 2246:0.653419 2247:0.750451 2248:-0.980843 2249:0.623294 2250:0.760764 2251:-1 2252:1 2253:0.859985 2254:1 2255:-0.272217 2256:-0.607211 2257:0.113519 2258:-0.455244 2259:0.0884109 2260:-1 2261:1 2262:1 2263:1 2264:-0.627119 2265:0.868361 2266:-1 2267:0.44646 2268:0.929957 2269:-0.0406644 2270:-0.675676 2271:-0.89381 2272:-0.0993739 2273:0.927999 2274:-1 2275:-0.941729 2276:-1 2277:1 2278:0.859985 2279:1 2280:-0.272217 2281:-0.607211 2282:0.113519 2283:-0.455244 2284:0.0884109 2285:-1 2286:1 2287:1 2288:1 2289:-0.627119 2290:0.868361 2291:-1 2292:0.44646 2293:0.929957 2294:-0.0406644 2295:-0.675676 2296:-0.89381 2297:-0.0993739 2298:0.927999 2299:-1 2300:-0.941729 2301:-0.964628 2302:-0.980805 2303:0.934606 2304:-0.700496 2305:0.602841 2306:0.984855 2307:0.440179 2308:-0.373313 2309:0.920122 2310:0.981053 2311:0.921755 2312:0.673671 2313:-0.973082 2314:-0.66377 2315:0.733305 2316:0.804966 2317:0.152362 2318:0.925791 2319:0.193369 2320:-0.670534 2321:-0.495434 2322:0.994415 2323:0.979891 2324:0.953144 2325:0.900976 2326:-0.964628 2327:-0.980805 2328:0.934606 2329:-0.700496 2330:0.602841 2331:0.984855 2332:0.440179 2333:-0.373313 2334:0.920122 2335:0.981053 2336:0.921755 2337:0.673671 2338:-0.973082 2339:-0.66377 2340:0.733305 2341:0.804966 2342:0.152362 2343:0.925791 2344:0.193369 2345:-0.670534 2346:-0.495434 2347:0.994415 2348:0.979891 2349:0.953144 2350:0.900976 2351:-0.283626 2352:0.293523 2353:1 2354:0.54797 2355:0.103519 2356:-0.776206 2357:-0.332374 2358:0.44457 2359:0.932409 2360:0.65271 2361:0.19266 2362:0.834472 2363:-0.804931 2364:0.814729 2365:0.983828 2366:1 2367:-0.0276402 2368:-0.569506 2369:-0.521766 2370:0.146833 2371:-0.0148726 2372:0.11128 2373:-0.269384 2374:-1 2375:1 2376:-0.147699 2377:-0.846659 2378:1 2379:0.337629 2380:0.532618 2381:-0.625207 2382:0.391017 2383:-1 2384:-1 2385:0.290339 2386:0.0889262 2387:0.347128 2388:-0.693956 2389:0.27927 2390:0.811283 2391:0.758725 2392:-0.714562 2393:-0.679177 2394:0.309128 2395:0.401278 2396:1 2397:0.963145 2398:-0.349824 2399:-0.609477 2400:0.273543 2401:-0.147699 2402:-0.846659 2403:1 2404:0.337629 2405:0.532618 2406:-0.625207 2407:0.391017 2408:-1 2409:-1 2410:0.290339 2411:0.0889262 2412:0.347128 2413:-0.693956 2414:0.27927 2415:0.811283 2416:0.758725 2417:-0.714562 2418:-0.679177 2419:0.309128 2420:0.401278 2421:1 2422:0.963145 2423:-0.349824 2424:-0.609477 2425:0.273543 2426:-0.325748 2427:-0.512232 2428:0.823749 2429:-1 2430:1 2431:0.645316 2432:0.679149 2433:0.249641 2434:-0.172289 2435:0.224476 2436:1 2437:-0.496021 2438:-0.121874 2439:-0.286414 2440:0.830743 2441:0.566982 2442:0.391813 2443:0.477329 2444:0.295953 2445:-0.135779 2446:-0.633953 2447:0.350673 2448:-0.885578 2449:-0.510075 2450:-0.86634 2451:-0.573091 2452:-0.487329 2453:0.926524 2454:-0.589313 2455:1 2456:-1 2457:-1 2458:0.723971 2459:-1 2460:1 2461:-1 2462:-0.0616406 2463:-1 2464:0.726945 2465:-0.375245 2466:-0.516854 2467:-0.290944 2468:0.141823 2469:-0.43809 2470:-0.477114 2471:-0.631344 2472:-0.79475 2473:1 2474:-0.129715 2475:0.871262 2476:-0.989458 2477:0.970001 2478:-0.67705 2479:-0.89421 2480:-0.994411 2481:-0.948225 2482:0.598361 2483:-0.925364 2484:-0.712024 2485:0.574441 2486:-1 2487:-0.895768 2488:-0.60916 2489:0.525617 2490:-0.816818 2491:-0.958341 2492:-0.163474 2493:0.982755 2494:0.233692 2495:-0.231067 2496:-0.0599309 2497:0.424031 2498:-0.978496 2499:0.995612 2500:-0.868943 2501:-0.881686 2502:0.756771 2503:0.568948 2504:1 2505:-1 2506:0.829479 2507:0.0996777 2508:-1 2509:1 2510:-0.92121 2511:0.26562 2512:1 2513:0.271533 2514:0.520893 2515:1 2516:-0.847608 2517:0.997259 2518:-0.580733 2519:-0.19729 2520:1 2521:-1 2522:-1 2523:1 2524:0.232931 2525:-0.868611 2526:-0.881686 2527:0.756771 2528:0.568948 2529:1 2530:-1 2531:0.829479 2532:0.0996777 2533:-1 2534:1 2535:-0.92121 2536:0.26562 2537:1 2538:0.271533 2539:0.520893 2540:1 2541:-0.847608 2542:0.997259 2543:-0.580733 2544:-0.19729 2545:1 2546:-1 2547:-1 2548:1 2549:0.232931 2550:-0.868611 2551:0.577999 2552:1 2553:-0.150529 2554:-1 2555:-1 2556:0.0781851 2557:-0.304778 2558:-0.254534 2559:0.642553 2560:0.151827 2561:1 2562:-0.0501701 2563:-1 2564:0.785244 2565:-0.193759 2566:-0.661676 2567:-0.878769 2568:-1 2569:-0.785572 2570:-0.695204 2571:1 2572:-0.342262 2573:0.975665 2574:-0.0553422 2575:0.68499 2576:0.577999 2577:1 2578:-0.150529 2579:-1 2580:-1 2581:0.0781851 2582:-0.304778 2583:-0.254534 2584:0.642553 2585:0.151827 2586:1 2587:-0.0501701 2588:-1 2589:0.785244 2590:-0.193759 2591:-0.661676 2592:-0.878769 2593:-1 2594:-0.785572 2595:-0.695204 2596:1 2597:-0.342262 2598:0.975665 2599:-0.0553422 2600:0.68499 2601:-0.75099 2602:0.728702 2603:-0.463158 2604:0.84875 2605:0.988712 2606:-0.0817846 2607:0.303178 2608:-0.430931 2609:0.54819 2610:-0.706569 2611:-0.995439 2612:-1 2613:0.90732 2614:-0.00846401 2615:0.0222199 2616:-0.837347 2617:0.483988 2618:-0.417252 2619:-0.821964 2620:0.608472 2621:-0.281764 2622:-0.603893 2623:-0.952251 2624:0.0546762 2625:0.0564963 2626:-0.75099 2627:0.728702 2628:-0.463158 2629:0.84875 2630:0.988712 2631:-0.0817846 2632:0.303178 2633:-0.430931 2634:0.54819 2635:-0.706569 2636:-0.995439 2637:-1 2638:0.90732 2639:-0.00846401 2640:0.0222199 2641:-0.837347 2642:0.483988 2643:-0.417252 2644:-0.821964 2645:0.608472 2646:-0.281764 2647:-0.603893 2648:-0.952251 2649:0.0546762 2650:0.0564963 2651:-0.288943 2652:0.312626 2653:-0.551785 2654:1 2655:-1 2656:-0.602409 2657:1 2658:-1 2659:1 2660:-1 2661:-0.227344 2662:0.275455 2663:1 2664:-0.355201 2665:-0.37295 2666:-0.172321 2667:0.408244 2668:-1 2669:0.813685 2670:-0.733692 2671:-0.586924 2672:0.0557243 2673:0.638778 2674:-0.111597 2675:1 2676:-0.288943 2677:0.312626 2678:-0.551785 2679:1 2680:-1 2681:-0.602409 2682:1 2683:-1 2684:1 2685:-1 2686:-0.227344 2687:0.275455 2688:1 2689:-0.355201 2690:-0.37295 2691:-0.172321 2692:0.408244 2693:-1 2694:0.813685 2695:-0.733692 2696:-0.586924 2697:0.0557243 2698:0.638778 2699:-0.111597 2700:1 2701:0.276467 2702:-0.195006 2703:-0.0634798 2704:-0.270786 2705:-0.904252 2706:-0.787748 2707:1 2708:-0.33482 2709:1 2710:0.878276 2711:1 2712:-0.119856 2713:1 2714:-0.606872 2715:-0.376887 2716:0.0021487 2717:0.784678 2718:0.832717 2719:0.787424 2720:0.12497 2721:0.682756 2722:-1 2723:1 2724:-0.362933 2725:0.787838 2726:0.276467 2727:-0.195006 2728:-0.0634798 2729:-0.270786 2730:-0.904252 2731:-0.787748 2732:1 2733:-0.33482 2734:1 2735:0.878276 2736:1 2737:-0.119856 2738:1 2739:-0.606872 2740:-0.376887 2741:0.0021487 2742:0.784678 2743:0.832717 2744:0.787424 2745:0.12497 2746:0.682756 2747:-1 2748:1 2749:-0.362933 2750:0.787838 2751:-0.705038 2752:-0.481135 2753:0.737764 2754:-0.528803 2755:0.222795 2756:0.494825 2757:-0.593043 2758:-0.177401 2759:0.144908 2760:0.629429 2761:-0.362647 2762:-0.0627705 2763:-1 2764:0.709709 2765:1 2766:-0.34043 2767:-0.635943 2768:-0.125912 2769:-0.976359 2770:-0.277752 2771:0.877439 2772:0.728408 2773:-0.796916 2774:-0.751553 2775:-1 2776:-0.705038 2777:-0.481135 2778:0.737764 2779:-0.528803 2780:0.222795 2781:0.494825 2782:-0.593043 2783:-0.177401 2784:0.144908 2785:0.629429 2786:-0.362647 2787:-0.0627705 2788:-1 2789:0.709709 2790:1 2791:-0.34043 2792:-0.635943 2793:-0.125912 2794:-0.976359 2795:-0.277752 2796:0.877439 2797:0.728408 2798:-0.796916 2799:-0.751553 2800:-1 2801:-1 2802:0.236841 2803:1 2804:0.734682 2805:-0.0888863 2806:-1 2807:1 2808:-0.493159 2809:1 2810:-1 2811:1 2812:-0.0997877 2813:-0.310802 2814:1 2815:0.191946 2816:-0.742972 2817:1 2818:0.658585 2819:-1 2820:1 2821:-0.811581 2822:-1 2823:0.259985 2824:-1 2825:-0.310486 2826:-1 2827:0.236841 2828:1 2829:0.734682 2830:-0.0888863 2831:-1 2832:1 2833:-0.493159 2834:1 2835:-1 2836:1 2837:-0.0997877 2838:-0.310802 2839:1 2840:0.191946 2841:-0.742972 2842:1 2843:0.658585 2844:-1 2845:1 2846:-0.811581 2847:-1 2848:0.259985 2849:-1 2850:-0.310486 2851:-0.922206 2852:-0.93727 2853:-0.0133893 2854:-0.57754 2855:-0.0832182 2856:0.0695436 2857:0.278624 2858:-0.452907 2859:0.577763 2860:0.756614 2861:0.188857 2862:0.526487 2863:-0.678273 2864:0.716821 2865:0.534248 2866:-0.306719 2867:-0.24909 2868:0.347714 2869:-0.626231 2870:-0.764615 2871:0.224704 2872:0.851838 2873:0.204061 2874:-0.174872 2875:-0.128578 2876:-0.922206 2877:-0.93727 2878:-0.0133893 2879:-0.57754 2880:-0.0832182 2881:0.0695436 2882:0.278624 2883:-0.452907 2884:0.577763 2885:0.756614 2886:0.188857 2887:0.526487 2888:-0.678273 2889:0.716821 2890:0.534248 2891:-0.306719 2892:-0.24909 2893:0.347714 2894:-0.626231 2895:-0.764615 2896:0.224704 2897:0.851838 2898:0.204061 2899:-0.174872 2900:-0.128578 2901:0.950491 2902:-0.969227 2903:0.9967 2904:0.275121 2905:0.961234 2906:0.937906 2907:-0.0920653 2908:0.852615 2909:-0.0440655 2910:0.986353 2911:0.967896 2912:-0.0244393 2913:-0.733473 2914:-0.198397 2915:0.906594 2916:0.641762 2917:-0.833267 2918:0.793546 2919:0.9355 2920:0.908698 2921:-0.495615 2922:0.641867 2923:0.914612 2924:0.883028 2925:0.868156 2926:0.950491 2927:-0.969227 2928:0.9967 2929:0.275121 2930:0.961234 2931:0.937906 2932:-0.0920653 2933:0.852615 2934:-0.0440655 2935:0.986353 2936:0.967896 2937:-0.0244393 2938:-0.733473 2939:-0.198397 2940:0.906594 2941:0.641762 2942:-0.833267 2943:0.793546 2944:0.9355 2945:0.908698 2946:-0.495615 2947:0.641867 2948:0.914612 2949:0.883028 2950:0.868156 2951:-0.89059 2952:-0.94988 2953:-0.507959 2954:-0.801424 2955:0.794871 2956:0.815011 2957:0.921261 2958:-0.27341 2959:0.404918 2960:0.595478 2961:0.922852 2962:-0.820476 2963:0.955575 2964:0.946966 2965:-0.421015 2966:0.801957 2967:0.542539 2968:0.838291 2969:0.540976 2970:-0.772239 2971:0.120498 2972:0.454175 2973:0.828115 2974:0.835583 2975:-0.442119 2976:-0.89059 2977:-0.94988 2978:-0.507959 2979:-0.801424 2980:0.794871 2981:0.815011 2982:0.921261 2983:-0.27341 2984:0.404918 2985:0.595478 2986:0.922852 2987:-0.820476 2988:0.955575 2989:0.946966 2990:-0.421015 2991:0.801957 2992:0.542539 2993:0.838291 2994:0.540976 2995:-0.772239 2996:0.120498 2997:0.454175 2998:0.828115 2999:0.835583 3000:-0.442119 3001:-0.784663 3002:0.931916 3003:-0.646127 3004:0.850581 3005:-0.549206 3006:0.214532 3007:0.858575 3008:-0.898753 3009:1 3010:-0.839804 3011:-0.879425 3012:-0.889048 3013:0.574855 3014:0.278372 3015:0.976377 3016:-0.404122 3017:1 3018:0.82042 3019:0.282848 3020:-1 3021:-0.025248 3022:-0.306106 3023:-0.00553655 3024:-0.675369 3025:-1 3026:-0.784663 3027:0.931916 3028:-0.646127 3029:0.850581 3030:-0.549206 3031:0.214532 3032:0.858575 3033:-0.898753 3034:1 3035:-0.839804 3036:-0.879425 3037:-0.889048 3038:0.574855 3039:0.278372 3040:0.976377 3041:-0.404122 3042:1 3043:0.82042 3044:0.282848 3045:-1 3046:-0.025248 3047:-0.306106 3048:-0.00553655 3049:-0.675369 3050:-1 3051:0.181469 3052:-0.576526 3053:1 3054:-0.640417 3055:1 3056:1 3057:-1 3058:0.0975037 3059:-0.0715473 3060:1 3061:-0.500389 3062:0.175404 3063:1 3064:0.703687 3065:-0.184129 3066:-0.0506775 3067:1 3068:1 3069:0.200369 3070:-0.748236 3071:0.29971 3072:0.638266 3073:1 3074:1 3075:0.526228 3076:-0.634133 3077:-0.785889 3078:0.68089 3079:-0.155162 3080:0.158617 3081:-0.0365345 3082:0.384662 3083:0.218714 3084:0.819321 3085:0.326657 3086:0.73133 3087:0.50824 3088:0.0304426 3089:0.582572 3090:-0.549661 3091:-0.426559 3092:0.472803 3093:-0.133833 3094:0.0658339 3095:0.568094 3096:1 3097:0.283788 3098:-0.436259 3099:-0.101368 3100:-0.0886563 3101:-0.634133 3102:-0.785889 3103:0.68089 3104:-0.155162 3105:0.158617 3106:-0.0365345 3107:0.384662 3108:0.218714 3109:0.819321 3110:0.326657 3111:0.73133 3112:0.50824 3113:0.0304426 3114:0.582572 3115:-0.549661 3116:-0.426559 3117:0.472803 3118:-0.133833 3119:0.0658339 3120:0.568094 3121:1 3122:0.283788 3123:-0.436259 3124:-0.101368 3125:-0.0886563 3126:0.0305408 3127:-1 3128:0.57269 3129:-1 3130:-0.896569 3131:-0.617013 3132:1 3133:-1 3134:0.887787 3135:0.148562 3136:-1 3137:-0.637397 3138:1 3139:-0.296287 3140:-1 3141:1 3142:0.272458 3143:0.993274 3144:1 3145:-0.662568 3146:1 3147:-0.556717 3148:1 3149:-1 3150:1 3151:0.0305408 3152:-1 3153:0.57269 3154:-1 3155:-0.896569 3156:-0.617013 3157:1 3158:-1 3159:0.887787 3160:0.148562 3161:-1 3162:-0.637397 3163:1 3164:-0.296287 3165:-1 3166:1 3167:0.272458 3168:0.993274 3169:1 3170:-0.662568 3171:1 3172:-0.556717 3173:1 3174:-1 3175:1 3176:0.54139 3177:-0.877771 3178:1 3179:0.2957 3180:0.610663 3181:-0.380952 3182:0.657477 3183:-1 3184:-0.538402 3185:0.963485 3186:0.852574 3187:0.433838 3188:-0.0240392 3189:-0.625845 3190:0.886996 3191:0.87197 3192:0.514713 3193:0.933698 3194:1 3195:0.357613 3196:0.95336 3197:-0.526283 3198:0.184258 3199:0.340631 3200:0.29029 
0.0009765625 1:-0.44289 2:-0.19515 3:-0.468568 4:-1 5:0.981377 6:-0.0335752 7:-0.940276 8:1 9:-0.259388 10:0.773353 11:-0.0922472 12:0.54589 13:1 14:-0.823888 15:0.36511 16:-0.990524 17:0.0118796 18:-1 19:0.636694 20:0.441868 21:0.69697 22:1 23:1 24:0.391433 25:-0.880802 26:0.381995 27:-0.882353 28:0.506854 29:0.0712909 30:0.957672 31:0.909677 32:0.839844 33:1 34:0.670683 35:0.947636 36:1 37:0.0447471 38:-0.310463 39:-0.163676 40:0.840772 41:0.392912 42:-0.459877 43:0.407703 44:0.0211438 45:0.134667 46:-0.234375 47:0.708487 48:0.821138 49:-0.15516 50:0.625393 51:0.381995 52:-0.882353 53:0.506854 54:0.0712909 55:0.957672 56:0.909677 57:0.839844 58:1 59:0.670683 60:0.947636 61:1 62:0.0447471 63:-0.310463 64:-0.163676 65:0.840772 66:0.392912 67:-0.459877 68:0.407703 69:0.0211438 70:0.134667 71:-0.234375 72:0.708487 73:0.821138 74:-0.15516 75:0.625393 76:0.293051 77:1 78:-0.3395 79:0.153696 80:-0.417882 81:0.032452 82:0.107812 83:-1 84:0.865103 85:0.105358 86:0.718194 87:0.607425 88:0.174473 89:0.00839126 90:0.221747 91:-1 92:0.766588 93:0.366142 94:-0.219915 95:-0.348956 96:0.0321885 97:1 98:0.288639 99:-0.699376 100:-0.53836 101:1 102:-1 103:0.979671 104:0.924215 105:-0.776834 106:0.997499 107:0.983872 108:-1 109:0.977643 110:0.964932 111:0.962145 112:-1 113:1 114:-1 115:0.994407 116:0.94969 117:0.964287 118:0.994211 119:0.990239 120:1 121:0.96055 122:0.567454 123:0.921624 124:0.995292 125:-0.97372 126:-1 127:0.332497 128:-0.363864 129:-0.545988 130:0.393956 131:1 132:0.766696 133:0.327991 134:1 135:-0.379829 136:-0.965151 137:-0.356136 138:-1 139:-1 140:0.713784 141:0.0214625 142:-0.0701275 143:0.517187 144:-0.184557 145:0.497215 146:0.490614 147:0.485274 148:0.848661 149:-0.808373 150:1 151:-1 152:0.332497 153:-0.363864 154:-0.545988 155:0.393956 156:1 157:0.766696 158:0.327991 159:1 160:-0.379829 161:-0.965151 162:-0.356136 163:-1 164:-1 165:0.713784 166:0.0214625 167:-0.0701275 168:0.517187 169:-0.184557 170:0.497215 171:0.490614 172:0.485274 173:0.848661 174:-0.808373 175:1 176:0.61414 177:-0.898422 178:-0.348757 179:-0.994314 180:-0.988102 181:-0.250963 182:-1 183:-1 184:1 185:1 186:0.674686 187:-0.0746732 188:1 189:-1 190:-1 191:1 192:0.330605 193:-1 194:1 195:-1 196:-1 197:0.00571195 198:0.49355 199:-0.199373 200:-0.581819 201:0.934813 202:0.195928 203:-1 204:-0.456509 205:-0.877363 206:0.3746 207:-0.894606 208:-0.439351 209:-0.872938 210:-0.592544 211:-0.705333 212:0.588546 213:-0.301486 214:0.64976 215:0.491289 216:0.324387 217:-0.0932376 218:1 219:-0.961493 220:0.282905 221:-0.824424 222:0.0665685 223:0.155447 224:-0.344664 225:-1 226:-1 227:0.797522 228:1 229:-1 230:1 231:1 232:-1 233:1 234:1 235:-1 236:-1 237:-0.222281 238:1 239:0.663724 240:-1 241:-1 242:1 243:-1 244:0.249622 245:-1 246:1 247:1 248:-1 249:-1 250:0.14764 251:-0.506694 252:0.839835 253:-0.190418 254:0.248855 255:0.317339 256:-1 257:0.492814 258:-0.425613 259:-0.347037 260:0.679715 261:0.052394 262:-0.512622 263:1 264:0.0990847 265:-0.381782 266:0.455327 267:0.0212424 268:1 269:1 270:0.907234 271:-0.839182 272:-0.604825 273:-0.682626 274:-0.83827 275:-1 276:0.280742 277:-0.390978 278:-1 279:-0.108995 280:-0.541242 281:1 282:-0.22986 283:0.757795 284:1 285:0.721026 286:-1 287:-1 288:-0.604891 289:-0.180039 290:0.241726 291:0.65165 292:-0.164411 293:0.203358 294:-1 295:-1 296:0.753747 297:-0.588352 298:0.568913 299:0.506272 300:0.605526 301:0.280742 302:-0.390978 303:-1 304:-0.108995 305:-0.541242 306:1 307:-0.22986 308:0.757795 309:1 310:0.721026 311:-1 312:-1 313:-0.604891 314:-0.180039 315:0.241726 316:0.65165 317:-0.164411 318:0.203358 319:-1 320:-1 321:0.753747 322:-0.588352 323:0.568913 324:0.506272 325:0.605526 326:0.391268 327:0.0711558 328:-0.8993 329:-0.305108 330:-0.57305 331:-0.0372253 332:-1 333:-0.0469753 334:1 335:1 336:-0.245771 337:-0.55286 338:-0.90727 339:0.118897 340:0.477694 341:0.49651 342:1 343:0.774391 344:1 345:0.548005 346:-1 347:-0.0795779 348:1 349:0.729989 350:0.30212 351:-0.990382 352:-0.351759 353:-0.171341 354:-0.279268 355:0.848918 356:0.502959 357:0.962462 358:0.996019 359:0.927017 360:0.729125 361:0.997245 362:-0.925935 363:-0.890566 364:0.172283 365:-0.776495 366:-0.968168 367:-0.994217 368:-0.980855 369:-0.619904 370:-0.113675 371:0.901129 372:0.983656 373:0.991019 374:0.647861 375:-0.978966 376:-0.990382 377:-0.351759 378:-0.171341 379:-0.279268 380:0.848918 381:0.502959 382:0.962462 383:0.996019 384:0.927017 385:0.729125 386:0.997245 387:-0.925935 388:-0.890566 389:0.172283 390:-0.776495 391:-0.968168 392:-0.994217 393:-0.980855 394:-0.619904 395:-0.113675 396:0.901129 397:0.983656 398:0.991019 399:0.647861 400:-0.978966 401:-1 402:0.149111 403:0.917776 404:0.448495 405:-0.490068 406:-0.924331 407:0.789648 408:-0.178562 409:-0.18736 410:-0.0830985 411:-0.0583007 412:-1 413:-0.812241 414:0.58422 415:-0.238282 416:0.719311 417:0.400976 418:-0.0111007 419:0.258874 420:0.200487 421:-1 422:-0.0613033 423:-0.0241303 424:0.264817 425:-0.529864 426:-1 427:-0.737809 428:1 429:1 430:-1 431:1 432:-1 433:1 434:-1 435:1 436:1 437:1 438:-0.216866 439:-1 440:-0.663506 441:-1 442:0.861446 443:0.225434 444:-1 445:1 446:1 447:1 448:-1 449:-0.292268 450:1 451:0.232448 452:-0.122449 453:0.118168 454:0.0113571 455:0.00943579 456:-0.81659 457:0.0923274 458:-0.437618 459:-0.581368 460:0.400429 461:0.29029 462:-0.247766 463:0.0535105 464:-0.478378 465:-0.225891 466:0.987408 467:0.143473 468:-1 469:0.82435 470:0.0172829 471:-0.0454556 472:1 473:0.253273 474:-0.107518 475:0.341963 476:0.090732 477:-0.356405 478:0.839818 479:0.423385 480:0.30434 481:0.511825 482:0.816345 483:-0.0292611 484:0.109163 485:0.977723 486:0.870454 487:-0.0820778 488:-0.978243 489:-1 490:-0.977334 491:0.979303 492:0.929215 493:0.981381 494:0.876197 495:0.630629 496:0.959242 497:0.999534 498:0.165246 499:-0.856374 500:0.423317 501:-1 502:1 503:1 504:-0.0208406 505:1 506:-1 507:0.840504 508:-0.195459 509:1 510:-1 511:1 512:-1 513:-1 514:-1 515:0.190254 516:-1 517:-0.400781 518:-0.392904 519:-1 520:0.16762 521:-0.405161 522:-0.276854 523:0.291277 524:1 525:1 526:-0.953586 527:-0.374605 528:0.00396174 529:-0.452106 530:0.992715 531:-0.919337 532:-0.574161 533:0.96493 534:-0.4588 535:1 536:0.898617 537:-0.790598 538:-0.774111 539:-0.267835 540:-0.820947 541:-0.318548 542:-0.596061 543:0.437132 544:0.186663 545:-0.451534 546:0.98637 547:-0.97895 548:0.774706 549:0.571562 550:0.834337 551:1 552:0.727718 553:0.0900211 554:-0.186087 555:-1 556:-0.907969 557:-1 558:-0.0662169 559:-0.926957 560:-0.53474 561:-0.382959 562:-0.274985 563:-0.748176 564:0.461175 565:0.304623 566:0.533749 567:0.572966 568:-0.290997 569:-0.70256 570:-0.15948 571:0.211344 572:0.0961607 573:-0.0381767 574:-0.27618 575:-1 576:1 577:0.727718 578:0.0900211 579:-0.186087 580:-1 581:-0.907969 582:-1 583:-0.0662169 584:-0.926957 585:-0.53474 586:-0.382959 587:-0.274985 588:-0.748176 589:0.461175 590:0.304623 591:0.533749 592:0.572966 593:-0.290997 594:-0.70256 595:-0.15948 596:0.211344 597:0.0961607 598:-0.0381767 599:-0.27618 600:-1 601:0.983773 602:-1 603:-1 604:1 605:-0.10486 606:-1 607:0.947651 608:0.824404 609:-1 610:-0.683541 611:1 612:1 613:0.743173 614:1 615:-0.54118 616:0.784893 617:-0.337127 618:0.210081 619:-1 620:0.279641 621:-0.855096 622:1 623:0.491982 624:1 625:-0.97734 626:0.725187 627:0.08379 628:-0.396231 629:-0.908834 630:-1 631:1 632:0.30016 633:0.0928429 634:0.172459 635:-1 636:0.618268 637:1 638:-0.832662 639:0.114554 640:-1 641:1 642:-0.977697 643:-1 644:-1 645:0.734325 646:-0.025716 647:-0.793846 648:1 649:1 650:0.389844 651:0.725187 652:0.08379 653:-0.396231 654:-0.908834 655:-1 656:1 657:0.30016 658:0.0928429 659:0.172459 660:-1 661:0.618268 662:1 663:-0.832662 664:0.114554 665:-1 666:1 667:-0.977697 668:-1 669:-1 670:0.734325 671:-0.025716 672:-0.793846 673:1 674:1 675:0.389844 676:0.869655 677:1 678:-1 679:-1 680:-0.120806 681:1 682:1 683:-1 684:1 685:-1 686:-0.286546 687:-0.742191 688:0.966743 689:-0.621075 690:1 691:-1 692:-1 693:-1 694:-1 695:-0.0227517 696:-0.767401 697:0.378121 698:-1 699:0.42027 700:0.553728 701:0.869655 702:1 703:-1 704:-1 705:-0.120806 706:1 707:1 708:-1 709:1 710:-1 711:-0.286546 712:-0.742191 713:0.966743 714:-0.621075 715:1 716:-1 717:-1 718:-1 719:-1 720:-0.0227517 721:-0.767401 722:0.378121 723:-1 724:0.42027 725:0.553728 726:-0.744365 727:-0.60368 728:0.460287 729:0.681618 730:0.572887 731:0.515654 732:0.745081 733:0.882347 734:0.769221 735:0.173292 736:0.954626 737:-0.155301 738:-0.681713 739:0.576482 740:0.409124 741:0.559473 742:-0.832177 743:-0.379338 744:-0.190192 745:-0.929602 746:0.30696 747:0.361911 748:-1 749:-0.894959 750:-0.443128 751:0.490336 752:1 753:0.830653 754:-0.922303 755:0.196528 756:-0.264434 757:-1 758:0.124723 759:1 760:1 761:-1 762:-0.354077 763:0.41375 764:0.708525 765:1 766:-1 767:-1 768:1 769:-0.298998 770:-1 771:0.735797 772:1 773:0.890228 774:1 775:0.584674 776:0.490336 777:1 778:0.830653 779:-0.922303 780:0.196528 781:-0.264434 782:-1 783:0.124723 784:1 785:1 786:-1 787:-0.354077 788:0.41375 789:0.708525 790:1 791:-1 792:-1 793:1 794:-0.298998 795:-1 796:0.735797 797:1 798:0.890228 799:1 800:0.584674 801:0.482897 802:0.653655 803:-0.881332 804:1 805:-0.707019 806:-0.746551 807:0.415951 808:-0.250366 809:1 810:-0.639599 811:-0.707639 812:0.535557 813:0.901713 814:-0.836813 815:0.805554 816:0.949283 817:-1 818:0.349686 819:-0.389803 820:0.0181907 821:0.527653 822:-1 823:1 824:-0.3665 825:-0.207772 826:0.0784496 827:-1 828:-1 829:0.127251 830:-0.468881 831:-1 832:0.946583 833:-1 834:1 835:1 836:0.652117 837:-0.527585 838:0.643023 839:0.17068 840:-0.938799 841:-0.497657 842:0.0238846 843:0.0522409 844:-1 845:1 846:-1 847:1 848:0.74896 849:0.423488 850:1 851:-0.405677 852:1 853:-0.197989 854:-0.415837 855:0.201043 856:0.0931478 857:0.97371 858:-0.310889 859:0.472167 860:0.569147 861:-0.066261 862:-0.316118 863:1 864:-1 865:0.829757 866:-1 867:0.346018 868:1 869:0.61545 870:-0.332485 871:0.0624932 872:1 873:0.50692 874:-1 875:-1 876:-1 877:1 878:0.828775 879:-0.100535 880:0.69015 881:-0.881601 882:-0.0859231 883:0.967077 884:-0.846387 885:-0.769898 886:-0.389793 887:-0.28235 888:-0.946492 889:1 890:0.553778 891:-0.583609 892:-1 893:0.674633 894:-0.48719 895:0.507988 896:0.0900861 897:-0.569367 898:0.701731 899:0.650072 900:-0.429106 901:0.930924 902:0.647976 903:0.0863147 904:-0.634991 905:-0.95929 906:-1 907:0.526875 908:-0.606556 909:0.521674 910:0.838786 911:-0.478493 912:0.0070542 913:0.720275 914:-1 915:1 916:-0.342705 917:0.864266 918:1 919:-1 920:1 921:-0.3833 922:0.745066 923:0.36304 924:0.221653 925:-0.422558 926:0.969394 927:0.44831 928:0.548742 929:-0.304012 930:0.174484 931:-1 932:-0.618752 933:-0.40382 934:-0.307992 935:-0.0108189 936:-0.18902 937:-0.0987532 938:-0.159135 939:-1 940:0.015075 941:-0.660264 942:1 943:-1 944:0.515317 945:-0.176641 946:1 947:1 948:0.436012 949:-0.680506 950:0.289371 951:0.439333 952:0.963903 953:-1 954:-0.863671 955:-0.921843 956:-1 957:0.984145 958:-0.800111 959:0.944478 960:-0.0322716 961:-0.304788 962:0.735007 963:0.0291129 964:1 965:-0.957945 966:0.118353 967:0.132492 968:-0.361793 969:0.19021 970:-0.325845 971:0.694161 972:-0.307806 973:-0.940469 974:0.701891 975:-1 976:0.733326 977:-0.860023 978:0.600972 979:-0.530816 980:0.794087 981:0.458976 982:-0.204234 983:0.837118 984:0.28517 985:1 986:0.443127 987:-0.754157 988:-1 989:-0.383922 990:0.913172 991:0.295135 992:0.0139232 993:0.319117 994:0.759716 995:0.942165 996:-0.510655 997:-0.310967 998:0.173571 999:0.721658 1000:0.775818 1001:-0.947948 1002:0.998064 1003:0.702665 1004:0.421258 1005:-0.976648 1006:-0.96667 1007:0.992408 1008:-0.985343 1009:-0.624439 1010:0.847907 1011:-0.963082 1012:0.931245 1013:-0.438944 1014:0.802706 1015:-0.796367 1016:-0.431505 1017:-0.364086 1018:0.595858 1019:0.011905 1020:-0.668255 1021:0.170661 1022:-0.826813 1023:-0.993663 1024:0.977968 1025:0.982878 1026:0.734409 1027:0.549307 1028:-0.654605 1029:0.615079 1030:-0.302656 1031:0.403091 1032:0.2822 1033:-0.690201 1034:0.202671 1035:0.212945 1036:0.338214 1037:-0.287608 1038:-0.782228 1039:0.925465 1040:0.4297 1041:1 1042:0.200706 1043:-1 1044:0.350176 1045:0.540986 1046:-0.881052 1047:-0.0851629 1048:0.265379 1049:0.864455 1050:0.856293 1051:-0.0667943 1052:1 1053:-1 1054:-1 1055:0.849458 1056:1 1057:0.424021 1058:-0.199821 1059:-0.120882 1060:0.0606749 1061:-0.191302 1062:-0.67522 1063:-1 1064:-0.509353 1065:-0.476153 1066:1 1067:0.371208 1068:-0.0615379 1069:-1 1070:0.382148 1071:-0.389168 1072:0.569735 1073:0.414372 1074:0.916583 1075:1 1076:-0.173856 1077:-0.710432 1078:0.762318 1079:1 1080:-0.421687 1081:-1 1082:0.498472 1083:-0.472168 1084:0.784237 1085:-0.00408831 1086:0.289813 1087:1 1088:0.304808 1089:-0.113306 1090:-0.73748 1091:0.487589 1092:0.21222 1093:-0.399014 1094:-0.224639 1095:0.2877 1096:-1 1097:0.0100088 1098:-0.359488 1099:1 1100:-0.166708 1101:1 1102:0.891194 1103:0.82873 1104:-0.692104 1105:1 1106:-1 1107:-1 1108:-0.826265 1109:1 1110:0.880612 1111:-0.151504 1112:-0.0513369 1113:-0.472342 1114:0.628223 1115:0.674353 1116:-0.333963 1117:-0.201454 1118:-0.338303 1119:-1 1120:1 1121:0.929792 1122:0.151363 1123:-0.399524 1124:0.138819 1125:-0.115839 1126:0.977752 1127:0.114203 1128:0.264481 1129:-0.261903 1130:0.721004 1131:-1 1132:-1 1133:0.991229 1134:-0.0200513 1135:0.141971 1136:0.685458 1137:1 1138:-0.114214 1139:-1 1140:-1 1141:0.240772 1142:0.990112 1143:-0.684453 1144:1 1145:0.0968317 1146:1 1147:0.291391 1148:1 1149:-0.788336 1150:-0.196149 1151:-0.174037 1152:-0.792865 1153:-0.853333 1154:0.133203 1155:0.259939 1156:1 1157:0.319612 1158:-0.264967 1159:0.110533 1160:0.401479 1161:0.222923 1162:-0.485036 1163:1 1164:-0.754424 1165:-0.414755 1166:0.489904 1167:-1 1168:0.763322 1169:-0.212278 1170:1 1171:0.0303082 1172:-0.127815 1173:0.794478 1174:-0.645245 1175:0.149567 1176:-0.174037 1177:-0.792865 1178:-0.853333 1179:0.133203 1180:0.259939 1181:1 1182:0.319612 1183:-0.264967 1184:0.110533 1185:0.401479 1186:0.222923 1187:-0.485036 1188:1 1189:-0.754424 1190:-0.414755 1191:0.489904 1192:-1 1193:0.763322 1194:-0.212278 1195:1 1196:0.0303082 1197:-0.127815 1198:0.794478 1199:-0.645245 1200:0.149567 1201:-0.490147 1202:-0.834106 1203:-0.687064 1204:0.118861 1205:0.702648 1206:0.841161 1207:0.543561 1208:0.600356 1209:1 1210:0.401385 1211:0.872728 1212:0.538374 1213:1 1214:1 1215:-1 1216:-0.779845 1217:-1 1218:1 1219:1 1220:-0.693165 1221:0.581567 1222:0.993168 1223:0.480526 1224:1 1225:0.165477 1226:-0.330716 1227:-0.810387 1228:0.0799953 1229:-0.245 1230:0.59784 1231:0.0473403 1232:0.473746 1233:0.28663 1234:0.351788 1235:0.171829 1236:-0.851966 1237:0.27389 1238:-0.303178 1239:0.178733 1240:0.0470158 1241:0.338038 1242:0.329249 1243:-0.299014 1244:0.859766 1245:0.00112845 1246:-0.345363 1247:-0.0669389 1248:0.423886 1249:0.622276 1250:0.0291881 1251:-0.330716 1252:-0.810387 1253:0.0799953 1254:-0.245 1255:0.59784 1256:0.0473403 1257:0.473746 1258:0.28663 1259:0.351788 1260:0.171829 1261:-0.851966 1262:0.27389 1263:-0.303178 1264:0.178733 1265:0.0470158 1266:0.338038 1267:0.329249 1268:-0.299014 1269:0.859766 1270:0.00112845 1271:-0.345363 1272:-0.0669389 1273:0.423886 1274:0.622276 1275:0.0291881 1276:-0.27098 1277:-1 1278:-1 1279:0.404414 1280:-0.899558 1281:1 1282:1 1283:-0.387256 1284:0.473119 1285:-0.099029 1286:-1 1287:-0.851686 1288:-0.103748 1289:0.709219 1290:0.948676 1291:0.952204 1292:-0.978713 1293:0.413534 1294:-1 1295:-0.954084 1296:-0.936766 1297:-1 1298:0.894789 1299:1 1300:0.598212 1301:-0.27098 1302:-1 1303:-1 1304:0.404414 1305:-0.899558 1306:1 1307:1 1308:-0.387256 1309:0.473119 1310:-0.099029 1311:-1 1312:-0.851686 1313:-0.103748 1314:0.709219 1315:0.948676 1316:0.952204 1317:-0.978713 1318:0.413534 1319:-1 1320:-0.954084 1321:-0.936766 1322:-1 1323:0.894789 1324:1 1325:0.598212 1326:-0.937714 1327:-0.676432 1328:0.409798 1329:0.958257 1330:0.998457 1331:0.681364 1332:0.8156 1333:-0.316314 1334:0.63673 1335:0.511346 1336:0.427319 1337:0.728511 1338:-0.393429 1339:-0.548438 1340:-0.488346 1341:0.383157 1342:0.87341 1343:-0.967664 1344:-0.896378 1345:0.575989 1346:0.46052 1347:0.968079 1348:-0.284861 1349:-0.238695 1350:-0.500754 1351:-0.937714 1352:-0.676432 1353:0.409798 1354:0.958257 1355:0.998457 1356:0.681364 1357:0.8156 1358:-0.316314 1359:0.63673 1360:0.511346 1361:0.427319 1362:0.728511 1363:-0.393429 1364:-0.548438 1365:-0.488346 1366:0.383157 1367:0.87341 1368:-0.967664 1369:-0.896378 1370:0.575989 1371:0.46052 1372:0.968079 1373:-0.284861 1374:-0.238695 1375:-0.500754 1376:-1 1377:0.308901 1378:-1 1379:0.00489945 1380:-1 1381:1 1382:1 1383:-0.275004 1384:-0.825579 1385:-0.0428141 1386:0.137413 1387:0.589112 1388:0.745542 1389:1 1390:0.710226 1391:-1 1392:-1 1393:-1 1394:0.376766 1395:0.969433 1396:1 1397:-1 1398:-1 1399:-0.709778 1400:-0.0904264 1401:-1 1402:0.308901 1403:-1 1404:0.00489945 1405:-1 1406:1 1407:1 1408:-0.275004 1409:-0.825579 1410:-0.0428141 1411:0.137413 1412:0.589112 1413:0.745542 1414:1 1415:0.710226 1416:-1 1417:-1 1418:-1 1419:0.376766 1420:0.969433 1421:1 1422:-1 1423:-1 1424:-0.709778 1425:-0.0904264 1426:-1 1427:1 1428:0.277466 1429:1 1430:-0.446319 1431:-0.559881 1432:-0.349594 1433:0.00713323 1434:-0.182215 1435:-0.663635 1436:-0.607574 1437:0.245708 1438:-0.0171203 1439:-1 1440:0.501941 1441:-0.306299 1442:-0.621662 1443:1 1444:-1 1445:0.206594 1446:0.215774 1447:-0.371077 1448:0.287251 1449:0.161898 1450:0.38736 1451:-1 1452:1 1453:0.277466 1454:1 1455:-0.446319 1456:-0.559881 1457:-0.349594 1458:0.00713323 1459:-0.182215 1460:-0.663635 1461:-0.607574 1462:0.245708 1463:-0.0171203 1464:-1 1465:0.501941 1466:-0.306299 1467:-0.621662 1468:1 1469:-1 1470:0.206594 1471:0.215774 1472:-0.371077 1473:0.287251 1474:0.161898 1475:0.38736 1476:0.120655 1477:-0.273502 1478:-0.509499 1479:-0.113853 1480:0.176017 1481:0.61124 1482:-0.689508 1483:-0.53468 1484:-0.134087 1485:0.516916 1486:-0.654738 1487:-0.688084 1488:0.23606 1489:-0.750722 1490:-0.22834 1491:0.224171 1492:0.244931 1493:-0.851231 1494:-1 1495:0.445751 1496:-1 1497:-0.240071 1498:0.634302 1499:-0.0678118 1500:-1 1501:0.120655 1502:-0.273502 1503:-0.509499 1504:-0.113853 1505:0.176017 1506:0.61124 1507:-0.689508 1508:-0.53468 1509:-0.134087 1510:0.516916 1511:-0.654738 1512:-0.688084 1513:0.23606 1514:-0.750722 1515:-0.22834 1516:0.224171 1517:0.244931 1518:-0.851231 1519:-1 1520:0.445751 1521:-1 1522:-0.240071 1523:0.634302 1524:-0.0678118 1525:-1 1526:-0.882132 1527:-0.793846 1528:-0.8832 1529:0.991289 1530:0.994018 1531:0.999719 1532:0.834333 1533:0.668296 1534:0.62561 1535:-0.0311268 1536:0.998217 1537:0.804239 1538:-1 1539:-1 1540:0.439651 1541:0.9205 1542:0.599845 1543:-0.807863 1544:-0.487071 1545:-0.88565 1546:-0.978948 1547:0.968449 1548:0.984937 1549:0.975259 1550:0.864287 1551:0.815171 1552:-0.142862 1553:0.657432 1554:-0.190916 1555:0.76195 1556:0.802429 1557:-0.783327 1558:0.199759 1559:-0.919351 1560:0.835948 1561:0.170438 1562:-0.952911 1563:0.892934 1564:1 1565:1 1566:0.409222 1567:0.436296 1568:0.86878 1569:0.302758 1570:-1 1571:0.147283 1572:-0.686087 1573:-0.985125 1574:-0.235214 1575:0.578074 1576:0.815171 1577:-0.142862 1578:0.657432 1579:-0.190916 1580:0.76195 1581:0.802429 1582:-0.783327 1583:0.199759 1584:-0.919351 1585:0.835948 1586:0.170438 1587:-0.952911 1588:0.892934 1589:1 1590:1 1591:0.409222 1592:0.436296 1593:0.86878 1594:0.302758 1595:-1 1596:0.147283 1597:-0.686087 1598:-0.985125 1599:-0.235214 1600:0.578074 1601:0.51436 1602:0.645486 1603:-0.988243 1604:0.455583 1605:-0.0180855 1606:-0.654705 1607:0.119681 1608:-0.553972 1609:-0.493431 1610:0.109316 1611:-0.160919 1612:0.0524476 1613:1 1614:-0.41019 1615:-0.133231 1616:0.575498 1617:-0.226024 1618:0.501714 1619:-1 1620:1 1621:-0.62214 1622:-0.150937 1623:-1 1624:-0.616566 1625:-0.962511 1626:0.683267 1627:-0.527441 1628:-0.988044 1629:1 1630:-0.788612 1631:-0.955397 1632:0.818235 1633:-1 1634:0.777546 1635:-0.804796 1636:0.101114 1637:0.436876 1638:0.83303 1639:0.319314 1640:-0.17595 1641:-1 1642:-0.433315 1643:0.00424445 1644:-1 1645:1 1646:-0.65569 1647:1 1648:-0.439415 1649:0.723585 1650:0.739358 1651:0.879275 1652:0.599346 1653:-0.69026 1654:0.867729 1655:-0.671966 1656:-0.729222 1657:0.149478 1658:-0.585702 1659:-0.021163 1660:-0.174645 1661:-0.340144 1662:0.293338 1663:-0.333556 1664:0.470309 1665:-0.944673 1666:-1 1667:0.629514 1668:0.799268 1669:-0.354423 1670:-0.542139 1671:0.835215 1672:-0.202406 1673:0.711636 1674:0.732252 1675:-0.554165 1676:-0.344079 1677:-0.422327 1678:-0.955917 1679:0.319108 1680:0.102314 1681:-0.539038 1682:0.91122 1683:-0.132905 1684:0.714744 1685:-0.0559619 1686:0.944312 1687:0.505925 1688:-0.447284 1689:0.213716 1690:0.274473 1691:-0.641318 1692:0.0166668 1693:-0.381719 1694:-0.900697 1695:-0.128852 1696:-0.506872 1697:-0.139846 1698:-0.919324 1699:-0.583415 1700:0.883235 1701:0.573914 1702:1 1703:0.815832 1704:1 1705:-0.437091 1706:-1 1707:-0.0622025 1708:-0.348088 1709:1 1710:0.0522965 1711:0.901096 1712:-0.281668 1713:1 1714:1 1715:-1 1716:1 1717:-0.375352 1718:-1 1719:1 1720:0.82624 1721:1 1722:-1 1723:1 1724:-0.344141 1725:-1 1726:-1 1727:-0.00679018 1728:-1 1729:-0.543262 1730:1 1731:1 1732:1 1733:-0.372876 1734:0.693166 1735:1 1736:-0.31453 1737:0.827009 1738:-0.389157 1739:-1 1740:0.75842 1741:1 1742:-0.574078 1743:1 1744:-1 1745:1 1746:0.932444 1747:-0.342733 1748:0.14405 1749:0.0375838 1750:-0.334748 1751:-0.121401 1752:0.607646 1753:-0.298066 1754:0.708506 1755:-0.165887 1756:-0.706123 1757:0.0234197 1758:0.182208 1759:-0.239875 1760:-0.82694 1761:-0.416308 1762:-0.680749 1763:-1 1764:-0.296291 1765:0.0910101 1766:0.898944 1767:-0.685268 1768:-0.0374467 1769:0.598864 1770:-0.331357 1771:0.643677 1772:-0.258869 1773:0.0139445 1774:0.916494 1775:0.549163 1776:-0.279129 1777:0.610925 1778:-0.117332 1779:0.305138 1780:-0.959003 1781:-0.631169 1782:0.663846 1783:0.419308 1784:-0.754592 1785:-0.247423 1786:-0.862462 1787:0.546979 1788:-0.00056604 1789:-0.361915 1790:-0.678908 1791:0.982781 1792:0.970439 1793:-0.263188 1794:-0.655453 1795:1 1796:-0.335595 1797:-0.993661 1798:-0.0432757 1799:0.49354 1800:-0.933734 1801:-0.639994 1802:-0.32149 1803:0.514555 1804:0.813044 1805:0.89029 1806:0.913771 1807:0.580394 1808:-0.29802 1809:0.223297 1810:0.826789 1811:0.974157 1812:-0.312623 1813:0.686024 1814:0.338229 1815:-0.167813 1816:0.366827 1817:-0.5738 1818:-0.61896 1819:0.488619 1820:-0.307496 1821:-0.470543 1822:-0.821791 1823:-0.660197 1824:0.489086 1825:0.751444 1826:-1 1827:1 1828:0.134629 1829:-0.349785 1830:1 1831:-0.0376332 1832:-1 1833:-0.244263 1834:-0.679216 1835:0.391506 1836:0.0674309 1837:1 1838:-0.0849143 1839:-0.310078 1840:0.756508 1841:0.0489188 1842:-1 1843:-0.099212 1844:-0.43629 1845:0.496758 1846:-0.303645 1847:0.211539 1848:-0.13926 1849:0.723054 1850:0.985478 1851:-0.455951 1852:1 1853:0.920111 1854:0.726022 1855:1 1856:-1 1857:0.665508 1858:-0.460999 1859:-1 1860:0.324065 1861:0.251659 1862:-0.359441 1863:-0.914284 1864:1 1865:-0.287635 1866:0.279688 1867:1 1868:-0.503858 1869:0.0835904 1870:0.494973 1871:-0.628514 1872:-0.391348 1873:-0.805183 1874:1 1875:0.380495 1876:0.207277 1877:-0.364014 1878:1 1879:-0.398676 1880:0.64246 1881:-1 1882:-1 1883:0.86727 1884:-0.611373 1885:0.689511 1886:-0.227562 1887:-0.137026 1888:0.633057 1889:0.0627582 1890:1 1891:0.123312 1892:-0.276125 1893:-1 1894:1 1895:1 1896:0.0368468 1897:-1 1898:-1 1899:-1 1900:-0.141028 1901:0.70773 1902:0.996624 1903:-0.70096 1904:-0.850221 1905:-0.898195 1906:-0.873817 1907:0.511024 1908:-0.900224 1909:0.699987 1910:0.587879 1911:-0.853109 1912:-0.58502 1913:0.894601 1914:-0.432546 1915:0.198365 1916:0.831739 1917:-0.477926 1918:-0.953887 1919:-0.776291 1920:-0.552126 1921:0.174628 1922:0.468289 1923:0.507044 1924:-0.452504 1925:-0.745186 1926:0.663446 1927:1 1928:0.495165 1929:0.207758 1930:0.193311 1931:-1 1932:-0.111723 1933:0.160687 1934:-0.753236 1935:-0.876549 1936:0.16641 1937:0.995148 1938:-1 1939:-0.812591 1940:-1 1941:-0.765941 1942:1 1943:0.878102 1944:1 1945:-0.370749 1946:-1 1947:-0.420872 1948:0.349779 1949:0.38437 1950:1 1951:0.0081186 1952:0.727432 1953:-0.586044 1954:-0.210676 1955:-0.47282 1956:-0.203993 1957:0.224462 1958:-0.848316 1959:0.189567 1960:0.962954 1961:-0.775714 1962:-0.772468 1963:0.941838 1964:-0.812276 1965:0.647437 1966:-0.516561 1967:0.10397 1968:1 1969:-1 1970:0.492031 1971:-0.463834 1972:0.548892 1973:0.823507 1974:0.734841 1975:-0.240565 1976:-0.96259 1977:0.722957 1978:0.161353 1979:0.982277 1980:0.840791 1981:-0.156982 1982:-0.150105 1983:0.446785 1984:0.0621908 1985:-0.31413 1986:0.99368 1987:-0.729187 1988:0.809539 1989:0.995971 1990:-0.191417 1991:-0.367258 1992:-0.975244 1993:-0.960204 1994:0.0206338 1995:-0.982695 1996:-0.994013 1997:-0.997978 1998:-0.958718 1999:-0.112491 2000:-0.617461 2001:-0.778803 2002:0.88043 2003:-0.307778 2004:-1 2005:-0.99738 2006:-0.988922 2007:0.758371 2008:-0.858667 2009:-0.465822 2010:-0.0294969 2011:-0.916186 2012:0.544245 2013:0.857124 2014:-0.757748 2015:-0.798379 2016:-0.522292 2017:-0.0404307 2018:0.0196349 2019:0.78622 2020:-0.222912 2021:0.0276449 2022:-0.199668 2023:0.18234 2024:0.862062 2025:-0.72766 2026:-0.739501 2027:-0.344857 2028:-0.334907 2029:0.626714 2030:-0.15484 2031:-0.00494288 2032:0.20444 2033:-0.434297 2034:0.87858 2035:0.804739 2036:-0.152662 2037:-0.996715 2038:-0.255987 2039:0.963134 2040:-0.346337 2041:0.0703837 2042:-0.620278 2043:-0.749274 2044:0.0542182 2045:-0.169613 2046:-0.214637 2047:0.485592 2048:-0.619257 2049:0.617404 2050:0.794315 2051:0.689651 2052:-0.862229 2053:-0.190274 2054:0.33797 2055:-0.50714 2056:-0.393037 2057:0.766971 2058:-0.224666 2059:0.468653 2060:0.777439 2061:0.336338 2062:-0.0436862 2063:0.476086 2064:0.0625191 2065:-1 2066:1 2067:-0.368822 2068:-0.0394378 2069:1 2070:-0.596465 2071:-0.53819 2072:-0.65137 2073:0.244099 2074:-0.266006 2075:0.00196467 2076:0.094847 2077:-0.726928 2078:1 2079:-1 2080:0.975776 2081:1 2082:-1 2083:1 2084:1 2085:0.743291 2086:-0.115851 2087:0.827903 2088:0.268837 2089:-0.251829 2090:0.458867 2091:-1 2092:1 2093:0.837465 2094:-0.449956 2095:-1 2096:1 2097:-0.138138 2098:0.710347 2099:-1 2100:-0.389873 2101:-0.172174 2102:0.949443 2103:0.800028 2104:0.151064 2105:-0.804489 2106:-0.526206 2107:-0.965214 2108:-0.871163 2109:0.531644 2110:-0.347613 2111:0.187411 2112:-0.835834 2113:0.0285694 2114:0.992575 2115:-0.0255431 2116:0.0358556 2117:-0.62515 2118:-1 2119:0.537601 2120:-0.75671 2121:-0.0977927 2122:-0.806861 2123:-0.802774 2124:0.0987021 2125:1 2126:-0.423176 2127:1 2128:0.352574 2129:0.223484 2130:-0.250339 2131:-0.289301 2132:-1 2133:-1 2134:-0.0193484 2135:0.169597 2136:0.715945 2137:0.195595 2138:0.890179 2139:-0.471686 2140:0.0707889 2141:1 2142:0.294369 2143:0.258806 2144:-0.346404 2145:-1 2146:0.444248 2147:0.110204 2148:-0.375592 2149:0.336646 2150:0.361778 2151:0.379619 2152:-0.303616 2153:0.32789 2154:0.00617679 2155:0.626599 2156:-0.224693 2157:-0.203308 2158:0.359873 2159:0.439013 2160:-0.0603253 2161:0.324026 2162:-0.531656 2163:-0.46281 2164:-0.255732 2165:-0.27898 2166:0.0945322 2167:-0.0412636 2168:0.0423008 2169:0.565785 2170:-0.192086 2171:0.711811 2172:-0.267098 2173:-0.275072 2174:0.227344 2175:-0.527327 2176:1 2177:0.319755 2178:0.0891421 2179:-0.85882 2180:-0.0599615 2181:-0.250314 2182:-1 2183:-0.0622543 2184:0.143657 2185:0.966262 2186:-0.361206 2187:-0.750442 2188:0.216956 2189:-0.53111 2190:0.12697 2191:0.880726 2192:0.390983 2193:0.0643522 2194:0.740799 2195:-0.793647 2196:0.569003 2197:-0.474327 2198:0.348323 2199:-0.316136 2200:1 2201:-0.0785353 2202:0.892862 2203:-0.473437 2204:-0.297935 2205:-1 2206:-0.0990549 2207:-0.0307717 2208:0.297488 2209:0.745917 2210:-0.690473 2211:0.727659 2212:0.790782 2213:-1 2214:-0.934316 2215:0.835217 2216:-1 2217:1 2218:1 2219:-0.322154 2220:-1 2221:-1 2222:0.442883 2223:1 2224:-1 2225:0.773245 2226:-1 2227:1 2228:-1 2229:-0.760204 2230:0.730693 2231:1 2232:0.730013 2233:-1 2234:-0.793358 2235:-0.554455 2236:1 2237:1 2238:-0.0749841 2239:-1 2240:0.135381 2241:-1 2242:0.987913 2243:-0.268146 2244:-1 2245:-1 2246:-0.443306 2247:1 2248:-1 2249:-1 2250:0.18286 2251:-0.616447 2252:0.787809 2253:0.773493 2254:0.486172 2255:-1 2256:1 2257:1 2258:-1 2259:1 2260:0.216115 2261:0.455105 2262:0.833117 2263:-1 2264:1 2265:0.910492 2266:-0.616833 2267:0.459037 2268:-0.919179 2269:0.0771942 2270:0.558021 2271:-0.386159 2272:0.37512 2273:-1 2274:0.118481 2275:1 2276:-0.616447 2277:0.787809 2278:0.773493 2279:0.486172 2280:-1 2281:1 2282:1 2283:-1 2284:1 2285:0.216115 2286:0.455105 2287:0.833117 2288:-1 2289:1 2290:0.910492 2291:-0.616833 2292:0.459037 2293:-0.919179 2294:0.0771942 2295:0.558021 2296:-0.386159 2297:0.37512 2298:-1 2299:0.118481 2300:1 2301:-0.967454 2302:-0.993183 2303:0.891776 2304:-0.641509 2305:0.588847 2306:0.967837 2307:0.489524 2308:-0.342559 2309:0.961797 2310:0.984419 2311:0.934644 2312:0.709398 2313:-0.945357 2314:-0.673573 2315:0.745263 2316:0.804197 2317:0.104913 2318:0.91184 2319:0.220872 2320:-0.677822 2321:-0.581063 2322:0.982605 2323:0.945629 2324:0.946315 2325:0.892278 2326:-0.967454 2327:-0.993183 2328:0.891776 2329:-0.641509 2330:0.588847 2331:0.967837 2332:0.489524 2333:-0.342559 2334:0.961797 2335:0.984419 2336:0.934644 2337:0.709398 2338:-0.945357 2339:-0.673573 2340:0.745263 2341:0.804197 2342:0.104913 2343:0.91184 2344:0.220872 2345:-0.677822 2346:-0.581063 2347:0.982605 2348:0.945629 2349:0.946315 2350:0.892278 2351:-0.0398666 2352:-0.236968 2353:-0.0735724 2354:-0.151089 2355:-0.0177135 2356:-0.112123 2357:-0.109605 2358:-1 2359:0.413286 2360:0.973699 2361:0.244951 2362:0.65668 2363:0.290036 2364:-1 2365:-0.550567 2366:0.82859 2367:-0.145056 2368:-0.717048 2369:1 2370:0.254922 2371:0.245138 2372:0.165353 2373:-1 2374:-0.491752 2375:0.278437 2376:0.0290097 2377:-0.971865 2378:0.0109502 2379:-0.268896 2380:0.949949 2381:0.189798 2382:0.713673 2383:-0.20094 2384:0.653514 2385:0.182279 2386:-0.189192 2387:-0.0392674 2388:1 2389:0.18927 2390:1 2391:0.456114 2392:0.524153 2393:-0.705347 2394:-0.100967 2395:0.716551 2396:0.392321 2397:0.84041 2398:-0.281389 2399:0.265895 2400:-0.0852451 2401:0.0290097 2402:-0.971865 2403:0.0109502 2404:-0.268896 2405:0.949949 2406:0.189798 2407:0.713673 2408:-0.20094 2409:0.653514 2410:0.182279 2411:-0.189192 2412:-0.0392674 2413:1 2414:0.18927 2415:1 2416:0.456114 2417:0.524153 2418:-0.705347 2419:-0.100967 2420:0.716551 2421:0.392321 2422:0.84041 2423:-0.281389 2424:0.265895 2425:-0.0852451 2426:-0.410039 2427:0.712287 2428:0.490586 2429:-0.753475 2430:-1 2431:0.0319412 2432:-1 2433:1 2434:1 2435:1 2436:-1 2437:-1 2438:1 2439:0.622557 2440:0.930138 2441:-0.439434 2442:0.69489 2443:-0.772418 2444:-0.248278 2445:-0.533416 2446:-1 2447:0.880632 2448:1 2449:1 2450:-0.290946 2451:-0.278676 2452:-1 2453:0.868818 2454:-0.464739 2455:0.768472 2456:-0.807046 2457:-0.610583 2458:1 2459:0.193597 2460:0.65788 2461:0.0325381 2462:0.587891 2463:0.605127 2464:0.515075 2465:-0.313398 2466:0.250977 2467:-0.156036 2468:-1 2469:0.891499 2470:1 2471:-0.740571 2472:-0.666173 2473:-1 2474:0.202006 2475:0.907081 2476:-1 2477:0.981676 2478:-0.731723 2479:-0.962302 2480:-0.945709 2481:-0.875775 2482:0.951991 2483:-0.960024 2484:-0.725292 2485:0.573936 2486:-0.946258 2487:-0.976904 2488:-0.619338 2489:0.567485 2490:-0.828426 2491:-0.867212 2492:-0.0295434 2493:0.734514 2494:0.248042 2495:-0.223991 2496:-0.135947 2497:0.482768 2498:-0.966884 2499:1 2500:-1 2501:-0.841477 2502:1 2503:-0.724044 2504:-0.415087 2505:0.785752 2506:0.0335751 2507:-0.146655 2508:0.174464 2509:-0.0453442 2510:-0.969098 2511:-0.064573 2512:-0.253668 2513:0.119547 2514:-0.337733 2515:0.694156 2516:-0.718468 2517:0.495054 2518:1 2519:-0.79777 2520:-0.00982828 2521:-0.168489 2522:0.691222 2523:0.580332 2524:-0.237425 2525:-0.953543 2526:-0.841477 2527:1 2528:-0.724044 2529:-0.415087 2530:0.785752 2531:0.0335751 2532:-0.146655 2533:0.174464 2534:-0.0453442 2535:-0.969098 2536:-0.064573 2537:-0.253668 2538:0.119547 2539:-0.337733 2540:0.694156 2541:-0.718468 2542:0.495054 2543:1 2544:-0.79777 2545:-0.00982828 2546:-0.168489 2547:0.691222 2548:0.580332 2549:-0.237425 2550:-0.953543 2551:0.705052 2552:-0.392663 2553:-0.0607771 2554:-0.498502 2555:-0.801298 2556:-0.247162 2557:-0.79598 2558:0.259814 2559:-0.901238 2560:-0.774703 2561:0.0144959 2562:0.756641 2563:-0.157812 2564:-0.296052 2565:-0.173567 2566:0.409709 2567:-0.774693 2568:0.0062229 2569:-1 2570:-0.895965 2571:0.128325 2572:0.372962 2573:1 2574:0.0412449 2575:-0.983263 2576:0.705052 2577:-0.392663 2578:-0.0607771 2579:-0.498502 2580:-0.801298 2581:-0.247162 2582:-0.79598 2583:0.259814 2584:-0.901238 2585:-0.774703 2586:0.0144959 2587:0.756641 2588:-0.157812 2589:-0.296052 2590:-0.173567 2591:0.409709 2592:-0.774693 2593:0.0062229 2594:-1 2595:-0.895965 2596:0.128325 2597:0.372962 2598:1 2599:0.0412449 2600:-0.983263 2601:-0.729275 2602:0.262966 2603:1 2604:0.962891 2605:-0.606476 2606:-0.895661 2607:-1 2608:-0.128802 2609:-0.609157 2610:-0.885678 2611:-0.374718 2612:0.632984 2613:0.289877 2614:-1 2615:0.53433 2616:-0.664169 2617:0.736287 2618:0.0412215 2619:0.833505 2620:1 2621:-0.357725 2622:-0.1878 2623:-0.551769 2624:0.216148 2625:1 2626:-0.729275 2627:0.262966 2628:1 2629:0.962891 2630:-0.606476 2631:-0.895661 2632:-1 2633:-0.128802 2634:-0.609157 2635:-0.885678 2636:-0.374718 2637:0.632984 2638:0.289877 2639:-1 2640:0.53433 2641:-0.664169 2642:0.736287 2643:0.0412215 2644:0.833505 2645:1 2646:-0.357725 2647:-0.1878 2648:-0.551769 2649:0.216148 2650:1 2651:0.574908 2652:1 2653:-0.776065 2654:0.107547 2655:-0.37685 2656:0.145284 2657:-0.785778 2658:-0.371558 2659:-0.0884269 2660:-0.416904 2661:-0.273938 2662:0.400018 2663:-0.258748 2664:-0.0556068 2665:0.254595 2666:0.111987 2667:-0.260639 2668:-0.723066 2669:0.969239 2670:-0.66031 2671:0.0180119 2672:-0.443029 2673:0.372514 2674:0.339447 2675:0.765804 2676:0.574908 2677:1 2678:-0.776065 2679:0.107547 2680:-0.37685 2681:0.145284 2682:-0.785778 2683:-0.371558 2684:-0.0884269 2685:-0.416904 2686:-0.273938 2687:0.400018 2688:-0.258748 2689:-0.0556068 2690:0.254595 2691:0.111987 2692:-0.260639 2693:-0.723066 2694:0.969239 2695:-0.66031 2696:0.0180119 2697:-0.443029 2698:0.372514 2699:0.339447 2700:0.765804 2701:-1 2702:1 2703:0.0597783 2704:-1 2705:-0.42659 2706:1 2707:0.472877 2708:-1 2709:-1 2710:-0.376897 2711:0.308572 2712:0.621125 2713:-1 2714:0.232075 2715:0.44348 2716:1 2717:0.501745 2718:-1 2719:1 2720:-1 2721:-1 2722:0.10764 2723:-1 2724:-1 2725:-1 2726:-1 2727:1 2728:0.0597783 2729:-1 2730:-0.42659 2731:1 2732:0.472877 2733:-1 2734:-1 2735:-0.376897 2736:0.308572 2737:0.621125 2738:-1 2739:0.232075 2740:0.44348 2741:1 2742:0.501745 2743:-1 2744:1 2745:-1 2746:-1 2747:0.10764 2748:-1 2749:-1 2750:-1 2751:0.0795747 2752:-0.520216 2753:-0.259692 2754:-0.419231 2755:0.477669 2756:0.216642 2757:-0.655088 2758:-0.308749 2759:0.791262 2760:1 2761:-0.778553 2762:-1 2763:0.202242 2764:-1 2765:0.986351 2766:1 2767:1 2768:-1 2769:-0.588622 2770:0.987843 2771:-1 2772:-1 2773:-1 2774:-1 2775:-0.193193 2776:0.0795747 2777:-0.520216 2778:-0.259692 2779:-0.419231 2780:0.477669 2781:0.216642 2782:-0.655088 2783:-0.308749 2784:0.791262 2785:1 2786:-0.778553 2787:-1 2788:0.202242 2789:-1 2790:0.986351 2791:1 2792:1 2793:-1 2794:-0.588622 2795:0.987843 2796:-1 2797:-1 2798:-1 2799:-1 2800:-0.193193 2801:0.67465 2802:0.730147 2803:-0.900918 2804:-0.13234 2805:-0.128566 2806:0.937451 2807:-0.94217 2808:0.113963 2809:-0.568961 2810:0.239142 2811:-0.657903 2812:-0.638459 2813:0.610637 2814:-0.438295 2815:-0.322728 2816:0.142027 2817:-0.768837 2818:0.839841 2819:0.658104 2820:-0.184009 2821:-0.294694 2822:0.148623 2823:0.0401843 2824:0.0833837 2825:0.28061 2826:0.67465 2827:0.730147 2828:-0.900918 2829:-0.13234 2830:-0.128566 2831:0.937451 2832:-0.94217 2833:0.113963 2834:-0.568961 2835:0.239142 2836:-0.657903 2837:-0.638459 2838:0.610637 2839:-0.438295 2840:-0.322728 2841:0.142027 2842:-0.768837 2843:0.839841 2844:0.658104 2845:-0.184009 2846:-0.294694 2847:0.148623 2848:0.0401843 2849:0.0833837 2850:0.28061 2851:-0.581419 2852:-1 2853:0.618275 2854:0.218873 2855:-0.0317667 2856:-0.87066 2857:0.299479 2858:0.596305 2859:0.451663 2860:0.28427 2861:-0.662656 2862:-0.00498995 2863:-1 2864:-0.59604 2865:0.651111 2866:-0.198257 2867:-1 2868:-1 2869:-0.58358 2870:-6.64233e-05 2871:0.423183 2872:0.857118 2873:-0.0528026 2874:-0.295092 2875:-0.367017 2876:-0.581419 2877:-1 2878:0.618275 2879:0.218873 2880:-0.0317667 2881:-0.87066 2882:0.299479 2883:0.596305 2884:0.451663 2885:0.28427 2886:-0.662656 2887:-0.00498995 2888:-1 2889:-0.59604 2890:0.651111 2891:-0.198257 2892:-1 2893:-1 2894:-0.58358 2895:-6.64233e-05 2896:0.423183 2897:0.857118 2898:-0.0528026 2899:-0.295092 2900:-0.367017 2901:0.950873 2902:-1 2903:1 2904:0.384729 2905:0.972756 2906:0.862132 2907:-0.0618064 2908:1 2909:-0.145483 2910:0.957152 2911:0.967425 2912:0.0148117 2913:-0.746266 2914:-0.315305 2915:0.941384 2916:0.64886 2917:-1 2918:0.742154 2919:0.928274 2920:0.894232 2921:-0.620539 2922:0.599162 2923:0.803259 2924:0.864951 2925:0.859689 2926:0.950873 2927:-1 2928:1 2929:0.384729 2930:0.972756 2931:0.862132 2932:-0.0618064 2933:1 2934:-0.145483 2935:0.957152 2936:0.967425 2937:0.0148117 2938:-0.746266 2939:-0.315305 2940:0.941384 2941:0.64886 2942:-1 2943:0.742154 2944:0.928274 2945:0.894232 2946:-0.620539 2947:0.599162 2948:0.803259 2949:0.864951 2950:0.859689 2951:-0.0769676 2952:0.809242 2953:1 2954:1 2955:0.981764 2956:-1 2957:-1 2958:1 2959:-1 2960:-1 2961:-1 2962:0.23166 2963:-1 2964:-1 2965:-1 2966:1 2967:-1 2968:-1 2969:1 2970:1 2971:-1 2972:-1 2973:-1 2974:-1 2975:-0.105357 2976:-0.0769676 2977:0.809242 2978:1 2979:1 2980:0.981764 2981:-1 2982:-1 2983:1 2984:-1 2985:-1 2986:-1 2987:0.23166 2988:-1 2989:-1 2990:-1 2991:1 2992:-1 2993:-1 2994:1 2995:1 2996:-1 2997:-1 2998:-1 2999:-1 3000:-0.105357 3001:-0.940034 3002:0.943901 3003:-0.629623 3004:-1 3005:-0.910967 3006:0.205849 3007:0.995447 3008:-0.976137 3009:0.516243 3010:-0.981457 3011:-1 3012:-0.863689 3013:0.302338 3014:-0.709999 3015:1 3016:-0.557641 3017:0.870818 3018:1 3019:0.0498582 3020:-0.950893 3021:-0.0712124 3022:-0.966348 3023:0.0901862 3024:-0.263843 3025:-0.411466 3026:-0.940034 3027:0.943901 3028:-0.629623 3029:-1 3030:-0.910967 3031:0.205849 3032:0.995447 3033:-0.976137 3034:0.516243 3035:-0.981457 3036:-1 3037:-0.863689 3038:0.302338 3039:-0.709999 3040:1 3041:-0.557641 3042:0.870818 3043:1 3044:0.0498582 3045:-0.950893 3046:-0.0712124 3047:-0.966348 3048:0.0901862 3049:-0.263843 3050:-0.411466 3051:-0.331371 3052:-0.0482287 3053:0.0333031 3054:-0.33298 3055:-0.00264247 3056:-0.190815 3057:-0.67626 3058:0.274606 3059:-0.0733534 3060:0.838155 3061:-0.759742 3062:-0.0187569 3063:-0.374679 3064:1 3065:0.239536 3066:-0.434608 3067:-1 3068:-1 3069:-1 3070:0.0999203 3071:0.61532 3072:1 3073:-1 3074:-1 3075:0.979604 3076:-1 3077:-0.431528 3078:-0.0131804 3079:0.0170237 3080:-0.412509 3081:-1 3082:0.272562 3083:0.47109 3084:0.673787 3085:0.264457 3086:0.567561 3087:0.603918 3088:0.447068 3089:0.145738 3090:-0.416409 3091:-0.298557 3092:0.162373 3093:-1 3094:-0.586681 3095:0.408933 3096:0.603322 3097:0.824859 3098:-0.101887 3099:-0.702671 3100:-1 3101:-1 3102:-0.431528 3103:-0.0131804 3104:0.0170237 3105:-0.412509 3106:-1 3107:0.272562 3108:0.47109 3109:0.673787 3110:0.264457 3111:0.567561 3112:0.603918 3113:0.447068 3114:0.145738 3115:-0.416409 3116:-0.298557 3117:0.162373 3118:-1 3119:-0.586681 3120:0.408933 3121:0.603322 3122:0.824859 3123:-0.101887 3124:-0.702671 3125:-1 3126:-1 3127:-0.681337 3128:0.0741628 3129:0.690399 3130:0.340252 3131:-0.186467 3132:0.379822 3133:0.837058 3134:-0.102808 3135:-0.740979 3136:0.0431858 3137:0.36846 3138:-0.543134 3139:0.823185 3140:0.0883962 3141:0.59971 3142:-0.149149 3143:-0.295521 3144:-0.0765003 3145:0.105159 3146:0.303115 3147:0.126422 3148:0.0984051 3149:0.0367811 3150:-0.532975 3151:-1 3152:-0.681337 3153:0.0741628 3154:0.690399 3155:0.340252 3156:-0.186467 3157:0.379822 3158:0.837058 3159:-0.102808 3160:-0.740979 3161:0.0431858 3162:0.36846 3163:-0.543134 3164:0.823185 3165:0.0883962 3166:0.59971 3167:-0.149149 3168:-0.295521 3169:-0.0765003 3170:0.105159 3171:0.303115 3172:0.126422 3173:0.0984051 3174:0.0367811 3175:-0.532975 3176:0.798368 3177:-0.887334 3178:0.897877 3179:0.115594 3180:0.584888 3181:-0.301394 3182:0.832708 3183:-0.869549 3184:-0.37376 3185:0.949952 3186:0.647157 3187:0.28339 3188:-0.189093 3189:-1 3190:1 3191:0.110237 3192:0.0889533 3193:0.936185 3194:0.690223 3195:1 3196:0.908396 3197:-0.797646 3198:0.236803 3199:0.623169 3200:0.791799 
0.0009765625 1:0.540677 2:-0.959413 3:-1 4:0.733133 5:1 6:0.280141 7:-0.395976 8:0.729246 9:-0.275186 10:0.937908 11:0.565251 12:0.390836 13:0.289499 14:-0.975744 15:0.950878 16:-0.539378 17:0.144727 18:-0.541061 19:0.589939 20:0.944036 21:1 22:0.902483 23:0.940108 24:0.386847 25:-0.679703 26:0.649635 27:-0.966102 28:0.456513 29:-0.364162 30:0.844797 31:0.92 32:0.630859 33:0.945813 34:0.718876 35:1 36:0.855422 37:-0.0486381 38:-0.287822 39:0.0708719 40:1 41:0.0446841 42:-0.657407 43:0.513944 44:0.0322357 45:0.0421021 46:-0.332465 47:0.590406 48:0.247967 49:-0.149164 50:0.614228 51:0.649635 52:-0.966102 53:0.456513 54:-0.364162 55:0.844797 56:0.92 57:0.630859 58:0.945813 59:0.718876 60:1 61:0.855422 62:-0.0486381 63:-0.287822 64:0.0708719 65:1 66:0.0446841 67:-0.657407 68:0.513944 69:0.0322357 70:0.0421021 71:-0.332465 72:0.590406 73:0.247967 74:-0.149164 75:0.614228 76:0.527495 77:-0.923294 78:-1 79:-1 80:-0.0451466 81:1 82:0.683062 83:-0.565985 84:0.153798 85:-0.0752237 86:-0.598288 87:-0.753818 88:-1 89:-0.679994 90:0.310984 91:-0.806843 92:-0.628478 93:-0.0042073 94:-0.408849 95:0.13999 96:0.423225 97:0.343559 98:-0.593815 99:1 100:1 101:-1 102:1 103:-1 104:-1 105:1 106:-1 107:-1 108:1 109:-1 110:-1 111:-1 112:1 113:-1 114:1 115:-1 116:-1 117:-1 118:-1 119:-1 120:-1 121:-1 122:-1 123:-1 124:-1 125:1 126:-0.148699 127:0.734459 128:-0.338977 129:0.109434 130:-0.248621 131:-0.293061 132:-0.90115 133:0.454248 134:0.327743 135:-0.306886 136:-0.437253 137:-0.382738 138:0.0109901 139:-0.714142 140:0.870509 141:-0.11142 142:-0.428852 143:0.353169 144:-0.253344 145:-0.363472 146:-0.231247 147:-0.474298 148:0.259363 149:-0.640206 150:0.64339 151:-0.148699 152:0.734459 153:-0.338977 154:0.109434 155:-0.248621 156:-0.293061 157:-0.90115 158:0.454248 159:0.327743 160:-0.306886 161:-0.437253 162:-0.382738 163:0.0109901 164:-0.714142 165:0.870509 166:-0.11142 167:-0.428852 168:0.353169 169:-0.253344 170:-0.363472 171:-0.231247 172:-0.474298 173:0.259363 174:-0.640206 175:0.64339 176:-0.83938 177:-1 178:-0.36325 179:0.785777 180:0.647325 181:0.730041 182:0.493614 183:-0.611746 184:0.4341 185:0.571891 186:0.570758 187:-0.203356 188:-0.821536 189:-0.822098 190:-0.191065 191:0.373859 192:0.837484 193:-0.374945 194:0.528191 195:-0.412986 196:-0.856682 197:-0.780064 198:-0.456439 199:0.0166495 200:0.912206 201:0.938125 202:0.484853 203:-0.885901 204:-0.365998 205:-0.904677 206:0.319247 207:-0.948808 208:-0.364802 209:-0.966994 210:-0.822405 211:-0.746891 212:0.632593 213:-0.332325 214:0.825333 215:0.536834 216:0.112877 217:0.082758 218:0.724362 219:-0.953756 220:0.227876 221:-0.829793 222:0.0363387 223:0.120469 224:-0.323486 225:-0.99682 226:0.839837 227:1 228:-0.839276 229:0.981429 230:0.00171714 231:-0.261863 232:0.097366 233:-1 234:-0.607437 235:0.715462 236:0.56114 237:-0.775871 238:-0.591434 239:-0.995246 240:0.99142 241:0.717788 242:0.0353364 243:-0.124025 244:0.561556 245:0.966052 246:-0.935263 247:0.796917 248:1 249:0.981828 250:-1 251:0.667654 252:0.511512 253:-0.0201465 254:-1 255:0.0210287 256:1 257:-1 258:1 259:0.0934401 260:1 261:-0.142528 262:-1 263:0.132464 264:-1 265:-0.571943 266:-0.190793 267:1 268:-0.338326 269:-0.608132 270:1 271:1 272:1 273:-0.377477 274:0.380635 275:1 276:0.799787 277:0.918327 278:-0.0562255 279:0.11897 280:-0.869004 281:0.479529 282:-0.500826 283:0.888262 284:0.850895 285:0.308511 286:-0.411819 287:-0.406067 288:-0.724062 289:-1 290:-0.632334 291:0.626082 292:-0.172944 293:0.0404814 294:0.664964 295:-0.866341 296:1 297:-0.326474 298:0.505129 299:-0.482499 300:0.412775 301:0.799787 302:0.918327 303:-0.0562255 304:0.11897 305:-0.869004 306:0.479529 307:-0.500826 308:0.888262 309:0.850895 310:0.308511 311:-0.411819 312:-0.406067 313:-0.724062 314:-1 315:-0.632334 316:0.626082 317:-0.172944 318:0.0404814 319:0.664964 320:-0.866341 321:1 322:-0.326474 323:0.505129 324:-0.482499 325:0.412775 326:-0.762414 327:-0.939425 328:-0.85993 329:0.67652 330:0.197069 331:0.298184 332:0.450959 333:0.0355025 334:0.629602 335:0.771357 336:0.488412 337:-0.084066 338:-0.12046 339:1 340:0.0944005 341:0.613922 342:0.855884 343:0.29716 344:0.80199 345:-0.208821 346:-0.796625 347:0.578266 348:0.146051 349:-0.734865 350:-0.450605 351:-0.986817 352:-0.356316 353:-0.178039 354:-0.284557 355:0.84709 356:0.506705 357:0.977239 358:1 359:0.926839 360:0.727714 361:0.996098 362:-0.927084 363:-0.902062 364:0.16225 365:-0.774228 366:-0.972083 367:-0.993017 368:-0.978132 369:-0.621472 370:-0.10647 371:0.901679 372:0.974926 373:0.990348 374:0.644487 375:-0.977912 376:-0.986817 377:-0.356316 378:-0.178039 379:-0.284557 380:0.84709 381:0.506705 382:0.977239 383:1 384:0.926839 385:0.727714 386:0.996098 387:-0.927084 388:-0.902062 389:0.16225 390:-0.774228 391:-0.972083 392:-0.993017 393:-0.978132 394:-0.621472 395:-0.10647 396:0.901679 397:0.974926 398:0.990348 399:0.644487 400:-0.977912 401:-0.489253 402:0.302501 403:0.542329 404:-0.231776 405:-0.0881706 406:-0.423563 407:0.931869 408:-0.822391 409:-1 410:0.526818 411:-0.781467 412:1 413:-0.720173 414:-0.385199 415:-1 416:0.553254 417:0.556663 418:-1 419:0.582073 420:0.669509 421:-0.601319 422:-0.960154 423:0.369951 424:1 425:1 426:0.924026 427:-0.544717 428:-0.475507 429:-1 430:-0.391385 431:-0.862371 432:0.716474 433:-0.800693 434:-0.0402889 435:-1 436:-0.405943 437:-0.425724 438:-0.882203 439:0.786615 440:0.392009 441:-0.0157049 442:-0.644294 443:1 444:-0.674066 445:0.111154 446:-1 447:0.655775 448:0.197382 449:0.103971 450:-0.10716 451:0.364531 452:-1 453:0.768014 454:-1 455:1 456:-1 457:-1 458:1 459:0.662008 460:-0.558503 461:-1 462:-0.342821 463:1 464:-0.806352 465:-1 466:0.157709 467:-1 468:-0.582221 469:1 470:-1 471:0.505852 472:-1 473:1 474:-0.450015 475:-0.816353 476:0.224211 477:-0.502752 478:0.644654 479:0.328089 480:1 481:0.59821 482:0.61499 483:1 484:-0.405485 485:0.795491 486:0.00129282 487:-0.0460315 488:-0.939368 489:-0.9703 490:-0.603392 491:0.861929 492:0.173815 493:0.810699 494:0.7324 495:0.433452 496:0.804519 497:0.797896 498:0.0592317 499:-1 500:0.578006 501:0.91183 502:0.0312679 503:-0.457544 504:-0.317073 505:-1 506:0.423952 507:0.0915657 508:-1 509:-0.639102 510:0.925089 511:-0.668391 512:-0.652712 513:-0.812937 514:0.933259 515:0.610404 516:1 517:1 518:0.263432 519:-0.355078 520:0.0170833 521:-0.93402 522:0.998176 523:-1 524:-1 525:-1 526:-0.882153 527:-1 528:0.0517158 529:-0.519219 530:0.908221 531:-1 532:-0.516963 533:0.96892 534:-0.897365 535:0.967015 536:0.35678 537:-0.688856 538:-1 539:-0.47892 540:0.836055 541:-0.21149 542:-0.940164 543:0.517496 544:0.637862 545:-0.823228 546:0.86254 547:-0.555258 548:0.954967 549:0.531757 550:1 551:0.184351 552:-0.870371 553:-1 554:-1 555:1 556:1 557:1 558:1 559:1 560:1 561:1 562:0.442796 563:-0.951045 564:-1 565:1 566:0.424028 567:0.221522 568:-0.19311 569:-0.423885 570:0.42413 571:0.0213178 572:-0.33214 573:-0.437419 574:0.487808 575:0.114818 576:0.184351 577:-0.870371 578:-1 579:-1 580:1 581:1 582:1 583:1 584:1 585:1 586:1 587:0.442796 588:-0.951045 589:-1 590:1 591:0.424028 592:0.221522 593:-0.19311 594:-0.423885 595:0.42413 596:0.0213178 597:-0.33214 598:-0.437419 599:0.487808 600:0.114818 601:1 602:0.453298 603:0.0833017 604:-0.134545 605:-0.657623 606:0.0479582 607:1 608:-1 609:-0.8086 610:-0.729034 611:0.27991 612:-0.156412 613:1 614:-1 615:-0.304453 616:0.586244 617:0.0419014 618:-1 619:0.820209 620:1 621:-1 622:-0.0389882 623:-1 624:-0.191156 625:-0.529673 626:1 627:-0.703324 628:-0.684079 629:-0.406753 630:-0.100886 631:-0.679667 632:0.471233 633:-0.338957 634:0.477808 635:0.0669007 636:0.395976 637:-0.753586 638:-1 639:1 640:-0.05614 641:-0.761116 642:0.0662435 643:-0.344823 644:0.461764 645:0.535231 646:0.334144 647:-0.637905 648:-0.995556 649:0.676348 650:-0.214068 651:1 652:-0.703324 653:-0.684079 654:-0.406753 655:-0.100886 656:-0.679667 657:0.471233 658:-0.338957 659:0.477808 660:0.0669007 661:0.395976 662:-0.753586 663:-1 664:1 665:-0.05614 666:-0.761116 667:0.0662435 668:-0.344823 669:0.461764 670:0.535231 671:0.334144 672:-0.637905 673:-0.995556 674:0.676348 675:-0.214068 676:-0.845906 677:-0.607203 678:0.0409746 679:0.684281 680:-0.255748 681:0.014885 682:-0.142642 683:0.414188 684:0.877708 685:0.150826 686:0.844975 687:0.373364 688:-0.925559 689:0.262421 690:0.205754 691:0.698667 692:-0.326377 693:0.0993843 694:0.462586 695:-0.0582676 696:-0.439608 697:0.782189 698:0.658635 699:0.195911 700:0.389592 701:-0.845906 702:-0.607203 703:0.0409746 704:0.684281 705:-0.255748 706:0.014885 707:-0.142642 708:0.414188 709:0.877708 710:0.150826 711:0.844975 712:0.373364 713:-0.925559 714:0.262421 715:0.205754 716:0.698667 717:-0.326377 718:0.0993843 719:0.462586 720:-0.0582676 721:-0.439608 722:0.782189 723:0.658635 724:0.195911 725:0.389592 726:-0.785051 727:-1 728:0.405694 729:0.807659 730:0.670597 731:0.706023 732:0.906011 733:1 734:0.879797 735:0.03984 736:0.974206 737:-0.130867 738:-0.940237 739:0.233596 740:0.430653 741:0.338184 742:-0.74197 743:-0.376683 744:-0.454499 745:-0.575508 746:0.350089 747:-0.896652 748:-0.689375 749:-1 750:-0.60228 751:1 752:-0.362588 753:-1 754:0.144115 755:0.252175 756:1 757:-0.0716048 758:-1 759:0.202615 760:0.870679 761:-0.294702 762:-1 763:0.849841 764:1 765:0.359314 766:-0.0894572 767:0.640833 768:-0.425346 769:0.229543 770:1 771:-1 772:-0.436905 773:-1 774:-1 775:-1 776:1 777:-0.362588 778:-1 779:0.144115 780:0.252175 781:1 782:-0.0716048 783:-1 784:0.202615 785:0.870679 786:-0.294702 787:-1 788:0.849841 789:1 790:0.359314 791:-0.0894572 792:0.640833 793:-0.425346 794:0.229543 795:1 796:-1 797:-0.436905 798:-1 799:-1 800:-1 801:1 802:-0.425804 803:-0.343607 804:0.168445 805:-0.742182 806:-1 807:0.504319 808:0.21049 809:-0.0412068 810:-1 811:1 812:-1 813:-0.523904 814:-0.175013 815:-0.725693 816:-0.473571 817:0.304554 818:0.930185 819:1 820:-1 821:1 822:-0.724111 823:0.518718 824:-1 825:-0.25703 826:0.915626 827:1 828:0.662621 829:-0.517862 830:-0.905402 831:-0.426175 832:-0.89247 833:-0.647348 834:-1 835:-0.870983 836:-0.14654 837:-1 838:1 839:-0.379625 840:-0.492026 841:-0.247845 842:0.940348 843:0.467941 844:-0.059961 845:-0.403937 846:0.172298 847:0.88064 848:-0.666676 849:-0.735862 850:-0.00438192 851:-0.158739 852:-0.727772 853:-0.296971 854:0.29732 855:0.155625 856:0.890511 857:0.113423 858:0.64428 859:0.659036 860:0.00888359 861:0.774753 862:0.292333 863:-0.0134611 864:0.566884 865:0.645757 866:0.550785 867:-0.011465 868:-1 869:-0.244218 870:0.922654 871:-0.295557 872:-1 873:-0.672166 874:0.881257 875:0.851837 876:1 877:-0.356551 878:-0.654079 879:-1 880:0.357957 881:-1 882:1 883:-0.85064 884:-1 885:-1 886:1 887:1 888:0.292335 889:-0.582505 890:0.515836 891:0.602004 892:0.603458 893:-1 894:0.390269 895:0.397987 896:0.598234 897:0.492491 898:-0.822158 899:-0.498808 900:-1 901:0.975433 902:0.967398 903:0.0915571 904:-0.974258 905:-0.976671 906:-0.838069 907:0.806753 908:-0.781405 909:0.56213 910:0.996485 911:-1 912:-0.280161 913:1 914:-0.994947 915:0.929437 916:-0.5146 917:1 918:0.78586 919:-0.743453 920:0.782991 921:-0.21016 922:0.420161 923:1 924:-0.0996905 925:-1 926:-0.429596 927:-1 928:-1 929:-0.488335 930:0.665039 931:-0.869069 932:-0.636878 933:1 934:-0.9709 935:-0.837079 936:-0.967534 937:1 938:-0.177631 939:1 940:0.483771 941:-1 942:0.578135 943:-0.666086 944:-1 945:1 946:-1 947:-1 948:-1 949:1 950:-1 951:0.536065 952:0.894761 953:-0.785027 954:-0.943737 955:-0.997595 956:-0.965561 957:0.998008 958:-0.848349 959:0.793575 960:-0.127396 961:-0.343947 962:0.60409 963:0.0397279 964:0.987624 965:-0.859621 966:0.0548352 967:0.118896 968:-0.360781 969:0.168735 970:-0.308709 971:0.758057 972:-0.42901 973:-0.987733 974:0.644556 975:-0.912288 976:1 977:-0.566415 978:0.233811 979:-1 980:0.408172 981:-0.272852 982:0.0436042 983:0.634862 984:-0.329361 985:0.793153 986:-0.394841 987:-0.59842 988:-0.421118 989:-0.884582 990:-0.530334 991:0.226828 992:-0.00152057 993:1 994:0.308999 995:1 996:-0.524728 997:-1 998:0.237931 999:1 1000:0.179803 1001:-0.936832 1002:0.996545 1003:0.689952 1004:0.399515 1005:-0.914509 1006:-0.897325 1007:1 1008:-0.994631 1009:-0.622218 1010:0.723298 1011:-0.943663 1012:1 1013:-0.444192 1014:0.792043 1015:-0.826873 1016:-0.383701 1017:-0.313664 1018:0.536537 1019:0.00294842 1020:-0.622005 1021:0.160583 1022:-0.927047 1023:-0.955815 1024:0.977219 1025:0.967761 1026:1 1027:0.667328 1028:0.921277 1029:-1 1030:0.0362444 1031:1 1032:-0.58685 1033:-0.297549 1034:-1 1035:-0.258168 1036:0.773815 1037:-0.381365 1038:-0.208421 1039:0.654445 1040:0.23778 1041:-0.796209 1042:-0.150187 1043:1 1044:1 1045:-1 1046:-1 1047:-1 1048:1 1049:0.160241 1050:-1 1051:-0.387815 1052:-0.623995 1053:0.174992 1054:-0.35274 1055:-0.90204 1056:-0.958992 1057:0.867521 1058:0.149438 1059:-0.972457 1060:-0.949528 1061:-0.282716 1062:0.898819 1063:0.158575 1064:0.826215 1065:1 1066:-0.909407 1067:-0.213301 1068:-0.436669 1069:-0.387226 1070:-0.122414 1071:0.70437 1072:0.997256 1073:-0.102422 1074:-0.425219 1075:-0.933407 1076:-0.313647 1077:-0.0624458 1078:-1 1079:-1 1080:-1 1081:-0.840439 1082:-1 1083:1 1084:-1 1085:-1 1086:-1 1087:-0.0125339 1088:1 1089:-0.388681 1090:1 1091:-1 1092:-1 1093:1 1094:1 1095:-0.78196 1096:-0.306944 1097:0.51106 1098:1 1099:-1 1100:0.123326 1101:0.911854 1102:-1 1103:-1 1104:0.228914 1105:0.504708 1106:0.200254 1107:0.401198 1108:0.0617271 1109:-0.877187 1110:0.260067 1111:-1 1112:0.2242 1113:1 1114:-1 1115:1 1116:1 1117:-1 1118:0.0121934 1119:1 1120:0.720835 1121:0.157375 1122:0.8538 1123:0.98123 1124:1 1125:-0.832158 1126:-1 1127:-1 1128:1 1129:-1 1130:-1 1131:0.492716 1132:1 1133:-1 1134:-0.92393 1135:0.719033 1136:-1 1137:0.269195 1138:1 1139:0.176474 1140:1 1141:-1 1142:-1 1143:1 1144:-1 1145:-1 1146:0.862034 1147:0.777631 1148:-1 1149:0.849163 1150:0.690265 1151:1 1152:-0.792836 1153:0.532868 1154:0.977513 1155:0.33368 1156:-0.55743 1157:0.101926 1158:-0.542012 1159:0.746612 1160:-0.782574 1161:0.0956892 1162:-0.829636 1163:0.0309408 1164:0.108464 1165:-1 1166:0.323894 1167:0.689138 1168:-0.00874547 1169:1 1170:-0.944717 1171:-0.258394 1172:0.208628 1173:-0.92398 1174:0.00125788 1175:-0.0549654 1176:1 1177:-0.792836 1178:0.532868 1179:0.977513 1180:0.33368 1181:-0.55743 1182:0.101926 1183:-0.542012 1184:0.746612 1185:-0.782574 1186:0.0956892 1187:-0.829636 1188:0.0309408 1189:0.108464 1190:-1 1191:0.323894 1192:0.689138 1193:-0.00874547 1194:1 1195:-0.944717 1196:-0.258394 1197:0.208628 1198:-0.92398 1199:0.00125788 1200:-0.0549654 1201:-0.723919 1202:-1 1203:-0.797643 1204:0.771093 1205:1 1206:1 1207:0.796651 1208:0.996843 1209:0.736081 1210:0.28841 1211:0.912209 1212:-0.179833 1213:0.664394 1214:0.83968 1215:-0.79681 1216:-0.802945 1217:-0.795875 1218:0.23852 1219:-0.748719 1220:-0.315224 1221:-0.0395251 1222:0.317462 1223:0.652124 1224:0.645574 1225:-0.144398 1226:0.789436 1227:-1 1228:0.162814 1229:-1 1230:0.35451 1231:1 1232:0.342266 1233:-0.730074 1234:0.278608 1235:0.0936734 1236:-0.918968 1237:0.2485 1238:-0.680763 1239:0.489994 1240:0.835229 1241:1 1242:-0.29825 1243:-0.437772 1244:0.335354 1245:-0.629589 1246:-1 1247:-0.0143518 1248:1 1249:0.326718 1250:-0.537264 1251:0.789436 1252:-1 1253:0.162814 1254:-1 1255:0.35451 1256:1 1257:0.342266 1258:-0.730074 1259:0.278608 1260:0.0936734 1261:-0.918968 1262:0.2485 1263:-0.680763 1264:0.489994 1265:0.835229 1266:1 1267:-0.29825 1268:-0.437772 1269:0.335354 1270:-0.629589 1271:-1 1272:-0.0143518 1273:1 1274:0.326718 1275:-0.537264 1276:0.800271 1277:0.964141 1278:-0.527822 1279:0.826205 1280:-0.936249 1281:0.0693982 1282:-0.226257 1283:-0.284637 1284:-0.377774 1285:-0.11581 1286:-0.0439002 1287:-0.472345 1288:0.0603342 1289:0.246388 1290:-0.873397 1291:0.150954 1292:-0.852214 1293:-0.110922 1294:0.0254143 1295:-0.318674 1296:-0.0633594 1297:0.402824 1298:0.201037 1299:-0.389776 1300:0.536098 1301:0.800271 1302:0.964141 1303:-0.527822 1304:0.826205 1305:-0.936249 1306:0.0693982 1307:-0.226257 1308:-0.284637 1309:-0.377774 1310:-0.11581 1311:-0.0439002 1312:-0.472345 1313:0.0603342 1314:0.246388 1315:-0.873397 1316:0.150954 1317:-0.852214 1318:-0.110922 1319:0.0254143 1320:-0.318674 1321:-0.0633594 1322:0.402824 1323:0.201037 1324:-0.389776 1325:0.536098 1326:0.329076 1327:-1 1328:-0.06171 1329:-0.318303 1330:0.538082 1331:1 1332:-1 1333:-0.697189 1334:1 1335:1 1336:-0.142221 1337:-1 1338:-0.486476 1339:-0.127964 1340:-0.0339406 1341:-0.821075 1342:0.784322 1343:-0.519869 1344:-0.226506 1345:0.240134 1346:-0.322242 1347:0.584855 1348:-0.993257 1349:-0.0960027 1350:-1 1351:0.329076 1352:-1 1353:-0.06171 1354:-0.318303 1355:0.538082 1356:1 1357:-1 1358:-0.697189 1359:1 1360:1 1361:-0.142221 1362:-1 1363:-0.486476 1364:-0.127964 1365:-0.0339406 1366:-0.821075 1367:0.784322 1368:-0.519869 1369:-0.226506 1370:0.240134 1371:-0.322242 1372:0.584855 1373:-0.993257 1374:-0.0960027 1375:-1 1376:0.283559 1377:1 1378:1 1379:1 1380:-0.340244 1381:-0.0818506 1382:0.424144 1383:-0.317052 1384:-0.2042 1385:0.323533 1386:-0.176553 1387:0.617753 1388:-0.393896 1389:-0.186531 1390:1 1391:1 1392:-0.00989216 1393:-0.150707 1394:-1 1395:-1 1396:-0.167119 1397:0.510103 1398:0.0361196 1399:0.184792 1400:-1 1401:0.283559 1402:1 1403:1 1404:1 1405:-0.340244 1406:-0.0818506 1407:0.424144 1408:-0.317052 1409:-0.2042 1410:0.323533 1411:-0.176553 1412:0.617753 1413:-0.393896 1414:-0.186531 1415:1 1416:1 1417:-0.00989216 1418:-0.150707 1419:-1 1420:-1 1421:-0.167119 1422:0.510103 1423:0.0361196 1424:0.184792 1425:-1 1426:0.203814 1427:0.557898 1428:-0.830749 1429:0.686847 1430:-0.346793 1431:-1 1432:1 1433:-0.799869 1434:0.676556 1435:-0.656622 1436:-0.385047 1437:0.950167 1438:0.745071 1439:-0.961678 1440:0.323747 1441:-0.232392 1442:-0.586308 1443:0.59904 1444:-0.615851 1445:0.187967 1446:1 1447:0.0357515 1448:-0.218263 1449:-1 1450:0.101986 1451:0.203814 1452:0.557898 1453:-0.830749 1454:0.686847 1455:-0.346793 1456:-1 1457:1 1458:-0.799869 1459:0.676556 1460:-0.656622 1461:-0.385047 1462:0.950167 1463:0.745071 1464:-0.961678 1465:0.323747 1466:-0.232392 1467:-0.586308 1468:0.59904 1469:-0.615851 1470:0.187967 1471:1 1472:0.0357515 1473:-0.218263 1474:-1 1475:0.101986 1476:0.0175886 1477:-0.885327 1478:-0.535617 1479:-1 1480:-0.355127 1481:0.993883 1482:-1 1483:-1 1484:-0.0236489 1485:0.379866 1486:0.10741 1487:-0.277562 1488:-0.63079 1489:-0.0137387 1490:1 1491:0.755469 1492:1 1493:-0.148285 1494:-0.183328 1495:1 1496:0.258511 1497:1 1498:-0.341845 1499:-0.394538 1500:-0.403022 1501:0.0175886 1502:-0.885327 1503:-0.535617 1504:-1 1505:-0.355127 1506:0.993883 1507:-1 1508:-1 1509:-0.0236489 1510:0.379866 1511:0.10741 1512:-0.277562 1513:-0.63079 1514:-0.0137387 1515:1 1516:0.755469 1517:1 1518:-0.148285 1519:-0.183328 1520:1 1521:0.258511 1522:1 1523:-0.341845 1524:-0.394538 1525:-0.403022 1526:-0.892541 1527:-0.803731 1528:-0.884381 1529:0.997932 1530:1 1531:1 1532:0.829066 1533:0.696619 1534:0.631243 1535:-0.0434321 1536:1 1537:0.822949 1538:-0.998043 1539:-0.996415 1540:0.378357 1541:0.920811 1542:0.620011 1543:-0.823046 1544:-0.43512 1545:-0.888065 1546:-0.975495 1547:0.984621 1548:0.98679 1549:0.974866 1550:0.857508 1551:-1 1552:0.329329 1553:-0.0983834 1554:-0.51791 1555:0.372139 1556:-0.294055 1557:-0.533336 1558:-1 1559:0.46846 1560:1 1561:0.0206482 1562:0.504004 1563:1 1564:0.457796 1565:-0.819126 1566:0.102184 1567:-0.181251 1568:-0.221927 1569:-1 1570:0.0755936 1571:0.271793 1572:0.695459 1573:-0.322807 1574:-1 1575:-0.426953 1576:-1 1577:0.329329 1578:-0.0983834 1579:-0.51791 1580:0.372139 1581:-0.294055 1582:-0.533336 1583:-1 1584:0.46846 1585:1 1586:0.0206482 1587:0.504004 1588:1 1589:0.457796 1590:-0.819126 1591:0.102184 1592:-0.181251 1593:-0.221927 1594:-1 1595:0.0755936 1596:0.271793 1597:0.695459 1598:-0.322807 1599:-1 1600:-0.426953 1601:0.214393 1602:0.202684 1603:-1 1604:-1 1605:0.744944 1606:1 1607:1 1608:1 1609:0.14252 1610:1 1611:1 1612:-0.145306 1613:0.342779 1614:-0.175659 1615:-0.167746 1616:0.101925 1617:0.261052 1618:-1 1619:-0.92897 1620:0.532933 1621:0.0706131 1622:1 1623:-0.0579033 1624:0.349424 1625:0.162223 1626:0.950101 1627:0.0451035 1628:-1 1629:-0.252411 1630:-0.340473 1631:-0.83536 1632:-0.517033 1633:0.49448 1634:0.0113007 1635:-0.925051 1636:-0.0253523 1637:-0.075089 1638:0.26214 1639:0.040523 1640:0.919751 1641:-0.780872 1642:-0.839725 1643:-0.434375 1644:-0.540515 1645:0.64769 1646:0.0014089 1647:0.712918 1648:-0.870429 1649:1 1650:0.941705 1651:0.926909 1652:0.614073 1653:-1 1654:0.751032 1655:-0.508191 1656:-0.832219 1657:0.186102 1658:-0.542021 1659:-0.148393 1660:-0.146959 