svm_type c_svc
kernel_type rbf
gamma 0.00031250000000000001
nr_class 4
total_sv 51
rho -0.055424132641970075 0.35876757281310961 0.06377377870517352 0.52975226795230845 0.24683892398379403 -0.31694577121183815
label 1 2 3 4
nr_sv 10 17 12 12
SV
3.324202737894189 3.8080848174281376 2.4232174099874575 1:-0.6252 2:0.162905 3:0.243229 4:0.0944582 5:0.648351 6:0.196919 7:0.185224 8:0.346047 9:0.0557241 10:0.618329 11:-0.038774 12:0.721326 13:-0.551898 14:-0.760156 15:-0.220084 16:-0.0975621 17:0.49199 18:-0.478098 19:-0.546045 20:0.360223 21:0.893491 22:0.835516 23:0.604994 24:0.341748 25:-0.130122 26:-0.828439 27:-0.944743 28:0.0245782 29:0.876135 30:-0.0370756 31:-0.188293 32:0.241104 33:0.987182 34:0.278019 35:-0.491008 36:0.987063 37:0.0276008 38:-0.0721804 39:0.675116 40:-0.198465 41:0.214543 42:0.294546 43:-0.806043 44:-0.887768 45:0.332609 46:0.311716 47:0.0721132 48:0.697259 49:0.8377 50:0.426097 51:-0.828439 52:-0.944743 53:0.0245782 54:0.876135 55:-0.0370756 56:-0.188293 57:0.241104 58:0.987182 59:0.278019 60:-0.491008 61:0.987063 62:0.0276008 63:-0.0721804 64:0.675116 65:-0.198465 66:0.214543 67:0.294546 68:-0.806043 69:-0.887768 70:0.332609 71:0.311716 72:0.0721132 73:0.697259 74:0.8377 75:0.426097 76:-0.262224 77:0.900119 78:-0.284584 79:-0.0962867 80:-0.154212 81:0.136564 82:0.104475 83:-1 84:0.230393 85:0.72272 86:0.421254 87:-0.139151 88:-0.0143746 89:0.950873 90:-0.809889 91:0.336863 92:-0.16959 93:-0.386354 94:0.624597 95:0.13848 96:-0.329268 97:0.0712894 98:0.587893 99:-0.709016 100:0.0197435 101:-1 102:-0.734379 103:-0.447084 104:1 105:0.769517 106:0.500243 107:0.157216 108:0.117639 109:-0.00645635 110:0.667169 111:0.0563456 112:0.168811 113:0.483138 114:-0.163122 115:-0.358998 116:-0.33635 117:0.283379 118:-0.864367 119:0.235434 120:1 121:-0.340547 122:0.502373 123:0.21761 124:0.281765 125:0.446791 126:-0.481487 127:0.909725 128:-0.477803 129:0.13914 130:0.332503 131:-0.158226 132:-0.0490903 133:-1 134:0.283698 135:0.789962 136:0.139485 137:0.210726 138:1 139:-0.973697 140:0.92229 141:0.40953 142:0.247048 143:0.345632 144:-0.760863 145:-0.00464073 146:-0.744523 147:0.52138 148:0.0294429 149:0.0538835 150:-0.109258 151:-0.481487 152:0.909725 153:-0.477803 154:0.13914 155:0.332503 156:-0.158226 157:-0.0490903 158:-1 159:0.283698 160:0.789962 161:0.139485 162:0.210726 163:1 164:-0.973697 165:0.92229 166:0.40953 167:0.247048 168:0.345632 169:-0.760863 170:-0.00464073 171:-0.744523 172:0.52138 173:0.0294429 174:0.0538835 175:-0.109258 176:-0.227368 177:-0.671138 178:0.220719 179:0.718639 180:0.134174 181:0.0658921 182:0.190621 183:-0.103501 184:-0.013692 185:0.148203 186:0.838796 187:0.249112 188:0.12071 189:0.818606 190:-0.232322 191:-0.0781809 192:-0.526648 193:0.20936 194:0.429497 195:0.220022 196:0.229289 197:-0.33462 198:-0.308184 199:0.20262 200:0.495284 201:0.146246 202:-0.354659 203:0.353661 204:-0.276333 205:0.107103 206:0.38193 207:-0.502137 208:-0.449456 209:0.0518723 210:0.510827 211:0.0340847 212:0.0648205 213:-0.377001 214:-0.300381 215:0.273211 216:-0.286639 217:0.707029 218:-0.208756 219:-0.551771 220:0.354976 221:0.0577541 222:-0.0554092 223:-0.192027 224:-0.077029 225:-0.290338 226:-0.521818 227:0.763775 228:0.0936044 229:0.0318995 230:0.803925 231:-0.299875 232:1 233:-0.297879 234:0.230984 235:0.0121616 236:-0.841516 237:0.640764 238:-0.338913 239:-0.374799 240:0.488712 241:-0.528991 242:1 243:-0.217225 244:0.180221 245:-0.542674 246:0.442152 247:1 248:-0.257915 249:-0.129334 250:0.813835 251:-0.269547 252:0.192909 253:-0.577203 254:-0.0140739 255:-0.775425 256:0.837615 257:-0.475588 258:-0.0836128 259:-0.143764 260:0.0144624 261:0.338467 262:0.611137 263:-0.153552 264:-0.179294 265:-0.199509 266:0.342763 267:-1 268:-0.632834 269:1 270:0.814869 271:-0.620514 272:0.0451297 273:0.340744 274:0.258788 275:0.0221331 276:0.160605 277:-0.508941 278:0.694577 279:0.0341061 280:0.138765 281:-0.0516257 282:-0.461088 283:-0.337075 284:0.02793 285:0.0166417 286:0.0470099 287:0.19159 288:-0.0713376 289:0.0139088 290:-0.254451 291:0.184368 292:0.0613679 293:-0.0060923 294:0.00606669 295:-0.121734 296:-0.368527 297:0.106888 298:0.227784 299:0.23975 300:0.353611 301:0.160605 302:-0.508941 303:0.694577 304:0.0341061 305:0.138765 306:-0.0516257 307:-0.461088 308:-0.337075 309:0.02793 310:0.0166417 311:0.0470099 312:0.19159 313:-0.0713376 314:0.0139088 315:-0.254451 316:0.184368 317:0.0613679 318:-0.0060923 319:0.00606669 320:-0.121734 321:-0.368527 322:0.106888 323:0.227784 324:0.23975 325:0.353611 326:-0.510191 327:-0.529064 328:-0.767304 329:0.515247 330:-0.559925 331:0.454747 332:0.564545 333:-0.0653232 334:-0.271487 335:-0.794862 336:0.804999 337:-0.346559 338:0.230888 339:-0.653556 340:0.493209 341:0.628438 342:-0.20991 343:-0.566323 344:-0.443156 345:0.688799 346:-0.473722 347:0.234584 348:0.88989 349:0.167155 350:-0.318184 351:-0.267276 352:-0.543609 353:-0.220468 354:0.459272 355:-0.410727 356:0.145376 357:-0.153657 358:-0.227033 359:-0.625226 360:0.231943 361:0.714823 362:0.354992 363:-0.360825 364:0.075265 365:-0.244746 366:-0.423203 367:-0.0492735 368:-0.294635 369:-0.519677 370:-0.51107 371:-0.588128 372:-0.79796 373:0.158146 374:-0.383014 375:-0.06041 376:-0.267276 377:-0.543609 378:-0.220468 379:0.459272 380:-0.410727 381:0.145376 382:-0.153657 383:-0.227033 384:-0.625226 385:0.231943 386:0.714823 387:0.354992 388:-0.360825 389:0.075265 390:-0.244746 391:-0.423203 392:-0.0492735 393:-0.294635 394:-0.519677 395:-0.51107 396:-0.588128 397:-0.79796 398:0.158146 399:-0.383014 400:-0.06041 401:-0.53573 402:0.669547 403:-0.0355575 404:-0.48485 405:0.0194221 406:0.260184 407:0.160677 408:0.489768 409:0.135611 410:-0.769253 411:-0.179293 412:-0.0171941 413:0.345995 414:-0.425086 415:-0.684772 416:-0.36255 417:0.600502 418:-0.226706 419:0.246494 420:0.269719 421:0.152358 422:-0.268251 423:-0.276858 424:0.0471973 425:0.35114 426:-0.0400364 427:0.185171 428:-0.712782 429:0.187325 430:0.270473 431:-0.757211 432:0.0229075 433:0.08581 434:0.157451 435:-0.504604 436:0.0569269 437:0.0519928 438:0.358633 439:-0.177132 440:-0.547489 441:0.244564 442:-0.713785 443:1 444:0.702919 445:-0.37695 446:0.0477764 447:-0.142639 448:-0.532585 449:-0.61945 450:-0.186663 451:-0.00214894 452:0.0352487 453:0.445108 454:0.2976 455:-0.0165679 456:-0.164787 457:0.762616 458:-0.0229705 459:-0.0804312 460:-0.289114 461:-0.227898 462:0.101592 463:-0.764325 464:0.258374 465:-0.969059 466:-0.0301021 467:-0.424494 468:-0.935425 469:-0.268331 470:-0.154792 471:-0.660069 472:0.473888 473:-0.287728 474:0.135528 475:-0.0135026 476:0.759194 477:0.459222 478:-0.255871 479:0.768219 480:0.177604 481:0.633707 482:0.534037 483:-0.107536 484:0.599939 485:-0.23611 486:-0.570928 487:-0.384838 488:-0.0387685 489:-0.338398 490:0.701657 491:0.522315 492:0.0222847 493:-0.00354334 494:-0.429486 495:0.0939199 496:0.31119 497:0.14652 498:0.165807 499:0.331373 500:-0.169311 501:-0.435263 502:-0.772955 503:0.272099 504:-0.720851 505:0.843453 506:-0.0820283 507:0.505075 508:1 509:-0.513321 510:0.344988 511:-0.405082 512:0.535834 513:1 514:-1 515:-0.719756 516:-0.519226 517:-0.0665688 518:-0.755992 519:-0.258695 520:0.00894799 521:0.727585 522:0.00638019 523:-0.00721264 524:0.175452 525:0.982372 526:0.881048 527:0.641864 528:-1 529:-0.436408 530:-0.531969 531:-1 532:0.641229 533:0.125025 534:0.580192 535:-0.599405 536:-1 537:-1 538:1 539:-0.48563 540:1 541:0.652848 542:-0.320022 543:0.505947 544:-0.694299 545:-1 546:0.0209775 547:-0.447638 548:-0.35222 549:0.996454 550:-0.977419 551:0.39362 552:0.682991 553:-0.252187 554:-0.498741 555:-0.750647 556:0.0315152 557:-0.582416 558:0.168533 559:0.293154 560:-0.534365 561:-0.021625 562:-0.190945 563:-0.0735462 564:-0.350059 565:-0.143335 566:0.440576 567:-0.115709 568:-0.394762 569:0.691472 570:0.0847689 571:-0.784274 572:0.16172 573:-0.0567613 574:0.370896 575:-0.0691696 576:0.39362 577:0.682991 578:-0.252187 579:-0.498741 580:-0.750647 581:0.0315152 582:-0.582416 583:0.168533 584:0.293154 585:-0.534365 586:-0.021625 587:-0.190945 588:-0.0735462 589:-0.350059 590:-0.143335 591:0.440576 592:-0.115709 593:-0.394762 594:0.691472 595:0.0847689 596:-0.784274 597:0.16172 598:-0.0567613 599:0.370896 600:-0.0691696 601:-0.0201512 602:0.406243 603:0.295016 604:0.136992 605:-0.39768 606:-0.344991 607:0.275778 608:0.394391 609:0.0386082 610:0.264301 611:-0.469919 612:-0.0635787 613:0.357195 614:0.00743634 615:0.322239 616:-0.143656 617:-0.559864 618:0.39747 619:-0.507983 620:-0.320487 621:-0.191048 622:0.0841703 623:-0.073508 624:-0.0217819 625:-0.00334819 626:0.176972 627:-0.193746 628:0.0703095 629:0.163582 630:-0.249323 631:0.0468218 632:-0.596922 633:0.00575861 634:-0.016758 635:-0.339364 636:0.0889344 637:0.394852 638:-0.235068 639:-0.252076 640:-0.0813211 641:0.10521 642:-0.0956994 643:-0.12553 644:0.149106 645:-0.288968 646:0.127024 647:0.186704 648:0.218215 649:0.323462 650:-0.464727 651:0.176972 652:-0.193746 653:0.0703095 654:0.163582 655:-0.249323 656:0.0468218 657:-0.596922 658:0.00575861 659:-0.016758 660:-0.339364 661:0.0889344 662:0.394852 663:-0.235068 664:-0.252076 665:-0.0813211 666:0.10521 667:-0.0956994 668:-0.12553 669:0.149106 670:-0.288968 671:0.127024 672:0.186704 673:0.218215 674:0.323462 675:-0.464727 676:-0.459004 677:-0.209404 678:-0.238653 679:0.737348 680:0.291602 681:-0.107743 682:0.331698 683:0.407471 684:-0.328403 685:-0.390022 686:0.570959 687:0.274979 688:-0.576367 689:-0.695081 690:0.314837 691:-0.151515 692:-0.186265 693:-0.00634731 694:-0.0652886 695:0.107379 696:0.0615183 697:-0.78707 698:-0.484622 699:-0.555879 700:0.209827 701:-0.459004 702:-0.209404 703:-0.238653 704:0.737348 705:0.291602 706:-0.107743 707:0.331698 708:0.407471 709:-0.328403 710:-0.390022 711:0.570959 712:0.274979 713:-0.576367 714:-0.695081 715:0.314837 716:-0.151515 717:-0.186265 718:-0.00634731 719:-0.0652886 720:0.107379 721:0.0615183 722:-0.78707 723:-0.484622 724:-0.555879 725:0.209827 726:-0.449031 727:-0.971973 728:-0.074123 729:0.613633 730:0.017277 731:0.320777 732:-0.0611379 733:0.261631 734:-0.263965 735:-0.269043 736:0.96586 737:0.211507 738:-0.565894 739:-0.142963 740:-0.0338092 741:-0.168711 742:0.182385 743:-0.36804 744:-0.0624433 745:0.0764006 746:0.19905 747:0.101252 748:-0.274856 749:-0.291015 750:-0.440112 751:-0.663023 752:-0.265999 753:-0.572535 754:0.179259 755:-0.349227 756:0.554889 757:0.470678 758:0.686963 759:0.61934 760:-0.441246 761:0.622563 762:-0.186864 763:-0.267158 764:0.0681808 765:-0.331264 766:0.4874 767:-0.667851 768:-0.0613848 769:-0.0765473 770:-0.275298 771:-0.0727735 772:0.00672778 773:0.400142 774:0.0664473 775:0.501296 776:-0.663023 777:-0.265999 778:-0.572535 779:0.179259 780:-0.349227 781:0.554889 782:0.470678 783:0.686963 784:0.61934 785:-0.441246 786:0.622563 787:-0.186864 788:-0.267158 789:0.0681808 790:-0.331264 791:0.4874 792:-0.667851 793:-0.0613848 794:-0.0765473 795:-0.275298 796:-0.0727735 797:0.00672778 798:0.400142 799:0.0664473 800:0.501296 801:-0.211388 802:0.509614 803:0.690805 804:-0.434131 805:0.129511 806:-0.0319608 807:-0.325313 808:0.300743 809:-0.126024 810:0.289533 811:-0.201551 812:0.454863 813:0.449185 814:-0.312332 815:0.434418 816:0.364836 817:-0.348761 818:-0.553353 819:-0.789004 820:-0.0219629 821:-0.351544 822:0.26203 823:0.532494 824:-0.394805 825:0.464716 826:-0.360961 827:0.704998 828:0.0432728 829:-0.384242 830:-0.402082 831:0.588611 832:-0.177468 833:0.254806 834:0.200225 835:-0.195801 836:-0.277691 837:-0.0144882 838:-0.062065 839:0.355041 840:-0.915051 841:0.401816 842:-0.47259 843:0.206539 844:0.0783303 845:-0.0416885 846:0.285066 847:-0.153947 848:0.185057 849:-0.370988 850:0.0186282 851:-0.0647814 852:-0.490772 853:0.899237 854:-0.185798 855:-0.637716 856:0.958159 857:0.416493 858:0.158224 859:-0.176064 860:-0.579703 861:-0.370721 862:-0.476981 863:0.232258 864:-1 865:0.516014 866:-0.162918 867:-0.0604298 868:0.470701 869:-0.325405 870:0.175404 871:0.596434 872:-0.312532 873:-0.875699 874:-0.0331293 875:0.284741 876:-0.155607 877:-0.250292 878:0.515104 879:-0.564792 880:0.0266175 881:-0.223867 882:-0.757027 883:0.411131 884:0.236752 885:0.241527 886:0.502969 887:0.249853 888:0.42697 889:1 890:0.427181 891:0.558601 892:-0.128026 893:-0.0518574 894:0.43964 895:-0.833661 896:-0.19514 897:1 898:1 899:-0.879368 900:-0.270414 901:0.733794 902:0.385724 903:-0.357673 904:-0.3011 905:-0.208374 906:0.23307 907:-0.379705 908:-0.301957 909:0.355867 910:0.774373 911:-0.714081 912:0.208834 913:0.632363 914:-0.528877 915:0.151011 916:0.292729 917:0.0162678 918:-0.0344517 919:-0.832303 920:0.0812815 921:-0.731597 922:-0.0744888 923:0.537508 924:-0.226177 925:-0.320233 926:0.549293 927:0.176905 928:-0.683135 929:0.170724 930:0.498688 931:-0.117531 932:0.35256 933:-0.249629 934:0.613758 935:0.881878 936:0.16231 937:-0.757596 938:-0.176565 939:0.0145247 940:0.196798 941:0.273919 942:-0.0368968 943:-0.644732 944:0.521124 945:0.618015 946:0.0317985 947:-0.174375 948:0.405349 949:-0.336507 950:-0.231583 951:-0.145026 952:0.269922 953:-0.348435 954:-1 955:0.232688 956:0.0259544 957:0.590049 958:0.120466 959:0.596497 960:0.0962472 961:-0.522225 962:0.299437 963:1 964:-1 965:0.673765 966:0.258916 967:1 968:-0.980354 969:0.197045 970:-0.636042 971:0.304778 972:1 973:0.364007 974:1 975:-0.264596 976:-0.331045 977:-0.178532 978:-0.426389 979:0.490321 980:-0.164722 981:-0.123052 982:0.325996 983:0.0409652 984:-0.35856 985:-0.470496 986:0.123439 987:-0.804746 988:-0.347242 989:-0.0307904 990:0.26912 991:-0.35609 992:-0.0962657 993:0.379559 994:-0.141254 995:0.133328 996:0.200154 997:-0.198207 998:0.298755 999:-0.0928082 1000:0.185932 1001:0.289242 1002:0.351105 1003:-0.381701 1004:0.155676 1005:-0.81483 1006:-0.443004 1007:0.581921 1008:-0.309257 1009:0.186474 1010:0.346828 1011:-0.736818 1012:-0.777339 1013:-0.0189606 1014:0.167821 1015:-0.511155 1016:-0.468978 1017:0.264998 1018:-0.0492422 1019:0.359418 1020:0.339918 1021:0.12889 1022:-0.18762 1023:-0.853938 1024:0.364425 1025:-0.0251301 1026:0.0261882 1027:-0.0995015 1028:-0.0379976 1029:-0.187518 1030:0.233055 1031:-0.381186 1032:-0.228461 1033:-0.332235 1034:-0.084216 1035:0.301728 1036:0.00770559 1037:0.283756 1038:-0.516812 1039:-0.125448 1040:0.0957758 1041:-0.6577 1042:0.374174 1043:-0.548391 1044:-1 1045:0.38465 1046:-0.274157 1047:0.547797 1048:-0.170255 1049:-0.405863 1050:-0.792712 1051:-0.868381 1052:0.96139 1053:0.264884 1054:-0.54563 1055:-1 1056:1 1057:-0.0307043 1058:-0.866105 1059:0.0361863 1060:-0.190578 1061:0.431301 1062:-1 1063:1 1064:1 1065:1 1066:-0.661132 1067:0.00973423 1068:-0.829688 1069:-1 1070:-1 1071:-1 1072:-0.393146 1073:0.527182 1074:1 1075:0.0851047 1076:-0.186444 1077:0.150307 1078:-0.0348453 1079:0.371064 1080:-0.118533 1081:-0.473986 1082:0.358175 1083:-0.208016 1084:-0.486072 1085:0.243451 1086:0.0394082 1087:0.0255112 1088:0.304202 1089:0.142606 1090:-0.0220597 1091:-0.106861 1092:0.0153495 1093:-0.159165 1094:-0.152794 1095:0.220673 1096:-0.443755 1097:-0.448781 1098:-0.171157 1099:0.0724909 1100:-0.146241 1101:0.582061 1102:0.292022 1103:0.282062 1104:0.119839 1105:-0.201763 1106:-0.382617 1107:0.659251 1108:-0.346002 1109:0.327127 1110:0.00430554 1111:0.234508 1112:-0.257642 1113:0.203354 1114:0.479178 1115:0.171446 1116:0.185241 1117:0.195675 1118:-0.787731 1119:0.556538 1120:0.384038 1121:0.255772 1122:-0.398718 1123:-0.352525 1124:-0.139439 1125:-0.265854 1126:0.503376 1127:-0.31465 1128:0.0100576 1129:0.733698 1130:0.658823 1131:0.324313 1132:0.179041 1133:-0.385146 1134:-0.0709955 1135:0.167513 1136:-0.467303 1137:-0.520033 1138:0.301252 1139:-0.557748 1140:0.394876 1141:0.250027 1142:-0.314466 1143:0.179161 1144:-0.138246 1145:-0.031164 1146:0.514804 1147:-0.23651 1148:-0.307916 1149:0.281737 1150:-0.327109 1151:-0.157467 1152:-0.0593578 1153:0.737381 1154:0.412507 1155:0.250753 1156:0.423654 1157:-0.0395658 1158:0.205041 1159:-0.33479 1160:-0.142123 1161:-0.444414 1162:-0.395014 1163:0.299322 1164:-0.564734 1165:0.91105 1166:0.411118 1167:-0.0385154 1168:-0.715291 1169:-1 1170:0.4141 1171:-0.528354 1172:0.645169 1173:-0.261084 1174:-0.0667181 1175:0.876825 1176:-0.157467 1177:-0.0593578 1178:0.737381 1179:0.412507 1180:0.250753 1181:0.423654 1182:-0.0395658 1183:0.205041 1184:-0.33479 1185:-0.142123 1186:-0.444414 1187:-0.395014 1188:0.299322 1189:-0.564734 1190:0.91105 1191:0.411118 1192:-0.0385154 1193:-0.715291 1194:-1 1195:0.4141 1196:-0.528354 1197:0.645169 1198:-0.261084 1199:-0.0667181 1200:0.876825 1201:-0.343014 1202:-0.524823 1203:0.212704 1204:0.358079 1205:0.0580452 1206:0.128361 1207:-0.219264 1208:0.40965 1209:-0.0758235 1210:0.0108104 1211:0.829206 1212:0.52441 1213:0.233358 1214:0.343956 1215:0.443115 1216:-0.0645058 1217:-0.00723906 1218:-0.325623 1219:-0.329297 1220:-0.285789 1221:0.137731 1222:0.378881 1223:-0.100347 1224:0.147381 1225:-0.085718 1226:0.0310483 1227:-0.348605 1228:0.290356 1229:0.344866 1230:-0.308874 1231:0.249161 1232:0.566208 1233:0.750778 1234:-0.303839 1235:0.0355026 1236:0.568752 1237:0.223616 1238:0.31537 1239:-0.0697767 1240:0.136307 1241:-0.510705 1242:0.277544 1243:0.0636682 1244:-0.559555 1245:0.00860549 1246:-0.159241 1247:0.0600389 1248:0.290446 1249:0.0761247 1250:0.279405 1251:0.0310483 1252:-0.348605 1253:0.290356 1254:0.344866 1255:-0.308874 1256:0.249161 1257:0.566208 1258:0.750778 1259:-0.303839 1260:0.0355026 1261:0.568752 1262:0.223616 1263:0.31537 1264:-0.0697767 1265:0.136307 1266:-0.510705 1267:0.277544 1268:0.0636682 1269:-0.559555 1270:0.00860549 1271:-0.159241 1272:0.0600389 1273:0.290446 1274:0.0761247 1275:0.279405 1276:0.135436 1277:-0.263236 1278:0.440383 1279:0.154503 1280:0.286117 1281:-0.228074 1282:-0.613131 1283:-0.156677 1284:0.170822 1285:0.241777 1286:-0.250439 1287:-0.010911 1288:-0.0161609 1289:0.262409 1290:-0.322076 1291:0.309485 1292:-0.448808 1293:0.038222 1294:0.0265645 1295:-0.0285279 1296:0.204074 1297:-0.0282877 1298:-0.475959 1299:-0.480235 1300:0.475324 1301:0.135436 1302:-0.263236 1303:0.440383 1304:0.154503 1305:0.286117 1306:-0.228074 1307:-0.613131 1308:-0.156677 1309:0.170822 1310:0.241777 1311:-0.250439 1312:-0.010911 1313:-0.0161609 1314:0.262409 1315:-0.322076 1316:0.309485 1317:-0.448808 1318:0.038222 1319:0.0265645 1320:-0.0285279 1321:0.204074 1322:-0.0282877 1323:-0.475959 1324:-0.480235 1325:0.475324 1326:-0.115154 1327:-0.799429 1328:0.317197 1329:0.574325 1330:0.215505 1331:-0.169283 1332:0.0787809 1333:0.58707 1334:-0.367826 1335:-0.0559598 1336:0.62965 1337:0.132599 1338:-0.258421 1339:-0.40089 1340:-0.300852 1341:0.440241 1342:-0.294221 1343:0.135508 1344:-0.159762 1345:-0.00668904 1346:-0.228529 1347:0.397609 1348:0.67079 1349:0.159156 1350:0.172645 1351:-0.115154 1352:-0.799429 1353:0.317197 1354:0.574325 1355:0.215505 1356:-0.169283 1357:0.0787809 1358:0.58707 1359:-0.367826 1360:-0.0559598 1361:0.62965 1362:0.132599 1363:-0.258421 1364:-0.40089 1365:-0.300852 1366:0.440241 1367:-0.294221 1368:0.135508 1369:-0.159762 1370:-0.00668904 1371:-0.228529 1372:0.397609 1373:0.67079 1374:0.159156 1375:0.172645 1376:-0.308351 1377:0.446735 1378:-0.462679 1379:-0.0341598 1380:-0.254883 1381:0.381848 1382:-0.603509 1383:-0.111025 1384:0.275266 1385:-0.590015 1386:0.119129 1387:-0.0299464 1388:0.121868 1389:0.107927 1390:0.334211 1391:-0.271237 1392:-0.298937 1393:-0.464053 1394:0.216663 1395:-0.110416 1396:-0.148886 1397:0.0723241 1398:-0.110774 1399:-0.744641 1400:-0.245249 1401:-0.308351 1402:0.446735 1403:-0.462679 1404:-0.0341598 1405:-0.254883 1406:0.381848 1407:-0.603509 1408:-0.111025 1409:0.275266 1410:-0.590015 1411:0.119129 1412:-0.0299464 1413:0.121868 1414:0.107927 1415:0.334211 1416:-0.271237 1417:-0.298937 1418:-0.464053 1419:0.216663 1420:-0.110416 1421:-0.148886 1422:0.0723241 1423:-0.110774 1424:-0.744641 1425:-0.245249 1426:0.125258 1427:0.617863 1428:0.21149 1429:-0.0959434 1430:-0.227736 1431:-0.224577 1432:0.0226306 1433:-0.3113 1434:0.116503 1435:-0.118967 1436:0.00331918 1437:-0.23368 1438:0.290576 1439:-0.204121 1440:0.193148 1441:0.115472 1442:0.373419 1443:0.258568 1444:-0.2182 1445:-0.265529 1446:-0.131001 1447:-0.3916 1448:-0.186094 1449:0.00429192 1450:0.31379 1451:0.125258 1452:0.617863 1453:0.21149 1454:-0.0959434 1455:-0.227736 1456:-0.224577 1457:0.0226306 1458:-0.3113 1459:0.116503 1460:-0.118967 1461:0.00331918 1462:-0.23368 1463:0.290576 1464:-0.204121 1465:0.193148 1466:0.115472 1467:0.373419 1468:0.258568 1469:-0.2182 1470:-0.265529 1471:-0.131001 1472:-0.3916 1473:-0.186094 1474:0.00429192 1475:0.31379 1476:-0.506878 1477:-0.38532 1478:-0.385473 1479:0.21218 1480:0.104065 1481:0.247456 1482:-0.258138 1483:0.108152 1484:-0.4288 1485:-0.565112 1486:0.278511 1487:-0.193934 1488:0.124402 1489:-0.528556 1490:-0.0547223 1491:0.0217339 1492:-0.48198 1493:0.169918 1494:0.121176 1495:-0.233859 1496:-0.140087 1497:-0.15997 1498:-0.199945 1499:-0.0607606 1500:-0.161308 1501:-0.506878 1502:-0.38532 1503:-0.385473 1504:0.21218 1505:0.104065 1506:0.247456 1507:-0.258138 1508:0.108152 1509:-0.4288 1510:-0.565112 1511:0.278511 1512:-0.193934 1513:0.124402 1514:-0.528556 1515:-0.0547223 1516:0.0217339 1517:-0.48198 1518:0.169918 1519:0.121176 1520:-0.233859 1521:-0.140087 1522:-0.15997 1523:-0.199945 1524:-0.0607606 1525:-0.161308 1526:-0.61294 1527:-0.704574 1528:0.361311 1529:0.296768 1530:0.272464 1531:-0.0555066 1532:0.539216 1533:0.0755339 1534:-0.159833 1535:0.296469 1536:-0.0191372 1537:0.632197 1538:0.064846 1539:-1 1540:0.387172 1541:-0.0827866 1542:-0.0586362 1543:-0.629176 1544:-0.131955 1545:0.0765567 1546:-0.0749345 1547:-0.106457 1548:0.669276 1549:0.272671 1550:0.131247 1551:0.1624 1552:-0.545422 1553:-0.461731 1554:0.14838 1555:0.073014 1556:-0.193739 1557:0.339935 1558:0.168909 1559:-0.207045 1560:0.100954 1561:0.124273 1562:0.4844 1563:-0.644799 1564:-0.0994733 1565:0.202105 1566:-0.019769 1567:-0.241357 1568:-0.0944874 1569:-0.0344815 1570:-0.364806 1571:0.0164203 1572:0.293659 1573:0.38191 1574:0.0185545 1575:0.12025 1576:0.1624 1577:-0.545422 1578:-0.461731 1579:0.14838 1580:0.073014 1581:-0.193739 1582:0.339935 1583:0.168909 1584:-0.207045 1585:0.100954 1586:0.124273 1587:0.4844 1588:-0.644799 1589:-0.0994733 1590:0.202105 1591:-0.019769 1592:-0.241357 1593:-0.0944874 1594:-0.0344815 1595:-0.364806 1596:0.0164203 1597:0.293659 1598:0.38191 1599:0.0185545 1600:0.12025 1601:0.104642 1602:-0.0409274 1603:0.260464 1604:-0.455952 1605:0.443358 1606:0.512763 1607:-0.536284 1608:0.258265 1609:0.62778 1610:0.624863 1611:0.165482 1612:-0.00268503 1613:0.421139 1614:-0.0121963 1615:-0.399924 1616:1 1617:-1 1618:0.0129347 1619:0.270364 1620:-0.196887 1621:-0.529083 1622:-0.281266 1623:-0.152517 1624:0.124503 1625:-0.703177 1626:-0.70832 1627:-0.868144 1628:1 1629:0.42508 1630:0.353931 1631:1 1632:-0.32331 1633:0.541393 1634:0.7779 1635:-0.626546 1636:-0.296069 1637:0.289315 1638:0.145569 1639:1 1640:-0.246267 1641:0.00982531 1642:-0.820576 1643:0.236304 1644:0.819928 1645:-0.0163431 1646:0.913011 1647:0.0472886 1648:0.613475 1649:-0.0280104 1650:-0.602686 1651:-0.126491 1652:-0.363176 1653:-0.237863 1654:0.0450556 1655:0.555798 1656:-0.393452 1657:-0.603736 1658:-0.88613 1659:0.0525513 1660:0.599561 1661:-0.428675 1662:0.177078 1663:-0.777414 1664:0.769706 1665:-0.0709196 1666:0.187505 1667:0.0297373 1668:0.0180365 1669:0.340738 1670:-0.258502 1671:0.0319242 1672:-0.0214961 1673:0.141907 1674:-0.220023 1675:-0.00988042 1676:0.249338 1677:0.280378 1678:-0.00845436 1679:0.481162 1680:-0.188546 1681:-0.473246 1682:0.346402 1683:-0.454606 1684:0.621418 1685:-0.27404 1686:-0.353322 1687:0.597991 1688:0.332928 1689:-0.378836 1690:0.239595 1691:-0.525171 1692:1 1693:-0.4347 1694:-1 1695:-0.247423 1696:0.167734 1697:0.686882 1698:-0.613822 1699:0.103848 1700:-0.466253 1701:0.110593 1702:0.0624263 1703:0.8535 1704:-0.117555 1705:-0.0788994 1706:1 1707:-0.937721 1708:0.496335 1709:-0.609679 1710:-0.0386055 1711:0.611012 1712:-0.644483 1713:-1 1714:0.525602 1715:0.139 1716:0.423703 1717:1 1718:-1 1719:-0.642224 1720:0.22262 1721:-0.512116 1722:0.0809129 1723:0.69562 1724:0.180887 1725:-0.00496552 1726:-0.573452 1727:0.69947 1728:0.484233 1729:-0.341323 1730:0.785987 1731:-0.526351 1732:-0.707776 1733:0.0729184 1734:-0.0315152 1735:0.800447 1736:0.0498472 1737:0.8729 1738:-0.283582 1739:0.573479 1740:0.197378 1741:-0.195626 1742:0.269456 1743:-0.371995 1744:-0.237563 1745:0.275864 1746:-0.0736134 1747:0.572786 1748:0.0204171 1749:0.305855 1750:-0.664014 1751:-0.156456 1752:-0.0070461 1753:-0.420727 1754:-0.503948 1755:-0.913395 1756:0.895486 1757:0.844016 1758:0.873435 1759:0.0607011 1760:0.344984 1761:0.311263 1762:0.253946 1763:0.215141 1764:-0.550145 1765:0.338363 1766:0.189433 1767:0.439616 1768:-0.530787 1769:0.00688595 1770:0.0779505 1771:-0.104469 1772:0.613311 1773:-0.545958 1774:-0.47557 1775:0.35652 1776:-0.182843 1777:0.313778 1778:-0.435284 1779:-0.915303 1780:0.168019 1781:-0.442835 1782:0.344089 1783:-0.354194 1784:-0.0457897 1785:0.31158 1786:-0.803972 1787:0.143324 1788:0.13469 1789:0.249161 1790:-0.299545 1791:0.166318 1792:-0.0241422 1793:0.350563 1794:-0.378413 1795:-0.256806 1796:-0.0771622 1797:-0.0113084 1798:0.629154 1799:0.0472411 1800:-0.237466 1801:-0.522415 1802:-0.084503 1803:0.3018 1804:0.223707 1805:0.526892 1806:0.245422 1807:0.216969 1808:-0.0192938 1809:0.0855486 1810:-0.141394 1811:0.846025 1812:0.486975 1813:0.310836 1814:0.439476 1815:-0.214982 1816:0.0495084 1817:-0.28576 1818:-0.0705771 1819:-0.402512 1820:-0.558771 1821:-0.297084 1822:-0.0379076 1823:-0.47594 1824:-0.107014 1825:0.0614059 1826:-0.418134 1827:0.0850694 1828:0.453061 1829:-0.15279 1830:0.295416 1831:0.0267618 1832:-0.907394 1833:0.204664 1834:-0.375538 1835:-0.607434 1836:0.585153 1837:0.105997 1838:0.272315 1839:0.144439 1840:-0.817531 1841:0.247534 1842:-0.7519 1843:0.396037 1844:0.37688 1845:0.227656 1846:0.374759 1847:-0.265132 1848:-0.138714 1849:-0.169296 1850:-0.284075 1851:-0.307932 1852:-0.560142 1853:-0.134222 1854:0.183659 1855:0.46785 1856:-0.242092 1857:-0.871297 1858:0.668578 1859:0.178718 1860:-0.844762 1861:-0.302606 1862:0.615217 1863:-0.170984 1864:-0.336917 1865:0.0783055 1866:-0.278064 1867:0.0930994 1868:-0.484036 1869:-0.72003 1870:0.0252252 1871:0.230572 1872:-0.463546 1873:0.416034 1874:-0.0143415 1875:0.362645 1876:-0.112907 1877:0.472686 1878:-0.62742 1879:0.424532 1880:-0.467866 1881:0.658254 1882:0.991579 1883:0.253057 1884:0.141689 1885:-0.4121 1886:0.0675021 1887:-1 1888:0.645939 1889:0.40025 1890:0.187061 1891:0.425265 1892:-0.375068 1893:-0.168513 1894:-0.267406 1895:0.324667 1896:-0.136758 1897:0.036434 1898:-0.200724 1899:0.489849 1900:0.537873 1901:0.815076 1902:0.460908 1903:0.0837932 1904:-0.588903 1905:0.0766661 1906:0.595651 1907:0.231631 1908:-0.444312 1909:0.953516 1910:0.755136 1911:-0.865783 1912:0.339156 1913:0.322297 1914:0.511203 1915:-0.512984 1916:-0.0248086 1917:0.297288 1918:0.037573 1919:-0.753219 1920:0.0133982 1921:0.277683 1922:0.0911023 1923:0.161485 1924:-0.86833 1925:-0.744261 1926:0.447277 1927:-0.00457145 1928:-0.100673 1929:0.479924 1930:-0.271123 1931:-0.0496575 1932:0.293609 1933:-0.124867 1934:0.0624269 1935:-0.299419 1936:0.343736 1937:-0.240837 1938:-0.24907 1939:-0.436204 1940:0.330076 1941:-0.20829 1942:0.181976 1943:-0.0245033 1944:-0.153412 1945:-0.0758817 1946:0.296141 1947:-0.214802 1948:0.00813194 1949:0.559688 1950:0.453013 1951:0.789417 1952:0.329776 1953:-0.509582 1954:-0.728025 1955:0.56525 1956:0.315914 1957:-0.179416 1958:-0.0369103 1959:0.182565 1960:-0.189784 1961:-0.435421 1962:-0.113495 1963:0.179813 1964:0.793129 1965:-1 1966:0.251825 1967:-0.13795 1968:0.53774 1969:-0.888204 1970:-0.482296 1971:0.458393 1972:-0.137061 1973:-0.0645295 1974:-0.742522 1975:-0.489515 1976:1 1977:0.265957 1978:-0.409704 1979:0.546913 1980:0.269101 1981:0.0561589 1982:0.381212 1983:-0.959305 1984:0.437547 1985:-0.0553132 1986:-0.426681 1987:0.115535 1988:-0.678057 1989:-1 1990:0.308607 1991:-0.975352 1992:0.86145 1993:0.536114 1994:-1 1995:-0.36432 1996:-0.163682 1997:1 1998:0.475449 1999:0.376275 2000:0.320829 2001:0.544454 2002:0.476687 2003:-0.421501 2004:-1 2005:0.312498 2006:0.0195229 2007:1 2008:0.188549 2009:0.988283 2010:0.42362 2011:-0.608797 2012:-0.47129 2013:0.16045 2014:0.031431 2015:0.380419 2016:-0.206214 2017:1 2018:0.287011 2019:-1 2020:0.411647 2021:0.324871 2022:-0.0347169 2023:0.204033 2024:0.48236 2025:-0.224796 2026:-0.0755361 2027:-0.130711 2028:0.255476 2029:0.313415 2030:0.362729 2031:0.0383146 2032:0.730321 2033:-0.18477 2034:-0.340581 2035:0.19859 2036:0.576734 2037:-0.125238 2038:0.500892 2039:0.165792 2040:-0.384096 2041:0.338881 2042:0.179898 2043:-0.00568408 2044:0.0603643 2045:-0.377089 2046:0.0788614 2047:0.255326 2048:-0.281852 2049:-0.390245 2050:0.454105 2051:0.520802 2052:0.493572 2053:-0.613971 2054:0.361054 2055:-0.527278 2056:-0.519032 2057:0.52971 2058:-0.369143 2059:0.304294 2060:-0.0592249 2061:-0.124979 2062:-0.624526 2063:-0.039068 2064:0.0156276 2065:0.458611 2066:0.162844 2067:-0.610026 2068:0.0721584 2069:-0.119646 2070:-0.675418 2071:-0.139068 2072:-0.144455 2073:-0.364553 2074:0.00339636 2075:0.119022 2076:0.010003 2077:-0.599135 2078:-1 2079:-0.914018 2080:-0.944814 2081:-0.212909 2082:-0.191928 2083:0.160306 2084:0.436822 2085:-0.104636 2086:0.1727 2087:-0.522425 2088:-0.328951 2089:0.441023 2090:-0.255633 2091:-0.132623 2092:-0.252772 2093:1 2094:0.89266 2095:0.00715625 2096:0.504291 2097:-0.872724 2098:0.243689 2099:-0.715341 2100:-0.0182898 2101:-0.039499 2102:-0.305312 2103:0.159265 2104:-0.0451101 2105:0.407783 2106:-0.354877 2107:-0.0891207 2108:0.353408 2109:-0.0624468 2110:0.372565 2111:-0.0721955 2112:0.0357182 2113:0.285727 2114:0.0787361 2115:-0.118764 2116:-0.0702704 2117:-0.221645 2118:0.44472 2119:0.0635616 2120:0.111403 2121:0.533559 2122:-0.119854 2123:-0.345839 2124:-0.0027476 2125:-0.378601 2126:0.848939 2127:-0.125956 2128:-0.757178 2129:0.479284 2130:-0.278751 2131:1 2132:-0.0998908 2133:-0.180512 2134:-0.319571 2135:-0.853427 2136:-0.150974 2137:-0.399033 2138:-0.351639 2139:-0.777132 2140:0.222471 2141:-0.591575 2142:0.834656 2143:-0.0936766 2144:-1 2145:0.268412 2146:0.157411 2147:0.2617 2148:-0.0491167 2149:-0.874955 2150:1 2151:0.188602 2152:-0.084407 2153:-0.271856 2154:-0.845158 2155:-1 2156:0.687965 2157:0.833454 2158:0.686096 2159:-0.433929 2160:-0.803282 2161:0.332508 2162:-0.528098 2163:-0.130223 2164:-0.311689 2165:0.168703 2166:-0.57275 2167:-0.314425 2168:1 2169:0.525227 2170:-0.491675 2171:-0.277085 2172:-0.146054 2173:-0.413048 2174:0.1257 2175:-0.0228417 2176:-0.147288 2177:0.153488 2178:-0.298041 2179:0.52832 2180:0.279524 2181:0.382415 2182:0.304797 2183:-0.20596 2184:-0.117254 2185:-0.28117 2186:-0.0845745 2187:0.474899 2188:0.0622853 2189:-0.422483 2190:-0.0642079 2191:-0.199573 2192:-0.686154 2193:-0.771164 2194:-0.981695 2195:0.454358 2196:-0.145834 2197:0.633596 2198:1 2199:1 2200:0.727125 2201:-0.21774 2202:-0.506684 2203:1 2204:-0.489391 2205:0.563911 2206:0.276412 2207:-0.0149957 2208:1 2209:-0.758452 2210:0.0722489 2211:-0.434652 2212:0.0413155 2213:0.668551 2214:0.31327 2215:-0.706574 2216:-0.498401 2217:0.553657 2218:0.612526 2219:0.0328835 2220:-1 2221:-0.0370993 2222:0.523873 2223:0.401066 2224:-0.591997 2225:-0.216848 2226:-0.508089 2227:0.529637 2228:-0.0473181 2229:-0.116557 2230:-0.708415 2231:-0.563384 2232:-0.943392 2233:-0.38322 2234:-0.809158 2235:-0.602945 2236:-0.402467 2237:-0.182482 2238:-0.390551 2239:0.406141 2240:-0.353719 2241:0.415985 2242:-0.0798855 2243:0.419949 2244:-0.1853 2245:-0.59428 2246:0.597261 2247:-0.251874 2248:-0.26403 2249:0.392042 2250:0.0721107 2251:-0.294903 2252:-0.026289 2253:0.20593 2254:-0.0752845 2255:0.334361 2256:-0.00243781 2257:-0.275998 2258:0.219645 2259:-0.218506 2260:-0.648238 2261:-0.171694 2262:0.415984 2263:-0.232763 2264:-0.0472915 2265:-0.294816 2266:0.0178575 2267:-0.32537 2268:-0.0950683 2269:-0.269682 2270:-0.152973 2271:0.315748 2272:-0.587121 2273:-0.056915 2274:-0.00627588 2275:0.290943 2276:-0.294903 2277:-0.026289 2278:0.20593 2279:-0.0752845 2280:0.334361 2281:-0.00243781 2282:-0.275998 2283:0.219645 2284:-0.218506 2285:-0.648238 2286:-0.171694 2287:0.415984 2288:-0.232763 2289:-0.0472915 2290:-0.294816 2291:0.0178575 2292:-0.32537 2293:-0.0950683 2294:-0.269682 2295:-0.152973 2296:0.315748 2297:-0.587121 2298:-0.056915 2299:-0.00627588 2300:0.290943 2301:0.10487 2302:-0.295096 2303:0.181291 2304:0.732024 2305:0.307847 2306:-0.281168 2307:0.233733 2308:0.837706 2309:-0.105801 2310:-0.0335868 2311:0.693885 2312:0.591664 2313:0.382123 2314:-0.206867 2315:-0.415807 2316:0.407211 2317:0.296983 2318:-0.118874 2319:-0.0881533 2320:0.295401 2321:0.052773 2322:-0.181168 2323:-0.0864992 2324:-0.462849 2325:0.64708 2326:0.10487 2327:-0.295096 2328:0.181291 2329:0.732024 2330:0.307847 2331:-0.281168 2332:0.233733 2333:0.837706 2334:-0.105801 2335:-0.0335868 2336:0.693885 2337:0.591664 2338:0.382123 2339:-0.206867 2340:-0.415807 2341:0.407211 2342:0.296983 2343:-0.118874 2344:-0.0881533 2345:0.295401 2346:0.052773 2347:-0.181168 2348:-0.0864992 2349:-0.462849 2350:0.64708 2351:0.218567 2352:-0.143553 2353:-0.400276 2354:0.298583 2355:-0.286782 2356:0.281422 2357:-0.323314 2358:0.624814 2359:0.190393 2360:0.0359693 2361:0.226073 2362:-0.696056 2363:0.601571 2364:-0.239077 2365:0.192707 2366:-0.261631 2367:0.877286 2368:-0.0711925 2369:-0.224307 2370:0.419101 2371:0.0293263 2372:0.692529 2373:-0.140404 2374:-0.392978 2375:0.541094 2376:-0.191364 2377:0.554621 2378:0.500469 2379:0.830089 2380:0.0204054 2381:-0.237322 2382:0.672088 2383:-0.114149 2384:-0.0261167 2385:-0.499635 2386:0.64817 2387:0.297037 2388:-0.00860518 2389:0.128593 2390:0.370501 2391:0.0800774 2392:0.193041 2393:0.0812896 2394:0.400351 2395:0.906786 2396:0.301435 2397:-0.306793 2398:-0.663465 2399:-0.208223 2400:-0.00738263 2401:-0.191364 2402:0.554621 2403:0.500469 2404:0.830089 2405:0.0204054 2406:-0.237322 2407:0.672088 2408:-0.114149 2409:-0.0261167 2410:-0.499635 2411:0.64817 2412:0.297037 2413:-0.00860518 2414:0.128593 2415:0.370501 2416:0.0800774 2417:0.193041 2418:0.0812896 2419:0.400351 2420:0.906786 2421:0.301435 2422:-0.306793 2423:-0.663465 2424:-0.208223 2425:-0.00738263 2426:0.0185959 2427:0.855738 2428:-0.159749 2429:0.264546 2430:-0.459417 2431:0.241158 2432:0.769661 2433:-0.187773 2434:-0.447092 2435:-0.705943 2436:0.0351774 2437:-0.553521 2438:0.0879908 2439:-0.200933 2440:0.398489 2441:-0.50823 2442:-0.132795 2443:1 2444:0.754334 2445:0.186844 2446:0.0176057 2447:-0.249632 2448:-0.871455 2449:0.0323882 2450:0.13838 2451:0.0334806 2452:0.478406 2453:-0.506815 2454:0.323535 2455:0.0294993 2456:-0.052675 2457:0.640867 2458:0.0834886 2459:-0.683241 2460:0.196243 2461:-0.184365 2462:-0.0356525 2463:0.138433 2464:0.519671 2465:-1 2466:-0.126257 2467:0.356215 2468:-0.0196167 2469:0.126587 2470:0.715535 2471:0.437528 2472:-1 2473:-0.605729 2474:-0.816964 2475:-0.519076 2476:0.551664 2477:-0.437661 2478:-0.502719 2479:-0.442784 2480:-0.994997 2481:0.0458541 2482:0.646326 2483:-0.864508 2484:0.894524 2485:0.934663 2486:-0.858161 2487:-0.991271 2488:0.849516 2489:-0.773627 2490:-0.656965 2491:-0.624853 2492:-0.719473 2493:0.68692 2494:-0.563814 2495:-0.76643 2496:0.741772 2497:0.542326 2498:-0.996736 2499:-0.519033 2500:-0.994951 2501:-0.628151 2502:1 2503:0.172353 2504:-0.921639 2505:0.462789 2506:-0.339368 2507:0.170729 2508:-1 2509:0.1693 2510:0.824175 2511:0.293642 2512:1 2513:-0.969256 2514:0.177162 2515:-0.346187 2516:1 2517:-1 2518:-0.365666 2519:0.110519 2520:-0.405033 2521:0.0305684 2522:-0.309827 2523:0.557718 2524:0.191631 2525:0.00137067 2526:-0.628151 2527:1 2528:0.172353 2529:-0.921639 2530:0.462789 2531:-0.339368 2532:0.170729 2533:-1 2534:0.1693 2535:0.824175 2536:0.293642 2537:1 2538:-0.969256 2539:0.177162 2540:-0.346187 2541:1 2542:-1 2543:-0.365666 2544:0.110519 2545:-0.405033 2546:0.0305684 2547:-0.309827 2548:0.557718 2549:0.191631 2550:0.00137067 2551:0.147452 2552:-0.0882775 2553:-0.0655309 2554:-0.112108 2555:-0.413091 2556:-0.0318699 2557:-0.26616 2558:0.0709784 2559:-0.78535 2560:-0.412323 2561:-0.0901931 2562:-0.474695 2563:-0.05119 2564:-0.265182 2565:0.29138 2566:0.0311119 2567:-0.0117311 2568:0.182583 2569:0.0784275 2570:-0.16085 2571:-0.498451 2572:-0.366043 2573:-0.189006 2574:0.215918 2575:0.337486 2576:0.147452 2577:-0.0882775 2578:-0.0655309 2579:-0.112108 2580:-0.413091 2581:-0.0318699 2582:-0.26616 2583:0.0709784 2584:-0.78535 2585:-0.412323 2586:-0.0901931 2587:-0.474695 2588:-0.05119 2589:-0.265182 2590:0.29138 2591:0.0311119 2592:-0.0117311 2593:0.182583 2594:0.0784275 2595:-0.16085 2596:-0.498451 2597:-0.366043 2598:-0.189006 2599:0.215918 2600:0.337486 2601:0.257992 2602:-0.513422 2603:1 2604:-0.141997 2605:-0.0353774 2606:-0.484296 2607:-0.101275 2608:1 2609:0.0635121 2610:0.433693 2611:-0.0938962 2612:0.354342 2613:-0.453738 2614:0.226063 2615:1 2616:-0.146077 2617:0.717244 2618:0.465787 2619:-1 2620:-1 2621:-0.430551 2622:-0.418142 2623:0.0945283 2624:-0.0451617 2625:1 2626:0.257992 2627:-0.513422 2628:1 2629:-0.141997 2630:-0.0353774 2631:-0.484296 2632:-0.101275 2633:1 2634:0.0635121 2635:0.433693 2636:-0.0938962 2637:0.354342 2638:-0.453738 2639:0.226063 2640:1 2641:-0.146077 2642:0.717244 2643:0.465787 2644:-1 2645:-1 2646:-0.430551 2647:-0.418142 2648:0.0945283 2649:-0.0451617 2650:1 2651:0.105308 2652:0.226074 2653:-0.287419 2654:-0.484128 2655:0.219324 2656:0.0617301 2657:-0.184293 2658:-0.588094 2659:-0.170877 2660:0.12535 2661:-0.158675 2662:0.862372 2663:0.0528265 2664:0.89547 2665:-0.816646 2666:-0.450817 2667:0.160381 2668:0.610997 2669:0.673518 2670:-0.749751 2671:-0.29228 2672:-0.267148 2673:-0.298953 2674:0.229806 2675:-0.195703 2676:0.105308 2677:0.226074 2678:-0.287419 2679:-0.484128 2680:0.219324 2681:0.0617301 2682:-0.184293 2683:-0.588094 2684:-0.170877 2685:0.12535 2686:-0.158675 2687:0.862372 2688:0.0528265 2689:0.89547 2690:-0.816646 2691:-0.450817 2692:0.160381 2693:0.610997 2694:0.673518 2695:-0.749751 2696:-0.29228 2697:-0.267148 2698:-0.298953 2699:0.229806 2700:-0.195703 2701:-0.263407 2702:-0.637579 2703:0.567702 2704:-0.484428 2705:0.51891 2706:-0.149419 2707:-0.659879 2708:0.222854 2709:-0.535678 2710:0.355314 2711:-0.299389 2712:-0.126522 2713:-0.965317 2714:0.179416 2715:0.345172 2716:-0.179144 2717:-0.015792 2718:-0.369951 2719:-0.825941 2720:0.875207 2721:-0.16701 2722:-0.499532 2723:0.183539 2724:0.181892 2725:0.992738 2726:-0.263407 2727:-0.637579 2728:0.567702 2729:-0.484428 2730:0.51891 2731:-0.149419 2732:-0.659879 2733:0.222854 2734:-0.535678 2735:0.355314 2736:-0.299389 2737:-0.126522 2738:-0.965317 2739:0.179416 2740:0.345172 2741:-0.179144 2742:-0.015792 2743:-0.369951 2744:-0.825941 2745:0.875207 2746:-0.16701 2747:-0.499532 2748:0.183539 2749:0.181892 2750:0.992738 2751:0.217346 2752:0.181132 2753:0.279254 2754:0.557207 2755:0.501846 2756:0.749682 2757:0.110028 2758:-0.0532482 2759:0.350779 2760:-0.193641 2761:0.208684 2762:0.448762 2763:0.779666 2764:0.0977011 2765:-0.0529618 2766:-0.192978 2767:-0.272649 2768:-0.229751 2769:0.206583 2770:-0.732523 2771:-0.315226 2772:0.571295 2773:0.0800891 2774:0.261147 2775:0.490603 2776:0.217346 2777:0.181132 2778:0.279254 2779:0.557207 2780:0.501846 2781:0.749682 2782:0.110028 2783:-0.0532482 2784:0.350779 2785:-0.193641 2786:0.208684 2787:0.448762 2788:0.779666 2789:0.0977011 2790:-0.0529618 2791:-0.192978 2792:-0.272649 2793:-0.229751 2794:0.206583 2795:-0.732523 2796:-0.315226 2797:0.571295 2798:0.0800891 2799:0.261147 2800:0.490603 2801:0.475227 2802:-0.913736 2803:-0.236199 2804:0.214002 2805:0.728501 2806:-0.399401 2807:-0.896105 2808:-0.829529 2809:-0.463574 2810:0.613614 2811:0.0296473 2812:-0.127354 2813:1 2814:-0.692113 2815:-0.28195 2816:0.4038 2817:0.453429 2818:-1 2819:0.285139 2820:0.307075 2821:-0.040756 2822:-0.257661 2823:-0.783411 2824:0.233211 2825:-0.734613 2826:0.475227 2827:-0.913736 2828:-0.236199 2829:0.214002 2830:0.728501 2831:-0.399401 2832:-0.896105 2833:-0.829529 2834:-0.463574 2835:0.613614 2836:0.0296473 2837:-0.127354 2838:1 2839:-0.692113 2840:-0.28195 2841:0.4038 2842:0.453429 2843:-1 2844:0.285139 2845:0.307075 2846:-0.040756 2847:-0.257661 2848:-0.783411 2849:0.233211 2850:-0.734613 2851:0.435817 2852:0.325485 2853:0.230861 2854:0.714287 2855:0.543804 2856:0.0393761 2857:0.802059 2858:-0.002594 2859:0.52743 2860:-0.77216 2861:0.792434 2862:0.53217 2863:-0.145612 2864:-0.0945075 2865:0.0636507 2866:0.0983921 2867:-0.131205 2868:-0.0279596 2869:-0.0936809 2870:-0.350329 2871:-0.577014 2872:-0.046337 2873:0.514894 2874:0.712663 2875:0.263044 2876:0.435817 2877:0.325485 2878:0.230861 2879:0.714287 2880:0.543804 2881:0.0393761 2882:0.802059 2883:-0.002594 2884:0.52743 2885:-0.77216 2886:0.792434 2887:0.53217 2888:-0.145612 2889:-0.0945075 2890:0.0636507 2891:0.0983921 2892:-0.131205 2893:-0.0279596 2894:-0.0936809 2895:-0.350329 2896:-0.577014 2897:-0.046337 2898:0.514894 2899:0.712663 2900:0.263044 2901:0.131033 2902:-0.702508 2903:-0.413315 2904:0.446656 2905:0.198119 2906:0.141743 2907:0.0174156 2908:0.866189 2909:-0.237711 2910:-0.192678 2911:0.789183 2912:-0.0426548 2913:0.283749 2914:-0.228629 2915:-0.131171 2916:-0.0531415 2917:-0.0161609 2918:-0.366413 2919:-0.793573 2920:0.52904 2921:-0.166966 2922:-0.609538 2923:-0.111111 2924:0.24305 2925:0.71184 2926:0.131033 2927:-0.702508 2928:-0.413315 2929:0.446656 2930:0.198119 2931:0.141743 2932:0.0174156 2933:0.866189 2934:-0.237711 2935:-0.192678 2936:0.789183 2937:-0.0426548 2938:0.283749 2939:-0.228629 2940:-0.131171 2941:-0.0531415 2942:-0.0161609 2943:-0.366413 2944:-0.793573 2945:0.52904 2946:-0.166966 2947:-0.609538 2948:-0.111111 2949:0.24305 2950:0.71184 2951:0.394257 2952:-0.593567 2953:0.0346421 2954:0.497271 2955:0.612079 2956:0.024301 2957:0.697004 2958:0.0753717 2959:0.643062 2960:-0.449121 2961:0.936495 2962:-0.234327 2963:-0.1105 2964:0.0475726 2965:-0.0564521 2966:-0.0515635 2967:0.0641899 2968:-0.889693 2969:-0.182773 2970:-0.175358 2971:0.550804 2972:-0.0290843 2973:-0.600577 2974:0.00973236 2975:0.105603 2976:0.394257 2977:-0.593567 2978:0.0346421 2979:0.497271 2980:0.612079 2981:0.024301 2982:0.697004 2983:0.0753717 2984:0.643062 2985:-0.449121 2986:0.936495 2987:-0.234327 2988:-0.1105 2989:0.0475726 2990:-0.0564521 2991:-0.0515635 2992:0.0641899 2993:-0.889693 2994:-0.182773 2995:-0.175358 2996:0.550804 2997:-0.0290843 2998:-0.600577 2999:0.00973236 3000:0.105603 3001:0.103702 3002:0.0610958 3003:-0.516022 3004:-0.705314 3005:-0.118674 3006:0.448738 3007:0.626102 3008:-0.187166 3009:0.763125 3010:-0.0219296 3011:-0.617478 3012:-0.731178 3013:-0.184483 3014:-0.0913679 3015:0.740459 3016:-0.340222 3017:0.673219 3018:-0.76279 3019:-0.624633 3020:-0.409936 3021:-0.29651 3022:-0.216484 3023:0.484015 3024:-0.0649973 3025:0.653129 3026:0.103702 3027:0.0610958 3028:-0.516022 3029:-0.705314 3030:-0.118674 3031:0.448738 3032:0.626102 3033:-0.187166 3034:0.763125 3035:-0.0219296 3036:-0.617478 3037:-0.731178 3038:-0.184483 3039:-0.0913679 3040:0.740459 3041:-0.340222 3042:0.673219 3043:-0.76279 3044:-0.624633 3045:-0.409936 3046:-0.29651 3047:-0.216484 3048:0.484015 3049:-0.0649973 3050:0.653129 3051:-0.430699 3052:-0.692045 3053:-0.346171 3054:0.298294 3055:-0.148805 3056:0.389165 3057:0.29288 3058:0.278086 3059:-0.323194 3060:-0.143945 3061:0.371308 3062:0.0561332 3063:-0.097728 3064:0.0902769 3065:-0.371566 3066:-0.486063 3067:-0.0964999 3068:0.172436 3069:0.0833255 3070:0.359108 3071:-0.259478 3072:-0.0278764 3073:0.0729177 3074:-0.117954 3075:0.0439 3076:0.256011 3077:-0.648893 3078:0.037393 3079:0.294022 3080:-0.0793116 3081:0.323836 3082:0.40811 3083:0.207034 3084:-0.651056 3085:0.12107 3086:0.613851 3087:0.251416 3088:-0.499815 3089:-0.378695 3090:0.116548 3091:-0.438143 3092:-0.493234 3093:0.0352698 3094:-0.225243 3095:-0.106115 3096:0.0759217 3097:-0.401133 3098:-0.0970518 3099:-0.0559544 3100:-0.0183264 3101:0.256011 3102:-0.648893 3103:0.037393 3104:0.294022 3105:-0.0793116 3106:0.323836 3107:0.40811 3108:0.207034 3109:-0.651056 3110:0.12107 3111:0.613851 3112:0.251416 3113:-0.499815 3114:-0.378695 3115:0.116548 3116:-0.438143 3117:-0.493234 3118:0.0352698 3119:-0.225243 3120:-0.106115 3121:0.0759217 3122:-0.401133 3123:-0.0970518 3124:-0.0559544 3125:-0.0183264 3126:0.341249 3127:-0.0730202 3128:-0.74583 3129:0.286239 3130:0.524124 3131:0.0256133 3132:0.824223 3133:0.571712 3134:-0.075025 3135:-0.836937 3136:0.39992 3137:0.768173 3138:-0.455534 3139:0.463821 3140:0.404848 3141:0.249942 3142:-0.122906 3143:-0.426526 3144:0.127148 3145:0.304214 3146:-0.353121 3147:-0.271141 3148:-0.22062 3149:-0.263056 3150:0.643977 3151:0.341249 3152:-0.0730202 3153:-0.74583 3154:0.286239 3155:0.524124 3156:0.0256133 3157:0.824223 3158:0.571712 3159:-0.075025 3160:-0.836937 3161:0.39992 3162:0.768173 3163:-0.455534 3164:0.463821 3165:0.404848 3166:0.249942 3167:-0.122906 3168:-0.426526 3169:0.127148 3170:0.304214 3171:-0.353121 3172:-0.271141 3173:-0.22062 3174:-0.263056 3175:0.643977 3176:-0.60658 3177:0.815402 3178:-0.162053 3179:0.14834 3180:0.573016 3181:0.131998 3182:0.784468 3183:-0.0989703 3184:-0.661327 3185:0.59526 3186:0.647283 3187:0.305211 3188:0.541125 3189:-0.255562 3190:0.10457 3191:0.642967 3192:0.156526 3193:-0.4447 3194:-0.471935 3195:0.519317 3196:0.865099 3197:-0.500279 3198:-0.546867 3199:0.601751 3200:-0.101416 
2.1642015106560963 2.8490942716631089 2.4402871558165993 1:-0.194229 2:-0.0773849 3:0.280019 4:0.0688343 5:0.485862 6:0.671141 7:-0.0605753 8:0.404207 9:-0.115347 10:0.649297 11:0.441058 12:0.792227 13:-0.374558 14:-0.740324 15:-0.444165 16:0.10895 17:0.405543 18:-0.633858 19:-0.598846 20:0.462205 21:0.84708 22:0.822318 23:0.688435 24:0.546881 25:-0.169937 26:-0.793986 27:-0.938531 28:-0.00530873 29:0.877565 30:-0.0849622 31:-0.189797 32:0.259261 33:0.970505 34:0.136395 35:-0.527687 36:0.950928 37:0.0180163 38:-0.0472002 39:0.684148 40:-0.232597 41:0.150755 42:0.272428 43:-0.807447 44:-0.919108 45:0.327432 46:0.332505 47:0.111721 48:0.677483 49:0.810476 50:0.416665 51:-0.793986 52:-0.938531 53:-0.00530873 54:0.877565 55:-0.0849622 56:-0.189797 57:0.259261 58:0.970505 59:0.136395 60:-0.527687 61:0.950928 62:0.0180163 63:-0.0472002 64:0.684148 65:-0.232597 66:0.150755 67:0.272428 68:-0.807447 69:-0.919108 70:0.327432 71:0.332505 72:0.111721 73:0.677483 74:0.810476 75:0.416665 76:0.420925 77:-0.302974 78:-0.221521 79:0.12459 80:-0.0762129 81:-0.00739361 82:0.185524 83:0.545904 84:0.168421 85:0.648324 86:0.122054 87:-0.699986 88:0.592116 89:0.673481 90:-0.230571 91:0.148321 92:-0.647319 93:1 94:0.129942 95:-0.327818 96:-0.00394993 97:0.296415 98:0.843042 99:0.244957 100:-1 101:-0.502686 102:-0.83473 103:-0.43349 104:0.90863 105:0.702076 106:0.744315 107:0.0468278 108:0.14342 109:-0.00186987 110:0.877417 111:0.22311 112:0.200585 113:0.405958 114:0.244961 115:-0.305943 116:-0.344692 117:0.222843 118:-0.866158 119:0.246927 120:0.681342 121:-0.444767 122:0.611474 123:0.15848 124:0.123691 125:0.77427 126:0.388902 127:0.00117046 128:0.0597957 129:0.194726 130:-0.0821929 131:0.0678127 132:0.0534351 133:-0.0958357 134:-0.221889 135:-0.208926 136:-0.0201378 137:-0.0613347 138:-0.0774468 139:0.403421 140:0.0263488 141:0.376309 142:0.0738523 143:0.0612226 144:-0.21577 145:-0.0633706 146:-0.729439 147:-0.1337 148:0.0886685 149:0.389389 150:-0.46545 151:0.388902 152:0.00117046 153:0.0597957 154:0.194726 155:-0.0821929 156:0.0678127 157:0.0534351 158:-0.0958357 159:-0.221889 160:-0.208926 161:-0.0201378 162:-0.0613347 163:-0.0774468 164:0.403421 165:0.0263488 166:0.376309 167:0.0738523 168:0.0612226 169:-0.21577 170:-0.0633706 171:-0.729439 172:-0.1337 173:0.0886685 174:0.389389 175:-0.46545 176:-0.246761 177:-0.672747 178:0.248508 179:0.761565 180:0.133994 181:0.126502 182:0.187709 183:-0.0158629 184:-0.0168641 185:0.164702 186:0.920754 187:0.251745 188:0.0177238 189:0.734581 190:-0.253476 191:-0.190863 192:-0.468497 193:0.218444 194:0.500477 195:0.202154 196:0.31262 197:-0.358706 198:-0.470501 199:0.110769 200:0.6318 201:0.325759 202:-0.30558 203:0.486945 204:-0.161296 205:0.0456788 206:0.345169 207:-0.368015 208:0.0458004 209:-0.136311 210:0.0638597 211:-0.222834 212:-0.0585594 213:-0.46463 214:-0.0602595 215:0.208472 216:-0.456743 217:0.580571 218:-0.22446 219:-0.617026 220:0.154179 221:0.224631 222:-0.0747565 223:-0.109087 224:-0.149529 225:0.0633404 226:0.660857 227:-0.375341 228:-0.000919199 229:-0.546945 230:-0.923512 231:0.981046 232:0.510859 233:-0.24087 234:0.390859 235:-0.368434 236:0.183305 237:0.842142 238:0.570599 239:-0.0440659 240:-0.965457 241:0.510721 242:0.783405 243:-1 244:0.0287456 245:-0.560123 246:0.529467 247:0.617675 248:-0.518833 249:0.282034 250:0.0901717 251:0.0377392 252:0.0423697 253:-0.724617 254:-0.0397431 255:-0.600896 256:1 257:-0.292633 258:-1 259:-0.117215 260:0.231921 261:-0.429948 262:0.608257 263:0.0636392 264:0.0336734 265:-0.148905 266:0.359726 267:-0.0461008 268:-0.224925 269:0.196561 270:0.309398 271:-0.485482 272:-0.630863 273:0.233942 274:-0.0906588 275:-0.15966 276:0.163367 277:-0.50487 278:0.699357 279:0.0345544 280:0.124065 281:-0.0486414 282:-0.45288 283:-0.32815 284:0.0296283 285:-0.000940505 286:0.0435048 287:0.190245 288:-0.0801535 289:0.0248991 290:-0.253741 291:0.180449 292:0.052458 293:-0.000121182 294:0.0110915 295:-0.12253 296:-0.363236 297:0.104352 298:0.23263 299:0.240309 300:0.35422 301:0.163367 302:-0.50487 303:0.699357 304:0.0345544 305:0.124065 306:-0.0486414 307:-0.45288 308:-0.32815 309:0.0296283 310:-0.000940505 311:0.0435048 312:0.190245 313:-0.0801535 314:0.0248991 315:-0.253741 316:0.180449 317:0.052458 318:-0.000121182 319:0.0110915 320:-0.12253 321:-0.363236 322:0.104352 323:0.23263 324:0.240309 325:0.35422 326:-0.4802 327:-0.551623 328:-0.754083 329:0.527947 330:-0.6171 331:0.481579 332:0.498358 333:0.199145 334:-0.322931 335:-0.778118 336:0.925879 337:-0.27388 338:0.0734499 339:-0.331268 340:0.481665 341:0.634479 342:-0.14864 343:-0.56657 344:-0.266481 345:0.54153 346:-0.307046 347:0.241693 348:0.7097 349:-0.0539171 350:-0.317485 351:-0.24273 352:-0.519794 353:-0.239964 354:0.490965 355:-0.479664 356:0.0966358 357:-0.138378 358:-0.211025 359:-0.621585 360:0.188753 361:0.631767 362:0.370235 363:-0.261918 364:0.0990883 365:-0.251481 366:-0.319476 367:-0.00331461 368:-0.320914 369:-0.445262 370:-0.570248 371:-0.594456 372:-0.747796 373:0.182853 374:-0.196416 375:-0.0999294 376:-0.24273 377:-0.519794 378:-0.239964 379:0.490965 380:-0.479664 381:0.0966358 382:-0.138378 383:-0.211025 384:-0.621585 385:0.188753 386:0.631767 387:0.370235 388:-0.261918 389:0.0990883 390:-0.251481 391:-0.319476 392:-0.00331461 393:-0.320914 394:-0.445262 395:-0.570248 396:-0.594456 397:-0.747796 398:0.182853 399:-0.196416 400:-0.0999294 401:-0.581447 402:0.893161 403:-0.169217 404:-0.711378 405:0.101723 406:0.562584 407:0.049663 408:0.473695 409:0.0632333 410:-0.731784 411:-0.402973 412:0.0145015 413:0.356216 414:0.107134 415:0.356048 416:-0.437413 417:0.757997 418:-1.44738e-05 419:-0.0791363 420:-0.198404 421:-0.103104 422:0.10114 423:-0.0870487 424:-0.0790252 425:0.211319 426:0.200995 427:0.728166 428:-0.941523 429:-0.258034 430:0.65959 431:-0.604018 432:-0.0781136 433:0.136978 434:0.358978 435:-0.121449 436:-0.291833 437:0.201242 438:0.0203375 439:-1 440:-0.664145 441:1 442:-0.197885 443:0.276648 444:0.00716294 445:-0.997933 446:0.576424 447:0.554139 448:-0.321005 449:-0.224148 450:0.303956 451:-0.229 452:-0.237585 453:0.431468 454:0.161565 455:0.309533 456:-0.0502469 457:-0.0500281 458:-0.00215125 459:-0.147306 460:-0.234493 461:0.176778 462:0.215842 463:0.0996981 464:0.137731 465:0.00534016 466:-0.0447928 467:-0.389423 468:-0.0770113 469:-0.308394 470:0.0693399 471:-0.143902 472:0.208505 473:-0.559168 474:-0.272543 475:-0.236691 476:0.492276 477:0.351178 478:0.0504354 479:0.396953 480:0.270689 481:0.725374 482:0.0629588 483:-0.226869 484:0.668789 485:-0.0744378 486:-0.294781 487:-0.351622 488:-0.706478 489:-0.0266628 490:0.246338 491:0.11943 492:-0.0509583 493:0.229993 494:-0.363309 495:0.0843505 496:0.132993 497:0.498277 498:0.189597 499:0.190714 500:0.183286 501:-0.0802841 502:0.233413 503:-0.4469 504:-0.401066 505:0.357938 506:-0.123912 507:0.349083 508:0.0102049 509:0.303825 510:0.1181 511:-0.56951 512:-0.175834 513:0.44626 514:0.362259 515:-0.00648077 516:-0.185108 517:-0.00756114 518:0.347881 519:0.054508 520:-0.146722 521:0.464116 522:-0.153457 523:0.147782 524:-0.0878714 525:0.120512 526:-0.846525 527:-0.289827 528:0.495358 529:-0.18873 530:-0.30831 531:0.9184 532:0.290592 533:0.400922 534:0.307108 535:0.597989 536:0.851015 537:0.258432 538:0.147531 539:-0.027971 540:-0.0360268 541:0.250368 542:-0.265066 543:-0.239266 544:-0.176233 545:-0.302189 546:-0.12489 547:0.248007 548:-0.0197882 549:0.118909 550:-0.329314 551:0.0724589 552:0.330806 553:-0.861812 554:-0.159375 555:-0.121667 556:1 557:-0.678468 558:-0.920941 559:0.561316 560:0.127025 561:0.194264 562:0.467153 563:-0.530256 564:-0.128424 565:-0.243591 566:0.69355 567:-0.85325 568:-0.387894 569:0.77936 570:-0.0935785 571:-1 572:0.523654 573:-0.449435 574:-0.94235 575:-0.163328 576:0.0724589 577:0.330806 578:-0.861812 579:-0.159375 580:-0.121667 581:1 582:-0.678468 583:-0.920941 584:0.561316 585:0.127025 586:0.194264 587:0.467153 588:-0.530256 589:-0.128424 590:-0.243591 591:0.69355 592:-0.85325 593:-0.387894 594:0.77936 595:-0.0935785 596:-1 597:0.523654 598:-0.449435 599:-0.94235 600:-0.163328 601:-0.155495 602:0.368733 603:0.202295 604:-1 605:0.587902 606:-0.771112 607:-1 608:0.538215 609:-0.0650825 610:0.71261 611:-0.108183 612:0.773956 613:0.422306 614:-0.275693 615:-0.711319 616:-0.63044 617:-0.397934 618:0.325046 619:-0.282751 620:-1 621:-0.157379 622:0.0334976 623:1 624:0.775721 625:-0.0346869 626:0.400168 627:0.197837 628:0.171103 629:0.443392 630:-0.287036 631:-0.24788 632:-0.586657 633:0.297731 634:0.352226 635:0.172641 636:0.169186 637:0.169244 638:-0.236165 639:-0.175004 640:-0.15707 641:0.367035 642:-0.797087 643:0.774034 644:0.314763 645:-0.522851 646:0.270679 647:-0.268497 648:0.37974 649:0.464091 650:-0.722802 651:0.400168 652:0.197837 653:0.171103 654:0.443392 655:-0.287036 656:-0.24788 657:-0.586657 658:0.297731 659:0.352226 660:0.172641 661:0.169186 662:0.169244 663:-0.236165 664:-0.175004 665:-0.15707 666:0.367035 667:-0.797087 668:0.774034 669:0.314763 670:-0.522851 671:0.270679 672:-0.268497 673:0.37974 674:0.464091 675:-0.722802 676:0.501971 677:-0.159465 678:-0.322905 679:1 680:-0.67747 681:0.758501 682:-0.129222 683:0.0720913 684:-0.234402 685:-1 686:0.37892 687:-0.102736 688:-0.22261 689:-0.614403 690:-0.7906 691:1 692:0.163268 693:-0.270562 694:0.0965301 695:0.0820916 696:-0.231791 697:-0.38364 698:-0.41899 699:-1 700:-0.189666 701:0.501971 702:-0.159465 703:-0.322905 704:1 705:-0.67747 706:0.758501 707:-0.129222 708:0.0720913 709:-0.234402 710:-1 711:0.37892 712:-0.102736 713:-0.22261 714:-0.614403 715:-0.7906 716:1 717:0.163268 718:-0.270562 719:0.0965301 720:0.0820916 721:-0.231791 722:-0.38364 723:-0.41899 724:-1 725:-0.189666 726:-0.206821 727:-0.899624 728:-0.164293 729:0.653645 730:-0.268094 731:0.040489 732:0.120545 733:0.210078 734:-0.262727 735:-0.317024 736:0.834946 737:0.110073 738:-0.456031 739:-0.375386 740:0.13431 741:-0.159325 742:0.390067 743:-0.360435 744:0.171145 745:-0.110958 746:0.0617154 747:0.408202 748:-0.166252 749:0.160994 750:-0.456113 751:-0.507119 752:0.0918365 753:-0.618454 754:0.295542 755:-0.494956 756:0.755823 757:0.677822 758:0.641489 759:0.606993 760:-0.528908 761:0.423078 762:-0.3402 763:-0.137268 764:-0.384246 765:-0.470507 766:0.320638 767:-0.543927 768:-0.293332 769:-0.264293 770:-0.345671 771:0.232319 772:0.130953 773:0.104716 774:-0.315207 775:0.510414 776:-0.507119 777:0.0918365 778:-0.618454 779:0.295542 780:-0.494956 781:0.755823 782:0.677822 783:0.641489 784:0.606993 785:-0.528908 786:0.423078 787:-0.3402 788:-0.137268 789:-0.384246 790:-0.470507 791:0.320638 792:-0.543927 793:-0.293332 794:-0.264293 795:-0.345671 796:0.232319 797:0.130953 798:0.104716 799:-0.315207 800:0.510414 801:0.0964714 802:0.470543 803:-0.257635 804:-1 805:-0.0743853 806:0.0423154 807:-0.0099289 808:0.0466536 809:-0.289279 810:0.584299 811:-0.207681 812:-0.128649 813:0.395104 814:-0.220473 815:-0.267977 816:-0.241016 817:-0.13173 818:-0.230544 819:0.231997 820:-0.229202 821:-0.0818591 822:0.569204 823:-0.527874 824:-0.640642 825:0.885663 826:-0.105272 827:0.713127 828:-0.73155 829:-0.270359 830:-0.669206 831:0.621914 832:0.0741461 833:-0.0834845 834:-0.0737088 835:-0.123805 836:-0.706575 837:0.30014 838:-0.482191 839:0.302353 840:0.00601529 841:0.0530292 842:-0.153627 843:0.567319 844:-0.0871337 845:-0.343105 846:0.346912 847:-0.326098 848:0.172924 849:-0.0971802 850:0.11185 851:0.48137 852:-0.563826 853:0.202292 854:0.634757 855:0.239807 856:-0.210235 857:-0.707552 858:-0.232828 859:1 860:1 861:0.393448 862:0.224843 863:0.125861 864:-0.807229 865:0.743243 866:-0.275888 867:0.343904 868:-0.810011 869:-0.967095 870:0.100726 871:0.376536 872:0.823581 873:0.187787 874:0.174572 875:0.0185602 876:-0.106063 877:1 878:0.448032 879:-0.807827 880:-0.180955 881:-0.530794 882:-0.501299 883:0.780439 884:-0.261245 885:-0.00919283 886:0.705857 887:0.727114 888:0.536981 889:0.231048 890:-0.254475 891:0.358248 892:0.36397 893:-1 894:0.796556 895:1 896:-0.525547 897:-0.125113 898:0.758711 899:-0.261161 900:0.471281 901:-0.0828547 902:-0.624513 903:0.226846 904:-0.422423 905:-1 906:0.762152 907:-1 908:0.37275 909:0.101255 910:-0.152271 911:0.299612 912:0.898487 913:0.588889 914:-0.607353 915:-1 916:0.338171 917:-0.803029 918:1 919:0.443714 920:0.0224748 921:0.0196 922:-0.309399 923:-0.209246 924:-0.837395 925:-0.935925 926:0.21993 927:0.190096 928:0.448607 929:-0.467465 930:0.020215 931:0.0517676 932:0.176016 933:-0.502832 934:0.407371 935:-0.412121 936:0.702161 937:-0.0965614 938:-0.0491719 939:-0.090954 940:-0.181239 941:0.286293 942:0.0709886 943:1 944:0.287511 945:-0.494926 946:0.558965 947:-0.140518 948:-0.244911 949:-0.396899 950:-0.482143 951:-0.23496 952:0.375078 953:-0.028601 954:-0.307655 955:-0.13719 956:-0.505231 957:0.25781 958:0.0269979 959:0.552621 960:0.0502692 961:-0.61017 962:0.050069 963:0.495764 964:-0.184166 965:0.51445 966:0.207692 967:-0.41277 968:-0.476051 969:0.432161 970:-0.843701 971:0.173599 972:0.491057 973:0.583764 974:-0.162029 975:0.812863 976:0.546869 977:-0.139841 978:-0.604901 979:0.615484 980:-1 981:0.632191 982:0.466789 983:0.230635 984:-0.122432 985:-0.790252 986:-0.244589 987:-1 988:-0.63147 989:0.281302 990:0.757087 991:-0.719488 992:-0.344744 993:0.467253 994:0.20128 995:0.569846 996:-0.215964 997:-0.425503 998:-0.361026 999:-0.0524122 1000:0.10506 1001:-1 1002:0.376947 1003:0.847652 1004:0.00370448 1005:-0.182592 1006:0.171514 1007:0.0794722 1008:1 1009:-0.412958 1010:-0.38434 1011:-0.0665974 1012:-0.694971 1013:-0.0560821 1014:1 1015:1 1016:-0.200178 1017:0.650697 1018:-1 1019:-0.727621 1020:-0.708084 1021:-0.962359 1022:-0.147871 1023:0.521034 1024:0.863074 1025:0.556879 1026:0.153669 1027:0.0144258 1028:0.0339113 1029:-0.107436 1030:-0.324246 1031:0.229309 1032:-0.313577 1033:0.0987389 1034:-0.143952 1035:0.199598 1036:-0.0430608 1037:-0.112897 1038:-0.132159 1039:0.178008 1040:0.40414 1041:-0.309308 1042:-0.38077 1043:-0.268878 1044:-0.0202675 1045:0.355652 1046:0.338605 1047:0.0248522 1048:0.103017 1049:-0.0878515 1050:-0.565667 1051:-0.479332 1052:0.339377 1053:-0.215831 1054:-0.512008 1055:-0.170257 1056:-0.503622 1057:-0.350004 1058:-0.450953 1059:-0.498856 1060:-0.556571 1061:-0.387666 1062:-0.0840404 1063:-0.510365 1064:0.404669 1065:-0.397474 1066:0.538974 1067:0.24331 1068:-0.118918 1069:0.0452604 1070:0.0547264 1071:0.572247 1072:-0.374479 1073:0.373203 1074:-0.275346 1075:0.266447 1076:-0.807154 1077:0.138566 1078:1 1079:-0.115578 1080:-0.0764543 1081:-0.255471 1082:0.363345 1083:0.135173 1084:-0.627971 1085:-0.474793 1086:0.581733 1087:-0.21924 1088:0.652411 1089:-0.163073 1090:0.237691 1091:1 1092:-0.0504821 1093:-0.0285014 1094:-0.826803 1095:0.280511 1096:-0.398991 1097:-0.809968 1098:-0.600408 1099:0.661644 1100:-0.797021 1101:-0.470083 1102:0.0959957 1103:0.698689 1104:-0.145399 1105:-0.166691 1106:0.2815 1107:0.592088 1108:-0.36645 1109:0.325113 1110:-0.296729 1111:0.215095 1112:-0.0803999 1113:0.0101704 1114:-0.248707 1115:-0.299391 1116:0.0417743 1117:0.302223 1118:0.10258 1119:-0.135167 1120:0.106113 1121:0.102568 1122:0.270905 1123:-0.0723346 1124:0.0336244 1125:0.372442 1126:0.278049 1127:-0.591092 1128:0.695989 1129:0.39199 1130:0.441531 1131:0.628862 1132:-0.334831 1133:-0.149597 1134:-0.0981214 1135:0.390991 1136:0.202274 1137:-0.065216 1138:0.430214 1139:-0.111459 1140:-0.0213469 1141:0.307114 1142:-0.496895 1143:0.156079 1144:0.13509 1145:-0.170319 1146:0.239013 1147:-0.272974 1148:-0.484027 1149:0.412997 1150:-0.926329 1151:0.136591 1152:-0.213563 1153:0.236544 1154:0.0811153 1155:0.177384 1156:-0.637913 1157:-0.0782133 1158:-0.0323085 1159:-0.827029 1160:0.724397 1161:-0.368003 1162:-0.26844 1163:0.204439 1164:0.0145422 1165:-0.0163059 1166:-1 1167:0.292772 1168:-1 1169:-0.0525044 1170:-1 1171:-0.499159 1172:0.682937 1173:-1 1174:0.448711 1175:1 1176:0.136591 1177:-0.213563 1178:0.236544 1179:0.0811153 1180:0.177384 1181:-0.637913 1182:-0.0782133 1183:-0.0323085 1184:-0.827029 1185:0.724397 1186:-0.368003 1187:-0.26844 1188:0.204439 1189:0.0145422 1190:-0.0163059 1191:-1 1192:0.292772 1193:-1 1194:-0.0525044 1195:-1 1196:-0.499159 1197:0.682937 1198:-1 1199:0.448711 1200:1 1201:-0.304004 1202:-0.507788 1203:0.189744 1204:0.388762 1205:-0.00416501 1206:0.125358 1207:-0.167342 1208:0.410224 1209:-0.0722634 1210:-0.00194052 1211:0.8093 1212:0.495954 1213:0.173564 1214:0.300673 1215:0.459918 1216:-0.0347283 1217:0.0168453 1218:-0.250461 1219:-0.272214 1220:-0.270361 1221:0.16306 1222:0.359569 1223:-0.0891899 1224:0.186526 1225:-0.0601296 1226:0.382311 1227:-0.0323484 1228:0.0824266 1229:0.810625 1230:-0.853849 1231:0.712698 1232:0.935698 1233:0.756206 1234:-0.280981 1235:-0.32434 1236:0.417133 1237:-0.120622 1238:0.952792 1239:-0.0953605 1240:-1 1241:-0.463171 1242:0.677322 1243:-0.0386156 1244:-0.134329 1245:0.0462149 1246:0.0314086 1247:0.0258491 1248:-0.2304 1249:-0.456194 1250:0.400382 1251:0.382311 1252:-0.0323484 1253:0.0824266 1254:0.810625 1255:-0.853849 1256:0.712698 1257:0.935698 1258:0.756206 1259:-0.280981 1260:-0.32434 1261:0.417133 1262:-0.120622 1263:0.952792 1264:-0.0953605 1265:-1 1266:-0.463171 1267:0.677322 1268:-0.0386156 1269:-0.134329 1270:0.0462149 1271:0.0314086 1272:0.0258491 1273:-0.2304 1274:-0.456194 1275:0.400382 1276:0.191487 1277:-0.244553 1278:0.381753 1279:0.249502 1280:0.15901 1281:-0.157504 1282:-0.554692 1283:-0.0995197 1284:0.172053 1285:0.0666624 1286:-0.277792 1287:-0.0590287 1288:-0.0453856 1289:0.162416 1290:-0.196973 1291:0.273621 1292:-0.379664 1293:0.0255507 1294:0.000702119 1295:-0.0683842 1296:0.188261 1297:0.0694479 1298:-0.427345 1299:-0.414009 1300:0.528897 1301:0.191487 1302:-0.244553 1303:0.381753 1304:0.249502 1305:0.15901 1306:-0.157504 1307:-0.554692 1308:-0.0995197 1309:0.172053 1310:0.0666624 1311:-0.277792 1312:-0.0590287 1313:-0.0453856 1314:0.162416 1315:-0.196973 1316:0.273621 1317:-0.379664 1318:0.0255507 1319:0.000702119 1320:-0.0683842 1321:0.188261 1322:0.0694479 1323:-0.427345 1324:-0.414009 1325:0.528897 1326:-0.0760514 1327:-0.753098 1328:0.315149 1329:0.623377 1330:0.12735 1331:-0.106646 1332:0.208077 1333:0.540236 1334:-0.356828 1335:-0.081857 1336:0.599896 1337:0.211522 1338:0.0507631 1339:-0.382207 1340:-0.66 1341:0.123294 1342:-0.372428 1343:0.00599731 1344:-0.280419 1345:-0.0193779 1346:-0.19306 1347:0.455471 1348:0.629419 1349:0.118641 1350:0.0711099 1351:-0.0760514 1352:-0.753098 1353:0.315149 1354:0.623377 1355:0.12735 1356:-0.106646 1357:0.208077 1358:0.540236 1359:-0.356828 1360:-0.081857 1361:0.599896 1362:0.211522 1363:0.0507631 1364:-0.382207 1365:-0.66 1366:0.123294 1367:-0.372428 1368:0.00599731 1369:-0.280419 1370:-0.0193779 1371:-0.19306 1372:0.455471 1373:0.629419 1374:0.118641 1375:0.0711099 1376:-0.575437 1377:0.0682656 1378:-0.282326 1379:-0.85663 1380:0.0442366 1381:-1 1382:-0.386569 1383:-0.261629 1384:-0.0069003 1385:0.509548 1386:-0.479512 1387:0.283438 1388:0.39444 1389:0.31511 1390:-0.34178 1391:0.273717 1392:1 1393:-0.384644 1394:0.777007 1395:0.196122 1396:0.225351 1397:-0.256837 1398:-0.424985 1399:-0.730487 1400:-0.162717 1401:-0.575437 1402:0.0682656 1403:-0.282326 1404:-0.85663 1405:0.0442366 1406:-1 1407:-0.386569 1408:-0.261629 1409:-0.0069003 1410:0.509548 1411:-0.479512 1412:0.283438 1413:0.39444 1414:0.31511 1415:-0.34178 1416:0.273717 1417:1 1418:-0.384644 1419:0.777007 1420:0.196122 1421:0.225351 1422:-0.256837 1423:-0.424985 1424:-0.730487 1425:-0.162717 1426:0.166583 1427:0.758353 1428:0.0508159 1429:-0.122772 1430:-0.352784 1431:-0.298783 1432:0.0503284 1433:-0.392661 1434:0.206334 1435:-0.128082 1436:0.0351912 1437:-0.33797 1438:0.338825 1439:-0.232053 1440:-0.18875 1441:0.258602 1442:0.452086 1443:0.268087 1444:0.0164528 1445:-0.116728 1446:0.0180616 1447:-0.542889 1448:-0.250722 1449:-0.114267 1450:0.285033 1451:0.166583 1452:0.758353 1453:0.0508159 1454:-0.122772 1455:-0.352784 1456:-0.298783 1457:0.0503284 1458:-0.392661 1459:0.206334 1460:-0.128082 1461:0.0351912 1462:-0.33797 1463:0.338825 1464:-0.232053 1465:-0.18875 1466:0.258602 1467:0.452086 1468:0.268087 1469:0.0164528 1470:-0.116728 1471:0.0180616 1472:-0.542889 1473:-0.250722 1474:-0.114267 1475:0.285033 1476:-0.102694 1477:0.751275 1478:-1 1479:0.86974 1480:-0.595495 1481:1 1482:0.187575 1483:0.0483984 1484:-0.310487 1485:-0.749323 1486:0.256734 1487:-0.430927 1488:0.500562 1489:-0.194602 1490:-0.710823 1491:0.316486 1492:-0.138713 1493:-0.595245 1494:0.361507 1495:-0.00438406 1496:0.0625932 1497:0.27466 1498:-0.213682 1499:-0.369296 1500:0.283092 1501:-0.102694 1502:0.751275 1503:-1 1504:0.86974 1505:-0.595495 1506:1 1507:0.187575 1508:0.0483984 1509:-0.310487 1510:-0.749323 1511:0.256734 1512:-0.430927 1513:0.500562 1514:-0.194602 1515:-0.710823 1516:0.316486 1517:-0.138713 1518:-0.595245 1519:0.361507 1520:-0.00438406 1521:0.0625932 1522:0.27466 1523:-0.213682 1524:-0.369296 1525:0.283092 1526:-0.224521 1527:-0.893316 1528:0.463182 1529:0.0411271 1530:0.128328 1531:0.227604 1532:0.222182 1533:0.10182 1534:-0.185515 1535:0.754872 1536:0.845298 1537:0.780633 1538:-0.493046 1539:-0.423145 1540:0.162192 1541:-0.573373 1542:-0.51866 1543:-0.383814 1544:0.172131 1545:0.0455065 1546:-0.304869 1547:0.18442 1548:0.612632 1549:0.227104 1550:0.155522 1551:0.360868 1552:-0.34247 1553:-0.505311 1554:0.364397 1555:-0.313209 1556:0.0259666 1557:0.500501 1558:0.247036 1559:-0.157032 1560:-0.120584 1561:0.269613 1562:0.36745 1563:-0.534722 1564:-0.209987 1565:0.219327 1566:-0.181845 1567:-0.51467 1568:-0.303888 1569:-0.115026 1570:-0.289826 1571:-0.350756 1572:-0.0410598 1573:-0.117047 1574:-0.0885037 1575:0.0889627 1576:0.360868 1577:-0.34247 1578:-0.505311 1579:0.364397 1580:-0.313209 1581:0.0259666 1582:0.500501 1583:0.247036 1584:-0.157032 1585:-0.120584 1586:0.269613 1587:0.36745 1588:-0.534722 1589:-0.209987 1590:0.219327 1591:-0.181845 1592:-0.51467 1593:-0.303888 1594:-0.115026 1595:-0.289826 1596:-0.350756 1597:-0.0410598 1598:-0.117047 1599:-0.0885037 1600:0.0889627 1601:0.519624 1602:-0.202032 1603:-0.0241618 1604:-0.406798 1605:0.354962 1606:1 1607:-0.0644617 1608:-0.552328 1609:0.58215 1610:0.696473 1611:-0.559337 1612:0.399927 1613:-0.412754 1614:0.263804 1615:0.915865 1616:0.78973 1617:0.292764 1618:-0.0299194 1619:0.30922 1620:-0.801943 1621:-0.427206 1622:0.0516007 1623:0.324954 1624:0.462099 1625:-0.42841 1626:0.242134 1627:0.142402 1628:-0.423415 1629:-0.441601 1630:0.0540496 1631:0.0150073 1632:0.0411057 1633:0.164089 1634:-0.398781 1635:0.35276 1636:-0.0112212 1637:0.315195 1638:0.115439 1639:0.582347 1640:-0.309022 1641:-0.079214 1642:-0.0830181 1643:0.332497 1644:0.116556 1645:0.205836 1646:0.630162 1647:-0.31644 1648:0.166162 1649:0.0412537 1650:-0.415609 1651:0.0620602 1652:-0.634001 1653:-0.199518 1654:0.301523 1655:0.649147 1656:-0.883001 1657:-0.177797 1658:0.0987601 1659:-0.310604 1660:0.466755 1661:-0.557004 1662:-0.45153 1663:-0.316189 1664:0.714085 1665:-0.243668 1666:0.165833 1667:-0.16811 1668:1 1669:0.216758 1670:-0.0582569 1671:0.0852361 1672:0.140176 1673:0.474478 1674:0.0871086 1675:-0.79865 1676:1 1677:-0.262816 1678:-0.780175 1679:0.226707 1680:0.393215 1681:-0.578783 1682:-0.507899 1683:-0.344739 1684:0.893369 1685:1 1686:-0.254283 1687:0.286906 1688:-0.511322 1689:-0.352608 1690:0.303995 1691:-0.0289785 1692:-0.941341 1693:-0.0681737 1694:0.884144 1695:0.411871 1696:-0.113586 1697:-0.328724 1698:-0.586168 1699:-0.549882 1700:-0.303021 1701:0.879146 1702:-0.0711209 1703:-0.486269 1704:-0.0368734 1705:0.239105 1706:-0.679554 1707:-0.545854 1708:-0.0631324 1709:-0.69941 1710:0.507556 1711:0.640603 1712:-1 1713:-0.457366 1714:0.814811 1715:-0.0808 1716:-0.0702627 1717:-0.620585 1718:-0.727006 1719:0.306789 1720:-0.236367 1721:-1 1722:-0.605844 1723:0.324277 1724:-0.681945 1725:-0.289708 1726:-0.248736 1727:-0.289655 1728:0.236169 1729:-0.104905 1730:0.301699 1731:-0.311011 1732:-0.102101 1733:0.707385 1734:0.0461729 1735:0.459266 1736:-0.145039 1737:-0.486113 1738:-0.100201 1739:0.145124 1740:0.522858 1741:-0.589441 1742:-0.325659 1743:-0.696078 1744:0.379145 1745:0.56939 1746:-0.336001 1747:-0.106261 1748:-1 1749:-0.172146 1750:-0.26393 1751:0.00167907 1752:0.333788 1753:-1 1754:-0.111059 1755:-0.5472 1756:1 1757:0.646061 1758:-0.253265 1759:-0.224504 1760:-0.705244 1761:0.0679939 1762:0.379217 1763:0.382597 1764:-0.712306 1765:0.327643 1766:-0.0147503 1767:0.0630143 1768:-1 1769:-0.191654 1770:0.721787 1771:-0.164034 1772:0.40673 1773:0.537048 1774:-0.425275 1775:0.0852528 1776:0.00354273 1777:0.148004 1778:-0.400601 1779:-0.781306 1780:-0.0932771 1781:-0.601445 1782:0.32015 1783:-0.102679 1784:-0.0862515 1785:0.249631 1786:-0.81934 1787:-0.0445761 1788:0.198207 1789:0.17848 1790:-0.314596 1791:0.187782 1792:0.1516 1793:0.239068 1794:-0.418155 1795:0.0532315 1796:-0.112698 1797:-0.120333 1798:0.573033 1799:0.136567 1800:0.0116975 1801:0.289465 1802:0.0659994 1803:0.0125343 1804:0.310007 1805:-0.0300667 1806:0.485737 1807:0.385308 1808:0.019796 1809:-0.13418 1810:-0.653261 1811:0.517797 1812:-0.127852 1813:-0.385105 1814:0.502528 1815:0.494548 1816:-0.547835 1817:-0.020957 1818:0.270026 1819:-0.614974 1820:0.0577001 1821:-0.760836 1822:-0.0856826 1823:0.130204 1824:-0.266075 1825:0.202626 1826:-0.171672 1827:0.679565 1828:-0.664391 1829:-0.346569 1830:0.381754 1831:-1 1832:-0.0680323 1833:0.941857 1834:0.0399953 1835:-0.616419 1836:0.0944356 1837:0.204581 1838:-0.114945 1839:0.0493518 1840:-0.0857683 1841:0.0986474 1842:-1 1843:1 1844:-0.310434 1845:-0.488198 1846:-0.160823 1847:-0.498056 1848:0.0898701 1849:0.256433 1850:-0.30119 1851:-0.457716 1852:0.594624 1853:0.0200433 1854:-0.375745 1855:-0.430689 1856:0.0399696 1857:-0.684355 1858:0.0784887 1859:-0.0306253 1860:-0.374251 1861:-0.562078 1862:0.341204 1863:0.532048 1864:0.482749 1865:0.148994 1866:-0.42112 1867:-0.278035 1868:-0.627863 1869:-0.452683 1870:-0.309398 1871:0.00508168 1872:0.14329 1873:0.348736 1874:0.128319 1875:-0.953516 1876:0.120096 1877:-0.079522 1878:-0.539437 1879:0.61263 1880:-0.441276 1881:0.747995 1882:0.63414 1883:0.108434 1884:-0.074743 1885:-0.13403 1886:0.474658 1887:-0.401179 1888:-0.207906 1889:0.377242 1890:0.28121 1891:0.113444 1892:0.233554 1893:0.343107 1894:-0.0506819 1895:0.123882 1896:-0.406214 1897:-0.134377 1898:-0.248221 1899:-0.0193107 1900:0.268836 1901:0.678074 1902:-0.290592 1903:-0.128744 1904:-0.274289 1905:0.370032 1906:-0.669014 1907:-0.017268 1908:0.0565753 1909:0.777404 1910:0.295375 1911:0.25567 1912:1 1913:-0.992634 1914:0.471066 1915:-0.415204 1916:-0.0735554 1917:0.68885 1918:-0.549691 1919:0.0123204 1920:0.348315 1921:1 1922:-1 1923:-0.802006 1924:0.814393 1925:-0.611621 1926:0.0958796 1927:-0.391933 1928:0.343512 1929:0.079036 1930:-0.286749 1931:0.214849 1932:-0.168231 1933:0.0319155 1934:-0.101871 1935:-0.107599 1936:0.561708 1937:-0.360998 1938:-0.0247947 1939:0.104091 1940:0.138083 1941:0.0877328 1942:-0.0968102 1943:0.260698 1944:0.223515 1945:-0.154451 1946:0.244228 1947:-0.261046 1948:-0.259888 1949:0.392567 1950:-0.0135771 1951:0.478738 1952:0.449847 1953:-0.077642 1954:-0.553187 1955:-0.324777 1956:-0.185188 1957:0.268758 1958:-0.0675457 1959:0.0548324 1960:-0.496276 1961:-0.854651 1962:-0.266368 1963:0.308055 1964:0.0772847 1965:-0.0559497 1966:-0.210506 1967:-0.102182 1968:0.230771 1969:-0.555663 1970:-0.175813 1971:0.0389837 1972:0.0775752 1973:-0.25744 1974:-0.0386093 1975:-0.419787 1976:0.73805 1977:-0.0514226 1978:1 1979:0.120878 1980:0.100511 1981:1 1982:-0.729021 1983:-0.766571 1984:-0.379816 1985:-0.361948 1986:-0.563879 1987:-0.463385 1988:0.191189 1989:0.088356 1990:-0.312224 1991:0.0764541 1992:-1 1993:-0.00448864 1994:-0.219873 1995:-0.172807 1996:-0.784119 1997:0.578277 1998:0.587609 1999:1 2000:-0.884029 2001:0.29323 2002:0.625058 2003:-0.418096 2004:-0.514192 2005:-0.0359707 2006:-0.708747 2007:0.544375 2008:0.23332 2009:0.911292 2010:0.0738705 2011:-0.870569 2012:-0.764245 2013:-0.135864 2014:-0.026633 2015:0.365432 2016:-0.40906 2017:0.272364 2018:0.491395 2019:-0.661711 2020:0.416539 2021:0.0835972 2022:-0.339049 2023:0.417359 2024:0.339198 2025:0.288127 2026:0.104379 2027:0.0447245 2028:0.750124 2029:-0.075661 2030:0.435681 2031:0.383183 2032:0.398879 2033:0.586874 2034:-0.369386 2035:0.152702 2036:0.724715 2037:-0.453451 2038:0.516452 2039:0.424024 2040:1 2041:-0.277426 2042:0.264069 2043:-0.310873 2044:-0.483727 2045:-0.0206673 2046:-0.435412 2047:0.366002 2048:0.046485 2049:-0.388833 2050:0.48677 2051:0.581663 2052:0.284098 2053:1 2054:-1 2055:-0.131539 2056:0.993724 2057:1 2058:0.483543 2059:-0.167913 2060:-1 2061:0.711094 2062:-0.626524 2063:-0.0711778 2064:-0.236514 2065:0.475273 2066:-0.330296 2067:0.328359 2068:0.714901 2069:-0.687633 2070:1 2071:-0.669131 2072:0.057045 2073:0.494943 2074:-1 2075:1 2076:0.225754 2077:-0.353793 2078:0.00970672 2079:-0.471199 2080:-0.228937 2081:-0.339791 2082:-0.462409 2083:-0.0655442 2084:0.0755324 2085:0.43012 2086:0.0419057 2087:-0.21747 2088:-0.738156 2089:-0.490095 2090:-0.172787 2091:0.442685 2092:0.222304 2093:0.082873 2094:0.264093 2095:-0.190827 2096:0.215879 2097:-0.0473018 2098:0.618105 2099:0.0422006 2100:-0.139594 2101:-0.103174 2102:-0.499691 2103:1 2104:-0.578228 2105:0.0368364 2106:0.382513 2107:-0.502199 2108:1 2109:-0.82518 2110:0.133612 2111:0.32674 2112:-0.236931 2113:-0.0529139 2114:0.600659 2115:0.19809 2116:0.256188 2117:-0.418848 2118:-0.230566 2119:0.859042 2120:-0.292987 2121:0.620104 2122:0.0303645 2123:0.00260336 2124:0.683811 2125:0.187727 2126:0.657732 2127:0.036012 2128:-0.87497 2129:0.521609 2130:-0.965547 2131:0.678381 2132:0.501471 2133:-0.141333 2134:0.153628 2135:-0.381102 2136:0.0263184 2137:-0.416349 2138:-0.449663 2139:-0.176891 2140:-0.209516 2141:-0.0733762 2142:0.168504 2143:0.0958508 2144:0.197796 2145:0.358135 2146:0.160945 2147:0.402598 2148:0.178242 2149:0.0895633 2150:-0.198434 2151:0.720458 2152:0.143819 2153:-0.743486 2154:0.392315 2155:-0.834708 2156:0.312332 2157:0.468946 2158:0.347272 2159:0.513132 2160:-0.0217912 2161:-0.212662 2162:-0.362847 2163:0.234915 2164:-0.549012 2165:0.196195 2166:-0.165608 2167:1 2168:-0.11836 2169:-0.0534675 2170:-0.417493 2171:0.221793 2172:0.855767 2173:-0.1026 2174:0.742252 2175:0.225259 2176:0.25282 2177:0.427491 2178:-0.482265 2179:0.652909 2180:-0.38599 2181:0.383401 2182:0.158545 2183:0.0360031 2184:-0.269089 2185:-0.478144 2186:0.135018 2187:0.272375 2188:-0.0381355 2189:0.185585 2190:0.127889 2191:-0.749209 2192:-1 2193:0.373639 2194:0.156177 2195:0.293809 2196:0.410362 2197:0.197098 2198:0.436419 2199:-0.452416 2200:-0.702553 2201:0.126462 2202:-0.366803 2203:-0.454944 2204:-0.420416 2205:0.561828 2206:-1 2207:0.46003 2208:0.330216 2209:-0.341791 2210:0.817103 2211:-0.756196 2212:0.117296 2213:0.656926 2214:0.651986 2215:-0.272549 2216:-0.78026 2217:0.271221 2218:0.864152 2219:-0.0778019 2220:-0.357203 2221:0.7361 2222:0.587467 2223:0.14503 2224:-0.398459 2225:-1 2226:-0.550221 2227:0.558102 2228:-0.740167 2229:-0.172498 2230:-0.751951 2231:-0.482409 2232:-0.789247 2233:-0.813792 2234:-0.857868 2235:-0.810401 2236:-0.480361 2237:-0.191374 2238:-0.318001 2239:0.557149 2240:-0.269352 2241:0.334446 2242:-0.0510403 2243:0.488056 2244:-0.199858 2245:-0.578944 2246:0.811472 2247:-0.165035 2248:-0.435211 2249:0.155616 2250:-0.210493 2251:0.0579317 2252:-9.58486e-06 2253:-0.206036 2254:-0.779794 2255:0.416939 2256:-0.29425 2257:0.133036 2258:-0.118487 2259:-0.531862 2260:0.636091 2261:-0.274695 2262:0.44846 2263:-0.0435887 2264:0.170141 2265:-0.733491 2266:0.460608 2267:-0.75381 2268:0.912464 2269:-0.251789 2270:0.117703 2271:-0.194542 2272:-0.888094 2273:0.590599 2274:-0.018825 2275:0.120742 2276:0.0579317 2277:-9.58486e-06 2278:-0.206036 2279:-0.779794 2280:0.416939 2281:-0.29425 2282:0.133036 2283:-0.118487 2284:-0.531862 2285:0.636091 2286:-0.274695 2287:0.44846 2288:-0.0435887 2289:0.170141 2290:-0.733491 2291:0.460608 2292:-0.75381 2293:0.912464 2294:-0.251789 2295:0.117703 2296:-0.194542 2297:-0.888094 2298:0.590599 2299:-0.018825 2300:0.120742 2301:0.391876 2302:-0.118989 2303:0.154819 2304:1 2305:-0.0713494 2306:-0.175174 2307:0.293312 2308:0.788833 2309:-0.26338 2310:-0.132129 2311:0.714529 2312:0.562627 2313:0.891067 2314:-0.234717 2315:-0.496145 2316:0.3107 2317:0.44083 2318:-0.0366934 2319:-0.182056 2320:0.192252 2321:0.238821 2322:0.485946 2323:-0.0813954 2324:-0.495637 2325:0.337347 2326:0.391876 2327:-0.118989 2328:0.154819 2329:1 2330:-0.0713494 2331:-0.175174 2332:0.293312 2333:0.788833 2334:-0.26338 2335:-0.132129 2336:0.714529 2337:0.562627 2338:0.891067 2339:-0.234717 2340:-0.496145 2341:0.3107 2342:0.44083 2343:-0.0366934 2344:-0.182056 2345:0.192252 2346:0.238821 2347:0.485946 2348:-0.0813954 2349:-0.495637 2350:0.337347 2351:-0.228517 2352:-0.405804 2353:-0.0476571 2354:0.527997 2355:-0.150753 2356:0.128924 2357:0.102737 2358:0.389945 2359:-0.291116 2360:0.0260227 2361:0.770696 2362:0.516181 2363:0.163275 2364:0.26027 2365:-0.0622346 2366:-0.0746885 2367:0.203442 2368:0.191642 2369:-0.0771842 2370:0.305902 2371:0.313995 2372:-0.117043 2373:-0.191363 2374:0.158627 2375:0.26881 2376:0.131928 2377:0.194575 2378:0.580463 2379:0.828403 2380:-0.187963 2381:0.0948777 2382:0.64844 2383:0.249071 2384:0.0321866 2385:-0.481357 2386:0.748028 2387:0.449574 2388:0.225911 2389:0.184124 2390:-0.149152 2391:0.113131 2392:0.40283 2393:0.332781 2394:0.0275503 2395:-0.709696 2396:-0.934373 2397:-0.376749 2398:-0.384852 2399:-0.271096 2400:-0.19347 2401:0.131928 2402:0.194575 2403:0.580463 2404:0.828403 2405:-0.187963 2406:0.0948777 2407:0.64844 2408:0.249071 2409:0.0321866 2410:-0.481357 2411:0.748028 2412:0.449574 2413:0.225911 2414:0.184124 2415:-0.149152 2416:0.113131 2417:0.40283 2418:0.332781 2419:0.0275503 2420:-0.709696 2421:-0.934373 2422:-0.376749 2423:-0.384852 2424:-0.271096 2425:-0.19347 2426:0.550787 2427:-0.259718 2428:-0.878145 2429:0.755117 2430:-0.186272 2431:-0.424494 2432:-0.0603609 2433:-0.058543 2434:-0.481173 2435:0.321495 2436:0.243978 2437:-0.194127 2438:0.653397 2439:0.0916433 2440:-0.439028 2441:0.537796 2442:0.16046 2443:0.745646 2444:0.195721 2445:-0.100388 2446:0.420166 2447:0.187715 2448:-0.716803 2449:0.0625661 2450:-0.589738 2451:0.2499 2452:0.414766 2453:0.273195 2454:0.140506 2455:0.0178676 2456:-0.140546 2457:0.015822 2458:0.155272 2459:-0.455323 2460:0.0204937 2461:-0.271071 2462:-0.0883258 2463:0.235383 2464:-0.0280322 2465:0.238438 2466:-0.271586 2467:0.0837576 2468:0.0925951 2469:-0.0319852 2470:0.37568 2471:0.343463 2472:0.0938852 2473:-0.060286 2474:-0.17386 2475:-0.0279848 2476:0.528742 2477:-0.500671 2478:-0.126558 2479:-0.413438 2480:-0.883698 2481:0.22502 2482:0.558575 2483:-0.573806 2484:0.817115 2485:0.893688 2486:-0.618695 2487:-0.733583 2488:0.781778 2489:-0.643988 2490:-0.611896 2491:-0.328511 2492:-0.493965 2493:-0.0403788 2494:-0.470861 2495:-0.960043 2496:0.735583 2497:0.549873 2498:-0.889931 2499:-0.367297 2500:-0.875259 2501:0.154128 2502:0.181459 2503:-0.372187 2504:-0.693849 2505:0.11317 2506:-0.381294 2507:0.166718 2508:-0.269978 2509:0.203373 2510:0.17521 2511:-0.279311 2512:-0.0933102 2513:0.44861 2514:-0.443616 2515:0.0193298 2516:0.35947 2517:0.225825 2518:-0.212023 2519:0.165298 2520:0.0825118 2521:-0.407467 2522:-0.348147 2523:-0.123276 2524:0.403663 2525:-0.139313 2526:0.154128 2527:0.181459 2528:-0.372187 2529:-0.693849 2530:0.11317 2531:-0.381294 2532:0.166718 2533:-0.269978 2534:0.203373 2535:0.17521 2536:-0.279311 2537:-0.0933102 2538:0.44861 2539:-0.443616 2540:0.0193298 2541:0.35947 2542:0.225825 2543:-0.212023 2544:0.165298 2545:0.0825118 2546:-0.407467 2547:-0.348147 2548:-0.123276 2549:0.403663 2550:-0.139313 2551:0.111604 2552:0.193768 2553:-0.16357 2554:0.0774234 2555:-0.418032 2556:0.20763 2557:-0.183581 2558:-0.140956 2559:-0.738886 2560:-0.459216 2561:-0.0395735 2562:-0.48398 2563:-0.241266 2564:-0.18614 2565:0.196023 2566:0.140886 2567:0.09486 2568:0.10765 2569:-0.103692 2570:-0.470957 2571:-0.400918 2572:-0.223701 2573:-0.278149 2574:0.309485 2575:0.126979 2576:0.111604 2577:0.193768 2578:-0.16357 2579:0.0774234 2580:-0.418032 2581:0.20763 2582:-0.183581 2583:-0.140956 2584:-0.738886 2585:-0.459216 2586:-0.0395735 2587:-0.48398 2588:-0.241266 2589:-0.18614 2590:0.196023 2591:0.140886 2592:0.09486 2593:0.10765 2594:-0.103692 2595:-0.470957 2596:-0.400918 2597:-0.223701 2598:-0.278149 2599:0.309485 2600:0.126979 2601:0.617275 2602:0.440458 2603:-0.116436 2604:0.326935 2605:-0.419833 2606:-0.410139 2607:0.0399058 2608:0.373098 2609:0.731512 2610:0.0404408 2611:-0.118536 2612:-0.427371 2613:-0.113974 2614:0.357321 2615:-0.243349 2616:0.164897 2617:0.0359742 2618:-0.332079 2619:-0.150166 2620:0.0813594 2621:-0.285237 2622:-0.481741 2623:-0.0854988 2624:-0.312279 2625:0.00423156 2626:0.617275 2627:0.440458 2628:-0.116436 2629:0.326935 2630:-0.419833 2631:-0.410139 2632:0.0399058 2633:0.373098 2634:0.731512 2635:0.0404408 2636:-0.118536 2637:-0.427371 2638:-0.113974 2639:0.357321 2640:-0.243349 2641:0.164897 2642:0.0359742 2643:-0.332079 2644:-0.150166 2645:0.0813594 2646:-0.285237 2647:-0.481741 2648:-0.0854988 2649:-0.312279 2650:0.00423156 2651:0.114837 2652:-0.129431 2653:-0.259369 2654:-0.399254 2655:0.0328532 2656:0.0195942 2657:-0.223059 2658:0.0446642 2659:-0.184866 2660:-0.337353 2661:-0.492592 2662:-0.257606 2663:0.126952 2664:0.113461 2665:-0.327628 2666:-0.553061 2667:0.155712 2668:0.165369 2669:0.404988 2670:-0.183981 2671:-0.333945 2672:0.0772531 2673:-0.30519 2674:0.0142712 2675:0.221843 2676:0.114837 2677:-0.129431 2678:-0.259369 2679:-0.399254 2680:0.0328532 2681:0.0195942 2682:-0.223059 2683:0.0446642 2684:-0.184866 2685:-0.337353 2686:-0.492592 2687:-0.257606 2688:0.126952 2689:0.113461 2690:-0.327628 2691:-0.553061 2692:0.155712 2693:0.165369 2694:0.404988 2695:-0.183981 2696:-0.333945 2697:0.0772531 2698:-0.30519 2699:0.0142712 2700:0.221843 2701:-0.266975 2702:0.167834 2703:-0.628068 2704:-0.216389 2705:-0.0805905 2706:-1 2707:-0.113218 2708:0.122501 2709:-0.401504 2710:0.212283 2711:0.0556598 2712:-0.0640359 2713:-0.905583 2714:-0.337827 2715:0.0614321 2716:-0.301915 2717:-0.0903068 2718:-0.377922 2719:-0.101483 2720:0.394501 2721:-0.010768 2722:-0.342876 2723:-0.127115 2724:0.792366 2725:0.43578 2726:-0.266975 2727:0.167834 2728:-0.628068 2729:-0.216389 2730:-0.0805905 2731:-1 2732:-0.113218 2733:0.122501 2734:-0.401504 2735:0.212283 2736:0.0556598 2737:-0.0640359 2738:-0.905583 2739:-0.337827 2740:0.0614321 2741:-0.301915 2742:-0.0903068 2743:-0.377922 2744:-0.101483 2745:0.394501 2746:-0.010768 2747:-0.342876 2748:-0.127115 2749:0.792366 2750:0.43578 2751:0.0566959 2752:0.183303 2753:0.398345 2754:0.814321 2755:0.543544 2756:0.421547 2757:0.139999 2758:-0.202036 2759:0.277011 2760:-0.133806 2761:0.371279 2762:0.686737 2763:0.192142 2764:-0.293445 2765:0.147921 2766:0.234544 2767:0.00172616 2768:0.224274 2769:0.365866 2770:-0.512763 2771:0.117201 2772:-0.189715 2773:0.195062 2774:0.504967 2775:0.750871 2776:0.0566959 2777:0.183303 2778:0.398345 2779:0.814321 2780:0.543544 2781:0.421547 2782:0.139999 2783:-0.202036 2784:0.277011 2785:-0.133806 2786:0.371279 2787:0.686737 2788:0.192142 2789:-0.293445 2790:0.147921 2791:0.234544 2792:0.00172616 2793:0.224274 2794:0.365866 2795:-0.512763 2796:0.117201 2797:-0.189715 2798:0.195062 2799:0.504967 2800:0.750871 2801:0.553718 2802:-0.678493 2803:-0.264026 2804:0.0414635 2805:0.599014 2806:-0.406308 2807:-0.603075 2808:0.292773 2809:-0.535305 2810:-0.112108 2811:-0.249549 2812:-0.253172 2813:0.00802642 2814:-0.264191 2815:-0.0553538 2816:0.0613375 2817:0.236622 2818:-0.0363087 2819:0.187016 2820:0.23979 2821:-0.100613 2822:-0.158906 2823:-0.0536582 2824:0.157835 2825:-0.0599642 2826:0.553718 2827:-0.678493 2828:-0.264026 2829:0.0414635 2830:0.599014 2831:-0.406308 2832:-0.603075 2833:0.292773 2834:-0.535305 2835:-0.112108 2836:-0.249549 2837:-0.253172 2838:0.00802642 2839:-0.264191 2840:-0.0553538 2841:0.0613375 2842:0.236622 2843:-0.0363087 2844:0.187016 2845:0.23979 2846:-0.100613 2847:-0.158906 2848:-0.0536582 2849:0.157835 2850:-0.0599642 2851:0.375675 2852:0.0896095 2853:0.289708 2854:0.869167 2855:0.738423 2856:-0.147732 2857:0.746159 2858:-0.359995 2859:0.0900761 2860:-0.748203 2861:0.626364 2862:0.629041 2863:-0.28449 2864:-0.168971 2865:0.127224 2866:0.623886 2867:0.0885695 2868:0.118487 2869:0.403818 2870:-0.192684 2871:-0.668361 2872:-0.170175 2873:0.636952 2874:0.52238 2875:0.593656 2876:0.375675 2877:0.0896095 2878:0.289708 2879:0.869167 2880:0.738423 2881:-0.147732 2882:0.746159 2883:-0.359995 2884:0.0900761 2885:-0.748203 2886:0.626364 2887:0.629041 2888:-0.28449 2889:-0.168971 2890:0.127224 2891:0.623886 2892:0.0885695 2893:0.118487 2894:0.403818 2895:-0.192684 2896:-0.668361 2897:-0.170175 2898:0.636952 2899:0.52238 2900:0.593656 2901:0.750536 2902:-0.584133 2903:-0.648783 2904:0.638065 2905:-0.264496 2906:0.17072 2907:0.143152 2908:0.706164 2909:-0.697063 2910:-0.490409 2911:0.594646 2912:0.0793892 2913:1 2914:-0.181752 2915:-0.286523 2916:-0.154363 2917:0.202949 2918:-0.261299 2919:-0.726389 2920:0.240679 2921:0.229068 2922:0.463758 2923:-0.0610089 2924:0.140892 2925:0.356157 2926:0.750536 2927:-0.584133 2928:-0.648783 2929:0.638065 2930:-0.264496 2931:0.17072 2932:0.143152 2933:0.706164 2934:-0.697063 2935:-0.490409 2936:0.594646 2937:0.0793892 2938:1 2939:-0.181752 2940:-0.286523 2941:-0.154363 2942:0.202949 2943:-0.261299 2944:-0.726389 2945:0.240679 2946:0.229068 2947:0.463758 2948:-0.0610089 2949:0.140892 2950:0.356157 2951:0.38464 2952:-0.577446 2953:0.030822 2954:0.501808 2955:0.612654 2956:0.0325992 2957:0.703008 2958:0.0600215 2959:0.648744 2960:-0.444096 2961:0.954842 2962:-0.22107 2963:-0.104501 2964:0.0402641 2965:-0.0682242 2966:-0.0481634 2967:0.0760159 2968:-0.866774 2969:-0.202563 2970:-0.179117 2971:0.563281 2972:-0.0275071 2973:-0.606422 2974:-0.00271508 2975:0.101753 2976:0.38464 2977:-0.577446 2978:0.030822 2979:0.501808 2980:0.612654 2981:0.0325992 2982:0.703008 2983:0.0600215 2984:0.648744 2985:-0.444096 2986:0.954842 2987:-0.22107 2988:-0.104501 2989:0.0402641 2990:-0.0682242 2991:-0.0481634 2992:0.0760159 2993:-0.866774 2994:-0.202563 2995:-0.179117 2996:0.563281 2997:-0.0275071 2998:-0.606422 2999:-0.00271508 3000:0.101753 3001:0.04724 3002:0.100546 3003:-0.528322 3004:-0.705888 3005:-0.229708 3006:0.40724 3007:0.703388 3008:-0.203655 3009:0.743333 3010:-0.08786 3011:-0.690723 3012:-0.840778 3013:-0.32742 3014:-0.0821685 3015:0.784893 3016:-0.335046 3017:0.478529 3018:-0.763972 3019:-0.563061 3020:-0.340309 3021:-0.311575 3022:-0.369996 3023:0.433199 3024:0.0098547 3025:0.740707 3026:0.04724 3027:0.100546 3028:-0.528322 3029:-0.705888 3030:-0.229708 3031:0.40724 3032:0.703388 3033:-0.203655 3034:0.743333 3035:-0.08786 3036:-0.690723 3037:-0.840778 3038:-0.32742 3039:-0.0821685 3040:0.784893 3041:-0.335046 3042:0.478529 3043:-0.763972 3044:-0.563061 3045:-0.340309 3046:-0.311575 3047:-0.369996 3048:0.433199 3049:0.0098547 3050:0.740707 3051:-0.227537 3052:-0.495508 3053:-0.579525 3054:0.453091 3055:-0.443059 3056:0.517415 3057:0.536172 3058:0.494257 3059:-0.0621993 3060:-0.129185 3061:0.653355 3062:-0.0651065 3063:0.346695 3064:0.0511568 3065:-0.499116 3066:-0.0623467 3067:0.420771 3068:-0.0380818 3069:-0.344577 3070:0.00966607 3071:0.0631551 3072:0.523887 3073:-0.174394 3074:-0.147647 3075:-0.145567 3076:0.545329 3077:-0.415817 3078:-0.118102 3079:0.510651 3080:-0.722511 3081:0.400577 3082:0.481227 3083:0.123704 3084:-0.520721 3085:-0.147568 3086:0.381171 3087:0.132302 3088:0.188595 3089:-0.147573 3090:-0.381672 3091:-0.0738345 3092:-0.898766 3093:-0.258815 3094:-0.271266 3095:-0.28479 3096:0.214436 3097:-0.189877 3098:-0.0961227 3099:-0.00454673 3100:-0.407357 3101:0.545329 3102:-0.415817 3103:-0.118102 3104:0.510651 3105:-0.722511 3106:0.400577 3107:0.481227 3108:0.123704 3109:-0.520721 3110:-0.147568 3111:0.381171 3112:0.132302 3113:0.188595 3114:-0.147573 3115:-0.381672 3116:-0.0738345 3117:-0.898766 3118:-0.258815 3119:-0.271266 3120:-0.28479 3121:0.214436 3122:-0.189877 3123:-0.0961227 3124:-0.00454673 3125:-0.407357 3126:0.331024 3127:-0.0748143 3128:-0.767443 3129:0.29239 3130:0.517971 3131:0.0142422 3132:0.839136 3133:0.571467 3134:-0.0731138 3135:-0.849434 3136:0.396664 3137:0.783535 3138:-0.489196 3139:0.439437 3140:0.396388 3141:0.263811 3142:-0.122971 3143:-0.406112 3144:0.130521 3145:0.304845 3146:-0.328078 3147:-0.268261 3148:-0.21233 3149:-0.247162 3150:0.636309 3151:0.331024 3152:-0.0748143 3153:-0.767443 3154:0.29239 3155:0.517971 3156:0.0142422 3157:0.839136 3158:0.571467 3159:-0.0731138 3160:-0.849434 3161:0.396664 3162:0.783535 3163:-0.489196 3164:0.439437 3165:0.396388 3166:0.263811 3167:-0.122971 3168:-0.406112 3169:0.130521 3170:0.304845 3171:-0.328078 3172:-0.268261 3173:-0.21233 3174:-0.247162 3175:0.636309 3176:-0.148362 3177:0.420291 3178:-0.0732522 3179:-0.0790811 3180:0.43253 3181:0.323035 3182:0.392674 3183:-0.109442 3184:-0.654828 3185:0.798598 3186:0.94863 3187:0.596378 3188:0.478796 3189:-0.0747364 3190:0.0401824 3191:0.632351 3192:0.123266 3193:-0.277551 3194:-0.468027 3195:0.353709 3196:0.452803 3197:-0.439564 3198:-0.7071 3199:0.502192 3200:0.0728266 
