~o
<STREAMINFO> 1 25
<VECSIZE> 25<NULLD><MFCC_E_D_N><DIAGC>
~h "jmodel"
<BEGINHMM>
<NUMSTATES> 3
<STATE> 2
<NUMMIXES> 128
<MIXTURE> 1 5.748963e-03
<MEAN> 25
 -2.584124e+00 3.181592e+00 2.312234e+00 8.755454e+00 4.372196e+00 3.449494e+00 4.062793e+00 3.935604e+00 5.832223e+00 5.253428e+00 5.885075e+00 3.080382e+00 -2.004813e+00 -1.634988e+00 -8.643260e-01 1.076134e+00 1.560904e+00 2.232676e+00 2.154736e+00 2.085166e+00 1.693629e+00 1.269774e+00 1.567636e+00 6.133566e-01 -4.692886e-02
<VARIANCE> 25
 1.006376e+01 1.176037e+01 1.494536e+01 1.868114e+01 2.319245e+01 2.215161e+01 2.189576e+01 2.197747e+01 2.099952e+01 2.253748e+01 2.094732e+01 1.708271e+01 1.788818e+00 2.111583e+00 3.026224e+00 3.210070e+00 3.739586e+00 3.356653e+00 3.318726e+00 3.380277e+00 3.521665e+00 3.727133e+00 3.513623e+00 2.834395e+00 3.121752e-03
<GCONST> 8.846407e+01
<MIXTURE> 2 4.549242e-03
<MEAN> 25
 -4.874787e+00 1.311862e+00 9.942499e-01 9.897600e+00 6.691001e+00 7.423667e+00 7.846481e+00 6.958047e+00 8.372731e+00 6.372754e+00 7.623412e+00 3.074133e+00 -6.203131e-02 4.168231e-02 1.423997e-01 2.258457e-01 2.651167e-01 2.812847e-01 2.955785e-01 3.195928e-01 3.496866e-01 3.086841e-01 1.970619e-01 8.002595e-02 1.545442e-06
<VARIANCE> 25
 6.954996e+00 8.900346e+00 1.064925e+01 1.593298e+01 1.724095e+01 1.556523e+01 1.689954e+01 1.848240e+01 1.658508e+01 1.738321e+01 1.811281e+01 1.433935e+01 1.252325e-01 2.266477e-01 3.365036e-01 4.670759e-01 6.493396e-01 8.148165e-01 9.298350e-01 1.003000e+00 1.051575e+00 1.077843e+00 1.075533e+00 1.013755e+00 1.000493e-06
<GCONST> 5.804444e+01
<MIXTURE> 3 4.549242e-03
<MEAN> 25
 -4.874787e+00 1.311862e+00 9.942499e-01 9.897600e+00 6.691001e+00 7.423667e+00 7.846481e+00 6.958047e+00 8.372731e+00 6.372754e+00 7.623412e+00 3.074133e+00 -6.203131e-02 4.168231e-02 1.423997e-01 2.258457e-01 2.651167e-01 2.812847e-01 2.955785e-01 3.195928e-01 3.496866e-01 3.086841e-01 1.970619e-01 8.002595e-02 1.545442e-06
<VARIANCE> 25
 6.954996e+00 8.900346e+00 1.064925e+01 1.593298e+01 1.724095e+01 1.556523e+01 1.689954e+01 1.848240e+01 1.658508e+01 1.738321e+01 1.811281e+01 1.433935e+01 1.252325e-01 2.266477e-01 3.365036e-01 4.670759e-01 6.493396e-01 8.148165e-01 9.298350e-01 1.003000e+00 1.051575e+00 1.077843e+00 1.075533e+00 1.013755e+00 1.000493e-06
<GCONST> 5.804444e+01
<MIXTURE> 4 1.671429e-02
<MEAN> 25
 3.441364e+00 2.551114e+00 -3.800925e+00 9.387776e-01 4.324169e+00 -2.123374e-01 7.317481e-02 9.656169e-03 1.506694e+00 1.302195e+00 -1.888284e+00 1.044127e-01 -2.772107e+00 1.218074e+00 1.778190e+00 3.092257e+00 9.219279e-01 5.018407e-01 1.518234e+00 1.044265e+00 9.764325e-01 4.319080e-01 1.241548e+00 8.999116e-01 -1.041092e-01
<VARIANCE> 25
 2.117845e+01 2.952818e+01 2.922112e+01 3.982687e+01 4.574780e+01 6.881474e+01 6.535378e+01 5.379322e+01 5.544759e+01 6.222157e+01 4.980527e+01 3.594474e+01 2.348881e+00 5.057637e+00 3.736387e+00 4.946120e+00 5.022097e+00 6.164844e+00 6.105471e+00 5.576970e+00 5.970115e+00 6.436779e+00 6.122196e+00 4.466292e+00 6.090606e-03
<GCONST> 1.055088e+02
<MIXTURE> 5 3.206198e-03
<MEAN> 25
 -3.416628e+00 2.181107e+00 6.105355e-01 9.427593e+00 6.696513e+00 6.315668e+00 7.111499e+00 4.723078e+00 5.495559e+00 3.847596e+00 4.657833e+00 2.606065e+00 -3.245589e-01 7.528595e-01 1.224705e+00 1.032563e+00 3.075434e-01 -1.002130e-01 -8.358395e-02 3.381969e-02 4.581343e-01 6.837823e-01 4.039019e-01 8.818822e-02 -2.756463e-05
<VARIANCE> 25
 1.025139e+01 1.394151e+01 2.348391e+01 2.562586e+01 2.022184e+01 1.942452e+01 2.011913e+01 2.035837e+01 2.141896e+01 2.128591e+01 2.410065e+01 1.636191e+01 1.210030e+00 1.244265e+00 1.357147e+00 1.673431e+00 2.284688e+00 2.376087e+00 2.301624e+00 2.275812e+00 2.315420e+00 2.238072e+00 2.085479e+00 1.873974e+00 1.000281e-06
<GCONST> 7.516723e+01
<MIXTURE> 6 5.475854e-03
<MEAN> 25
 9.699257e+00 -4.203076e-01 -6.689782e+00 -1.103848e+01 -2.117071e+00 6.729462e+00 -5.899443e+00 -5.296696e+00 -3.656552e+00 1.830078e+00 4.644849e+00 -1.249459e+00 4.850596e-01 8.958994e-01 -3.513109e-01 -1.468041e+00 -6.380195e-01 1.314475e+00 1.536444e+00 2.483256e-01 -1.218646e+00 -1.218045e+00 3.224214e-01 1.228132e+00 -8.146780e-03
<VARIANCE> 25
 8.978588e+00 1.708200e+01 2.395219e+01 3.920151e+01 3.676380e+01 3.069495e+01 4.405394e+01 3.805660e+01 4.073568e+01 3.945640e+01 4.208797e+01 2.841822e+01 3.114569e-01 8.574060e-01 9.451644e-01 1.978274e+00 1.605230e+00 2.015343e+00 1.918566e+00 2.051997e+00 2.397719e+00 1.963005e+00 2.245780e+00 1.438171e+00 5.864276e-04
<GCONST> 8.387666e+01
<MIXTURE> 7 5.475854e-03
<MEAN> 25
 9.699257e+00 -4.203076e-01 -6.689782e+00 -1.103848e+01 -2.117071e+00 6.729462e+00 -5.899443e+00 -5.296696e+00 -3.656552e+00 1.830078e+00 4.644849e+00 -1.249459e+00 4.850596e-01 8.958994e-01 -3.513109e-01 -1.468041e+00 -6.380195e-01 1.314475e+00 1.536444e+00 2.483256e-01 -1.218646e+00 -1.218045e+00 3.224214e-01 1.228132e+00 -8.146780e-03
<VARIANCE> 25
 8.978588e+00 1.708200e+01 2.395219e+01 3.920151e+01 3.676380e+01 3.069495e+01 4.405394e+01 3.805660e+01 4.073568e+01 3.945640e+01 4.208797e+01 2.841822e+01 3.114569e-01 8.574060e-01 9.451644e-01 1.978274e+00 1.605230e+00 2.015343e+00 1.918566e+00 2.051997e+00 2.397719e+00 1.963005e+00 2.245780e+00 1.438171e+00 5.864276e-04
<GCONST> 8.387666e+01
<MIXTURE> 8 1.165917e-02
<MEAN> 25
 -4.730320e+00 1.362825e+00 1.292750e+00 9.559900e+00 6.575481e+00 6.255202e+00 6.480119e+00 5.688783e+00 6.659309e+00 5.632592e+00 6.573779e+00 3.153097e+00 -6.298331e-01 -1.425829e+00 -1.071370e+00 -1.731296e+00 -2.311880e-01 -9.456044e-01 -1.777637e-01 -2.896143e-01 -2.530347e-01 -1.740465e-01 -2.133992e-01 8.128357e-02 9.889641e-02
<VARIANCE> 25
 9.340027e+00 9.847264e+00 1.161116e+01 1.605310e+01 1.663492e+01 1.570609e+01 1.812848e+01 1.751129e+01 1.704206e+01 1.737495e+01 1.887413e+01 1.399769e+01 2.757283e+00 2.815402e+00 3.907048e+00 3.761810e+00 3.456009e+00 3.316004e+00 3.128994e+00 3.080770e+00 2.871963e+00 2.655849e+00 2.434866e+00 1.902042e+00 6.681927e-03
<GCONST> 8.628760e+01
<MIXTURE> 9 1.199672e-02
<MEAN> 25
 9.298963e+00 3.394004e+00 -6.207265e+00 -1.067360e+01 -2.213557e+00 4.966648e+00 -2.208639e+00 -2.304588e+00 -5.394220e+00 -1.257239e+00 5.691231e-01 -8.475743e-03 1.439998e+00 -1.291569e-01 -4.911641e-01 -2.704652e+00 -1.646342e+00 8.559620e-01 -9.720903e-01 -2.308485e-01 -1.801405e-01 -5.772417e-01 6.143045e-01 -1.526125e-01 7.334750e-02
<VARIANCE> 25
 1.223788e+01 2.139963e+01 3.356165e+01 5.350288e+01 5.015937e+01 3.229487e+01 4.318714e+01 5.215064e+01 4.206652e+01 4.158233e+01 3.610761e+01 2.692280e+01 2.091745e+00 2.450759e+00 4.572016e+00 4.874881e+00 5.009024e+00 4.096084e+00 4.236800e+00 6.040472e+00 5.037887e+00 4.078547e+00 4.016169e+00 2.803690e+00 2.212071e-03
<GCONST> 9.879635e+01
<MIXTURE> 10 6.596976e-03
<MEAN> 25
 8.210059e-01 7.634367e+00 5.375957e+00 7.148989e+00 1.587359e+00 -2.115164e+00 -5.181956e-01 -1.685375e+00 8.743564e-01 8.599326e-01 8.390179e-01 6.573990e-01 -1.924940e+00 -6.733400e-01 -4.585977e-01 3.028214e+00 2.463276e+00 2.710474e+00 2.373911e+00 2.277892e+00 1.861639e+00 1.545136e+00 2.335875e+00 5.248725e-01 -1.381432e-01
<VARIANCE> 25
 1.954187e+01 2.068566e+01 2.230444e+01 2.906123e+01 3.831321e+01 3.494081e+01 3.514595e+01 3.384125e+01 2.761283e+01 2.904954e+01 2.695905e+01 2.501452e+01 2.234845e+00 3.426175e+00 5.535602e+00 5.169560e+00 5.552354e+00 4.469520e+00 4.699816e+00 4.843578e+00 4.388601e+00 5.021101e+00 4.442219e+00 3.191094e+00 2.696751e-03
<GCONST> 9.745956e+01
<MIXTURE> 11 1.633820e-02
<MEAN> 25
 7.612773e+00 4.137574e+00 3.337443e+00 5.006997e+00 -3.289705e+00 -2.365210e+00 -2.651541e+00 -6.432468e+00 -3.515383e+00 1.005898e-01 -2.330773e+00 -1.894500e+00 -2.705634e-01 5.041879e-01 1.762410e-01 2.649711e-01 4.648237e-01 -5.949979e-02 2.387586e-01 -1.698067e-01 -1.463950e-01 -2.253429e-02 -1.400230e-01 1.736546e-01 -1.603603e-02
<VARIANCE> 25
 1.149291e+01 2.421880e+01 2.034944e+01 3.107137e+01 3.739182e+01 3.904815e+01 4.742279e+01 4.263855e+01 4.209197e+01 3.417813e+01 3.522681e+01 2.982405e+01 9.092385e-01 1.253626e+00 1.632719e+00 2.138497e+00 2.031143e+00 2.104443e+00 2.091454e+00 2.807215e+00 2.141842e+00 1.953346e+00 1.882397e+00 1.544555e+00 9.658937e-04
<GCONST> 8.731179e+01
<MIXTURE> 12 5.904134e-03
<MEAN> 25
 1.076532e+01 3.743528e+00 -4.502511e+00 -1.599323e+01 -8.696246e+00 8.642321e+00 -8.969018e-01 -1.922131e+00 -1.723140e+00 -4.886578e+00 1.774630e+00 7.166716e-01 6.775238e-02 2.938029e-01 7.961743e-02 -3.682933e-01 -3.103066e-01 2.953750e-02 3.055019e-01 4.478026e-01 1.410562e-01 -3.847184e-01 -3.856037e-01 5.391176e-02 -6.303036e-03
<VARIANCE> 25
 8.884727e+00 2.100272e+01 2.335608e+01 3.504034e+01 4.205945e+01 3.096390e+01 4.179666e+01 4.898096e+01 4.406337e+01 3.738920e+01 3.799794e+01 2.892661e+01 2.468000e-01 6.883513e-01 6.860287e-01 1.169879e+00 1.186429e+00 1.053862e+00 1.171075e+00 1.386178e+00 1.240553e+00 1.222218e+00 1.221444e+00 9.564413e-01 5.786454e-04
<GCONST> 7.892094e+01
<MIXTURE> 13 5.904134e-03
<MEAN> 25
 1.076532e+01 3.743528e+00 -4.502511e+00 -1.599323e+01 -8.696246e+00 8.642321e+00 -8.969018e-01 -1.922131e+00 -1.723140e+00 -4.886578e+00 1.774630e+00 7.166716e-01 6.775238e-02 2.938029e-01 7.961743e-02 -3.682933e-01 -3.103066e-01 2.953750e-02 3.055019e-01 4.478026e-01 1.410562e-01 -3.847184e-01 -3.856037e-01 5.391176e-02 -6.303036e-03
<VARIANCE> 25
 8.884727e+00 2.100272e+01 2.335608e+01 3.504034e+01 4.205945e+01 3.096390e+01 4.179666e+01 4.898096e+01 4.406337e+01 3.738920e+01 3.799794e+01 2.892661e+01 2.468000e-01 6.883513e-01 6.860287e-01 1.169879e+00 1.186429e+00 1.053862e+00 1.171075e+00 1.386178e+00 1.240553e+00 1.222218e+00 1.221444e+00 9.564413e-01 5.786454e-04
<GCONST> 7.892094e+01
<MIXTURE> 14 6.488954e-03
<MEAN> 25
 -4.322948e+00 -3.862745e-01 -3.113891e-01 8.895972e+00 7.510795e+00 7.384360e+00 7.830764e+00 7.324865e+00 7.248692e+00 5.227438e+00 6.866591e+00 4.099067e+00 -2.742128e-01 1.931327e-01 3.656071e-01 3.099509e-01 8.551951e-03 6.151940e-02 9.739745e-02 1.774966e-01 2.939218e-01 5.394156e-01 5.068316e-01 7.435904e-02 -9.338946e-03
<VARIANCE> 25
 9.293172e+00 1.389427e+01 1.862447e+01 1.806822e+01 2.090569e+01 1.957341e+01 2.148190e+01 2.061915e+01 2.009617e+01 2.390201e+01 2.135564e+01 1.597595e+01 9.620044e-01 1.639584e+00 1.772241e+00 1.934405e+00 2.247262e+00 2.260181e+00 2.256151e+00 2.239054e+00 2.286825e+00 2.508445e+00 2.194538e+00 1.814290e+00 1.030888e-03
<GCONST> 8.192461e+01
<MIXTURE> 15 2.475190e-03
<MEAN> 25
 -5.398644e+00 -6.390773e-01 -2.025709e-01 7.350708e+00 5.712030e+00 5.703258e+00 6.056150e+00 4.965192e+00 5.146655e+00 4.134228e+00 5.479450e+00 2.538631e+00 -1.184267e-01 -2.926446e-02 7.242116e-02 2.415255e-01 4.894288e-01 7.831228e-01 1.072471e+00 1.180456e+00 1.061158e+00 7.535796e-01 4.260392e-01 1.609317e-01 -7.020502e-05
<VARIANCE> 25
 7.093959e+00 5.588790e+00 9.004034e+00 1.283641e+01 1.404381e+01 1.425556e+01 1.486711e+01 1.489789e+01 1.411720e+01 1.423141e+01 1.517310e+01 1.246323e+01 1.270960e-01 2.062358e-01 3.198784e-01 5.019714e-01 6.986643e-01 7.929499e-01 7.614104e-01 7.911040e-01 9.077884e-01 1.023363e+00 1.077273e+00 1.050342e+00 2.789563e-05
<GCONST> 5.861654e+01
<MIXTURE> 16 2.475190e-03
<MEAN> 25
 -5.398644e+00 -6.390773e-01 -2.025709e-01 7.350708e+00 5.712030e+00 5.703258e+00 6.056150e+00 4.965192e+00 5.146655e+00 4.134228e+00 5.479450e+00 2.538631e+00 -1.184267e-01 -2.926446e-02 7.242116e-02 2.415255e-01 4.894288e-01 7.831228e-01 1.072471e+00 1.180456e+00 1.061158e+00 7.535796e-01 4.260392e-01 1.609317e-01 -7.020502e-05
<VARIANCE> 25
 7.093959e+00 5.588790e+00 9.004034e+00 1.283641e+01 1.404381e+01 1.425556e+01 1.486711e+01 1.489789e+01 1.411720e+01 1.423141e+01 1.517310e+01 1.246323e+01 1.270960e-01 2.062358e-01 3.198784e-01 5.019714e-01 6.986643e-01 7.929499e-01 7.614104e-01 7.911040e-01 9.077884e-01 1.023363e+00 1.077273e+00 1.050342e+00 2.789563e-05
<GCONST> 5.861654e+01
<MIXTURE> 17 9.518312e-03
<MEAN> 25
 3.506942e+00 -5.710627e-01 5.990990e+00 2.013457e+00 -5.870115e+00 -6.078923e+00 -3.096085e+00 -3.180814e-01 -2.452870e+00 -3.212336e+00 -7.118092e-02 3.748595e-01 -8.970857e-01 -1.290970e+00 1.195236e+00 -2.154566e+00 -2.184278e+00 1.254207e-01 2.466069e-01 7.200519e-01 -1.597110e-01 -1.802000e-01 8.890805e-01 3.198920e-01 8.320414e-02
<VARIANCE> 25
 1.602241e+01 2.962767e+01 2.967203e+01 3.836799e+01 4.214490e+01 4.633655e+01 3.909059e+01 3.195042e+01 3.420822e+01 2.492094e+01 2.643511e+01 2.745532e+01 1.891950e+00 2.599921e+00 3.853641e+00 2.855737e+00 4.157599e+00 5.947682e+00 4.709804e+00 4.460033e+00 3.956599e+00 3.839304e+00 3.110349e+00 2.637177e+00 2.011948e-03
<GCONST> 9.605025e+01
<MIXTURE> 18 1.221018e-02
<MEAN> 25
 3.953893e+00 4.621976e+00 6.746225e+00 4.741972e+00 -4.614706e+00 -8.360024e+00 -1.743913e+00 -1.171703e+00 -3.371203e+00 -2.454976e+00 -8.805633e-01 5.782413e-01 -7.619069e-01 2.161331e+00 -1.997811e-01 2.032474e+00 3.117371e+00 1.484779e+00 8.039185e-01 -2.110743e-01 6.188624e-01 5.193300e-01 -2.901191e-01 -6.136777e-02 -1.239018e-01
<VARIANCE> 25
 1.609002e+01 2.532918e+01 3.289152e+01 2.616818e+01 4.004733e+01 3.366097e+01 3.867928e+01 3.512593e+01 3.920259e+01 3.453508e+01 3.253980e+01 3.097595e+01 2.563117e+00 3.033699e+00 4.736273e+00 4.049960e+00 4.092656e+00 4.671707e+00 4.657287e+00 4.454930e+00 4.488985e+00 4.314204e+00 4.570856e+00 3.627809e+00 4.106798e-03
<GCONST> 9.852676e+01
<MIXTURE> 19 9.912824e-03
<MEAN> 25
 -9.611246e+00 1.295805e+00 5.396842e-01 3.934964e-01 3.730070e+00 2.167099e+00 3.359290e+00 9.152548e-01 1.538747e+00 1.256239e+00 9.171884e-01 1.338516e+00 2.007209e+00 1.722831e+00 2.075469e+00 7.450103e-01 -9.023679e-01 -9.260820e-01 -9.093266e-01 -1.336080e+00 -1.631718e+00 -1.279668e+00 -8.322772e-01 -7.887827e-01 -6.256890e-03
<VARIANCE> 25
 5.030424e+01 2.928464e+01 4.373414e+01 5.178703e+01 3.092681e+01 3.205127e+01 2.834502e+01 2.719071e+01 2.791360e+01 2.445583e+01 2.758787e+01 2.174963e+01 2.212393e+00 1.999542e+00 2.054157e+00 2.105026e+00 2.505255e+00 2.156915e+00 2.435003e+00 2.213207e+00 2.075206e+00 2.084563e+00 2.021961e+00 1.602385e+00 2.617383e-03
<GCONST> 9.045384e+01
<MIXTURE> 20 6.308331e-03
<MEAN> 25
 -1.416315e+01 7.384370e+00 8.375463e-01 6.113688e+00 4.819684e+00 1.641426e+00 5.193315e+00 8.556112e-01 9.292403e-01 7.909404e-01 2.565595e+00 -2.970302e-01 -3.283927e+00 -8.704885e-01 -1.562669e+00 3.281880e-01 1.541245e+00 2.064820e+00 1.977608e+00 2.052182e+00 2.140491e+00 2.041221e+00 1.683530e+00 9.393561e-01 4.745826e-02
<VARIANCE> 25
 1.974839e+01 2.379879e+01 3.090662e+01 3.767528e+01 3.099769e+01 2.783063e+01 2.995860e+01 3.139843e+01 2.791268e+01 2.816692e+01 2.510170e+01 2.087702e+01 2.088391e+00 2.181928e+00 1.907599e+00 2.542652e+00 2.695997e+00 2.308531e+00 2.305382e+00 2.320637e+00 2.236604e+00 2.645994e+00 2.236409e+00 1.874976e+00 1.889097e-03
<GCONST> 8.923598e+01
<MIXTURE> 21 7.928653e-03
<MEAN> 25
 3.972334e+00 -4.441990e+00 5.663191e+00 -1.545941e+00 -1.051440e+01 -8.712466e+00 -2.672817e+00 4.097055e+00 -2.048254e+00 -3.353416e+00 2.327318e-01 3.652372e-01 -7.122493e-01 1.309752e+00 2.543147e+00 -5.853487e-02 -1.538189e+00 3.282234e-01 5.582655e-01 -1.515078e+00 -1.959325e+00 2.881338e-01 1.301488e+00 2.597025e-01 -1.271611e-02
<VARIANCE> 25
 8.811562e+00 1.886602e+01 2.985209e+01 2.794688e+01 2.837340e+01 3.265656e+01 4.239869e+01 3.904340e+01 4.223097e+01 3.124083e+01 3.333024e+01 2.292140e+01 3.739278e-01 9.941384e-01 1.945637e+00 1.279601e+00 2.185422e+00 2.156851e+00 3.645601e+00 2.491940e+00 2.140408e+00 2.589723e+00 2.024092e+00 2.255747e+00 4.216068e-04
<GCONST> 8.499293e+01
<MIXTURE> 22 8.827789e-03
<MEAN> 25
 -1.792091e+01 7.154785e+00 -4.131347e+00 7.392482e+00 4.602546e+00 2.761039e+00 8.399819e+00 1.748462e+00 5.379299e+00 3.301012e+00 5.716434e+00 1.185148e+00 -3.095726e-01 -2.075880e-01 -1.255633e-01 -1.492641e-01 -7.208806e-03 1.369678e-01 1.807591e-01 1.779423e-01 2.484757e-01 2.073076e-01 1.726615e-01 1.924446e-01 8.857626e-03
<VARIANCE> 25
 8.116920e+00 1.682541e+01 1.738343e+01 2.517213e+01 2.289636e+01 2.083704e+01 1.943101e+01 1.871084e+01 1.813996e+01 2.086667e+01 1.924184e+01 1.378720e+01 1.090756e+00 1.357369e+00 1.363971e+00 1.572030e+00 1.408815e+00 1.526971e+00 1.508942e+00 1.532825e+00 1.614233e+00 1.544764e+00 1.357418e+00 1.168007e+00 1.745583e-03
<GCONST> 7.830949e+01
<MIXTURE> 23 6.455497e-03
<MEAN> 25
 7.465653e+00 2.236967e+00 2.617814e+00 2.234532e+00 -4.686150e+00 -3.460024e+00 -4.277271e+00 -6.173643e+00 -3.360661e+00 -1.081596e+00 -3.613539e+00 -1.740690e+00 1.553495e-02 2.236427e-01 3.546308e-02 1.873415e-02 -2.649819e-02 1.146157e-02 -3.230456e-02 -3.969024e-02 7.782482e-02 4.511614e-02 2.229577e-02 3.544093e-02 -5.373633e-03
<VARIANCE> 25
 1.153760e+01 2.079944e+01 2.391667e+01 3.725821e+01 3.505409e+01 5.016628e+01 5.445046e+01 5.118417e+01 4.461468e+01 4.349425e+01 4.676364e+01 3.831970e+01 1.194989e-01 3.421419e-01 3.597187e-01 4.706751e-01 5.713916e-01 6.935599e-01 7.897894e-01 9.317972e-01 9.543322e-01 9.159622e-01 8.613312e-01 7.315999e-01 1.030648e-04
<GCONST> 7.270493e+01
<MIXTURE> 24 6.455497e-03
<MEAN> 25
 7.465653e+00 2.236967e+00 2.617814e+00 2.234532e+00 -4.686150e+00 -3.460024e+00 -4.277271e+00 -6.173643e+00 -3.360661e+00 -1.081596e+00 -3.613539e+00 -1.740690e+00 1.553495e-02 2.236427e-01 3.546308e-02 1.873415e-02 -2.649819e-02 1.146157e-02 -3.230456e-02 -3.969024e-02 7.782482e-02 4.511614e-02 2.229577e-02 3.544093e-02 -5.373633e-03
<VARIANCE> 25
 1.153760e+01 2.079944e+01 2.391667e+01 3.725821e+01 3.505409e+01 5.016628e+01 5.445046e+01 5.118417e+01 4.461468e+01 4.349425e+01 4.676364e+01 3.831970e+01 1.194989e-01 3.421419e-01 3.597187e-01 4.706751e-01 5.713916e-01 6.935599e-01 7.897894e-01 9.317972e-01 9.543322e-01 9.159622e-01 8.613312e-01 7.315999e-01 1.030648e-04
<GCONST> 7.270493e+01
<MIXTURE> 25 1.118642e-02
<MEAN> 25
 2.949010e-01 3.477375e+00 1.677182e+01 -1.036141e+00 -1.132019e+01 -1.762324e+00 -4.993040e+00 -2.950316e+00 -6.940275e+00 -5.445525e+00 4.100951e+00 -1.640909e+00 -1.345934e-01 4.389525e-01 1.689156e-01 1.520497e-01 2.164954e-01 1.095749e-01 1.923663e-01 -1.700314e-01 -2.478282e-01 7.436856e-02 -7.312366e-02 -1.077925e-01 -1.291486e-02
<VARIANCE> 25
 8.845757e+00 2.221943e+01 2.111358e+01 2.865927e+01 3.173009e+01 4.109405e+01 2.734399e+01 2.997990e+01 2.834492e+01 3.658930e+01 2.093855e+01 2.759965e+01 5.958876e-01 1.446138e+00 1.403831e+00 1.381904e+00 2.274427e+00 2.036174e+00 1.747727e+00 1.633505e+00 1.535145e+00 1.648907e+00 1.348338e+00 1.296520e+00 1.282486e-03
<GCONST> 8.274303e+01
<MIXTURE> 26 7.727677e-03
<MEAN> 25
 2.137460e+00 -6.448951e+00 -1.035752e+01 -7.306472e-01 7.983517e+00 5.501833e+00 4.057073e+00 -2.735393e-01 2.267745e+00 -9.415779e-01 -2.875787e+00 -9.922757e-01 -6.504142e-01 6.267167e-01 3.681630e-01 6.954251e-01 1.812470e-01 2.462099e-01 2.914723e-01 3.336388e-01 2.806126e-01 8.517979e-02 3.855732e-01 4.207317e-01 -5.268976e-02
<VARIANCE> 25
 2.540763e+01 3.391706e+01 2.597799e+01 6.231813e+01 3.896825e+01 4.228629e+01 4.598168e+01 4.392944e+01 3.933858e+01 5.441356e+01 4.008729e+01 4.658439e+01 1.651134e+00 1.954232e+00 1.925034e+00 1.998173e+00 2.321859e+00 2.371970e+00 2.520852e+00 2.733783e+00 2.343696e+00 2.333036e+00 2.155626e+00 2.007713e+00 3.318636e-03
<GCONST> 9.392536e+01
<MIXTURE> 27 7.727677e-03
<MEAN> 25
 2.137460e+00 -6.448951e+00 -1.035752e+01 -7.306472e-01 7.983517e+00 5.501833e+00 4.057073e+00 -2.735393e-01 2.267745e+00 -9.415779e-01 -2.875787e+00 -9.922757e-01 -6.504142e-01 6.267167e-01 3.681630e-01 6.954251e-01 1.812470e-01 2.462099e-01 2.914723e-01 3.336388e-01 2.806126e-01 8.517979e-02 3.855732e-01 4.207317e-01 -5.268976e-02
<VARIANCE> 25
 2.540763e+01 3.391706e+01 2.597799e+01 6.231813e+01 3.896825e+01 4.228629e+01 4.598168e+01 4.392944e+01 3.933858e+01 5.441356e+01 4.008729e+01 4.658439e+01 1.651134e+00 1.954232e+00 1.925034e+00 1.998173e+00 2.321859e+00 2.371970e+00 2.520852e+00 2.733783e+00 2.343696e+00 2.333036e+00 2.155626e+00 2.007713e+00 3.318636e-03
<GCONST> 9.392536e+01
<MIXTURE> 28 5.036674e-03
<MEAN> 25
 -5.433916e+00 1.270756e-02 -1.561604e+00 6.594244e+00 5.224454e+00 3.518084e+00 5.398046e+00 3.122573e+00 3.911757e+00 2.376014e+00 2.620852e+00 3.200608e+00 -1.129858e-01 2.243782e-01 5.285081e-01 7.833762e-01 8.182745e-01 7.005138e-01 5.257258e-01 3.981024e-01 4.479902e-01 4.837802e-01 3.696081e-01 1.918687e-01 -7.602407e-06
<VARIANCE> 25
 1.050308e+01 8.328812e+00 1.214256e+01 1.496291e+01 1.469386e+01 1.768400e+01 1.810781e+01 1.899170e+01 1.719050e+01 1.683690e+01 2.065793e+01 1.510688e+01 2.579925e-01 3.363338e-01 4.062871e-01 4.636806e-01 6.250314e-01 8.471217e-01 1.055948e+00 1.157126e+00 1.103653e+00 1.029659e+00 1.036385e+00 1.066518e+00 1.006510e-06
<GCONST> 6.030196e+01
<MIXTURE> 29 5.036674e-03
<MEAN> 25
 -5.433916e+00 1.270756e-02 -1.561604e+00 6.594244e+00 5.224454e+00 3.518084e+00 5.398046e+00 3.122573e+00 3.911757e+00 2.376014e+00 2.620852e+00 3.200608e+00 -1.129858e-01 2.243782e-01 5.285081e-01 7.833762e-01 8.182745e-01 7.005138e-01 5.257258e-01 3.981024e-01 4.479902e-01 4.837802e-01 3.696081e-01 1.918687e-01 -7.602407e-06
<VARIANCE> 25
 1.050308e+01 8.328812e+00 1.214256e+01 1.496291e+01 1.469386e+01 1.768400e+01 1.810781e+01 1.899170e+01 1.719050e+01 1.683690e+01 2.065793e+01 1.510688e+01 2.579925e-01 3.363338e-01 4.062871e-01 4.636806e-01 6.250314e-01 8.471217e-01 1.055948e+00 1.157126e+00 1.103653e+00 1.029659e+00 1.036385e+00 1.066518e+00 1.006510e-06
<GCONST> 6.030196e+01
<MIXTURE> 30 8.917812e-03
<MEAN> 25
 -4.483253e+00 -1.920428e-01 6.560318e-01 9.069387e+00 7.762608e+00 7.500992e+00 7.581914e+00 6.879908e+00 6.526768e+00 4.890056e+00 7.004053e+00 3.497644e+00 -2.440032e-02 3.155180e-02 5.579060e-02 8.797757e-02 8.085882e-02 4.462742e-02 1.290969e-02 -3.525887e-03 1.654525e-02 5.118534e-02 6.194815e-02 3.560447e-02 -5.605127e-04
<VARIANCE> 25
 6.978423e+00 9.850315e+00 1.037542e+01 1.388865e+01 1.579684e+01 1.642416e+01 1.908894e+01 1.814215e+01 1.627442e+01 1.836297e+01 2.124282e+01 1.437520e+01 9.760526e-02 1.999869e-01 3.246538e-01 4.809161e-01 6.183665e-01 7.232143e-01 7.724942e-01 8.125213e-01 8.758088e-01 9.366739e-01 9.222889e-01 8.633760e-01 5.091001e-05
<GCONST> 6.060001e+01
<MIXTURE> 31 4.136493e-03
<MEAN> 25
 -3.276228e+00 -5.565952e+00 1.324953e-01 4.581173e+00 3.664206e+00 1.883958e+00 5.214311e+00 6.532595e+00 2.567916e+00 1.160384e+00 6.314240e+00 2.912364e+00 2.678207e-01 4.674243e-01 -2.163557e-01 3.276390e-01 1.274265e-01 3.693675e-01 1.346222e-01 1.103132e-02 3.622595e-01 3.425986e-01 1.061380e-01 1.033326e-01 -1.901786e-02
<VARIANCE> 25
 7.135411e+00 1.511948e+01 1.700698e+01 1.955100e+01 2.442920e+01 2.471220e+01 2.342962e+01 2.528821e+01 2.577954e+01 2.721785e+01 2.099457e+01 2.023300e+01 1.929111e-01 4.790852e-01 5.964628e-01 7.519647e-01 9.388940e-01 1.144298e+00 1.271995e+00 1.424193e+00 1.317385e+00 1.345553e+00 1.207860e+00 1.103926e+00 2.700895e-04
<GCONST> 7.195322e+01
<MIXTURE> 32 4.136493e-03
<MEAN> 25
 -3.276228e+00 -5.565952e+00 1.324953e-01 4.581173e+00 3.664206e+00 1.883958e+00 5.214311e+00 6.532595e+00 2.567916e+00 1.160384e+00 6.314240e+00 2.912364e+00 2.678207e-01 4.674243e-01 -2.163557e-01 3.276390e-01 1.274265e-01 3.693675e-01 1.346222e-01 1.103132e-02 3.622595e-01 3.425986e-01 1.061380e-01 1.033326e-01 -1.901786e-02
<VARIANCE> 25
 7.135411e+00 1.511948e+01 1.700698e+01 1.955100e+01 2.442920e+01 2.471220e+01 2.342962e+01 2.528821e+01 2.577954e+01 2.721785e+01 2.099457e+01 2.023300e+01 1.929111e-01 4.790852e-01 5.964628e-01 7.519647e-01 9.388940e-01 1.144298e+00 1.271995e+00 1.424193e+00 1.317385e+00 1.345553e+00 1.207860e+00 1.103926e+00 2.700895e-04
<GCONST> 7.195322e+01
<MIXTURE> 33 1.508826e-02
<MEAN> 25
 6.583284e+00 -4.016024e+00 -2.212387e+00 -2.626276e+00 -1.972898e+00 -5.627546e+00 -7.270247e+00 1.722002e+00 2.313115e+00 -4.573337e-01 -4.693130e+00 -2.996189e+00 6.516990e-01 -1.173593e+00 -2.438683e+00 -1.864576e+00 1.457603e+00 1.418688e+00 -7.505585e-01 6.584696e-01 1.023026e+00 5.595419e-01 -3.064065e-01 -1.330690e+00 3.773193e-02
<VARIANCE> 25
 9.922017e+00 2.112117e+01 2.897946e+01 3.610033e+01 4.059922e+01 4.398461e+01 4.303043e+01 4.674213e+01 4.046871e+01 4.377925e+01 3.503755e+01 2.840729e+01 1.163052e+00 1.940106e+00 2.202784e+00 2.201321e+00 4.210342e+00 3.434562e+00 4.318263e+00 5.617150e+00 3.776870e+00 4.397959e+00 3.374945e+00 2.605236e+00 1.474615e-03
<GCONST> 9.443900e+01
<MIXTURE> 34 1.588179e-02
<MEAN> 25
 8.925976e+00 4.694442e-02 1.343011e-01 1.214803e+00 -2.945307e+00 -1.523562e+00 -6.154196e+00 -4.691525e+00 -1.806698e+00 1.535576e-01 -2.652528e+00 -3.698382e+00 -1.732925e-02 1.346691e+00 1.474640e+00 2.397099e+00 -4.147589e-02 -1.531288e-01 7.905694e-01 -1.641982e+00 -9.012826e-01 2.591963e-01 -5.557982e-01 2.448804e-01 -6.237316e-02
<VARIANCE> 25
 7.678059e+00 3.104583e+01 2.944545e+01 4.993049e+01 4.238106e+01 4.946471e+01 5.500629e+01 5.671185e+01 5.267306e+01 4.326461e+01 4.834575e+01 3.153917e+01 1.263817e+00 1.983893e+00 4.267931e+00 4.051275e+00 5.634078e+00 5.834997e+00 5.512758e+00 6.166099e+00 5.201939e+00 4.981991e+00 5.025525e+00 3.879604e+00 1.153967e-03
<GCONST> 9.971714e+01
<MIXTURE> 35 1.467755e-02
<MEAN> 25
 -2.224043e+00 -5.281873e+00 -9.920419e+00 1.304935e-01 9.615556e+00 8.710222e-01 1.622456e+00 2.561035e+00 1.519007e+00 4.595166e+00 9.381194e-02 1.867392e+00 5.302371e-01 -1.117327e+00 -1.410923e+00 -1.382398e+00 4.264489e-01 -7.639548e-01 -6.588697e-01 -1.311144e-01 -1.736010e-01 1.795629e-01 -6.383657e-01 -5.131455e-01 1.070934e-01
<VARIANCE> 25
 1.984500e+01 2.927161e+01 4.338685e+01 6.249741e+01 4.265326e+01 5.745922e+01 5.058938e+01 4.326118e+01 5.015351e+01 3.835766e+01 3.646194e+01 3.068188e+01 3.465275e+00 3.542553e+00 6.748082e+00 5.506149e+00 5.202578e+00 5.643792e+00 4.927006e+00 4.699924e+00 5.033341e+00 4.497760e+00 4.057055e+00 3.782911e+00 5.297270e-03
<GCONST> 1.035487e+02
<MIXTURE> 36 1.093293e-02
<MEAN> 25
 4.890872e+00 -3.408745e+00 6.494348e+00 2.562823e+00 -9.722767e+00 -8.787448e+00 -6.291306e+00 2.599835e+00 -1.797254e+00 -4.238872e+00 2.823821e+00 -1.477968e-02 3.359839e-01 1.413855e-01 -8.690144e-01 2.845876e-02 8.041494e-01 1.809133e-02 -4.557806e-01 6.863388e-02 4.375121e-01 5.681956e-01 -3.692178e-01 -2.608266e-01 -1.440601e-02
<VARIANCE> 25
 9.479815e+00 1.628764e+01 2.474693e+01 2.647099e+01 3.204334e+01 3.046609e+01 4.346399e+01 3.628654e+01 3.735517e+01 3.234296e+01 2.624928e+01 2.555287e+01 4.585496e-01 7.533771e-01 1.467681e+00 1.178255e+00 1.592961e+00 1.563895e+00 2.076148e+00 1.821201e+00 2.001743e+00 1.697926e+00 1.448817e+00 1.423976e+00 7.610139e-04
<GCONST> 8.181797e+01
<MIXTURE> 37 1.246826e-02
<MEAN> 25
 5.452302e-01 7.773523e+00 1.205726e+01 -5.555031e+00 -8.030501e+00 -1.052572e+00 -5.080304e+00 -8.324076e+00 -3.711237e+00 -9.078292e-01 -3.669610e+00 -1.292231e+00 1.826743e-01 6.470614e-01 -1.353901e+00 3.583672e+00 1.987932e+00 -3.008177e-01 1.091201e+00 4.360789e-01 5.280463e-01 -3.232794e-01 5.375403e-01 -9.756034e-02 -9.493893e-02
<VARIANCE> 25
 1.593188e+01 2.598818e+01 3.084179e+01 5.101007e+01 3.394101e+01 3.201593e+01 4.397968e+01 3.505312e+01 3.861173e+01 3.596802e+01 3.775076e+01 3.088923e+01 2.956263e+00 3.415986e+00 3.018294e+00 4.092231e+00 4.617654e+00 3.752824e+00 4.208376e+00 3.810767e+00 3.449438e+00 3.621515e+00 3.869844e+00 2.791878e+00 3.928213e-03
<GCONST> 9.778176e+01
<MIXTURE> 38 1.154525e-02
<MEAN> 25
 -4.456911e+00 8.934421e+00 4.583550e+00 3.210774e+00 8.046704e-01 -5.213591e+00 -6.228123e-01 -2.743918e+00 -2.819950e+00 -3.099437e+00 -1.504780e+00 -5.150959e-01 -4.510626e+00 1.229409e+00 -3.134260e-01 1.434470e+00 2.553172e+00 1.407560e+00 2.051406e+00 9.558344e-01 7.924644e-01 6.411301e-01 1.000568e+00 3.161601e-01 4.894040e-02
<VARIANCE> 25
 3.132123e+01 2.973892e+01 3.887813e+01 3.294580e+01 4.896214e+01 3.542826e+01 3.622395e+01 4.144080e+01 3.496545e+01 3.233818e+01 2.420571e+01 2.872326e+01 2.353009e+00 4.018709e+00 3.890266e+00 5.216805e+00 4.246293e+00 5.038337e+00 4.758663e+00 4.622499e+00 4.433187e+00 4.917648e+00 4.372213e+00 3.265755e+00 2.065122e-03
<GCONST> 9.925562e+01
<MIXTURE> 39 9.501865e-03
<MEAN> 25
 1.340423e+00 2.603707e+00 1.019870e+01 -9.208640e+00 -1.127766e+01 -9.957462e-01 -2.970157e+00 -6.568378e+00 -4.521019e+00 8.675532e-01 -3.674180e+00 -2.287112e+00 -7.295089e-01 1.518606e+00 1.623851e+00 -1.390382e+00 7.746714e-02 1.222944e+00 -1.199495e+00 -1.253427e+00 4.284042e-01 4.433511e-01 -5.063514e-01 1.236111e-01 1.375618e-03
<VARIANCE> 25
 8.892993e+00 3.004533e+01 3.176650e+01 3.827018e+01 3.726915e+01 4.268331e+01 4.436413e+01 3.346178e+01 3.938702e+01 3.317163e+01 3.618726e+01 2.946274e+01 6.922421e-01 1.555810e+00 1.513297e+00 2.922146e+00 2.414700e+00 2.821921e+00 3.050492e+00 2.746548e+00 2.435031e+00 2.617299e+00 2.119130e+00 2.067300e+00 1.186952e-03
<GCONST> 8.965817e+01
<MIXTURE> 40 1.030800e-02
<MEAN> 25
 -9.312751e+00 1.938205e+00 -1.074612e+00 7.901565e+00 3.765633e+00 5.609253e+00 5.295178e+00 4.250087e+00 4.549845e+00 4.211314e+00 5.693096e+00 1.671507e+00 -9.088819e-02 -2.309531e-01 -2.361472e-02 -2.263944e-01 -6.930892e-02 -8.523419e-02 6.452982e-02 8.225664e-02 -3.705708e-02 5.390999e-03 7.726799e-02 -6.058997e-03 3.468527e-03
<VARIANCE> 25
 4.151083e+01 2.195853e+01 2.918246e+01 3.086278e+01 2.572613e+01 1.926267e+01 1.937604e+01 1.814330e+01 1.732962e+01 1.851847e+01 1.844798e+01 1.433145e+01 7.440143e-01 7.309504e-01 8.628979e-01 1.090809e+00 1.186473e+00 1.308825e+00 1.341383e+00 1.267277e+00 1.272950e+00 1.259891e+00 1.152897e+00 1.108106e+00 8.852968e-04
<GCONST> 7.697052e+01
<MIXTURE> 41 6.713375e-03
<MEAN> 25
 1.305592e+00 1.786902e+00 1.042371e+01 -6.941639e+00 -1.043235e+01 -3.845644e+00 -2.484444e+00 -5.027586e+00 -4.636182e+00 2.633146e+00 -1.740334e+00 -9.179091e-01 6.451798e-02 -7.665102e-01 1.687764e+00 -3.552763e+00 -2.448956e+00 -9.468210e-02 -5.002460e-01 -3.562661e-01 -8.169301e-01 1.076757e+00 -1.046659e+00 8.074471e-02 8.628326e-02
<VARIANCE> 25
 1.163350e+01 2.948873e+01 3.292378e+01 3.989822e+01 3.877935e+01 3.996714e+01 3.693363e+01 2.974849e+01 3.301083e+01 2.876439e+01 3.169618e+01 2.723518e+01 3.191947e+00 3.300900e+00 3.818888e+00 3.781748e+00 4.903733e+00 5.902682e+00 4.698643e+00 4.536371e+00 3.973479e+00 4.219611e+00 3.813961e+00 3.208126e+00 2.915406e-03
<GCONST> 9.786565e+01
<MIXTURE> 42 1.106211e-02
<MEAN> 25
 -1.927084e+00 4.568583e+00 4.669661e+00 2.879251e+00 1.975060e-01 -6.299584e+00 -9.993269e-01 -1.871785e+00 -1.513772e+00 -1.233035e+00 -2.288163e+00 1.266914e+00 4.184061e+00 -3.492486e-01 1.527557e+00 1.978903e-01 -2.962594e+00 -1.153367e+00 -2.258379e+00 -8.184426e-01 -7.873058e-01 -7.357764e-01 5.317549e-01 -1.058477e+00 9.594976e-03
<VARIANCE> 25
 3.628103e+01 2.117591e+01 4.670076e+01 2.622030e+01 3.928784e+01 3.907858e+01 3.725063e+01 2.728042e+01 2.863913e+01 2.756846e+01 2.009482e+01 1.791601e+01 3.560513e+00 4.892109e+00 6.150780e+00 4.788182e+00 4.650476e+00 6.017646e+00 5.084243e+00 5.295106e+00 4.977706e+00 4.857252e+00 4.235775e+00 3.413987e+00 4.469078e-03
<GCONST> 9.983049e+01
<MIXTURE> 43 7.108249e-03
<MEAN> 25
 3.160796e+00 -6.289145e+00 -2.247717e+00 -5.174607e+00 -7.384619e+00 -3.402173e+00 4.124210e+00 1.297490e+00 -5.070167e+00 -7.092185e+00 -4.317346e+00 -1.251668e+00 2.377910e-01 2.161206e+00 1.907874e+00 -1.338711e-01 -1.425880e+00 -7.951578e-01 -9.698842e-01 -7.767125e-01 8.207206e-01 1.460837e+00 3.397311e-01 1.998924e-02 -4.502825e-02
<VARIANCE> 25
 9.600837e+00 1.973157e+01 2.725871e+01 3.516576e+01 3.837397e+01 3.656094e+01 3.328798e+01 3.972758e+01 3.954092e+01 3.852647e+01 2.646898e+01 2.947528e+01 6.886494e-01 1.250025e+00 1.576175e+00 2.484791e+00 2.373066e+00 2.374727e+00 2.644767e+00 3.025957e+00 2.599220e+00 2.588012e+00 2.326913e+00 1.914099e+00 9.418502e-04
<GCONST> 8.793468e+01
<MIXTURE> 44 7.328289e-03
<MEAN> 25
 -1.426868e+01 8.003536e-01 3.122600e+00 -3.716775e+00 3.133363e+00 2.614463e+00 1.971103e-01 2.125350e+00 1.216433e+00 -3.952066e-01 1.831848e+00 1.626730e+00 -1.007744e-01 1.878499e-02 2.242521e-01 3.227743e-01 7.390926e-02 2.750249e-01 4.921370e-01 1.249966e-01 7.482795e-02 1.435272e-01 5.296110e-02 -5.611828e-02 7.517665e-04
<VARIANCE> 25
 4.515605e+01 2.917226e+01 3.251680e+01 2.796613e+01 2.636647e+01 2.907000e+01 2.292226e+01 3.056491e+01 2.916276e+01 2.825609e+01 2.459701e+01 1.826552e+01 1.186405e+00 1.435916e+00 1.345553e+00 1.285019e+00 2.200079e+00 1.822242e+00 1.635520e+00 1.597413e+00 1.740583e+00 1.449293e+00 1.226962e+00 1.282209e+00 1.439183e-03
<GCONST> 8.422258e+01
<MIXTURE> 45 1.364932e-02
<MEAN> 25
 -1.207866e+01 2.848924e+00 -1.317641e+00 2.076331e+00 5.109226e+00 3.536800e-01 4.415422e+00 2.798496e+00 3.324397e+00 1.970032e+00 2.331541e+00 2.537568e+00 -2.896996e+00 4.191869e-01 -4.804153e-01 -5.900932e-01 2.858698e-01 1.618984e-01 5.148782e-01 8.325755e-02 -4.986003e-02 7.716585e-02 2.991768e-01 -5.500356e-03 1.173362e-01
<VARIANCE> 25
 3.344880e+01 3.299340e+01 2.890149e+01 4.071223e+01 3.479566e+01 2.832281e+01 2.953605e+01 2.502733e+01 2.340469e+01 2.319111e+01 2.634415e+01 1.468348e+01 2.308925e+00 3.287441e+00 2.674995e+00 2.553553e+00 2.470298e+00 2.883732e+00 2.205693e+00 2.128542e+00 2.050863e+00 2.306249e+00 1.903165e+00 1.676568e+00 3.891477e-03
<GCONST> 9.040051e+01
<MIXTURE> 46 9.336259e-03
<MEAN> 25
 -9.462028e+00 2.232363e+00 1.168983e+00 7.457991e+00 5.911191e+00 3.377583e+00 7.047666e+00 4.495658e+00 5.709281e+00 4.714767e+00 5.040434e+00 2.905515e+00 1.049060e+00 -2.427500e-01 4.549815e-02 9.910581e-01 6.158205e-01 9.534128e-01 3.959366e-01 6.682954e-01 4.548726e-01 5.135083e-01 6.398277e-01 5.060663e-01 -1.048187e-01
<VARIANCE> 25
 3.398112e+01 4.435649e+01 3.840376e+01 5.129728e+01 5.061807e+01 4.072963e+01 3.688111e+01 3.518804e+01 3.298284e+01 3.081451e+01 2.805008e+01 2.014558e+01 3.906047e+00 4.117664e+00 3.859086e+00 4.129490e+00 4.165960e+00 3.688241e+00 3.369496e+00 3.099090e+00 3.006145e+00 2.853105e+00 2.293154e+00 1.816957e+00 8.010394e-03
<GCONST> 9.828490e+01
<MIXTURE> 47 7.116147e-03
<MEAN> 25
 7.309769e+00 -7.367480e+00 -7.726098e+00 -6.398622e+00 1.482938e+00 8.133484e-01 -2.406921e+00 1.179580e+00 2.989477e+00 1.671703e-01 -4.192709e+00 -6.655987e+00 -1.796160e-01 -1.251832e+00 -6.937010e-01 -4.152051e-01 6.184751e-01 8.154576e-01 8.785194e-01 3.093584e-01 1.137098e-01 -8.845562e-01 -4.699687e-01 -4.553766e-01 3.016210e-02
<VARIANCE> 25
 1.072152e+01 2.093709e+01 2.059879e+01 3.350257e+01 3.610068e+01 5.259151e+01 4.507235e+01 4.089672e+01 4.330394e+01 4.681241e+01 4.907882e+01 3.391803e+01 5.195776e-01 7.732502e-01 1.117791e+00 1.661486e+00 1.970477e+00 2.190888e+00 2.306525e+00 2.482675e+00 2.184546e+00 2.133065e+00 2.175328e+00 2.000090e+00 5.467558e-04
<GCONST> 8.641017e+01
<MIXTURE> 48 7.116147e-03
<MEAN> 25
 7.309769e+00 -7.367480e+00 -7.726098e+00 -6.398622e+00 1.482938e+00 8.133484e-01 -2.406921e+00 1.179580e+00 2.989477e+00 1.671703e-01 -4.192709e+00 -6.655987e+00 -1.796160e-01 -1.251832e+00 -6.937010e-01 -4.152051e-01 6.184751e-01 8.154576e-01 8.785194e-01 3.093584e-01 1.137098e-01 -8.845562e-01 -4.699687e-01 -4.553766e-01 3.016210e-02
<VARIANCE> 25
 1.072152e+01 2.093709e+01 2.059879e+01 3.350257e+01 3.610068e+01 5.259151e+01 4.507235e+01 4.089672e+01 4.330394e+01 4.681241e+01 4.907882e+01 3.391803e+01 5.195776e-01 7.732502e-01 1.117791e+00 1.661486e+00 1.970477e+00 2.190888e+00 2.306525e+00 2.482675e+00 2.184546e+00 2.133065e+00 2.175328e+00 2.000090e+00 5.467558e-04
<GCONST> 8.641017e+01
<MIXTURE> 49 5.548473e-03
<MEAN> 25
 -5.057501e+00 3.626137e-01 1.763878e-01 8.419549e+00 6.135450e+00 5.612909e+00 6.073500e+00 4.504072e+00 5.003209e+00 3.711982e+00 4.891094e+00 2.820658e+00 3.648884e-01 6.507778e-01 6.993184e-01 3.528365e-01 -1.977146e-01 -6.706942e-01 -1.008742e+00 -1.124146e+00 -9.621267e-01 -6.767961e-01 -4.863985e-01 -2.662218e-01 -4.810861e-06
<VARIANCE> 25
 9.691466e+00 9.989107e+00 1.417813e+01 1.599581e+01 1.583839e+01 1.705374e+01 1.933504e+01 1.936960e+01 1.824516e+01 1.789172e+01 2.085809e+01 1.468028e+01 2.790672e-01 2.667358e-01 3.592786e-01 6.084276e-01 8.649089e-01 9.722090e-01 9.871123e-01 1.048542e+00 1.138457e+00 1.216246e+00 1.286178e+00 1.211335e+00 1.447970e-05
<GCONST> 6.434948e+01
<MIXTURE> 50 6.234641e-03
<MEAN> 25
 -4.177233e+00 1.726126e-01 -1.324742e+00 5.829865e+00 3.941766e+00 2.105591e+00 3.529674e+00 1.984507e+00 2.738758e+00 1.469141e+00 2.080635e+00 2.822738e+00 7.114002e-02 1.684515e-01 7.104769e-02 -1.832307e-01 -5.254866e-01 -6.543518e-01 -3.444039e-01 1.481445e-02 4.550058e-01 7.240005e-01 7.962364e-01 5.405308e-01 -5.792681e-05
<VARIANCE> 25
 1.212438e+01 1.030278e+01 1.372845e+01 1.572571e+01 1.496161e+01 1.789784e+01 1.795316e+01 1.858823e+01 1.751260e+01 1.672555e+01 2.072944e+01 1.477303e+01 1.418554e-01 2.355974e-01 3.662546e-01 4.904543e-01 5.734032e-01 7.125445e-01 1.200789e+00 1.261873e+00 1.045360e+00 9.257366e-01 9.690237e-01 1.073468e+00 1.178362e-06
<GCONST> 5.971431e+01
<MIXTURE> 51 6.234641e-03
<MEAN> 25
 -4.177233e+00 1.726126e-01 -1.324742e+00 5.829865e+00 3.941766e+00 2.105591e+00 3.529674e+00 1.984507e+00 2.738758e+00 1.469141e+00 2.080635e+00 2.822738e+00 7.114002e-02 1.684515e-01 7.104769e-02 -1.832307e-01 -5.254866e-01 -6.543518e-01 -3.444039e-01 1.481445e-02 4.550058e-01 7.240005e-01 7.962364e-01 5.405308e-01 -5.792681e-05
<VARIANCE> 25
 1.212438e+01 1.030278e+01 1.372845e+01 1.572571e+01 1.496161e+01 1.789784e+01 1.795316e+01 1.858823e+01 1.751260e+01 1.672555e+01 2.072944e+01 1.477303e+01 1.418554e-01 2.355974e-01 3.662546e-01 4.904543e-01 5.734032e-01 7.125445e-01 1.200789e+00 1.261873e+00 1.045360e+00 9.257366e-01 9.690237e-01 1.073468e+00 1.178362e-06
<GCONST> 5.971431e+01
<MIXTURE> 52 6.367945e-03
<MEAN> 25
 1.012372e+01 2.049309e+00 -6.198312e+00 -1.428600e+01 -4.222223e+00 8.537129e+00 -2.752885e+00 -3.061122e+00 -4.408293e+00 -2.132951e+00 3.354569e+00 7.467015e-01 -3.855818e-01 -4.802845e-01 -6.964450e-02 1.140520e+00 1.339701e+00 -4.734907e-01 -6.029916e-01 -6.591049e-01 4.294943e-02 1.246432e+00 3.875189e-01 -5.457520e-01 -1.381910e-02
<VARIANCE> 25
 9.290102e+00 2.048883e+01 2.533506e+01 3.859148e+01 4.573085e+01 3.072210e+01 4.654743e+01 4.894367e+01 4.306422e+01 4.603931e+01 3.995003e+01 3.000795e+01 4.496039e-01 1.480740e+00 1.310541e+00 2.757994e+00 2.328823e+00 2.199796e+00 2.985953e+00 2.799545e+00 3.006213e+00 2.666927e+00 2.520444e+00 2.277573e+00 1.546082e-03
<GCONST> 8.973347e+01
<MIXTURE> 53 6.367945e-03
<MEAN> 25
 1.012372e+01 2.049309e+00 -6.198312e+00 -1.428600e+01 -4.222223e+00 8.537129e+00 -2.752885e+00 -3.061122e+00 -4.408293e+00 -2.132951e+00 3.354569e+00 7.467015e-01 -3.855818e-01 -4.802845e-01 -6.964450e-02 1.140520e+00 1.339701e+00 -4.734907e-01 -6.029916e-01 -6.591049e-01 4.294943e-02 1.246432e+00 3.875189e-01 -5.457520e-01 -1.381910e-02
<VARIANCE> 25
 9.290102e+00 2.048883e+01 2.533506e+01 3.859148e+01 4.573085e+01 3.072210e+01 4.654743e+01 4.894367e+01 4.306422e+01 4.603931e+01 3.995003e+01 3.000795e+01 4.496039e-01 1.480740e+00 1.310541e+00 2.757994e+00 2.328823e+00 2.199796e+00 2.985953e+00 2.799545e+00 3.006213e+00 2.666927e+00 2.520444e+00 2.277573e+00 1.546082e-03
<GCONST> 8.973347e+01
<MIXTURE> 54 7.368620e-03
<MEAN> 25
 -3.522811e+00 1.213243e-01 -6.488935e-01 7.737153e+00 6.298226e+00 4.543757e+00 4.713421e+00 4.673131e+00 4.106810e+00 3.628250e+00 4.394345e+00 2.269389e+00 -6.666967e-03 4.105205e-02 1.473534e-02 4.523400e-02 3.570336e-02 4.603026e-02 6.455576e-02 4.320813e-02 1.630427e-02 -1.882802e-03 -4.742743e-04 -7.174388e-03 4.662550e-05
<VARIANCE> 25
 9.205093e+00 1.018440e+01 9.031303e+00 2.023658e+01 1.392987e+01 1.331206e+01 1.171855e+01 1.114205e+01 1.111929e+01 1.317159e+01 1.759451e+01 1.227248e+01 4.112444e-02 9.468690e-02 1.614120e-01 2.209097e-01 3.065225e-01 3.881170e-01 4.728729e-01 5.153082e-01 5.692931e-01 5.260907e-01 5.066019e-01 5.047194e-01 1.088566e-06
<GCONST> 4.742900e+01
<MIXTURE> 55 7.368620e-03
<MEAN> 25
 -3.522811e+00 1.213243e-01 -6.488935e-01 7.737153e+00 6.298226e+00 4.543757e+00 4.713421e+00 4.673131e+00 4.106810e+00 3.628250e+00 4.394345e+00 2.269389e+00 -6.666967e-03 4.105205e-02 1.473534e-02 4.523400e-02 3.570336e-02 4.603026e-02 6.455576e-02 4.320813e-02 1.630427e-02 -1.882802e-03 -4.742743e-04 -7.174388e-03 4.662550e-05
<VARIANCE> 25
 9.205093e+00 1.018440e+01 9.031303e+00 2.023658e+01 1.392987e+01 1.331206e+01 1.171855e+01 1.114205e+01 1.111929e+01 1.317159e+01 1.759451e+01 1.227248e+01 4.112444e-02 9.468690e-02 1.614120e-01 2.209097e-01 3.065225e-01 3.881170e-01 4.728729e-01 5.153082e-01 5.692931e-01 5.260907e-01 5.066019e-01 5.047194e-01 1.088566e-06
<GCONST> 4.742900e+01
<MIXTURE> 56 6.132464e-03
<MEAN> 25
 7.543278e+00 -6.766594e+00 -9.137346e+00 -8.638056e+00 3.949984e+00 3.913077e+00 -2.181554e+00 -1.476600e+00 1.945703e+00 6.549919e-01 -2.475036e+00 -7.127635e+00 -9.779085e-03 2.744022e-02 -8.656627e-02 2.236162e-02 2.580173e-01 6.518640e-02 1.139980e-01 -1.381256e-01 -4.709895e-02 -3.798884e-02 -8.364981e-02 1.913599e-02 -7.060458e-03
<VARIANCE> 25
 9.414513e+00 2.326029e+01 2.011480e+01 4.137838e+01 3.313774e+01 5.105084e+01 6.182250e+01 3.679382e+01 3.891143e+01 3.760970e+01 4.022294e+01 3.127312e+01 2.060674e-01 4.332902e-01 4.528069e-01 7.717527e-01 7.954262e-01 1.112165e+00 9.111739e-01 9.142014e-01 9.089440e-01 9.275553e-01 1.033875e+00 7.836897e-01 2.397216e-04
<GCONST> 7.515925e+01
<MIXTURE> 57 6.132464e-03
<MEAN> 25
 7.543278e+00 -6.766594e+00 -9.137346e+00 -8.638056e+00 3.949984e+00 3.913077e+00 -2.181554e+00 -1.476600e+00 1.945703e+00 6.549919e-01 -2.475036e+00 -7.127635e+00 -9.779085e-03 2.744022e-02 -8.656627e-02 2.236162e-02 2.580173e-01 6.518640e-02 1.139980e-01 -1.381256e-01 -4.709895e-02 -3.798884e-02 -8.364981e-02 1.913599e-02 -7.060458e-03
<VARIANCE> 25
 9.414513e+00 2.326029e+01 2.011480e+01 4.137838e+01 3.313774e+01 5.105084e+01 6.182250e+01 3.679382e+01 3.891143e+01 3.760970e+01 4.022294e+01 3.127312e+01 2.060674e-01 4.332902e-01 4.528069e-01 7.717527e-01 7.954262e-01 1.112165e+00 9.111739e-01 9.142014e-01 9.089440e-01 9.275553e-01 1.033875e+00 7.836897e-01 2.397216e-04
<GCONST> 7.515925e+01
<MIXTURE> 58 6.172147e-03
<MEAN> 25
 2.588691e+00 -3.053157e+00 6.681678e+00 -4.688830e+00 -1.271628e+01 -5.736899e+00 1.135634e+00 4.082815e-01 -2.148888e+00 1.809174e+00 8.100998e-01 -7.039336e-01 -8.501544e-03 -1.804173e-01 -1.171686e-01 -1.264423e-01 -3.550059e-02 2.400078e-01 3.860023e-01 2.752473e-01 4.445174e-02 3.991821e-02 -8.794986e-02 -9.900993e-02 -4.286965e-04
<VARIANCE> 25
 6.794217e+00 1.447605e+01 2.303429e+01 2.815486e+01 2.705216e+01 4.307696e+01 3.266392e+01 3.445372e+01 3.110292e+01 2.902654e+01 2.198207e+01 1.913165e+01 3.088874e-01 8.255062e-01 7.502255e-01 9.726453e-01 8.208705e-01 1.121799e+00 1.111287e+00 1.400260e+00 1.103843e+00 1.063842e+00 8.723770e-01 8.330679e-01 7.911345e-04
<GCONST> 7.532147e+01
<MIXTURE> 59 6.172147e-03
<MEAN> 25
 2.588691e+00 -3.053157e+00 6.681678e+00 -4.688830e+00 -1.271628e+01 -5.736899e+00 1.135634e+00 4.082815e-01 -2.148888e+00 1.809174e+00 8.100998e-01 -7.039336e-01 -8.501544e-03 -1.804173e-01 -1.171686e-01 -1.264423e-01 -3.550059e-02 2.400078e-01 3.860023e-01 2.752473e-01 4.445174e-02 3.991821e-02 -8.794986e-02 -9.900993e-02 -4.286965e-04
<VARIANCE> 25
 6.794217e+00 1.447605e+01 2.303429e+01 2.815486e+01 2.705216e+01 4.307696e+01 3.266392e+01 3.445372e+01 3.110292e+01 2.902654e+01 2.198207e+01 1.913165e+01 3.088874e-01 8.255062e-01 7.502255e-01 9.726453e-01 8.208705e-01 1.121799e+00 1.111287e+00 1.400260e+00 1.103843e+00 1.063842e+00 8.723770e-01 8.330679e-01 7.911345e-04
<GCONST> 7.532147e+01
<MIXTURE> 60 4.479129e-03
<MEAN> 25
 -3.135972e+00 -2.715890e-01 -8.106285e-01 3.286374e+00 1.598293e+00 2.070200e+00 1.841108e+00 1.632261e+00 2.098393e+00 1.185834e+00 1.813951e+00 1.470825e+00 7.957349e-03 8.523066e-02 3.415461e-02 7.888120e-02 4.601927e-02 3.161868e-02 2.885730e-01 4.688960e-01 5.599335e-01 6.706610e-01 6.760330e-01 4.710923e-01 1.755000e-06
<VARIANCE> 25
 8.997305e+00 4.163320e+00 9.312885e+00 9.797210e+00 1.183730e+01 1.496120e+01 1.300821e+01 1.111179e+01 1.104901e+01 1.193567e+01 1.601117e+01 1.220010e+01 1.252594e-01 2.036288e-01 2.848726e-01 3.903308e-01 6.323358e-01 7.475605e-01 9.382091e-01 1.024163e+00 8.525779e-01 8.585064e-01 8.788393e-01 9.658926e-01 2.429185e-05
<GCONST> 5.663481e+01
<MIXTURE> 61 4.479129e-03
<MEAN> 25
 -3.135972e+00 -2.715890e-01 -8.106285e-01 3.286374e+00 1.598293e+00 2.070200e+00 1.841108e+00 1.632261e+00 2.098393e+00 1.185834e+00 1.813951e+00 1.470825e+00 7.957349e-03 8.523066e-02 3.415461e-02 7.888120e-02 4.601927e-02 3.161868e-02 2.885730e-01 4.688960e-01 5.599335e-01 6.706610e-01 6.760330e-01 4.710923e-01 1.755000e-06
<VARIANCE> 25
 8.997305e+00 4.163320e+00 9.312885e+00 9.797210e+00 1.183730e+01 1.496120e+01 1.300821e+01 1.111179e+01 1.104901e+01 1.193567e+01 1.601117e+01 1.220010e+01 1.252594e-01 2.036288e-01 2.848726e-01 3.903308e-01 6.323358e-01 7.475605e-01 9.382091e-01 1.024163e+00 8.525779e-01 8.585064e-01 8.788393e-01 9.658926e-01 2.429185e-05
<GCONST> 5.663481e+01
<MIXTURE> 62 3.278034e-03
<MEAN> 25
 -5.084895e+00 1.240900e+00 1.025261e+00 8.812046e+00 6.127881e+00 5.050678e+00 5.497716e+00 4.030689e+00 4.982147e+00 3.913684e+00 4.959333e+00 2.949256e+00 -1.001651e+00 -1.165346e+00 -9.527486e-01 -2.767780e-01 4.271744e-01 1.003913e+00 1.384615e+00 1.552346e+00 1.478921e+00 1.243145e+00 1.067833e+00 7.273577e-01 -1.259801e-03
<VARIANCE> 25
 9.896235e+00 9.948501e+00 1.310778e+01 1.675792e+01 1.741135e+01 1.751242e+01 1.968724e+01 1.910380e+01 1.885445e+01 1.872672e+01 2.158970e+01 1.478812e+01 4.038934e-01 4.335063e-01 5.538203e-01 7.785516e-01 1.035109e+00 1.192576e+00 1.251191e+00 1.279328e+00 1.328427e+00 1.364023e+00 1.399211e+00 1.371396e+00 1.633214e-05
<GCONST> 6.753240e+01
<MIXTURE> 63 4.351215e-03
<MEAN> 25
 -3.359259e+00 -2.032650e+00 -3.906866e+00 2.407268e+00 3.044461e+00 -3.848315e-01 1.805881e+00 6.631063e-01 1.591642e+00 -1.082200e+00 -9.035338e-01 1.765261e+00 -3.200065e-02 4.111250e-01 4.159399e-01 4.667380e-01 3.512703e-01 4.394324e-01 4.587686e-01 1.511527e-01 2.448064e-01 2.041451e-01 9.610440e-02 2.570341e-01 -5.725113e-03
<VARIANCE> 25
 1.003208e+01 1.308155e+01 1.643258e+01 1.462577e+01 1.713968e+01 2.635200e+01 2.427117e+01 2.561932e+01 2.369042e+01 1.915014e+01 1.792879e+01 1.821950e+01 3.083697e-01 4.061526e-01 5.689095e-01 6.400733e-01 7.979679e-01 1.063989e+00 1.238833e+00 1.810804e+00 1.364370e+00 1.325306e+00 1.225180e+00 1.104451e+00 1.678641e-04
<GCONST> 7.051685e+01
<MIXTURE> 64 4.351215e-03
<MEAN> 25
 -3.359259e+00 -2.032650e+00 -3.906866e+00 2.407268e+00 3.044461e+00 -3.848315e-01 1.805881e+00 6.631063e-01 1.591642e+00 -1.082200e+00 -9.035338e-01 1.765261e+00 -3.200065e-02 4.111250e-01 4.159399e-01 4.667380e-01 3.512703e-01 4.394324e-01 4.587686e-01 1.511527e-01 2.448064e-01 2.041451e-01 9.610440e-02 2.570341e-01 -5.725113e-03
<VARIANCE> 25
 1.003208e+01 1.308155e+01 1.643258e+01 1.462577e+01 1.713968e+01 2.635200e+01 2.427117e+01 2.561932e+01 2.369042e+01 1.915014e+01 1.792879e+01 1.821950e+01 3.083697e-01 4.061526e-01 5.689095e-01 6.400733e-01 7.979679e-01 1.063989e+00 1.238833e+00 1.810804e+00 1.364370e+00 1.325306e+00 1.225180e+00 1.104451e+00 1.678641e-04
<GCONST> 7.051685e+01
<MIXTURE> 65 1.721197e-02
<MEAN> 25
 7.342135e+00 1.860754e+00 1.642930e+00 5.664724e-01 -5.126731e+00 -4.619559e+00 -5.974031e+00 -6.472332e+00 -3.681972e+00 -2.165419e+00 -4.675025e+00 -1.338758e+00 1.329853e-01 7.499861e-02 2.072743e-02 1.191794e-01 -1.998672e-01 2.020507e-01 -1.744432e-01 -2.606632e-01 1.905802e-01 3.687575e-02 4.181078e-03 -7.612616e-02 -3.903805e-03
<VARIANCE> 25
 1.199248e+01 1.766041e+01 2.356037e+01 3.224675e+01 3.491497e+01 5.252343e+01 5.214428e+01 5.414034e+01 5.051810e+01 5.213599e+01 5.531030e+01 4.781480e+01 5.202122e-01 9.563800e-01 1.444236e+00 1.654950e+00 1.819654e+00 2.036230e+00 2.167404e+00 3.072423e+00 2.414605e+00 2.400784e+00 2.299579e+00 1.980443e+00 4.253655e-04
<GCONST> 8.804155e+01
<MIXTURE> 66 1.191532e-02
<MEAN> 25
 6.680765e+00 -4.093627e+00 -5.622780e+00 -4.830093e+00 1.276693e+00 -5.092955e+00 -6.924843e+00 1.192186e+00 6.841277e-01 -2.051224e+00 -6.139328e+00 -3.474587e+00 -4.564225e-02 1.667233e+00 2.239899e+00 2.317566e+00 -1.250783e+00 -1.253444e+00 5.524421e-02 -5.469048e-01 -1.444912e-01 -1.941780e-01 -2.014040e-01 1.044921e+00 -6.379385e-02
<VARIANCE> 25
 8.932190e+00 2.234325e+01 2.705770e+01 3.306236e+01 3.851380e+01 5.341436e+01 5.599110e+01 4.540943e+01 5.410181e+01 6.676916e+01 3.698826e+01 3.644583e+01 1.283442e+00 2.445331e+00 2.353032e+00 2.470621e+00 4.197096e+00 4.307796e+00 4.368337e+00 4.845689e+00 4.249178e+00 4.994166e+00 3.900074e+00 3.261522e+00 1.469065e-03
<GCONST> 9.683426e+01
<MIXTURE> 67 1.559142e-02
<MEAN> 25
 8.985456e+00 2.035448e+00 -5.978737e+00 -8.274504e+00 9.031860e-01 3.083229e+00 -3.325229e+00 -2.242070e+00 -3.773560e+00 7.784979e-01 -5.461008e-02 -1.732939e+00 -1.074132e+00 1.831960e+00 1.062773e+00 3.073161e+00 1.392620e+00 -5.098513e-01 1.302791e+00 1.202588e-01 1.569752e-01 2.512395e-01 -2.766193e-01 6.252995e-01 -1.299931e-01
<VARIANCE> 25
 1.146567e+01 3.885957e+01 3.078913e+01 5.585363e+01 4.915367e+01 5.406945e+01 6.210220e+01 5.280804e+01 6.478790e+01 5.711977e+01 5.578411e+01 4.738020e+01 2.179849e+00 3.465775e+00 3.290490e+00 4.517694e+00 4.523180e+00 4.553678e+00 4.706660e+00 5.071122e+00 5.476764e+00 4.779429e+00 5.135092e+00 3.746339e+00 3.042452e-03
<GCONST> 1.029183e+02
<MIXTURE> 68 1.485092e-02
<MEAN> 25
 -2.019060e+00 -2.311596e+00 -4.103055e+00 1.253579e+00 5.262811e+00 -6.666745e-01 2.129201e+00 1.825563e+00 2.004709e+00 1.689728e+00 4.864348e-01 1.875805e+00 2.768078e+00 5.488921e-01 1.365035e-02 -2.584445e+00 -2.416819e+00 -1.591898e+00 -2.354162e+00 -1.791454e+00 -1.650956e+00 -1.481028e+00 -1.985562e+00 -1.059633e+00 1.032525e-01
<VARIANCE> 25
 2.599659e+01 3.203395e+01 5.876579e+01 5.260790e+01 4.668444e+01 5.511255e+01 4.527940e+01 4.226773e+01 4.044011e+01 4.350566e+01 3.738821e+01 2.576137e+01 1.864156e+00 3.744483e+00 5.937907e+00 5.870236e+00 4.699238e+00 5.610587e+00 5.771920e+00 4.975085e+00 4.978763e+00 5.261484e+00 5.042891e+00 3.421102e+00 6.143262e-03
<GCONST> 1.036057e+02
<MIXTURE> 69 1.204884e-02
<MEAN> 25
 4.653383e+00 -4.200943e+00 -3.545517e+00 -3.625512e+00 -3.510826e+00 -7.854119e+00 -1.119355e+00 2.190600e+00 -3.484293e-01 -4.726939e+00 -5.665129e+00 9.770208e-01 1.658167e+00 -2.234090e+00 -1.331980e+00 -2.244697e+00 -5.283791e-01 -3.317213e-01 -4.671654e-01 6.116720e-01 -6.346970e-01 -1.455433e+00 -2.197811e+00 -1.737624e-01 6.264687e-02
<VARIANCE> 25
 8.896843e+00 2.186982e+01 2.671486e+01 2.581683e+01 4.252077e+01 3.560489e+01 4.873067e+01 3.153707e+01 3.961695e+01 3.775356e+01 3.104616e+01 2.455986e+01 3.609751e+00 2.911312e+00 3.327307e+00 3.683024e+00 5.740151e+00 5.050738e+00 7.093292e+00 6.060258e+00 5.901756e+00 5.849020e+00 4.342015e+00 3.689615e+00 2.441750e-03
<GCONST> 9.864725e+01
<MIXTURE> 70 1.329190e-02
<MEAN> 25
 7.521956e+00 -2.035479e+00 -3.888404e+00 -3.608158e+00 -4.113611e-01 -6.690294e-01 -7.690054e+00 -4.028465e+00 5.700525e-01 2.892404e+00 -1.307399e-01 -4.908493e+00 1.934898e+00 -1.138690e+00 -8.202857e-01 -2.205997e+00 -1.518910e+00 1.178426e+00 -1.337064e+00 -8.780249e-02 3.376259e-01 -2.782707e-02 6.873711e-01 -1.454480e+00 5.869357e-02
<VARIANCE> 25
 9.928094e+00 2.257254e+01 2.833341e+01 4.697649e+01 3.549987e+01 4.450277e+01 4.986797e+01 4.408725e+01 4.707712e+01 3.278712e+01 4.498845e+01 2.731067e+01 3.504834e+00 3.211353e+00 4.741641e+00 4.957946e+00 5.215966e+00 6.446901e+00 6.794611e+00 7.554508e+00 6.173904e+00 5.387309e+00 5.867076e+00 4.305624e+00 2.536940e-03
<GCONST> 1.018575e+02
<MIXTURE> 71 1.406903e-02
<MEAN> 25
 6.268018e+00 5.116478e+00 4.192191e+00 2.987116e+00 -3.476997e+00 -3.407531e+00 -3.415450e+00 -6.570895e+00 -4.588311e+00 -2.518010e+00 -5.152246e+00 -3.057023e+00 -1.589980e+00 -7.280923e-01 -2.490524e-01 -1.787385e+00 1.101404e+00 -7.263388e-02 6.891920e-02 1.502266e+00 3.278773e-01 -1.805452e-01 6.547079e-01 1.679001e-01 4.199102e-02
<VARIANCE> 25
 1.916110e+01 2.538379e+01 2.380031e+01 4.475022e+01 3.995362e+01 3.980075e+01 4.169391e+01 4.100150e+01 3.878447e+01 4.314603e+01 3.613513e+01 3.520318e+01 1.738505e+00 3.026429e+00 5.186802e+00 4.801594e+00 4.642157e+00 4.889815e+00 4.796597e+00 5.349053e+00 4.236116e+00 4.039043e+00 3.618971e+00 3.247515e+00 1.448315e-03
<GCONST> 9.850031e+01
<MIXTURE> 72 8.134747e-03
<MEAN> 25
 3.786771e+00 -3.684243e+00 5.446851e+00 -2.461869e+00 -1.039170e+01 -9.614510e+00 -2.453012e+00 1.909606e+00 -4.933807e+00 -2.193993e+00 -1.875860e+00 6.138679e-01 9.319596e-01 -7.863376e-01 -2.573701e+00 4.636725e-01 2.132743e+00 -6.539766e-01 -1.314314e+00 1.525662e+00 1.812519e+00 -5.943684e-01 -1.286950e+00 4.018952e-01 -6.061505e-03
<VARIANCE> 25
 1.079424e+01 1.944619e+01 3.285202e+01 3.839144e+01 3.236664e+01 3.344619e+01 4.100361e+01 3.624033e+01 4.370700e+01 4.132081e+01 3.878194e+01 2.847481e+01 4.316704e-01 1.025359e+00 2.023607e+00 1.466653e+00 2.189280e+00 2.352749e+00 3.061763e+00 2.727676e+00 2.602161e+00 2.960237e+00 2.023712e+00 2.125480e+00 5.448983e-04
<GCONST> 8.725021e+01
<MIXTURE> 73 1.213625e-02
<MEAN> 25
 -5.641675e+00 -7.954568e-01 -1.305047e+00 4.908880e+00 4.237391e+00 2.345653e+00 5.516543e+00 3.455063e+00 4.369004e+00 3.435335e+00 4.270095e+00 3.027412e+00 8.017913e-01 -1.031102e+00 -9.453561e-01 -2.648093e+00 -1.259732e+00 -1.749742e+00 -9.006864e-01 -5.080977e-01 -9.206541e-01 -7.004120e-01 -1.104204e+00 -2.837089e-01 1.548611e-01
<VARIANCE> 25
 1.284138e+01 1.342040e+01 1.519691e+01 2.272579e+01 2.334372e+01 2.477663e+01 2.039046e+01 1.999705e+01 1.777043e+01 1.906921e+01 2.278576e+01 1.557524e+01 4.048468e+00 3.089868e+00 5.964054e+00 4.674809e+00 6.156260e+00 4.570512e+00 4.305019e+00 4.248417e+00 3.897542e+00 4.233382e+00 3.541987e+00 2.674254e+00 4.300996e-03
<GCONST> 9.270989e+01
<MIXTURE> 74 1.756491e-02
<MEAN> 25
 4.515041e+00 -1.594921e+00 5.263727e+00 -1.154922e+00 -8.762630e+00 -8.323070e+00 -2.713975e+00 7.558886e-01 -4.121293e+00 -2.839646e+00 -1.701987e+00 2.607146e-01 3.106976e-01 2.022778e+00 4.397837e-02 1.718223e+00 1.233511e+00 3.565555e-01 -4.270693e-03 -1.334484e+00 1.739908e-01 1.782111e-01 -2.379734e-01 -1.045047e-01 -7.867184e-02
<VARIANCE> 25
 1.172185e+01 2.199858e+01 3.769046e+01 3.867710e+01 3.722190e+01 3.970990e+01 5.164563e+01 4.667144e+01 4.809521e+01 4.474490e+01 4.116962e+01 3.446354e+01 2.101008e+00 2.054559e+00 3.924898e+00 2.596436e+00 3.929820e+00 3.915836e+00 5.063778e+00 4.289206e+00 4.173992e+00 4.042023e+00 3.655068e+00 3.202050e+00 1.757544e-03
<GCONST> 9.733928e+01
<MIXTURE> 75 9.711651e-03
<MEAN> 25
 2.663768e+00 -1.248273e+00 1.101085e+01 1.726837e+00 -1.182609e+01 -7.675089e+00 -4.583351e+00 -4.983039e-01 -4.502317e+00 -4.613564e+00 3.264915e+00 1.568096e-01 1.749727e+00 -1.767450e+00 1.988812e-01 -2.561949e-01 -2.398044e+00 -5.169783e-01 -1.463643e+00 9.632508e-01 -1.511593e-01 -3.506512e-01 1.081142e+00 -6.284014e-01 3.865712e-02
<VARIANCE> 25
 1.111308e+01 1.780484e+01 3.060336e+01 2.776159e+01 2.697408e+01 3.267606e+01 3.139668e+01 3.118207e+01 3.372755e+01 3.162656e+01 2.041234e+01 2.168486e+01 2.382580e+00 1.897222e+00 4.285394e+00 2.488331e+00 3.882838e+00 4.339372e+00 4.159410e+00 3.524837e+00 3.946433e+00 3.379107e+00 3.101920e+00 2.508984e+00 1.540832e-03
<GCONST> 9.226420e+01
<MIXTURE> 76 1.052359e-02
<MEAN> 25
 -6.324490e+00 -1.693094e+00 -2.349943e+00 3.245382e+00 4.118049e+00 2.033823e+00 3.438648e+00 1.977355e+00 2.048079e+00 4.771920e-01 1.812010e+00 2.125818e+00 -2.477791e-02 -5.126010e-01 -3.297867e-01 -6.903278e-01 -5.530996e-01 -9.180468e-01 -7.061158e-01 -2.710411e-01 -4.441185e-01 -4.150904e-01 -3.315375e-01 -2.871290e-01 1.732699e-02
<VARIANCE> 25
 3.530061e+01 2.581392e+01 2.839589e+01 2.902533e+01 2.854287e+01 3.045463e+01 2.941406e+01 2.612645e+01 2.434878e+01 2.296627e+01 2.512582e+01 1.946547e+01 1.063023e+00 1.032860e+00 1.294496e+00 1.288516e+00 1.373993e+00 1.867638e+00 1.823747e+00 1.686172e+00 1.487345e+00 1.501075e+00 1.404791e+00 1.383654e+00 1.296339e-03
<GCONST> 8.289766e+01
<MIXTURE> 77 1.244626e-02
<MEAN> 25
 -4.664158e-01 8.497376e+00 1.233801e+01 -1.152358e+01 -6.929491e+00 9.408572e-01 -9.216158e+00 -7.208232e+00 -3.400268e+00 -2.273051e-01 -4.605622e+00 -1.471066e+00 7.114114e-02 1.296096e-01 7.145084e-02 2.547291e-01 -2.170326e-02 7.400760e-02 -7.418343e-02 -6.660812e-02 8.616124e-02 -4.312637e-02 2.819621e-02 1.119117e-01 -9.851237e-03
<VARIANCE> 25
 1.038410e+01 2.061625e+01 2.867313e+01 4.208930e+01 3.341291e+01 3.377480e+01 3.683163e+01 3.170874e+01 3.506063e+01 3.300982e+01 3.744319e+01 3.471885e+01 2.993810e-01 7.825190e-01 6.399924e-01 1.078834e+00 1.228523e+00 9.843236e-01 1.231800e+00 1.096650e+00 1.035492e+00 1.067290e+00 9.697627e-01 9.202327e-01 5.455872e-04
<GCONST> 7.786619e+01
<MIXTURE> 78 9.702551e-03
<MEAN> 25
 -1.156013e+01 1.017071e+00 -1.606787e+00 2.120385e+00 4.409794e+00 -2.136163e+00 3.741621e+00 2.599911e+00 2.554340e+00 7.820785e-01 -4.405347e-01 2.997300e+00 2.380779e+00 -2.627514e-01 1.950032e-01 5.907888e-01 -1.145121e-02 2.566246e-02 -2.948264e-01 -8.997485e-02 1.921748e-01 1.408367e-01 -3.759338e-01 -4.738480e-01 -6.183583e-02
<VARIANCE> 25
 4.062989e+01 3.289395e+01 3.244051e+01 3.333670e+01 3.934510e+01 3.789482e+01 3.559232e+01 3.287251e+01 2.832085e+01 2.760824e+01 2.693222e+01 2.017812e+01 4.915679e+00 2.568808e+00 2.846998e+00 3.041204e+00 2.855078e+00 3.535013e+00 3.298699e+00 2.806557e+00 2.376045e+00 2.349946e+00 2.223871e+00 2.113472e+00 4.669698e-03
<GCONST> 9.459482e+01
<MIXTURE> 79 1.156824e-02
<MEAN> 25
 2.358472e+00 1.544882e+00 9.114631e+00 -6.607822e+00 -1.193021e+01 -1.744787e+00 -1.881502e+00 -6.418783e+00 -6.598496e+00 2.704097e-01 -3.482961e+00 -3.295045e+00 1.219089e+00 -5.197430e-01 -1.421273e+00 2.338374e+00 3.818847e-01 -1.472047e+00 5.132343e-01 8.945131e-01 -4.271057e-01 -5.467069e-01 3.519607e-01 2.670391e-01 -3.632464e-02
<VARIANCE> 25
 1.444237e+01 2.398449e+01 3.806919e+01 4.925869e+01 3.500734e+01 4.362093e+01 4.254471e+01 3.673743e+01 3.857511e+01 3.965263e+01 4.357177e+01 3.038113e+01 9.340681e-01 2.243150e+00 1.887445e+00 2.088022e+00 2.447195e+00 2.788201e+00 3.208050e+00 3.511962e+00 2.497438e+00 2.709384e+00 2.297649e+00 2.025018e+00 1.222455e-03
<GCONST> 9.173329e+01
<MIXTURE> 80 7.550998e-03
<MEAN> 25
 -1.460829e+01 3.982730e+00 6.889200e-01 2.865726e+00 2.449403e+00 1.410449e+00 6.396795e+00 2.496690e+00 2.719433e+00 2.373434e+00 4.852734e+00 1.186778e+00 4.286222e+00 -1.598707e-02 1.637890e+00 -1.135492e+00 -2.889374e+00 -2.777532e+00 -2.323199e+00 -2.021404e+00 -1.975028e+00 -1.685200e+00 -1.650823e+00 -6.027668e-01 -4.423265e-02
<VARIANCE> 25
 2.095285e+01 1.984769e+01 3.444340e+01 3.470832e+01 3.017999e+01 2.920870e+01 2.828761e+01 2.855430e+01 2.674664e+01 2.881047e+01 2.685406e+01 1.810739e+01 2.357527e+00 2.666154e+00 2.673134e+00 4.119872e+00 3.394314e+00 2.705129e+00 3.025285e+00 3.204089e+00 2.749094e+00 2.701654e+00 2.782073e+00 2.145703e+00 1.512137e-03
<GCONST> 9.139691e+01
<MIXTURE> 81 8.025434e-03
<MEAN> 25
 -1.117705e+00 4.062481e+00 1.016760e+01 -1.478945e+01 -9.070244e+00 -1.423139e+00 -6.762511e+00 -8.423369e+00 -4.154608e+00 -4.210619e-01 -7.565756e+00 -2.242410e+00 1.340928e-01 -5.878351e-01 -2.996588e-03 -5.549362e-01 -4.631763e-01 3.350103e-01 3.190708e-01 1.362274e-01 -1.396430e-01 1.066906e-01 -4.680849e-01 -1.255449e-01 1.151714e-02
<VARIANCE> 25
 1.014532e+01 3.278514e+01 2.654126e+01 2.941718e+01 3.375462e+01 3.051712e+01 4.542106e+01 2.825391e+01 3.795855e+01 3.187001e+01 2.533561e+01 3.104308e+01 7.721628e-01 2.275535e+00 1.544148e+00 2.872191e+00 2.660731e+00 2.125448e+00 3.278448e+00 2.288208e+00 2.353532e+00 2.537409e+00 2.298828e+00 2.076306e+00 1.183985e-03
<GCONST> 8.868666e+01
<MIXTURE> 82 8.213053e-03
<MEAN> 25
 -9.903732e+00 -3.926046e+00 1.567578e+00 -3.086580e+00 2.974423e+00 7.251037e-01 1.939771e+00 9.516269e-01 2.985583e+00 1.660724e+00 1.739628e+00 3.062340e+00 -1.334725e+00 -1.639345e-01 2.750462e-01 -2.581766e+00 -1.054782e+00 -1.189724e+00 -9.699818e-01 -8.468739e-01 -3.032804e-01 -4.269721e-01 -2.906871e-01 -1.195817e-01 1.768891e-01
<VARIANCE> 25
 1.793587e+01 2.455810e+01 3.203005e+01 3.099610e+01 3.340796e+01 3.187198e+01 3.135297e+01 3.239042e+01 3.032245e+01 2.497141e+01 3.022006e+01 1.721034e+01 3.706603e+00 3.070168e+00 3.265961e+00 3.233429e+00 3.629217e+00 3.512890e+00 2.984451e+00 2.987442e+00 2.756057e+00 2.589323e+00 2.444081e+00 1.862708e+00 3.491681e-03
<GCONST> 9.305840e+01
<MIXTURE> 83 1.167529e-02
<MEAN> 25
 -2.004081e+01 5.504238e+00 -1.789702e+00 -4.051103e-01 7.829639e+00 -1.234488e+00 5.460100e+00 3.044532e+00 1.192393e+00 2.190908e+00 7.244872e-01 2.881716e+00 -2.631321e-02 -4.501706e-01 4.872012e-03 -3.655977e-01 -4.974648e-01 -1.258521e-01 -1.343577e-01 -9.942717e-02 -4.144356e-02 -3.920248e-02 -3.058213e-02 -3.465528e-02 4.403248e-03
<VARIANCE> 25
 8.819281e+00 1.645402e+01 2.851271e+01 2.248555e+01 2.127508e+01 2.407955e+01 2.202746e+01 2.336420e+01 2.042958e+01 2.221887e+01 2.319599e+01 1.448780e+01 1.060910e+00 9.362046e-01 1.240790e+00 1.065688e+00 1.359398e+00 1.291389e+00 1.283447e+00 1.388157e+00 1.349015e+00 1.310737e+00 1.220778e+00 1.071650e+00 8.923843e-04
<GCONST> 7.703519e+01
<MIXTURE> 84 1.066614e-02
<MEAN> 25
 1.178405e+00 9.023850e+00 7.245637e+00 7.988177e+00 2.833020e+00 -9.183193e-01 -1.527349e+00 -4.483074e+00 -4.120630e+00 -2.912041e+00 -2.413923e+00 -1.595524e+00 -1.787736e+00 -1.185862e+00 -1.206311e+00 1.289090e+00 2.254132e+00 1.504548e+00 1.453526e+00 1.289987e+00 1.169390e+00 4.031096e-01 4.168412e-01 4.254692e-01 -7.171064e-02
<VARIANCE> 25
 2.349965e+01 1.824935e+01 2.161109e+01 2.413692e+01 2.918695e+01 2.831216e+01 2.795110e+01 2.654999e+01 2.529504e+01 2.524712e+01 2.359932e+01 2.461544e+01 2.102874e+00 2.541594e+00 3.849678e+00 3.302605e+00 3.276059e+00 3.377895e+00 3.290912e+00 3.408157e+00 3.483529e+00 3.251067e+00 3.588821e+00 2.805989e+00 3.529583e-03
<GCONST> 9.254546e+01
<MIXTURE> 85 7.591393e-03
<MEAN> 25
 -3.110680e+00 7.892252e+00 5.725049e+00 1.286071e+00 -3.493861e+00 -5.325551e+00 -2.980369e+00 -6.121533e+00 -3.542481e+00 -3.184631e+00 -4.793422e-01 -1.899500e+00 3.943488e+00 3.247893e-01 1.756006e+00 -2.091535e+00 -3.414644e+00 -2.583312e+00 -2.886115e+00 -2.341569e+00 -2.249166e+00 -1.264154e+00 -2.302918e+00 -6.158288e-01 9.208409e-03
<VARIANCE> 25
 4.247432e+01 2.343177e+01 3.647584e+01 3.822305e+01 3.974855e+01 4.119094e+01 3.216652e+01 2.789604e+01 2.664425e+01 2.611888e+01 2.622723e+01 2.056900e+01 2.704263e+00 4.326275e+00 4.058815e+00 5.182785e+00 4.408429e+00 3.880883e+00 3.853504e+00 3.987234e+00 3.849537e+00 4.040511e+00 3.941536e+00 3.485186e+00 5.446218e-03
<GCONST> 9.835502e+01
<MIXTURE> 86 1.273941e-02
<MEAN> 25
 -4.484505e+00 -9.129243e-01 -6.714397e-01 5.738605e+00 4.711343e+00 4.516148e+00 5.475365e+00 4.742721e+00 4.610778e+00 3.609657e+00 5.012280e+00 2.725995e+00 -1.660548e-02 2.431045e-02 -4.665691e-02 -7.345449e-02 -1.196351e-01 -1.476571e-01 -2.866763e-01 -3.662943e-01 -3.670906e-01 -3.411797e-01 -2.560978e-01 -1.293212e-01 -8.551126e-04
<VARIANCE> 25
 9.354903e+00 5.997189e+00 9.273865e+00 1.467604e+01 1.541585e+01 1.338553e+01 1.296058e+01 1.234008e+01 1.230216e+01 1.480756e+01 1.456205e+01 1.340093e+01 9.751832e-02 1.975549e-01 2.990891e-01 4.480175e-01 5.894827e-01 7.226701e-01 7.542484e-01 7.832153e-01 8.158531e-01 8.439490e-01 9.545786e-01 9.159620e-01 5.198740e-05
<GCONST> 5.805946e+01
<MIXTURE> 87 1.100681e-02
<MEAN> 25
 -3.164698e+00 4.335059e+00 3.364778e+00 6.559750e+00 4.854034e+00 6.398317e-01 1.355184e+00 -1.026339e+00 -3.275031e-01 -9.701948e-01 -9.525667e-01 2.860985e-01 -2.194496e+00 -2.800933e+00 -2.020774e+00 -2.238291e+00 1.084659e-04 6.390661e-02 6.905022e-01 1.300820e+00 1.437127e+00 1.046098e+00 9.031783e-01 8.620393e-01 1.054689e-01
<VARIANCE> 25
 3.642981e+01 2.871909e+01 2.683585e+01 3.552197e+01 3.535317e+01 3.136167e+01 2.791224e+01 2.593679e+01 2.574655e+01 2.341275e+01 2.402431e+01 2.292213e+01 3.675013e+00 2.578143e+00 3.806877e+00 3.454616e+00 4.555668e+00 5.044989e+00 4.030765e+00 3.698769e+00 3.370546e+00 3.228921e+00 3.236395e+00 2.906001e+00 4.694784e-03
<GCONST> 9.599724e+01
<MIXTURE> 88 1.256585e-02
<MEAN> 25
 -4.406678e+00 -1.146492e+00 -1.114731e+00 4.452195e+00 4.513916e+00 3.914743e+00 4.501309e+00 3.040747e+00 3.045868e+00 2.258189e+00 2.942300e+00 2.360314e+00 9.129079e-02 1.942641e-01 2.446442e-01 4.263579e-01 3.125235e-01 1.187508e-01 -1.107325e-01 -1.580769e-01 -3.569111e-01 -2.780046e-01 -9.449192e-02 -1.187357e-01 -1.003356e-02
<VARIANCE> 25
 8.947907e+00 1.002538e+01 1.494637e+01 2.268317e+01 1.844251e+01 2.126692e+01 2.037563e+01 1.834501e+01 1.803380e+01 1.750721e+01 1.958370e+01 1.474354e+01 1.254006e+00 1.530300e+00 2.006307e+00 2.080382e+00 2.456570e+00 2.729350e+00 2.747662e+00 2.381748e+00 2.318899e+00 2.446059e+00 2.117753e+00 1.955734e+00 1.515741e-03
<GCONST> 8.211234e+01
<MIXTURE> 89 9.333527e-03
<MEAN> 25
 6.075255e+00 -6.823216e+00 -3.557525e+00 -3.163228e+00 -1.615219e+00 -5.595052e+00 -6.123740e+00 4.091736e+00 3.469656e+00 -2.802785e+00 -6.019203e+00 -3.276427e+00 -5.711927e-01 1.573841e-01 1.987861e+00 9.002037e-01 -1.866481e+00 -1.647370e+00 8.816473e-01 1.263566e+00 -7.867954e-01 -1.313205e+00 4.049347e-01 1.536158e+00 -4.901085e-03
<VARIANCE> 25
 8.986529e+00 2.674305e+01 3.103190e+01 3.018166e+01 3.605907e+01 4.161023e+01 5.958857e+01 4.213350e+01 3.905431e+01 4.236669e+01 3.588036e+01 3.242935e+01 3.533320e-01 8.410837e-01 1.475752e+00 1.316977e+00 1.921253e+00 2.126589e+00 2.577659e+00 2.042544e+00 2.252867e+00 2.136306e+00 2.330921e+00 1.468624e+00 3.662241e-04
<GCONST> 8.529284e+01
<MIXTURE> 90 7.114505e-03
<MEAN> 25
 2.471340e+00 -9.382748e+00 -4.656024e+00 -3.819384e+00 -3.443544e+00 -1.904753e+00 3.264756e+00 1.030249e+00 -7.526982e+00 -1.012163e+01 -3.419602e+00 -7.448894e-01 -1.538526e-01 9.240992e-01 1.138259e+00 -8.525894e-01 -1.568442e+00 -2.329109e-01 5.852396e-01 -1.995229e-01 -1.417870e-01 6.724203e-01 1.495835e-01 -5.429989e-01 -1.149520e-02
<VARIANCE> 25
 8.216679e+00 2.013026e+01 1.934943e+01 2.766163e+01 3.563835e+01 3.124707e+01 3.744451e+01 3.568061e+01 3.397943e+01 2.699301e+01 2.605319e+01 2.523312e+01 2.183903e-01 5.972553e-01 7.827073e-01 1.008180e+00 1.468258e+00 1.546093e+00 1.809004e+00 1.606743e+00 1.766545e+00 1.727664e+00 1.471895e+00 1.263954e+00 2.104447e-04
<GCONST> 7.774383e+01
<MIXTURE> 91 7.852945e-03
<MEAN> 25
 6.328976e+00 -7.591865e+00 -8.506528e+00 -5.131429e+00 3.932255e+00 -1.396486e-01 -2.213209e+00 7.170992e-01 7.388922e-01 -2.936803e+00 -4.893198e+00 -5.162038e+00 2.595249e-01 9.999386e-01 1.865783e-01 4.518861e-01 -6.816627e-02 -5.627561e-01 -3.914974e-01 -1.113865e-01 -9.956332e-02 4.526306e-01 -1.165980e-01 2.137582e-01 -3.484855e-02
<VARIANCE> 25
 1.047772e+01 2.274551e+01 2.030595e+01 4.035132e+01 3.504742e+01 5.516379e+01 5.410802e+01 3.943046e+01 5.173734e+01 6.366093e+01 3.810847e+01 4.138738e+01 4.431671e-01 8.813718e-01 1.120613e+00 1.377831e+00 2.175014e+00 2.359757e+00 2.355085e+00 2.424063e+00 2.234686e+00 2.211877e+00 2.002766e+00 1.808462e+00 5.827100e-04
<GCONST> 8.713382e+01
<MIXTURE> 92 7.852945e-03
<MEAN> 25
 6.328976e+00 -7.591865e+00 -8.506528e+00 -5.131429e+00 3.932255e+00 -1.396486e-01 -2.213209e+00 7.170992e-01 7.388922e-01 -2.936803e+00 -4.893198e+00 -5.162038e+00 2.595249e-01 9.999386e-01 1.865783e-01 4.518861e-01 -6.816627e-02 -5.627561e-01 -3.914974e-01 -1.113865e-01 -9.956332e-02 4.526306e-01 -1.165980e-01 2.137582e-01 -3.484855e-02
<VARIANCE> 25
 1.047772e+01 2.274551e+01 2.030595e+01 4.035132e+01 3.504742e+01 5.516379e+01 5.410802e+01 3.943046e+01 5.173734e+01 6.366093e+01 3.810847e+01 4.138738e+01 4.431671e-01 8.813718e-01 1.120613e+00 1.377831e+00 2.175014e+00 2.359757e+00 2.355085e+00 2.424063e+00 2.234686e+00 2.211877e+00 2.002766e+00 1.808462e+00 5.827100e-04
<GCONST> 8.713382e+01
<MIXTURE> 93 6.122769e-03
<MEAN> 25
 -6.741040e+00 -9.223697e-01 -2.362260e+00 5.725181e+00 5.859331e+00 3.913161e+00 6.090579e+00 3.614193e+00 4.170371e+00 2.522844e+00 1.758839e+00 3.637319e+00 -5.855600e-02 -1.539845e-01 -2.570733e-01 -3.254608e-01 -3.358045e-01 -2.883135e-01 -2.156136e-01 -1.754992e-01 -1.957232e-01 -1.566542e-01 -1.020434e-01 -4.364266e-02 4.007234e-07
<VARIANCE> 25
 9.486843e+00 6.056732e+00 8.190999e+00 1.160748e+01 1.153281e+01 1.578721e+01 1.518613e+01 1.625604e+01 1.478786e+01 1.437296e+01 1.686997e+01 1.363185e+01 8.273240e-02 1.519673e-01 2.604034e-01 3.793325e-01 4.927308e-01 6.360490e-01 7.750912e-01 8.782545e-01 9.862169e-01 8.672715e-01 8.826697e-01 9.146680e-01 9.949064e-07
<GCONST> 5.363618e+01
<MIXTURE> 94 6.122769e-03
<MEAN> 25
 -6.741040e+00 -9.223697e-01 -2.362260e+00 5.725181e+00 5.859331e+00 3.913161e+00 6.090579e+00 3.614193e+00 4.170371e+00 2.522844e+00 1.758839e+00 3.637319e+00 -5.855600e-02 -1.539845e-01 -2.570733e-01 -3.254608e-01 -3.358045e-01 -2.883135e-01 -2.156136e-01 -1.754992e-01 -1.957232e-01 -1.566542e-01 -1.020434e-01 -4.364266e-02 4.007234e-07
<VARIANCE> 25
 9.486843e+00 6.056732e+00 8.190999e+00 1.160748e+01 1.153281e+01 1.578721e+01 1.518613e+01 1.625604e+01 1.478786e+01 1.437296e+01 1.686997e+01 1.363185e+01 8.273240e-02 1.519673e-01 2.604034e-01 3.793325e-01 4.927308e-01 6.360490e-01 7.750912e-01 8.782545e-01 9.862169e-01 8.672715e-01 8.826697e-01 9.146680e-01 9.949064e-07
<GCONST> 5.363618e+01
<MIXTURE> 95 5.258835e-03
<MEAN> 25
 -4.547307e+00 -7.753859e-02 -1.393477e+00 4.288445e+00 3.939539e+00 2.894001e+00 4.212707e+00 2.133341e+00 2.056564e+00 8.297662e-01 2.505397e-01 1.530999e+00 1.516072e-01 7.011744e-02 6.718401e-02 -6.956244e-04 -3.139135e-01 -6.631751e-01 -1.270364e+00 -1.451257e+00 -1.340267e+00 -8.621220e-01 -5.918273e-01 -2.205964e-01 -1.008713e-03
<VARIANCE> 25
 1.309335e+01 6.892337e+00 1.086003e+01 1.182820e+01 1.179161e+01 1.547526e+01 1.614036e+01 1.667613e+01 1.310403e+01 1.349286e+01 2.059495e+01 1.993688e+01 1.704201e-01 2.660507e-01 3.732799e-01 5.528682e-01 7.089154e-01 8.747479e-01 1.258031e+00 9.779527e-01 9.427931e-01 9.637866e-01 1.337028e+00 1.113524e+00 4.832678e-05
<GCONST> 6.272211e+01
<MIXTURE> 96 7.034694e-03
<MEAN> 25
 -4.916614e+00 -4.051472e-01 -2.137911e+00 5.011647e+00 3.770036e+00 1.783311e+00 3.541483e+00 1.824994e+00 2.480118e+00 9.334664e-01 9.986522e-01 2.702907e+00 -2.690779e-02 8.204352e-02 2.056112e-01 3.928852e-01 5.166652e-01 4.750288e-01 2.467832e-01 -1.310881e-01 -4.871397e-01 -6.481390e-01 -5.821365e-01 -3.772794e-01 1.959667e-05
<VARIANCE> 25
 1.151403e+01 9.581465e+00 1.275136e+01 1.446611e+01 1.482133e+01 1.897909e+01 1.760170e+01 1.928648e+01 1.844182e+01 1.666471e+01 2.003600e+01 1.461695e+01 1.184684e-01 2.163840e-01 3.119831e-01 3.916267e-01 5.025612e-01 6.724715e-01 8.509533e-01 9.814175e-01 1.015334e+00 8.360940e-01 9.061896e-01 9.190803e-01 1.028033e-06
<GCONST> 5.757658e+01
<MIXTURE> 97 7.034694e-03
<MEAN> 25
 -4.916614e+00 -4.051472e-01 -2.137911e+00 5.011647e+00 3.770036e+00 1.783311e+00 3.541483e+00 1.824994e+00 2.480118e+00 9.334664e-01 9.986522e-01 2.702907e+00 -2.690779e-02 8.204352e-02 2.056112e-01 3.928852e-01 5.166652e-01 4.750288e-01 2.467832e-01 -1.310881e-01 -4.871397e-01 -6.481390e-01 -5.821365e-01 -3.772794e-01 1.959667e-05
<VARIANCE> 25
 1.151403e+01 9.581465e+00 1.275136e+01 1.446611e+01 1.482133e+01 1.897909e+01 1.760170e+01 1.928648e+01 1.844182e+01 1.666471e+01 2.003600e+01 1.461695e+01 1.184684e-01 2.163840e-01 3.119831e-01 3.916267e-01 5.025612e-01 6.724715e-01 8.509533e-01 9.814175e-01 1.015334e+00 8.360940e-01 9.061896e-01 9.190803e-01 1.028033e-06
<GCONST> 5.757658e+01
<MIXTURE> 98 9.917808e-03
<MEAN> 25
 -1.542685e+00 8.830430e-01 -1.799153e-01 4.382324e+00 3.544878e+00 2.643020e+00 3.087524e+00 1.671568e+00 1.633019e+00 8.585122e-01 7.360408e-01 1.035633e+00 -1.819970e+00 -1.504571e+00 -1.012558e+00 1.215427e-01 6.426556e-01 8.488351e-01 1.265128e+00 1.435866e+00 1.676703e+00 1.161531e+00 1.316728e+00 9.306809e-01 -3.272557e-02
<VARIANCE> 25
 1.448092e+01 2.012926e+01 3.121143e+01 3.471236e+01 4.329482e+01 3.613890e+01 3.222496e+01 2.868788e+01 2.720908e+01 2.986194e+01 2.629400e+01 2.337665e+01 1.349797e+00 1.502265e+00 2.323259e+00 2.458337e+00 2.840441e+00 2.946995e+00 2.827233e+00 2.759466e+00 2.585054e+00 2.988435e+00 2.737435e+00 2.188291e+00 2.643090e-03
<GCONST> 9.044295e+01
<MIXTURE> 99 6.696178e-03
<MEAN> 25
 -5.963306e+00 9.414323e+00 6.366607e+00 3.202177e+00 7.839027e-01 -5.318863e+00 -1.938643e+00 -4.457985e+00 -3.676934e+00 -3.760932e+00 -1.465555e+00 5.803263e-01 5.381588e-01 -7.725384e-01 2.862461e-01 -3.183056e-01 -1.070961e+00 -4.467124e-01 -3.021142e-01 -3.231680e-01 -5.505392e-02 -1.050181e-02 2.843907e-01 1.489374e-01 1.194944e-02
<VARIANCE> 25
 3.676039e+01 2.840245e+01 4.666141e+01 3.085355e+01 3.460092e+01 3.335393e+01 2.672383e+01 2.930951e+01 2.574830e+01 2.632981e+01 1.981100e+01 2.789877e+01 2.089026e+00 1.806330e+00 1.365782e+00 1.750415e+00 2.589622e+00 2.068891e+00 1.537960e+00 1.664375e+00 1.497443e+00 1.547719e+00 1.332018e+00 1.199045e+00 1.521450e-03
<GCONST> 8.635709e+01
<MIXTURE> 100 4.498084e-03
<MEAN> 25
 -1.598878e+00 6.344827e+00 1.027700e+01 -7.462759e+00 -1.078206e+01 -5.075294e+00 -4.941668e+00 -9.968847e+00 -4.718240e+00 -8.551691e-01 -2.733300e+00 -2.708267e+00 2.917895e+00 -1.260455e+00 1.299659e+00 -2.185945e+00 -3.419489e+00 -7.841161e-01 -1.218778e+00 -8.197802e-01 -1.475479e+00 3.466953e-01 -1.655620e+00 -2.862392e-01 2.015521e-03
<VARIANCE> 25
 1.362666e+01 2.105913e+01 2.246177e+01 2.642710e+01 2.301848e+01 2.372172e+01 2.911146e+01 2.170685e+01 2.748231e+01 2.265230e+01 2.241141e+01 2.134114e+01 1.799129e+00 3.953767e+00 2.919965e+00 4.286306e+00 4.184435e+00 4.537227e+00 4.015484e+00 4.340374e+00 4.167888e+00 3.896067e+00 3.910382e+00 3.225015e+00 1.674840e-03
<GCONST> 9.256865e+01
<MIXTURE> 101 6.007792e-03
<MEAN> 25
 8.095389e+00 -3.488158e+00 -6.312110e+00 -6.866554e+00 8.465715e-01 -1.259385e+00 -1.058868e+01 -2.059151e+00 1.622012e+00 2.713997e+00 -2.387241e+00 -5.142310e+00 6.734473e-01 6.510150e-01 -1.456963e+00 -1.610556e+00 1.032268e+00 2.318450e+00 1.969220e-01 -1.460573e+00 -1.064620e+00 1.036632e+00 1.373244e+00 -4.154963e-01 -4.808878e-03
<VARIANCE> 25
 9.274964e+00 1.671346e+01 2.984218e+01 4.279399e+01 3.622829e+01 3.581691e+01 3.702847e+01 3.622485e+01 3.786368e+01 4.398676e+01 5.177674e+01 2.423305e+01 2.937224e-01 6.693448e-01 1.172403e+00 1.551635e+00 1.687620e+00 2.096826e+00 2.086288e+00 1.992685e+00 2.349074e+00 2.216857e+00 1.785736e+00 1.935338e+00 3.449522e-04
<GCONST> 8.364353e+01
<MIXTURE> 102 6.007792e-03
<MEAN> 25
 8.095389e+00 -3.488158e+00 -6.312110e+00 -6.866554e+00 8.465715e-01 -1.259385e+00 -1.058868e+01 -2.059151e+00 1.622012e+00 2.713997e+00 -2.387241e+00 -5.142310e+00 6.734473e-01 6.510150e-01 -1.456963e+00 -1.610556e+00 1.032268e+00 2.318450e+00 1.969220e-01 -1.460573e+00 -1.064620e+00 1.036632e+00 1.373244e+00 -4.154963e-01 -4.808878e-03
<VARIANCE> 25
 9.274964e+00 1.671346e+01 2.984218e+01 4.279399e+01 3.622829e+01 3.581691e+01 3.702847e+01 3.622485e+01 3.786368e+01 4.398676e+01 5.177674e+01 2.423305e+01 2.937224e-01 6.693448e-01 1.172403e+00 1.551635e+00 1.687620e+00 2.096826e+00 2.086288e+00 1.992685e+00 2.349074e+00 2.216857e+00 1.785736e+00 1.935338e+00 3.449522e-04
<GCONST> 8.364353e+01
<MIXTURE> 103 5.694618e-03
<MEAN> 25
 3.356464e+00 -9.435399e+00 -6.107139e+00 -3.078763e+00 -1.335531e+00 -1.985995e+00 2.405468e+00 2.465194e+00 -4.617831e+00 -9.231162e+00 -5.036419e+00 3.746366e-01 -1.557730e-01 -1.487873e+00 -9.779636e-01 3.773522e-01 1.208951e+00 1.018212e+00 1.596241e-01 -2.704487e-01 -7.760518e-01 -9.393767e-01 -3.003127e-02 1.196448e-01 2.697664e-02
<VARIANCE> 25
 1.032057e+01 2.067722e+01 2.294103e+01 3.157324e+01 4.784237e+01 3.490815e+01 4.643604e+01 3.713551e+01 4.195437e+01 2.937542e+01 3.009280e+01 2.633299e+01 6.425902e-01 1.248256e+00 1.532547e+00 1.934766e+00 2.918886e+00 2.401841e+00 2.879185e+00 2.574109e+00 2.560479e+00 2.526905e+00 2.097562e+00 2.007862e+00 8.054867e-04
<GCONST> 8.755831e+01
<MIXTURE> 104 5.694618e-03
<MEAN> 25
 3.356464e+00 -9.435399e+00 -6.107139e+00 -3.078763e+00 -1.335531e+00 -1.985995e+00 2.405468e+00 2.465194e+00 -4.617831e+00 -9.231162e+00 -5.036419e+00 3.746366e-01 -1.557730e-01 -1.487873e+00 -9.779636e-01 3.773522e-01 1.208951e+00 1.018212e+00 1.596241e-01 -2.704487e-01 -7.760518e-01 -9.393767e-01 -3.003127e-02 1.196448e-01 2.697664e-02
<VARIANCE> 25
 1.032057e+01 2.067722e+01 2.294103e+01 3.157324e+01 4.784237e+01 3.490815e+01 4.643604e+01 3.713551e+01 4.195437e+01 2.937542e+01 3.009280e+01 2.633299e+01 6.425902e-01 1.248256e+00 1.532547e+00 1.934766e+00 2.918886e+00 2.401841e+00 2.879185e+00 2.574109e+00 2.560479e+00 2.526905e+00 2.097562e+00 2.007862e+00 8.054867e-04
<GCONST> 8.755831e+01
<MIXTURE> 105 4.710235e-03
<MEAN> 25
 2.232049e+00 -1.475708e+00 9.138790e+00 -2.660483e+00 -1.151790e+01 -5.040093e+00 -4.160054e+00 -7.814632e-01 -3.794265e+00 -3.173539e+00 1.522942e+00 -1.129004e+00 5.938422e-03 3.573422e-02 5.293384e-02 -4.930740e-02 2.346672e-03 4.863952e-02 -1.115790e-02 5.161513e-02 -3.153362e-02 2.572952e-02 3.068867e-02 -2.644636e-02 -2.321477e-03
<VARIANCE> 25
 1.319413e+01 2.836410e+01 4.156763e+01 4.451677e+01 3.812116e+01 5.319593e+01 4.085985e+01 4.306040e+01 3.953316e+01 4.173129e+01 4.159890e+01 3.053626e+01 8.537708e-02 1.916524e-01 3.404654e-01 2.898687e-01 3.722517e-01 4.309039e-01 4.737928e-01 4.993334e-01 5.001710e-01 4.401712e-01 4.254213e-01 3.988796e-01 9.179430e-05
<GCONST> 6.675473e+01
<MIXTURE> 106 4.710235e-03
<MEAN> 25
 2.232049e+00 -1.475708e+00 9.138790e+00 -2.660483e+00 -1.151790e+01 -5.040093e+00 -4.160054e+00 -7.814632e-01 -3.794265e+00 -3.173539e+00 1.522942e+00 -1.129004e+00 5.938422e-03 3.573422e-02 5.293384e-02 -4.930740e-02 2.346672e-03 4.863952e-02 -1.115790e-02 5.161513e-02 -3.153362e-02 2.572952e-02 3.068867e-02 -2.644636e-02 -2.321477e-03
<VARIANCE> 25
 1.319413e+01 2.836410e+01 4.156763e+01 4.451677e+01 3.812116e+01 5.319593e+01 4.085985e+01 4.306040e+01 3.953316e+01 4.173129e+01 4.159890e+01 3.053626e+01 8.537708e-02 1.916524e-01 3.404654e-01 2.898687e-01 3.722517e-01 4.309039e-01 4.737928e-01 4.993334e-01 5.001710e-01 4.401712e-01 4.254213e-01 3.988796e-01 9.179430e-05
<GCONST> 6.675473e+01
<MIXTURE> 107 5.452374e-03
<MEAN> 25
 8.641273e+00 -2.310465e+00 -8.040238e+00 -9.561192e+00 1.965406e+00 2.957749e+00 -8.642098e+00 -4.554041e+00 -8.841757e-01 3.388856e+00 8.550047e-01 -5.074035e+00 -6.099510e-01 -7.683977e-01 8.359507e-01 1.773232e+00 2.254424e-01 -2.012837e+00 -9.218488e-01 8.486074e-01 1.767426e+00 4.721684e-02 -1.657922e+00 -8.202237e-01 -1.793970e-03
<VARIANCE> 25
 9.247378e+00 2.046925e+01 2.835569e+01 4.281804e+01 3.577078e+01 3.848403e+01 5.117099e+01 3.627151e+01 4.579643e+01 4.173857e+01 5.137707e+01 3.037407e+01 3.557267e-01 9.686881e-01 1.461949e+00 2.414083e+00 2.286631e+00 2.824231e+00 2.614625e+00 2.542113e+00 2.297677e+00 3.031335e+00 1.946069e+00 2.207104e+00 7.029413e-04
<GCONST> 8.804724e+01
<MIXTURE> 108 5.452374e-03
<MEAN> 25
 8.641273e+00 -2.310465e+00 -8.040238e+00 -9.561192e+00 1.965406e+00 2.957749e+00 -8.642098e+00 -4.554041e+00 -8.841757e-01 3.388856e+00 8.550047e-01 -5.074035e+00 -6.099510e-01 -7.683977e-01 8.359507e-01 1.773232e+00 2.254424e-01 -2.012837e+00 -9.218488e-01 8.486074e-01 1.767426e+00 4.721684e-02 -1.657922e+00 -8.202237e-01 -1.793970e-03
<VARIANCE> 25
 9.247378e+00 2.046925e+01 2.835569e+01 4.281804e+01 3.577078e+01 3.848403e+01 5.117099e+01 3.627151e+01 4.579643e+01 4.173857e+01 5.137707e+01 3.037407e+01 3.557267e-01 9.686881e-01 1.461949e+00 2.414083e+00 2.286631e+00 2.824231e+00 2.614625e+00 2.542113e+00 2.297677e+00 3.031335e+00 1.946069e+00 2.207104e+00 7.029413e-04
<GCONST> 8.804724e+01
<MIXTURE> 109 6.661064e-03
<MEAN> 25
 4.035296e+00 -1.043578e+01 -8.206655e+00 -1.342485e+00 2.712819e+00 -7.997120e-02 -1.086133e-01 1.428053e+00 -2.586463e+00 -8.282146e+00 -5.321272e+00 3.867953e-02 -2.927531e-02 -1.212691e-01 -3.690396e-02 2.512257e-01 1.954972e-01 1.106645e-01 -1.292191e-01 -1.197479e-01 -4.352184e-02 -1.380022e-01 2.106503e-01 1.511558e-02 -3.631632e-03
<VARIANCE> 25
 9.181730e+00 1.890625e+01 2.044994e+01 3.106808e+01 4.046922e+01 3.654869e+01 4.625174e+01 3.423119e+01 4.553726e+01 3.548413e+01 2.955496e+01 2.824068e+01 1.923749e-01 4.328074e-01 5.353408e-01 6.356627e-01 1.216222e+00 9.929880e-01 1.253249e+00 1.134850e+00 1.113933e+00 9.528773e-01 8.779452e-01 8.773748e-01 1.831492e-04
<GCONST> 7.450951e+01
<MIXTURE> 110 6.661064e-03
<MEAN> 25
 4.035296e+00 -1.043578e+01 -8.206655e+00 -1.342485e+00 2.712819e+00 -7.997120e-02 -1.086133e-01 1.428053e+00 -2.586463e+00 -8.282146e+00 -5.321272e+00 3.867953e-02 -2.927531e-02 -1.212691e-01 -3.690396e-02 2.512257e-01 1.954972e-01 1.106645e-01 -1.292191e-01 -1.197479e-01 -4.352184e-02 -1.380022e-01 2.106503e-01 1.511558e-02 -3.631632e-03
<VARIANCE> 25
 9.181730e+00 1.890625e+01 2.044994e+01 3.106808e+01 4.046922e+01 3.654869e+01 4.625174e+01 3.423119e+01 4.553726e+01 3.548413e+01 2.955496e+01 2.824068e+01 1.923749e-01 4.328074e-01 5.353408e-01 6.356627e-01 1.216222e+00 9.929880e-01 1.253249e+00 1.134850e+00 1.113933e+00 9.528773e-01 8.779452e-01 8.773748e-01 1.831492e-04
<GCONST> 7.450951e+01
<MIXTURE> 111 4.337247e-03
<MEAN> 25
 -2.936283e+00 -2.673944e-01 -1.234046e+00 1.609643e+00 5.408844e-01 3.572398e-01 1.767923e-01 1.685540e-01 2.065801e-02 -5.529798e-01 -9.436845e-01 1.307870e+00 2.062284e-02 -5.003484e-02 -1.063285e-01 -5.069428e-03 -7.954301e-02 -9.789892e-02 3.265136e-02 -7.688305e-02 -2.055572e-01 -2.557819e-01 -1.503875e-01 -1.122801e-01 -4.461986e-05
<VARIANCE> 25
 8.677146e+00 4.804054e+00 7.973146e+00 7.056691e+00 1.096033e+01 1.900071e+01 1.438061e+01 1.207150e+01 1.101665e+01 1.049556e+01 1.159363e+01 1.019407e+01 1.028989e-01 1.842557e-01 2.739044e-01 3.455330e-01 5.226256e-01 8.245772e-01 8.151315e-01 7.858720e-01 7.710320e-01 7.730611e-01 9.319853e-01 7.934732e-01 2.559753e-05
<GCONST> 5.472282e+01
<MIXTURE> 112 4.337247e-03
<MEAN> 25
 -2.936283e+00 -2.673944e-01 -1.234046e+00 1.609643e+00 5.408844e-01 3.572398e-01 1.767923e-01 1.685540e-01 2.065801e-02 -5.529798e-01 -9.436845e-01 1.307870e+00 2.062284e-02 -5.003484e-02 -1.063285e-01 -5.069428e-03 -7.954301e-02 -9.789892e-02 3.265136e-02 -7.688305e-02 -2.055572e-01 -2.557819e-01 -1.503875e-01 -1.122801e-01 -4.461986e-05
<VARIANCE> 25
 8.677146e+00 4.804054e+00 7.973146e+00 7.056691e+00 1.096033e+01 1.900071e+01 1.438061e+01 1.207150e+01 1.101665e+01 1.049556e+01 1.159363e+01 1.019407e+01 1.028989e-01 1.842557e-01 2.739044e-01 3.455330e-01 5.226256e-01 8.245772e-01 8.151315e-01 7.858720e-01 7.710320e-01 7.730611e-01 9.319853e-01 7.934732e-01 2.559753e-05
<GCONST> 5.472282e+01
<MIXTURE> 113 5.938666e-03
<MEAN> 25
 9.977980e+00 1.755081e+00 -8.781224e+00 -1.704716e+01 -1.034195e+00 5.658976e+00 -5.280945e+00 -1.466168e+00 -5.695731e+00 -4.938338e-01 2.990762e-01 -1.975095e-01 4.808707e-03 1.386673e-02 -5.950976e-02 -1.134179e-01 1.042982e-01 1.505664e-01 5.925340e-02 3.606933e-02 -5.695169e-02 -5.123816e-02 1.797137e-01 3.522335e-02 -1.411065e-03
<VARIANCE> 25
 8.873685e+00 1.639082e+01 2.967587e+01 3.420837e+01 5.273673e+01 3.387198e+01 3.970734e+01 3.914177e+01 3.737505e+01 4.640320e+01 3.629739e+01 2.844196e+01 1.217885e-01 3.206377e-01 3.161373e-01 6.313974e-01 6.128567e-01 6.536475e-01 7.766120e-01 8.452303e-01 9.595145e-01 9.053038e-01 7.245302e-01 7.135607e-01 1.247914e-04
<GCONST> 7.110466e+01
<MIXTURE> 114 5.938666e-03
<MEAN> 25
 9.977980e+00 1.755081e+00 -8.781224e+00 -1.704716e+01 -1.034195e+00 5.658976e+00 -5.280945e+00 -1.466168e+00 -5.695731e+00 -4.938338e-01 2.990762e-01 -1.975095e-01 4.808707e-03 1.386673e-02 -5.950976e-02 -1.134179e-01 1.042982e-01 1.505664e-01 5.925340e-02 3.606933e-02 -5.695169e-02 -5.123816e-02 1.797137e-01 3.522335e-02 -1.411065e-03
<VARIANCE> 25
 8.873685e+00 1.639082e+01 2.967587e+01 3.420837e+01 5.273673e+01 3.387198e+01 3.970734e+01 3.914177e+01 3.737505e+01 4.640320e+01 3.629739e+01 2.844196e+01 1.217885e-01 3.206377e-01 3.161373e-01 6.313974e-01 6.128567e-01 6.536475e-01 7.766120e-01 8.452303e-01 9.595145e-01 9.053038e-01 7.245302e-01 7.135607e-01 1.247914e-04
<GCONST> 7.110466e+01
<MIXTURE> 115 2.935202e-03
<MEAN> 25
 -3.459194e+00 -5.213646e-01 -2.748937e+00 3.397855e+00 2.227324e+00 -5.525084e-01 2.126768e+00 4.972444e-01 1.271151e+00 2.559855e-01 1.233086e-01 2.349937e+00 4.575227e-02 -9.624845e-02 -2.047376e-01 -4.140613e-01 -6.532337e-01 -7.639284e-01 -6.653191e-01 -5.689930e-01 -5.570937e-01 -4.628535e-01 -2.188383e-01 -4.443093e-02 1.316388e-05
<VARIANCE> 25
 1.064320e+01 9.168542e+00 1.302216e+01 1.200239e+01 1.232541e+01 1.704428e+01 1.548450e+01 1.925674e+01 1.745398e+01 1.632221e+01 1.873432e+01 1.458863e+01 1.846585e-01 3.178133e-01 4.584835e-01 5.262636e-01 5.881559e-01 7.993655e-01 1.158553e+00 1.113721e+00 1.090089e+00 9.222882e-01 1.065776e+00 1.143456e+00 1.099292e-06
<GCONST> 5.961239e+01
<MIXTURE> 116 2.935202e-03
<MEAN> 25
 -3.459194e+00 -5.213646e-01 -2.748937e+00 3.397855e+00 2.227324e+00 -5.525084e-01 2.126768e+00 4.972444e-01 1.271151e+00 2.559855e-01 1.233086e-01 2.349937e+00 4.575227e-02 -9.624845e-02 -2.047376e-01 -4.140613e-01 -6.532337e-01 -7.639284e-01 -6.653191e-01 -5.689930e-01 -5.570937e-01 -4.628535e-01 -2.188383e-01 -4.443093e-02 1.316388e-05
<VARIANCE> 25
 1.064320e+01 9.168542e+00 1.302216e+01 1.200239e+01 1.232541e+01 1.704428e+01 1.548450e+01 1.925674e+01 1.745398e+01 1.632221e+01 1.873432e+01 1.458863e+01 1.846585e-01 3.178133e-01 4.584835e-01 5.262636e-01 5.881559e-01 7.993655e-01 1.158553e+00 1.113721e+00 1.090089e+00 9.222882e-01 1.065776e+00 1.143456e+00 1.099292e-06
<GCONST> 5.961239e+01
<MIXTURE> 117 6.506003e-03
<MEAN> 25
 -4.636877e+00 1.118929e+00 1.053716e+00 9.739722e+00 6.251035e+00 6.250497e+00 6.456468e+00 5.042927e+00 6.387403e+00 4.927583e+00 6.352042e+00 2.702444e+00 -7.479612e-02 -2.339142e-01 -3.581766e-01 -4.186737e-01 -3.680797e-01 -3.033183e-01 -2.863275e-01 -3.311119e-01 -3.940512e-01 -3.696192e-01 -2.624590e-01 -1.164854e-01 -8.408344e-06
<VARIANCE> 25
 7.204478e+00 8.737683e+00 9.791320e+00 1.446476e+01 1.563646e+01 1.534145e+01 1.772766e+01 1.793553e+01 1.637920e+01 1.634372e+01 1.684062e+01 1.476027e+01 2.163347e-01 3.071395e-01 4.253919e-01 6.171454e-01 8.525680e-01 1.053876e+00 1.177405e+00 1.231229e+00 1.229156e+00 1.192876e+00 1.165584e+00 1.112559e+00 1.000064e-06
<GCONST> 6.043282e+01
<MIXTURE> 118 6.506003e-03
<MEAN> 25
 -4.636877e+00 1.118929e+00 1.053716e+00 9.739722e+00 6.251035e+00 6.250497e+00 6.456468e+00 5.042927e+00 6.387403e+00 4.927583e+00 6.352042e+00 2.702444e+00 -7.479612e-02 -2.339142e-01 -3.581766e-01 -4.186737e-01 -3.680797e-01 -3.033183e-01 -2.863275e-01 -3.311119e-01 -3.940512e-01 -3.696192e-01 -2.624590e-01 -1.164854e-01 -8.408344e-06
<VARIANCE> 25
 7.204478e+00 8.737683e+00 9.791320e+00 1.446476e+01 1.563646e+01 1.534145e+01 1.772766e+01 1.793553e+01 1.637920e+01 1.634372e+01 1.684062e+01 1.476027e+01 2.163347e-01 3.071395e-01 4.253919e-01 6.171454e-01 8.525680e-01 1.053876e+00 1.177405e+00 1.231229e+00 1.229156e+00 1.192876e+00 1.165584e+00 1.112559e+00 1.000064e-06
<GCONST> 6.043282e+01
<MIXTURE> 119 4.297961e-03
<MEAN> 25
 -4.905403e+00 -7.556332e+00 2.203868e+00 1.943677e+00 2.244052e+00 2.713228e-01 5.201128e+00 5.922169e+00 1.128378e+00 9.403158e-01 6.491574e+00 1.439741e+00 -4.071108e-02 -7.830153e-02 2.201491e-02 -4.103320e-02 -1.224084e-01 -1.971677e-01 -8.931109e-02 -2.977362e-02 -8.874532e-02 -1.072561e-01 -5.837108e-02 -6.416626e-02 8.915900e-04
<VARIANCE> 25
 8.749489e+00 1.002372e+01 1.635891e+01 2.021693e+01 2.251948e+01 2.320214e+01 2.502645e+01 2.648444e+01 2.480490e+01 2.777005e+01 2.103922e+01 2.129246e+01 1.647758e-01 2.787603e-01 4.681514e-01 6.404307e-01 7.971656e-01 1.030898e+00 1.130500e+00 1.305061e+00 1.272654e+00 1.232573e+00 1.174948e+00 1.102293e+00 2.385488e-04
<GCONST> 6.989241e+01
<MIXTURE> 120 4.297961e-03
<MEAN> 25
 -4.905403e+00 -7.556332e+00 2.203868e+00 1.943677e+00 2.244052e+00 2.713228e-01 5.201128e+00 5.922169e+00 1.128378e+00 9.403158e-01 6.491574e+00 1.439741e+00 -4.071108e-02 -7.830153e-02 2.201491e-02 -4.103320e-02 -1.224084e-01 -1.971677e-01 -8.931109e-02 -2.977362e-02 -8.874532e-02 -1.072561e-01 -5.837108e-02 -6.416626e-02 8.915900e-04
<VARIANCE> 25
 8.749489e+00 1.002372e+01 1.635891e+01 2.021693e+01 2.251948e+01 2.320214e+01 2.502645e+01 2.648444e+01 2.480490e+01 2.777005e+01 2.103922e+01 2.129246e+01 1.647758e-01 2.787603e-01 4.681514e-01 6.404307e-01 7.971656e-01 1.030898e+00 1.130500e+00 1.305061e+00 1.272654e+00 1.232573e+00 1.174948e+00 1.102293e+00 2.385488e-04
<GCONST> 6.989241e+01
<MIXTURE> 121 4.567511e-03
<MEAN> 25
 1.940434e-01 -2.504992e+00 5.078203e+00 -1.276917e+01 -1.249217e+01 -1.667249e+00 9.430804e-01 -5.053307e+00 -4.216789e+00 -5.257317e-01 -5.449896e+00 -4.296564e+00 2.882397e-02 1.335185e-01 -4.427537e-02 8.341169e-02 1.552623e-01 6.743262e-02 -9.160949e-02 -2.020681e-01 -2.724676e-01 -2.661158e-01 -1.171096e-01 3.765750e-03 -7.638020e-03
<VARIANCE> 25
 7.722774e+00 1.543264e+01 1.746245e+01 2.140986e+01 2.596241e+01 2.917327e+01 2.950857e+01 2.446776e+01 3.495014e+01 2.810757e+01 1.972366e+01 2.104531e+01 1.571197e-01 6.402586e-01 6.156515e-01 7.082154e-01 7.642406e-01 1.145513e+00 1.119813e+00 1.196790e+00 1.219518e+00 1.183419e+00 9.302341e-01 8.695722e-01 2.127641e-04
<GCONST> 7.151440e+01
<MIXTURE> 122 4.567511e-03
<MEAN> 25
 1.940434e-01 -2.504992e+00 5.078203e+00 -1.276917e+01 -1.249217e+01 -1.667249e+00 9.430804e-01 -5.053307e+00 -4.216789e+00 -5.257317e-01 -5.449896e+00 -4.296564e+00 2.882397e-02 1.335185e-01 -4.427537e-02 8.341169e-02 1.552623e-01 6.743262e-02 -9.160949e-02 -2.020681e-01 -2.724676e-01 -2.661158e-01 -1.171096e-01 3.765750e-03 -7.638020e-03
<VARIANCE> 25
 7.722774e+00 1.543264e+01 1.746245e+01 2.140986e+01 2.596241e+01 2.917327e+01 2.950857e+01 2.446776e+01 3.495014e+01 2.810757e+01 1.972366e+01 2.104531e+01 1.571197e-01 6.402586e-01 6.156515e-01 7.082154e-01 7.642406e-01 1.145513e+00 1.119813e+00 1.196790e+00 1.219518e+00 1.183419e+00 9.302341e-01 8.695722e-01 2.127641e-04
<GCONST> 7.151440e+01
<MIXTURE> 123 4.393044e-03
<MEAN> 25
 -3.567494e+00 1.074785e+00 2.232176e-01 5.591475e+00 4.805992e+00 3.444134e+00 3.103891e+00 4.362569e-01 5.447679e-01 -4.889935e-01 -1.797239e-01 5.952228e-01 -4.028699e-01 -6.172059e-01 -8.441980e-01 -5.637186e-01 -3.008155e-01 4.452688e-02 3.762890e-01 7.557408e-01 8.547016e-01 8.660521e-01 7.207855e-01 5.885136e-01 -2.680440e-03
<VARIANCE> 25
 1.159747e+01 9.048819e+00 1.409379e+01 1.704121e+01 2.109924e+01 2.451467e+01 2.026083e+01 1.683522e+01 1.715249e+01 1.570817e+01 2.011555e+01 1.808608e+01 3.876756e-01 5.163548e-01 4.773604e-01 6.487639e-01 9.888926e-01 1.021468e+00 1.242598e+00 1.295437e+00 1.074677e+00 1.213618e+00 1.177377e+00 1.200863e+00 9.033851e-05
<GCONST> 6.866075e+01
<MIXTURE> 124 4.069876e-03
<MEAN> 25
 -6.382607e+00 -1.130992e+00 -2.889822e+00 5.029598e+00 4.824611e+00 3.408244e+00 5.372028e+00 2.586178e+00 3.161688e+00 1.294742e+00 1.001994e+00 2.943448e+00 -1.875914e-01 -3.247157e-01 -3.752575e-01 -2.109882e-01 1.422796e-01 5.162757e-01 8.259392e-01 8.603448e-01 6.661563e-01 3.239335e-01 1.077631e-01 3.112479e-02 1.710537e-04
<VARIANCE> 25
 1.174767e+01 7.005029e+00 1.089044e+01 1.234463e+01 1.289645e+01 1.945321e+01 1.511320e+01 1.671466e+01 1.508583e+01 1.581738e+01 1.950804e+01 1.459555e+01 1.145754e-01 1.665882e-01 2.713431e-01 4.076339e-01 5.889260e-01 6.933666e-01 7.362591e-01 7.948592e-01 8.982084e-01 9.593696e-01 1.036059e+00 1.075173e+00 1.808401e-05
<GCONST> 5.888820e+01
<MIXTURE> 125 4.069876e-03
<MEAN> 25
 -6.382607e+00 -1.130992e+00 -2.889822e+00 5.029598e+00 4.824611e+00 3.408244e+00 5.372028e+00 2.586178e+00 3.161688e+00 1.294742e+00 1.001994e+00 2.943448e+00 -1.875914e-01 -3.247157e-01 -3.752575e-01 -2.109882e-01 1.422796e-01 5.162757e-01 8.259392e-01 8.603448e-01 6.661563e-01 3.239335e-01 1.077631e-01 3.112479e-02 1.710537e-04
<VARIANCE> 25
 1.174767e+01 7.005029e+00 1.089044e+01 1.234463e+01 1.289645e+01 1.945321e+01 1.511320e+01 1.671466e+01 1.508583e+01 1.581738e+01 1.950804e+01 1.459555e+01 1.145754e-01 1.665882e-01 2.713431e-01 4.076339e-01 5.889260e-01 6.933666e-01 7.362591e-01 7.948592e-01 8.982084e-01 9.593696e-01 1.036059e+00 1.075173e+00 1.808401e-05
<GCONST> 5.888820e+01
<MIXTURE> 126 2.402244e-03
<MEAN> 25
 -3.638247e+00 -6.768865e+00 -5.139797e+00 2.213956e+00 4.136255e+00 -3.212470e+00 -6.746744e-02 3.410817e+00 3.100127e+00 -2.631238e+00 -1.387474e+00 2.874537e+00 8.333313e-03 1.700648e-02 -4.906850e-02 -1.369313e-01 -3.038147e-01 -3.921727e-01 -2.766562e-01 -2.049281e-01 -1.259492e-01 -1.357975e-01 -1.144010e-01 -1.637814e-02 -1.881426e-03
<VARIANCE> 25
 7.939726e+00 1.298147e+01 1.399680e+01 1.504080e+01 2.447302e+01 2.343295e+01 2.271523e+01 2.857953e+01 3.186064e+01 2.553036e+01 2.117916e+01 2.049949e+01 1.701818e-01 3.710115e-01 4.763369e-01 5.829920e-01 7.377868e-01 9.818402e-01 1.113431e+00 1.388950e+00 1.310787e+00 1.298440e+00 1.184187e+00 1.121651e+00 2.128175e-04
<GCONST> 6.996454e+01
<MIXTURE> 127 2.402244e-03
<MEAN> 25
 -3.638247e+00 -6.768865e+00 -5.139797e+00 2.213956e+00 4.136255e+00 -3.212470e+00 -6.746744e-02 3.410817e+00 3.100127e+00 -2.631238e+00 -1.387474e+00 2.874537e+00 8.333313e-03 1.700648e-02 -4.906850e-02 -1.369313e-01 -3.038147e-01 -3.921727e-01 -2.766562e-01 -2.049281e-01 -1.259492e-01 -1.357975e-01 -1.144010e-01 -1.637814e-02 -1.881426e-03
<VARIANCE> 25
 7.939726e+00 1.298147e+01 1.399680e+01 1.504080e+01 2.447302e+01 2.343295e+01 2.271523e+01 2.857953e+01 3.186064e+01 2.553036e+01 2.117916e+01 2.049949e+01 1.701818e-01 3.710115e-01 4.763369e-01 5.829920e-01 7.377868e-01 9.818402e-01 1.113431e+00 1.388950e+00 1.310787e+00 1.298440e+00 1.184187e+00 1.121651e+00 2.128175e-04
<GCONST> 6.996454e+01
<MIXTURE> 128 3.790457e-03
<MEAN> 25
 -3.929539e+00 1.541636e+00 -3.389494e-01 6.569586e+00 3.618666e+00 1.859665e+00 3.575695e+00 2.372080e+00 3.963353e+00 3.699246e+00 3.767302e+00 3.521652e+00 -3.956263e-01 -1.970097e-01 9.848045e-02 7.265616e-01 1.183278e+00 1.134418e+00 7.182814e-01 1.317291e-01 -4.386037e-01 -7.877270e-01 -7.019681e-01 -3.932803e-01 -3.573819e-05
<VARIANCE> 25
 1.021440e+01 1.169049e+01 1.497968e+01 1.933969e+01 2.003957e+01 2.116630e+01 2.430204e+01 2.465948e+01 2.640266e+01 2.387356e+01 2.680306e+01 1.821600e+01 8.922299e-01 1.145952e+00 1.365093e+00 1.501820e+00 1.582517e+00 1.863852e+00 2.247887e+00 2.325343e+00 2.148060e+00 1.857044e+00 1.743586e+00 1.748016e+00 1.000360e-06
<GCONST> 7.363970e+01
<TRANSP> 3
 0.000000e+00 1.000000e+00 0.000000e+00
 0.000000e+00 9.999990e-01 9.999998e-07
 0.000000e+00 0.000000e+00 0.000000e+00
<ENDHMM>
