~o
<STREAMINFO> 1 25
<VECSIZE> 25<NULLD><MFCC_E_D_N><DIAGC>
~h "jmodel"
<BEGINHMM>
<NUMSTATES> 3
<STATE> 2
<NUMMIXES> 128
<MIXTURE> 1 5.748963e-03
<MEAN> 25
 -2.579805e+00 3.176974e+00 2.305113e+00 8.738478e+00 4.369800e+00 3.452178e+00 4.059547e+00 3.935002e+00 5.823953e+00 5.252136e+00 5.873289e+00 3.074580e+00 -2.001823e+00 -1.633014e+00 -8.621749e-01 1.074890e+00 1.557066e+00 2.228727e+00 2.153827e+00 2.083672e+00 1.693376e+00 1.269924e+00 1.563656e+00 6.121885e-01 -4.678727e-02
<VARIANCE> 25
 1.005096e+01 1.174775e+01 1.494766e+01 1.877541e+01 2.315166e+01 2.211360e+01 2.186619e+01 2.194304e+01 2.099644e+01 2.251787e+01 2.097913e+01 1.708054e+01 1.791006e+00 2.112218e+00 3.022792e+00 3.205455e+00 3.739856e+00 3.356793e+00 3.315939e+00 3.376719e+00 3.516365e+00 3.720139e+00 3.515353e+00 2.832676e+00 3.124756e-03
<GCONST> 8.845551e+01
<MIXTURE> 2 4.549242e-03
<MEAN> 25
 -4.875278e+00 1.311713e+00 9.941621e-01 9.899129e+00 6.691978e+00 7.424337e+00 7.846705e+00 6.958115e+00 8.373286e+00 6.372909e+00 7.624398e+00 3.074931e+00 -6.201566e-02 4.154739e-02 1.424561e-01 2.258399e-01 2.651760e-01 2.812838e-01 2.953931e-01 3.196197e-01 3.498591e-01 3.089764e-01 1.972594e-01 8.010825e-02 1.084852e-06
<VARIANCE> 25
 6.954235e+00 8.901320e+00 1.065113e+01 1.591710e+01 1.723606e+01 1.556360e+01 1.690015e+01 1.848444e+01 1.658562e+01 1.738526e+01 1.810912e+01 1.433995e+01 1.252450e-01 2.266932e-01 3.365345e-01 4.671023e-01 6.494380e-01 8.149379e-01 9.298401e-01 1.003176e+00 1.051755e+00 1.077761e+00 1.075695e+00 1.013897e+00 1.000255e-06
<GCONST> 5.804443e+01
<MIXTURE> 3 4.549242e-03
<MEAN> 25
 -4.875278e+00 1.311713e+00 9.941621e-01 9.899129e+00 6.691978e+00 7.424337e+00 7.846705e+00 6.958115e+00 8.373286e+00 6.372909e+00 7.624398e+00 3.074931e+00 -6.201566e-02 4.154739e-02 1.424561e-01 2.258399e-01 2.651760e-01 2.812838e-01 2.953931e-01 3.196197e-01 3.498591e-01 3.089764e-01 1.972594e-01 8.010825e-02 1.084852e-06
<VARIANCE> 25
 6.954235e+00 8.901320e+00 1.065113e+01 1.591710e+01 1.723606e+01 1.556360e+01 1.690015e+01 1.848444e+01 1.658562e+01 1.738526e+01 1.810912e+01 1.433995e+01 1.252450e-01 2.266932e-01 3.365345e-01 4.671023e-01 6.494380e-01 8.149379e-01 9.298401e-01 1.003176e+00 1.051755e+00 1.077761e+00 1.075695e+00 1.013897e+00 1.000255e-06
<GCONST> 5.804443e+01
<MIXTURE> 4 1.671429e-02
<MEAN> 25
 3.396719e+00 2.504014e+00 -3.751737e+00 8.888211e-01 4.247372e+00 -1.772243e-01 6.926136e-02 -2.384623e-02 1.489914e+00 1.331600e+00 -1.854616e+00 3.460589e-02 -2.741703e+00 1.220416e+00 1.759149e+00 3.044151e+00 9.165534e-01 4.890256e-01 1.514199e+00 1.024322e+00 9.716452e-01 4.279497e-01 1.226192e+00 9.066597e-01 -1.026189e-01
<VARIANCE> 25
 2.100797e+01 2.937699e+01 2.897071e+01 3.938313e+01 4.533305e+01 6.789121e+01 6.442651e+01 5.309103e+01 5.475622e+01 6.169015e+01 4.955685e+01 3.580040e+01 2.374203e+00 5.023683e+00 3.700401e+00 5.006565e+00 4.960700e+00 6.076254e+00 6.033656e+00 5.550400e+00 5.919079e+00 6.373003e+00 6.089895e+00 4.399898e+00 6.117320e-03
<GCONST> 1.053242e+02
<MIXTURE> 5 3.206198e-03
<MEAN> 25
 -3.409229e+00 2.184212e+00 6.049452e-01 9.402635e+00 6.695294e+00 6.304770e+00 7.090418e+00 4.717492e+00 5.475086e+00 3.834611e+00 4.646597e+00 2.601448e+00 -3.218862e-01 7.496808e-01 1.220020e+00 1.036143e+00 3.064156e-01 -9.502441e-02 -8.417185e-02 3.803178e-02 4.598066e-01 6.805293e-01 4.093794e-01 8.458303e-02 -3.179153e-05
<VARIANCE> 25
 1.027012e+01 1.391099e+01 2.343659e+01 2.578733e+01 2.016778e+01 1.941446e+01 2.024425e+01 2.032265e+01 2.152815e+01 2.129164e+01 2.408755e+01 1.633128e+01 1.209662e+00 1.244596e+00 1.361876e+00 1.675321e+00 2.279161e+00 2.381696e+00 2.295863e+00 2.277451e+00 2.310930e+00 2.236237e+00 2.090715e+00 1.874366e+00 1.004800e-06
<GCONST> 7.518248e+01
<MIXTURE> 6 5.475854e-03
<MEAN> 25
 9.581738e+00 -4.003833e-01 -6.617221e+00 -1.090108e+01 -2.105239e+00 6.655469e+00 -5.816962e+00 -5.302080e+00 -3.645983e+00 1.810481e+00 4.568931e+00 -1.257311e+00 4.821610e-01 8.837310e-01 -3.655287e-01 -1.469492e+00 -6.102138e-01 1.313030e+00 1.516747e+00 2.388972e-01 -1.209910e+00 -1.212605e+00 3.247221e-01 1.216720e+00 -7.834150e-03
<VARIANCE> 25
 9.626307e+00 1.682189e+01 2.388250e+01 3.971535e+01 3.620468e+01 3.067571e+01 4.380222e+01 3.750671e+01 4.024908e+01 3.900320e+01 4.198032e+01 2.803459e+01 3.096641e-01 8.554696e-01 9.625163e-01 1.951956e+00 1.634108e+00 2.040254e+00 1.918833e+00 2.039160e+00 2.375693e+00 1.955569e+00 2.240120e+00 1.427656e+00 5.890926e-04
<GCONST> 8.386751e+01
<MIXTURE> 7 5.475854e-03
<MEAN> 25
 9.581738e+00 -4.003833e-01 -6.617221e+00 -1.090108e+01 -2.105239e+00 6.655469e+00 -5.816962e+00 -5.302080e+00 -3.645983e+00 1.810481e+00 4.568931e+00 -1.257311e+00 4.821610e-01 8.837310e-01 -3.655287e-01 -1.469492e+00 -6.102138e-01 1.313030e+00 1.516747e+00 2.388972e-01 -1.209910e+00 -1.212605e+00 3.247221e-01 1.216720e+00 -7.834150e-03
<VARIANCE> 25
 9.626307e+00 1.682189e+01 2.388250e+01 3.971535e+01 3.620468e+01 3.067571e+01 4.380222e+01 3.750671e+01 4.024908e+01 3.900320e+01 4.198032e+01 2.803459e+01 3.096641e-01 8.554696e-01 9.625163e-01 1.951956e+00 1.634108e+00 2.040254e+00 1.918833e+00 2.039160e+00 2.375693e+00 1.955569e+00 2.240120e+00 1.427656e+00 5.890926e-04
<GCONST> 8.386751e+01
<MIXTURE> 8 1.165917e-02
<MEAN> 25
 -4.374608e+00 1.111940e+00 1.034399e+00 8.936429e+00 6.248713e+00 5.842153e+00 5.960969e+00 6.003035e+00 6.509282e+00 5.528233e+00 6.643905e+00 3.072690e+00 -5.707083e-01 -1.582142e+00 -1.117351e+00 -1.466770e+00 -1.843293e-01 -9.703075e-01 -2.210364e-01 -5.621628e-01 -1.830404e-01 -1.093991e-01 -3.069763e-01 7.484376e-02 9.681810e-02
<VARIANCE> 25
 9.830917e+00 9.661902e+00 1.138223e+01 1.848763e+01 1.699782e+01 1.618022e+01 1.932812e+01 1.729346e+01 1.616396e+01 1.655604e+01 1.776201e+01 1.327719e+01 2.598647e+00 2.925220e+00 3.693359e+00 4.202005e+00 3.305350e+00 3.120483e+00 2.920470e+00 3.631673e+00 2.742578e+00 2.703753e+00 2.343721e+00 1.762418e+00 6.178987e-03
<GCONST> 8.613200e+01
<MIXTURE> 9 1.199672e-02
<MEAN> 25
 9.159341e+00 3.306284e+00 -6.142298e+00 -1.055815e+01 -2.157868e+00 4.963904e+00 -2.166025e+00 -2.345223e+00 -5.347033e+00 -1.236739e+00 5.952979e-01 -3.747148e-03 1.432768e+00 -1.268608e-01 -5.066137e-01 -2.667320e+00 -1.588368e+00 8.635335e-01 -9.596580e-01 -2.313932e-01 -1.802000e-01 -5.515453e-01 6.002000e-01 -1.506092e-01 7.206216e-02
<VARIANCE> 25
 1.278446e+01 2.129959e+01 3.302101e+01 5.304783e+01 4.917261e+01 3.191461e+01 4.269136e+01 5.115154e+01 4.134948e+01 4.070531e+01 3.598114e+01 2.676494e+01 2.064260e+00 2.400806e+00 4.523533e+00 4.833079e+00 5.086988e+00 4.026906e+00 4.179261e+00 5.913774e+00 4.934944e+00 4.092687e+00 4.061276e+00 2.759021e+00 2.264943e-03
<GCONST> 9.861205e+01
<MIXTURE> 10 6.596976e-03
<MEAN> 25
 8.210230e-01 7.633119e+00 5.374962e+00 7.146170e+00 1.587240e+00 -2.114015e+00 -5.185305e-01 -1.685254e+00 8.738689e-01 8.597003e-01 8.378443e-01 6.562229e-01 -1.924683e+00 -6.729348e-01 -4.584817e-01 3.027215e+00 2.462774e+00 2.709753e+00 2.373655e+00 2.277533e+00 1.861939e+00 1.545066e+00 2.335310e+00 5.250013e-01 -1.381110e-01
<VARIANCE> 25
 1.953697e+01 2.068579e+01 2.230268e+01 2.908208e+01 3.830279e+01 3.493819e+01 3.513898e+01 3.383298e+01 2.760842e+01 2.904232e+01 2.696155e+01 2.501396e+01 2.234851e+00 3.425966e+00 5.534255e+00 5.171771e+00 5.551748e+00 4.470304e+00 4.699356e+00 4.842733e+00 4.388531e+00 5.020110e+00 4.442855e+00 3.190466e+00 2.699609e-03
<GCONST> 9.745955e+01
<MIXTURE> 11 1.633820e-02
<MEAN> 25
 5.196666e+00 2.977055e+00 2.808451e+00 3.352853e+00 -2.116965e+00 -9.899294e-01 -1.665805e+00 -5.413985e+00 -3.140879e+00 -2.637230e-01 -2.714355e+00 -2.135568e+00 -2.945775e-01 4.605654e-01 2.155423e-01 2.153187e-01 4.634307e-01 -1.484509e-01 2.489836e-01 6.304582e-02 -1.127433e-01 3.199685e-02 -1.499399e-01 2.624906e-01 -1.433180e-02
<VARIANCE> 25
 9.907858e+00 1.636020e+01 1.479022e+01 2.258139e+01 2.690406e+01 2.489584e+01 3.186596e+01 2.870234e+01 2.860133e+01 3.183979e+01 3.728582e+01 1.916879e+01 6.853725e-01 9.454678e-01 1.329631e+00 1.658255e+00 1.744914e+00 1.732668e+00 1.913492e+00 2.487299e+00 1.894839e+00 2.327941e+00 2.167002e+00 1.293851e+00 6.525982e-04
<GCONST> 8.176160e+01
<MIXTURE> 12 5.904134e-03
<MEAN> 25
 1.072679e+01 3.731900e+00 -4.494629e+00 -1.593618e+01 -8.657032e+00 8.609832e+00 -8.903627e-01 -1.925632e+00 -1.724683e+00 -4.861518e+00 1.769333e+00 7.059805e-01 6.723869e-02 2.924345e-01 7.740418e-02 -3.677133e-01 -3.076632e-01 2.894634e-02 3.050581e-01 4.472340e-01 1.394953e-01 -3.827648e-01 -3.858989e-01 5.126734e-02 -6.304069e-03
<VARIANCE> 25
 9.132129e+00 2.094756e+01 2.326867e+01 3.552839e+01 4.218669e+01 3.105547e+01 4.162119e+01 4.877093e+01 4.387426e+01 3.742057e+01 3.803189e+01 2.887275e+01 2.468064e-01 6.864343e-01 6.867774e-01 1.168485e+00 1.186036e+00 1.054813e+00 1.167581e+00 1.382512e+00 1.240015e+00 1.227737e+00 1.223871e+00 9.587783e-01 5.775135e-04
<GCONST> 7.894749e+01
<MIXTURE> 13 5.904134e-03
<MEAN> 25
 1.072679e+01 3.731900e+00 -4.494629e+00 -1.593618e+01 -8.657032e+00 8.609832e+00 -8.903627e-01 -1.925632e+00 -1.724683e+00 -4.861518e+00 1.769333e+00 7.059805e-01 6.723869e-02 2.924345e-01 7.740418e-02 -3.677133e-01 -3.076632e-01 2.894634e-02 3.050581e-01 4.472340e-01 1.394953e-01 -3.827648e-01 -3.858989e-01 5.126734e-02 -6.304069e-03
<VARIANCE> 25
 9.132129e+00 2.094756e+01 2.326867e+01 3.552839e+01 4.218669e+01 3.105547e+01 4.162119e+01 4.877093e+01 4.387426e+01 3.742057e+01 3.803189e+01 2.887275e+01 2.468064e-01 6.864343e-01 6.867774e-01 1.168485e+00 1.186036e+00 1.054813e+00 1.167581e+00 1.382512e+00 1.240015e+00 1.227737e+00 1.223871e+00 9.587783e-01 5.775135e-04
<GCONST> 7.894749e+01
<MIXTURE> 14 6.488954e-03
<MEAN> 25
 -4.275170e+00 -4.375955e-01 -3.779240e-01 8.742554e+00 7.374097e+00 7.259547e+00 7.651302e+00 7.181592e+00 7.181540e+00 5.239913e+00 6.738912e+00 4.098445e+00 -2.779438e-01 2.029802e-01 3.443062e-01 2.863857e-01 -1.767129e-03 4.670488e-02 8.988222e-02 2.096119e-01 3.255943e-01 5.386084e-01 5.032025e-01 7.402027e-02 -9.083019e-03
<VARIANCE> 25
 9.323314e+00 1.385517e+01 1.826108e+01 1.840575e+01 2.110380e+01 1.964920e+01 2.199496e+01 2.099284e+01 2.000326e+01 2.426565e+01 2.143261e+01 1.586791e+01 9.456865e-01 1.706732e+00 1.744904e+00 1.946815e+00 2.256483e+00 2.225715e+00 2.265593e+00 2.282986e+00 2.280306e+00 2.461966e+00 2.157845e+00 1.782517e+00 1.026921e-03
<GCONST> 8.195225e+01
<MIXTURE> 15 2.475190e-03
<MEAN> 25
 -5.387195e+00 -6.261861e-01 -2.053297e-01 7.320393e+00 5.686329e+00 5.688337e+00 6.030544e+00 4.987734e+00 5.145305e+00 4.109225e+00 5.486161e+00 2.535828e+00 -1.207428e-01 -2.977419e-02 7.522599e-02 2.437746e-01 4.850049e-01 7.803971e-01 1.069985e+00 1.181075e+00 1.050940e+00 7.483582e-01 4.229822e-01 1.561885e-01 -9.204422e-05
<VARIANCE> 25
 7.123740e+00 5.600734e+00 8.978723e+00 1.299380e+01 1.410125e+01 1.426103e+01 1.491692e+01 1.483115e+01 1.404971e+01 1.434968e+01 1.504402e+01 1.244279e+01 1.268551e-01 2.052792e-01 3.193380e-01 5.018364e-01 7.002699e-01 7.963519e-01 7.613859e-01 7.897242e-01 9.196200e-01 1.027592e+00 1.067834e+00 1.038357e+00 2.884771e-05
<GCONST> 5.865551e+01
<MIXTURE> 16 2.475190e-03
<MEAN> 25
 -5.387195e+00 -6.261861e-01 -2.053297e-01 7.320393e+00 5.686329e+00 5.688337e+00 6.030544e+00 4.987734e+00 5.145305e+00 4.109225e+00 5.486161e+00 2.535828e+00 -1.207428e-01 -2.977419e-02 7.522599e-02 2.437746e-01 4.850049e-01 7.803971e-01 1.069985e+00 1.181075e+00 1.050940e+00 7.483582e-01 4.229822e-01 1.561885e-01 -9.204422e-05
<VARIANCE> 25
 7.123740e+00 5.600734e+00 8.978723e+00 1.299380e+01 1.410125e+01 1.426103e+01 1.491692e+01 1.483115e+01 1.404971e+01 1.434968e+01 1.504402e+01 1.244279e+01 1.268551e-01 2.052792e-01 3.193380e-01 5.018364e-01 7.002699e-01 7.963519e-01 7.613859e-01 7.897242e-01 9.196200e-01 1.027592e+00 1.067834e+00 1.038357e+00 2.884771e-05
<GCONST> 5.865551e+01
<MIXTURE> 17 9.518312e-03
<MEAN> 25
 3.144389e+00 -1.342248e+00 4.669117e+00 1.090232e+00 -5.190764e+00 -5.644668e+00 -2.979787e+00 -1.301134e+00 -2.845063e+00 -2.648271e+00 5.352789e-01 -5.894005e-01 -7.912599e-01 -1.185566e+00 1.353140e+00 -1.995150e+00 -2.360050e+00 -3.504531e-01 3.755483e-01 7.575084e-01 -3.936693e-01 -7.200444e-02 1.002415e+00 3.004519e-01 7.460520e-02
<VARIANCE> 25
 1.407873e+01 2.722515e+01 3.449087e+01 3.895056e+01 3.778907e+01 4.043889e+01 3.366961e+01 3.637972e+01 2.904073e+01 2.460892e+01 2.634202e+01 2.575672e+01 1.753654e+00 2.152917e+00 3.482521e+00 2.844365e+00 3.554769e+00 4.665432e+00 4.328605e+00 4.208529e+00 3.342458e+00 4.795332e+00 2.482881e+00 2.439521e+00 1.863141e-03
<GCONST> 9.425533e+01
<MIXTURE> 18 1.221018e-02
<MEAN> 25
 3.944142e+00 4.604745e+00 6.721530e+00 4.721012e+00 -4.595910e+00 -8.320868e+00 -1.743061e+00 -1.182729e+00 -3.364104e+00 -2.445065e+00 -8.788332e-01 5.708556e-01 -7.575859e-01 2.156714e+00 -2.001629e-01 2.021998e+00 3.109040e+00 1.481843e+00 8.007495e-01 -2.065642e-01 6.196265e-01 5.205760e-01 -2.890406e-01 -5.786016e-02 -1.235234e-01
<VARIANCE> 25
 1.605495e+01 2.532043e+01 3.294193e+01 2.619779e+01 3.999758e+01 3.393942e+01 3.856245e+01 3.504249e+01 3.910720e+01 3.449495e+01 3.256921e+01 3.091314e+01 2.573805e+00 3.030028e+00 4.724971e+00 4.062690e+00 4.092880e+00 4.666460e+00 4.652502e+00 4.446980e+00 4.480409e+00 4.315032e+00 4.562413e+00 3.618816e+00 4.127722e-03
<GCONST> 9.852264e+01
<MIXTURE> 19 9.912824e-03
<MEAN> 25
 -8.308621e+00 1.247682e+00 3.063038e-01 3.570439e-01 3.323145e+00 1.925283e+00 3.175634e+00 1.346254e+00 2.334172e+00 1.353588e+00 2.857295e-01 1.741239e+00 1.805536e+00 1.397598e+00 1.811212e+00 7.700603e-01 -1.152702e+00 -1.154908e+00 -9.541970e-01 -1.380460e+00 -1.578130e+00 -1.131789e+00 -5.648763e-01 -7.565926e-01 2.915006e-03
<VARIANCE> 25
 5.206378e+01 2.490877e+01 3.916083e+01 4.375440e+01 2.755666e+01 2.780120e+01 2.724267e+01 2.562681e+01 2.371956e+01 2.594322e+01 2.785518e+01 1.807271e+01 2.077368e+00 2.050467e+00 2.142505e+00 1.998335e+00 2.129642e+00 2.519636e+00 2.078525e+00 2.095433e+00 1.785611e+00 1.754492e+00 2.634237e+00 1.466789e+00 2.093332e-03
<GCONST> 8.877383e+01
<MIXTURE> 20 6.308331e-03
<MEAN> 25
 -1.417509e+01 7.403051e+00 8.308990e-01 6.131401e+00 4.840573e+00 1.639830e+00 5.204213e+00 8.539975e-01 9.355633e-01 7.911328e-01 2.557795e+00 -2.915772e-01 -3.285592e+00 -8.649162e-01 -1.565557e+00 3.295472e-01 1.543678e+00 2.060061e+00 1.975614e+00 2.054191e+00 2.142359e+00 2.033852e+00 1.682188e+00 9.436283e-01 4.735449e-02
<VARIANCE> 25
 1.967599e+01 2.350717e+01 3.111819e+01 3.731760e+01 3.080358e+01 2.784005e+01 2.992701e+01 3.141403e+01 2.799581e+01 2.819369e+01 2.517255e+01 2.096270e+01 2.089412e+00 2.179778e+00 1.913823e+00 2.541783e+00 2.703814e+00 2.315332e+00 2.317483e+00 2.320552e+00 2.236314e+00 2.667172e+00 2.240592e+00 1.867409e+00 1.886163e-03
<GCONST> 8.923918e+01
<MIXTURE> 21 7.928653e-03
<MEAN> 25
 3.788111e+00 -4.237954e+00 5.599905e+00 -1.327561e+00 -1.019690e+01 -8.113554e+00 -2.495689e+00 3.743305e+00 -1.897268e+00 -3.032058e+00 5.706805e-02 1.292928e-01 -6.612318e-01 1.249355e+00 2.469785e+00 -4.107255e-02 -1.565188e+00 2.585510e-01 5.103974e-01 -1.510001e+00 -1.887067e+00 2.773547e-01 1.245905e+00 2.833578e-01 -1.011714e-02
<VARIANCE> 25
 8.560487e+00 1.851941e+01 2.781793e+01 2.836028e+01 2.784301e+01 3.513905e+01 4.119442e+01 3.770555e+01 4.023494e+01 3.142070e+01 3.181573e+01 2.183934e+01 3.763962e-01 9.573483e-01 1.833142e+00 1.332564e+00 2.196766e+00 2.099550e+00 3.412925e+00 2.296834e+00 2.061600e+00 2.398554e+00 1.991391e+00 2.246602e+00 4.646940e-04
<GCONST> 8.448615e+01
<MIXTURE> 22 8.827789e-03
<MEAN> 25
 -1.788880e+01 7.136809e+00 -4.105626e+00 7.329100e+00 4.601703e+00 2.753418e+00 8.388476e+00 1.733097e+00 5.362021e+00 3.277012e+00 5.693480e+00 1.211544e+00 -3.099021e-01 -2.073809e-01 -1.264301e-01 -1.446722e-01 -5.711894e-03 1.382509e-01 1.811087e-01 1.766765e-01 2.467928e-01 1.974060e-01 1.763040e-01 1.896739e-01 8.850075e-03
<VARIANCE> 25
 8.267811e+00 1.682932e+01 1.748515e+01 2.581196e+01 2.279772e+01 2.073587e+01 1.956480e+01 1.865523e+01 1.815969e+01 2.086080e+01 1.927014e+01 1.385079e+01 1.091852e+00 1.350415e+00 1.358099e+00 1.573015e+00 1.411457e+00 1.519299e+00 1.502036e+00 1.533317e+00 1.612728e+00 1.566500e+00 1.352057e+00 1.165820e+00 1.740817e-03
<GCONST> 7.834989e+01
<MIXTURE> 23 6.455497e-03
<MEAN> 25
 4.993761e+00 2.267470e+00 2.521387e+00 1.137255e+00 -2.685386e+00 -1.916805e+00 -4.092464e+00 -5.075618e+00 -3.500850e+00 -2.339573e+00 -4.080411e+00 -2.740509e+00 -4.751988e-02 1.696972e-01 6.568394e-02 2.347040e-01 1.384117e-04 7.375606e-02 2.653306e-02 -1.344952e-01 -4.804921e-02 -1.251711e-01 -1.655591e-01 -1.525031e-02 -3.222481e-03
<VARIANCE> 25
 9.015866e+00 1.256822e+01 1.562334e+01 2.420014e+01 2.400113e+01 3.280259e+01 3.660549e+01 3.384232e+01 3.551836e+01 3.917362e+01 4.166791e+01 2.492133e+01 9.426904e-02 2.663758e-01 3.885103e-01 5.638950e-01 7.082016e-01 8.009009e-01 7.454239e-01 9.706156e-01 1.045065e+00 1.002584e+00 9.379535e-01 7.103676e-01 9.341389e-05
<GCONST> 6.885497e+01
<MIXTURE> 24 6.455497e-03
<MEAN> 25
 4.993761e+00 2.267470e+00 2.521387e+00 1.137255e+00 -2.685386e+00 -1.916805e+00 -4.092464e+00 -5.075618e+00 -3.500850e+00 -2.339573e+00 -4.080411e+00 -2.740509e+00 -4.751988e-02 1.696972e-01 6.568394e-02 2.347040e-01 1.384117e-04 7.375606e-02 2.653306e-02 -1.344952e-01 -4.804921e-02 -1.251711e-01 -1.655591e-01 -1.525031e-02 -3.222481e-03
<VARIANCE> 25
 9.015866e+00 1.256822e+01 1.562334e+01 2.420014e+01 2.400113e+01 3.280259e+01 3.660549e+01 3.384232e+01 3.551836e+01 3.917362e+01 4.166791e+01 2.492133e+01 9.426904e-02 2.663758e-01 3.885103e-01 5.638950e-01 7.082016e-01 8.009009e-01 7.454239e-01 9.706156e-01 1.045065e+00 1.002584e+00 9.379535e-01 7.103676e-01 9.341389e-05
<GCONST> 6.885497e+01
<MIXTURE> 25 1.118642e-02
<MEAN> 25
 2.970038e-01 3.314511e+00 1.626400e+01 -1.022440e+00 -1.079058e+01 -1.408519e+00 -4.784659e+00 -2.917661e+00 -7.068006e+00 -5.455050e+00 3.755868e+00 -1.700910e+00 -1.194619e-01 4.268837e-01 1.467045e-01 1.076123e-01 2.012018e-01 1.054480e-01 1.465727e-01 -1.994710e-01 -2.243413e-01 1.201397e-01 -4.100379e-02 -7.843418e-02 -1.235226e-02
<VARIANCE> 25
 8.410940e+00 2.155125e+01 2.446606e+01 2.737492e+01 3.542319e+01 4.152399e+01 2.693088e+01 2.921091e+01 2.780288e+01 3.492040e+01 2.209188e+01 2.660968e+01 5.789425e-01 1.399016e+00 1.537490e+00 1.373749e+00 2.250409e+00 1.984769e+00 1.740623e+00 1.579744e+00 1.540318e+00 1.620059e+00 1.322397e+00 1.274779e+00 1.226569e-03
<GCONST> 8.264812e+01
<MIXTURE> 26 7.727677e-03
<MEAN> 25
 2.133832e+00 -6.222161e+00 -9.846222e+00 -8.118501e-01 7.443211e+00 5.188299e+00 3.730304e+00 -4.005592e-01 2.182030e+00 -4.286872e-01 -2.438564e+00 -1.032670e+00 -5.976880e-01 7.241572e-01 3.405038e-01 6.840730e-01 2.244193e-01 2.612267e-01 2.594090e-01 2.775258e-01 2.733867e-01 8.246232e-02 4.287449e-01 4.593225e-01 -5.155813e-02
<VARIANCE> 25
 2.395723e+01 3.366060e+01 2.726485e+01 5.846956e+01 4.033778e+01 4.123870e+01 4.474996e+01 4.144337e+01 3.800281e+01 5.626236e+01 4.179998e+01 4.551546e+01 1.670043e+00 2.151178e+00 1.831426e+00 1.952653e+00 2.250900e+00 2.281088e+00 2.470700e+00 2.873697e+00 2.238376e+00 2.453027e+00 2.184267e+00 1.911032e+00 3.137358e-03
<GCONST> 9.369121e+01
<MIXTURE> 27 7.727677e-03
<MEAN> 25
 2.133832e+00 -6.222161e+00 -9.846222e+00 -8.118501e-01 7.443211e+00 5.188299e+00 3.730304e+00 -4.005592e-01 2.182030e+00 -4.286872e-01 -2.438564e+00 -1.032670e+00 -5.976880e-01 7.241572e-01 3.405038e-01 6.840730e-01 2.244193e-01 2.612267e-01 2.594090e-01 2.775258e-01 2.733867e-01 8.246232e-02 4.287449e-01 4.593225e-01 -5.155813e-02
<VARIANCE> 25
 2.395723e+01 3.366060e+01 2.726485e+01 5.846956e+01 4.033778e+01 4.123870e+01 4.474996e+01 4.144337e+01 3.800281e+01 5.626236e+01 4.179998e+01 4.551546e+01 1.670043e+00 2.151178e+00 1.831426e+00 1.952653e+00 2.250900e+00 2.281088e+00 2.470700e+00 2.873697e+00 2.238376e+00 2.453027e+00 2.184267e+00 1.911032e+00 3.137358e-03
<GCONST> 9.369121e+01
<MIXTURE> 28 5.036674e-03
<MEAN> 25
 -5.380810e+00 4.889071e-02 -1.558976e+00 6.499907e+00 5.214675e+00 3.466282e+00 5.330842e+00 3.133538e+00 3.856101e+00 2.356537e+00 2.606387e+00 3.165420e+00 -1.116619e-01 2.177809e-01 5.211874e-01 7.915333e-01 8.138974e-01 7.081945e-01 5.243246e-01 4.064811e-01 4.459595e-01 4.713542e-01 3.870270e-01 1.752991e-01 -3.066336e-05
<VARIANCE> 25
 1.075119e+01 8.349855e+00 1.205334e+01 1.542365e+01 1.463625e+01 1.766543e+01 1.835633e+01 1.883167e+01 1.724351e+01 1.657713e+01 2.039283e+01 1.499003e+01 2.582952e-01 3.381544e-01 4.086326e-01 4.777486e-01 6.210480e-01 8.513536e-01 1.057638e+00 1.149053e+00 1.090776e+00 1.035976e+00 1.058147e+00 1.075310e+00 1.027694e-06
<GCONST> 6.039744e+01
<MIXTURE> 29 5.036674e-03
<MEAN> 25
 -5.380810e+00 4.889071e-02 -1.558976e+00 6.499907e+00 5.214675e+00 3.466282e+00 5.330842e+00 3.133538e+00 3.856101e+00 2.356537e+00 2.606387e+00 3.165420e+00 -1.116619e-01 2.177809e-01 5.211874e-01 7.915333e-01 8.138974e-01 7.081945e-01 5.243246e-01 4.064811e-01 4.459595e-01 4.713542e-01 3.870270e-01 1.752991e-01 -3.066336e-05
<VARIANCE> 25
 1.075119e+01 8.349855e+00 1.205334e+01 1.542365e+01 1.463625e+01 1.766543e+01 1.835633e+01 1.883167e+01 1.724351e+01 1.657713e+01 2.039283e+01 1.499003e+01 2.582952e-01 3.381544e-01 4.086326e-01 4.777486e-01 6.210480e-01 8.513536e-01 1.057638e+00 1.149053e+00 1.090776e+00 1.035976e+00 1.058147e+00 1.075310e+00 1.027694e-06
<GCONST> 6.039744e+01
<MIXTURE> 30 8.917812e-03
<MEAN> 25
 -4.403117e+00 -1.389640e-01 6.484631e-01 8.946507e+00 7.644232e+00 7.457691e+00 7.500521e+00 6.856369e+00 6.413451e+00 4.810648e+00 6.967436e+00 3.496929e+00 -1.896940e-02 3.110578e-02 4.347316e-02 8.117824e-02 7.439706e-02 4.025099e-02 3.232307e-02 9.996510e-03 1.169311e-02 5.068899e-02 7.537603e-02 5.171870e-02 -4.527268e-04
<VARIANCE> 25
 7.315232e+00 9.764606e+00 1.020537e+01 1.419948e+01 1.598340e+01 1.619474e+01 1.893506e+01 1.786990e+01 1.637746e+01 1.845576e+01 2.086826e+01 1.402070e+01 9.990541e-02 1.946484e-01 3.304227e-01 4.810611e-01 6.148037e-01 7.114388e-01 7.725943e-01 8.026662e-01 8.588945e-01 9.180504e-01 9.113332e-01 8.603483e-01 5.167130e-05
<GCONST> 6.052672e+01
<MIXTURE> 31 4.136493e-03
<MEAN> 25
 -3.060027e+00 -5.036414e+00 -3.662410e-01 4.267852e+00 3.853514e+00 1.567722e+00 4.681127e+00 6.003626e+00 2.923545e+00 1.445528e+00 5.538485e+00 2.980083e+00 2.724287e-01 4.420232e-01 -1.849229e-01 2.632927e-01 1.700813e-01 4.180357e-01 2.960676e-01 9.840313e-02 2.930970e-01 2.463610e-01 6.538492e-02 1.288251e-02 -1.898068e-02
<VARIANCE> 25
 7.420792e+00 1.530143e+01 1.642442e+01 1.754718e+01 2.452305e+01 2.244927e+01 2.520086e+01 2.404859e+01 2.516732e+01 2.874381e+01 2.299786e+01 1.694062e+01 2.073456e-01 4.696890e-01 5.649228e-01 7.212464e-01 1.039896e+00 1.094322e+00 1.287405e+00 1.365535e+00 1.414955e+00 1.352762e+00 1.217208e+00 1.104204e+00 2.446689e-04
<GCONST> 7.170559e+01
<MIXTURE> 32 4.136493e-03
<MEAN> 25
 -3.060027e+00 -5.036414e+00 -3.662410e-01 4.267852e+00 3.853514e+00 1.567722e+00 4.681127e+00 6.003626e+00 2.923545e+00 1.445528e+00 5.538485e+00 2.980083e+00 2.724287e-01 4.420232e-01 -1.849229e-01 2.632927e-01 1.700813e-01 4.180357e-01 2.960676e-01 9.840313e-02 2.930970e-01 2.463610e-01 6.538492e-02 1.288251e-02 -1.898068e-02
<VARIANCE> 25
 7.420792e+00 1.530143e+01 1.642442e+01 1.754718e+01 2.452305e+01 2.244927e+01 2.520086e+01 2.404859e+01 2.516732e+01 2.874381e+01 2.299786e+01 1.694062e+01 2.073456e-01 4.696890e-01 5.649228e-01 7.212464e-01 1.039896e+00 1.094322e+00 1.287405e+00 1.365535e+00 1.414955e+00 1.352762e+00 1.217208e+00 1.104204e+00 2.446689e-04
<GCONST> 7.170559e+01
<MIXTURE> 33 1.508826e-02
<MEAN> 25
 5.894713e+00 -3.718820e+00 -2.016032e+00 -2.364386e+00 -2.038487e+00 -4.754842e+00 -6.297484e+00 1.224950e+00 1.995591e+00 -1.875989e-01 -4.241067e+00 -2.866767e+00 6.835790e-01 -1.099000e+00 -2.151520e+00 -1.930660e+00 1.154930e+00 1.460272e+00 -6.515350e-01 6.414810e-01 8.680947e-01 7.020637e-01 -4.631468e-01 -1.399971e+00 3.521176e-02
<VARIANCE> 25
 1.059578e+01 2.609891e+01 2.506443e+01 3.212895e+01 3.517946e+01 4.280350e+01 4.144393e+01 4.297166e+01 3.514212e+01 4.184477e+01 3.163640e+01 2.459879e+01 1.028472e+00 1.740144e+00 2.531925e+00 2.011007e+00 4.095366e+00 2.956786e+00 3.814834e+00 4.927236e+00 3.473294e+00 4.814788e+00 3.479095e+00 2.386504e+00 1.349268e-03
<GCONST> 9.297533e+01
<MIXTURE> 34 1.588179e-02
<MEAN> 25
 8.736093e+00 -1.526282e-01 1.684568e-02 1.130897e+00 -2.815278e+00 -1.341479e+00 -5.899278e+00 -4.652174e+00 -1.766908e+00 4.849018e-01 -2.416255e+00 -3.762486e+00 -2.809789e-02 1.423097e+00 1.432391e+00 2.363763e+00 -2.436984e-03 -1.114227e-01 7.760020e-01 -1.668230e+00 -8.881633e-01 2.002138e-01 -4.758662e-01 2.768030e-01 -6.202659e-02
<VARIANCE> 25
 8.316463e+00 3.138075e+01 2.877635e+01 4.844799e+01 4.139053e+01 4.853210e+01 5.466132e+01 5.488533e+01 5.081921e+01 4.506295e+01 4.830362e+01 3.075418e+01 1.235273e+00 2.111399e+00 4.164911e+00 3.944203e+00 5.482612e+00 5.678576e+00 5.328673e+00 5.997720e+00 5.031119e+00 4.952295e+00 5.031383e+00 3.771351e+00 1.124919e-03
<GCONST> 9.943188e+01
<MIXTURE> 35 1.467755e-02
<MEAN> 25
 -1.894603e+00 -5.506819e+00 -9.397495e+00 6.572828e-01 8.928161e+00 4.675476e-01 1.476253e+00 1.870042e+00 1.785123e+00 4.447439e+00 1.338692e-02 1.840808e+00 4.614037e-01 -1.214167e+00 -1.341956e+00 -1.262393e+00 3.031664e-01 -8.161189e-01 -6.884631e-01 -3.483420e-01 -8.656371e-02 2.882586e-01 -6.990069e-01 -4.320273e-01 1.036990e-01
<VARIANCE> 25
 1.879156e+01 2.833281e+01 4.348644e+01 5.864332e+01 4.462236e+01 5.329131e+01 4.668164e+01 4.510280e+01 4.660988e+01 3.812503e+01 3.385762e+01 2.818344e+01 3.364984e+00 3.487727e+00 6.322062e+00 5.290701e+00 5.186109e+00 5.101772e+00 4.469395e+00 4.908005e+00 4.770776e+00 4.474049e+00 3.730597e+00 3.679033e+00 4.960437e-03
<GCONST> 1.025483e+02
<MIXTURE> 36 1.093293e-02
<MEAN> 25
 4.028328e+00 -2.170601e+00 4.813282e+00 1.716184e+00 -7.813513e+00 -8.300629e+00 -5.784582e+00 2.017871e+00 -2.550419e+00 -2.575805e+00 2.740414e+00 5.700024e-01 2.912997e-01 2.137799e-01 -8.958585e-01 2.466535e-02 8.486516e-01 -1.161086e-01 -4.504109e-01 2.890628e-01 9.466592e-01 7.504824e-01 -5.009739e-01 -6.281800e-01 -1.092526e-02
<VARIANCE> 25
 6.673991e+00 1.088117e+01 1.673604e+01 1.759940e+01 2.354795e+01 3.187815e+01 3.048756e+01 2.633961e+01 3.799504e+01 2.767702e+01 2.136836e+01 2.479088e+01 4.106752e-01 5.348303e-01 1.009087e+00 9.515399e-01 1.139615e+00 1.301010e+00 1.441974e+00 1.418578e+00 2.186716e+00 1.441668e+00 1.089282e+00 1.951233e+00 4.581763e-04
<GCONST> 7.622445e+01
<MIXTURE> 37 1.246826e-02
<MEAN> 25
 5.455195e-01 7.753478e+00 1.202728e+01 -5.545701e+00 -8.007545e+00 -1.046774e+00 -5.068642e+00 -8.304961e+00 -3.719060e+00 -9.155917e-01 -3.680401e+00 -1.308532e+00 1.818540e-01 6.469157e-01 -1.353268e+00 3.572016e+00 1.985368e+00 -2.998856e-01 1.088246e+00 4.380256e-01 5.334204e-01 -3.166155e-01 5.380070e-01 -9.535188e-02 -9.469403e-02
<VARIANCE> 25
 1.589025e+01 2.602017e+01 3.099772e+01 5.089185e+01 3.399664e+01 3.193072e+01 4.390266e+01 3.506622e+01 3.853179e+01 3.588480e+01 3.772344e+01 3.091340e+01 2.947785e+00 3.404853e+00 3.011092e+00 4.116997e+00 4.604525e+00 3.742461e+00 4.201087e+00 3.800090e+00 3.456290e+00 3.630383e+00 3.861472e+00 2.784768e+00 3.931266e-03
<GCONST> 9.776421e+01
<MIXTURE> 38 1.154525e-02
<MEAN> 25
 -4.250359e+00 8.435642e+00 4.509525e+00 3.147358e+00 5.480921e-01 -4.918387e+00 -3.309751e-01 -2.886729e+00 -2.824944e+00 -2.783613e+00 -1.558446e+00 -3.366480e-01 -4.493814e+00 1.237844e+00 -4.763933e-01 1.252646e+00 2.548324e+00 1.399760e+00 1.969910e+00 9.272006e-01 8.853929e-01 4.867724e-01 9.281290e-01 3.392561e-01 5.071521e-02
<VARIANCE> 25
 3.099725e+01 3.348818e+01 3.751852e+01 3.246657e+01 4.839121e+01 3.552439e+01 3.590555e+01 4.025814e+01 3.371679e+01 3.260090e+01 2.323970e+01 2.833986e+01 2.280411e+00 3.743527e+00 4.412846e+00 5.649598e+00 4.049676e+00 4.843154e+00 4.780292e+00 4.424942e+00 4.496709e+00 5.166911e+00 4.267561e+00 3.131511e+00 2.122519e-03
<GCONST> 9.918675e+01
<MIXTURE> 39 9.501865e-03
<MEAN> 25
 1.118502e+00 2.235083e+00 9.793731e+00 -8.492905e+00 -1.056460e+01 -5.287297e-01 -2.859772e+00 -6.028778e+00 -4.364039e+00 5.877563e-01 -3.702252e+00 -2.223560e+00 -7.031561e-01 1.371678e+00 1.626976e+00 -1.387119e+00 -8.721092e-02 1.169688e+00 -1.050801e+00 -1.206625e+00 3.533583e-01 4.635704e-01 -5.566049e-01 1.861347e-01 2.690973e-03
<VARIANCE> 25
 9.183563e+00 2.889808e+01 3.036235e+01 3.981093e+01 3.843296e+01 4.200377e+01 4.106633e+01 3.321580e+01 3.773269e+01 3.177368e+01 3.288824e+01 2.812173e+01 6.621361e-01 1.627638e+00 1.409488e+00 2.681829e+00 2.509369e+00 2.662473e+00 3.037598e+00 2.596423e+00 2.351776e+00 2.462695e+00 2.301306e+00 1.922477e+00 1.101343e-03
<GCONST> 8.895052e+01
<MIXTURE> 40 1.030800e-02
<MEAN> 25
 -7.555513e+00 1.608958e+00 -1.153538e+00 6.704736e+00 3.377283e+00 4.972761e+00 4.428240e+00 3.933569e+00 4.114386e+00 3.580242e+00 5.078230e+00 1.684362e+00 -7.800965e-02 -2.970338e-01 -4.930078e-03 -1.843790e-01 -1.993270e-01 -1.339493e-01 1.524262e-01 8.967309e-02 7.652906e-02 1.260582e-01 2.249858e-02 -3.562247e-02 3.670577e-03
<VARIANCE> 25
 4.436167e+01 1.732711e+01 2.343049e+01 2.913964e+01 2.269628e+01 1.721051e+01 1.856149e+01 1.639367e+01 1.554635e+01 1.855093e+01 1.858635e+01 1.361440e+01 7.442487e-01 7.903473e-01 7.888311e-01 1.053589e+00 1.291609e+00 1.155780e+00 1.297716e+00 1.296261e+00 1.444277e+00 1.236458e+00 1.029269e+00 1.021911e+00 8.108256e-04
<GCONST> 7.571933e+01
<MIXTURE> 41 6.713375e-03
<MEAN> 25
 1.289911e+00 1.610057e+00 1.025680e+01 -6.846242e+00 -1.029800e+01 -3.769866e+00 -2.497709e+00 -4.948328e+00 -4.566997e+00 2.606693e+00 -1.730216e+00 -1.000020e+00 7.220381e-02 -7.607199e-01 1.699876e+00 -3.519912e+00 -2.463578e+00 -1.065549e-01 -4.839745e-01 -3.288133e-01 -8.270177e-01 1.113038e+00 -1.031345e+00 6.878240e-02 8.501635e-02
<VARIANCE> 25
 1.166538e+01 3.036588e+01 3.391208e+01 3.972904e+01 3.890887e+01 4.010516e+01 3.628271e+01 2.988833e+01 3.265195e+01 2.850869e+01 3.133391e+01 2.709935e+01 3.126817e+00 3.241775e+00 3.743798e+00 3.777740e+00 4.824050e+00 5.768919e+00 4.645592e+00 4.538532e+00 3.897290e+00 4.296587e+00 3.827794e+00 3.187018e+00 2.919755e-03
<GCONST> 9.776779e+01
<MIXTURE> 42 1.106211e-02
<MEAN> 25
 -1.739044e+00 4.106327e+00 4.839369e+00 2.815120e+00 -3.831030e-01 -5.784916e+00 -7.206443e-01 -2.072612e+00 -1.664938e+00 -1.140953e+00 -2.039186e+00 1.293212e+00 3.964285e+00 -3.562443e-01 1.334492e+00 2.856187e-01 -2.846063e+00 -1.484179e+00 -2.250333e+00 -9.695498e-01 -1.166952e+00 -9.390001e-01 8.738312e-01 -9.905952e-01 1.148938e-02
<VARIANCE> 25
 3.362642e+01 2.126122e+01 4.400106e+01 2.412808e+01 3.970671e+01 3.811148e+01 3.473659e+01 2.528917e+01 2.671940e+01 2.567316e+01 1.911508e+01 1.647540e+01 3.659589e+00 4.449661e+00 5.914779e+00 4.478391e+00 4.371760e+00 6.953995e+00 4.628980e+00 5.107244e+00 6.222621e+00 5.019152e+00 5.352032e+00 3.158834e+00 4.134784e-03
<GCONST> 9.929528e+01
<MIXTURE> 43 7.108249e-03
<MEAN> 25
 3.143948e+00 -6.191148e+00 -2.224332e+00 -5.125481e+00 -7.308811e+00 -3.317433e+00 4.087707e+00 1.269080e+00 -5.008819e+00 -6.979662e+00 -4.260325e+00 -1.281107e+00 2.380346e-01 2.132344e+00 1.890998e+00 -1.220975e-01 -1.411304e+00 -7.867539e-01 -9.622205e-01 -7.707426e-01 8.047866e-01 1.469608e+00 3.627394e-01 4.157742e-02 -4.456908e-02
<VARIANCE> 25
 9.486653e+00 2.028654e+01 2.711470e+01 3.514493e+01 3.827644e+01 3.644315e+01 3.304041e+01 3.927924e+01 3.929644e+01 3.900482e+01 2.737112e+01 2.963957e+01 7.011250e-01 1.295246e+00 1.584637e+00 2.466580e+00 2.382710e+00 2.363711e+00 2.631050e+00 2.997520e+00 2.604195e+00 2.577649e+00 2.361694e+00 1.924825e+00 9.527644e-04
<GCONST> 8.803129e+01
<MIXTURE> 44 7.328289e-03
<MEAN> 25
 -1.302412e+01 1.691790e+00 2.956969e+00 -3.487651e+00 3.115160e+00 2.155046e+00 1.436299e+00 1.311832e+00 1.588950e+00 -3.704667e-01 7.558650e-01 2.335677e+00 -2.380870e-01 4.353342e-03 1.864778e-01 2.433945e-01 -3.951806e-02 1.750485e-01 5.201870e-01 1.363530e-01 7.666180e-02 1.666818e-02 7.625473e-02 1.433403e-01 5.326244e-03
<VARIANCE> 25
 4.278738e+01 2.494451e+01 2.957854e+01 2.262023e+01 2.489545e+01 2.599911e+01 2.721048e+01 2.629596e+01 2.369685e+01 2.274628e+01 2.858758e+01 1.625369e+01 1.381614e+00 1.182439e+00 1.276612e+00 1.202534e+00 1.936869e+00 1.483435e+00 1.339179e+00 1.407696e+00 1.381492e+00 1.598532e+00 1.539212e+00 1.212119e+00 1.157920e-03
<GCONST> 8.216620e+01
<MIXTURE> 45 1.364932e-02
<MEAN> 25
 -1.190590e+01 3.259052e+00 -1.610021e+00 1.066212e+00 5.104115e+00 6.203420e-01 4.739964e+00 2.188072e+00 3.914973e+00 1.320363e+00 9.693552e-01 2.842571e+00 -2.955257e+00 4.753341e-01 -6.848842e-01 -5.984020e-01 6.845304e-01 2.592845e-02 5.063995e-01 1.716753e-01 5.998232e-02 -2.137622e-01 3.254541e-01 2.549921e-01 1.038116e-01
<VARIANCE> 25
 2.962803e+01 2.654514e+01 3.996310e+01 3.677526e+01 2.646165e+01 2.376526e+01 2.717023e+01 2.243044e+01 2.156036e+01 2.180971e+01 2.840602e+01 1.528498e+01 2.053815e+00 2.421906e+00 3.097452e+00 2.256711e+00 2.980802e+00 2.383504e+00 2.418800e+00 2.245314e+00 2.174142e+00 1.852543e+00 1.677812e+00 1.879712e+00 3.997645e-03
<GCONST> 8.921179e+01
<MIXTURE> 46 9.336259e-03
<MEAN> 25
 -9.169077e+00 2.088115e+00 1.065991e+00 7.165119e+00 5.686968e+00 3.223574e+00 6.845395e+00 4.258292e+00 5.562037e+00 4.603581e+00 5.082074e+00 2.956849e+00 1.072841e+00 -1.803938e-01 1.973123e-02 9.509777e-01 6.095833e-01 9.584656e-01 3.141424e-01 6.939715e-01 4.918055e-01 5.286957e-01 6.446112e-01 5.388673e-01 -1.031902e-01
<VARIANCE> 25
 3.582474e+01 4.368718e+01 3.760593e+01 5.225092e+01 5.066857e+01 4.031519e+01 3.784615e+01 3.552247e+01 3.333108e+01 3.185606e+01 2.753483e+01 1.993237e+01 3.862121e+00 4.136618e+00 3.756351e+00 4.092622e+00 4.039905e+00 3.703409e+00 3.410184e+00 3.064386e+00 2.895123e+00 2.908847e+00 2.249201e+00 1.737054e+00 7.806192e-03
<GCONST> 9.818364e+01
<MIXTURE> 47 7.116147e-03
<MEAN> 25
 7.082544e+00 -6.864125e+00 -7.444164e+00 -6.294098e+00 1.462744e+00 1.038633e+00 -2.473439e+00 7.787989e-01 2.873569e+00 2.216792e-01 -4.350236e+00 -6.476262e+00 -1.198569e-01 -1.173842e+00 -6.219522e-01 -4.212599e-01 5.982884e-01 8.602301e-01 7.900839e-01 2.871939e-01 1.268221e-01 -9.456660e-01 -5.663072e-01 -4.509909e-01 2.996857e-02
<VARIANCE> 25
 1.075982e+01 2.346933e+01 2.039374e+01 3.147814e+01 3.386203e+01 5.028682e+01 4.292921e+01 4.098634e+01 4.121974e+01 4.452562e+01 4.680988e+01 3.229725e+01 5.494284e-01 8.135564e-01 1.219368e+00 1.612110e+00 1.886881e+00 2.116698e+00 2.292261e+00 2.368418e+00 2.085810e+00 2.188004e+00 2.316630e+00 1.969447e+00 5.589408e-04
<GCONST> 8.618560e+01
<MIXTURE> 48 7.116147e-03
<MEAN> 25
 7.082544e+00 -6.864125e+00 -7.444164e+00 -6.294098e+00 1.462744e+00 1.038633e+00 -2.473439e+00 7.787989e-01 2.873569e+00 2.216792e-01 -4.350236e+00 -6.476262e+00 -1.198569e-01 -1.173842e+00 -6.219522e-01 -4.212599e-01 5.982884e-01 8.602301e-01 7.900839e-01 2.871939e-01 1.268221e-01 -9.456660e-01 -5.663072e-01 -4.509909e-01 2.996857e-02
<VARIANCE> 25
 1.075982e+01 2.346933e+01 2.039374e+01 3.147814e+01 3.386203e+01 5.028682e+01 4.292921e+01 4.098634e+01 4.121974e+01 4.452562e+01 4.680988e+01 3.229725e+01 5.494284e-01 8.135564e-01 1.219368e+00 1.612110e+00 1.886881e+00 2.116698e+00 2.292261e+00 2.368418e+00 2.085810e+00 2.188004e+00 2.316630e+00 1.969447e+00 5.589408e-04
<GCONST> 8.618560e+01
<MIXTURE> 49 5.548473e-03
<MEAN> 25
 -4.971189e+00 3.824242e-01 1.556759e-01 8.288588e+00 6.061051e+00 5.500116e+00 5.948117e+00 4.446913e+00 4.932126e+00 3.614508e+00 4.892103e+00 2.882773e+00 3.678564e-01 6.463697e-01 6.993986e-01 3.565732e-01 -1.801971e-01 -6.641167e-01 -1.007473e+00 -1.112181e+00 -9.370774e-01 -6.673404e-01 -4.884090e-01 -2.825504e-01 -5.518345e-05
<VARIANCE> 25
 1.005322e+01 9.898578e+00 1.404217e+01 1.658635e+01 1.593073e+01 1.742115e+01 1.951202e+01 1.926003e+01 1.820974e+01 1.815403e+01 2.045687e+01 1.413654e+01 2.774228e-01 2.665102e-01 3.618671e-01 6.064332e-01 8.850738e-01 9.750125e-01 9.831204e-01 1.047014e+00 1.133922e+00 1.231529e+00 1.271493e+00 1.214225e+00 1.514038e-05
<GCONST> 6.445121e+01
<MIXTURE> 50 6.234641e-03
<MEAN> 25
 -4.174221e+00 2.034971e-01 -1.437459e+00 5.593604e+00 3.932082e+00 2.142964e+00 3.663367e+00 2.336998e+00 2.650211e+00 1.355742e+00 2.105905e+00 2.734854e+00 7.588683e-02 1.417311e-01 2.560760e-02 -2.023806e-01 -5.356023e-01 -6.090882e-01 -4.256178e-01 6.601404e-02 4.999940e-01 8.076990e-01 7.800542e-01 4.365608e-01 -1.910576e-05
<VARIANCE> 25
 1.365262e+01 1.037527e+01 1.327784e+01 1.732302e+01 1.545301e+01 1.724245e+01 1.762851e+01 1.936049e+01 1.907244e+01 1.634703e+01 2.065375e+01 1.460277e+01 1.562740e-01 2.469727e-01 4.254909e-01 4.936060e-01 5.785147e-01 6.886459e-01 9.022914e-01 1.302184e+00 1.060553e+00 9.356422e-01 9.377139e-01 9.694696e-01 1.126848e-06
<GCONST> 5.983435e+01
<MIXTURE> 51 6.234641e-03
<MEAN> 25
 -4.174221e+00 2.034971e-01 -1.437459e+00 5.593604e+00 3.932082e+00 2.142964e+00 3.663367e+00 2.336998e+00 2.650211e+00 1.355742e+00 2.105905e+00 2.734854e+00 7.588683e-02 1.417311e-01 2.560760e-02 -2.023806e-01 -5.356023e-01 -6.090882e-01 -4.256178e-01 6.601404e-02 4.999940e-01 8.076990e-01 7.800542e-01 4.365608e-01 -1.910576e-05
<VARIANCE> 25
 1.365262e+01 1.037527e+01 1.327784e+01 1.732302e+01 1.545301e+01 1.724245e+01 1.762851e+01 1.936049e+01 1.907244e+01 1.634703e+01 2.065375e+01 1.460277e+01 1.562740e-01 2.469727e-01 4.254909e-01 4.936060e-01 5.785147e-01 6.886459e-01 9.022914e-01 1.302184e+00 1.060553e+00 9.356422e-01 9.377139e-01 9.694696e-01 1.126848e-06
<GCONST> 5.983435e+01
<MIXTURE> 52 6.367945e-03
<MEAN> 25
 9.886741e+00 1.967468e+00 -6.148956e+00 -1.400006e+01 -4.043215e+00 8.332000e+00 -2.651992e+00 -3.063751e+00 -4.350587e+00 -1.962375e+00 3.448385e+00 7.567992e-01 -3.675406e-01 -4.722272e-01 -9.338387e-02 1.108385e+00 1.304470e+00 -4.882027e-01 -5.878763e-01 -6.349876e-01 5.169222e-02 1.266724e+00 4.045087e-01 -5.355846e-01 -1.304404e-02
<VARIANCE> 25
 1.033946e+01 2.004525e+01 2.467693e+01 3.945670e+01 4.504558e+01 3.100133e+01 4.525040e+01 4.717175e+01 4.178271e+01 4.525082e+01 3.912256e+01 2.909847e+01 4.506892e-01 1.447509e+00 1.306512e+00 2.733963e+00 2.326507e+00 2.185411e+00 2.894842e+00 2.724980e+00 2.948885e+00 2.632692e+00 2.456550e+00 2.215727e+00 1.510111e-03
<GCONST> 8.943752e+01
<MIXTURE> 53 6.367945e-03
<MEAN> 25
 9.886741e+00 1.967468e+00 -6.148956e+00 -1.400006e+01 -4.043215e+00 8.332000e+00 -2.651992e+00 -3.063751e+00 -4.350587e+00 -1.962375e+00 3.448385e+00 7.567992e-01 -3.675406e-01 -4.722272e-01 -9.338387e-02 1.108385e+00 1.304470e+00 -4.882027e-01 -5.878763e-01 -6.349876e-01 5.169222e-02 1.266724e+00 4.045087e-01 -5.355846e-01 -1.304404e-02
<VARIANCE> 25
 1.033946e+01 2.004525e+01 2.467693e+01 3.945670e+01 4.504558e+01 3.100133e+01 4.525040e+01 4.717175e+01 4.178271e+01 4.525082e+01 3.912256e+01 2.909847e+01 4.506892e-01 1.447509e+00 1.306512e+00 2.733963e+00 2.326507e+00 2.185411e+00 2.894842e+00 2.724980e+00 2.948885e+00 2.632692e+00 2.456550e+00 2.215727e+00 1.510111e-03
<GCONST> 8.943752e+01
<MIXTURE> 54 7.368620e-03
<MEAN> 25
 -3.488725e+00 5.793316e-02 -7.425887e-01 7.733750e+00 6.385948e+00 4.420861e+00 4.573488e+00 4.731374e+00 4.104675e+00 3.566800e+00 4.349615e+00 2.200446e+00 -3.831576e-03 1.720466e-02 3.840036e-02 3.503156e-02 3.962794e-02 6.487352e-02 2.829870e-02 2.393104e-02 2.548403e-02 3.549107e-02 8.881674e-03 -3.756367e-02 -5.153189e-05
<VARIANCE> 25
 9.632979e+00 1.021280e+01 9.196828e+00 2.072391e+01 1.333335e+01 1.480787e+01 1.202119e+01 1.157775e+01 1.124993e+01 1.350754e+01 1.822761e+01 1.273499e+01 3.991735e-02 9.055924e-02 1.507287e-01 2.266853e-01 3.044303e-01 3.996496e-01 4.575745e-01 5.343782e-01 5.281034e-01 5.130603e-01 5.036094e-01 5.561923e-01 1.034996e-06
<GCONST> 4.760436e+01
<MIXTURE> 55 7.368620e-03
<MEAN> 25
 -3.488725e+00 5.793316e-02 -7.425887e-01 7.733750e+00 6.385948e+00 4.420861e+00 4.573488e+00 4.731374e+00 4.104675e+00 3.566800e+00 4.349615e+00 2.200446e+00 -3.831576e-03 1.720466e-02 3.840036e-02 3.503156e-02 3.962794e-02 6.487352e-02 2.829870e-02 2.393104e-02 2.548403e-02 3.549107e-02 8.881674e-03 -3.756367e-02 -5.153189e-05
<VARIANCE> 25
 9.632979e+00 1.021280e+01 9.196828e+00 2.072391e+01 1.333335e+01 1.480787e+01 1.202119e+01 1.157775e+01 1.124993e+01 1.350754e+01 1.822761e+01 1.273499e+01 3.991735e-02 9.055924e-02 1.507287e-01 2.266853e-01 3.044303e-01 3.996496e-01 4.575745e-01 5.343782e-01 5.281034e-01 5.130603e-01 5.036094e-01 5.561923e-01 1.034996e-06
<GCONST> 4.760436e+01
<MIXTURE> 56 6.132464e-03
<MEAN> 25
 7.096975e+00 -5.913137e+00 -8.575716e+00 -7.983812e+00 3.701066e+00 3.754608e+00 -1.926579e+00 -1.773971e+00 1.263855e+00 8.147815e-01 -2.020770e+00 -6.551589e+00 1.852624e-03 -2.165336e-02 -8.695867e-02 8.240215e-02 2.052203e-01 -2.790167e-03 6.580725e-02 -7.981843e-02 -2.005547e-02 -5.566902e-02 -5.126205e-02 -3.521178e-02 -7.180149e-03
<VARIANCE> 25
 9.653047e+00 2.546268e+01 2.053312e+01 3.980145e+01 3.053901e+01 4.591148e+01 5.536823e+01 3.359478e+01 3.879407e+01 3.460734e+01 3.947655e+01 3.035893e+01 1.959574e-01 4.606723e-01 4.385286e-01 8.220132e-01 7.915484e-01 1.145090e+00 8.696442e-01 8.759666e-01 9.423841e-01 1.011638e+00 1.035246e+00 7.691476e-01 2.324160e-04
<GCONST> 7.478436e+01
<MIXTURE> 57 6.132464e-03
<MEAN> 25
 7.096975e+00 -5.913137e+00 -8.575716e+00 -7.983812e+00 3.701066e+00 3.754608e+00 -1.926579e+00 -1.773971e+00 1.263855e+00 8.147815e-01 -2.020770e+00 -6.551589e+00 1.852624e-03 -2.165336e-02 -8.695867e-02 8.240215e-02 2.052203e-01 -2.790167e-03 6.580725e-02 -7.981843e-02 -2.005547e-02 -5.566902e-02 -5.126205e-02 -3.521178e-02 -7.180149e-03
<VARIANCE> 25
 9.653047e+00 2.546268e+01 2.053312e+01 3.980145e+01 3.053901e+01 4.591148e+01 5.536823e+01 3.359478e+01 3.879407e+01 3.460734e+01 3.947655e+01 3.035893e+01 1.959574e-01 4.606723e-01 4.385286e-01 8.220132e-01 7.915484e-01 1.145090e+00 8.696442e-01 8.759666e-01 9.423841e-01 1.011638e+00 1.035246e+00 7.691476e-01 2.324160e-04
<GCONST> 7.478436e+01
<MIXTURE> 58 6.172147e-03
<MEAN> 25
 2.511591e+00 -2.103946e+00 6.044524e+00 -3.461590e+00 -1.114379e+01 -4.567316e+00 7.949001e-01 4.603167e-01 -1.562276e+00 1.680598e+00 3.831784e-01 -3.275075e-01 -2.818515e-02 -1.396482e-01 5.518733e-03 -1.238537e-01 -2.214663e-02 1.821438e-01 2.811393e-01 1.371605e-01 -8.383361e-02 5.736898e-04 2.300204e-03 6.162846e-02 -2.824472e-04
<VARIANCE> 25
 5.230692e+00 1.237875e+01 1.928580e+01 2.778124e+01 2.746366e+01 3.601616e+01 2.676646e+01 2.828117e+01 2.995217e+01 3.008456e+01 1.953539e+01 1.746950e+01 2.488136e-01 6.268847e-01 7.121335e-01 9.535666e-01 9.987497e-01 1.291955e+00 1.076956e+00 1.258755e+00 9.964583e-01 8.593889e-01 8.522894e-01 1.012011e+00 5.829377e-04
<GCONST> 7.312734e+01
<MIXTURE> 59 6.172147e-03
<MEAN> 25
 2.511591e+00 -2.103946e+00 6.044524e+00 -3.461590e+00 -1.114379e+01 -4.567316e+00 7.949001e-01 4.603167e-01 -1.562276e+00 1.680598e+00 3.831784e-01 -3.275075e-01 -2.818515e-02 -1.396482e-01 5.518733e-03 -1.238537e-01 -2.214663e-02 1.821438e-01 2.811393e-01 1.371605e-01 -8.383361e-02 5.736898e-04 2.300204e-03 6.162846e-02 -2.824472e-04
<VARIANCE> 25
 5.230692e+00 1.237875e+01 1.928580e+01 2.778124e+01 2.746366e+01 3.601616e+01 2.676646e+01 2.828117e+01 2.995217e+01 3.008456e+01 1.953539e+01 1.746950e+01 2.488136e-01 6.268847e-01 7.121335e-01 9.535666e-01 9.987497e-01 1.291955e+00 1.076956e+00 1.258755e+00 9.964583e-01 8.593889e-01 8.522894e-01 1.012011e+00 5.829377e-04
<GCONST> 7.312734e+01
<MIXTURE> 60 4.479129e-03
<MEAN> 25
 -2.029056e+00 1.314368e-02 -7.199293e-01 2.391272e+00 7.176444e-01 1.361716e+00 9.338607e-01 2.311002e+00 2.217536e+00 1.053788e+00 2.552901e+00 1.514207e+00 -4.064588e-02 1.009187e-01 1.737650e-01 1.387919e-01 1.900458e-01 1.024662e-01 4.121834e-02 3.507399e-01 5.183522e-01 5.929429e-01 5.999851e-01 2.922581e-01 -1.284842e-03
<VARIANCE> 25
 1.059637e+01 3.676139e+00 7.503967e+00 9.282509e+00 1.232660e+01 1.463906e+01 1.107817e+01 9.781678e+00 1.427173e+01 1.065759e+01 1.105458e+01 1.017269e+01 1.045099e-01 1.734115e-01 2.921438e-01 4.377426e-01 5.857742e-01 6.761398e-01 9.633725e-01 9.045167e-01 9.380380e-01 7.567003e-01 1.109121e+00 9.628211e-01 3.751256e-05
<GCONST> 5.588196e+01
<MIXTURE> 61 4.479129e-03
<MEAN> 25
 -2.029056e+00 1.314368e-02 -7.199293e-01 2.391272e+00 7.176444e-01 1.361716e+00 9.338607e-01 2.311002e+00 2.217536e+00 1.053788e+00 2.552901e+00 1.514207e+00 -4.064588e-02 1.009187e-01 1.737650e-01 1.387919e-01 1.900458e-01 1.024662e-01 4.121834e-02 3.507399e-01 5.183522e-01 5.929429e-01 5.999851e-01 2.922581e-01 -1.284842e-03
<VARIANCE> 25
 1.059637e+01 3.676139e+00 7.503967e+00 9.282509e+00 1.232660e+01 1.463906e+01 1.107817e+01 9.781678e+00 1.427173e+01 1.065759e+01 1.105458e+01 1.017269e+01 1.045099e-01 1.734115e-01 2.921438e-01 4.377426e-01 5.857742e-01 6.761398e-01 9.633725e-01 9.045167e-01 9.380380e-01 7.567003e-01 1.109121e+00 9.628211e-01 3.751256e-05
<GCONST> 5.588196e+01
<MIXTURE> 62 3.278034e-03
<MEAN> 25
 -4.957171e+00 1.240951e+00 9.646665e-01 8.617487e+00 6.046716e+00 4.998466e+00 5.422472e+00 4.101488e+00 5.057663e+00 3.930821e+00 5.017902e+00 3.026949e+00 -9.877305e-01 -1.164141e+00 -9.536049e-01 -2.724295e-01 3.872908e-01 9.637505e-01 1.350351e+00 1.547346e+00 1.487636e+00 1.242640e+00 1.075880e+00 7.270307e-01 -1.284079e-03
<VARIANCE> 25
 1.047065e+01 9.748418e+00 1.301484e+01 1.820071e+01 1.737212e+01 1.728083e+01 1.955381e+01 1.892369e+01 1.876455e+01 1.834976e+01 2.124819e+01 1.477168e+01 4.042104e-01 4.237222e-01 5.434074e-01 7.642025e-01 1.087416e+00 1.246274e+00 1.281331e+00 1.253418e+00 1.306322e+00 1.336751e+00 1.373895e+00 1.343352e+00 1.601166e-05
<GCONST> 6.751128e+01
<MIXTURE> 63 4.351215e-03
<MEAN> 25
 -2.712822e+00 -1.359069e+00 -3.147016e+00 1.342837e+00 2.913380e+00 -2.242023e-01 2.077607e+00 1.549104e+00 1.574923e+00 -7.792122e-01 -1.133548e+00 1.590712e+00 -2.658120e-02 2.257846e-01 2.939407e-01 5.107106e-01 4.907986e-01 4.303314e-01 4.586866e-01 3.607482e-01 -2.563358e-03 8.688617e-02 1.877803e-01 6.598905e-02 -9.884273e-03
<VARIANCE> 25
 1.093385e+01 1.031732e+01 1.171687e+01 1.282109e+01 1.662673e+01 1.911169e+01 2.077208e+01 1.846391e+01 2.287239e+01 2.758040e+01 1.988374e+01 1.355471e+01 3.333071e-01 3.611447e-01 5.911008e-01 6.285661e-01 9.995391e-01 1.063848e+00 1.487816e+00 1.090886e+00 1.339134e+00 1.297076e+00 1.440726e+00 1.086483e+00 2.374748e-04
<GCONST> 6.953239e+01
<MIXTURE> 64 4.351215e-03
<MEAN> 25
 -2.712822e+00 -1.359069e+00 -3.147016e+00 1.342837e+00 2.913380e+00 -2.242023e-01 2.077607e+00 1.549104e+00 1.574923e+00 -7.792122e-01 -1.133548e+00 1.590712e+00 -2.658120e-02 2.257846e-01 2.939407e-01 5.107106e-01 4.907986e-01 4.303314e-01 4.586866e-01 3.607482e-01 -2.563358e-03 8.688617e-02 1.877803e-01 6.598905e-02 -9.884273e-03
<VARIANCE> 25
 1.093385e+01 1.031732e+01 1.171687e+01 1.282109e+01 1.662673e+01 1.911169e+01 2.077208e+01 1.846391e+01 2.287239e+01 2.758040e+01 1.988374e+01 1.355471e+01 3.333071e-01 3.611447e-01 5.911008e-01 6.285661e-01 9.995391e-01 1.063848e+00 1.487816e+00 1.090886e+00 1.339134e+00 1.297076e+00 1.440726e+00 1.086483e+00 2.374748e-04
<GCONST> 6.953239e+01
<MIXTURE> 65 1.721197e-02
<MEAN> 25
 5.525889e+00 1.899412e+00 1.681194e+00 3.251266e-01 -3.462305e+00 -2.672245e+00 -4.221596e+00 -5.202913e+00 -3.173964e+00 -2.182305e+00 -4.991775e+00 -2.317016e+00 7.507440e-02 1.029470e-01 2.472919e-02 1.115559e-01 2.289189e-02 2.177702e-01 8.623915e-02 -4.182270e-02 6.702694e-02 1.036832e-01 2.358431e-02 -1.091689e-01 -4.973438e-03
<VARIANCE> 25
 1.069207e+01 1.324077e+01 1.904225e+01 2.430251e+01 2.869373e+01 4.168016e+01 4.162505e+01 4.151097e+01 4.091998e+01 4.489248e+01 4.927639e+01 3.397243e+01 3.998169e-01 7.146822e-01 1.274455e+00 1.481336e+00 1.666760e+00 1.971415e+00 2.026751e+00 2.456311e+00 2.218412e+00 2.652667e+00 2.475295e+00 1.894387e+00 3.318879e-04
<GCONST> 8.400163e+01
<MIXTURE> 66 1.191532e-02
<MEAN> 25
 6.570533e+00 -4.171720e+00 -5.518848e+00 -4.705760e+00 1.217347e+00 -4.784972e+00 -6.612055e+00 1.054968e+00 6.418849e-01 -1.602142e+00 -5.806082e+00 -3.580297e+00 -5.969708e-02 1.721174e+00 2.169523e+00 2.291909e+00 -1.166650e+00 -1.173316e+00 7.495975e-02 -6.123541e-01 -1.560401e-01 -2.276428e-01 -1.363110e-01 1.040056e+00 -6.308676e-02
<VARIANCE> 25
 8.916933e+00 2.235832e+01 2.636598e+01 3.237053e+01 3.730146e+01 5.367661e+01 5.628705e+01 4.443114e+01 5.216879e+01 6.997663e+01 3.872295e+01 3.550455e+01 1.243137e+00 2.522866e+00 2.401760e+00 2.403988e+00 4.256502e+00 4.321442e+00 4.217017e+00 4.819693e+00 4.108078e+00 4.890286e+00 3.902036e+00 3.150336e+00 1.447510e-03
<GCONST> 9.663809e+01
<MIXTURE> 67 1.559142e-02
<MEAN> 25
 8.910775e+00 1.923180e+00 -5.940359e+00 -8.179592e+00 8.940781e-01 3.086231e+00 -3.269984e+00 -2.256932e+00 -3.725992e+00 9.043240e-01 7.554675e-03 -1.782203e+00 -1.062321e+00 1.854848e+00 1.050157e+00 3.049408e+00 1.388546e+00 -4.874261e-01 1.289451e+00 8.491089e-02 1.494146e-01 2.319591e-01 -2.489402e-01 6.320031e-01 -1.288780e-01
<VARIANCE> 25
 1.167847e+01 3.935112e+01 3.044874e+01 5.572002e+01 4.850236e+01 5.331155e+01 6.142076e+01 5.213244e+01 6.401403e+01 5.759912e+01 5.537877e+01 4.705463e+01 2.166548e+00 3.468050e+00 3.256265e+00 4.495282e+00 4.462710e+00 4.524947e+00 4.658071e+00 5.100092e+00 5.412268e+00 4.771594e+00 5.122601e+00 3.697734e+00 3.082721e-03
<GCONST> 1.028053e+02
<MIXTURE> 68 1.485092e-02
<MEAN> 25
 -1.855072e+00 -2.475715e+00 -4.252576e+00 1.228292e+00 5.093835e+00 -8.014764e-01 1.898341e+00 1.112302e+00 1.815127e+00 1.698694e+00 5.101738e-01 1.424854e+00 2.591963e+00 4.065831e-01 3.970934e-02 -2.448230e+00 -2.425139e+00 -1.427047e+00 -2.275302e+00 -1.870477e+00 -1.672898e+00 -1.387389e+00 -1.933347e+00 -1.177786e+00 9.812897e-02
<VARIANCE> 25
 2.345243e+01 2.931824e+01 5.369965e+01 4.802150e+01 4.225871e+01 4.950868e+01 4.157990e+01 4.237305e+01 3.871688e+01 4.133104e+01 3.424313e+01 2.550517e+01 1.872342e+00 3.548307e+00 5.366973e+00 5.391176e+00 4.287735e+00 5.429204e+00 5.191130e+00 4.681336e+00 4.486999e+00 4.977820e+00 4.644186e+00 3.181858e+00 5.666893e-03
<GCONST> 1.018284e+02
<MIXTURE> 69 1.204884e-02
<MEAN> 25
 4.579973e+00 -4.181628e+00 -3.608611e+00 -3.483567e+00 -3.340324e+00 -7.597698e+00 -1.254677e+00 1.896959e+00 -3.619007e-01 -4.546525e+00 -5.583972e+00 7.238827e-01 1.646062e+00 -2.174102e+00 -1.263620e+00 -2.210861e+00 -5.701685e-01 -3.030603e-01 -4.934228e-01 5.606810e-01 -6.407297e-01 -1.395486e+00 -2.223160e+00 -2.071079e-01 6.227319e-02
<VARIANCE> 25
 8.728884e+00 2.177572e+01 2.611949e+01 2.576201e+01 4.183017e+01 3.600437e+01 4.778595e+01 3.289756e+01 3.861557e+01 3.773450e+01 3.026813e+01 2.537382e+01 3.448135e+00 2.910682e+00 3.370210e+00 3.610725e+00 5.635426e+00 4.909071e+00 6.850109e+00 5.970227e+00 5.697713e+00 5.953459e+00 4.347558e+00 3.617797e+00 2.362994e-03
<GCONST> 9.837937e+01
<MIXTURE> 70 1.329190e-02
<MEAN> 25
 7.026213e+00 -2.272471e+00 -3.813615e+00 -3.451590e+00 -4.643833e-01 -6.882495e-01 -7.332690e+00 -3.930543e+00 3.412033e-01 2.675570e+00 -3.402729e-01 -4.927584e+00 1.852371e+00 -1.077020e+00 -6.352726e-01 -2.129913e+00 -1.521630e+00 1.159624e+00 -1.282780e+00 -6.421449e-02 2.111915e-01 7.974303e-02 4.144273e-01 -1.389557e+00 5.688078e-02
<VARIANCE> 25
 1.066984e+01 2.264808e+01 2.626483e+01 4.248080e+01 3.253063e+01 4.054171e+01 4.607115e+01 4.146334e+01 4.285475e+01 3.121453e+01 4.239238e+01 2.581657e+01 3.223912e+00 2.955513e+00 4.579418e+00 4.556827e+00 4.872235e+00 5.871860e+00 6.180773e+00 7.000283e+00 5.687076e+00 5.950386e+00 6.411618e+00 3.968403e+00 2.416274e-03
<GCONST> 1.005341e+02
<MIXTURE> 71 1.406903e-02
<MEAN> 25
 5.582435e+00 4.330234e+00 4.279641e+00 3.058541e+00 -3.506491e+00 -3.149444e+00 -2.771429e+00 -6.349190e+00 -4.436690e+00 -2.179346e+00 -4.802588e+00 -2.616901e+00 -1.634727e+00 -5.656900e-01 -4.849394e-01 -1.825942e+00 1.098322e+00 2.778348e-02 2.379596e-01 1.414056e+00 3.894922e-01 -3.088195e-01 6.292498e-01 2.653865e-01 4.111994e-02
<VARIANCE> 25
 1.927645e+01 2.656481e+01 2.363498e+01 4.098598e+01 3.786707e+01 3.590864e+01 3.998541e+01 3.710751e+01 3.463056e+01 4.076166e+01 3.497804e+01 3.467843e+01 1.875338e+00 2.753018e+00 6.011081e+00 4.458524e+00 4.378919e+00 4.526823e+00 4.496521e+00 4.773566e+00 4.043449e+00 4.438116e+00 3.322981e+00 2.940036e+00 1.531956e-03
<GCONST> 9.760059e+01
<MIXTURE> 72 8.134747e-03
<MEAN> 25
 3.573653e+00 -3.488196e+00 5.244375e+00 -2.335323e+00 -1.006698e+01 -9.340689e+00 -2.697892e+00 1.521596e+00 -5.387658e+00 -2.328928e+00 -1.432430e+00 5.929026e-01 9.028877e-01 -6.868457e-01 -2.487780e+00 4.206171e-01 2.063670e+00 -6.697435e-01 -1.309898e+00 1.527439e+00 1.749888e+00 -5.233186e-01 -1.156112e+00 4.359440e-01 -5.785922e-03
<VARIANCE> 25
 1.053557e+01 1.856258e+01 3.075831e+01 3.640576e+01 3.131468e+01 3.407926e+01 3.894922e+01 3.561756e+01 4.431510e+01 3.865411e+01 4.212872e+01 2.942809e+01 4.211838e-01 1.055650e+00 1.957015e+00 1.402153e+00 2.084862e+00 2.222417e+00 2.887578e+00 2.541467e+00 2.668949e+00 2.918093e+00 2.080357e+00 2.088894e+00 5.300872e-04
<GCONST> 8.672491e+01
<MIXTURE> 73 1.213625e-02
<MEAN> 25
 -5.133191e+00 -9.226872e-01 -1.399039e+00 4.618320e+00 3.941890e+00 2.217420e+00 5.002251e+00 3.963051e+00 4.454312e+00 3.504909e+00 4.564405e+00 2.990261e+00 7.145050e-01 -1.224926e+00 -9.650009e-01 -2.305674e+00 -1.135266e+00 -1.734898e+00 -8.486010e-01 -8.040712e-01 -7.955049e-01 -5.219475e-01 -1.127345e+00 -2.980410e-01 1.453076e-01
<VARIANCE> 25
 1.358143e+01 1.226443e+01 1.381996e+01 2.129511e+01 2.236096e+01 2.238759e+01 2.050044e+01 2.130455e+01 1.654286e+01 1.850223e+01 2.205079e+01 1.442361e+01 3.738311e+00 3.371099e+00 5.474135e+00 5.552830e+00 5.740718e+00 4.241029e+00 3.959674e+00 4.570827e+00 3.720474e+00 4.309532e+00 3.257679e+00 2.467448e+00 4.614734e-03
<GCONST> 9.204501e+01
<MIXTURE> 74 1.756491e-02
<MEAN> 25
 4.410946e+00 -1.653426e+00 4.817973e+00 -1.261683e+00 -8.279058e+00 -7.627653e+00 -2.617116e+00 5.481591e-01 -3.949944e+00 -2.538229e+00 -1.261646e+00 2.874690e-01 3.917830e-01 1.994057e+00 1.375066e-02 1.625541e+00 1.204763e+00 4.312885e-01 -8.178943e-02 -1.265599e+00 2.029769e-01 2.705885e-01 -1.628260e-01 -3.402464e-02 -7.705419e-02
<VARIANCE> 25
 1.129273e+01 2.129423e+01 3.865969e+01 3.708034e+01 3.870042e+01 4.486282e+01 4.891623e+01 4.487460e+01 4.620115e+01 4.519606e+01 4.309184e+01 3.394577e+01 2.236202e+00 2.027081e+00 3.732902e+00 2.612537e+00 3.731006e+00 3.872987e+00 4.955719e+00 4.212954e+00 4.002642e+00 4.179024e+00 3.580817e+00 3.109329e+00 1.718087e-03
<GCONST> 9.714174e+01
<MIXTURE> 75 9.711651e-03
<MEAN> 25
 2.429623e+00 -1.517707e+00 1.047733e+01 1.684122e+00 -1.141539e+01 -7.585525e+00 -4.418754e+00 -6.683531e-01 -4.748636e+00 -4.432301e+00 3.437582e+00 2.425877e-01 1.710539e+00 -1.646772e+00 1.479581e-01 -1.612448e-01 -2.320812e+00 -8.998973e-01 -1.555850e+00 8.466190e-01 -5.665493e-01 -5.405252e-01 1.309065e+00 -4.963947e-01 3.880258e-02
<VARIANCE> 25
 1.026337e+01 1.657120e+01 2.935683e+01 2.476395e+01 2.531491e+01 2.991988e+01 2.860786e+01 2.812323e+01 3.086614e+01 2.862304e+01 1.908370e+01 1.956162e+01 2.146855e+00 1.792227e+00 3.859283e+00 2.331154e+00 3.525998e+00 4.996517e+00 3.808792e+00 3.376786e+00 4.872930e+00 3.406691e+00 3.258205e+00 2.385943e+00 1.371873e-03
<GCONST> 9.093463e+01
<MIXTURE> 76 1.052359e-02
<MEAN> 25
 -3.789701e+00 -1.837789e+00 -2.396354e+00 1.899529e+00 2.827502e+00 1.029155e+00 2.534795e+00 1.334741e+00 2.517786e+00 1.007527e+00 1.564248e+00 1.609863e+00 1.631739e-01 -4.916219e-01 -1.641581e-01 -6.227080e-01 -6.444527e-01 -9.096049e-01 -6.418864e-01 -6.679080e-01 -5.600046e-01 -1.739059e-01 -3.043033e-01 -3.612719e-01 1.621924e-02
<VARIANCE> 25
 2.998988e+01 2.476296e+01 2.142001e+01 2.473624e+01 2.470706e+01 2.284016e+01 2.063468e+01 2.328317e+01 1.899448e+01 2.122544e+01 2.045016e+01 1.440757e+01 9.427195e-01 1.220748e+00 1.144323e+00 1.333304e+00 1.450170e+00 1.279305e+00 1.333664e+00 1.961930e+00 1.699117e+00 1.251622e+00 1.287916e+00 1.154174e+00 1.110855e-03
<GCONST> 7.951627e+01
<MIXTURE> 77 1.244626e-02
<MEAN> 25
 -2.909921e-01 8.099910e+00 1.182793e+01 -1.076485e+01 -6.563766e+00 9.613637e-01 -8.818452e+00 -7.016723e+00 -3.518288e+00 -5.619203e-01 -4.738022e+00 -1.654597e+00 6.129821e-02 1.423234e-01 6.332680e-02 2.254260e-01 -2.505043e-02 7.326554e-02 -6.429771e-02 -7.314853e-02 8.779909e-02 -4.393339e-02 2.513285e-02 1.269206e-01 -9.234011e-03
<VARIANCE> 25
 1.005501e+01 2.118759e+01 3.013868e+01 4.666116e+01 3.372007e+01 3.192961e+01 3.709897e+01 3.042822e+01 3.418623e+01 3.344412e+01 3.627622e+01 3.326106e+01 2.827556e-01 7.405006e-01 6.785589e-01 1.066911e+00 1.241653e+00 9.905547e-01 1.198965e+00 1.083994e+00 1.050845e+00 1.075526e+00 9.945798e-01 8.996016e-01 5.149559e-04
<GCONST> 7.772714e+01
<MIXTURE> 78 9.702551e-03
<MEAN> 25
 -1.006244e+01 7.742673e-01 -1.480910e+00 1.056124e+00 3.463540e+00 -1.537020e+00 4.282840e+00 1.269449e+00 2.085459e+00 -8.046781e-01 5.168991e-02 2.404879e+00 2.247565e+00 -2.382831e-01 -1.647932e-02 7.153510e-01 -1.130006e-01 1.239803e-01 -5.983319e-01 9.752511e-02 1.981347e-01 5.987639e-02 -4.385308e-01 -4.509746e-01 -5.609386e-02
<VARIANCE> 25
 3.852435e+01 2.805522e+01 2.692928e+01 2.793748e+01 3.241526e+01 3.366249e+01 3.349417e+01 3.000584e+01 2.559498e+01 3.050295e+01 2.673177e+01 1.792497e+01 3.752671e+00 2.165880e+00 2.296630e+00 2.628492e+00 2.414325e+00 3.861788e+00 2.813555e+00 2.278688e+00 2.018289e+00 2.527212e+00 1.900715e+00 1.979651e+00 3.514675e-03
<GCONST> 9.158305e+01
<MIXTURE> 79 1.156824e-02
<MEAN> 25
 2.385217e+00 1.565749e+00 9.064246e+00 -6.524485e+00 -1.188419e+01 -1.759739e+00 -1.909228e+00 -6.392985e+00 -6.569337e+00 2.457271e-01 -3.544474e+00 -3.329644e+00 1.199304e+00 -5.033119e-01 -1.431654e+00 2.314605e+00 4.012340e-01 -1.445390e+00 5.170532e-01 8.848329e-01 -3.929705e-01 -5.009394e-01 3.665641e-01 2.856908e-01 -3.598988e-02
<VARIANCE> 25
 1.404174e+01 2.370702e+01 3.796960e+01 4.929549e+01 3.452958e+01 4.290682e+01 4.216696e+01 3.646374e+01 3.847534e+01 3.939135e+01 4.349380e+01 3.071439e+01 9.509876e-01 2.241066e+00 1.876305e+00 2.116916e+00 2.453598e+00 2.803911e+00 3.163072e+00 3.475457e+00 2.614779e+00 2.789135e+00 2.295435e+00 1.999774e+00 1.214425e-03
<GCONST> 9.170825e+01
<MIXTURE> 80 7.550998e-03
<MEAN> 25
 -1.459578e+01 3.979442e+00 6.876262e-01 2.857541e+00 2.449794e+00 1.410962e+00 6.399699e+00 2.487104e+00 2.716644e+00 2.357489e+00 4.838943e+00 1.187598e+00 4.281033e+00 -1.747720e-02 1.632987e+00 -1.129449e+00 -2.885612e+00 -2.774287e+00 -2.320854e+00 -2.017339e+00 -1.971850e+00 -1.683923e+00 -1.649178e+00 -6.041024e-01 -4.421538e-02
<VARIANCE> 25
 2.099088e+01 1.982973e+01 3.440806e+01 3.468526e+01 3.012280e+01 2.916988e+01 2.824357e+01 2.857668e+01 2.673084e+01 2.892938e+01 2.692183e+01 1.809828e+01 2.365983e+00 2.662278e+00 2.680280e+00 4.130034e+00 3.394453e+00 2.707966e+00 3.024190e+00 3.206214e+00 2.752150e+00 2.700206e+00 2.781245e+00 2.142667e+00 1.510773e-03
<GCONST> 9.140431e+01
<MIXTURE> 81 8.025434e-03
<MEAN> 25
 -1.146250e+00 3.926139e+00 1.005536e+01 -1.455027e+01 -8.947868e+00 -1.259649e+00 -6.647265e+00 -8.276943e+00 -4.113647e+00 -4.389991e-01 -7.510785e+00 -2.212411e+00 1.144450e-01 -5.754046e-01 2.009921e-02 -5.702938e-01 -4.711401e-01 3.505516e-01 3.323279e-01 1.376019e-01 -1.250242e-01 1.322393e-01 -5.004733e-01 -1.092068e-01 1.149722e-02
<VARIANCE> 25
 1.014263e+01 3.305468e+01 2.665954e+01 3.123244e+01 3.368444e+01 3.121561e+01 4.502244e+01 2.858379e+01 3.750795e+01 3.142591e+01 2.504143e+01 3.102481e+01 7.775501e-01 2.234053e+00 1.571469e+00 2.827073e+00 2.631614e+00 2.106878e+00 3.224691e+00 2.250000e+00 2.349614e+00 2.530922e+00 2.383956e+00 2.055304e+00 1.164047e-03
<GCONST> 8.868608e+01
<MIXTURE> 82 8.213053e-03
<MEAN> 25
 -9.924654e+00 -3.896860e+00 1.605274e+00 -2.970537e+00 3.088560e+00 6.803071e-01 1.988408e+00 9.137144e-01 2.972927e+00 1.719645e+00 1.726029e+00 3.084081e+00 -1.316033e+00 -1.278893e-01 2.840397e-01 -2.594507e+00 -1.096825e+00 -1.256830e+00 -1.005814e+00 -8.657639e-01 -3.122971e-01 -4.755790e-01 -3.175713e-01 -9.518253e-02 1.775622e-01
<VARIANCE> 25
 1.827427e+01 2.484418e+01 3.267819e+01 3.081194e+01 3.294645e+01 3.224494e+01 3.166838e+01 3.304012e+01 3.081400e+01 2.510553e+01 3.073004e+01 1.744547e+01 3.753105e+00 3.037808e+00 3.334129e+00 3.269085e+00 3.595458e+00 3.297046e+00 2.944430e+00 3.018432e+00 2.797206e+00 2.493605e+00 2.456601e+00 1.860779e+00 3.519690e-03
<GCONST> 9.312885e+01
<MIXTURE> 83 1.167529e-02
<MEAN> 25
 -1.913097e+01 5.469810e+00 -1.324315e+00 -9.713659e-01 7.534464e+00 -9.263961e-01 5.648215e+00 2.429772e+00 1.170580e+00 2.017289e+00 4.837958e-01 3.062684e+00 -5.827775e-02 -3.721189e-01 6.816633e-03 -3.103766e-01 -4.391265e-01 -1.070749e-01 -3.377110e-02 -1.009687e-01 -8.227256e-02 -1.094621e-01 9.301277e-02 -5.653250e-03 5.478375e-03
<VARIANCE> 25
 1.353901e+01 1.495304e+01 2.744732e+01 2.237251e+01 1.970342e+01 2.203249e+01 2.082809e+01 2.334459e+01 1.877154e+01 2.009024e+01 2.268169e+01 1.366809e+01 1.013216e+00 8.924015e-01 1.149828e+00 1.034007e+00 1.298468e+00 1.158273e+00 1.262954e+00 1.294979e+00 1.237740e+00 1.347685e+00 1.192504e+00 9.980459e-01 8.381254e-04
<GCONST> 7.618053e+01
<MIXTURE> 84 1.066614e-02
<MEAN> 25
 1.185057e+00 8.852490e+00 7.127262e+00 7.743888e+00 2.784384e+00 -8.966987e-01 -1.489913e+00 -4.457499e+00 -4.090508e+00 -2.878325e+00 -2.555598e+00 -1.649173e+00 -1.750300e+00 -1.138004e+00 -1.171205e+00 1.244796e+00 2.210523e+00 1.463001e+00 1.443856e+00 1.287624e+00 1.164391e+00 4.087509e-01 4.313411e-01 4.300329e-01 -7.009595e-02
<VARIANCE> 25
 2.281086e+01 1.863450e+01 2.158801e+01 2.546250e+01 2.850799e+01 2.769685e+01 2.748283e+01 2.608990e+01 2.482705e+01 2.489815e+01 2.423562e+01 2.415054e+01 2.100204e+00 2.542690e+00 3.795417e+00 3.285728e+00 3.252623e+00 3.359600e+00 3.217005e+00 3.329585e+00 3.477931e+00 3.279345e+00 3.589097e+00 2.741309e+00 3.503609e-03
<GCONST> 9.238166e+01
<MIXTURE> 85 7.591393e-03
<MEAN> 25
 -3.104066e+00 7.875014e+00 5.718392e+00 1.284148e+00 -3.493296e+00 -5.317779e+00 -2.974721e+00 -6.117410e+00 -3.540887e+00 -3.178451e+00 -4.788613e-01 -1.898915e+00 3.938181e+00 3.237168e-01 1.752324e+00 -2.087287e+00 -3.411417e+00 -2.582517e+00 -2.883969e+00 -2.341763e+00 -2.251082e+00 -1.265621e+00 -2.295444e+00 -6.156633e-01 9.260083e-03
<VARIANCE> 25
 4.241753e+01 2.353226e+01 3.649819e+01 3.817066e+01 3.971064e+01 4.114228e+01 3.214815e+01 2.785547e+01 2.659955e+01 2.610786e+01 2.619097e+01 2.055412e+01 2.712994e+00 4.318476e+00 4.058483e+00 5.184519e+00 4.405350e+00 3.891883e+00 3.848491e+00 3.980952e+00 3.854292e+00 4.038205e+00 3.986066e+00 3.479896e+00 5.437027e-03
<GCONST> 9.835846e+01
<MIXTURE> 86 1.273941e-02
<MEAN> 25
 -4.396085e+00 -7.178438e-01 -8.484119e-01 5.785665e+00 3.946582e+00 4.577760e+00 5.046574e+00 4.442451e+00 3.933538e+00 3.375922e+00 5.003392e+00 2.778603e+00 5.654615e-02 -1.199565e-02 -1.108640e-01 -3.481421e-02 -1.176927e-01 -2.062069e-01 -1.782362e-01 -2.036487e-01 -3.708973e-01 -2.637433e-01 -1.418028e-01 -1.246573e-02 -1.051817e-03
<VARIANCE> 25
 9.371085e+00 5.217182e+00 8.378197e+00 1.123139e+01 1.514323e+01 1.396857e+01 1.258593e+01 1.101356e+01 1.141302e+01 1.401377e+01 1.207253e+01 1.074002e+01 1.283562e-01 1.570316e-01 3.579143e-01 4.990540e-01 6.371330e-01 7.099528e-01 7.391322e-01 7.834063e-01 7.960632e-01 7.602093e-01 8.188342e-01 9.533085e-01 5.982072e-05
<GCONST> 5.716608e+01
<MIXTURE> 87 1.100681e-02
<MEAN> 25
 -3.040767e+00 4.032178e+00 3.448650e+00 6.831909e+00 4.901127e+00 7.719485e-01 1.772570e+00 -1.238753e+00 -6.812873e-01 -5.967445e-01 -8.514030e-01 2.616041e-01 -2.229858e+00 -2.596077e+00 -2.192420e+00 -2.220296e+00 8.512891e-02 -7.822563e-02 5.829420e-01 1.219351e+00 1.472998e+00 8.591818e-01 8.568497e-01 9.794978e-01 1.038580e-01
<VARIANCE> 25
 3.682818e+01 3.212561e+01 2.719921e+01 3.258636e+01 3.377524e+01 3.047589e+01 2.684922e+01 2.720741e+01 2.519016e+01 2.476568e+01 2.345654e+01 2.276071e+01 3.862229e+00 3.196786e+00 3.984931e+00 3.573471e+00 4.790151e+00 4.298154e+00 4.002687e+00 3.891660e+00 3.502669e+00 3.902027e+00 3.308640e+00 2.614527e+00 4.735943e-03
<GCONST> 9.641647e+01
<MIXTURE> 88 1.256585e-02
<MEAN> 25
 -3.112646e+00 -1.138875e+00 -1.531400e+00 3.327550e+00 3.548269e+00 2.707260e+00 2.875209e+00 2.621568e+00 3.406904e+00 1.944663e+00 2.197168e+00 1.958977e+00 6.711457e-02 5.507349e-02 1.863457e-01 7.390698e-02 -1.164116e-01 3.347502e-03 -4.776946e-02 -1.343963e-01 -1.057756e-01 -6.179869e-02 -1.591375e-01 -1.689261e-01 -4.383494e-03
<VARIANCE> 25
 1.155054e+01 7.181042e+00 9.423114e+00 1.251518e+01 1.308519e+01 1.351352e+01 1.344470e+01 1.481619e+01 1.501192e+01 1.822658e+01 1.519052e+01 1.226859e+01 1.084955e+00 1.809499e+00 1.541669e+00 2.245339e+00 2.602516e+00 2.079221e+00 2.275109e+00 2.356480e+00 2.638922e+00 1.937083e+00 2.124183e+00 1.424170e+00 1.230790e-03
<GCONST> 7.776654e+01
<MIXTURE> 89 9.333527e-03
<MEAN> 25
 5.548308e+00 -6.169755e+00 -2.721828e+00 -2.462481e+00 -1.890025e+00 -4.549141e+00 -4.500498e+00 3.845034e+00 3.050556e+00 -1.702604e+00 -5.285969e+00 -3.328781e+00 -5.370806e-01 5.355940e-02 1.980830e+00 1.074887e+00 -1.865106e+00 -1.602694e+00 8.810284e-01 1.052264e+00 -6.932599e-01 -1.047303e+00 2.831060e-01 1.391491e+00 -1.952452e-03
<VARIANCE> 25
 8.964635e+00 2.597618e+01 3.004979e+01 2.862050e+01 3.238065e+01 4.049013e+01 6.624472e+01 3.789335e+01 3.598887e+01 4.838667e+01 3.541689e+01 2.828673e+01 3.092850e-01 8.282297e-01 1.361177e+00 1.639834e+00 1.827847e+00 1.899310e+00 2.246054e+00 2.074648e+00 2.188167e+00 2.270141e+00 2.433431e+00 1.462212e+00 3.994161e-04
<GCONST> 8.480438e+01
<MIXTURE> 90 7.114505e-03
<MEAN> 25
 2.423992e+00 -8.757181e+00 -4.293863e+00 -3.608572e+00 -2.959010e+00 -1.381969e+00 2.922640e+00 9.581555e-01 -7.157636e+00 -9.935467e+00 -3.689102e+00 -1.206718e+00 -1.839095e-01 8.483610e-01 1.196482e+00 -8.059142e-01 -1.518927e+00 -2.332217e-01 5.945541e-01 -1.773380e-01 -2.791375e-01 6.761577e-01 2.448662e-01 -5.405689e-01 -1.037208e-02
<VARIANCE> 25
 7.886905e+00 2.487681e+01 2.067341e+01 2.740128e+01 3.565635e+01 3.134732e+01 3.755193e+01 3.414682e+01 3.436861e+01 2.715721e+01 2.693194e+01 2.617016e+01 2.101831e-01 6.572576e-01 7.628315e-01 1.035526e+00 1.445115e+00 1.540556e+00 1.671688e+00 1.544199e+00 1.884955e+00 1.664352e+00 1.468754e+00 1.237437e+00 2.143157e-04
<GCONST> 7.796381e+01
<MIXTURE> 91 7.852945e-03
<MEAN> 25
 6.128702e+00 -7.339793e+00 -8.187818e+00 -5.049504e+00 3.632986e+00 -4.061455e-02 -2.092412e+00 5.907966e-01 7.647105e-01 -2.382836e+00 -4.446900e+00 -5.034358e+00 2.391630e-01 1.047624e+00 1.853865e-01 4.577806e-01 -2.687179e-02 -5.207533e-01 -3.617819e-01 -1.480575e-01 -1.028129e-01 4.498076e-01 -3.638699e-02 2.287471e-01 -3.456630e-02
<VARIANCE> 25
 1.053673e+01 2.411496e+01 2.050180e+01 3.845127e+01 3.435962e+01 5.219965e+01 5.127403e+01 3.739564e+01 4.946428e+01 6.724651e+01 4.120849e+01 4.070426e+01 4.730531e-01 1.035352e+00 1.083321e+00 1.364148e+00 2.168579e+00 2.338958e+00 2.273717e+00 2.454545e+00 2.188575e+00 2.323743e+00 2.082435e+00 1.743454e+00 5.777435e-04
<GCONST> 8.721916e+01
<MIXTURE> 92 7.852945e-03
<MEAN> 25
 6.128702e+00 -7.339793e+00 -8.187818e+00 -5.049504e+00 3.632986e+00 -4.061455e-02 -2.092412e+00 5.907966e-01 7.647105e-01 -2.382836e+00 -4.446900e+00 -5.034358e+00 2.391630e-01 1.047624e+00 1.853865e-01 4.577806e-01 -2.687179e-02 -5.207533e-01 -3.617819e-01 -1.480575e-01 -1.028129e-01 4.498076e-01 -3.638699e-02 2.287471e-01 -3.456630e-02
<VARIANCE> 25
 1.053673e+01 2.411496e+01 2.050180e+01 3.845127e+01 3.435962e+01 5.219965e+01 5.127403e+01 3.739564e+01 4.946428e+01 6.724651e+01 4.120849e+01 4.070426e+01 4.730531e-01 1.035352e+00 1.083321e+00 1.364148e+00 2.168579e+00 2.338958e+00 2.273717e+00 2.454545e+00 2.188575e+00 2.323743e+00 2.082435e+00 1.743454e+00 5.777435e-04
<GCONST> 8.721916e+01
<MIXTURE> 93 6.122769e-03
<MEAN> 25
 -6.778990e+00 -9.618015e-01 -2.412647e+00 5.720288e+00 5.850021e+00 3.888222e+00 6.064400e+00 3.650903e+00 4.148969e+00 2.483175e+00 1.780627e+00 3.654005e+00 -6.121853e-02 -1.571077e-01 -2.532845e-01 -3.349502e-01 -3.384499e-01 -2.799031e-01 -2.139381e-01 -1.687628e-01 -1.581849e-01 -1.423477e-01 -1.041988e-01 -4.761785e-02 -1.454176e-05
<VARIANCE> 25
 9.461296e+00 5.972879e+00 8.120868e+00 1.185040e+01 1.188455e+01 1.591788e+01 1.543721e+01 1.655625e+01 1.470219e+01 1.446449e+01 1.682286e+01 1.361865e+01 8.195790e-02 1.533516e-01 2.631209e-01 3.782334e-01 4.964573e-01 6.384099e-01 7.724581e-01 8.854566e-01 9.238017e-01 8.766999e-01 8.843657e-01 9.266071e-01 1.000156e-06
<GCONST> 5.369013e+01
<MIXTURE> 94 6.122769e-03
<MEAN> 25
 -6.778990e+00 -9.618015e-01 -2.412647e+00 5.720288e+00 5.850021e+00 3.888222e+00 6.064400e+00 3.650903e+00 4.148969e+00 2.483175e+00 1.780627e+00 3.654005e+00 -6.121853e-02 -1.571077e-01 -2.532845e-01 -3.349502e-01 -3.384499e-01 -2.799031e-01 -2.139381e-01 -1.687628e-01 -1.581849e-01 -1.423477e-01 -1.041988e-01 -4.761785e-02 -1.454176e-05
<VARIANCE> 25
 9.461296e+00 5.972879e+00 8.120868e+00 1.185040e+01 1.188455e+01 1.591788e+01 1.543721e+01 1.655625e+01 1.470219e+01 1.446449e+01 1.682286e+01 1.361865e+01 8.195790e-02 1.533516e-01 2.631209e-01 3.782334e-01 4.964573e-01 6.384099e-01 7.724581e-01 8.854566e-01 9.238017e-01 8.766999e-01 8.843657e-01 9.266071e-01 1.000156e-06
<GCONST> 5.369013e+01
<MIXTURE> 95 5.258835e-03
<MEAN> 25
 -4.022191e+00 -8.740838e-01 -2.054727e+00 3.548750e+00 3.355786e+00 1.912155e+00 3.416783e+00 1.649420e+00 2.171522e+00 1.449971e+00 1.463286e+00 2.540376e+00 2.727148e-01 1.647752e-01 3.252262e-02 -1.916115e-01 -4.959402e-01 -6.915373e-01 -1.190802e+00 -1.548626e+00 -1.346474e+00 -1.023200e+00 -4.572042e-01 -5.297874e-01 4.834691e-04
<VARIANCE> 25
 1.256209e+01 6.478062e+00 1.093143e+01 1.393123e+01 1.423399e+01 1.538125e+01 1.850583e+01 1.643763e+01 1.436558e+01 1.358845e+01 1.708356e+01 1.137926e+01 2.609017e-01 3.145652e-01 4.354265e-01 6.377248e-01 1.160661e+00 7.750347e-01 8.310828e-01 1.045620e+00 1.217324e+00 1.102296e+00 1.081756e+00 1.321172e+00 4.439094e-05
<GCONST> 6.362316e+01
<MIXTURE> 96 7.034694e-03
<MEAN> 25
 -4.455704e+00 -6.723920e-02 -2.109954e+00 4.070676e+00 3.394699e+00 1.409162e+00 3.042738e+00 1.669798e+00 2.376181e+00 1.213936e+00 1.519289e+00 2.764629e+00 -2.853984e-02 1.187629e-01 2.389438e-01 4.417311e-01 5.173460e-01 4.416071e-01 3.063627e-01 -5.605298e-02 -4.488328e-01 -7.231942e-01 -6.519027e-01 -3.917089e-01 -1.154675e-04
<VARIANCE> 25
 1.396536e+01 9.611010e+00 1.333558e+01 1.828371e+01 1.636046e+01 1.835583e+01 1.932000e+01 1.871948e+01 1.631662e+01 1.583321e+01 1.875530e+01 1.491672e+01 1.161060e-01 2.259303e-01 2.999796e-01 4.025290e-01 4.664161e-01 6.198402e-01 8.704473e-01 1.012268e+00 8.649019e-01 8.613080e-01 8.743126e-01 9.753377e-01 1.077204e-06
<GCONST> 5.780943e+01
<MIXTURE> 97 7.034694e-03
<MEAN> 25
 -4.455704e+00 -6.723920e-02 -2.109954e+00 4.070676e+00 3.394699e+00 1.409162e+00 3.042738e+00 1.669798e+00 2.376181e+00 1.213936e+00 1.519289e+00 2.764629e+00 -2.853984e-02 1.187629e-01 2.389438e-01 4.417311e-01 5.173460e-01 4.416071e-01 3.063627e-01 -5.605298e-02 -4.488328e-01 -7.231942e-01 -6.519027e-01 -3.917089e-01 -1.154675e-04
<VARIANCE> 25
 1.396536e+01 9.611010e+00 1.333558e+01 1.828371e+01 1.636046e+01 1.835583e+01 1.932000e+01 1.871948e+01 1.631662e+01 1.583321e+01 1.875530e+01 1.491672e+01 1.161060e-01 2.259303e-01 2.999796e-01 4.025290e-01 4.664161e-01 6.198402e-01 8.704473e-01 1.012268e+00 8.649019e-01 8.613080e-01 8.743126e-01 9.753377e-01 1.077204e-06
<GCONST> 5.780943e+01
<MIXTURE> 98 9.917808e-03
<MEAN> 25
 -1.106155e+00 1.237564e+00 1.729863e-01 2.639940e+00 2.765023e+00 2.325232e+00 2.310842e+00 1.075967e+00 9.973626e-01 7.845801e-01 -1.909602e-02 -4.997365e-02 -1.635079e+00 -1.040262e+00 -5.770534e-01 1.009458e-01 5.731201e-01 5.277994e-01 1.214902e+00 1.217866e+00 1.908923e+00 1.220826e+00 1.084557e+00 1.141377e+00 -2.931389e-02
<VARIANCE> 25
 1.122282e+01 1.653641e+01 2.362399e+01 3.128525e+01 3.302917e+01 2.891943e+01 2.677650e+01 2.345094e+01 2.495284e+01 2.344365e+01 2.300711e+01 2.242163e+01 1.262403e+00 1.814456e+00 2.214842e+00 1.997482e+00 2.390968e+00 2.288116e+00 2.967046e+00 2.337815e+00 2.694922e+00 2.427282e+00 2.905270e+00 1.774823e+00 1.905165e-03
<GCONST> 8.690488e+01
<MIXTURE> 99 6.696178e-03
<MEAN> 25
 -5.152561e+00 8.265918e+00 5.830181e+00 3.165312e+00 5.846041e-01 -4.328076e+00 -8.182790e-01 -4.218333e+00 -3.604536e+00 -4.347401e+00 -1.735543e+00 1.377592e-01 7.664039e-01 -5.413041e-01 3.320334e-01 -4.273360e-01 -1.100194e+00 -3.000165e-01 -4.657583e-01 -2.973792e-01 -2.298197e-01 8.868600e-02 2.440381e-01 1.650752e-01 1.054734e-02
<VARIANCE> 25
 3.267183e+01 2.554456e+01 3.788250e+01 2.601692e+01 3.069056e+01 3.175870e+01 2.561904e+01 2.368942e+01 2.228522e+01 2.447196e+01 1.752525e+01 2.534790e+01 2.158183e+00 1.603424e+00 1.473742e+00 1.751300e+00 2.228796e+00 2.053948e+00 1.526177e+00 1.404541e+00 1.310940e+00 1.584888e+00 1.249776e+00 1.114377e+00 1.285217e-03
<GCONST> 8.413434e+01
<MIXTURE> 100 4.498084e-03
<MEAN> 25
 -1.597458e+00 6.341372e+00 1.027413e+01 -7.457941e+00 -1.077944e+01 -5.073689e+00 -4.941425e+00 -9.964600e+00 -4.715633e+00 -8.561054e-01 -2.733829e+00 -2.707932e+00 2.916648e+00 -1.259431e+00 1.299628e+00 -2.185505e+00 -3.419005e+00 -7.838466e-01 -1.218588e+00 -8.203160e-01 -1.475297e+00 3.462016e-01 -1.655150e+00 -2.858727e-01 2.028390e-03
<VARIANCE> 25
 1.362334e+01 2.107124e+01 2.246704e+01 2.645727e+01 2.301982e+01 2.371616e+01 2.910229e+01 2.173038e+01 2.748077e+01 2.264208e+01 2.240082e+01 2.133136e+01 1.801359e+00 3.953658e+00 2.918802e+00 4.284612e+00 4.183312e+00 4.535986e+00 4.013497e+00 4.338860e+00 4.166350e+00 3.894896e+00 3.909738e+00 3.223682e+00 1.674253e-03
<GCONST> 9.256695e+01
<MIXTURE> 101 6.007792e-03
<MEAN> 25
 7.547273e+00 -3.619132e+00 -5.840375e+00 -6.500803e+00 4.663149e-01 -1.044822e+00 -9.582622e+00 -2.043596e+00 1.256697e+00 2.892676e+00 -2.231677e+00 -4.918686e+00 6.346008e-01 6.013714e-01 -1.440287e+00 -1.536913e+00 1.056474e+00 2.256548e+00 2.526281e-01 -1.433479e+00 -1.037424e+00 9.574264e-01 1.325564e+00 -3.431405e-01 -3.104299e-03
<VARIANCE> 25
 1.037751e+01 2.007150e+01 2.818591e+01 3.940356e+01 3.329650e+01 3.349667e+01 4.030085e+01 3.414357e+01 3.581752e+01 4.429324e+01 4.642248e+01 2.291232e+01 2.776343e-01 6.204147e-01 1.106128e+00 1.501786e+00 1.546248e+00 2.022512e+00 1.932105e+00 1.941691e+00 2.227872e+00 2.414785e+00 1.660767e+00 1.767275e+00 3.419994e-04
<GCONST> 8.287083e+01
<MIXTURE> 102 6.007792e-03
<MEAN> 25
 7.547273e+00 -3.619132e+00 -5.840375e+00 -6.500803e+00 4.663149e-01 -1.044822e+00 -9.582622e+00 -2.043596e+00 1.256697e+00 2.892676e+00 -2.231677e+00 -4.918686e+00 6.346008e-01 6.013714e-01 -1.440287e+00 -1.536913e+00 1.056474e+00 2.256548e+00 2.526281e-01 -1.433479e+00 -1.037424e+00 9.574264e-01 1.325564e+00 -3.431405e-01 -3.104299e-03
<VARIANCE> 25
 1.037751e+01 2.007150e+01 2.818591e+01 3.940356e+01 3.329650e+01 3.349667e+01 4.030085e+01 3.414357e+01 3.581752e+01 4.429324e+01 4.642248e+01 2.291232e+01 2.776343e-01 6.204147e-01 1.106128e+00 1.501786e+00 1.546248e+00 2.022512e+00 1.932105e+00 1.941691e+00 2.227872e+00 2.414785e+00 1.660767e+00 1.767275e+00 3.419994e-04
<GCONST> 8.287083e+01
<MIXTURE> 103 5.694618e-03
<MEAN> 25
 3.357726e+00 -9.348827e+00 -6.065417e+00 -3.075911e+00 -1.318193e+00 -1.918017e+00 2.402391e+00 2.443054e+00 -4.574476e+00 -9.140239e+00 -4.983484e+00 3.536034e-01 -1.519307e-01 -1.475655e+00 -9.797044e-01 3.641376e-01 1.208251e+00 1.019945e+00 1.538669e-01 -2.719961e-01 -7.759533e-01 -9.341735e-01 -2.599864e-02 1.179868e-01 2.687765e-02
<VARIANCE> 25
 1.023268e+01 2.133589e+01 2.295163e+01 3.151161e+01 4.743615e+01 3.496940e+01 4.591897e+01 3.676543e+01 4.179432e+01 2.996426e+01 3.026713e+01 2.615241e+01 6.415634e-01 1.252831e+00 1.539026e+00 1.949270e+00 2.904636e+00 2.402178e+00 2.874164e+00 2.564700e+00 2.536959e+00 2.522543e+00 2.096824e+00 2.001416e+00 8.026432e-04
<GCONST> 8.755209e+01
<MIXTURE> 104 5.694618e-03
<MEAN> 25
 3.357726e+00 -9.348827e+00 -6.065417e+00 -3.075911e+00 -1.318193e+00 -1.918017e+00 2.402391e+00 2.443054e+00 -4.574476e+00 -9.140239e+00 -4.983484e+00 3.536034e-01 -1.519307e-01 -1.475655e+00 -9.797044e-01 3.641376e-01 1.208251e+00 1.019945e+00 1.538669e-01 -2.719961e-01 -7.759533e-01 -9.341735e-01 -2.599864e-02 1.179868e-01 2.687765e-02
<VARIANCE> 25
 1.023268e+01 2.133589e+01 2.295163e+01 3.151161e+01 4.743615e+01 3.496940e+01 4.591897e+01 3.676543e+01 4.179432e+01 2.996426e+01 3.026713e+01 2.615241e+01 6.415634e-01 1.252831e+00 1.539026e+00 1.949270e+00 2.904636e+00 2.402178e+00 2.874164e+00 2.564700e+00 2.536959e+00 2.522543e+00 2.096824e+00 2.001416e+00 8.026432e-04
<GCONST> 8.755209e+01
<MIXTURE> 105 4.710235e-03
<MEAN> 25
 2.108759e+00 -1.004001e+00 7.806520e+00 -2.434044e+00 -9.905468e+00 -4.127151e+00 -3.508916e+00 -8.356978e-01 -3.347480e+00 -2.946777e+00 9.030933e-01 -7.997010e-01 4.515223e-03 -1.379244e-02 5.170146e-02 -3.341447e-03 -6.592356e-02 5.770880e-02 -4.672122e-02 -3.833472e-02 -3.653319e-02 5.142209e-02 5.848875e-02 2.026329e-02 -8.989130e-04
<VARIANCE> 25
 1.008654e+01 2.215230e+01 3.704668e+01 3.526898e+01 3.678009e+01 4.385268e+01 3.289054e+01 3.735677e+01 3.459722e+01 3.761629e+01 3.791462e+01 2.734730e+01 7.717522e-02 1.644226e-01 3.397926e-01 3.601661e-01 4.400351e-01 4.327626e-01 4.381545e-01 5.211853e-01 5.222472e-01 4.274113e-01 3.852249e-01 4.519223e-01 1.001182e-04
<GCONST> 6.508607e+01
<MIXTURE> 106 4.710235e-03
<MEAN> 25
 2.108759e+00 -1.004001e+00 7.806520e+00 -2.434044e+00 -9.905468e+00 -4.127151e+00 -3.508916e+00 -8.356978e-01 -3.347480e+00 -2.946777e+00 9.030933e-01 -7.997010e-01 4.515223e-03 -1.379244e-02 5.170146e-02 -3.341447e-03 -6.592356e-02 5.770880e-02 -4.672122e-02 -3.833472e-02 -3.653319e-02 5.142209e-02 5.848875e-02 2.026329e-02 -8.989130e-04
<VARIANCE> 25
 1.008654e+01 2.215230e+01 3.704668e+01 3.526898e+01 3.678009e+01 4.385268e+01 3.289054e+01 3.735677e+01 3.459722e+01 3.761629e+01 3.791462e+01 2.734730e+01 7.717522e-02 1.644226e-01 3.397926e-01 3.601661e-01 4.400351e-01 4.327626e-01 4.381545e-01 5.211853e-01 5.222472e-01 4.274113e-01 3.852249e-01 4.519223e-01 1.001182e-04
<GCONST> 6.508607e+01
<MIXTURE> 107 5.452374e-03
<MEAN> 25
 8.161214e+00 -2.165217e+00 -7.719778e+00 -9.026959e+00 1.898903e+00 3.030651e+00 -7.774875e+00 -4.302667e+00 -9.693241e-01 3.401409e+00 1.318171e+00 -4.725518e+00 -5.877969e-01 -7.572117e-01 9.083918e-01 1.725075e+00 5.733502e-02 -1.853083e+00 -7.327735e-01 8.869642e-01 1.785509e+00 1.619002e-01 -1.573265e+00 -7.798434e-01 -2.191014e-03
<VARIANCE> 25
 1.027064e+01 1.891791e+01 2.700852e+01 4.157537e+01 3.259557e+01 3.624144e+01 5.251725e+01 3.354782e+01 4.342391e+01 3.795499e+01 4.898139e+01 2.870220e+01 3.349462e-01 9.012793e-01 1.456316e+00 2.227705e+00 2.415465e+00 2.817375e+00 2.779296e+00 2.386517e+00 2.259287e+00 2.939463e+00 1.860818e+00 2.028050e+00 6.507291e-04
<GCONST> 8.711713e+01
<MIXTURE> 108 5.452374e-03
<MEAN> 25
 8.161214e+00 -2.165217e+00 -7.719778e+00 -9.026959e+00 1.898903e+00 3.030651e+00 -7.774875e+00 -4.302667e+00 -9.693241e-01 3.401409e+00 1.318171e+00 -4.725518e+00 -5.877969e-01 -7.572117e-01 9.083918e-01 1.725075e+00 5.733502e-02 -1.853083e+00 -7.327735e-01 8.869642e-01 1.785509e+00 1.619002e-01 -1.573265e+00 -7.798434e-01 -2.191014e-03
<VARIANCE> 25
 1.027064e+01 1.891791e+01 2.700852e+01 4.157537e+01 3.259557e+01 3.624144e+01 5.251725e+01 3.354782e+01 4.342391e+01 3.795499e+01 4.898139e+01 2.870220e+01 3.349462e-01 9.012793e-01 1.456316e+00 2.227705e+00 2.415465e+00 2.817375e+00 2.779296e+00 2.386517e+00 2.259287e+00 2.939463e+00 1.860818e+00 2.028050e+00 6.507291e-04
<GCONST> 8.711713e+01
<MIXTURE> 109 6.661064e-03
<MEAN> 25
 4.005151e+00 -9.778800e+00 -7.816839e+00 -1.291314e+00 2.622637e+00 6.672330e-02 -9.649352e-02 1.290579e+00 -2.565715e+00 -7.971452e+00 -5.157282e+00 -1.033564e-01 -4.241059e-02 -1.479231e-01 -9.291559e-04 2.673425e-01 1.883602e-01 9.639689e-02 -1.454886e-01 -8.461691e-02 -6.387434e-02 -1.386770e-01 2.189385e-01 -1.376522e-02 -3.743873e-03
<VARIANCE> 25
 8.695717e+00 2.418424e+01 2.172700e+01 2.953277e+01 3.853311e+01 3.468169e+01 4.382890e+01 3.295049e+01 4.376852e+01 3.610653e+01 3.054227e+01 2.708735e+01 1.906478e-01 4.297263e-01 5.528121e-01 6.316247e-01 1.195157e+00 9.764327e-01 1.241773e+00 1.086430e+00 1.132170e+00 9.584337e-01 8.685753e-01 8.631834e-01 1.885912e-04
<GCONST> 7.443357e+01
<MIXTURE> 110 6.661064e-03
<MEAN> 25
 4.005151e+00 -9.778800e+00 -7.816839e+00 -1.291314e+00 2.622637e+00 6.672330e-02 -9.649352e-02 1.290579e+00 -2.565715e+00 -7.971452e+00 -5.157282e+00 -1.033564e-01 -4.241059e-02 -1.479231e-01 -9.291559e-04 2.673425e-01 1.883602e-01 9.639689e-02 -1.454886e-01 -8.461691e-02 -6.387434e-02 -1.386770e-01 2.189385e-01 -1.376522e-02 -3.743873e-03
<VARIANCE> 25
 8.695717e+00 2.418424e+01 2.172700e+01 2.953277e+01 3.853311e+01 3.468169e+01 4.382890e+01 3.295049e+01 4.376852e+01 3.610653e+01 3.054227e+01 2.708735e+01 1.906478e-01 4.297263e-01 5.528121e-01 6.316247e-01 1.195157e+00 9.764327e-01 1.241773e+00 1.086430e+00 1.132170e+00 9.584337e-01 8.685753e-01 8.631834e-01 1.885912e-04
<GCONST> 7.443357e+01
<MIXTURE> 111 4.337247e-03
<MEAN> 25
 -1.858019e+00 -1.750209e-01 -1.111043e+00 8.656541e-01 3.251369e-01 2.326620e-01 -3.634832e-01 4.050298e-01 -1.974132e-01 -4.199906e-01 2.873881e-01 1.005676e+00 -2.088022e-02 4.337800e-03 -3.718365e-02 -6.702694e-02 3.783083e-03 1.425768e-01 -2.752377e-03 -6.731297e-02 -2.492373e-01 -3.216037e-01 -2.717947e-01 -8.508322e-02 -8.078502e-04
<VARIANCE> 25
 1.067311e+01 5.000423e+00 9.232671e+00 7.782962e+00 1.029216e+01 1.817026e+01 1.171848e+01 1.332500e+01 1.190477e+01 1.298850e+01 1.176466e+01 1.312762e+01 7.729053e-02 1.546940e-01 3.014493e-01 4.775245e-01 6.733695e-01 9.117964e-01 8.685831e-01 1.079419e+00 1.313468e+00 8.365906e-01 1.039784e+00 8.727267e-01 3.578742e-05
<GCONST> 5.740383e+01
<MIXTURE> 112 4.337247e-03
<MEAN> 25
 -1.858019e+00 -1.750209e-01 -1.111043e+00 8.656541e-01 3.251369e-01 2.326620e-01 -3.634832e-01 4.050298e-01 -1.974132e-01 -4.199906e-01 2.873881e-01 1.005676e+00 -2.088022e-02 4.337800e-03 -3.718365e-02 -6.702694e-02 3.783083e-03 1.425768e-01 -2.752377e-03 -6.731297e-02 -2.492373e-01 -3.216037e-01 -2.717947e-01 -8.508322e-02 -8.078502e-04
<VARIANCE> 25
 1.067311e+01 5.000423e+00 9.232671e+00 7.782962e+00 1.029216e+01 1.817026e+01 1.171848e+01 1.332500e+01 1.190477e+01 1.298850e+01 1.176466e+01 1.312762e+01 7.729053e-02 1.546940e-01 3.014493e-01 4.775245e-01 6.733695e-01 9.117964e-01 8.685831e-01 1.079419e+00 1.313468e+00 8.365906e-01 1.039784e+00 8.727267e-01 3.578742e-05
<GCONST> 5.740383e+01
<MIXTURE> 113 5.938666e-03
<MEAN> 25
 9.827775e+00 1.705009e+00 -8.657269e+00 -1.674287e+01 -9.925156e-01 5.533503e+00 -5.165184e+00 -1.491782e+00 -5.638103e+00 -4.161884e-01 4.145425e-01 -1.852487e-01 8.063955e-03 6.569316e-03 -6.199689e-02 -1.073182e-01 9.719317e-02 1.354925e-01 4.746312e-02 3.802687e-02 -4.380825e-02 -3.169660e-02 1.874606e-01 2.789665e-02 -1.362513e-03
<VARIANCE> 25
 9.486092e+00 1.614259e+01 2.963652e+01 3.694817e+01 5.163351e+01 3.376835e+01 3.926553e+01 3.832912e+01 3.672883e+01 4.555704e+01 3.624053e+01 2.791056e+01 1.219166e-01 3.244542e-01 3.125525e-01 6.310426e-01 6.127064e-01 6.771380e-01 7.686110e-01 8.335196e-01 9.706189e-01 9.829429e-01 7.254410e-01 7.046980e-01 1.291828e-04
<GCONST> 7.124802e+01
<MIXTURE> 114 5.938666e-03
<MEAN> 25
 9.827775e+00 1.705009e+00 -8.657269e+00 -1.674287e+01 -9.925156e-01 5.533503e+00 -5.165184e+00 -1.491782e+00 -5.638103e+00 -4.161884e-01 4.145425e-01 -1.852487e-01 8.063955e-03 6.569316e-03 -6.199689e-02 -1.073182e-01 9.719317e-02 1.354925e-01 4.746312e-02 3.802687e-02 -4.380825e-02 -3.169660e-02 1.874606e-01 2.789665e-02 -1.362513e-03
<VARIANCE> 25
 9.486092e+00 1.614259e+01 2.963652e+01 3.694817e+01 5.163351e+01 3.376835e+01 3.926553e+01 3.832912e+01 3.672883e+01 4.555704e+01 3.624053e+01 2.791056e+01 1.219166e-01 3.244542e-01 3.125525e-01 6.310426e-01 6.127064e-01 6.771380e-01 7.686110e-01 8.335196e-01 9.706189e-01 9.829429e-01 7.254410e-01 7.046980e-01 1.291828e-04
<GCONST> 7.124802e+01
<MIXTURE> 115 2.935202e-03
<MEAN> 25
 -2.927928e+00 -2.932331e-01 -2.344992e+00 2.894396e+00 1.860777e+00 -6.964900e-01 1.754419e+00 8.181919e-01 1.447573e+00 2.452533e-01 5.268938e-02 2.028516e+00 8.433436e-02 -3.385180e-02 -3.177935e-01 -5.046391e-01 -5.942788e-01 -5.088060e-01 -5.122370e-01 -5.494733e-01 -5.562224e-01 -4.195377e-01 -3.471967e-01 -1.323723e-01 4.166220e-05
<VARIANCE> 25
 1.210777e+01 8.901568e+00 1.299899e+01 1.270844e+01 1.322536e+01 1.588091e+01 1.603666e+01 2.188823e+01 1.665205e+01 1.745250e+01 1.695258e+01 1.431347e+01 2.399129e-01 2.963904e-01 4.712918e-01 5.311429e-01 6.658486e-01 7.661925e-01 9.475307e-01 1.168493e+00 1.199416e+00 1.052958e+00 9.039474e-01 9.848881e-01 1.309672e-06
<GCONST> 6.007759e+01
<MIXTURE> 116 2.935202e-03
<MEAN> 25
 -2.927928e+00 -2.932331e-01 -2.344992e+00 2.894396e+00 1.860777e+00 -6.964900e-01 1.754419e+00 8.181919e-01 1.447573e+00 2.452533e-01 5.268938e-02 2.028516e+00 8.433436e-02 -3.385180e-02 -3.177935e-01 -5.046391e-01 -5.942788e-01 -5.088060e-01 -5.122370e-01 -5.494733e-01 -5.562224e-01 -4.195377e-01 -3.471967e-01 -1.323723e-01 4.166220e-05
<VARIANCE> 25
 1.210777e+01 8.901568e+00 1.299899e+01 1.270844e+01 1.322536e+01 1.588091e+01 1.603666e+01 2.188823e+01 1.665205e+01 1.745250e+01 1.695258e+01 1.431347e+01 2.399129e-01 2.963904e-01 4.712918e-01 5.311429e-01 6.658486e-01 7.661925e-01 9.475307e-01 1.168493e+00 1.199416e+00 1.052958e+00 9.039474e-01 9.848881e-01 1.309672e-06
<GCONST> 6.007759e+01
<MIXTURE> 117 6.506003e-03
<MEAN> 25
 -4.639235e+00 1.117857e+00 1.052202e+00 9.749157e+00 6.255677e+00 6.252260e+00 6.458485e+00 5.046130e+00 6.386643e+00 4.928419e+00 6.367113e+00 2.712423e+00 -7.510932e-02 -2.346424e-01 -3.588337e-01 -4.197852e-01 -3.682745e-01 -3.030875e-01 -2.873517e-01 -3.304237e-01 -3.902826e-01 -3.679694e-01 -2.618423e-01 -1.152651e-01 -1.066273e-05
<VARIANCE> 25
 7.213828e+00 8.745241e+00 9.807249e+00 1.439109e+01 1.562832e+01 1.535910e+01 1.773684e+01 1.794970e+01 1.639459e+01 1.636112e+01 1.673225e+01 1.475277e+01 2.165136e-01 3.077566e-01 4.261017e-01 6.167427e-01 8.539692e-01 1.054891e+00 1.176630e+00 1.233865e+00 1.227057e+00 1.195859e+00 1.168421e+00 1.113368e+00 1.003012e-06
<GCONST> 6.044328e+01
<MIXTURE> 118 6.506003e-03
<MEAN> 25
 -4.639235e+00 1.117857e+00 1.052202e+00 9.749157e+00 6.255677e+00 6.252260e+00 6.458485e+00 5.046130e+00 6.386643e+00 4.928419e+00 6.367113e+00 2.712423e+00 -7.510932e-02 -2.346424e-01 -3.588337e-01 -4.197852e-01 -3.682745e-01 -3.030875e-01 -2.873517e-01 -3.304237e-01 -3.902826e-01 -3.679694e-01 -2.618423e-01 -1.152651e-01 -1.066273e-05
<VARIANCE> 25
 7.213828e+00 8.745241e+00 9.807249e+00 1.439109e+01 1.562832e+01 1.535910e+01 1.773684e+01 1.794970e+01 1.639459e+01 1.636112e+01 1.673225e+01 1.475277e+01 2.165136e-01 3.077566e-01 4.261017e-01 6.167427e-01 8.539692e-01 1.054891e+00 1.176630e+00 1.233865e+00 1.227057e+00 1.195859e+00 1.168421e+00 1.113368e+00 1.003012e-06
<GCONST> 6.044328e+01
<MIXTURE> 119 4.297961e-03
<MEAN> 25
 -4.618411e+00 -7.234768e+00 2.168438e+00 2.008294e+00 1.852576e+00 -2.823100e-01 4.975081e+00 5.435154e+00 8.458837e-01 9.219899e-01 6.318483e+00 1.789398e+00 -6.384578e-02 -9.472904e-02 3.430773e-02 -5.107623e-02 -6.821863e-02 -1.220552e-01 -1.123504e-02 2.134211e-02 -1.065488e-01 -1.777899e-01 -5.273085e-02 -8.215052e-03 1.735623e-03
<VARIANCE> 25
 1.032012e+01 1.102166e+01 1.609591e+01 2.171985e+01 2.309501e+01 2.516513e+01 2.454704e+01 2.846994e+01 2.484192e+01 2.905677e+01 2.019503e+01 2.058465e+01 1.602336e-01 2.699173e-01 4.589478e-01 6.355094e-01 8.727995e-01 1.021266e+00 1.118057e+00 1.339545e+00 1.246915e+00 1.221546e+00 1.166056e+00 1.116865e+00 2.269644e-04
<GCONST> 7.027420e+01
<MIXTURE> 120 4.297961e-03
<MEAN> 25
 -4.618411e+00 -7.234768e+00 2.168438e+00 2.008294e+00 1.852576e+00 -2.823100e-01 4.975081e+00 5.435154e+00 8.458837e-01 9.219899e-01 6.318483e+00 1.789398e+00 -6.384578e-02 -9.472904e-02 3.430773e-02 -5.107623e-02 -6.821863e-02 -1.220552e-01 -1.123504e-02 2.134211e-02 -1.065488e-01 -1.777899e-01 -5.273085e-02 -8.215052e-03 1.735623e-03
<VARIANCE> 25
 1.032012e+01 1.102166e+01 1.609591e+01 2.171985e+01 2.309501e+01 2.516513e+01 2.454704e+01 2.846994e+01 2.484192e+01 2.905677e+01 2.019503e+01 2.058465e+01 1.602336e-01 2.699173e-01 4.589478e-01 6.355094e-01 8.727995e-01 1.021266e+00 1.118057e+00 1.339545e+00 1.246915e+00 1.221546e+00 1.166056e+00 1.116865e+00 2.269644e-04
<GCONST> 7.027420e+01
<MIXTURE> 121 4.567511e-03
<MEAN> 25
 3.406542e-01 -2.123290e+00 4.920514e+00 -1.202005e+01 -1.183698e+01 -1.292953e+00 7.659231e-01 -4.818208e+00 -4.171501e+00 -9.350713e-01 -5.498565e+00 -4.377762e+00 2.172965e-02 1.418196e-01 -5.509351e-02 3.402440e-02 1.288674e-01 5.725998e-02 -5.841093e-02 -1.704267e-01 -2.548480e-01 -2.129523e-01 -1.386560e-01 -5.299652e-02 -6.990341e-03
<VARIANCE> 25
 7.248736e+00 1.527219e+01 1.803509e+01 2.462010e+01 2.745368e+01 2.809560e+01 2.727049e+01 2.300364e+01 3.284121e+01 2.788313e+01 1.949121e+01 2.081956e+01 1.448237e-01 6.112462e-01 6.311721e-01 7.124235e-01 8.248094e-01 1.060422e+00 1.124173e+00 1.106105e+00 1.258312e+00 1.140566e+00 9.430577e-01 9.987638e-01 2.047298e-04
<GCONST> 7.133263e+01
<MIXTURE> 122 4.567511e-03
<MEAN> 25
 3.406542e-01 -2.123290e+00 4.920514e+00 -1.202005e+01 -1.183698e+01 -1.292953e+00 7.659231e-01 -4.818208e+00 -4.171501e+00 -9.350713e-01 -5.498565e+00 -4.377762e+00 2.172965e-02 1.418196e-01 -5.509351e-02 3.402440e-02 1.288674e-01 5.725998e-02 -5.841093e-02 -1.704267e-01 -2.548480e-01 -2.129523e-01 -1.386560e-01 -5.299652e-02 -6.990341e-03
<VARIANCE> 25
 7.248736e+00 1.527219e+01 1.803509e+01 2.462010e+01 2.745368e+01 2.809560e+01 2.727049e+01 2.300364e+01 3.284121e+01 2.788313e+01 1.949121e+01 2.081956e+01 1.448237e-01 6.112462e-01 6.311721e-01 7.124235e-01 8.248094e-01 1.060422e+00 1.124173e+00 1.106105e+00 1.258312e+00 1.140566e+00 9.430577e-01 9.987638e-01 2.047298e-04
<GCONST> 7.133263e+01
<MIXTURE> 123 4.393044e-03
<MEAN> 25
 -1.723193e+00 1.559645e+00 7.573068e-01 3.849689e+00 3.564183e+00 2.339904e+00 2.234640e+00 9.585613e-01 -8.797191e-01 -5.989572e-01 2.168677e-01 3.601951e-01 -3.501163e-01 -5.612475e-01 -6.473668e-01 -6.200076e-01 -2.556561e-01 4.940415e-02 2.571766e-01 6.899760e-01 7.417765e-01 5.294826e-01 6.826875e-01 6.881531e-01 -5.108662e-03
<VARIANCE> 25
 1.017036e+01 7.073782e+00 1.117602e+01 1.477257e+01 1.950555e+01 1.884812e+01 1.659872e+01 1.400179e+01 1.912386e+01 1.210603e+01 2.222251e+01 1.521320e+01 3.316168e-01 2.742610e-01 5.472240e-01 6.549831e-01 8.417495e-01 1.055199e+00 1.379585e+00 1.209884e+00 1.116207e+00 1.235859e+00 1.271830e+00 1.304811e+00 1.215221e-04
<GCONST> 6.673594e+01
<MIXTURE> 124 4.069876e-03
<MEAN> 25
 -6.263630e+00 -1.123470e+00 -2.890415e+00 4.854150e+00 4.896385e+00 3.326661e+00 5.194035e+00 2.651961e+00 3.188369e+00 1.234378e+00 1.140920e+00 2.884974e+00 -2.050321e-01 -3.145613e-01 -3.532906e-01 -2.194971e-01 1.035551e-01 5.333585e-01 8.336422e-01 8.631060e-01 6.521622e-01 3.000222e-01 1.180505e-01 -3.151721e-03 5.417443e-05
<VARIANCE> 25
 1.240129e+01 6.908315e+00 1.089330e+01 1.329674e+01 1.194636e+01 1.921047e+01 1.566729e+01 1.709597e+01 1.542536e+01 1.554498e+01 1.887937e+01 1.484538e+01 1.043183e-01 1.729990e-01 2.694288e-01 4.120747e-01 5.968125e-01 7.563554e-01 8.093469e-01 7.885283e-01 8.886827e-01 1.011069e+00 1.046674e+00 1.008741e+00 1.804813e-05
<GCONST> 5.908248e+01
<MIXTURE> 125 4.069876e-03
<MEAN> 25
 -6.263630e+00 -1.123470e+00 -2.890415e+00 4.854150e+00 4.896385e+00 3.326661e+00 5.194035e+00 2.651961e+00 3.188369e+00 1.234378e+00 1.140920e+00 2.884974e+00 -2.050321e-01 -3.145613e-01 -3.532906e-01 -2.194971e-01 1.035551e-01 5.333585e-01 8.336422e-01 8.631060e-01 6.521622e-01 3.000222e-01 1.180505e-01 -3.151721e-03 5.417443e-05
<VARIANCE> 25
 1.240129e+01 6.908315e+00 1.089330e+01 1.329674e+01 1.194636e+01 1.921047e+01 1.566729e+01 1.709597e+01 1.542536e+01 1.554498e+01 1.887937e+01 1.484538e+01 1.043183e-01 1.729990e-01 2.694288e-01 4.120747e-01 5.968125e-01 7.563554e-01 8.093469e-01 7.885283e-01 8.886827e-01 1.011069e+00 1.046674e+00 1.008741e+00 1.804813e-05
<GCONST> 5.908248e+01
<MIXTURE> 126 2.402244e-03
<MEAN> 25
 -3.502098e+00 -6.500420e+00 -4.847625e+00 2.067736e+00 4.433341e+00 -2.500092e+00 -1.319117e-01 3.409964e+00 3.632174e+00 -2.096940e+00 -1.590596e+00 2.908367e+00 3.814270e-02 8.219456e-02 -5.597067e-02 -1.834932e-01 -3.640005e-01 -4.155409e-01 -2.051473e-01 -7.613881e-02 -1.435705e-01 -2.541405e-01 -4.438065e-02 -7.060292e-02 -5.197689e-03
<VARIANCE> 25
 7.882871e+00 1.342428e+01 1.256508e+01 1.351093e+01 2.499498e+01 2.343918e+01 2.199229e+01 2.659821e+01 3.241895e+01 2.834498e+01 1.995251e+01 1.727712e+01 2.010986e-01 3.991560e-01 4.524329e-01 5.584367e-01 7.478909e-01 9.363245e-01 1.133862e+00 1.283580e+00 1.250389e+00 1.363126e+00 1.141769e+00 1.064600e+00 2.777233e-04
<GCONST> 6.981410e+01
<MIXTURE> 127 2.402244e-03
<MEAN> 25
 -3.502098e+00 -6.500420e+00 -4.847625e+00 2.067736e+00 4.433341e+00 -2.500092e+00 -1.319117e-01 3.409964e+00 3.632174e+00 -2.096940e+00 -1.590596e+00 2.908367e+00 3.814270e-02 8.219456e-02 -5.597067e-02 -1.834932e-01 -3.640005e-01 -4.155409e-01 -2.051473e-01 -7.613881e-02 -1.435705e-01 -2.541405e-01 -4.438065e-02 -7.060292e-02 -5.197689e-03
<VARIANCE> 25
 7.882871e+00 1.342428e+01 1.256508e+01 1.351093e+01 2.499498e+01 2.343918e+01 2.199229e+01 2.659821e+01 3.241895e+01 2.834498e+01 1.995251e+01 1.727712e+01 2.010986e-01 3.991560e-01 4.524329e-01 5.584367e-01 7.478909e-01 9.363245e-01 1.133862e+00 1.283580e+00 1.250389e+00 1.363126e+00 1.141769e+00 1.064600e+00 2.777233e-04
<GCONST> 6.981410e+01
<MIXTURE> 128 3.790457e-03
<MEAN> 25
 -3.665060e+00 1.610792e+00 -3.902175e-01 6.227117e+00 3.706257e+00 1.790613e+00 3.235103e+00 2.304630e+00 3.626563e+00 3.416996e+00 3.558836e+00 3.285616e+00 -3.283109e-01 -1.980408e-01 5.763348e-02 7.908256e-01 1.121701e+00 1.167143e+00 6.830520e-01 2.186863e-01 -3.557831e-01 -7.579283e-01 -5.750874e-01 -4.434745e-01 -8.259266e-05
<VARIANCE> 25
 1.070249e+01 1.109908e+01 1.429607e+01 1.991043e+01 1.927914e+01 2.052825e+01 2.502435e+01 2.378531e+01 2.667159e+01 2.371885e+01 2.588772e+01 1.816592e+01 9.087562e-01 1.084785e+00 1.315637e+00 1.571455e+00 1.551708e+00 1.803731e+00 2.194608e+00 2.331208e+00 2.151195e+00 1.796853e+00 2.058464e+00 1.700877e+00 1.076052e-06
<GCONST> 7.358501e+01
<TRANSP> 3
 0.000000e+00 1.000000e+00 0.000000e+00
 0.000000e+00 9.999990e-01 9.999998e-07
 0.000000e+00 0.000000e+00 0.000000e+00
<ENDHMM>
