~o
<STREAMINFO> 1 25
<VECSIZE> 25<NULLD><MFCC_E_D_N><DIAGC>
~h "jmodel"
<BEGINHMM>
<NUMSTATES> 3
<STATE> 2
<NUMMIXES> 128
<MIXTURE> 1 5.748963e-03
<MEAN> 25
 -2.583945e+00 3.187396e+00 2.303483e+00 8.750526e+00 4.383197e+00 3.431525e+00 4.064124e+00 3.927898e+00 5.820612e+00 5.242662e+00 5.870177e+00 3.073004e+00 -2.004378e+00 -1.633231e+00 -8.638743e-01 1.071255e+00 1.559239e+00 2.225634e+00 2.153065e+00 2.081376e+00 1.688276e+00 1.270072e+00 1.566020e+00 6.103003e-01 -4.669734e-02
<VARIANCE> 25
 1.006795e+01 1.175977e+01 1.495852e+01 1.864066e+01 2.317076e+01 2.224180e+01 2.186667e+01 2.194335e+01 2.102412e+01 2.263514e+01 2.099865e+01 1.706818e+01 1.788650e+00 2.114266e+00 3.019122e+00 3.223378e+00 3.732573e+00 3.370086e+00 3.311816e+00 3.376760e+00 3.526493e+00 3.736253e+00 3.510139e+00 2.833593e+00 3.138312e-03
<GCONST> 8.848027e+01
<MIXTURE> 2 4.549242e-03
<MEAN> 25
 -4.875953e+00 1.311946e+00 9.941636e-01 9.899901e+00 6.692335e+00 7.424242e+00 7.847213e+00 6.958158e+00 8.372992e+00 6.372919e+00 7.623982e+00 3.074753e+00 -6.199548e-02 4.160065e-02 1.425420e-01 2.259196e-01 2.653413e-01 2.813819e-01 2.953999e-01 3.195517e-01 3.497731e-01 3.090121e-01 1.972378e-01 8.011311e-02 1.267446e-06
<VARIANCE> 25
 6.954063e+00 8.902854e+00 1.065175e+01 1.591056e+01 1.723523e+01 1.556675e+01 1.689873e+01 1.848502e+01 1.658801e+01 1.738577e+01 1.811410e+01 1.433954e+01 1.252466e-01 2.266278e-01 3.364617e-01 4.672053e-01 6.493202e-01 8.148627e-01 9.298660e-01 1.003137e+00 1.051627e+00 1.077969e+00 1.075712e+00 1.013953e+00 1.000000e-06
<GCONST> 5.804409e+01
<MIXTURE> 3 4.549242e-03
<MEAN> 25
 -4.875953e+00 1.311946e+00 9.941636e-01 9.899901e+00 6.692335e+00 7.424242e+00 7.847213e+00 6.958158e+00 8.372992e+00 6.372919e+00 7.623982e+00 3.074753e+00 -6.199548e-02 4.160065e-02 1.425420e-01 2.259196e-01 2.653413e-01 2.813819e-01 2.953999e-01 3.195517e-01 3.497731e-01 3.090121e-01 1.972378e-01 8.011311e-02 1.267446e-06
<VARIANCE> 25
 6.954063e+00 8.902854e+00 1.065175e+01 1.591056e+01 1.723523e+01 1.556675e+01 1.689873e+01 1.848502e+01 1.658801e+01 1.738577e+01 1.811410e+01 1.433954e+01 1.252466e-01 2.266278e-01 3.364617e-01 4.672053e-01 6.493202e-01 8.148627e-01 9.298660e-01 1.003137e+00 1.051627e+00 1.077969e+00 1.075712e+00 1.013953e+00 1.000000e-06
<GCONST> 5.804409e+01
<MIXTURE> 4 1.671429e-02
<MEAN> 25
 3.156063e+00 2.160590e+00 -3.639123e+00 1.545386e+00 4.228952e+00 -1.654670e+00 5.444565e-01 3.368039e-02 2.097169e+00 2.118056e+00 -2.028417e+00 -1.209496e+00 -2.605604e+00 1.494350e+00 1.530347e+00 2.798411e+00 1.379201e+00 2.683407e-02 1.404341e+00 1.042986e+00 5.761636e-01 1.756801e-01 1.087615e+00 1.139215e+00 -9.793977e-02
<VARIANCE> 25
 1.831384e+01 2.570785e+01 2.494763e+01 3.477797e+01 4.156417e+01 6.381986e+01 5.599810e+01 4.409269e+01 4.734922e+01 5.874625e+01 4.169022e+01 3.653541e+01 2.357519e+00 4.360006e+00 3.245978e+00 4.458443e+00 4.835553e+00 6.085299e+00 5.109469e+00 4.908538e+00 5.534697e+00 7.551763e+00 5.110441e+00 4.148901e+00 5.212465e-03
<GCONST> 1.029579e+02
<MIXTURE> 5 3.206198e-03
<MEAN> 25
 -3.427896e+00 2.187363e+00 6.050140e-01 9.432413e+00 6.698920e+00 6.304307e+00 7.117319e+00 4.728181e+00 5.490581e+00 3.847901e+00 4.648851e+00 2.608957e+00 -3.240994e-01 7.514039e-01 1.223873e+00 1.033644e+00 3.092657e-01 -9.917996e-02 -8.429410e-02 3.377812e-02 4.583883e-01 6.863407e-01 4.055755e-01 8.953353e-02 -2.642868e-05
<VARIANCE> 25
 1.033250e+01 1.395599e+01 2.348164e+01 2.559494e+01 2.019898e+01 1.951036e+01 2.010860e+01 2.035662e+01 2.141563e+01 2.125863e+01 2.414329e+01 1.634400e+01 1.208801e+00 1.244575e+00 1.356167e+00 1.672159e+00 2.283949e+00 2.374168e+00 2.298839e+00 2.272565e+00 2.312752e+00 2.240852e+00 2.085283e+00 1.873443e+00 1.000066e-06
<GCONST> 7.517021e+01
<MIXTURE> 6 5.475854e-03
<MEAN> 25
 8.888889e+00 -4.517699e-01 -6.269742e+00 -9.541545e+00 -3.206474e+00 6.783761e+00 -4.955995e+00 -5.597759e+00 -2.449326e+00 1.874968e+00 4.656244e+00 -1.978504e-01 5.560074e-01 1.069786e+00 -5.629240e-01 -1.269249e+00 -6.663240e-01 1.168167e+00 1.645130e+00 -9.740505e-02 -1.100139e+00 -1.422017e+00 6.836277e-01 1.371146e+00 -8.831106e-03
<VARIANCE> 25
 9.121528e+00 1.575171e+01 2.073608e+01 3.464157e+01 2.937539e+01 2.406503e+01 3.573251e+01 3.196026e+01 3.326759e+01 3.255651e+01 3.111261e+01 3.104246e+01 3.262622e-01 8.145406e-01 9.639801e-01 1.658424e+00 1.479602e+00 1.603943e+00 1.478787e+00 2.647744e+00 1.866145e+00 1.583940e+00 2.235465e+00 1.585409e+00 5.072047e-04
<GCONST> 8.108910e+01
<MIXTURE> 7 5.475854e-03
<MEAN> 25
 8.888889e+00 -4.517699e-01 -6.269742e+00 -9.541545e+00 -3.206474e+00 6.783761e+00 -4.955995e+00 -5.597759e+00 -2.449326e+00 1.874968e+00 4.656244e+00 -1.978504e-01 5.560074e-01 1.069786e+00 -5.629240e-01 -1.269249e+00 -6.663240e-01 1.168167e+00 1.645130e+00 -9.740505e-02 -1.100139e+00 -1.422017e+00 6.836277e-01 1.371146e+00 -8.831106e-03
<VARIANCE> 25
 9.121528e+00 1.575171e+01 2.073608e+01 3.464157e+01 2.937539e+01 2.406503e+01 3.573251e+01 3.196026e+01 3.326759e+01 3.255651e+01 3.111261e+01 3.104246e+01 3.262622e-01 8.145406e-01 9.639801e-01 1.658424e+00 1.479602e+00 1.603943e+00 1.478787e+00 2.647744e+00 1.866145e+00 1.583940e+00 2.235465e+00 1.585409e+00 5.072047e-04
<GCONST> 8.108910e+01
<MIXTURE> 8 1.165917e-02
<MEAN> 25
 -4.679811e+00 1.418941e+00 1.236319e+00 9.516986e+00 6.601265e+00 6.186719e+00 6.480578e+00 5.640141e+00 6.626362e+00 5.546830e+00 6.529654e+00 3.117856e+00 -6.326150e-01 -1.433959e+00 -1.063148e+00 -1.741071e+00 -2.269591e-01 -9.413125e-01 -1.555245e-01 -2.838652e-01 -2.606763e-01 -1.287129e-01 -1.858293e-01 6.895202e-02 9.857484e-02
<VARIANCE> 25
 9.473974e+00 1.000570e+01 1.172635e+01 1.605701e+01 1.650154e+01 1.591208e+01 1.791111e+01 1.754195e+01 1.693098e+01 1.784965e+01 1.881862e+01 1.395337e+01 2.735654e+00 2.799391e+00 3.866753e+00 3.732322e+00 3.421628e+00 3.285414e+00 3.139727e+00 3.050652e+00 2.854411e+00 2.807769e+00 2.473688e+00 1.894323e+00 6.619371e-03
<GCONST> 8.633124e+01
<MIXTURE> 9 1.199672e-02
<MEAN> 25
 8.826941e+00 3.548980e+00 -6.069218e+00 -9.908660e+00 -1.892196e+00 4.836154e+00 -1.039731e+00 -2.305322e+00 -4.540390e+00 -1.235329e+00 1.298684e+00 -1.363886e-01 1.449970e+00 -2.441531e-01 -4.675014e-01 -2.544264e+00 -1.566603e+00 8.886269e-01 -9.712775e-01 -4.781586e-01 9.666485e-02 -2.988988e-01 6.924388e-01 -2.926623e-01 7.479984e-02
<VARIANCE> 25
 1.244588e+01 2.065375e+01 3.026206e+01 5.170705e+01 4.658656e+01 2.903757e+01 4.704950e+01 4.880052e+01 4.167317e+01 3.792775e+01 3.556596e+01 2.536308e+01 1.928510e+00 2.292872e+00 4.142237e+00 4.530237e+00 4.533531e+00 3.796898e+00 4.242805e+00 5.957954e+00 4.922803e+00 4.212043e+00 3.647281e+00 2.636432e+00 2.135967e-03
<GCONST> 9.761135e+01
<MIXTURE> 10 6.596976e-03
<MEAN> 25
 8.180380e-01 7.616787e+00 5.329991e+00 7.150572e+00 1.679073e+00 -2.130414e+00 -5.357419e-01 -1.678098e+00 8.788002e-01 8.006890e-01 8.188174e-01 6.436313e-01 -1.912913e+00 -6.461919e-01 -4.662547e-01 3.017131e+00 2.453832e+00 2.685918e+00 2.362685e+00 2.256022e+00 1.859707e+00 1.479363e+00 2.301419e+00 5.472005e-01 -1.377021e-01
<VARIANCE> 25
 1.933024e+01 2.047699e+01 2.226002e+01 2.873426e+01 3.865132e+01 3.457336e+01 3.476715e+01 3.346077e+01 2.740448e+01 2.909756e+01 2.668793e+01 2.487503e+01 2.222807e+00 3.448699e+00 5.482814e+00 5.121027e+00 5.497436e+00 4.471592e+00 4.655345e+00 4.825587e+00 4.340793e+00 5.344933e+00 4.490651e+00 3.210336e+00 2.686643e-03
<GCONST> 9.740376e+01
<MIXTURE> 11 1.633820e-02
<MEAN> 25
 6.992671e+00 2.746311e+00 3.638457e+00 6.661443e+00 -1.971855e+00 -1.987675e+00 -2.599901e+00 -7.189297e+00 -2.745068e+00 -2.019809e+00 -1.862356e+00 -1.723115e+00 -3.153195e-01 4.763679e-01 3.640415e-01 4.832530e-01 4.880637e-01 -1.333987e-01 2.492577e-01 -4.024678e-01 -2.228334e-01 -2.219732e-01 -1.830668e-01 1.359918e-01 -1.356530e-02
<VARIANCE> 25
 9.898587e+00 2.801624e+01 1.930099e+01 3.066624e+01 4.100549e+01 3.121457e+01 4.206539e+01 3.577041e+01 3.734800e+01 3.861663e+01 2.801729e+01 2.515992e+01 8.517107e-01 1.059359e+00 1.572945e+00 3.683551e+00 1.735961e+00 1.850046e+00 2.010118e+00 2.959325e+00 2.583785e+00 2.462614e+00 1.594596e+00 1.440253e+00 8.020616e-04
<GCONST> 8.641590e+01
<MIXTURE> 12 5.904134e-03
<MEAN> 25
 1.037695e+01 3.392928e+00 -5.003588e+00 -1.505552e+01 -8.753451e+00 8.841953e+00 -5.587335e-01 -2.889472e+00 -1.354300e+00 -4.222527e+00 2.412581e+00 1.054283e+00 1.815274e-02 2.221383e-01 2.855869e-02 -4.045019e-01 -2.240163e-01 1.211600e-01 3.570312e-01 3.610225e-01 1.800487e-01 -3.470902e-01 -2.954023e-01 -6.689201e-02 -3.924563e-03
<VARIANCE> 25
 8.683604e+00 1.985808e+01 2.181600e+01 3.543801e+01 3.703370e+01 2.796573e+01 3.722523e+01 4.849239e+01 3.996883e+01 3.517561e+01 3.533357e+01 2.736598e+01 2.461973e-01 6.911042e-01 6.585695e-01 1.093268e+00 1.130348e+00 1.003154e+00 1.099551e+00 1.419684e+00 1.118530e+00 1.238454e+00 1.202148e+00 1.009002e+00 5.376073e-04
<GCONST> 7.777320e+01
<MIXTURE> 13 5.904134e-03
<MEAN> 25
 1.037695e+01 3.392928e+00 -5.003588e+00 -1.505552e+01 -8.753451e+00 8.841953e+00 -5.587335e-01 -2.889472e+00 -1.354300e+00 -4.222527e+00 2.412581e+00 1.054283e+00 1.815274e-02 2.221383e-01 2.855869e-02 -4.045019e-01 -2.240163e-01 1.211600e-01 3.570312e-01 3.610225e-01 1.800487e-01 -3.470902e-01 -2.954023e-01 -6.689201e-02 -3.924563e-03
<VARIANCE> 25
 8.683604e+00 1.985808e+01 2.181600e+01 3.543801e+01 3.703370e+01 2.796573e+01 3.722523e+01 4.849239e+01 3.996883e+01 3.517561e+01 3.533357e+01 2.736598e+01 2.461973e-01 6.911042e-01 6.585695e-01 1.093268e+00 1.130348e+00 1.003154e+00 1.099551e+00 1.419684e+00 1.118530e+00 1.238454e+00 1.202148e+00 1.009002e+00 5.376073e-04
<GCONST> 7.777320e+01
<MIXTURE> 14 6.488954e-03
<MEAN> 25
 -4.347282e+00 -3.245735e-01 -3.398324e-01 8.903705e+00 7.528462e+00 7.326643e+00 7.826552e+00 7.296389e+00 7.222574e+00 5.190733e+00 6.812788e+00 4.114268e+00 -2.671759e-01 1.912229e-01 3.639627e-01 3.060731e-01 1.355919e-02 5.942663e-02 8.769210e-02 1.719048e-01 2.955388e-01 5.382618e-01 5.034387e-01 6.878613e-02 -9.404977e-03
<VARIANCE> 25
 9.392937e+00 1.411012e+01 1.858525e+01 1.791817e+01 2.077153e+01 1.977423e+01 2.137321e+01 2.073462e+01 2.007861e+01 2.400366e+01 2.158278e+01 1.601321e+01 9.617678e-01 1.629167e+00 1.771044e+00 1.936892e+00 2.243721e+00 2.251638e+00 2.253169e+00 2.239238e+00 2.279826e+00 2.500865e+00 2.183093e+00 1.811840e+00 1.023817e-03
<GCONST> 8.192867e+01
<MIXTURE> 15 2.475190e-03
<MEAN> 25
 -5.424102e+00 -6.434450e-01 -2.011488e-01 7.367778e+00 5.721204e+00 5.701019e+00 6.060655e+00 4.979037e+00 5.163622e+00 4.153307e+00 5.501391e+00 2.539431e+00 -1.211528e-01 -2.914101e-02 7.511632e-02 2.434882e-01 4.895353e-01 7.864634e-01 1.072136e+00 1.182265e+00 1.059217e+00 7.559873e-01 4.196635e-01 1.533270e-01 -8.421494e-05
<VARIANCE> 25
 6.983442e+00 5.611125e+00 9.031675e+00 1.281235e+01 1.408976e+01 1.429668e+01 1.491835e+01 1.489886e+01 1.410763e+01 1.419135e+01 1.510591e+01 1.250875e+01 1.247822e-01 2.061618e-01 3.198182e-01 5.033290e-01 6.995927e-01 7.936149e-01 7.636455e-01 7.916868e-01 9.090295e-01 1.023976e+00 1.071236e+00 1.041117e+00 2.796771e-05
<GCONST> 5.859109e+01
<MIXTURE> 16 2.475190e-03
<MEAN> 25
 -5.424102e+00 -6.434450e-01 -2.011488e-01 7.367778e+00 5.721204e+00 5.701019e+00 6.060655e+00 4.979037e+00 5.163622e+00 4.153307e+00 5.501391e+00 2.539431e+00 -1.211528e-01 -2.914101e-02 7.511632e-02 2.434882e-01 4.895353e-01 7.864634e-01 1.072136e+00 1.182265e+00 1.059217e+00 7.559873e-01 4.196635e-01 1.533270e-01 -8.421494e-05
<VARIANCE> 25
 6.983442e+00 5.611125e+00 9.031675e+00 1.281235e+01 1.408976e+01 1.429668e+01 1.491835e+01 1.489886e+01 1.410763e+01 1.419135e+01 1.510591e+01 1.250875e+01 1.247822e-01 2.061618e-01 3.198182e-01 5.033290e-01 6.995927e-01 7.936149e-01 7.636455e-01 7.916868e-01 9.090295e-01 1.023976e+00 1.071236e+00 1.041117e+00 2.796771e-05
<GCONST> 5.859109e+01
<MIXTURE> 17 9.518312e-03
<MEAN> 25
 3.131031e+00 -8.527176e-01 6.236175e+00 2.257862e+00 -4.251218e+00 -6.382382e+00 -2.274197e+00 -1.038756e+00 -2.565098e+00 -3.826814e+00 -5.732534e-01 1.537399e+00 -5.611976e-01 -1.296267e+00 1.428670e+00 -2.391644e+00 -2.508118e+00 -2.980240e-01 1.363320e-01 1.153502e+00 -4.789512e-01 3.538296e-01 1.179314e+00 1.031408e+00 7.787997e-02
<VARIANCE> 25
 1.764953e+01 2.928906e+01 2.549279e+01 4.122446e+01 4.241663e+01 4.915168e+01 3.678663e+01 2.839863e+01 3.018537e+01 2.721881e+01 2.309269e+01 4.618588e+01 1.592678e+00 2.201586e+00 5.091997e+00 2.923114e+00 3.612534e+00 4.929090e+00 4.135123e+00 3.754937e+00 3.570889e+00 3.684942e+00 2.589848e+00 3.534047e+00 1.985803e-03
<GCONST> 9.557610e+01
<MIXTURE> 18 1.221018e-02
<MEAN> 25
 2.921184e+00 5.041560e+00 7.049647e+00 4.066653e+00 -3.619120e+00 -8.391278e+00 -1.914023e+00 -8.866678e-01 -4.035942e+00 -1.655159e+00 -3.798997e-01 1.745341e+00 -9.184832e-01 2.039843e+00 -4.785340e-01 2.048689e+00 2.986413e+00 1.310251e+00 8.764690e-01 -1.109371e-01 5.037502e-01 1.047068e-01 -6.926994e-01 -3.463154e-02 -1.130421e-01
<VARIANCE> 25
 1.666963e+01 2.221633e+01 3.081922e+01 2.344481e+01 3.963637e+01 2.751241e+01 3.076590e+01 2.955471e+01 3.770957e+01 2.996697e+01 2.845043e+01 4.447617e+01 2.158157e+00 2.518170e+00 4.727623e+00 3.216473e+00 3.289166e+00 4.074708e+00 3.707822e+00 3.678725e+00 3.713939e+00 4.958403e+00 4.225889e+00 3.523289e+00 3.553025e-03
<GCONST> 9.602107e+01
<MIXTURE> 19 9.912824e-03
<MEAN> 25
 -1.050236e+01 2.094889e+00 4.464901e-01 9.369010e-01 4.536324e+00 1.481511e+00 3.510046e+00 1.528622e+00 1.658403e+00 9.909710e-01 1.160152e+00 1.649399e+00 2.111698e+00 1.670718e+00 2.131214e+00 7.128821e-01 -1.077212e+00 -1.060762e+00 -1.105755e+00 -1.466674e+00 -1.468549e+00 -1.081392e+00 -8.033650e-01 -6.525423e-01 -7.624701e-04
<VARIANCE> 25
 5.229168e+01 2.932157e+01 4.595239e+01 5.242265e+01 3.573159e+01 3.142087e+01 2.946045e+01 3.023168e+01 2.946881e+01 2.639714e+01 2.879001e+01 2.104029e+01 2.353848e+00 2.156091e+00 2.113458e+00 2.254226e+00 2.492708e+00 2.202089e+00 2.431356e+00 2.312153e+00 1.993392e+00 2.018650e+00 2.144582e+00 2.154119e+00 2.320452e-03
<GCONST> 9.141901e+01
<MIXTURE> 20 6.308331e-03
<MEAN> 25
 -1.401731e+01 7.405584e+00 8.197048e-01 6.634880e+00 5.434048e+00 6.180174e-01 5.503567e+00 1.812046e+00 -5.348870e-01 5.832773e-01 1.242915e+00 -1.871278e-02 -2.962164e+00 -7.102675e-01 -1.330012e+00 2.692741e-01 1.454495e+00 1.924852e+00 1.859296e+00 1.979963e+00 2.020403e+00 1.826109e+00 1.575246e+00 9.126386e-01 4.191260e-02
<VARIANCE> 25
 1.757806e+01 2.096789e+01 2.708176e+01 3.372680e+01 2.888703e+01 2.946862e+01 2.817588e+01 3.239767e+01 3.716114e+01 2.448276e+01 3.001256e+01 2.142848e+01 2.382851e+00 2.120963e+00 2.040312e+00 2.267946e+00 2.386473e+00 2.285776e+00 2.196640e+00 2.058386e+00 2.086277e+00 2.721271e+00 2.058933e+00 1.656513e+00 1.768565e-03
<GCONST> 8.849988e+01
<MIXTURE> 21 7.928653e-03
<MEAN> 25
 3.567870e+00 -4.639007e+00 5.951360e+00 -1.255139e+00 -1.005925e+01 -7.517133e+00 -1.954107e+00 5.383764e+00 -1.678578e+00 -2.576067e+00 3.311910e-01 2.176710e+00 -8.153538e-01 1.287814e+00 3.010790e+00 -3.741608e-01 -1.316907e+00 2.324517e-01 -2.382965e-02 -1.360849e+00 -1.941901e+00 -1.100928e-01 1.719469e+00 4.562477e-01 -7.435808e-03
<VARIANCE> 25
 6.857277e+00 1.617339e+01 2.628887e+01 2.126359e+01 2.113088e+01 2.971862e+01 3.420868e+01 3.234113e+01 3.412422e+01 2.448962e+01 3.241114e+01 2.364571e+01 3.296129e-01 9.373371e-01 2.813801e+00 1.236747e+00 2.352058e+00 1.776933e+00 4.476914e+00 1.918465e+00 2.042947e+00 2.506927e+00 1.933461e+00 2.349803e+00 3.867001e-04
<GCONST> 8.274537e+01
<MIXTURE> 22 8.827789e-03
<MEAN> 25
 -1.734728e+01 7.248133e+00 -4.022436e+00 7.614739e+00 4.832380e+00 2.490950e+00 8.375810e+00 1.999650e+00 4.917708e+00 3.159558e+00 5.048483e+00 1.617119e+00 -2.578754e-01 -1.389982e-01 -2.325277e-01 -1.537712e-01 6.772470e-03 1.976723e-01 1.709823e-01 1.236636e-01 2.715804e-01 2.029340e-01 1.923947e-01 1.199042e-01 5.101886e-03
<VARIANCE> 25
 1.050610e+01 1.546263e+01 1.638655e+01 2.407006e+01 2.176018e+01 2.027419e+01 1.791272e+01 1.823052e+01 1.891993e+01 1.986715e+01 2.216783e+01 1.532221e+01 1.035098e+00 1.312881e+00 1.464727e+00 1.485745e+00 1.347530e+00 1.492903e+00 1.421005e+00 1.487905e+00 1.519458e+00 1.500126e+00 1.306789e+00 1.182194e+00 1.751877e-03
<GCONST> 7.809382e+01
<MIXTURE> 23 6.455497e-03
<MEAN> 25
 7.623201e+00 1.655951e+00 3.224954e+00 2.980819e+00 -4.633749e+00 -2.753697e+00 -4.022038e+00 -6.565009e+00 -3.119359e+00 -1.948311e+00 -3.335059e+00 -1.869448e+00 4.406562e-02 1.248591e-01 2.651035e-02 5.884445e-02 -7.522852e-02 4.417755e-02 -3.540066e-02 -1.317902e-02 1.148655e-01 2.944076e-02 3.101874e-03 1.317813e-03 -3.506167e-03
<VARIANCE> 25
 9.961340e+00 2.408479e+01 2.273675e+01 4.338815e+01 3.456604e+01 5.088367e+01 5.281971e+01 5.012517e+01 4.390333e+01 4.786049e+01 4.718533e+01 3.609324e+01 1.154152e-01 3.336027e-01 3.466674e-01 6.176394e-01 7.011414e-01 6.492541e-01 8.263545e-01 1.029383e+00 8.958218e-01 8.924771e-01 8.263860e-01 7.136794e-01 8.697917e-05
<GCONST> 7.291704e+01
<MIXTURE> 24 6.455497e-03
<MEAN> 25
 7.623201e+00 1.655951e+00 3.224954e+00 2.980819e+00 -4.633749e+00 -2.753697e+00 -4.022038e+00 -6.565009e+00 -3.119359e+00 -1.948311e+00 -3.335059e+00 -1.869448e+00 4.406562e-02 1.248591e-01 2.651035e-02 5.884445e-02 -7.522852e-02 4.417755e-02 -3.540066e-02 -1.317902e-02 1.148655e-01 2.944076e-02 3.101874e-03 1.317813e-03 -3.506167e-03
<VARIANCE> 25
 9.961340e+00 2.408479e+01 2.273675e+01 4.338815e+01 3.456604e+01 5.088367e+01 5.281971e+01 5.012517e+01 4.390333e+01 4.786049e+01 4.718533e+01 3.609324e+01 1.154152e-01 3.336027e-01 3.466674e-01 6.176394e-01 7.011414e-01 6.492541e-01 8.263545e-01 1.029383e+00 8.958218e-01 8.924771e-01 8.263860e-01 7.136794e-01 8.697917e-05
<GCONST> 7.291704e+01
<MIXTURE> 25 1.118642e-02
<MEAN> 25
 -2.008376e-01 3.972389e+00 1.745070e+01 -2.106002e+00 -7.987980e+00 -3.139191e+00 -6.274095e+00 -1.758720e+00 -8.598190e+00 -3.951479e+00 4.331244e+00 -4.919749e-01 -2.012351e-01 4.506019e-01 3.631876e-01 1.859050e-01 4.148705e-02 1.456120e-01 3.096485e-01 -6.729824e-01 -4.882159e-01 3.456911e-01 -2.447505e-01 5.487557e-02 -7.995686e-03
<VARIANCE> 25
 5.967190e+00 1.676257e+01 1.909306e+01 1.899755e+01 3.412282e+01 3.129031e+01 2.184191e+01 2.190412e+01 2.183731e+01 2.706840e+01 1.310904e+01 2.515419e+01 4.524323e-01 1.488297e+00 1.446610e+00 1.261003e+00 3.055231e+00 1.283426e+00 1.330969e+00 1.479253e+00 1.117627e+00 1.437544e+00 9.905895e-01 1.853591e+00 9.962179e-04
<GCONST> 7.818983e+01
<MIXTURE> 26 7.727677e-03
<MEAN> 25
 2.124201e+00 -6.262743e+00 -1.014512e+01 -5.204855e-01 7.909768e+00 5.261260e+00 4.232641e+00 -3.434961e-01 2.041022e+00 -8.852988e-01 -2.818058e+00 -1.333576e+00 -6.209787e-01 6.518144e-01 3.512661e-01 6.314332e-01 1.970204e-01 2.706929e-01 2.357839e-01 2.935544e-01 3.407815e-01 1.558447e-02 3.698727e-01 4.613383e-01 -5.136626e-02
<VARIANCE> 25
 2.448866e+01 3.435614e+01 2.645115e+01 6.141460e+01 3.858842e+01 4.286793e+01 4.694703e+01 4.269262e+01 4.074382e+01 5.344738e+01 3.897901e+01 4.944975e+01 1.661181e+00 1.918351e+00 1.878172e+00 2.108963e+00 2.276611e+00 2.404248e+00 2.617894e+00 2.762033e+00 2.445405e+00 2.487293e+00 2.122191e+00 1.999374e+00 3.286112e-03
<GCONST> 9.408537e+01
<MIXTURE> 27 7.727677e-03
<MEAN> 25
 2.124201e+00 -6.262743e+00 -1.014512e+01 -5.204855e-01 7.909768e+00 5.261260e+00 4.232641e+00 -3.434961e-01 2.041022e+00 -8.852988e-01 -2.818058e+00 -1.333576e+00 -6.209787e-01 6.518144e-01 3.512661e-01 6.314332e-01 1.970204e-01 2.706929e-01 2.357839e-01 2.935544e-01 3.407815e-01 1.558447e-02 3.698727e-01 4.613383e-01 -5.136626e-02
<VARIANCE> 25
 2.448866e+01 3.435614e+01 2.645115e+01 6.141460e+01 3.858842e+01 4.286793e+01 4.694703e+01 4.269262e+01 4.074382e+01 5.344738e+01 3.897901e+01 4.944975e+01 1.661181e+00 1.918351e+00 1.878172e+00 2.108963e+00 2.276611e+00 2.404248e+00 2.617894e+00 2.762033e+00 2.445405e+00 2.487293e+00 2.122191e+00 1.999374e+00 3.286112e-03
<GCONST> 9.408537e+01
<MIXTURE> 28 5.036674e-03
<MEAN> 25
 -5.759525e+00 3.412311e-01 -1.673667e+00 6.878449e+00 5.371801e+00 3.212782e+00 5.678513e+00 3.387996e+00 3.798764e+00 2.456549e+00 2.369022e+00 3.279161e+00 -1.046492e-01 1.928559e-01 5.249388e-01 8.317699e-01 8.573301e-01 7.032419e-01 4.764829e-01 3.846098e-01 4.588974e-01 5.889084e-01 4.357212e-01 2.409527e-01 3.425366e-05
<VARIANCE> 25
 1.182469e+01 1.008547e+01 1.180702e+01 1.549920e+01 1.440570e+01 1.872728e+01 1.854962e+01 1.943722e+01 1.668525e+01 1.607337e+01 2.106534e+01 1.437576e+01 2.468301e-01 3.393002e-01 3.882338e-01 4.860348e-01 6.169047e-01 8.077077e-01 1.049901e+00 1.092628e+00 1.055921e+00 1.203559e+00 1.070616e+00 1.069611e+00 9.986442e-07
<GCONST> 6.057930e+01
<MIXTURE> 29 5.036674e-03
<MEAN> 25
 -5.759525e+00 3.412311e-01 -1.673667e+00 6.878449e+00 5.371801e+00 3.212782e+00 5.678513e+00 3.387996e+00 3.798764e+00 2.456549e+00 2.369022e+00 3.279161e+00 -1.046492e-01 1.928559e-01 5.249388e-01 8.317699e-01 8.573301e-01 7.032419e-01 4.764829e-01 3.846098e-01 4.588974e-01 5.889084e-01 4.357212e-01 2.409527e-01 3.425366e-05
<VARIANCE> 25
 1.182469e+01 1.008547e+01 1.180702e+01 1.549920e+01 1.440570e+01 1.872728e+01 1.854962e+01 1.943722e+01 1.668525e+01 1.607337e+01 2.106534e+01 1.437576e+01 2.468301e-01 3.393002e-01 3.882338e-01 4.860348e-01 6.169047e-01 8.077077e-01 1.049901e+00 1.092628e+00 1.055921e+00 1.203559e+00 1.070616e+00 1.069611e+00 9.986442e-07
<GCONST> 6.057930e+01
<MIXTURE> 30 8.917812e-03
<MEAN> 25
 -4.495064e+00 -1.767596e-01 6.503040e-01 9.073513e+00 7.800148e+00 7.491940e+00 7.577698e+00 6.863400e+00 6.506108e+00 4.867985e+00 6.985478e+00 3.485575e+00 -2.218375e-02 3.041423e-02 5.812853e-02 8.614027e-02 8.566776e-02 4.614498e-02 1.078947e-02 1.561256e-03 1.722450e-02 5.038452e-02 6.051349e-02 3.272832e-02 -5.904006e-04
<VARIANCE> 25
 6.921815e+00 9.929449e+00 1.037473e+01 1.378201e+01 1.586692e+01 1.646912e+01 1.908386e+01 1.821928e+01 1.646282e+01 1.854176e+01 2.138621e+01 1.440776e+01 9.776884e-02 1.990553e-01 3.261478e-01 4.842512e-01 6.223017e-01 7.243525e-01 7.729102e-01 8.212003e-01 8.762220e-01 9.344140e-01 9.182485e-01 8.614453e-01 5.114935e-05
<GCONST> 6.065710e+01
<MIXTURE> 31 4.136493e-03
<MEAN> 25
 -3.307313e+00 -5.605354e+00 4.144315e-02 4.873115e+00 3.714511e+00 1.621870e+00 5.251481e+00 6.628168e+00 2.705758e+00 1.230652e+00 6.480862e+00 3.102887e+00 2.566741e-01 4.725452e-01 -2.109321e-01 3.009431e-01 1.258954e-01 4.184739e-01 1.798601e-01 9.983144e-03 3.760779e-01 3.682218e-01 1.036001e-01 1.069501e-01 -1.821976e-02
<VARIANCE> 25
 7.136037e+00 1.591830e+01 1.734066e+01 1.802991e+01 2.564025e+01 2.443551e+01 2.357028e+01 2.516462e+01 2.620052e+01 2.851040e+01 2.038605e+01 1.888122e+01 1.905190e-01 4.924553e-01 6.006563e-01 7.701651e-01 9.613499e-01 1.088140e+00 1.232976e+00 1.407997e+00 1.343493e+00 1.329066e+00 1.236219e+00 1.153905e+00 2.617405e-04
<GCONST> 7.196556e+01
<MIXTURE> 32 4.136493e-03
<MEAN> 25
 -3.307313e+00 -5.605354e+00 4.144315e-02 4.873115e+00 3.714511e+00 1.621870e+00 5.251481e+00 6.628168e+00 2.705758e+00 1.230652e+00 6.480862e+00 3.102887e+00 2.566741e-01 4.725452e-01 -2.109321e-01 3.009431e-01 1.258954e-01 4.184739e-01 1.798601e-01 9.983144e-03 3.760779e-01 3.682218e-01 1.036001e-01 1.069501e-01 -1.821976e-02
<VARIANCE> 25
 7.136037e+00 1.591830e+01 1.734066e+01 1.802991e+01 2.564025e+01 2.443551e+01 2.357028e+01 2.516462e+01 2.620052e+01 2.851040e+01 2.038605e+01 1.888122e+01 1.905190e-01 4.924553e-01 6.006563e-01 7.701651e-01 9.613499e-01 1.088140e+00 1.232976e+00 1.407997e+00 1.343493e+00 1.329066e+00 1.236219e+00 1.153905e+00 2.617405e-04
<GCONST> 7.196556e+01
<MIXTURE> 33 1.508826e-02
<MEAN> 25
 5.697515e+00 -4.766720e+00 -1.262553e+00 -3.120125e+00 -1.662921e+00 -3.709912e+00 -5.794557e+00 1.280719e+00 1.480240e+00 -4.175151e-02 -3.719461e+00 -2.058376e+00 4.898290e-01 -1.193929e+00 -2.254911e+00 -2.340525e+00 1.006061e+00 1.615535e+00 -6.101345e-01 1.046310e+00 7.540434e-01 9.354067e-01 -2.272240e-01 -1.140609e+00 4.111481e-02
<VARIANCE> 25
 9.185713e+00 1.602058e+01 2.638168e+01 3.019539e+01 3.909697e+01 4.144405e+01 3.814431e+01 3.616096e+01 3.307936e+01 4.595168e+01 3.649825e+01 2.628611e+01 9.369894e-01 1.581342e+00 1.826841e+00 2.534457e+00 3.896967e+00 2.641392e+00 3.244952e+00 4.647878e+00 2.945968e+00 3.839090e+00 3.029798e+00 2.310930e+00 1.275058e-03
<GCONST> 9.110918e+01
<MIXTURE> 34 1.588179e-02
<MEAN> 25
 8.032766e+00 -1.402922e+00 5.981922e-01 1.612148e+00 -2.825105e+00 -7.861068e-01 -5.155062e+00 -4.278337e+00 -1.251220e+00 -8.939698e-01 -1.555254e+00 -3.099792e+00 -3.956438e-02 1.325694e+00 1.423105e+00 2.849116e+00 1.687848e-01 -4.918948e-01 6.718168e-01 -1.821277e+00 -6.423222e-01 -4.683935e-01 -5.363695e-01 3.436045e-01 -5.735200e-02
<VARIANCE> 25
 7.670475e+00 2.981701e+01 2.584632e+01 4.754030e+01 3.757037e+01 4.258437e+01 4.543427e+01 4.990705e+01 4.208420e+01 4.373685e+01 4.104148e+01 2.955707e+01 1.059180e+00 1.661884e+00 3.465156e+00 3.987550e+00 4.615439e+00 4.809233e+00 4.202808e+00 5.643629e+00 4.379478e+00 5.302314e+00 3.920569e+00 3.150757e+00 1.055696e-03
<GCONST> 9.647904e+01
<MIXTURE> 35 1.467755e-02
<MEAN> 25
 -2.298046e+00 -4.646512e+00 -8.883978e+00 1.171765e-01 9.341226e+00 2.096853e-01 1.631862e+00 2.243703e+00 1.450280e+00 4.684994e+00 3.525910e-01 1.415091e+00 6.404589e-01 -1.178149e+00 -1.326488e+00 -1.491990e+00 9.996918e-02 -6.337650e-01 -8.981329e-01 -1.895210e-01 -1.476856e-02 3.204089e-01 -6.162662e-01 -7.469381e-01 1.074136e-01
<VARIANCE> 25
 1.833564e+01 3.084214e+01 4.558097e+01 5.760089e+01 3.806615e+01 5.639590e+01 4.666202e+01 3.970843e+01 4.639945e+01 3.719284e+01 4.141982e+01 3.016552e+01 3.371805e+00 3.541515e+00 6.035601e+00 5.040932e+00 5.568188e+00 5.336195e+00 5.048535e+00 4.254769e+00 4.933131e+00 5.304861e+00 3.840698e+00 4.518742e+00 5.370729e-03
<GCONST> 1.031835e+02
<MIXTURE> 36 1.093293e-02
<MEAN> 25
 4.329868e+00 -3.666548e+00 7.183675e+00 2.059327e+00 -9.224476e+00 -7.825779e+00 -5.260214e+00 2.365733e+00 -2.037974e+00 -3.682353e+00 2.617199e+00 1.153837e+00 3.689373e-01 1.407700e-01 -8.702980e-01 -2.818053e-02 8.515558e-01 2.331426e-01 -8.083791e-01 -3.716910e-03 4.317849e-01 6.404281e-01 -4.157088e-01 -4.241602e-01 -1.621255e-02
<VARIANCE> 25
 8.373105e+00 1.476704e+01 1.826553e+01 2.665014e+01 3.108618e+01 3.263224e+01 3.576418e+01 3.342891e+01 3.392930e+01 2.781907e+01 2.212319e+01 2.685665e+01 4.843257e-01 9.148697e-01 1.256191e+00 1.243350e+00 1.446742e+00 1.372571e+00 2.209100e+00 1.995882e+00 1.641016e+00 1.682718e+00 1.194571e+00 1.097050e+00 7.423653e-04
<GCONST> 8.007980e+01
<MIXTURE> 37 1.246826e-02
<MEAN> 25
 -3.421679e-02 7.628622e+00 1.305028e+01 -4.306423e+00 -8.117188e+00 -1.499437e+00 -4.823038e+00 -8.156880e+00 -5.373786e+00 -4.615390e-01 -2.916388e+00 4.520947e-02 -1.518073e-01 9.033279e-01 -1.872235e+00 3.514458e+00 1.847384e+00 -3.675753e-01 1.199512e+00 4.491346e-01 5.431079e-01 -4.175363e-01 1.553662e-01 3.417041e-01 -8.796461e-02
<VARIANCE> 25
 1.507891e+01 2.236002e+01 3.240910e+01 5.229990e+01 2.883723e+01 2.803214e+01 3.744924e+01 2.991733e+01 4.577760e+01 3.122264e+01 3.446759e+01 3.464643e+01 3.010791e+00 3.177551e+00 3.932285e+00 3.487288e+00 4.284966e+00 3.270461e+00 3.620426e+00 3.373414e+00 2.909806e+00 3.170891e+00 3.925733e+00 3.407512e+00 3.540443e-03
<GCONST> 9.646088e+01
<MIXTURE> 38 1.154525e-02
<MEAN> 25
 -5.859432e+00 8.473953e+00 3.341152e+00 3.902744e+00 1.924499e+00 -6.654907e+00 1.120018e-01 -1.288110e+00 -3.767341e+00 -2.676139e+00 -2.456654e+00 -1.117346e+00 -4.089385e+00 1.157593e+00 -5.016891e-01 1.301590e+00 2.391802e+00 1.245583e+00 1.776774e+00 1.181138e+00 3.003392e-01 -5.397066e-02 3.342547e-01 1.489802e-01 4.091859e-02
<VARIANCE> 25
 3.120263e+01 2.554849e+01 3.820164e+01 2.699459e+01 4.352420e+01 3.777368e+01 3.290693e+01 3.955583e+01 3.387482e+01 3.014959e+01 2.351842e+01 3.962923e+01 2.378798e+00 3.246631e+00 3.973614e+00 4.177674e+00 3.746520e+00 4.177851e+00 3.965759e+00 3.782592e+00 4.724668e+00 5.787326e+00 4.789253e+00 2.818309e+00 1.886487e-03
<GCONST> 9.785935e+01
<MIXTURE> 39 9.501865e-03
<MEAN> 25
 1.304652e+00 2.551976e+00 1.070069e+01 -8.731381e+00 -1.116083e+01 -1.064177e+00 -3.441414e+00 -5.719444e+00 -4.768606e+00 5.951907e-01 -3.046720e+00 -1.924013e+00 -7.712476e-01 1.628981e+00 1.682750e+00 -1.389857e+00 2.813573e-01 1.211884e+00 -1.331856e+00 -1.344404e+00 2.252953e-01 2.921211e-01 -4.413387e-01 -9.413501e-02 6.117249e-04
<VARIANCE> 25
 8.311852e+00 2.808392e+01 3.243222e+01 3.840409e+01 3.524264e+01 3.975669e+01 4.410823e+01 3.992189e+01 3.736075e+01 3.178247e+01 3.858317e+01 2.916684e+01 6.667281e-01 1.599385e+00 1.472496e+00 2.719411e+00 2.764139e+00 2.627411e+00 3.072829e+00 2.678770e+00 2.780627e+00 2.737839e+00 2.022877e+00 2.509928e+00 1.108063e-03
<GCONST> 8.974289e+01
<MIXTURE> 40 1.030800e-02
<MEAN> 25
 -9.492657e+00 3.424093e+00 -1.821974e+00 8.647342e+00 4.888762e+00 4.369070e+00 5.928353e+00 3.905331e+00 3.928555e+00 3.836158e+00 3.939719e+00 2.574932e+00 8.607146e-02 -1.552683e-01 -1.504357e-01 -2.549372e-01 -5.212168e-03 2.473123e-02 -3.439016e-02 -1.407749e-01 -1.199857e-02 -5.555420e-02 5.765456e-03 -2.534448e-01 -3.995475e-03
<VARIANCE> 25
 3.302996e+01 1.984366e+01 2.409666e+01 2.323800e+01 2.325813e+01 1.821824e+01 1.664815e+01 1.652298e+01 1.530932e+01 1.660507e+01 2.323153e+01 1.656756e+01 6.695950e-01 6.297858e-01 1.010867e+00 1.108284e+00 1.151254e+00 1.155873e+00 1.150001e+00 1.345335e+00 1.066027e+00 1.232661e+00 1.085150e+00 1.148980e+00 8.167387e-04
<GCONST> 7.527316e+01
<MIXTURE> 41 6.713375e-03
<MEAN> 25
 1.233636e+00 1.748248e+00 1.040703e+01 -6.921772e+00 -1.024345e+01 -3.947037e+00 -2.369982e+00 -4.983171e+00 -4.689323e+00 2.614775e+00 -1.792439e+00 -7.719096e-01 7.025984e-02 -7.855790e-01 1.725974e+00 -3.548419e+00 -2.480170e+00 -1.404848e-01 -5.005046e-01 -3.128737e-01 -8.437130e-01 1.115259e+00 -1.006819e+00 1.374681e-01 8.648771e-02
<VARIANCE> 25
 1.200275e+01 2.930986e+01 3.243874e+01 3.961037e+01 4.124239e+01 4.020294e+01 3.772238e+01 2.964166e+01 3.269242e+01 2.848049e+01 3.155188e+01 2.906389e+01 3.133398e+00 3.299324e+00 3.879708e+00 3.761907e+00 4.923780e+00 5.852914e+00 4.656341e+00 4.603590e+00 3.933328e+00 4.205637e+00 3.885840e+00 3.395660e+00 2.894287e-03
<GCONST> 9.804211e+01
<MIXTURE> 42 1.106211e-02
<MEAN> 25
 -2.088150e+00 5.152346e+00 4.699992e+00 2.797438e+00 3.796870e-01 -6.696447e+00 -9.438475e-01 -1.737451e+00 -2.526601e+00 -9.999508e-01 -1.591977e+00 1.379617e+00 4.259730e+00 -4.989371e-01 1.292997e+00 3.850688e-01 -3.241685e+00 -1.054106e+00 -2.175392e+00 -1.171213e+00 -7.831396e-01 -5.772491e-01 4.757756e-01 -7.748615e-01 8.850094e-03
<VARIANCE> 25
 3.273660e+01 2.106545e+01 4.077973e+01 2.296410e+01 3.857923e+01 3.577873e+01 3.251420e+01 2.487943e+01 3.274995e+01 2.417611e+01 2.312062e+01 1.588399e+01 3.156737e+00 4.410063e+00 5.513675e+00 4.452952e+00 4.729844e+00 5.400359e+00 4.439152e+00 5.277464e+00 4.462228e+00 4.359135e+00 3.767943e+00 3.557911e+00 3.939103e-03
<GCONST> 9.808656e+01
<MIXTURE> 43 7.108249e-03
<MEAN> 25
 3.166293e+00 -6.310018e+00 -2.244083e+00 -5.174509e+00 -7.388435e+00 -3.391214e+00 4.136804e+00 1.313359e+00 -5.050518e+00 -7.075003e+00 -4.314464e+00 -1.252261e+00 2.370190e-01 2.161437e+00 1.912173e+00 -1.311740e-01 -1.426498e+00 -7.938604e-01 -9.667768e-01 -7.806273e-01 8.197973e-01 1.460053e+00 3.445158e-01 2.452323e-02 -4.501210e-02
<VARIANCE> 25
 9.586699e+00 1.966667e+01 2.730545e+01 3.521696e+01 3.845232e+01 3.661842e+01 3.329530e+01 3.976258e+01 3.966082e+01 3.868278e+01 2.655315e+01 2.967270e+01 6.897269e-01 1.251804e+00 1.569593e+00 2.503655e+00 2.376502e+00 2.381823e+00 2.654266e+00 3.023781e+00 2.606958e+00 2.603798e+00 2.332789e+00 1.920630e+00 9.461339e-04
<GCONST> 8.798791e+01
<MIXTURE> 44 7.328289e-03
<MEAN> 25
 -1.518249e+01 2.035465e+00 3.272904e+00 -2.471594e+00 3.673546e+00 1.693037e+00 3.136232e-01 2.561098e+00 9.071148e-01 -8.439355e-01 1.153372e+00 2.081248e+00 -1.931676e-01 1.223716e-02 7.472038e-02 2.691081e-01 -2.039011e-02 2.805388e-01 5.170314e-01 1.529442e-01 2.846819e-01 1.781630e-01 9.133702e-02 8.937392e-02 3.543125e-03
<VARIANCE> 25
 3.938204e+01 2.872256e+01 3.361834e+01 3.577995e+01 2.892731e+01 2.988755e+01 2.639448e+01 3.188453e+01 3.152309e+01 2.568894e+01 3.153480e+01 1.971779e+01 1.193667e+00 1.512493e+00 1.467575e+00 1.314171e+00 2.244817e+00 1.660240e+00 1.476780e+00 1.655166e+00 1.560627e+00 1.493383e+00 1.354579e+00 1.210560e+00 1.243869e-03
<GCONST> 8.480543e+01
<MIXTURE> 45 1.364932e-02
<MEAN> 25
 -1.164166e+01 3.506527e+00 -9.247238e-01 3.698514e+00 6.146792e+00 -1.630170e+00 5.109470e+00 3.178777e+00 2.270570e+00 2.895717e+00 1.603755e+00 1.784896e+00 -2.918716e+00 6.770423e-01 -4.484745e-01 -3.451153e-01 3.687329e-01 -7.010989e-02 4.622065e-01 3.448226e-01 -2.844231e-01 -4.319863e-01 1.420194e-01 8.743473e-02 9.720969e-02
<VARIANCE> 25
 3.136647e+01 2.550747e+01 2.608062e+01 3.215302e+01 2.609780e+01 3.504783e+01 2.511803e+01 2.306481e+01 2.541737e+01 2.719131e+01 2.740494e+01 1.989654e+01 2.269772e+00 2.729800e+00 2.374093e+00 2.426710e+00 2.280535e+00 2.835646e+00 2.005848e+00 2.113877e+00 2.817437e+00 2.995877e+00 1.948666e+00 1.465778e+00 4.691108e-03
<GCONST> 9.009023e+01
<MIXTURE> 46 9.336259e-03
<MEAN> 25
 -9.458842e+00 2.412206e+00 1.148018e+00 7.550831e+00 5.996418e+00 3.207655e+00 7.058341e+00 4.478624e+00 5.527897e+00 4.598041e+00 4.850341e+00 2.967273e+00 1.021675e+00 -2.175305e-01 1.015432e-02 9.582816e-01 5.997593e-01 9.479003e-01 3.975443e-01 6.497918e-01 4.945310e-01 5.006189e-01 6.432270e-01 5.148034e-01 -1.031674e-01
<VARIANCE> 25
 3.397551e+01 4.331669e+01 3.773086e+01 4.898309e+01 4.967569e+01 4.065382e+01 3.625899e+01 3.479128e+01 3.386335e+01 3.128450e+01 2.900830e+01 2.056684e+01 3.929023e+00 4.095460e+00 3.847036e+00 4.129036e+00 4.111078e+00 3.681647e+00 3.352695e+00 3.089450e+00 2.969563e+00 2.890266e+00 2.270910e+00 1.767255e+00 7.995727e-03
<GCONST> 9.817940e+01
<MIXTURE> 47 7.116147e-03
<MEAN> 25
 6.909822e+00 -7.630925e+00 -7.156892e+00 -6.124415e+00 8.445647e-01 1.537347e+00 -2.710472e+00 9.924607e-01 3.102920e+00 5.728427e-01 -3.664289e+00 -6.931840e+00 -1.472766e-01 -1.195559e+00 -7.217118e-01 -3.217261e-01 4.332799e-01 8.763553e-01 7.628126e-01 3.013025e-01 2.621499e-01 -7.682416e-01 -4.718609e-01 -5.466502e-01 2.916221e-02
<VARIANCE> 25
 1.011277e+01 1.863924e+01 2.021330e+01 2.902374e+01 3.420751e+01 5.092455e+01 4.076162e+01 3.592100e+01 3.776138e+01 4.337443e+01 4.543728e+01 4.136056e+01 4.766495e-01 7.336117e-01 1.135684e+00 1.560108e+00 2.062807e+00 2.164788e+00 2.176026e+00 2.313948e+00 1.993200e+00 2.185354e+00 1.980603e+00 1.908332e+00 5.059129e-04
<GCONST> 8.509821e+01
<MIXTURE> 48 7.116147e-03
<MEAN> 25
 6.909822e+00 -7.630925e+00 -7.156892e+00 -6.124415e+00 8.445647e-01 1.537347e+00 -2.710472e+00 9.924607e-01 3.102920e+00 5.728427e-01 -3.664289e+00 -6.931840e+00 -1.472766e-01 -1.195559e+00 -7.217118e-01 -3.217261e-01 4.332799e-01 8.763553e-01 7.628126e-01 3.013025e-01 2.621499e-01 -7.682416e-01 -4.718609e-01 -5.466502e-01 2.916221e-02
<VARIANCE> 25
 1.011277e+01 1.863924e+01 2.021330e+01 2.902374e+01 3.420751e+01 5.092455e+01 4.076162e+01 3.592100e+01 3.776138e+01 4.337443e+01 4.543728e+01 4.136056e+01 4.766495e-01 7.336117e-01 1.135684e+00 1.560108e+00 2.062807e+00 2.164788e+00 2.176026e+00 2.313948e+00 1.993200e+00 2.185354e+00 1.980603e+00 1.908332e+00 5.059129e-04
<GCONST> 8.509821e+01
<MIXTURE> 49 5.548473e-03
<MEAN> 25
 -5.086041e+00 3.648090e-01 1.662785e-01 8.449715e+00 6.157003e+00 5.613803e+00 6.074680e+00 4.481846e+00 5.017045e+00 3.708607e+00 4.923926e+00 2.859498e+00 3.661923e-01 6.549459e-01 7.043048e-01 3.524938e-01 -1.930730e-01 -6.687582e-01 -1.008716e+00 -1.118854e+00 -9.560170e-01 -6.805207e-01 -4.909405e-01 -2.716091e-01 -3.830865e-05
<VARIANCE> 25
 9.585574e+00 1.007725e+01 1.424164e+01 1.586161e+01 1.591995e+01 1.713240e+01 1.944541e+01 1.942253e+01 1.824431e+01 1.803904e+01 2.066392e+01 1.428217e+01 2.799307e-01 2.633651e-01 3.618538e-01 6.114673e-01 8.748332e-01 9.748288e-01 9.913592e-01 1.055463e+00 1.133643e+00 1.217478e+00 1.281722e+00 1.206535e+00 1.450815e-05
<GCONST> 6.435155e+01
<MIXTURE> 50 6.234641e-03
<MEAN> 25
 -4.668034e+00 9.392373e-02 -1.451836e+00 6.201620e+00 4.221585e+00 2.275373e+00 3.706310e+00 1.988178e+00 2.779405e+00 1.404459e+00 2.156378e+00 2.846957e+00 5.630069e-02 1.758570e-01 9.546679e-02 -1.768843e-01 -5.113731e-01 -6.149374e-01 -4.266417e-01 -5.124725e-02 4.410440e-01 7.744746e-01 7.391931e-01 4.451822e-01 -1.295853e-05
<VARIANCE> 25
 1.054904e+01 1.116610e+01 1.434506e+01 1.542534e+01 1.534699e+01 1.858009e+01 1.857461e+01 1.949295e+01 1.854339e+01 1.749755e+01 2.165147e+01 1.520064e+01 1.447615e-01 2.394889e-01 3.784909e-01 5.180377e-01 5.994724e-01 7.351579e-01 9.566070e-01 1.117912e+00 1.060137e+00 9.102558e-01 9.182203e-01 9.895037e-01 1.000362e-06
<GCONST> 5.954858e+01
<MIXTURE> 51 6.234641e-03
<MEAN> 25
 -4.668034e+00 9.392373e-02 -1.451836e+00 6.201620e+00 4.221585e+00 2.275373e+00 3.706310e+00 1.988178e+00 2.779405e+00 1.404459e+00 2.156378e+00 2.846957e+00 5.630069e-02 1.758570e-01 9.546679e-02 -1.768843e-01 -5.113731e-01 -6.149374e-01 -4.266417e-01 -5.124725e-02 4.410440e-01 7.744746e-01 7.391931e-01 4.451822e-01 -1.295853e-05
<VARIANCE> 25
 1.054904e+01 1.116610e+01 1.434506e+01 1.542534e+01 1.534699e+01 1.858009e+01 1.857461e+01 1.949295e+01 1.854339e+01 1.749755e+01 2.165147e+01 1.520064e+01 1.447615e-01 2.394889e-01 3.784909e-01 5.180377e-01 5.994724e-01 7.351579e-01 9.566070e-01 1.117912e+00 1.060137e+00 9.102558e-01 9.182203e-01 9.895037e-01 1.000362e-06
<GCONST> 5.954858e+01
<MIXTURE> 52 6.367945e-03
<MEAN> 25
 9.535984e+00 1.900577e+00 -6.655750e+00 -1.330863e+01 -4.109706e+00 9.097356e+00 -2.176141e+00 -3.654542e+00 -2.890594e+00 -1.891038e+00 4.087465e+00 7.946876e-01 -4.171503e-01 -4.533958e-01 -7.328409e-02 9.018343e-01 1.276515e+00 7.294261e-04 -7.941795e-01 -6.042439e-01 4.500994e-01 1.137208e+00 7.162403e-02 -8.755341e-01 -1.036522e-02
<VARIANCE> 25
 9.017443e+00 2.074932e+01 2.288442e+01 3.635566e+01 3.908451e+01 3.009325e+01 4.085294e+01 4.359198e+01 4.629774e+01 3.928359e+01 3.540046e+01 2.631661e+01 3.859117e-01 1.241283e+00 1.188785e+00 2.584441e+00 1.945575e+00 3.184377e+00 2.767467e+00 2.449738e+00 3.424675e+00 2.566322e+00 2.758004e+00 2.313428e+00 1.309738e-03
<GCONST> 8.831305e+01
<MIXTURE> 53 6.367945e-03
<MEAN> 25
 9.535984e+00 1.900577e+00 -6.655750e+00 -1.330863e+01 -4.109706e+00 9.097356e+00 -2.176141e+00 -3.654542e+00 -2.890594e+00 -1.891038e+00 4.087465e+00 7.946876e-01 -4.171503e-01 -4.533958e-01 -7.328409e-02 9.018343e-01 1.276515e+00 7.294261e-04 -7.941795e-01 -6.042439e-01 4.500994e-01 1.137208e+00 7.162403e-02 -8.755341e-01 -1.036522e-02
<VARIANCE> 25
 9.017443e+00 2.074932e+01 2.288442e+01 3.635566e+01 3.908451e+01 3.009325e+01 4.085294e+01 4.359198e+01 4.629774e+01 3.928359e+01 3.540046e+01 2.631661e+01 3.859117e-01 1.241283e+00 1.188785e+00 2.584441e+00 1.945575e+00 3.184377e+00 2.767467e+00 2.449738e+00 3.424675e+00 2.566322e+00 2.758004e+00 2.313428e+00 1.309738e-03
<GCONST> 8.831305e+01
<MIXTURE> 54 7.368620e-03
<MEAN> 25
 -3.633542e+00 4.903479e-02 -6.831799e-01 8.036146e+00 6.483731e+00 4.625459e+00 4.675113e+00 4.600969e+00 4.052985e+00 3.593712e+00 4.457306e+00 2.326179e+00 -2.127853e-03 2.653733e-02 3.413991e-02 4.748344e-02 5.135297e-02 4.708742e-02 3.890327e-02 2.889774e-02 3.079740e-02 2.506945e-02 1.455173e-02 1.769886e-03 -1.226009e-05
<VARIANCE> 25
 9.139187e+00 1.036593e+01 9.295583e+00 1.818987e+01 1.332319e+01 1.353310e+01 1.197257e+01 1.128190e+01 1.134294e+01 1.355027e+01 1.780329e+01 1.253453e+01 4.087482e-02 8.734330e-02 1.540854e-01 2.265767e-01 3.079367e-01 3.969385e-01 4.608434e-01 5.215831e-01 5.420743e-01 5.211333e-01 5.144503e-01 5.164287e-01 1.000106e-06
<GCONST> 4.724929e+01
<MIXTURE> 55 7.368620e-03
<MEAN> 25
 -3.633542e+00 4.903479e-02 -6.831799e-01 8.036146e+00 6.483731e+00 4.625459e+00 4.675113e+00 4.600969e+00 4.052985e+00 3.593712e+00 4.457306e+00 2.326179e+00 -2.127853e-03 2.653733e-02 3.413991e-02 4.748344e-02 5.135297e-02 4.708742e-02 3.890327e-02 2.889774e-02 3.079740e-02 2.506945e-02 1.455173e-02 1.769886e-03 -1.226009e-05
<VARIANCE> 25
 9.139187e+00 1.036593e+01 9.295583e+00 1.818987e+01 1.332319e+01 1.353310e+01 1.197257e+01 1.128190e+01 1.134294e+01 1.355027e+01 1.780329e+01 1.253453e+01 4.087482e-02 8.734330e-02 1.540854e-01 2.265767e-01 3.079367e-01 3.969385e-01 4.608434e-01 5.215831e-01 5.420743e-01 5.211333e-01 5.144503e-01 5.164287e-01 1.000106e-06
<GCONST> 4.724929e+01
<MIXTURE> 56 6.132464e-03
<MEAN> 25
 6.778623e+00 -7.078140e+00 -8.194506e+00 -7.105511e+00 1.689484e+00 5.711592e+00 -2.059435e+00 -2.001720e+00 3.318440e+00 8.875893e-01 -1.997486e+00 -6.764805e+00 -6.338393e-02 -9.323775e-02 -3.257550e-02 8.963879e-02 1.677331e-01 2.407558e-02 7.731791e-02 -7.240979e-02 8.135783e-02 6.064809e-02 -3.653944e-01 -6.013046e-02 -3.702448e-03
<VARIANCE> 25
 7.900002e+00 1.941519e+01 1.639161e+01 3.448381e+01 3.257900e+01 4.748757e+01 4.366470e+01 3.282046e+01 3.317365e+01 2.779439e+01 3.218254e+01 3.167300e+01 1.870141e-01 3.571671e-01 3.751415e-01 5.690861e-01 7.045475e-01 9.795294e-01 9.119319e-01 8.402153e-01 7.805461e-01 8.576552e-01 1.401380e+00 9.180983e-01 1.923479e-04
<GCONST> 7.208933e+01
<MIXTURE> 57 6.132464e-03
<MEAN> 25
 6.778623e+00 -7.078140e+00 -8.194506e+00 -7.105511e+00 1.689484e+00 5.711592e+00 -2.059435e+00 -2.001720e+00 3.318440e+00 8.875893e-01 -1.997486e+00 -6.764805e+00 -6.338393e-02 -9.323775e-02 -3.257550e-02 8.963879e-02 1.677331e-01 2.407558e-02 7.731791e-02 -7.240979e-02 8.135783e-02 6.064809e-02 -3.653944e-01 -6.013046e-02 -3.702448e-03
<VARIANCE> 25
 7.900002e+00 1.941519e+01 1.639161e+01 3.448381e+01 3.257900e+01 4.748757e+01 4.366470e+01 3.282046e+01 3.317365e+01 2.779439e+01 3.218254e+01 3.167300e+01 1.870141e-01 3.571671e-01 3.751415e-01 5.690861e-01 7.045475e-01 9.795294e-01 9.119319e-01 8.402153e-01 7.805461e-01 8.576552e-01 1.401380e+00 9.180983e-01 1.923479e-04
<GCONST> 7.208933e+01
<MIXTURE> 58 6.172147e-03
<MEAN> 25
 2.377725e+00 -3.519679e+00 7.512938e+00 -4.943143e+00 -1.263331e+01 -5.390746e+00 1.156479e+00 1.169735e+00 -2.068971e+00 1.393652e+00 8.980039e-01 4.440012e-01 -7.767204e-02 -7.829229e-02 3.473373e-02 -2.017656e-01 -1.527990e-01 1.879412e-01 3.260670e-01 1.686679e-01 -7.820015e-04 9.451731e-02 8.424099e-02 -1.352060e-01 1.671080e-04
<VARIANCE> 25
 6.412922e+00 1.416895e+01 2.021900e+01 2.283094e+01 2.264103e+01 4.550518e+01 2.988035e+01 2.916245e+01 2.889781e+01 2.740257e+01 2.051637e+01 2.405211e+01 2.987092e-01 7.038108e-01 7.811259e-01 9.086105e-01 9.028131e-01 1.094993e+00 1.269665e+00 1.187403e+00 9.064069e-01 1.027761e+00 1.016318e+00 7.951998e-01 6.715019e-04
<GCONST> 7.408134e+01
<MIXTURE> 59 6.172147e-03
<MEAN> 25
 2.377725e+00 -3.519679e+00 7.512938e+00 -4.943143e+00 -1.263331e+01 -5.390746e+00 1.156479e+00 1.169735e+00 -2.068971e+00 1.393652e+00 8.980039e-01 4.440012e-01 -7.767204e-02 -7.829229e-02 3.473373e-02 -2.017656e-01 -1.527990e-01 1.879412e-01 3.260670e-01 1.686679e-01 -7.820015e-04 9.451731e-02 8.424099e-02 -1.352060e-01 1.671080e-04
<VARIANCE> 25
 6.412922e+00 1.416895e+01 2.021900e+01 2.283094e+01 2.264103e+01 4.550518e+01 2.988035e+01 2.916245e+01 2.889781e+01 2.740257e+01 2.051637e+01 2.405211e+01 2.987092e-01 7.038108e-01 7.811259e-01 9.086105e-01 9.028131e-01 1.094993e+00 1.269665e+00 1.187403e+00 9.064069e-01 1.027761e+00 1.016318e+00 7.951998e-01 6.715019e-04
<GCONST> 7.408134e+01
<MIXTURE> 60 4.479129e-03
<MEAN> 25
 -4.248283e+00 -6.648469e-01 -1.082417e+00 3.683845e+00 1.729105e+00 2.122983e+00 1.633120e+00 1.525288e+00 2.153344e+00 1.246513e+00 2.388851e+00 1.909993e+00 -2.826147e-02 5.537546e-02 1.015254e-01 1.294625e-01 1.316798e-01 1.289467e-01 1.751041e-01 3.222052e-01 5.420297e-01 6.663808e-01 5.535892e-01 3.008325e-01 -3.916429e-04
<VARIANCE> 25
 7.043308e+00 4.541420e+00 1.026236e+01 1.138711e+01 1.375723e+01 1.697759e+01 1.398804e+01 1.185227e+01 1.270494e+01 1.329297e+01 1.595795e+01 1.228280e+01 8.682324e-02 1.689558e-01 2.788888e-01 4.318108e-01 5.869840e-01 7.279208e-01 8.336824e-01 8.981906e-01 9.053961e-01 8.386421e-01 8.398769e-01 8.631291e-01 2.297331e-05
<GCONST> 5.638826e+01
<MIXTURE> 61 4.479129e-03
<MEAN> 25
 -4.248283e+00 -6.648469e-01 -1.082417e+00 3.683845e+00 1.729105e+00 2.122983e+00 1.633120e+00 1.525288e+00 2.153344e+00 1.246513e+00 2.388851e+00 1.909993e+00 -2.826147e-02 5.537546e-02 1.015254e-01 1.294625e-01 1.316798e-01 1.289467e-01 1.751041e-01 3.222052e-01 5.420297e-01 6.663808e-01 5.535892e-01 3.008325e-01 -3.916429e-04
<VARIANCE> 25
 7.043308e+00 4.541420e+00 1.026236e+01 1.138711e+01 1.375723e+01 1.697759e+01 1.398804e+01 1.185227e+01 1.270494e+01 1.329297e+01 1.595795e+01 1.228280e+01 8.682324e-02 1.689558e-01 2.788888e-01 4.318108e-01 5.869840e-01 7.279208e-01 8.336824e-01 8.981906e-01 9.053961e-01 8.386421e-01 8.398769e-01 8.631291e-01 2.297331e-05
<GCONST> 5.638826e+01
<MIXTURE> 62 3.278034e-03
<MEAN> 25
 -5.091526e+00 1.241817e+00 1.026147e+00 8.818921e+00 6.131029e+00 5.050169e+00 5.499630e+00 4.034014e+00 4.985088e+00 3.917711e+00 4.965711e+00 2.951231e+00 -1.003259e+00 -1.166674e+00 -9.531614e-01 -2.767245e-01 4.276558e-01 1.005101e+00 1.384693e+00 1.552219e+00 1.478787e+00 1.243564e+00 1.067124e+00 7.261016e-01 -1.264607e-03
<VARIANCE> 25
 9.875720e+00 9.963607e+00 1.311547e+01 1.673275e+01 1.741317e+01 1.752781e+01 1.970061e+01 1.911200e+01 1.887828e+01 1.872662e+01 2.156910e+01 1.479511e+01 4.017609e-01 4.320467e-01 5.542256e-01 7.794096e-01 1.035023e+00 1.192272e+00 1.252399e+00 1.279006e+00 1.329640e+00 1.363893e+00 1.399966e+00 1.371255e+00 1.632598e-05
<GCONST> 6.752818e+01
<MIXTURE> 63 4.351215e-03
<MEAN> 25
 -3.943809e+00 -8.177723e-01 -4.660538e+00 3.129348e+00 4.553899e+00 -4.370253e-01 3.220740e+00 1.624116e+00 2.318835e+00 -2.171867e+00 -1.479750e+00 2.161849e+00 -2.903768e-02 2.810157e-01 3.839741e-01 4.967740e-01 5.564769e-01 3.212715e-01 2.895285e-01 9.277456e-02 -9.298311e-02 1.919694e-01 1.617060e-01 3.715355e-02 -5.410890e-03
<VARIANCE> 25
 1.075204e+01 1.807766e+01 1.325913e+01 1.403573e+01 2.196863e+01 2.218574e+01 2.228424e+01 2.013507e+01 2.034707e+01 2.490142e+01 1.699642e+01 1.494150e+01 2.536228e-01 4.379357e-01 5.944088e-01 7.446305e-01 8.273315e-01 1.235664e+00 1.134276e+00 1.250463e+00 1.531974e+00 1.554478e+00 1.363668e+00 1.225302e+00 1.701718e-04
<GCONST> 7.056467e+01
<MIXTURE> 64 4.351215e-03
<MEAN> 25
 -3.943809e+00 -8.177723e-01 -4.660538e+00 3.129348e+00 4.553899e+00 -4.370253e-01 3.220740e+00 1.624116e+00 2.318835e+00 -2.171867e+00 -1.479750e+00 2.161849e+00 -2.903768e-02 2.810157e-01 3.839741e-01 4.967740e-01 5.564769e-01 3.212715e-01 2.895285e-01 9.277456e-02 -9.298311e-02 1.919694e-01 1.617060e-01 3.715355e-02 -5.410890e-03
<VARIANCE> 25
 1.075204e+01 1.807766e+01 1.325913e+01 1.403573e+01 2.196863e+01 2.218574e+01 2.228424e+01 2.013507e+01 2.034707e+01 2.490142e+01 1.699642e+01 1.494150e+01 2.536228e-01 4.379357e-01 5.944088e-01 7.446305e-01 8.273315e-01 1.235664e+00 1.134276e+00 1.250463e+00 1.531974e+00 1.554478e+00 1.363668e+00 1.225302e+00 1.701718e-04
<GCONST> 7.056467e+01
<MIXTURE> 65 1.721197e-02
<MEAN> 25
 7.483415e+00 1.381048e+00 2.240489e+00 1.428465e+00 -4.860735e+00 -3.894631e+00 -5.463686e+00 -6.686042e+00 -3.557499e+00 -2.775509e+00 -4.613512e+00 -1.870180e+00 1.720247e-01 8.978535e-02 6.884324e-03 1.002456e-01 -1.623367e-01 3.070063e-01 -1.572039e-01 -1.786256e-01 2.764159e-01 -2.493548e-02 -2.366057e-02 -1.511582e-01 -3.446761e-03
<VARIANCE> 25
 1.077645e+01 2.021261e+01 2.466381e+01 3.963807e+01 3.681696e+01 5.417766e+01 5.630748e+01 5.424679e+01 5.120304e+01 5.440522e+01 5.449422e+01 4.706148e+01 5.184618e-01 9.535712e-01 1.489890e+00 2.122265e+00 1.932514e+00 2.139498e+00 2.207234e+00 2.946655e+00 2.377861e+00 2.600203e+00 2.345026e+00 1.935285e+00 3.944508e-04
<GCONST> 8.885503e+01
<MIXTURE> 66 1.191532e-02
<MEAN> 25
 5.975636e+00 -4.272820e+00 -4.607155e+00 -4.297534e+00 3.512420e-01 -3.853349e+00 -5.799338e+00 6.336114e-01 1.932930e+00 -8.240107e-02 -5.069053e+00 -3.951092e+00 -1.104411e-01 1.680731e+00 1.856429e+00 2.486011e+00 -3.166383e-01 -1.755178e+00 1.903406e-01 -1.310989e-01 -3.802221e-01 -6.981834e-01 -2.903869e-01 1.215952e+00 -6.738924e-02
<VARIANCE> 25
 7.370685e+00 1.961638e+01 2.306709e+01 2.565455e+01 3.217648e+01 4.766854e+01 4.479447e+01 3.443188e+01 4.638764e+01 5.999574e+01 3.578466e+01 3.380037e+01 1.034174e+00 2.297009e+00 2.081400e+00 2.236939e+00 5.567450e+00 4.182048e+00 3.418009e+00 5.205739e+00 3.376541e+00 5.457019e+00 3.068704e+00 2.720186e+00 1.455224e-03
<GCONST> 9.394283e+01
<MIXTURE> 67 1.559142e-02
<MEAN> 25
 8.544960e+00 1.638593e+00 -5.767686e+00 -7.593058e+00 6.803910e-01 2.535782e+00 -3.062732e+00 -2.187299e+00 -3.080054e+00 1.063580e+00 -3.556367e-01 -2.158390e+00 -1.049047e+00 1.906864e+00 1.020093e+00 3.033138e+00 1.542808e+00 -6.578718e-01 1.284416e+00 1.831754e-01 6.084416e-02 1.803024e-01 -2.664828e-01 7.856910e-01 -1.271169e-01
<VARIANCE> 25
 1.238152e+01 3.847668e+01 2.899071e+01 5.612625e+01 4.766869e+01 5.388349e+01 5.862852e+01 4.879790e+01 6.478382e+01 5.447494e+01 5.304520e+01 4.745248e+01 2.052363e+00 3.284033e+00 3.059639e+00 4.201954e+00 4.479038e+00 4.534803e+00 4.397555e+00 4.953941e+00 5.136448e+00 5.466872e+00 4.769584e+00 3.938997e+00 2.907571e-03
<GCONST> 1.022996e+02
<MIXTURE> 68 1.485092e-02
<MEAN> 25
 -2.245221e+00 -1.824935e+00 -3.565115e+00 1.175678e+00 5.423773e+00 -1.027467e+00 1.669760e+00 1.439987e+00 2.082230e+00 2.292524e+00 2.239668e-01 1.619835e+00 2.712773e+00 2.205321e-01 -1.677351e-01 -2.429614e+00 -2.395735e+00 -1.191108e+00 -2.443715e+00 -1.606411e+00 -1.105458e+00 -1.137166e+00 -1.882293e+00 -1.335891e+00 1.017668e-01
<VARIANCE> 25
 2.355319e+01 2.994014e+01 5.213095e+01 5.004095e+01 4.034300e+01 5.169320e+01 4.113991e+01 3.780037e+01 3.788280e+01 4.238111e+01 4.592892e+01 2.453692e+01 1.797373e+00 4.052925e+00 5.229693e+00 5.184077e+00 4.660205e+00 5.726241e+00 5.180694e+00 4.457046e+00 5.866706e+00 6.305018e+00 4.533492e+00 4.502819e+00 6.071330e-03
<GCONST> 1.030044e+02
<MIXTURE> 69 1.204884e-02
<MEAN> 25
 4.463569e+00 -4.374974e+00 -3.615770e+00 -3.675056e+00 -3.407340e+00 -7.209913e+00 -1.149592e+00 2.343844e+00 3.824840e-02 -3.756165e+00 -6.108412e+00 9.503025e-01 1.653794e+00 -2.270390e+00 -1.335824e+00 -2.358214e+00 -6.665336e-01 -2.374566e-01 -5.029000e-01 7.134818e-01 -5.802097e-01 -1.242408e+00 -1.989632e+00 -4.244870e-01 6.752469e-02
<VARIANCE> 25
 8.408772e+00 2.010253e+01 2.505106e+01 2.371605e+01 3.954379e+01 3.588421e+01 4.426579e+01 2.938370e+01 3.791423e+01 4.278056e+01 3.116155e+01 2.240982e+01 3.270031e+00 2.686476e+00 3.019314e+00 3.494197e+00 5.571060e+00 4.639293e+00 6.446235e+00 5.597049e+00 5.397555e+00 5.822416e+00 4.384754e+00 3.994645e+00 2.504892e-03
<GCONST> 9.752085e+01
<MIXTURE> 70 1.329190e-02
<MEAN> 25
 6.835312e+00 -2.315460e+00 -4.291056e+00 -3.454298e+00 -7.061031e-01 -6.374098e-02 -6.374011e+00 -3.977188e+00 1.487806e+00 3.320873e+00 5.998871e-01 -6.582463e+00 1.890654e+00 -1.263604e+00 -8.994610e-01 -1.692672e+00 -1.675061e+00 1.248158e+00 -1.520509e+00 -2.689211e-01 6.597427e-01 -5.251039e-02 2.831823e-01 -1.939154e+00 6.012932e-02
<VARIANCE> 25
 9.444597e+00 2.385872e+01 2.300196e+01 3.734169e+01 3.015030e+01 3.669631e+01 4.960128e+01 3.855759e+01 3.895726e+01 2.744725e+01 3.933946e+01 4.273309e+01 2.937883e+00 2.640931e+00 3.968460e+00 4.816679e+00 4.599687e+00 5.355518e+00 5.919036e+00 6.136654e+00 5.208742e+00 4.902783e+00 5.291933e+00 4.708299e+00 2.165539e-03
<GCONST> 9.920359e+01
<MIXTURE> 71 1.406903e-02
<MEAN> 25
 6.019336e+00 4.050776e+00 4.151722e+00 3.888052e+00 -3.015263e+00 -3.283147e+00 -3.555279e+00 -6.832674e+00 -3.452972e+00 -3.314645e+00 -4.169997e+00 -3.129023e+00 -1.422490e+00 -7.058769e-01 -2.297313e-01 -2.242806e+00 1.042924e+00 -1.293675e-01 1.520677e-01 1.617592e+00 -2.387708e-02 3.803191e-01 4.731717e-01 3.794591e-01 4.145683e-02
<VARIANCE> 25
 1.632581e+01 3.069313e+01 2.222603e+01 4.211932e+01 3.919334e+01 3.407759e+01 3.615615e+01 3.604304e+01 3.938425e+01 4.080320e+01 3.606181e+01 2.989829e+01 1.631158e+00 2.575824e+00 5.168911e+00 5.287367e+00 4.790555e+00 4.318491e+00 4.200764e+00 4.674094e+00 4.293047e+00 5.353867e+00 3.499638e+00 3.481011e+00 1.261321e-03
<GCONST> 9.744984e+01
<MIXTURE> 72 8.134747e-03
<MEAN> 25
 3.804983e+00 -3.567678e+00 5.575849e+00 -2.212879e+00 -9.934048e+00 -9.416083e+00 -2.565865e+00 1.517217e+00 -5.127064e+00 -2.200916e+00 -1.689194e+00 7.927979e-01 9.474437e-01 -8.668954e-01 -2.387005e+00 4.803936e-01 2.106800e+00 -5.864233e-01 -1.264817e+00 1.407892e+00 1.827677e+00 -6.563272e-01 -1.296412e+00 3.559227e-01 -6.113990e-03
<VARIANCE> 25
 1.017166e+01 1.863803e+01 3.117504e+01 3.723863e+01 3.406715e+01 3.217881e+01 3.889071e+01 3.688551e+01 4.194778e+01 3.900216e+01 3.712915e+01 2.734909e+01 4.128251e-01 1.088505e+00 2.461064e+00 1.390137e+00 2.073435e+00 2.290086e+00 2.941553e+00 2.791093e+00 2.463422e+00 2.875944e+00 1.913322e+00 2.038287e+00 5.122147e-04
<GCONST> 8.667543e+01
<MIXTURE> 73 1.213625e-02
<MEAN> 25
 -5.437614e+00 -7.270288e-01 -1.345367e+00 4.498137e+00 4.492557e+00 1.882949e+00 5.463964e+00 3.370223e+00 4.106168e+00 3.415689e+00 4.334580e+00 2.688039e+00 7.536312e-01 -1.095599e+00 -8.727317e-01 -2.624534e+00 -1.305632e+00 -1.665827e+00 -9.179862e-01 -5.279138e-01 -8.965001e-01 -4.334370e-01 -9.856930e-01 -4.572461e-01 1.529264e-01
<VARIANCE> 25
 1.310576e+01 1.486485e+01 1.428690e+01 2.396618e+01 2.267693e+01 2.753629e+01 1.926988e+01 1.889140e+01 1.762874e+01 2.133636e+01 2.279512e+01 1.636380e+01 4.006508e+00 3.105450e+00 5.610787e+00 4.472662e+00 5.844558e+00 4.462386e+00 4.420905e+00 3.984240e+00 3.855832e+00 5.105264e+00 3.574647e+00 2.992324e+00 4.218940e-03
<GCONST> 9.299587e+01
<MIXTURE> 74 1.756491e-02
<MEAN> 25
 4.205601e+00 -1.929303e+00 5.183920e+00 -1.185951e+00 -8.049828e+00 -7.365788e+00 -3.352969e+00 8.840775e-01 -2.901242e+00 -1.263401e+00 -9.736615e-01 9.397024e-01 3.831806e-01 2.003234e+00 -2.165755e-01 1.627280e+00 1.479408e+00 3.624809e-01 -1.769329e-01 -1.600557e+00 3.859471e-02 7.290692e-02 -2.031410e-01 -4.904738e-02 -7.482198e-02
<VARIANCE> 25
 9.791037e+00 2.257601e+01 3.408237e+01 3.082162e+01 3.630422e+01 4.033965e+01 4.201011e+01 3.819376e+01 5.101740e+01 4.365209e+01 3.505018e+01 3.474406e+01 1.978153e+00 1.693708e+00 3.694109e+00 2.694689e+00 3.314271e+00 3.436898e+00 4.317743e+00 4.460845e+00 3.379704e+00 4.431232e+00 3.068991e+00 2.833097e+00 1.528184e-03
<GCONST> 9.506883e+01
<MIXTURE> 75 9.711651e-03
<MEAN> 25
 2.578145e+00 -1.076289e+00 1.061216e+01 1.550483e+00 -1.099227e+01 -7.909076e+00 -4.548912e+00 -4.896397e-01 -4.995383e+00 -3.811288e+00 3.482671e+00 1.285985e+00 1.724574e+00 -1.767790e+00 3.733847e-01 -1.626022e-01 -2.352262e+00 -3.300695e-01 -1.446367e+00 7.369784e-01 -1.263314e-02 -3.057388e-01 1.103148e+00 -6.034325e-01 3.714081e-02
<VARIANCE> 25
 9.128153e+00 1.667341e+01 2.841965e+01 2.542046e+01 2.441851e+01 2.809364e+01 2.649634e+01 2.729243e+01 2.964035e+01 2.803142e+01 1.721804e+01 2.626175e+01 2.210373e+00 1.846550e+00 3.705615e+00 2.170181e+00 3.631036e+00 3.701003e+00 3.583831e+00 3.471002e+00 3.304860e+00 2.901098e+00 2.958636e+00 2.135212e+00 1.308737e-03
<GCONST> 8.958101e+01
<MIXTURE> 76 1.052359e-02
<MEAN> 25
 -7.193480e+00 9.283874e-01 -3.061774e+00 4.796813e+00 5.258856e+00 1.446930e+00 5.006046e+00 2.631827e+00 1.842481e+00 1.688701e-01 4.788325e-01 2.255246e+00 1.184890e-01 -5.059065e-01 -3.868020e-01 -9.584608e-01 -5.702569e-01 -6.864774e-01 -4.558413e-01 -3.084050e-01 -2.453079e-01 -6.351900e-01 -3.762940e-01 -3.041958e-01 9.646701e-03
<VARIANCE> 25
 2.893085e+01 3.305714e+01 2.220891e+01 2.557609e+01 2.677450e+01 2.547209e+01 2.355361e+01 2.588394e+01 2.203579e+01 2.276794e+01 2.387384e+01 1.738373e+01 9.278907e-01 9.217104e-01 1.165916e+00 1.071572e+00 1.289546e+00 1.581923e+00 1.477209e+00 1.479266e+00 1.603387e+00 1.487403e+00 1.387211e+00 1.270049e+00 1.153066e-03
<GCONST> 8.056757e+01
<MIXTURE> 77 1.244626e-02
<MEAN> 25
 -4.961404e-01 8.543958e+00 1.261204e+01 -1.140214e+01 -6.787068e+00 8.158792e-01 -9.265402e+00 -7.054600e+00 -3.640388e+00 -3.174632e-01 -4.345582e+00 -1.481891e+00 6.346416e-02 1.352339e-01 1.043384e-01 2.399907e-01 -2.701562e-02 7.334597e-02 -4.134189e-02 -1.040173e-01 5.991826e-02 -1.157780e-02 1.834634e-02 1.162438e-01 -9.459677e-03
<VARIANCE> 25
 1.017355e+01 1.963208e+01 2.757360e+01 4.189235e+01 3.391391e+01 3.346727e+01 3.567499e+01 3.196544e+01 3.642026e+01 3.285549e+01 3.955767e+01 3.397243e+01 2.933784e-01 7.740018e-01 6.669100e-01 1.062996e+00 1.265523e+00 9.602361e-01 1.206031e+00 1.104354e+00 1.029731e+00 1.080351e+00 9.477209e-01 9.225597e-01 5.324676e-04
<GCONST> 7.774921e+01
<MIXTURE> 78 9.702551e-03
<MEAN> 25
 -1.131192e+01 1.465388e+00 -1.469811e+00 2.540089e+00 4.496661e+00 -2.463049e+00 4.541823e+00 3.042912e+00 1.550873e+00 9.120301e-01 -1.186603e+00 4.147384e+00 2.333444e+00 -3.616492e-01 -1.237044e-01 3.882488e-01 -5.776500e-02 3.112524e-01 -6.942853e-01 -2.298578e-01 6.075813e-01 2.010840e-01 -6.318877e-01 -5.810345e-01 -5.230796e-02
<VARIANCE> 25
 3.351865e+01 2.856344e+01 2.526405e+01 2.838230e+01 3.192998e+01 2.978465e+01 3.151054e+01 2.593556e+01 2.787992e+01 2.224225e+01 2.367816e+01 2.218764e+01 4.515997e+00 2.279036e+00 2.453596e+00 2.636259e+00 2.373623e+00 2.939523e+00 4.044364e+00 2.301563e+00 2.521927e+00 2.128015e+00 2.592599e+00 1.994808e+00 3.982945e-03
<GCONST> 9.181332e+01
<MIXTURE> 79 1.156824e-02
<MEAN> 25
 2.418550e+00 1.568700e+00 9.204614e+00 -6.576633e+00 -1.204467e+01 -1.825949e+00 -1.930385e+00 -6.466779e+00 -6.586692e+00 3.232169e-01 -3.489756e+00 -3.270617e+00 1.216718e+00 -5.240451e-01 -1.429428e+00 2.355940e+00 3.807334e-01 -1.469556e+00 5.346475e-01 8.766661e-01 -4.298325e-01 -5.453970e-01 3.503157e-01 2.837141e-01 -3.626654e-02
<VARIANCE> 25
 1.421836e+01 2.416679e+01 3.806102e+01 4.985540e+01 3.352674e+01 4.339645e+01 4.271633e+01 3.668701e+01 3.896526e+01 3.968218e+01 4.390004e+01 3.074368e+01 9.540485e-01 2.274686e+00 1.915878e+00 2.090421e+00 2.468035e+00 2.815162e+00 3.191175e+00 3.549426e+00 2.516165e+00 2.730709e+00 2.321968e+00 2.039931e+00 1.230154e-03
<GCONST> 9.183562e+01
<MIXTURE> 80 7.550998e-03
<MEAN> 25
 -1.470267e+01 4.279921e+00 1.155098e+00 2.224727e+00 3.675728e+00 7.297216e-01 6.085032e+00 3.190342e+00 1.807573e+00 1.891939e+00 4.548020e+00 8.333398e-01 4.264178e+00 4.756673e-02 1.595484e+00 -8.685778e-01 -2.968810e+00 -2.707317e+00 -2.260148e+00 -2.169226e+00 -1.872882e+00 -1.456093e+00 -1.415128e+00 -2.361040e-01 -4.242459e-02
<VARIANCE> 25
 1.872141e+01 1.817037e+01 3.197755e+01 3.354017e+01 3.681276e+01 3.064428e+01 2.569768e+01 2.849530e+01 2.925293e+01 2.710076e+01 2.440197e+01 1.741711e+01 2.197214e+00 2.384182e+00 2.416602e+00 4.165897e+00 3.253591e+00 2.426190e+00 2.734372e+00 3.033681e+00 2.501606e+00 2.743198e+00 2.849576e+00 2.807892e+00 1.361013e-03
<GCONST> 9.065949e+01
<MIXTURE> 81 8.025434e-03
<MEAN> 25
 -1.116866e+00 4.063403e+00 1.018140e+01 -1.479549e+01 -9.076544e+00 -1.424325e+00 -6.768604e+00 -8.420060e+00 -4.154063e+00 -4.157223e-01 -7.570945e+00 -2.244931e+00 1.335050e-01 -5.871741e-01 -2.996025e-03 -5.568221e-01 -4.642636e-01 3.361905e-01 3.190522e-01 1.370902e-01 -1.402446e-01 1.074356e-01 -4.690867e-01 -1.252714e-01 1.151856e-02
<VARIANCE> 25
 1.015155e+01 3.281760e+01 2.646851e+01 2.936789e+01 3.370906e+01 3.050733e+01 4.541689e+01 2.829617e+01 3.798529e+01 3.186880e+01 2.531797e+01 3.103710e+01 7.720541e-01 2.276112e+00 1.545935e+00 2.872657e+00 2.662112e+00 2.126830e+00 3.280985e+00 2.287867e+00 2.354289e+00 2.538854e+00 2.297911e+00 2.078366e+00 1.182712e-03
<GCONST> 8.868698e+01
<MIXTURE> 82 8.213053e-03
<MEAN> 25
 -9.895182e+00 -3.925077e+00 1.604199e+00 -2.985737e+00 3.177423e+00 5.438700e-01 2.024939e+00 9.528229e-01 2.920156e+00 1.829177e+00 1.843807e+00 2.999724e+00 -1.294298e+00 -1.643919e-01 2.870540e-01 -2.609987e+00 -1.128476e+00 -1.263424e+00 -1.043176e+00 -8.689525e-01 -3.215874e-01 -4.259374e-01 -3.100725e-01 -1.441785e-01 1.782671e-01
<VARIANCE> 25
 1.812050e+01 2.471909e+01 3.201329e+01 3.050681e+01 3.285117e+01 3.300136e+01 3.141046e+01 3.253754e+01 3.065640e+01 2.556881e+01 3.116920e+01 1.780281e+01 3.737538e+00 3.122154e+00 3.274075e+00 3.229020e+00 3.554379e+00 3.242963e+00 2.973424e+00 2.976845e+00 2.763406e+00 2.664964e+00 2.420615e+00 2.020025e+00 3.393043e-03
<GCONST> 9.317490e+01
<MIXTURE> 83 1.167529e-02
<MEAN> 25
 -1.858422e+01 6.764023e+00 -1.109836e+00 4.926107e-01 9.509962e+00 -3.056605e+00 6.481627e+00 7.207718e+00 -1.498691e+00 1.365564e+00 5.191520e-01 -6.047289e-02 -5.186270e-02 -3.033109e-01 1.773213e-01 -6.635514e-01 -2.092560e-01 3.015827e-01 -1.836986e-01 -1.278959e-01 7.103129e-02 3.845975e-03 3.747069e-01 -1.165360e-02 -1.690497e-04
<VARIANCE> 25
 7.501411e+00 1.255207e+01 1.801410e+01 1.715664e+01 1.716747e+01 1.895038e+01 1.618512e+01 3.351764e+01 1.974924e+01 1.508071e+01 1.635987e+01 2.356104e+01 7.404940e-01 1.059491e+00 1.096986e+00 7.574814e-01 9.950671e-01 1.078987e+00 1.188209e+00 2.044520e+00 9.690552e-01 1.149572e+00 1.100215e+00 9.803063e-01 7.705679e-04
<GCONST> 7.350345e+01
<MIXTURE> 84 1.066614e-02
<MEAN> 25
 -7.693920e-01 8.935344e+00 5.940024e+00 7.564213e+00 3.432134e+00 -2.032731e+00 -1.083423e+00 -3.063180e+00 -4.605589e+00 -2.835427e+00 -2.961946e+00 5.628613e-01 -1.788344e+00 -6.808426e-01 -1.599827e+00 1.421627e+00 2.382883e+00 1.335231e+00 1.471126e+00 1.274024e+00 1.071569e+00 -1.083775e-02 -2.080004e-01 1.627361e-01 -6.148255e-02
<VARIANCE> 25
 2.957385e+01 1.522881e+01 1.995842e+01 1.747482e+01 2.588937e+01 2.289048e+01 2.258630e+01 2.253390e+01 2.851458e+01 2.303480e+01 1.998358e+01 3.147906e+01 1.753459e+00 2.395347e+00 3.595948e+00 2.505388e+00 2.829592e+00 2.466250e+00 2.327828e+00 2.507038e+00 2.730727e+00 3.526177e+00 3.491101e+00 3.288732e+00 3.050908e-03
<GCONST> 8.971342e+01
<MIXTURE> 85 7.591393e-03
<MEAN> 25
 -3.090327e+00 7.914688e+00 5.720552e+00 1.312633e+00 -3.427587e+00 -5.425938e+00 -2.923061e+00 -6.028326e+00 -3.688688e+00 -3.117198e+00 -3.764125e-01 -1.813901e+00 3.963741e+00 2.818773e-01 1.718810e+00 -2.005105e+00 -3.454436e+00 -2.536286e+00 -2.857711e+00 -2.367835e+00 -2.224031e+00 -1.232807e+00 -2.242242e+00 -5.766684e-01 8.965489e-03
<VARIANCE> 25
 4.173529e+01 2.305043e+01 3.569860e+01 3.742775e+01 3.974573e+01 4.075675e+01 3.166913e+01 2.781556e+01 2.695758e+01 2.573475e+01 2.627698e+01 2.043278e+01 2.664850e+00 4.326870e+00 4.026140e+00 5.389536e+00 4.395162e+00 3.917096e+00 3.800736e+00 3.927855e+00 3.792885e+00 3.994780e+00 4.009766e+00 3.475196e+00 5.327513e-03
<GCONST> 9.820152e+01
<MIXTURE> 86 1.273941e-02
<MEAN> 25
 -4.927900e+00 -1.043175e+00 -8.280071e-01 6.167587e+00 5.205887e+00 4.487597e+00 5.279104e+00 4.606830e+00 4.641285e+00 3.777557e+00 5.208945e+00 2.546961e+00 1.081879e-02 -2.239249e-02 -5.658133e-02 -7.600526e-02 -9.621023e-02 -1.733628e-01 -2.941698e-01 -3.379252e-01 -3.490014e-01 -3.189570e-01 -2.382233e-01 -1.486310e-01 -9.362545e-04
<VARIANCE> 25
 7.734739e+00 6.348808e+00 9.729593e+00 1.288480e+01 1.662972e+01 1.512833e+01 1.320551e+01 1.274985e+01 1.292211e+01 1.446084e+01 1.451083e+01 1.317965e+01 1.071125e-01 1.941256e-01 3.237986e-01 4.786003e-01 6.351722e-01 7.269573e-01 7.530138e-01 7.470397e-01 8.149774e-01 8.587013e-01 8.883252e-01 9.374464e-01 5.685809e-05
<GCONST> 5.840940e+01
<MIXTURE> 87 1.100681e-02
<MEAN> 25
 -3.995324e+00 5.475589e+00 2.126138e+00 6.371127e+00 6.604793e+00 3.941675e-01 2.797774e+00 3.030960e-01 -8.264709e-01 -7.801861e-01 -1.062406e+00 8.167294e-01 -1.546967e+00 -2.562578e+00 -1.425451e+00 -2.344755e+00 -3.477800e-01 -2.501129e-01 1.016257e+00 9.313112e-01 1.256075e+00 1.508432e+00 1.274467e+00 7.120945e-01 9.272107e-02
<VARIANCE> 25
 3.888251e+01 2.425636e+01 2.519057e+01 2.631063e+01 2.280129e+01 2.563457e+01 2.313527e+01 2.345533e+01 3.049201e+01 2.410058e+01 2.439513e+01 2.481341e+01 3.666523e+00 2.616107e+00 3.542880e+00 2.795403e+00 3.767625e+00 3.444018e+00 3.441669e+00 3.214958e+00 3.844785e+00 3.728451e+00 2.714687e+00 2.643946e+00 4.301890e-03
<GCONST> 9.367094e+01
<MIXTURE> 88 1.256585e-02
<MEAN> 25
 -4.250988e+00 -1.383715e-01 -1.961996e+00 4.990600e+00 5.108634e+00 3.184164e+00 4.752071e+00 2.857430e+00 3.698129e+00 1.488762e+00 2.532522e+00 2.506526e+00 1.119232e-01 1.787781e-01 2.513411e-01 2.796682e-01 2.818915e-01 -2.224036e-02 -7.848000e-02 -1.110021e-01 -3.504452e-01 -3.773101e-01 -1.213120e-01 -1.453543e-01 -3.667855e-03
<VARIANCE> 25
 8.900642e+00 1.165976e+01 1.291295e+01 1.685167e+01 1.777662e+01 1.773881e+01 1.828036e+01 1.687587e+01 1.686321e+01 2.008731e+01 1.841847e+01 1.375569e+01 1.187198e+00 1.352360e+00 1.869025e+00 2.119086e+00 2.254245e+00 2.867048e+00 2.891896e+00 2.286586e+00 3.381992e+00 3.193782e+00 1.960808e+00 2.993039e+00 1.600781e-03
<GCONST> 8.213422e+01
<MIXTURE> 89 9.333527e-03
<MEAN> 25
 5.383417e+00 -6.894133e+00 -4.026042e+00 -1.945320e+00 -2.625369e+00 -2.580506e+00 -3.620216e+00 4.750983e+00 4.408710e+00 -1.052483e+00 -7.063135e+00 -2.525514e+00 -5.399840e-01 5.229067e-02 2.078351e+00 9.153310e-01 -1.813369e+00 -2.112130e+00 7.998272e-01 1.524901e+00 -1.192609e+00 -8.224617e-01 5.641916e-01 1.716718e+00 -3.939283e-03
<VARIANCE> 25
 6.110537e+00 2.017568e+01 2.115951e+01 2.202042e+01 2.772721e+01 4.134720e+01 4.131458e+01 2.916957e+01 2.627324e+01 2.960889e+01 2.595769e+01 2.386907e+01 2.598830e-01 6.569915e-01 1.848864e+00 1.570723e+00 1.637429e+00 2.290678e+00 1.696907e+00 1.647628e+00 1.920917e+00 1.629329e+00 2.715603e+00 1.345854e+00 2.330943e-04
<GCONST> 7.985149e+01
<MIXTURE> 90 7.114505e-03
<MEAN> 25
 2.455680e+00 -9.693626e+00 -4.682282e+00 -3.947730e+00 -3.434394e+00 -1.773718e+00 3.322645e+00 1.232627e+00 -7.414291e+00 -1.011058e+01 -3.431239e+00 -6.887680e-01 -1.654485e-01 9.025102e-01 1.172528e+00 -8.518168e-01 -1.604013e+00 -2.187082e-01 6.456531e-01 -2.097517e-01 -1.742615e-01 7.250233e-01 2.039849e-01 -5.295321e-01 -1.094947e-02
<VARIANCE> 25
 8.404932e+00 1.771758e+01 2.005206e+01 2.781251e+01 3.668973e+01 3.202649e+01 3.826511e+01 3.639175e+01 3.596193e+01 2.836408e+01 2.701587e+01 2.610127e+01 2.236151e-01 6.094653e-01 7.905418e-01 1.032915e+00 1.461150e+00 1.581200e+00 1.767615e+00 1.644782e+00 1.797327e+00 1.680718e+00 1.523207e+00 1.331744e+00 2.173296e-04
<GCONST> 7.815578e+01
<MIXTURE> 91 7.852945e-03
<MEAN> 25
 6.109517e+00 -7.809248e+00 -8.069849e+00 -4.852933e+00 3.141750e+00 2.753043e-01 -2.065609e+00 3.545820e-01 1.155664e+00 -2.284399e+00 -4.504617e+00 -5.923144e+00 2.488726e-01 1.013425e+00 2.247106e-01 4.812620e-01 -5.700301e-02 -5.966031e-01 -2.496384e-01 -7.171480e-02 -1.307727e-01 3.490034e-01 -1.495874e-01 3.992256e-01 -3.513671e-02
<VARIANCE> 25
 9.808841e+00 2.149533e+01 1.980669e+01 3.759743e+01 3.725529e+01 5.211246e+01 5.024670e+01 3.774002e+01 4.970363e+01 6.138167e+01 3.709756e+01 4.789948e+01 4.174207e-01 8.635414e-01 1.035122e+00 1.314949e+00 2.123486e+00 2.534888e+00 2.488720e+00 2.390622e+00 2.100135e+00 2.261689e+00 2.063781e+00 2.080041e+00 5.817405e-04
<GCONST> 8.685574e+01
<MIXTURE> 92 7.852945e-03
<MEAN> 25
 6.109517e+00 -7.809248e+00 -8.069849e+00 -4.852933e+00 3.141750e+00 2.753043e-01 -2.065609e+00 3.545820e-01 1.155664e+00 -2.284399e+00 -4.504617e+00 -5.923144e+00 2.488726e-01 1.013425e+00 2.247106e-01 4.812620e-01 -5.700301e-02 -5.966031e-01 -2.496384e-01 -7.171480e-02 -1.307727e-01 3.490034e-01 -1.495874e-01 3.992256e-01 -3.513671e-02
<VARIANCE> 25
 9.808841e+00 2.149533e+01 1.980669e+01 3.759743e+01 3.725529e+01 5.211246e+01 5.024670e+01 3.774002e+01 4.970363e+01 6.138167e+01 3.709756e+01 4.789948e+01 4.174207e-01 8.635414e-01 1.035122e+00 1.314949e+00 2.123486e+00 2.534888e+00 2.488720e+00 2.390622e+00 2.100135e+00 2.261689e+00 2.063781e+00 2.080041e+00 5.817405e-04
<GCONST> 8.685574e+01
<MIXTURE> 93 6.122769e-03
<MEAN> 25
 -6.825819e+00 -9.612056e-01 -2.402231e+00 5.798120e+00 5.908294e+00 3.922797e+00 6.123493e+00 3.609040e+00 4.119614e+00 2.509350e+00 1.818382e+00 3.705910e+00 -6.164000e-02 -1.543872e-01 -2.573870e-01 -3.317066e-01 -3.337587e-01 -2.844732e-01 -2.177871e-01 -1.742780e-01 -1.667204e-01 -1.506447e-01 -1.044153e-01 -3.554936e-02 -3.837683e-06
<VARIANCE> 25
 9.093901e+00 6.027777e+00 8.185111e+00 1.136881e+01 1.149258e+01 1.598249e+01 1.527640e+01 1.644382e+01 1.475774e+01 1.454170e+01 1.678724e+01 1.344866e+01 8.272374e-02 1.533694e-01 2.637162e-01 3.805642e-01 4.977629e-01 6.423341e-01 7.793725e-01 8.873125e-01 9.166239e-01 8.761251e-01 8.923470e-01 9.178919e-01 1.000000e-06
<GCONST> 5.360219e+01
<MIXTURE> 94 6.122769e-03
<MEAN> 25
 -6.825819e+00 -9.612056e-01 -2.402231e+00 5.798120e+00 5.908294e+00 3.922797e+00 6.123493e+00 3.609040e+00 4.119614e+00 2.509350e+00 1.818382e+00 3.705910e+00 -6.164000e-02 -1.543872e-01 -2.573870e-01 -3.317066e-01 -3.337587e-01 -2.844732e-01 -2.177871e-01 -1.742780e-01 -1.667204e-01 -1.506447e-01 -1.044153e-01 -3.554936e-02 -3.837683e-06
<VARIANCE> 25
 9.093901e+00 6.027777e+00 8.185111e+00 1.136881e+01 1.149258e+01 1.598249e+01 1.527640e+01 1.644382e+01 1.475774e+01 1.454170e+01 1.678724e+01 1.344866e+01 8.272374e-02 1.533694e-01 2.637162e-01 3.805642e-01 4.977629e-01 6.423341e-01 7.793725e-01 8.873125e-01 9.166239e-01 8.761251e-01 8.923470e-01 9.178919e-01 1.000000e-06
<GCONST> 5.360219e+01
<MIXTURE> 95 5.258835e-03
<MEAN> 25
 -5.421662e+00 -3.901309e-01 -2.210363e+00 4.580403e+00 4.719899e+00 2.359111e+00 3.745670e+00 1.630514e+00 2.353247e+00 2.735385e-01 8.536307e-01 2.248786e+00 1.631678e-01 1.201161e-01 6.755955e-02 -2.483683e-02 -2.605169e-01 -6.845692e-01 -1.022395e+00 -1.243273e+00 -1.288341e+00 -9.518806e-01 -6.825066e-01 -3.521198e-01 -1.175989e-03
<VARIANCE> 25
 1.105953e+01 7.048440e+00 1.169183e+01 1.300614e+01 1.573461e+01 1.875142e+01 1.857913e+01 1.648357e+01 1.435718e+01 1.817497e+01 1.953752e+01 1.428155e+01 2.017029e-01 2.882778e-01 4.363425e-01 6.374853e-01 8.737762e-01 9.519933e-01 8.718057e-01 9.205779e-01 9.334622e-01 1.006469e+00 1.101382e+00 1.071504e+00 4.804667e-05
<GCONST> 6.356594e+01
<MIXTURE> 96 7.034694e-03
<MEAN> 25
 -5.088111e+00 -4.533443e-01 -2.241158e+00 5.168509e+00 3.869740e+00 1.788656e+00 3.539890e+00 1.798433e+00 2.449141e+00 9.346330e-01 1.142496e+00 2.833815e+00 -3.011665e-02 8.860423e-02 2.136367e-01 4.063431e-01 5.391687e-01 4.998185e-01 2.454479e-01 -1.274922e-01 -4.637295e-01 -6.499889e-01 -6.078440e-01 -3.685584e-01 -1.829060e-05
<VARIANCE> 25
 1.105665e+01 9.731848e+00 1.290248e+01 1.430102e+01 1.503859e+01 1.950319e+01 1.806334e+01 1.935756e+01 1.800105e+01 1.677098e+01 1.976966e+01 1.452428e+01 1.204404e-01 2.187621e-01 3.168368e-01 3.993158e-01 4.940807e-01 6.616748e-01 8.668987e-01 9.961705e-01 9.568911e-01 8.674562e-01 8.860322e-01 9.404382e-01 1.005623e-06
<GCONST> 5.760431e+01
<MIXTURE> 97 7.034694e-03
<MEAN> 25
 -5.088111e+00 -4.533443e-01 -2.241158e+00 5.168509e+00 3.869740e+00 1.788656e+00 3.539890e+00 1.798433e+00 2.449141e+00 9.346330e-01 1.142496e+00 2.833815e+00 -3.011665e-02 8.860423e-02 2.136367e-01 4.063431e-01 5.391687e-01 4.998185e-01 2.454479e-01 -1.274922e-01 -4.637295e-01 -6.499889e-01 -6.078440e-01 -3.685584e-01 -1.829060e-05
<VARIANCE> 25
 1.105665e+01 9.731848e+00 1.290248e+01 1.430102e+01 1.503859e+01 1.950319e+01 1.806334e+01 1.935756e+01 1.800105e+01 1.677098e+01 1.976966e+01 1.452428e+01 1.204404e-01 2.187621e-01 3.168368e-01 3.993158e-01 4.940807e-01 6.616748e-01 8.668987e-01 9.961705e-01 9.568911e-01 8.674562e-01 8.860322e-01 9.404382e-01 1.005623e-06
<GCONST> 5.760431e+01
<MIXTURE> 98 9.917808e-03
<MEAN> 25
 -1.587082e+00 1.251724e+00 -1.461948e-01 4.751205e+00 3.914507e+00 2.313231e+00 3.100374e+00 1.684971e+00 1.526457e+00 6.815839e-01 6.275654e-01 1.045472e+00 -1.769086e+00 -1.423351e+00 -1.029631e+00 1.376763e-01 6.339521e-01 8.203627e-01 1.288545e+00 1.407062e+00 1.648452e+00 1.091753e+00 1.292964e+00 9.344327e-01 -3.307673e-02
<VARIANCE> 25
 1.490755e+01 2.043992e+01 3.045960e+01 3.146281e+01 4.137852e+01 3.682738e+01 3.160473e+01 2.780316e+01 2.770086e+01 3.182231e+01 2.612280e+01 2.286900e+01 1.406420e+00 1.612816e+00 2.273396e+00 2.508478e+00 2.757984e+00 2.852818e+00 2.763448e+00 2.679633e+00 2.600594e+00 3.178937e+00 2.710276e+00 2.163164e+00 2.484504e-03
<GCONST> 9.032137e+01
<MIXTURE> 99 6.696178e-03
<MEAN> 25
 -6.250177e+00 9.555472e+00 5.963173e+00 3.721733e+00 1.297268e+00 -5.214001e+00 -1.704135e+00 -3.864230e+00 -4.011288e+00 -3.852811e+00 -1.849603e+00 5.459627e-01 5.549071e-01 -6.935686e-01 2.782828e-01 -3.926181e-01 -9.823121e-01 -3.607474e-01 -1.621541e-01 -1.238149e-01 -4.489656e-02 5.553630e-02 2.709602e-01 1.439828e-01 1.125688e-02
<VARIANCE> 25
 3.727647e+01 2.518697e+01 4.862586e+01 2.936849e+01 3.718864e+01 3.199612e+01 2.701775e+01 2.827115e+01 2.823923e+01 2.756742e+01 2.249936e+01 2.685380e+01 2.147071e+00 2.022176e+00 1.344077e+00 1.663943e+00 2.864567e+00 2.089494e+00 1.750793e+00 1.861999e+00 1.578894e+00 1.755758e+00 1.335491e+00 1.187243e+00 1.437943e-03
<GCONST> 8.701715e+01
<MIXTURE> 100 4.498084e-03
<MEAN> 25
 -1.593309e+00 6.344843e+00 1.026212e+01 -7.435488e+00 -1.077098e+01 -5.082413e+00 -4.926609e+00 -9.955987e+00 -4.730627e+00 -8.552411e-01 -2.709991e+00 -2.695216e+00 2.921227e+00 -1.263632e+00 1.297007e+00 -2.177876e+00 -3.421070e+00 -7.805381e-01 -1.219602e+00 -8.255189e-01 -1.473515e+00 3.450403e-01 -1.651311e+00 -2.837738e-01 2.027004e-03
<VARIANCE> 25
 1.360650e+01 2.100976e+01 2.249944e+01 2.666726e+01 2.301366e+01 2.368510e+01 2.913620e+01 2.172197e+01 2.747824e+01 2.259721e+01 2.258060e+01 2.135946e+01 1.799928e+00 3.948397e+00 2.915764e+00 4.302562e+00 4.177153e+00 4.531468e+00 4.006136e+00 4.343662e+00 4.159672e+00 3.887856e+00 3.908493e+00 3.219696e+00 1.670829e-03
<GCONST> 9.256934e+01
<MIXTURE> 101 6.007792e-03
<MEAN> 25
 7.223367e+00 -3.836035e+00 -5.661661e+00 -6.496774e+00 1.588712e-02 -1.615478e-01 -9.862279e+00 -1.465812e+00 1.759805e+00 3.276279e+00 -2.283023e+00 -4.950016e+00 6.882428e-01 7.250998e-01 -1.404383e+00 -1.430330e+00 8.045645e-01 2.300796e+00 1.940188e-01 -1.592314e+00 -8.750242e-01 7.999811e-01 1.566597e+00 -3.550328e-01 -6.170248e-03
<VARIANCE> 25
 1.079651e+01 1.417613e+01 2.841719e+01 3.641063e+01 3.168687e+01 3.435528e+01 3.259909e+01 3.543431e+01 3.149948e+01 4.057476e+01 4.760427e+01 2.119659e+01 3.015929e-01 6.882024e-01 1.131076e+00 1.380131e+00 1.772957e+00 1.732381e+00 1.802941e+00 2.020638e+00 2.130680e+00 2.203273e+00 1.770076e+00 1.726309e+00 3.645160e-04
<GCONST> 8.206850e+01
<MIXTURE> 102 6.007792e-03
<MEAN> 25
 7.223367e+00 -3.836035e+00 -5.661661e+00 -6.496774e+00 1.588712e-02 -1.615478e-01 -9.862279e+00 -1.465812e+00 1.759805e+00 3.276279e+00 -2.283023e+00 -4.950016e+00 6.882428e-01 7.250998e-01 -1.404383e+00 -1.430330e+00 8.045645e-01 2.300796e+00 1.940188e-01 -1.592314e+00 -8.750242e-01 7.999811e-01 1.566597e+00 -3.550328e-01 -6.170248e-03
<VARIANCE> 25
 1.079651e+01 1.417613e+01 2.841719e+01 3.641063e+01 3.168687e+01 3.435528e+01 3.259909e+01 3.543431e+01 3.149948e+01 4.057476e+01 4.760427e+01 2.119659e+01 3.015929e-01 6.882024e-01 1.131076e+00 1.380131e+00 1.772957e+00 1.732381e+00 1.802941e+00 2.020638e+00 2.130680e+00 2.203273e+00 1.770076e+00 1.726309e+00 3.645160e-04
<GCONST> 8.206850e+01
<MIXTURE> 103 5.694618e-03
<MEAN> 25
 3.382851e+00 -9.460131e+00 -6.095878e+00 -3.094808e+00 -1.352626e+00 -1.908754e+00 2.413188e+00 2.501976e+00 -4.574095e+00 -9.217876e+00 -5.001586e+00 3.653277e-01 -1.557960e-01 -1.478975e+00 -9.886971e-01 3.634783e-01 1.205280e+00 1.030001e+00 1.587805e-01 -2.630476e-01 -7.677240e-01 -9.332179e-01 -3.111543e-02 1.144767e-01 2.687369e-02
<VARIANCE> 25
 1.033073e+01 2.028267e+01 2.300403e+01 3.151656e+01 4.788448e+01 3.544698e+01 4.636504e+01 3.650586e+01 4.205582e+01 2.952013e+01 3.051908e+01 2.631421e+01 6.401805e-01 1.256527e+00 1.546569e+00 1.970760e+00 2.924588e+00 2.414098e+00 2.877561e+00 2.566769e+00 2.571493e+00 2.550986e+00 2.095352e+00 2.015141e+00 8.034324e-04
<GCONST> 8.760700e+01
<MIXTURE> 104 5.694618e-03
<MEAN> 25
 3.382851e+00 -9.460131e+00 -6.095878e+00 -3.094808e+00 -1.352626e+00 -1.908754e+00 2.413188e+00 2.501976e+00 -4.574095e+00 -9.217876e+00 -5.001586e+00 3.653277e-01 -1.557960e-01 -1.478975e+00 -9.886971e-01 3.634783e-01 1.205280e+00 1.030001e+00 1.587805e-01 -2.630476e-01 -7.677240e-01 -9.332179e-01 -3.111543e-02 1.144767e-01 2.687369e-02
<VARIANCE> 25
 1.033073e+01 2.028267e+01 2.300403e+01 3.151656e+01 4.788448e+01 3.544698e+01 4.636504e+01 3.650586e+01 4.205582e+01 2.952013e+01 3.051908e+01 2.631421e+01 6.401805e-01 1.256527e+00 1.546569e+00 1.970760e+00 2.924588e+00 2.414098e+00 2.877561e+00 2.566769e+00 2.571493e+00 2.550986e+00 2.095352e+00 2.015141e+00 8.034324e-04
<GCONST> 8.760700e+01
<MIXTURE> 105 4.710235e-03
<MEAN> 25
 2.116147e+00 -1.861206e+00 8.909181e+00 -2.828744e+00 -1.106337e+01 -4.710052e+00 -3.348965e+00 -2.630146e-01 -3.385847e+00 -2.997006e+00 2.027301e+00 3.100342e-01 1.510647e-02 6.795840e-02 1.524367e-02 -2.775841e-02 -1.810718e-02 -9.453591e-04 3.209116e-02 5.154305e-02 -5.670966e-02 4.114967e-02 9.794856e-02 -2.398432e-02 -1.970774e-03
<VARIANCE> 25
 1.163964e+01 2.512177e+01 4.054614e+01 3.676549e+01 3.324920e+01 5.433163e+01 3.599876e+01 3.697386e+01 3.574837e+01 3.794295e+01 3.556741e+01 3.524142e+01 8.588295e-02 1.799986e-01 3.152093e-01 3.205364e-01 3.637046e-01 3.567919e-01 5.621902e-01 4.195175e-01 4.844989e-01 4.251351e-01 3.728102e-01 3.703655e-01 8.619007e-05
<GCONST> 6.510384e+01
<MIXTURE> 106 4.710235e-03
<MEAN> 25
 2.116147e+00 -1.861206e+00 8.909181e+00 -2.828744e+00 -1.106337e+01 -4.710052e+00 -3.348965e+00 -2.630146e-01 -3.385847e+00 -2.997006e+00 2.027301e+00 3.100342e-01 1.510647e-02 6.795840e-02 1.524367e-02 -2.775841e-02 -1.810718e-02 -9.453591e-04 3.209116e-02 5.154305e-02 -5.670966e-02 4.114967e-02 9.794856e-02 -2.398432e-02 -1.970774e-03
<VARIANCE> 25
 1.163964e+01 2.512177e+01 4.054614e+01 3.676549e+01 3.324920e+01 5.433163e+01 3.599876e+01 3.697386e+01 3.574837e+01 3.794295e+01 3.556741e+01 3.524142e+01 8.588295e-02 1.799986e-01 3.152093e-01 3.205364e-01 3.637046e-01 3.567919e-01 5.621902e-01 4.195175e-01 4.844989e-01 4.251351e-01 3.728102e-01 3.703655e-01 8.619007e-05
<GCONST> 6.510384e+01
<MIXTURE> 107 5.452374e-03
<MEAN> 25
 7.475673e+00 -2.037603e+00 -7.305223e+00 -8.801699e+00 5.792217e-01 5.613046e+00 -6.931817e+00 -5.171012e+00 2.043422e+00 3.307774e+00 7.380651e-01 -5.122402e+00 -4.896531e-01 -8.154271e-01 8.631863e-01 1.581323e+00 4.339384e-01 -2.138345e+00 -8.920908e-01 1.083382e+00 1.258484e+00 3.229541e-01 -1.790470e+00 -8.142105e-01 -2.179145e-03
<VARIANCE> 25
 8.209801e+00 1.832519e+01 2.379746e+01 3.147424e+01 3.197676e+01 4.616976e+01 3.971370e+01 3.033687e+01 4.756570e+01 3.166793e+01 3.912108e+01 2.296368e+01 3.084743e-01 7.289677e-01 1.212676e+00 1.978136e+00 1.678711e+00 4.121505e+00 2.470684e+00 2.951878e+00 2.618588e+00 2.273564e+00 1.510989e+00 1.952158e+00 5.524817e-04
<GCONST> 8.475719e+01
<MIXTURE> 108 5.452374e-03
<MEAN> 25
 7.475673e+00 -2.037603e+00 -7.305223e+00 -8.801699e+00 5.792217e-01 5.613046e+00 -6.931817e+00 -5.171012e+00 2.043422e+00 3.307774e+00 7.380651e-01 -5.122402e+00 -4.896531e-01 -8.154271e-01 8.631863e-01 1.581323e+00 4.339384e-01 -2.138345e+00 -8.920908e-01 1.083382e+00 1.258484e+00 3.229541e-01 -1.790470e+00 -8.142105e-01 -2.179145e-03
<VARIANCE> 25
 8.209801e+00 1.832519e+01 2.379746e+01 3.147424e+01 3.197676e+01 4.616976e+01 3.971370e+01 3.033687e+01 4.756570e+01 3.166793e+01 3.912108e+01 2.296368e+01 3.084743e-01 7.289677e-01 1.212676e+00 1.978136e+00 1.678711e+00 4.121505e+00 2.470684e+00 2.951878e+00 2.618588e+00 2.273564e+00 1.510989e+00 1.952158e+00 5.524817e-04
<GCONST> 8.475719e+01
<MIXTURE> 109 6.661064e-03
<MEAN> 25
 4.076071e+00 -1.035145e+01 -7.583952e+00 -1.760876e+00 2.210928e+00 7.033044e-01 -4.955519e-01 1.626718e+00 -1.938524e+00 -6.994591e+00 -5.128012e+00 -2.693729e-01 -1.065649e-02 -1.344602e-01 -6.617855e-02 2.394522e-01 9.750395e-02 1.888356e-01 -5.673760e-02 -8.096732e-02 -6.208836e-02 -1.411482e-01 2.645638e-01 -1.786838e-02 -3.175663e-03
<VARIANCE> 25
 8.201962e+00 1.668445e+01 2.113222e+01 2.893146e+01 3.774497e+01 3.643090e+01 4.176606e+01 3.132198e+01 4.339447e+01 4.284056e+01 2.760135e+01 2.556886e+01 1.820451e-01 3.766706e-01 4.952563e-01 5.924363e-01 1.195131e+00 1.045237e+00 1.277141e+00 1.020097e+00 1.011956e+00 9.464076e-01 9.457176e-01 9.024901e-01 1.644458e-04
<GCONST> 7.343764e+01
<MIXTURE> 110 6.661064e-03
<MEAN> 25
 4.076071e+00 -1.035145e+01 -7.583952e+00 -1.760876e+00 2.210928e+00 7.033044e-01 -4.955519e-01 1.626718e+00 -1.938524e+00 -6.994591e+00 -5.128012e+00 -2.693729e-01 -1.065649e-02 -1.344602e-01 -6.617855e-02 2.394522e-01 9.750395e-02 1.888356e-01 -5.673760e-02 -8.096732e-02 -6.208836e-02 -1.411482e-01 2.645638e-01 -1.786838e-02 -3.175663e-03
<VARIANCE> 25
 8.201962e+00 1.668445e+01 2.113222e+01 2.893146e+01 3.774497e+01 3.643090e+01 4.176606e+01 3.132198e+01 4.339447e+01 4.284056e+01 2.760135e+01 2.556886e+01 1.820451e-01 3.766706e-01 4.952563e-01 5.924363e-01 1.195131e+00 1.045237e+00 1.277141e+00 1.020097e+00 1.011956e+00 9.464076e-01 9.457176e-01 9.024901e-01 1.644458e-04
<GCONST> 7.343764e+01
<MIXTURE> 111 4.337247e-03
<MEAN> 25
 -4.347575e+00 -8.509194e-01 -1.764614e+00 1.701074e+00 1.082356e+00 9.351379e-01 2.795857e-01 1.524529e-01 1.211931e-01 -6.781048e-01 -6.592072e-01 1.870130e+00 -2.150414e-02 -2.806276e-02 -6.373821e-02 -5.917678e-02 -1.494822e-02 -4.555688e-03 -1.735627e-02 -7.676949e-02 -1.732835e-01 -1.927449e-01 -1.995772e-01 -1.065923e-01 -3.580707e-04
<VARIANCE> 25
 7.549488e+00 5.121747e+00 1.017448e+01 9.495730e+00 1.437204e+01 2.356492e+01 1.442230e+01 1.318648e+01 1.139457e+01 1.240865e+01 1.380061e+01 1.170451e+01 7.876130e-02 1.662546e-01 2.728744e-01 4.242035e-01 5.770667e-01 7.162093e-01 8.055871e-01 8.606219e-01 9.219182e-01 8.642229e-01 8.482608e-01 8.355625e-01 2.308528e-05
<GCONST> 5.629237e+01
<MIXTURE> 112 4.337247e-03
<MEAN> 25
 -4.347575e+00 -8.509194e-01 -1.764614e+00 1.701074e+00 1.082356e+00 9.351379e-01 2.795857e-01 1.524529e-01 1.211931e-01 -6.781048e-01 -6.592072e-01 1.870130e+00 -2.150414e-02 -2.806276e-02 -6.373821e-02 -5.917678e-02 -1.494822e-02 -4.555688e-03 -1.735627e-02 -7.676949e-02 -1.732835e-01 -1.927449e-01 -1.995772e-01 -1.065923e-01 -3.580707e-04
<VARIANCE> 25
 7.549488e+00 5.121747e+00 1.017448e+01 9.495730e+00 1.437204e+01 2.356492e+01 1.442230e+01 1.318648e+01 1.139457e+01 1.240865e+01 1.380061e+01 1.170451e+01 7.876130e-02 1.662546e-01 2.728744e-01 4.242035e-01 5.770667e-01 7.162093e-01 8.055871e-01 8.606219e-01 9.219182e-01 8.642229e-01 8.482608e-01 8.355625e-01 2.308528e-05
<GCONST> 5.629237e+01
<MIXTURE> 113 5.938666e-03
<MEAN> 25
 9.749279e+00 1.558044e+00 -8.683297e+00 -1.620901e+01 -2.031546e+00 6.206977e+00 -4.590755e+00 -2.381217e+00 -4.870083e+00 -4.566916e-01 9.310892e-01 7.947490e-02 -2.298014e-02 -3.952858e-02 -5.054063e-02 -1.191755e-01 1.082792e-01 1.889395e-01 9.578378e-02 -2.518180e-02 -4.610863e-03 -3.408624e-02 1.374245e-01 -5.335144e-02 -2.720842e-04
<VARIANCE> 25
 8.445246e+00 1.518647e+01 2.665002e+01 3.564792e+01 5.418268e+01 3.278267e+01 3.908892e+01 4.143796e+01 3.834113e+01 4.166934e+01 3.532186e+01 2.659650e+01 1.334442e-01 3.347512e-01 2.873476e-01 5.776034e-01 5.879172e-01 6.163117e-01 7.360584e-01 7.980140e-01 8.853689e-01 9.575351e-01 6.804116e-01 7.720084e-01 1.248053e-04
<GCONST> 7.050196e+01
<MIXTURE> 114 5.938666e-03
<MEAN> 25
 9.749279e+00 1.558044e+00 -8.683297e+00 -1.620901e+01 -2.031546e+00 6.206977e+00 -4.590755e+00 -2.381217e+00 -4.870083e+00 -4.566916e-01 9.310892e-01 7.947490e-02 -2.298014e-02 -3.952858e-02 -5.054063e-02 -1.191755e-01 1.082792e-01 1.889395e-01 9.578378e-02 -2.518180e-02 -4.610863e-03 -3.408624e-02 1.374245e-01 -5.335144e-02 -2.720842e-04
<VARIANCE> 25
 8.445246e+00 1.518647e+01 2.665002e+01 3.564792e+01 5.418268e+01 3.278267e+01 3.908892e+01 4.143796e+01 3.834113e+01 4.166934e+01 3.532186e+01 2.659650e+01 1.334442e-01 3.347512e-01 2.873476e-01 5.776034e-01 5.879172e-01 6.163117e-01 7.360584e-01 7.980140e-01 8.853689e-01 9.575351e-01 6.804116e-01 7.720084e-01 1.248053e-04
<GCONST> 7.050196e+01
<MIXTURE> 115 2.935202e-03
<MEAN> 25
 -4.030681e+00 -7.525363e-01 -3.107671e+00 3.657290e+00 2.413382e+00 -4.275238e-01 2.234770e+00 4.121123e-01 1.387919e+00 -2.073669e-02 4.056013e-02 2.687482e+00 3.159096e-02 -7.209428e-02 -2.306875e-01 -4.385150e-01 -6.333104e-01 -6.703328e-01 -5.921452e-01 -5.095667e-01 -4.866275e-01 -4.565930e-01 -3.437192e-01 -1.650615e-01 -3.229666e-06
<VARIANCE> 25
 9.272231e+00 9.884204e+00 1.353520e+01 1.271109e+01 1.348987e+01 1.756037e+01 1.708315e+01 2.081274e+01 1.793002e+01 1.722042e+01 1.919501e+01 1.466468e+01 2.037485e-01 3.456348e-01 4.855727e-01 5.620160e-01 6.342599e-01 7.980061e-01 1.007952e+00 1.130791e+00 1.075141e+00 9.944491e-01 1.025472e+00 1.064787e+00 1.000213e-06
<GCONST> 6.016409e+01
<MIXTURE> 116 2.935202e-03
<MEAN> 25
 -4.030681e+00 -7.525363e-01 -3.107671e+00 3.657290e+00 2.413382e+00 -4.275238e-01 2.234770e+00 4.121123e-01 1.387919e+00 -2.073669e-02 4.056013e-02 2.687482e+00 3.159096e-02 -7.209428e-02 -2.306875e-01 -4.385150e-01 -6.333104e-01 -6.703328e-01 -5.921452e-01 -5.095667e-01 -4.866275e-01 -4.565930e-01 -3.437192e-01 -1.650615e-01 -3.229666e-06
<VARIANCE> 25
 9.272231e+00 9.884204e+00 1.353520e+01 1.271109e+01 1.348987e+01 1.756037e+01 1.708315e+01 2.081274e+01 1.793002e+01 1.722042e+01 1.919501e+01 1.466468e+01 2.037485e-01 3.456348e-01 4.855727e-01 5.620160e-01 6.342599e-01 7.980061e-01 1.007952e+00 1.130791e+00 1.075141e+00 9.944491e-01 1.025472e+00 1.064787e+00 1.000213e-06
<GCONST> 6.016409e+01
<MIXTURE> 117 6.506003e-03
<MEAN> 25
 -4.644592e+00 1.117793e+00 1.054499e+00 9.758447e+00 6.260121e+00 6.256477e+00 6.463082e+00 5.044496e+00 6.385674e+00 4.929173e+00 6.367208e+00 2.709929e+00 -7.503008e-02 -2.341336e-01 -3.583474e-01 -4.199596e-01 -3.675186e-01 -3.027199e-01 -2.873273e-01 -3.314594e-01 -3.917833e-01 -3.689738e-01 -2.631080e-01 -1.159785e-01 -9.052962e-06
<VARIANCE> 25
 7.187259e+00 8.753097e+00 9.809425e+00 1.430823e+01 1.561781e+01 1.534934e+01 1.772638e+01 1.796108e+01 1.640261e+01 1.637152e+01 1.674076e+01 1.475332e+01 2.166086e-01 3.075042e-01 4.261350e-01 6.171185e-01 8.536685e-01 1.055364e+00 1.177562e+00 1.232911e+00 1.223976e+00 1.194855e+00 1.167213e+00 1.113683e+00 1.000000e-06
<GCONST> 6.042865e+01
<MIXTURE> 118 6.506003e-03
<MEAN> 25
 -4.644592e+00 1.117793e+00 1.054499e+00 9.758447e+00 6.260121e+00 6.256477e+00 6.463082e+00 5.044496e+00 6.385674e+00 4.929173e+00 6.367208e+00 2.709929e+00 -7.503008e-02 -2.341336e-01 -3.583474e-01 -4.199596e-01 -3.675186e-01 -3.027199e-01 -2.873273e-01 -3.314594e-01 -3.917833e-01 -3.689738e-01 -2.631080e-01 -1.159785e-01 -9.052962e-06
<VARIANCE> 25
 7.187259e+00 8.753097e+00 9.809425e+00 1.430823e+01 1.561781e+01 1.534934e+01 1.772638e+01 1.796108e+01 1.640261e+01 1.637152e+01 1.674076e+01 1.475332e+01 2.166086e-01 3.075042e-01 4.261350e-01 6.171185e-01 8.536685e-01 1.055364e+00 1.177562e+00 1.232911e+00 1.223976e+00 1.194855e+00 1.167213e+00 1.113683e+00 1.000000e-06
<GCONST> 6.042865e+01
<MIXTURE> 119 4.297961e-03
<MEAN> 25
 -4.975421e+00 -7.495000e+00 2.176282e+00 2.304346e+00 2.002311e+00 -3.072738e-01 5.500015e+00 5.985102e+00 7.878377e-01 1.421621e+00 6.560495e+00 1.320879e+00 -1.448116e-02 -3.661253e-02 4.834465e-02 -6.663536e-02 -9.800744e-02 -1.811789e-01 -9.572962e-02 -1.045352e-01 -9.707750e-02 -1.225750e-01 -3.870453e-02 -1.164000e-01 2.232054e-03
<VARIANCE> 25
 8.286322e+00 9.848114e+00 1.596477e+01 2.151500e+01 2.321980e+01 2.843388e+01 2.531438e+01 2.548850e+01 2.731917e+01 3.187295e+01 1.965964e+01 2.104762e+01 1.832765e-01 3.134200e-01 4.445652e-01 6.083028e-01 7.897497e-01 9.617602e-01 1.072818e+00 1.411133e+00 1.232436e+00 1.202637e+00 1.151233e+00 1.143989e+00 2.502590e-04
<GCONST> 7.029562e+01
<MIXTURE> 120 4.297961e-03
<MEAN> 25
 -4.975421e+00 -7.495000e+00 2.176282e+00 2.304346e+00 2.002311e+00 -3.072738e-01 5.500015e+00 5.985102e+00 7.878377e-01 1.421621e+00 6.560495e+00 1.320879e+00 -1.448116e-02 -3.661253e-02 4.834465e-02 -6.663536e-02 -9.800744e-02 -1.811789e-01 -9.572962e-02 -1.045352e-01 -9.707750e-02 -1.225750e-01 -3.870453e-02 -1.164000e-01 2.232054e-03
<VARIANCE> 25
 8.286322e+00 9.848114e+00 1.596477e+01 2.151500e+01 2.321980e+01 2.843388e+01 2.531438e+01 2.548850e+01 2.731917e+01 3.187295e+01 1.965964e+01 2.104762e+01 1.832765e-01 3.134200e-01 4.445652e-01 6.083028e-01 7.897497e-01 9.617602e-01 1.072818e+00 1.411133e+00 1.232436e+00 1.202637e+00 1.151233e+00 1.143989e+00 2.502590e-04
<GCONST> 7.029562e+01
<MIXTURE> 121 4.567511e-03
<MEAN> 25
 2.120591e-01 -2.530490e+00 5.149693e+00 -1.288692e+01 -1.263828e+01 -1.659055e+00 9.964047e-01 -5.095043e+00 -4.188549e+00 -4.925215e-01 -5.491678e+00 -4.300584e+00 2.442092e-02 1.318542e-01 -4.151270e-02 7.902758e-02 1.583484e-01 7.824414e-02 -8.118176e-02 -1.823475e-01 -2.681046e-01 -2.555526e-01 -1.142110e-01 2.335116e-04 -7.425641e-03
<VARIANCE> 25
 7.732181e+00 1.560730e+01 1.728513e+01 2.045503e+01 2.442325e+01 2.924983e+01 2.950514e+01 2.463101e+01 3.528611e+01 2.832074e+01 1.987538e+01 2.123962e+01 1.548481e-01 6.423230e-01 6.222576e-01 7.042574e-01 7.698675e-01 1.148589e+00 1.122802e+00 1.119560e+00 1.215490e+00 1.196161e+00 9.410720e-01 8.715906e-01 2.105957e-04
<GCONST> 7.140385e+01
<MIXTURE> 122 4.567511e-03
<MEAN> 25
 2.120591e-01 -2.530490e+00 5.149693e+00 -1.288692e+01 -1.263828e+01 -1.659055e+00 9.964047e-01 -5.095043e+00 -4.188549e+00 -4.925215e-01 -5.491678e+00 -4.300584e+00 2.442092e-02 1.318542e-01 -4.151270e-02 7.902758e-02 1.583484e-01 7.824414e-02 -8.118176e-02 -1.823475e-01 -2.681046e-01 -2.555526e-01 -1.142110e-01 2.335116e-04 -7.425641e-03
<VARIANCE> 25
 7.732181e+00 1.560730e+01 1.728513e+01 2.045503e+01 2.442325e+01 2.924983e+01 2.950514e+01 2.463101e+01 3.528611e+01 2.832074e+01 1.987538e+01 2.123962e+01 1.548481e-01 6.423230e-01 6.222576e-01 7.042574e-01 7.698675e-01 1.148589e+00 1.122802e+00 1.119560e+00 1.215490e+00 1.196161e+00 9.410720e-01 8.715906e-01 2.105957e-04
<GCONST> 7.140385e+01
<MIXTURE> 123 4.393044e-03
<MEAN> 25
 -4.410124e+00 2.255820e+00 -4.168833e-01 6.119558e+00 6.673249e+00 2.657473e+00 3.738056e+00 9.058290e-01 3.272469e-01 -1.470916e+00 -5.707413e-01 1.326091e+00 -2.817840e-01 -6.322624e-01 -7.366766e-01 -7.675987e-01 -1.515123e-01 5.119092e-02 3.767656e-01 7.918473e-01 8.397348e-01 5.677261e-01 7.040101e-01 4.081171e-01 -5.988979e-03
<VARIANCE> 25
 1.169495e+01 1.135036e+01 1.456524e+01 1.428929e+01 2.364170e+01 2.461616e+01 1.976996e+01 1.638176e+01 1.797775e+01 1.704060e+01 2.106610e+01 1.592426e+01 4.305589e-01 3.477153e-01 5.482195e-01 6.948895e-01 8.264258e-01 1.149252e+00 1.646644e+00 1.122926e+00 1.008808e+00 1.182009e+00 9.883782e-01 1.095843e+00 1.083312e-04
<GCONST> 6.868499e+01
<MIXTURE> 124 4.069876e-03
<MEAN> 25
 -6.672585e+00 -9.776822e-01 -3.005622e+00 5.156373e+00 4.949006e+00 3.266072e+00 5.482498e+00 2.522792e+00 3.132515e+00 1.178460e+00 9.070571e-01 3.059465e+00 -2.051791e-01 -3.291568e-01 -3.537102e-01 -2.078210e-01 1.167087e-01 4.633245e-01 8.115333e-01 8.624563e-01 6.543340e-01 3.208604e-01 6.657355e-02 -9.519953e-03 2.259746e-04
<VARIANCE> 25
 1.120679e+01 8.849259e+00 1.112642e+01 1.222261e+01 1.191193e+01 1.990724e+01 1.545773e+01 1.671149e+01 1.518919e+01 1.604623e+01 2.055370e+01 1.411523e+01 1.023899e-01 1.654961e-01 2.662302e-01 4.106648e-01 5.848318e-01 8.143136e-01 7.298006e-01 7.950042e-01 8.880882e-01 9.584262e-01 9.843133e-01 9.776084e-01 1.893085e-05
<GCONST> 5.899387e+01
<MIXTURE> 125 4.069876e-03
<MEAN> 25
 -6.672585e+00 -9.776822e-01 -3.005622e+00 5.156373e+00 4.949006e+00 3.266072e+00 5.482498e+00 2.522792e+00 3.132515e+00 1.178460e+00 9.070571e-01 3.059465e+00 -2.051791e-01 -3.291568e-01 -3.537102e-01 -2.078210e-01 1.167087e-01 4.633245e-01 8.115333e-01 8.624563e-01 6.543340e-01 3.208604e-01 6.657355e-02 -9.519953e-03 2.259746e-04
<VARIANCE> 25
 1.120679e+01 8.849259e+00 1.112642e+01 1.222261e+01 1.191193e+01 1.990724e+01 1.545773e+01 1.671149e+01 1.518919e+01 1.604623e+01 2.055370e+01 1.411523e+01 1.023899e-01 1.654961e-01 2.662302e-01 4.106648e-01 5.848318e-01 8.143136e-01 7.298006e-01 7.950042e-01 8.880882e-01 9.584262e-01 9.843133e-01 9.776084e-01 1.893085e-05
<GCONST> 5.899387e+01
<MIXTURE> 126 2.402244e-03
<MEAN> 25
 -3.680613e+00 -6.649207e+00 -5.264136e+00 2.265595e+00 4.354246e+00 -3.131471e+00 3.802600e-02 3.513381e+00 3.380957e+00 -2.839732e+00 -1.453790e+00 2.950632e+00 9.000018e-03 -6.550847e-03 -4.349634e-02 -1.324604e-01 -2.942974e-01 -4.060420e-01 -2.835078e-01 -1.490010e-01 -1.449903e-01 -1.508063e-01 -1.356720e-01 -4.052404e-02 -1.842839e-03
<VARIANCE> 25
 7.620732e+00 1.472559e+01 1.343262e+01 1.496013e+01 2.457327e+01 2.349190e+01 2.213389e+01 2.769747e+01 3.050199e+01 2.654696e+01 2.129126e+01 1.905322e+01 1.700241e-01 3.445097e-01 4.714010e-01 5.879792e-01 7.597623e-01 1.030068e+00 1.114459e+00 1.270972e+00 1.384891e+00 1.342484e+00 1.241312e+00 1.185010e+00 2.094601e-04
<GCONST> 6.996703e+01
<MIXTURE> 127 2.402244e-03
<MEAN> 25
 -3.680613e+00 -6.649207e+00 -5.264136e+00 2.265595e+00 4.354246e+00 -3.131471e+00 3.802600e-02 3.513381e+00 3.380957e+00 -2.839732e+00 -1.453790e+00 2.950632e+00 9.000018e-03 -6.550847e-03 -4.349634e-02 -1.324604e-01 -2.942974e-01 -4.060420e-01 -2.835078e-01 -1.490010e-01 -1.449903e-01 -1.508063e-01 -1.356720e-01 -4.052404e-02 -1.842839e-03
<VARIANCE> 25
 7.620732e+00 1.472559e+01 1.343262e+01 1.496013e+01 2.457327e+01 2.349190e+01 2.213389e+01 2.769747e+01 3.050199e+01 2.654696e+01 2.129126e+01 1.905322e+01 1.700241e-01 3.445097e-01 4.714010e-01 5.879792e-01 7.597623e-01 1.030068e+00 1.114459e+00 1.270972e+00 1.384891e+00 1.342484e+00 1.241312e+00 1.185010e+00 2.094601e-04
<GCONST> 6.996703e+01
<MIXTURE> 128 3.790457e-03
<MEAN> 25
 -3.939543e+00 1.560620e+00 -3.421387e-01 6.580266e+00 3.633948e+00 1.842800e+00 3.552032e+00 2.340761e+00 3.921859e+00 3.669514e+00 3.726617e+00 3.517116e+00 -3.985241e-01 -1.963681e-01 9.876105e-02 7.269715e-01 1.187312e+00 1.132797e+00 7.198063e-01 1.311958e-01 -4.425367e-01 -7.856585e-01 -7.013598e-01 -3.941183e-01 -3.809609e-05
<VARIANCE> 25
 1.049245e+01 1.184077e+01 1.497044e+01 1.928658e+01 2.006266e+01 2.117248e+01 2.442043e+01 2.485932e+01 2.688750e+01 2.409479e+01 2.735878e+01 1.815250e+01 8.918501e-01 1.142973e+00 1.367582e+00 1.499894e+00 1.583422e+00 1.859923e+00 2.245958e+00 2.325825e+00 2.151439e+00 1.859686e+00 1.739721e+00 1.747954e+00 1.000166e-06
<GCONST> 7.373067e+01
<TRANSP> 3
 0.000000e+00 1.000000e+00 0.000000e+00
 0.000000e+00 9.999990e-01 9.999998e-07
 0.000000e+00 0.000000e+00 0.000000e+00
<ENDHMM>
