~o
<STREAMINFO> 1 25
<VECSIZE> 25<NULLD><MFCC_E_D_N><DIAGC>
~h "jmodel"
<BEGINHMM>
<NUMSTATES> 3
<STATE> 2
<NUMMIXES> 128
<MIXTURE> 1 5.748963e-03
<MEAN> 25
<<<<<<< HEAD
 -2.583362e+00 3.186269e+00 2.309995e+00 8.742610e+00 4.362720e+00 3.440232e+00 4.055475e+00 3.925647e+00 5.821953e+00 5.247104e+00 5.872289e+00 3.076103e+00 -2.002903e+00 -1.632351e+00 -8.648596e-01 1.072049e+00 1.561381e+00 2.232440e+00 2.153143e+00 2.079800e+00 1.691555e+00 1.268619e+00 1.564423e+00 6.117856e-01 -4.688819e-02
<VARIANCE> 25
 1.006954e+01 1.175676e+01 1.494231e+01 1.875746e+01 2.323613e+01 2.217604e+01 2.187996e+01 2.199175e+01 2.102287e+01 2.258993e+01 2.099616e+01 1.706296e+01 1.788912e+00 2.112737e+00 3.023189e+00 3.213665e+00 3.733639e+00 3.355942e+00 3.315100e+00 3.388293e+00 3.519585e+00 3.723903e+00 3.519204e+00 2.831049e+00 3.118019e-03
<GCONST> 8.847368e+01
<MIXTURE> 2 4.549242e-03
<MEAN> 25
 -4.872639e+00 1.311913e+00 9.949905e-01 9.892813e+00 6.691218e+00 7.422923e+00 7.845268e+00 6.954380e+00 8.366515e+00 6.369666e+00 7.620456e+00 3.068478e+00 -6.189609e-02 4.176472e-02 1.422929e-01 2.251027e-01 2.647833e-01 2.817597e-01 2.952114e-01 3.203739e-01 3.496604e-01 3.081591e-01 1.981447e-01 7.917517e-02 1.843392e-06
<VARIANCE> 25
 6.958103e+00 8.895105e+00 1.064274e+01 1.595882e+01 1.722258e+01 1.555469e+01 1.689054e+01 1.848865e+01 1.662560e+01 1.738593e+01 1.812153e+01 1.437351e+01 1.251980e-01 2.265586e-01 3.363886e-01 4.674457e-01 6.492162e-01 8.149697e-01 9.294137e-01 1.003355e+00 1.050900e+00 1.078443e+00 1.077916e+00 1.014115e+00 1.000714e-06
<GCONST> 5.805120e+01
<MIXTURE> 3 4.549242e-03
<MEAN> 25
 -4.872639e+00 1.311913e+00 9.949905e-01 9.892813e+00 6.691218e+00 7.422923e+00 7.845268e+00 6.954380e+00 8.366515e+00 6.369666e+00 7.620456e+00 3.068478e+00 -6.189609e-02 4.176472e-02 1.422929e-01 2.251027e-01 2.647833e-01 2.817597e-01 2.952114e-01 3.203739e-01 3.496604e-01 3.081591e-01 1.981447e-01 7.917517e-02 1.843392e-06
<VARIANCE> 25
 6.958103e+00 8.895105e+00 1.064274e+01 1.595882e+01 1.722258e+01 1.555469e+01 1.689054e+01 1.848865e+01 1.662560e+01 1.738593e+01 1.812153e+01 1.437351e+01 1.251980e-01 2.265586e-01 3.363886e-01 4.674457e-01 6.492162e-01 8.149697e-01 9.294137e-01 1.003355e+00 1.050900e+00 1.078443e+00 1.077916e+00 1.014115e+00 1.000714e-06
<GCONST> 5.805120e+01
<MIXTURE> 4 1.671429e-02
<MEAN> 25
 3.496131e+00 2.501589e+00 -3.709618e+00 8.165430e-01 3.968704e+00 -1.840886e-01 1.046235e-01 -1.006936e-01 1.354030e+00 1.214221e+00 -1.924253e+00 2.609617e-01 -2.710946e+00 1.356714e+00 1.652543e+00 3.141676e+00 8.783323e-01 3.954630e-01 1.443115e+00 9.540929e-01 9.913425e-01 4.297266e-01 1.224223e+00 9.194456e-01 -1.023883e-01
<VARIANCE> 25
 2.028701e+01 2.867051e+01 2.818076e+01 3.961750e+01 4.708045e+01 6.650951e+01 6.303970e+01 5.085388e+01 5.254845e+01 5.942739e+01 4.735349e+01 3.491586e+01 2.307623e+00 5.147882e+00 3.779077e+00 4.755601e+00 4.812701e+00 6.077246e+00 6.019648e+00 5.368837e+00 5.653907e+00 6.306192e+00 5.896211e+00 4.345872e+00 5.799333e-03
<GCONST> 1.047921e+02
<MIXTURE> 5 3.206198e-03
<MEAN> 25
 -3.416255e+00 2.180794e+00 6.105125e-01 9.425737e+00 6.697054e+00 6.316054e+00 7.111802e+00 4.721706e+00 5.493795e+00 3.846701e+00 4.656848e+00 2.604294e+00 -3.246359e-01 7.527190e-01 1.224503e+00 1.032168e+00 3.074037e-01 -1.000152e-01 -8.394027e-02 3.381440e-02 4.583219e-01 6.837145e-01 4.041824e-01 8.801635e-02 -2.737898e-05
<VARIANCE> 25
 1.024975e+01 1.393872e+01 2.347856e+01 2.563434e+01 2.021475e+01 1.941870e+01 2.010792e+01 2.036298e+01 2.142420e+01 2.128513e+01 2.410493e+01 1.636881e+01 1.209691e+00 1.244025e+00 1.357025e+00 1.673616e+00 2.284210e+00 2.375701e+00 2.300914e+00 2.274872e+00 2.315718e+00 2.238481e+00 2.085619e+00 1.873778e+00 1.000342e-06
<GCONST> 7.516560e+01
<MIXTURE> 6 5.475854e-03
<MEAN> 25
 9.702221e+00 -4.188966e-01 -6.691365e+00 -1.104649e+01 -2.116786e+00 6.735245e+00 -5.899473e+00 -5.296003e+00 -3.656923e+00 1.829330e+00 4.643646e+00 -1.252669e+00 4.849599e-01 8.963689e-01 -3.509947e-01 -1.468902e+00 -6.383143e-01 1.314922e+00 1.536701e+00 2.474913e-01 -1.218827e+00 -1.218104e+00 3.229960e-01 1.228483e+00 -8.168337e-03
<VARIANCE> 25
 8.963314e+00 1.709210e+01 2.395717e+01 3.911895e+01 3.678072e+01 3.064571e+01 4.407732e+01 3.807838e+01 4.075519e+01 3.947263e+01 4.210850e+01 2.841987e+01 3.117535e-01 8.574041e-01 9.455916e-01 1.978247e+00 1.605717e+00 2.015782e+00 1.919219e+00 2.051769e+00 2.398675e+00 1.963893e+00 2.246098e+00 1.439078e+00 5.861626e-04
<GCONST> 8.387834e+01
<MIXTURE> 7 5.475854e-03
<MEAN> 25
 9.702221e+00 -4.188966e-01 -6.691365e+00 -1.104649e+01 -2.116786e+00 6.735245e+00 -5.899473e+00 -5.296003e+00 -3.656923e+00 1.829330e+00 4.643646e+00 -1.252669e+00 4.849599e-01 8.963689e-01 -3.509947e-01 -1.468902e+00 -6.383143e-01 1.314922e+00 1.536701e+00 2.474913e-01 -1.218827e+00 -1.218104e+00 3.229960e-01 1.228483e+00 -8.168337e-03
<VARIANCE> 25
 8.963314e+00 1.709210e+01 2.395717e+01 3.911895e+01 3.678072e+01 3.064571e+01 4.407732e+01 3.807838e+01 4.075519e+01 3.947263e+01 4.210850e+01 2.841987e+01 3.117535e-01 8.574041e-01 9.455916e-01 1.978247e+00 1.605717e+00 2.015782e+00 1.919219e+00 2.051769e+00 2.398675e+00 1.963893e+00 2.246098e+00 1.439078e+00 5.861626e-04
<GCONST> 8.387834e+01
<MIXTURE> 8 1.165917e-02
<MEAN> 25
 -4.590069e+00 1.427220e+00 1.366296e+00 9.211777e+00 6.668926e+00 5.992239e+00 6.214410e+00 5.319990e+00 6.463822e+00 5.622669e+00 6.487280e+00 3.057951e+00 -5.554550e-01 -1.506145e+00 -1.210197e+00 -1.658887e+00 -1.571046e-01 -1.013534e+00 -1.791481e-01 -2.700596e-01 -2.677796e-01 -2.114561e-01 -3.980460e-01 2.982143e-02 9.542422e-02
<VARIANCE> 25
 9.224268e+00 9.373672e+00 1.118272e+01 1.720767e+01 1.589737e+01 1.594081e+01 1.823777e+01 1.868627e+01 1.678239e+01 1.645048e+01 1.796961e+01 1.341415e+01 2.710013e+00 2.786653e+00 4.143960e+00 3.665338e+00 3.352828e+00 3.282949e+00 2.964169e+00 2.922205e+00 2.749507e+00 2.541234e+00 2.975632e+00 1.846833e+00 6.575001e-03
<GCONST> 8.606174e+01
<MIXTURE> 9 1.199672e-02
<MEAN> 25
 9.291239e+00 3.021784e+00 -6.222764e+00 -1.085251e+01 -2.047738e+00 4.899538e+00 -2.315245e+00 -2.127731e+00 -5.213662e+00 -1.322832e+00 6.184378e-01 -1.727214e-01 1.543743e+00 -2.703935e-01 -4.538066e-01 -2.798332e+00 -1.680173e+00 9.357820e-01 -1.023680e+00 -1.960199e-01 -2.082263e-01 -4.559284e-01 6.396259e-01 -2.100021e-01 7.382840e-02
<VARIANCE> 25
 1.170347e+01 2.396733e+01 3.210890e+01 5.245203e+01 4.916223e+01 3.110113e+01 4.185318e+01 5.052299e+01 4.092995e+01 3.983140e+01 3.466729e+01 2.628754e+01 2.245167e+00 2.771187e+00 4.401902e+00 4.881430e+00 4.823356e+00 4.053277e+00 4.128509e+00 5.799182e+00 4.843103e+00 4.200887e+00 3.850327e+00 2.749979e+00 2.131037e-03
<GCONST> 9.847854e+01
<MIXTURE> 10 6.596976e-03
<MEAN> 25
 8.190022e-01 7.632855e+00 5.353945e+00 7.134078e+00 1.551522e+00 -2.137025e+00 -5.346513e-01 -1.681332e+00 8.710537e-01 8.623676e-01 8.334109e-01 6.646811e-01 -1.926119e+00 -6.628181e-01 -4.622549e-01 3.011589e+00 2.460264e+00 2.711483e+00 2.370343e+00 2.263003e+00 1.858264e+00 1.539048e+00 2.323832e+00 5.175552e-01 -1.377050e-01
<VARIANCE> 25
 1.945613e+01 2.066004e+01 2.235741e+01 2.909053e+01 3.844300e+01 3.492544e+01 3.513269e+01 3.370683e+01 2.755686e+01 2.912691e+01 2.689147e+01 2.490004e+01 2.226595e+00 3.435416e+00 5.511925e+00 5.205633e+00 5.526516e+00 4.451550e+00 4.680579e+00 4.863814e+00 4.369873e+00 5.005345e+00 4.456266e+00 3.189537e+00 2.720617e-03
<GCONST> 9.744653e+01
<MIXTURE> 11 1.633820e-02
<MEAN> 25
 7.784078e+00 4.343138e+00 3.643424e+00 5.131934e+00 -3.339450e+00 -2.128770e+00 -2.333251e+00 -6.513692e+00 -3.566748e+00 2.776456e-01 -2.475466e+00 -2.121318e+00 -3.019705e-01 5.415671e-01 1.502724e-01 2.911195e-01 5.470111e-01 -8.068887e-03 3.009202e-01 -1.811634e-01 -1.640425e-01 -3.216597e-02 -1.529742e-01 1.524497e-01 -1.754580e-02
<VARIANCE> 25
 1.117882e+01 2.401033e+01 2.006705e+01 3.189329e+01 3.894986e+01 3.916223e+01 4.884881e+01 4.336817e+01 4.314371e+01 3.598867e+01 3.607835e+01 2.937303e+01 9.844444e-01 1.238117e+00 1.757341e+00 2.263706e+00 2.096443e+00 2.327167e+00 2.185553e+00 2.778262e+00 2.178630e+00 1.967127e+00 1.875594e+00 1.576881e+00 9.714210e-04
<GCONST> 8.787305e+01
<MIXTURE> 12 5.904134e-03
<MEAN> 25
 1.076532e+01 3.742864e+00 -4.502518e+00 -1.599373e+01 -8.695845e+00 8.642720e+00 -8.969173e-01 -1.921785e+00 -1.722731e+00 -4.886226e+00 1.774519e+00 7.162694e-01 6.769896e-02 2.938217e-01 7.967586e-02 -3.683400e-01 -3.103035e-01 2.957265e-02 3.055550e-01 4.477621e-01 1.410244e-01 -3.846751e-01 -3.856174e-01 5.387083e-02 -6.304634e-03
<VARIANCE> 25
 8.884336e+00 2.101727e+01 2.335580e+01 3.502966e+01 4.206348e+01 3.095776e+01 4.179689e+01 4.898157e+01 4.406284e+01 3.739013e+01 3.799710e+01 2.892931e+01 2.468403e-01 6.883979e-01 6.860648e-01 1.170066e+00 1.186422e+00 1.053844e+00 1.171012e+00 1.386159e+00 1.240587e+00 1.222229e+00 1.221495e+00 9.565611e-01 5.786628e-04
<GCONST> 7.892184e+01
<MIXTURE> 13 5.904134e-03
<MEAN> 25
 1.076532e+01 3.742864e+00 -4.502518e+00 -1.599373e+01 -8.695845e+00 8.642720e+00 -8.969173e-01 -1.921785e+00 -1.722731e+00 -4.886226e+00 1.774519e+00 7.162694e-01 6.769896e-02 2.938217e-01 7.967586e-02 -3.683400e-01 -3.103035e-01 2.957265e-02 3.055550e-01 4.477621e-01 1.410244e-01 -3.846751e-01 -3.856174e-01 5.387083e-02 -6.304634e-03
<VARIANCE> 25
 8.884336e+00 2.101727e+01 2.335580e+01 3.502966e+01 4.206348e+01 3.095776e+01 4.179689e+01 4.898157e+01 4.406284e+01 3.739013e+01 3.799710e+01 2.892931e+01 2.468403e-01 6.883979e-01 6.860648e-01 1.170066e+00 1.186422e+00 1.053844e+00 1.171012e+00 1.386159e+00 1.240587e+00 1.222229e+00 1.221495e+00 9.565611e-01 5.786628e-04
<GCONST> 7.892184e+01
<MIXTURE> 14 6.488954e-03
<MEAN> 25
 -4.318569e+00 -3.727250e-01 -3.109771e-01 8.898717e+00 7.508305e+00 7.369630e+00 7.824327e+00 7.315441e+00 7.243801e+00 5.222318e+00 6.854549e+00 4.095983e+00 -2.721815e-01 1.930226e-01 3.663403e-01 3.093578e-01 8.736666e-03 6.037385e-02 9.735709e-02 1.761099e-01 2.947677e-01 5.394502e-01 5.061072e-01 7.444907e-02 -9.391815e-03
<VARIANCE> 25
 9.313781e+00 1.385095e+01 1.862543e+01 1.793259e+01 2.088802e+01 1.961045e+01 2.149857e+01 2.065599e+01 2.007914e+01 2.390005e+01 2.143480e+01 1.597108e+01 9.627573e-01 1.638286e+00 1.770842e+00 1.937732e+00 2.244786e+00 2.254713e+00 2.252251e+00 2.240071e+00 2.285300e+00 2.516844e+00 2.200475e+00 1.815095e+00 1.030657e-03
<GCONST> 8.192403e+01
<MIXTURE> 15 2.475190e-03
<MEAN> 25
 -5.396260e+00 -6.315148e-01 -1.869199e-01 7.331396e+00 5.714119e+00 5.689764e+00 6.055339e+00 4.948810e+00 5.135044e+00 4.153424e+00 5.469626e+00 2.504491e+00 -1.200204e-01 -2.681340e-02 7.475521e-02 2.407833e-01 4.860978e-01 7.886013e-01 1.070855e+00 1.182853e+00 1.054130e+00 7.474176e-01 4.241483e-01 1.481194e-01 -7.073657e-05
<VARIANCE> 25
 7.074919e+00 5.597065e+00 9.011132e+00 1.294085e+01 1.401929e+01 1.424239e+01 1.485561e+01 1.499046e+01 1.415439e+01 1.411357e+01 1.523698e+01 1.263146e+01 1.245190e-01 2.058962e-01 3.186183e-01 5.050558e-01 6.991698e-01 7.928789e-01 7.630014e-01 7.919191e-01 9.089117e-01 1.030823e+00 1.073807e+00 1.042586e+00 2.791253e-05
<GCONST> 5.862117e+01
<MIXTURE> 16 2.475190e-03
<MEAN> 25
 -5.396260e+00 -6.315148e-01 -1.869199e-01 7.331396e+00 5.714119e+00 5.689764e+00 6.055339e+00 4.948810e+00 5.135044e+00 4.153424e+00 5.469626e+00 2.504491e+00 -1.200204e-01 -2.681340e-02 7.475521e-02 2.407833e-01 4.860978e-01 7.886013e-01 1.070855e+00 1.182853e+00 1.054130e+00 7.474176e-01 4.241483e-01 1.481194e-01 -7.073657e-05
<VARIANCE> 25
 7.074919e+00 5.597065e+00 9.011132e+00 1.294085e+01 1.401929e+01 1.424239e+01 1.485561e+01 1.499046e+01 1.415439e+01 1.411357e+01 1.523698e+01 1.263146e+01 1.245190e-01 2.058962e-01 3.186183e-01 5.050558e-01 6.991698e-01 7.928789e-01 7.630014e-01 7.919191e-01 9.089117e-01 1.030823e+00 1.073807e+00 1.042586e+00 2.791253e-05
<GCONST> 5.862117e+01
<MIXTURE> 17 9.518312e-03
<MEAN> 25
 3.764545e+00 -7.525597e-01 6.395092e+00 2.361227e+00 -6.023750e+00 -6.401075e+00 -3.146903e+00 -1.754120e-01 -2.675623e+00 -3.232916e+00 1.106284e-01 4.360078e-02 -7.293916e-01 -1.232987e+00 1.303815e+00 -2.110376e+00 -2.352875e+00 -1.866915e-01 1.375668e-01 7.714946e-01 -2.876317e-01 -1.803530e-01 1.032000e+00 3.966832e-01 8.208573e-02
<VARIANCE> 25
 1.641488e+01 3.144330e+01 2.973335e+01 3.922358e+01 4.504714e+01 4.848399e+01 4.190366e+01 3.410081e+01 3.522594e+01 2.675205e+01 2.821288e+01 2.806596e+01 1.902510e+00 2.688090e+00 4.028288e+00 3.086880e+00 4.078969e+00 5.456545e+00 5.051495e+00 4.704279e+00 4.037476e+00 3.974797e+00 3.046346e+00 2.694096e+00 2.114671e-03
<GCONST> 9.687627e+01
<MIXTURE> 18 1.221018e-02
<MEAN> 25
 3.516127e+00 4.926069e+00 5.329065e+00 4.910736e+00 -5.418478e+00 -8.463796e+00 -2.685604e+00 -9.786884e-01 -3.364782e+00 -2.066559e+00 -3.771288e-01 1.406586e+00 -1.218029e+00 2.262047e+00 -5.304099e-01 1.735926e+00 2.740514e+00 1.697925e+00 9.842521e-01 -3.672799e-01 8.042746e-01 5.215124e-01 -2.743658e-01 -2.874381e-01 -1.063484e-01
<VARIANCE> 25
 1.269007e+01 2.304226e+01 3.467189e+01 2.343803e+01 3.300994e+01 2.668470e+01 3.386427e+01 2.701700e+01 3.442334e+01 3.305879e+01 2.973981e+01 2.428550e+01 2.343928e+00 2.693953e+00 3.620415e+00 3.893142e+00 3.286212e+00 3.727748e+00 4.029941e+00 3.411612e+00 3.309383e+00 4.506059e+00 4.043220e+00 2.794562e+00 3.633143e-03
<GCONST> 9.466885e+01
<MIXTURE> 19 9.912824e-03
<MEAN> 25
 -8.807212e+00 2.072751e+00 5.290041e-01 9.499718e-01 3.537796e+00 1.593235e+00 3.488556e+00 9.599552e-01 2.228024e+00 9.687633e-01 6.135411e-01 1.760070e+00 1.886774e+00 1.554942e+00 2.054017e+00 7.315301e-01 -9.903190e-01 -1.149319e+00 -1.200453e+00 -1.343619e+00 -1.409572e+00 -1.214094e+00 -7.482913e-01 -7.686722e-01 8.033747e-03
<VARIANCE> 25
 5.383906e+01 2.607684e+01 4.314287e+01 4.621032e+01 3.214980e+01 2.801764e+01 2.964437e+01 2.727289e+01 2.476881e+01 2.389136e+01 3.295911e+01 1.993031e+01 2.260708e+00 2.190569e+00 1.989246e+00 2.074657e+00 2.606513e+00 2.198305e+00 2.643656e+00 2.103870e+00 1.844708e+00 2.030541e+00 2.389348e+00 1.592055e+00 2.406670e-03
<GCONST> 9.026692e+01
<MIXTURE> 20 6.308331e-03
<MEAN> 25
 -1.417234e+01 7.414111e+00 8.347910e-01 6.144730e+00 4.816450e+00 1.624826e+00 5.195771e+00 8.358020e-01 9.244779e-01 7.996691e-01 2.566720e+00 -2.922792e-01 -3.281242e+00 -8.617591e-01 -1.564802e+00 3.325562e-01 1.539497e+00 2.062026e+00 1.973232e+00 2.050805e+00 2.136796e+00 2.036141e+00 1.681186e+00 9.401923e-01 4.725143e-02
<VARIANCE> 25
 1.965150e+01 2.339276e+01 3.090983e+01 3.711744e+01 3.103804e+01 2.788045e+01 2.991085e+01 3.152462e+01 2.788795e+01 2.814679e+01 2.510655e+01 2.089715e+01 2.098032e+00 2.187090e+00 1.908207e+00 2.534792e+00 2.696355e+00 2.310267e+00 2.316596e+00 2.324681e+00 2.256874e+00 2.655930e+00 2.241768e+00 1.869814e+00 1.884515e-03
<GCONST> 8.922575e+01
<MIXTURE> 21 7.928653e-03
<MEAN> 25
 4.009242e+00 -4.519270e+00 5.726828e+00 -1.567955e+00 -1.044392e+01 -8.644904e+00 -2.693176e+00 4.090949e+00 -2.060275e+00 -3.383662e+00 2.698294e-01 3.801262e-01 -7.127264e-01 1.341732e+00 2.569003e+00 -2.047209e-02 -1.527535e+00 3.261503e-01 5.942758e-01 -1.511660e+00 -1.939401e+00 3.140812e-01 1.310128e+00 2.461278e-01 -1.322555e-02
<VARIANCE> 25
 9.102443e+00 1.848873e+01 2.956512e+01 2.791919e+01 3.020562e+01 3.362073e+01 4.259682e+01 3.938440e+01 4.220195e+01 3.108955e+01 3.467378e+01 2.320836e+01 3.736811e-01 9.501314e-01 1.879439e+00 1.295411e+00 2.231409e+00 2.158153e+00 3.611437e+00 2.497026e+00 2.137484e+00 2.566834e+00 2.034042e+00 2.247850e+00 4.345574e-04
<GCONST> 8.511320e+01
<MIXTURE> 22 8.827789e-03
<MEAN> 25
 -1.722330e+01 7.171582e+00 -4.069431e+00 7.298062e+00 3.316763e+00 2.808021e+00 7.711001e+00 1.012377e+00 4.411846e+00 3.114777e+00 5.469781e+00 1.306566e+00 -2.585156e-01 -1.471929e-01 -1.029082e-01 2.974487e-02 3.906988e-02 2.237330e-01 1.918331e-01 2.818170e-01 2.570420e-01 2.942866e-01 1.090696e-01 1.902628e-01 7.949824e-03
<VARIANCE> 25
 9.599145e+00 1.478864e+01 1.521738e+01 2.215629e+01 2.884471e+01 1.830240e+01 1.979436e+01 1.978575e+01 2.192951e+01 1.884650e+01 1.815374e+01 1.216111e+01 1.006126e+00 1.204072e+00 1.217268e+00 1.649098e+00 1.256345e+00 1.668946e+00 1.349264e+00 1.413171e+00 1.708759e+00 1.517967e+00 1.218215e+00 1.129510e+00 1.522635e-03
<GCONST> 7.744305e+01
<MIXTURE> 23 6.455497e-03
<MEAN> 25
 7.828813e+00 2.416061e+00 2.984121e+00 2.323831e+00 -4.736387e+00 -3.096416e+00 -4.135714e+00 -6.374741e+00 -3.447291e+00 -1.001471e+00 -3.957406e+00 -2.164772e+00 3.659263e-02 1.712532e-01 1.235300e-02 7.224608e-02 7.290301e-03 3.956161e-02 -9.180890e-03 -2.725235e-02 7.717810e-03 5.731079e-02 -4.301601e-03 2.411920e-02 -4.440387e-03
<VARIANCE> 25
 1.086866e+01 2.196763e+01 2.453289e+01 4.029201e+01 3.900204e+01 5.343383e+01 5.970362e+01 5.495359e+01 4.708703e+01 4.610457e+01 4.867331e+01 3.969595e+01 1.163655e-01 2.898214e-01 3.762566e-01 4.929281e-01 5.901628e-01 6.979197e-01 8.190774e-01 8.997975e-01 8.687569e-01 8.806179e-01 8.178858e-01 7.634870e-01 8.641499e-05
<GCONST> 7.294417e+01
<MIXTURE> 24 6.455497e-03
<MEAN> 25
 7.828813e+00 2.416061e+00 2.984121e+00 2.323831e+00 -4.736387e+00 -3.096416e+00 -4.135714e+00 -6.374741e+00 -3.447291e+00 -1.001471e+00 -3.957406e+00 -2.164772e+00 3.659263e-02 1.712532e-01 1.235300e-02 7.224608e-02 7.290301e-03 3.956161e-02 -9.180890e-03 -2.725235e-02 7.717810e-03 5.731079e-02 -4.301601e-03 2.411920e-02 -4.440387e-03
<VARIANCE> 25
 1.086866e+01 2.196763e+01 2.453289e+01 4.029201e+01 3.900204e+01 5.343383e+01 5.970362e+01 5.495359e+01 4.708703e+01 4.610457e+01 4.867331e+01 3.969595e+01 1.163655e-01 2.898214e-01 3.762566e-01 4.929281e-01 5.901628e-01 6.979197e-01 8.190774e-01 8.997975e-01 8.687569e-01 8.806179e-01 8.178858e-01 7.634870e-01 8.641499e-05
<GCONST> 7.294417e+01
<MIXTURE> 25 1.118642e-02
<MEAN> 25
 3.894955e-01 3.356877e+00 1.661602e+01 -1.055754e+00 -1.133233e+01 -1.938133e+00 -5.057374e+00 -2.886004e+00 -6.888213e+00 -5.311251e+00 4.191507e+00 -1.496664e+00 -1.446892e-01 4.415094e-01 1.449913e-01 1.692384e-01 2.425822e-01 1.143711e-01 2.338202e-01 -1.694382e-01 -2.394759e-01 9.378313e-02 -7.237402e-02 -9.946606e-02 -1.334421e-02
<VARIANCE> 25
 9.021339e+00 2.237960e+01 2.146532e+01 2.799952e+01 3.090306e+01 4.134299e+01 2.697986e+01 2.944827e+01 2.782283e+01 3.686527e+01 2.077152e+01 2.783138e+01 5.898401e-01 1.429324e+00 1.399663e+00 1.378719e+00 2.251403e+00 2.007112e+00 1.822614e+00 1.673248e+00 1.522242e+00 1.640054e+00 1.335447e+00 1.271448e+00 1.265481e-03
<GCONST> 8.265866e+01
<MIXTURE> 26 7.727677e-03
<MEAN> 25
 2.236557e+00 -6.339850e+00 -9.961242e+00 -1.297973e+00 7.735411e+00 5.561413e+00 3.954690e+00 -2.514427e-01 2.147362e+00 -7.336668e-01 -2.968563e+00 -1.286683e+00 -6.689640e-01 6.899889e-01 3.672247e-01 6.805865e-01 1.693803e-01 2.191464e-01 3.050786e-01 2.823603e-01 2.971086e-01 1.381402e-01 3.820258e-01 4.233008e-01 -5.280395e-02
<VARIANCE> 25
 2.436552e+01 3.430631e+01 2.771235e+01 6.841852e+01 3.831639e+01 4.084348e+01 4.524112e+01 4.204601e+01 3.783586e+01 5.295216e+01 3.827145e+01 4.672597e+01 1.572575e+00 1.999000e+00 1.900447e+00 2.007595e+00 2.238278e+00 2.290161e+00 2.501844e+00 2.682370e+00 2.379849e+00 2.374153e+00 2.092080e+00 1.960101e+00 3.209075e-03
<GCONST> 9.364449e+01
<MIXTURE> 27 7.727677e-03
<MEAN> 25
 2.236557e+00 -6.339850e+00 -9.961242e+00 -1.297973e+00 7.735411e+00 5.561413e+00 3.954690e+00 -2.514427e-01 2.147362e+00 -7.336668e-01 -2.968563e+00 -1.286683e+00 -6.689640e-01 6.899889e-01 3.672247e-01 6.805865e-01 1.693803e-01 2.191464e-01 3.050786e-01 2.823603e-01 2.971086e-01 1.381402e-01 3.820258e-01 4.233008e-01 -5.280395e-02
<VARIANCE> 25
 2.436552e+01 3.430631e+01 2.771235e+01 6.841852e+01 3.831639e+01 4.084348e+01 4.524112e+01 4.204601e+01 3.783586e+01 5.295216e+01 3.827145e+01 4.672597e+01 1.572575e+00 1.999000e+00 1.900447e+00 2.007595e+00 2.238278e+00 2.290161e+00 2.501844e+00 2.682370e+00 2.379849e+00 2.374153e+00 2.092080e+00 1.960101e+00 3.209075e-03
<GCONST> 9.364449e+01
<MIXTURE> 28 5.036674e-03
<MEAN> 25
 -5.418386e+00 2.459481e-02 -1.526371e+00 6.577212e+00 5.236080e+00 3.513843e+00 5.378559e+00 3.068441e+00 3.855912e+00 2.408240e+00 2.608022e+00 3.173250e+00 -1.161976e-01 2.240694e-01 5.259801e-01 7.782910e-01 8.148419e-01 6.997733e-01 5.260880e-01 3.983387e-01 4.472457e-01 4.820041e-01 3.717914e-01 1.884933e-01 -1.752275e-06
<VARIANCE> 25
 1.046202e+01 8.284829e+00 1.223174e+01 1.487366e+01 1.459262e+01 1.760143e+01 1.808500e+01 1.930830e+01 1.746774e+01 1.670283e+01 2.058152e+01 1.509096e+01 2.546000e-01 3.333988e-01 4.044470e-01 4.675339e-01 6.230776e-01 8.408594e-01 1.055701e+00 1.141024e+00 1.096591e+00 1.033312e+00 1.037782e+00 1.065396e+00 1.018751e-06
<GCONST> 6.026746e+01
<MIXTURE> 29 5.036674e-03
<MEAN> 25
 -5.418386e+00 2.459481e-02 -1.526371e+00 6.577212e+00 5.236080e+00 3.513843e+00 5.378559e+00 3.068441e+00 3.855912e+00 2.408240e+00 2.608022e+00 3.173250e+00 -1.161976e-01 2.240694e-01 5.259801e-01 7.782910e-01 8.148419e-01 6.997733e-01 5.260880e-01 3.983387e-01 4.472457e-01 4.820041e-01 3.717914e-01 1.884933e-01 -1.752275e-06
<VARIANCE> 25
 1.046202e+01 8.284829e+00 1.223174e+01 1.487366e+01 1.459262e+01 1.760143e+01 1.808500e+01 1.930830e+01 1.746774e+01 1.670283e+01 2.058152e+01 1.509096e+01 2.546000e-01 3.333988e-01 4.044470e-01 4.675339e-01 6.230776e-01 8.408594e-01 1.055701e+00 1.141024e+00 1.096591e+00 1.033312e+00 1.037782e+00 1.065396e+00 1.018751e-06
<GCONST> 6.026746e+01
<MIXTURE> 30 8.917812e-03
<MEAN> 25
 -4.468835e+00 -1.830943e-01 6.647877e-01 9.032985e+00 7.742637e+00 7.483167e+00 7.554154e+00 6.844844e+00 6.521860e+00 4.894302e+00 6.976688e+00 3.465578e+00 -2.291964e-02 3.230010e-02 5.906608e-02 9.077402e-02 8.151183e-02 4.355946e-02 1.420495e-02 -4.472309e-04 1.589337e-02 4.989693e-02 6.150841e-02 3.201732e-02 -5.059400e-04
<VARIANCE> 25
 7.000033e+00 9.825878e+00 1.035619e+01 1.411895e+01 1.583386e+01 1.643002e+01 1.914985e+01 1.827850e+01 1.631463e+01 1.827903e+01 2.132988e+01 1.450038e+01 9.726574e-02 1.998099e-01 3.253925e-01 4.817015e-01 6.169564e-01 7.240868e-01 7.685447e-01 8.103096e-01 8.736025e-01 9.357398e-01 9.228427e-01 8.609041e-01 5.174805e-05
<GCONST> 6.064034e+01
<MIXTURE> 31 4.136493e-03
<MEAN> 25
 -3.282080e+00 -5.640371e+00 6.584225e-02 4.842464e+00 3.682208e+00 1.700257e+00 5.235837e+00 6.601169e+00 2.732767e+00 1.262303e+00 6.503536e+00 3.129029e+00 2.534419e-01 4.748389e-01 -2.074664e-01 3.100751e-01 1.239631e-01 4.238705e-01 1.904654e-01 1.306602e-02 3.731267e-01 3.781065e-01 1.085862e-01 1.158396e-01 -1.828661e-02
<VARIANCE> 25
 7.185592e+00 1.552157e+01 1.738641e+01 1.807987e+01 2.516351e+01 2.371572e+01 2.349241e+01 2.552831e+01 2.579970e+01 2.805767e+01 2.031699e+01 1.874375e+01 1.903769e-01 4.905124e-01 6.023277e-01 7.705944e-01 9.624618e-01 1.088182e+00 1.217242e+00 1.388093e+00 1.343733e+00 1.315553e+00 1.250107e+00 1.140863e+00 2.601774e-04
<GCONST> 7.182941e+01
<MIXTURE> 32 4.136493e-03
<MEAN> 25
 -3.282080e+00 -5.640371e+00 6.584225e-02 4.842464e+00 3.682208e+00 1.700257e+00 5.235837e+00 6.601169e+00 2.732767e+00 1.262303e+00 6.503536e+00 3.129029e+00 2.534419e-01 4.748389e-01 -2.074664e-01 3.100751e-01 1.239631e-01 4.238705e-01 1.904654e-01 1.306602e-02 3.731267e-01 3.781065e-01 1.085862e-01 1.158396e-01 -1.828661e-02
<VARIANCE> 25
 7.185592e+00 1.552157e+01 1.738641e+01 1.807987e+01 2.516351e+01 2.371572e+01 2.349241e+01 2.552831e+01 2.579970e+01 2.805767e+01 2.031699e+01 1.874375e+01 1.903769e-01 4.905124e-01 6.023277e-01 7.705944e-01 9.624618e-01 1.088182e+00 1.217242e+00 1.388093e+00 1.343733e+00 1.315553e+00 1.250107e+00 1.140863e+00 2.601774e-04
<GCONST> 7.182941e+01
<MIXTURE> 33 1.508826e-02
<MEAN> 25
 6.679671e+00 -4.582890e+00 -2.533162e+00 -3.255796e+00 -1.576222e+00 -5.713349e+00 -7.711467e+00 2.620917e+00 2.266214e+00 -7.732953e-01 -5.291903e+00 -2.722732e+00 7.000036e-01 -1.396879e+00 -2.361996e+00 -1.955705e+00 1.341546e+00 1.484385e+00 -7.599922e-01 1.030692e+00 9.484876e-01 4.185357e-01 -3.022496e-01 -1.226900e+00 4.225987e-02
<VARIANCE> 25
 9.056332e+00 2.241199e+01 2.730255e+01 3.653304e+01 3.807095e+01 4.007707e+01 4.130846e+01 4.958942e+01 3.670006e+01 4.077838e+01 3.449006e+01 2.636065e+01 1.073967e+00 2.229604e+00 2.070421e+00 2.069522e+00 3.941358e+00 3.212940e+00 3.924267e+00 6.297901e+00 3.493891e+00 4.180706e+00 3.064799e+00 2.467728e+00 1.538466e-03
<GCONST> 9.354593e+01
<MIXTURE> 34 1.588179e-02
<MEAN> 25
 8.883606e+00 -2.150152e-01 8.699712e-02 9.143432e-01 -2.955033e+00 -1.514513e+00 -5.946285e+00 -4.409359e+00 -1.686331e+00 1.436419e-01 -2.977201e+00 -3.486067e+00 -5.270844e-02 1.414494e+00 1.430064e+00 2.409138e+00 -1.125701e-01 -2.094472e-01 8.090538e-01 -1.659848e+00 -8.997034e-01 2.780635e-01 -4.724629e-01 2.873692e-01 -6.201438e-02
<VARIANCE> 25
 7.528136e+00 3.186432e+01 2.852621e+01 5.064670e+01 4.105947e+01 4.824401e+01 5.411480e+01 5.654309e+01 5.110218e+01 4.183408e+01 4.999075e+01 3.193087e+01 1.263903e+00 2.091341e+00 4.165950e+00 3.992229e+00 5.568487e+00 5.686369e+00 5.479398e+00 5.970628e+00 5.044106e+00 4.878052e+00 5.099544e+00 3.794957e+00 1.125331e-03
<GCONST> 9.946556e+01
<MIXTURE> 35 1.467755e-02
<MEAN> 25
 -2.266998e+00 -5.242435e+00 -9.880583e+00 1.070485e+00 9.229169e+00 -1.228978e-01 1.236124e+00 2.144659e+00 2.182231e+00 3.326729e+00 -1.364755e-01 1.576562e+00 4.649444e-01 -1.128834e+00 -1.550944e+00 -1.261037e+00 5.205035e-01 -8.361793e-01 -6.371350e-01 -5.800809e-02 2.754335e-02 -4.484913e-02 -5.573459e-01 -3.634472e-01 1.045429e-01
<VARIANCE> 25
 1.759598e+01 2.623525e+01 3.918347e+01 5.986654e+01 3.953168e+01 5.663176e+01 4.616371e+01 3.912156e+01 4.848769e+01 4.409707e+01 3.238717e+01 2.792273e+01 3.400722e+00 3.223711e+00 6.665228e+00 5.914745e+00 4.790052e+00 5.627651e+00 4.355446e+00 4.181365e+00 5.479782e+00 4.310102e+00 3.661812e+00 3.590174e+00 5.007834e-03
<GCONST> 1.022361e+02
<MIXTURE> 36 1.093293e-02
<MEAN> 25
 5.233675e+00 -3.453546e+00 7.463089e+00 1.044390e+00 -1.083288e+01 -9.464853e+00 -7.077417e+00 3.204088e+00 -2.360065e+00 -3.882001e+00 4.393431e+00 1.529441e+00 1.864425e-01 2.210570e-01 -6.952460e-01 2.481111e-01 9.099800e-01 6.777123e-02 1.547230e-02 -2.309075e-01 6.783266e-02 4.049425e-01 -2.125387e-01 -2.771175e-01 -1.789921e-02
<VARIANCE> 25
 7.720788e+00 1.317547e+01 1.589871e+01 2.420336e+01 2.290556e+01 2.289322e+01 3.479312e+01 2.909221e+01 2.895280e+01 2.671886e+01 2.449019e+01 2.361529e+01 4.050716e-01 7.418350e-01 1.285296e+00 1.161769e+00 1.279482e+00 1.258297e+00 2.756690e+00 2.438159e+00 1.796529e+00 1.728944e+00 1.555632e+00 1.064440e+00 6.629995e-04
<GCONST> 7.861430e+01
<MIXTURE> 37 1.246826e-02
<MEAN> 25
 5.634322e-01 7.713715e+00 1.201073e+01 -5.492208e+00 -8.018725e+00 -1.094871e+00 -5.033607e+00 -8.279531e+00 -3.727556e+00 -8.289610e-01 -3.549651e+00 -1.255529e+00 1.562842e-01 6.487913e-01 -1.356476e+00 3.570040e+00 1.987899e+00 -2.779667e-01 1.108862e+00 4.114438e-01 5.285705e-01 -3.183475e-01 5.289355e-01 -9.819544e-02 -9.425206e-02
<VARIANCE> 25
 1.581623e+01 2.611034e+01 3.081455e+01 5.090924e+01 3.363124e+01 3.187903e+01 4.378826e+01 3.490121e+01 3.827605e+01 3.630313e+01 3.892508e+01 3.071759e+01 2.994703e+00 3.393814e+00 2.989582e+00 4.079652e+00 4.577082e+00 3.774322e+00 4.209638e+00 3.833594e+00 3.416860e+00 3.591512e+00 3.844847e+00 2.764759e+00 3.936328e-03
<GCONST> 9.774471e+01
<MIXTURE> 38 1.154525e-02
<MEAN> 25
 -4.380887e+00 8.386771e+00 4.349775e+00 3.283604e+00 3.386532e-02 -5.143091e+00 -3.140689e-01 -2.920094e+00 -2.698030e+00 -2.819990e+00 -9.756524e-01 -1.796762e-01 -4.422716e+00 1.322957e+00 -5.164564e-01 1.347382e+00 2.386580e+00 1.352787e+00 1.926401e+00 7.858884e-01 8.663205e-01 5.154906e-01 8.175704e-01 2.718341e-01 4.589082e-02
<VARIANCE> 25
 3.063427e+01 3.319547e+01 3.725880e+01 3.110427e+01 5.040965e+01 3.322513e+01 3.591564e+01 3.884748e+01 3.351927e+01 3.084222e+01 2.533296e+01 2.739812e+01 2.222234e+00 3.634153e+00 3.950480e+00 4.799329e+00 4.125703e+00 4.607411e+00 4.638906e+00 4.543987e+00 4.130262e+00 4.631879e+00 4.415893e+00 3.026881e+00 2.031836e-03
<GCONST> 9.844420e+01
<MIXTURE> 39 9.501865e-03
<MEAN> 25
 1.335233e+00 2.587140e+00 1.017208e+01 -9.192451e+00 -1.122541e+01 -9.814232e-01 -2.960272e+00 -6.558265e+00 -4.504668e+00 8.807560e-01 -3.669600e+00 -2.295655e+00 -7.304259e-01 1.524187e+00 1.625656e+00 -1.385332e+00 7.794458e-02 1.224882e+00 -1.192893e+00 -1.253419e+00 4.273715e-01 4.467935e-01 -5.007975e-01 1.224646e-01 1.108358e-03
<VARIANCE> 25
 8.900095e+00 3.017294e+01 3.190930e+01 3.839375e+01 3.802309e+01 4.258745e+01 4.424657e+01 3.344803e+01 3.934276e+01 3.311952e+01 3.608914e+01 2.934512e+01 6.894251e-01 1.542505e+00 1.529341e+00 2.929971e+00 2.417170e+00 2.819421e+00 3.055665e+00 2.738036e+00 2.429616e+00 2.607619e+00 2.128107e+00 2.067907e+00 1.188771e-03
<GCONST> 8.967562e+01
<MIXTURE> 40 1.030800e-02
<MEAN> 25
 -9.707123e+00 3.376416e+00 -1.511145e+00 7.707808e+00 2.119129e+00 4.591774e+00 4.601565e+00 2.996722e+00 3.795077e+00 4.191567e+00 5.271071e+00 2.118246e+00 5.982306e-03 -2.116680e-01 -5.430686e-02 -1.425177e-01 2.976148e-02 -1.061098e-01 1.806352e-02 2.468825e-01 8.432001e-02 -6.274835e-02 4.395588e-02 2.032181e-01 9.585964e-04
<VARIANCE> 25
 3.529499e+01 1.959736e+01 2.374815e+01 2.224795e+01 2.747798e+01 1.649008e+01 1.643604e+01 1.981331e+01 1.927232e+01 1.617210e+01 1.577900e+01 1.298571e+01 6.036644e-01 6.074917e-01 7.454737e-01 1.157447e+00 9.422805e-01 1.231998e+00 1.125461e+00 1.156660e+00 1.399078e+00 1.414426e+00 1.020339e+00 1.206939e+00 7.038104e-04
<GCONST> 7.461629e+01
<MIXTURE> 41 6.713375e-03
<MEAN> 25
 1.312101e+00 1.792521e+00 1.045051e+01 -6.932393e+00 -1.045908e+01 -3.857968e+00 -2.480430e+00 -5.049051e+00 -4.653852e+00 2.648391e+00 -1.719003e+00 -9.397410e-01 8.739224e-02 -7.673011e-01 1.703041e+00 -3.544881e+00 -2.462901e+00 -1.243187e-01 -5.142887e-01 -3.569629e-01 -8.290703e-01 1.082785e+00 -1.038646e+00 8.216481e-02 8.622736e-02
<VARIANCE> 25
 1.167101e+01 2.957054e+01 3.266393e+01 4.009319e+01 3.862545e+01 4.002066e+01 3.701547e+01 2.977163e+01 3.305717e+01 2.871341e+01 3.195506e+01 2.713845e+01 3.188370e+00 3.309593e+00 3.823567e+00 3.832287e+00 4.890738e+00 5.880210e+00 4.711900e+00 4.543518e+00 3.966942e+00 4.209077e+00 3.835461e+00 3.211198e+00 2.921623e-03
<GCONST> 9.789163e+01
<MIXTURE> 42 1.106211e-02
<MEAN> 25
 -1.635582e+00 4.740865e+00 4.404193e+00 2.923018e+00 -3.677852e-03 -5.922756e+00 -8.768139e-01 -2.251641e+00 -1.456883e+00 -1.531470e+00 -2.348812e+00 1.151125e+00 3.966206e+00 -5.646980e-01 1.492231e+00 3.385790e-03 -2.739044e+00 -1.345479e+00 -2.292600e+00 -7.464924e-01 -6.857775e-01 -5.893506e-01 3.965139e-01 -8.885386e-01 1.694777e-02
<VARIANCE> 25
 3.262576e+01 1.940460e+01 4.150785e+01 2.357970e+01 3.827758e+01 3.590234e+01 3.266817e+01 2.497575e+01 2.723683e+01 2.522646e+01 2.043706e+01 1.744504e+01 3.450562e+00 4.627721e+00 5.924254e+00 4.619442e+00 4.490657e+00 5.667227e+00 4.729549e+00 4.656587e+00 4.549390e+00 4.492453e+00 3.955519e+00 3.170815e+00 4.437211e-03
<GCONST> 9.816016e+01
<MIXTURE> 43 7.108249e-03
<MEAN> 25
 3.067159e+00 -6.196905e+00 -2.167111e+00 -5.139465e+00 -6.914382e+00 -3.161522e+00 3.863215e+00 1.145253e+00 -4.844677e+00 -6.779481e+00 -4.279100e+00 -1.326090e+00 1.950037e-01 2.167866e+00 1.947220e+00 -1.125226e-01 -1.421410e+00 -7.391784e-01 -9.234926e-01 -8.223476e-01 7.602478e-01 1.450063e+00 3.829164e-01 3.009322e-02 -4.500175e-02
<VARIANCE> 25
 1.000025e+01 2.006733e+01 2.640384e+01 3.529418e+01 4.241900e+01 3.658241e+01 3.367014e+01 3.952814e+01 3.916786e+01 3.928208e+01 2.619986e+01 2.866121e+01 7.042679e-01 1.202853e+00 1.585804e+00 2.506632e+00 2.293338e+00 2.372941e+00 2.637716e+00 2.961513e+00 2.594696e+00 2.490722e+00 2.334275e+00 1.915204e+00 9.050858e-04
<GCONST> 8.790652e+01
<MIXTURE> 44 7.328289e-03
<MEAN> 25
 -1.490580e+01 1.951347e+00 3.066629e+00 -2.676226e+00 2.929552e+00 2.010018e+00 6.893961e-02 1.923000e+00 1.328267e+00 -6.595847e-01 1.920483e+00 1.966994e+00 -2.039744e-01 1.218374e-02 8.518793e-02 3.474465e-01 -5.387584e-02 3.004143e-01 4.506730e-01 1.446782e-01 1.589655e-01 1.362800e-01 6.094749e-02 4.573778e-02 5.676315e-03
<VARIANCE> 25
 4.210075e+01 2.722697e+01 3.512372e+01 3.179392e+01 3.027645e+01 2.803314e+01 2.329114e+01 3.225342e+01 2.606588e+01 2.568951e+01 2.559766e+01 1.813242e+01 1.196686e+00 1.484176e+00 1.469900e+00 1.313982e+00 2.106896e+00 1.798841e+00 1.409380e+00 1.570672e+00 1.627220e+00 1.473178e+00 1.388215e+00 1.203781e+00 1.223885e-03
<GCONST> 8.406345e+01
<MIXTURE> 45 1.364932e-02
<MEAN> 25
 -1.176805e+01 3.752006e+00 -1.048630e+00 2.931386e+00 3.533879e+00 -6.582735e-01 4.372910e+00 1.202036e+00 2.972149e+00 2.013721e+00 2.628276e+00 2.907041e+00 -2.992263e+00 7.987612e-01 -8.619773e-01 -4.093619e-01 2.877355e-01 1.688029e-01 3.254395e-01 3.993088e-02 9.856063e-02 -1.270697e-01 6.624158e-02 7.019114e-02 1.058278e-01
<VARIANCE> 25
 3.119771e+01 2.714506e+01 2.741093e+01 3.075890e+01 4.628862e+01 2.741624e+01 2.559562e+01 3.266413e+01 2.182052e+01 1.969028e+01 2.382091e+01 1.350193e+01 2.201542e+00 2.778230e+00 2.952788e+00 2.279488e+00 2.114174e+00 2.450972e+00 2.076412e+00 1.982683e+00 2.261003e+00 1.824479e+00 1.919369e+00 1.420778e+00 4.045205e-03
<GCONST> 8.882470e+01
<MIXTURE> 46 9.336259e-03
<MEAN> 25
 -9.350626e+00 2.221143e+00 8.212563e-01 7.760640e+00 5.865498e+00 3.001824e+00 6.687473e+00 3.929958e+00 5.814187e+00 4.654308e+00 4.823914e+00 2.641512e+00 1.176612e+00 -2.889415e-01 1.975638e-01 7.153566e-01 6.230008e-01 9.802806e-01 4.342345e-01 4.773810e-01 3.634001e-01 5.885376e-01 7.445939e-01 4.670649e-01 -1.037026e-01
<VARIANCE> 25
 3.218185e+01 4.028113e+01 3.688890e+01 4.674220e+01 4.698449e+01 3.856600e+01 3.532788e+01 3.616707e+01 3.102112e+01 2.952779e+01 2.770752e+01 1.931939e+01 3.761871e+00 3.822711e+00 3.825287e+00 4.681863e+00 3.873034e+00 3.444459e+00 3.129720e+00 3.320573e+00 2.948822e+00 2.806257e+00 2.236107e+00 1.693825e+00 7.354572e-03
<GCONST> 9.734025e+01
<MIXTURE> 47 7.116147e-03
<MEAN> 25
 7.422906e+00 -8.017591e+00 -7.560691e+00 -6.771287e+00 1.572592e+00 9.946898e-01 -2.840377e+00 1.836951e+00 2.844630e+00 -8.825181e-02 -4.279584e+00 -6.476266e+00 -1.661121e-01 -1.364064e+00 -6.142038e-01 -4.294590e-01 6.174644e-01 9.022889e-01 7.281995e-01 3.726909e-01 1.614847e-01 -8.720109e-01 -4.526019e-01 -4.806919e-01 3.173215e-02
<VARIANCE> 25
 1.005164e+01 2.352488e+01 1.907251e+01 3.211308e+01 3.344912e+01 4.988297e+01 4.360649e+01 4.424279e+01 4.034757e+01 4.358303e+01 4.742101e+01 3.245465e+01 4.800468e-01 9.357820e-01 1.116026e+00 1.543287e+00 1.838030e+00 2.096336e+00 2.374971e+00 2.350636e+00 2.024954e+00 2.208200e+00 2.011076e+00 1.879897e+00 5.347166e-04
<GCONST> 8.573177e+01
<MIXTURE> 48 7.116147e-03
<MEAN> 25
 7.422906e+00 -8.017591e+00 -7.560691e+00 -6.771287e+00 1.572592e+00 9.946898e-01 -2.840377e+00 1.836951e+00 2.844630e+00 -8.825181e-02 -4.279584e+00 -6.476266e+00 -1.661121e-01 -1.364064e+00 -6.142038e-01 -4.294590e-01 6.174644e-01 9.022889e-01 7.281995e-01 3.726909e-01 1.614847e-01 -8.720109e-01 -4.526019e-01 -4.806919e-01 3.173215e-02
<VARIANCE> 25
 1.005164e+01 2.352488e+01 1.907251e+01 3.211308e+01 3.344912e+01 4.988297e+01 4.360649e+01 4.424279e+01 4.034757e+01 4.358303e+01 4.742101e+01 3.245465e+01 4.800468e-01 9.357820e-01 1.116026e+00 1.543287e+00 1.838030e+00 2.096336e+00 2.374971e+00 2.350636e+00 2.024954e+00 2.208200e+00 2.011076e+00 1.879897e+00 5.347166e-04
<GCONST> 8.573177e+01
<MIXTURE> 49 5.548473e-03
<MEAN> 25
 -4.642604e+00 4.674817e-01 3.538696e-01 7.978552e+00 6.128471e+00 5.415194e+00 5.854216e+00 3.896300e+00 4.498859e+00 3.819335e+00 5.032610e+00 2.678555e+00 3.241778e-01 6.689761e-01 7.420707e-01 3.608074e-01 -1.524267e-01 -6.024567e-01 -9.922977e-01 -9.783660e-01 -9.970835e-01 -7.711604e-01 -4.201457e-01 -3.163818e-01 2.654760e-04
<VARIANCE> 25
 1.105278e+01 9.422836e+00 1.355908e+01 1.732139e+01 1.546889e+01 1.651712e+01 1.848693e+01 2.215995e+01 2.000059e+01 1.679737e+01 1.928063e+01 1.375734e+01 2.813128e-01 2.463254e-01 3.511613e-01 5.676552e-01 8.328127e-01 9.580533e-01 9.279199e-01 1.202093e+00 1.080159e+00 1.225034e+00 1.252559e+00 1.142532e+00 1.450770e-05
<GCONST> 6.410699e+01
<MIXTURE> 50 6.234641e-03
<MEAN> 25
 -4.350317e+00 1.299315e-01 -1.312148e+00 5.818089e+00 4.419533e+00 2.569236e+00 3.818501e+00 1.775466e+00 2.518574e+00 1.238300e+00 1.776756e+00 2.377297e+00 1.471298e-02 1.811014e-01 1.210541e-01 -1.758003e-01 -5.104082e-01 -5.665977e-01 -4.281473e-01 -2.071522e-02 5.470957e-01 8.245015e-01 7.553154e-01 4.684639e-01 -4.264401e-06
<VARIANCE> 25
 1.094067e+01 1.038802e+01 1.357877e+01 1.615244e+01 1.485807e+01 1.843465e+01 1.759805e+01 1.889634e+01 1.807648e+01 1.740677e+01 2.218205e+01 1.665127e+01 1.593596e-01 2.264646e-01 3.699965e-01 4.833589e-01 5.621486e-01 7.203867e-01 9.393450e-01 1.080779e+00 1.203011e+00 9.764841e-01 9.352703e-01 1.028615e+00 1.024258e-06
<GCONST> 5.955234e+01
<MIXTURE> 51 6.234641e-03
<MEAN> 25
 -4.350317e+00 1.299315e-01 -1.312148e+00 5.818089e+00 4.419533e+00 2.569236e+00 3.818501e+00 1.775466e+00 2.518574e+00 1.238300e+00 1.776756e+00 2.377297e+00 1.471298e-02 1.811014e-01 1.210541e-01 -1.758003e-01 -5.104082e-01 -5.665977e-01 -4.281473e-01 -2.071522e-02 5.470957e-01 8.245015e-01 7.553154e-01 4.684639e-01 -4.264401e-06
<VARIANCE> 25
 1.094067e+01 1.038802e+01 1.357877e+01 1.615244e+01 1.485807e+01 1.843465e+01 1.759805e+01 1.889634e+01 1.807648e+01 1.740677e+01 2.218205e+01 1.665127e+01 1.593596e-01 2.264646e-01 3.699965e-01 4.833589e-01 5.621486e-01 7.203867e-01 9.393450e-01 1.080779e+00 1.203011e+00 9.764841e-01 9.352703e-01 1.028615e+00 1.024258e-06
<GCONST> 5.955234e+01
<MIXTURE> 52 6.367945e-03
<MEAN> 25
 1.011825e+01 2.045619e+00 -6.195609e+00 -1.428377e+01 -4.216659e+00 8.535785e+00 -2.746711e+00 -3.057598e+00 -4.404359e+00 -2.127336e+00 3.348227e+00 7.419115e-01 -3.860765e-01 -4.788651e-01 -6.946808e-02 1.139846e+00 1.339121e+00 -4.735656e-01 -6.024545e-01 -6.587327e-01 4.396151e-02 1.246864e+00 3.872571e-01 -5.450609e-01 -1.384089e-02
<VARIANCE> 25
 9.325177e+00 2.051594e+01 2.532567e+01 3.858774e+01 4.573578e+01 3.069808e+01 4.657249e+01 4.892310e+01 4.305253e+01 4.604875e+01 3.997241e+01 3.002008e+01 4.495601e-01 1.482851e+00 1.309662e+00 2.758794e+00 2.327795e+00 2.198644e+00 2.985168e+00 2.797875e+00 3.007533e+00 2.666523e+00 2.518904e+00 2.278006e+00 1.546092e-03
<GCONST> 8.973744e+01
<MIXTURE> 53 6.367945e-03
<MEAN> 25
 1.011825e+01 2.045619e+00 -6.195609e+00 -1.428377e+01 -4.216659e+00 8.535785e+00 -2.746711e+00 -3.057598e+00 -4.404359e+00 -2.127336e+00 3.348227e+00 7.419115e-01 -3.860765e-01 -4.788651e-01 -6.946808e-02 1.139846e+00 1.339121e+00 -4.735656e-01 -6.024545e-01 -6.587327e-01 4.396151e-02 1.246864e+00 3.872571e-01 -5.450609e-01 -1.384089e-02
<VARIANCE> 25
 9.325177e+00 2.051594e+01 2.532567e+01 3.858774e+01 4.573578e+01 3.069808e+01 4.657249e+01 4.892310e+01 4.305253e+01 4.604875e+01 3.997241e+01 3.002008e+01 4.495601e-01 1.482851e+00 1.309662e+00 2.758794e+00 2.327795e+00 2.198644e+00 2.985168e+00 2.797875e+00 3.007533e+00 2.666523e+00 2.518904e+00 2.278006e+00 1.546092e-03
<GCONST> 8.973744e+01
<MIXTURE> 54 7.368620e-03
<MEAN> 25
 -3.355094e+00 1.724479e-01 -5.563941e-01 7.605054e+00 6.462933e+00 4.529061e+00 4.575627e+00 4.307277e+00 3.921900e+00 3.662437e+00 4.253836e+00 2.054538e+00 -7.410426e-03 1.957101e-02 2.965250e-02 4.027390e-02 2.725163e-02 1.597084e-02 3.814337e-02 1.175737e-02 8.143717e-02 8.371955e-02 -5.195419e-02 3.123518e-02 -6.365198e-05
<VARIANCE> 25
 9.409668e+00 9.875710e+00 8.807821e+00 1.929058e+01 1.237994e+01 1.285211e+01 1.185946e+01 1.165136e+01 1.079149e+01 1.282015e+01 1.723733e+01 1.289373e+01 3.958629e-02 8.516829e-02 1.521034e-01 2.146357e-01 3.072921e-01 3.923289e-01 4.370517e-01 5.511248e-01 5.345347e-01 5.546400e-01 5.893372e-01 5.674076e-01 1.035058e-06
<GCONST> 4.719994e+01
<MIXTURE> 55 7.368620e-03
<MEAN> 25
 -3.355094e+00 1.724479e-01 -5.563941e-01 7.605054e+00 6.462933e+00 4.529061e+00 4.575627e+00 4.307277e+00 3.921900e+00 3.662437e+00 4.253836e+00 2.054538e+00 -7.410426e-03 1.957101e-02 2.965250e-02 4.027390e-02 2.725163e-02 1.597084e-02 3.814337e-02 1.175737e-02 8.143717e-02 8.371955e-02 -5.195419e-02 3.123518e-02 -6.365198e-05
<VARIANCE> 25
 9.409668e+00 9.875710e+00 8.807821e+00 1.929058e+01 1.237994e+01 1.285211e+01 1.185946e+01 1.165136e+01 1.079149e+01 1.282015e+01 1.723733e+01 1.289373e+01 3.958629e-02 8.516829e-02 1.521034e-01 2.146357e-01 3.072921e-01 3.923289e-01 4.370517e-01 5.511248e-01 5.345347e-01 5.546400e-01 5.893372e-01 5.674076e-01 1.035058e-06
<GCONST> 4.719994e+01
<MIXTURE> 56 6.132464e-03
<MEAN> 25
 7.338982e+00 -6.988175e+00 -8.672082e+00 -8.867199e+00 3.801536e+00 4.138783e+00 -2.077039e+00 -1.059234e+00 2.112534e+00 7.768210e-01 -2.487795e+00 -7.036716e+00 -7.448404e-02 1.862998e-02 3.151889e-02 4.940854e-02 1.520193e-01 7.416450e-02 1.872552e-01 -1.064197e-01 3.320647e-02 -1.367756e-02 -9.987893e-02 2.070318e-02 -8.150025e-03
<VARIANCE> 25
 1.044105e+01 2.774863e+01 1.978344e+01 3.814274e+01 3.017911e+01 4.716569e+01 6.067928e+01 3.775626e+01 3.558394e+01 3.688984e+01 3.743134e+01 2.838877e+01 2.362875e-01 4.135072e-01 5.255535e-01 7.177789e-01 8.122088e-01 1.063489e+00 8.820288e-01 8.619560e-01 8.732318e-01 8.727446e-01 1.028582e+00 7.215966e-01 2.347156e-04
<GCONST> 7.473981e+01
<MIXTURE> 57 6.132464e-03
<MEAN> 25
 7.338982e+00 -6.988175e+00 -8.672082e+00 -8.867199e+00 3.801536e+00 4.138783e+00 -2.077039e+00 -1.059234e+00 2.112534e+00 7.768210e-01 -2.487795e+00 -7.036716e+00 -7.448404e-02 1.862998e-02 3.151889e-02 4.940854e-02 1.520193e-01 7.416450e-02 1.872552e-01 -1.064197e-01 3.320647e-02 -1.367756e-02 -9.987893e-02 2.070318e-02 -8.150025e-03
<VARIANCE> 25
 1.044105e+01 2.774863e+01 1.978344e+01 3.814274e+01 3.017911e+01 4.716569e+01 6.067928e+01 3.775626e+01 3.558394e+01 3.688984e+01 3.743134e+01 2.838877e+01 2.362875e-01 4.135072e-01 5.255535e-01 7.177789e-01 8.122088e-01 1.063489e+00 8.820288e-01 8.619560e-01 8.732318e-01 8.727446e-01 1.028582e+00 7.215966e-01 2.347156e-04
<GCONST> 7.473981e+01
<MIXTURE> 58 6.172147e-03
<MEAN> 25
 2.692359e+00 -3.043423e+00 7.457191e+00 -5.139220e+00 -1.338069e+01 -5.804571e+00 1.135695e+00 9.151200e-01 -2.442998e+00 1.778525e+00 8.202321e-01 -5.162823e-01 -2.896343e-02 -1.495914e-01 -7.842115e-02 -1.641647e-01 4.822111e-03 2.168730e-01 3.365239e-01 3.052654e-01 3.322283e-03 2.283833e-02 -1.018174e-02 -1.315680e-01 -2.712481e-03
<VARIANCE> 25
 7.341014e+00 1.458063e+01 1.950845e+01 2.597511e+01 2.229089e+01 4.481151e+01 3.569915e+01 3.352254e+01 3.079160e+01 2.991020e+01 2.311834e+01 2.127235e+01 2.950064e-01 7.852004e-01 7.392476e-01 1.013969e+00 8.781019e-01 1.169574e+00 1.357325e+00 1.480725e+00 1.083555e+00 1.075154e+00 9.763851e-01 8.501014e-01 7.097586e-04
<GCONST> 7.555525e+01
<MIXTURE> 59 6.172147e-03
<MEAN> 25
 2.692359e+00 -3.043423e+00 7.457191e+00 -5.139220e+00 -1.338069e+01 -5.804571e+00 1.135695e+00 9.151200e-01 -2.442998e+00 1.778525e+00 8.202321e-01 -5.162823e-01 -2.896343e-02 -1.495914e-01 -7.842115e-02 -1.641647e-01 4.822111e-03 2.168730e-01 3.365239e-01 3.052654e-01 3.322283e-03 2.283833e-02 -1.018174e-02 -1.315680e-01 -2.712481e-03
<VARIANCE> 25
 7.341014e+00 1.458063e+01 1.950845e+01 2.597511e+01 2.229089e+01 4.481151e+01 3.569915e+01 3.352254e+01 3.079160e+01 2.991020e+01 2.311834e+01 2.127235e+01 2.950064e-01 7.852004e-01 7.392476e-01 1.013969e+00 8.781019e-01 1.169574e+00 1.357325e+00 1.480725e+00 1.083555e+00 1.075154e+00 9.763851e-01 8.501014e-01 7.097586e-04
<GCONST> 7.555525e+01
<MIXTURE> 60 4.479129e-03
<MEAN> 25
 -2.776600e+00 -1.002434e-01 -2.848429e-01 2.589650e+00 2.451286e+00 2.658928e+00 2.059654e+00 6.398304e-01 1.469909e+00 2.042650e+00 1.849842e+00 6.711344e-01 -4.262114e-02 1.332710e-01 1.360429e-01 1.274099e-01 1.051327e-01 1.694966e-01 1.646026e-01 2.598996e-01 5.075642e-01 6.136754e-01 5.656050e-01 3.119749e-01 7.626970e-04
<VARIANCE> 25
 7.490192e+00 3.626442e+00 8.093238e+00 9.689175e+00 1.106400e+01 1.285854e+01 1.160181e+01 1.057954e+01 1.097262e+01 1.287298e+01 1.345389e+01 1.307000e+01 8.695859e-02 1.536414e-01 2.246154e-01 4.642532e-01 5.385028e-01 6.891991e-01 7.925656e-01 9.525505e-01 7.724510e-01 8.562772e-01 1.026591e+00 8.698924e-01 2.661694e-05
<GCONST> 5.458984e+01
<MIXTURE> 61 4.479129e-03
<MEAN> 25
 -2.776600e+00 -1.002434e-01 -2.848429e-01 2.589650e+00 2.451286e+00 2.658928e+00 2.059654e+00 6.398304e-01 1.469909e+00 2.042650e+00 1.849842e+00 6.711344e-01 -4.262114e-02 1.332710e-01 1.360429e-01 1.274099e-01 1.051327e-01 1.694966e-01 1.646026e-01 2.598996e-01 5.075642e-01 6.136754e-01 5.656050e-01 3.119749e-01 7.626970e-04
<VARIANCE> 25
 7.490192e+00 3.626442e+00 8.093238e+00 9.689175e+00 1.106400e+01 1.285854e+01 1.160181e+01 1.057954e+01 1.097262e+01 1.287298e+01 1.345389e+01 1.307000e+01 8.695859e-02 1.536414e-01 2.246154e-01 4.642532e-01 5.385028e-01 6.891991e-01 7.925656e-01 9.525505e-01 7.724510e-01 8.562772e-01 1.026591e+00 8.698924e-01 2.661694e-05
<GCONST> 5.458984e+01
<MIXTURE> 62 3.278034e-03
<MEAN> 25
 -5.084378e+00 1.273188e+00 1.008771e+00 8.785514e+00 6.081091e+00 5.034433e+00 5.480856e+00 4.014735e+00 4.976616e+00 3.901865e+00 4.941833e+00 2.937908e+00 -1.004414e+00 -1.166798e+00 -9.504241e-01 -2.835669e-01 4.252484e-01 1.008532e+00 1.387874e+00 1.543669e+00 1.466107e+00 1.241492e+00 1.075709e+00 7.285811e-01 -1.278487e-03
<VARIANCE> 25
 9.841393e+00 1.013496e+01 1.312546e+01 1.689334e+01 1.788028e+01 1.750069e+01 1.968535e+01 1.910903e+01 1.881282e+01 1.869699e+01 2.159213e+01 1.476537e+01 4.002748e-01 4.304035e-01 5.541149e-01 7.857274e-01 1.031470e+00 1.189375e+00 1.249231e+00 1.289235e+00 1.360540e+00 1.359290e+00 1.410255e+00 1.366572e+00 1.628840e-05
<GCONST> 6.759117e+01
<MIXTURE> 63 4.351215e-03
<MEAN> 25
 -4.001506e+00 -1.268597e+00 -4.026162e+00 2.788137e+00 2.912468e+00 2.558240e-01 2.981611e+00 1.144067e+00 1.903730e+00 -9.948199e-01 -1.133164e+00 2.013574e+00 -7.900746e-02 3.275293e-01 4.632901e-01 6.153511e-01 4.438069e-01 3.428145e-01 2.857344e-01 7.915076e-02 1.889984e-01 2.614580e-01 2.370827e-01 1.888601e-01 -4.561604e-03
<VARIANCE> 25
 1.282763e+01 1.539030e+01 1.653417e+01 1.920467e+01 1.762628e+01 2.222926e+01 1.936319e+01 2.125381e+01 2.152594e+01 2.601506e+01 1.850378e+01 1.652365e+01 2.302030e-01 4.434730e-01 6.009771e-01 6.597306e-01 8.295771e-01 1.051287e+00 1.166697e+00 1.203042e+00 1.470036e+00 1.762759e+00 1.535092e+00 1.295939e+00 1.908114e-04
<GCONST> 7.110520e+01
<MIXTURE> 64 4.351215e-03
<MEAN> 25
 -4.001506e+00 -1.268597e+00 -4.026162e+00 2.788137e+00 2.912468e+00 2.558240e-01 2.981611e+00 1.144067e+00 1.903730e+00 -9.948199e-01 -1.133164e+00 2.013574e+00 -7.900746e-02 3.275293e-01 4.632901e-01 6.153511e-01 4.438069e-01 3.428145e-01 2.857344e-01 7.915076e-02 1.889984e-01 2.614580e-01 2.370827e-01 1.888601e-01 -4.561604e-03
<VARIANCE> 25
 1.282763e+01 1.539030e+01 1.653417e+01 1.920467e+01 1.762628e+01 2.222926e+01 1.936319e+01 2.125381e+01 2.152594e+01 2.601506e+01 1.850378e+01 1.652365e+01 2.302030e-01 4.434730e-01 6.009771e-01 6.597306e-01 8.295771e-01 1.051287e+00 1.166697e+00 1.203042e+00 1.470036e+00 1.762759e+00 1.535092e+00 1.295939e+00 1.908114e-04
<GCONST> 7.110520e+01
<MIXTURE> 65 1.721197e-02
<MEAN> 25
 8.018633e+00 2.071254e+00 1.997743e+00 6.214664e-01 -5.445444e+00 -4.385327e+00 -5.867949e+00 -6.745692e+00 -3.827503e+00 -2.309820e+00 -5.487194e+00 -1.862108e+00 1.772565e-01 1.177460e-01 1.662582e-02 1.395708e-01 -1.717726e-01 2.623359e-01 -1.157763e-01 -1.694502e-01 1.767532e-01 1.106169e-02 -3.526900e-02 -1.561278e-01 -4.520398e-03
<VARIANCE> 25
 1.003171e+01 1.935026e+01 2.584817e+01 3.633594e+01 3.846288e+01 5.848098e+01 5.873174e+01 5.970275e+01 5.564190e+01 5.823326e+01 5.694603e+01 5.160850e+01 5.548967e-01 9.533164e-01 1.612476e+00 1.823921e+00 2.012390e+00 2.209377e+00 2.325326e+00 3.015883e+00 2.465930e+00 2.501080e+00 2.422849e+00 2.128285e+00 4.228358e-04
<GCONST> 8.958316e+01
<MIXTURE> 66 1.191532e-02
<MEAN> 25
 7.035580e+00 -4.831045e+00 -4.868736e+00 -5.071685e+00 3.092250e-01 -4.370805e+00 -5.994236e+00 1.662505e+00 1.045833e+00 -1.837877e+00 -7.610606e+00 -2.451283e+00 -1.366665e-01 1.822824e+00 1.960593e+00 2.297451e+00 -1.464331e+00 -1.298731e+00 4.492321e-01 -9.843257e-01 -3.655024e-01 8.436458e-02 1.071945e-01 1.120576e+00 -6.000870e-02
<VARIANCE> 25
 7.949317e+00 2.059972e+01 2.401089e+01 2.770806e+01 3.471886e+01 4.585074e+01 4.948573e+01 3.897774e+01 4.449972e+01 5.520398e+01 3.917443e+01 3.398861e+01 1.130996e+00 2.371480e+00 2.269909e+00 2.289711e+00 3.588551e+00 3.494937e+00 4.743413e+00 4.616872e+00 3.678633e+00 4.640611e+00 3.966496e+00 2.679356e+00 1.260786e-03
<GCONST> 9.425858e+01
<MIXTURE> 67 1.559142e-02
<MEAN> 25
 8.016432e+00 4.070235e-01 -5.417685e+00 -9.910118e+00 7.756222e-01 4.478531e+00 -2.108559e+00 -1.831840e+00 -3.408551e+00 6.555293e-01 -5.922639e-01 -3.365886e+00 -1.051002e+00 2.185834e+00 6.934437e-01 3.227567e+00 1.153360e+00 -6.650040e-01 1.498315e+00 -1.429131e-01 1.581059e-01 3.773322e-01 -9.526227e-02 9.826334e-01 -1.250471e-01
<VARIANCE> 25
 1.173644e+01 4.316701e+01 2.575688e+01 7.124506e+01 3.924572e+01 5.125784e+01 5.573222e+01 4.202091e+01 5.111227e+01 4.540831e+01 4.498358e+01 5.943913e+01 1.713722e+00 3.110714e+00 2.935349e+00 4.074668e+00 3.732623e+00 3.772258e+00 3.891606e+00 4.226604e+00 4.561294e+00 3.952733e+00 4.199636e+00 3.596179e+00 2.477039e-03
<GCONST> 9.990226e+01
<MIXTURE> 68 1.485092e-02
<MEAN> 25
 -2.328149e+00 -2.531048e+00 -4.362592e+00 1.546198e+00 6.030315e+00 -8.491496e-01 1.977437e+00 1.574121e+00 2.144717e+00 3.393183e-01 -1.547818e-01 1.288590e+00 2.862861e+00 4.043791e-01 2.191139e-01 -3.055732e+00 -2.164519e+00 -9.485859e-01 -2.192580e+00 -1.477327e+00 -1.829523e+00 -1.255724e+00 -1.674132e+00 -1.135110e+00 9.145646e-02
<VARIANCE> 25
 2.332432e+01 2.888662e+01 5.302806e+01 4.581030e+01 4.437832e+01 4.771270e+01 3.949351e+01 3.689952e+01 3.507968e+01 4.773447e+01 3.508092e+01 2.439494e+01 1.861336e+00 3.451384e+00 5.362360e+00 6.890537e+00 4.401906e+00 7.437521e+00 5.326248e+00 4.821904e+00 4.525138e+00 4.857176e+00 4.876917e+00 3.010526e+00 6.105507e-03
<GCONST> 1.022549e+02
<MIXTURE> 69 1.204884e-02
<MEAN> 25
 4.817557e+00 -3.838282e+00 -3.050699e+00 -3.303769e+00 -2.462060e+00 -7.824404e+00 -2.296786e+00 2.027075e+00 1.190030e-01 -4.382053e+00 -6.305696e+00 7.991627e-01 1.685595e+00 -2.593812e+00 -1.561172e+00 -2.460347e+00 -5.405964e-01 -3.881056e-01 -7.598058e-01 1.223499e+00 -3.989781e-01 -1.172015e+00 -1.996503e+00 -1.496381e-03 7.253801e-02
<VARIANCE> 25
 8.540555e+00 2.144895e+01 2.514703e+01 2.413664e+01 4.188054e+01 3.049825e+01 4.977298e+01 3.082299e+01 3.474693e+01 3.448506e+01 2.840382e+01 2.082618e+01 3.006936e+00 3.096609e+00 3.051637e+00 3.363731e+00 4.855516e+00 4.498594e+00 6.455457e+00 6.956504e+00 5.339321e+00 5.316898e+00 3.855257e+00 3.270009e+00 2.526986e-03
<GCONST> 9.687339e+01
<MIXTURE> 70 1.329190e-02
<MEAN> 25
 7.746814e+00 -2.625428e+00 -4.260114e+00 -5.258420e+00 5.553886e-02 -5.188262e-02 -7.421987e+00 -3.207706e+00 3.831971e-01 2.127547e+00 -5.459558e-03 -4.767958e+00 2.127862e+00 -1.466914e+00 -6.824065e-01 -2.508587e+00 -1.602789e+00 1.368528e+00 -1.403841e+00 1.961165e-02 2.149936e-01 2.493481e-01 7.438889e-01 -1.433156e+00 6.303757e-02
<VARIANCE> 25
 9.013036e+00 2.372832e+01 2.554074e+01 5.851377e+01 3.402090e+01 4.144754e+01 4.467711e+01 4.200322e+01 4.110411e+01 3.160254e+01 3.970667e+01 2.381301e+01 3.358278e+00 3.449009e+00 4.240325e+00 4.923500e+00 4.599090e+00 5.824787e+00 5.985896e+00 6.649606e+00 5.470540e+00 5.096881e+00 5.107697e+00 3.749753e+00 2.348973e-03
<GCONST> 1.001183e+02
<MIXTURE> 71 1.406903e-02
<MEAN> 25
 6.305275e+00 5.135118e+00 4.273561e+00 3.127240e+00 -3.425515e+00 -3.393706e+00 -3.342584e+00 -6.604903e+00 -4.670036e+00 -2.501511e+00 -5.155758e+00 -3.200912e+00 -1.570335e+00 -6.864237e-01 -2.837192e-01 -1.750741e+00 1.114777e+00 -1.583400e-01 4.054739e-02 1.499696e+00 3.280232e-01 -1.895397e-01 6.570071e-01 1.834883e-01 4.101709e-02
<VARIANCE> 25
 1.915952e+01 2.586050e+01 2.376520e+01 4.440142e+01 4.063774e+01 4.017074e+01 4.261290e+01 4.107427e+01 3.856643e+01 4.368230e+01 3.701976e+01 3.423041e+01 1.822981e+00 3.055873e+00 5.289716e+00 4.881371e+00 4.658636e+00 4.754290e+00 4.942605e+00 5.413810e+00 4.283798e+00 4.047558e+00 3.649807e+00 3.252482e+00 1.432740e-03
<GCONST> 9.868542e+01
<MIXTURE> 72 8.134747e-03
<MEAN> 25
 3.794470e+00 -3.683544e+00 5.461876e+00 -2.467455e+00 -1.040856e+01 -9.626246e+00 -2.457683e+00 1.926665e+00 -4.939264e+00 -2.195865e+00 -1.877509e+00 6.274053e-01 9.313971e-01 -7.866080e-01 -2.572867e+00 4.610949e-01 2.133658e+00 -6.549335e-01 -1.318534e+00 1.527300e+00 1.811033e+00 -5.968331e-01 -1.284836e+00 4.019040e-01 -6.081756e-03
<VARIANCE> 25
 1.078303e+01 1.945827e+01 3.282803e+01 3.837482e+01 3.230153e+01 3.335115e+01 4.104916e+01 3.616928e+01 4.365639e+01 4.131867e+01 3.880462e+01 2.854467e+01 4.325179e-01 1.024852e+00 2.032081e+00 1.471005e+00 2.189805e+00 2.353273e+00 3.059996e+00 2.730887e+00 2.610716e+00 2.957289e+00 2.035789e+00 2.126308e+00 5.417197e-04
<GCONST> 8.725721e+01
<MIXTURE> 73 1.213625e-02
<MEAN> 25
 -5.423810e+00 -5.880877e-01 -1.109143e+00 4.760983e+00 4.328885e+00 2.285303e+00 5.280138e+00 3.173372e+00 4.254226e+00 3.471413e+00 4.280964e+00 2.907994e+00 7.839505e-01 -1.118325e+00 -1.086963e+00 -2.473018e+00 -1.159048e+00 -1.811874e+00 -8.942015e-01 -4.779938e-01 -8.357337e-01 -7.036507e-01 -1.185358e+00 -2.901173e-01 1.487786e-01
<VARIANCE> 25
 1.274796e+01 1.326839e+01 1.517761e+01 2.178261e+01 2.344164e+01 2.331776e+01 1.991466e+01 1.991371e+01 1.695670e+01 1.831643e+01 2.179445e+01 1.539841e+01 3.826436e+00 3.062375e+00 6.180694e+00 4.914779e+00 6.035266e+00 4.409018e+00 4.074045e+00 4.017985e+00 4.039816e+00 3.982300e+00 3.751818e+00 2.557092e+00 4.583752e-03
<GCONST> 9.232504e+01
<MIXTURE> 74 1.756491e-02
<MEAN> 25
 4.782803e+00 -1.586700e+00 5.459452e+00 -7.925655e-01 -8.598186e+00 -8.563606e+00 -3.075898e+00 4.742262e-01 -4.529475e+00 -2.780736e+00 -6.952444e-01 1.060903e+00 -1.241029e-01 2.232255e+00 -1.660139e-01 1.857014e+00 1.166578e+00 2.953300e-01 2.273729e-01 -1.253508e+00 9.636934e-02 2.495573e-01 -2.518136e-01 -1.764701e-01 -7.441963e-02
<VARIANCE> 25
 1.046836e+01 1.964243e+01 3.210892e+01 3.251066e+01 2.991717e+01 3.453844e+01 4.487592e+01 3.747093e+01 4.048068e+01 3.956004e+01 4.369678e+01 2.968942e+01 2.297252e+00 2.358598e+00 3.274679e+00 2.665246e+00 3.586989e+00 3.562204e+00 5.014141e+00 3.488931e+00 3.491118e+00 3.738929e+00 3.905665e+00 2.587367e+00 1.548096e-03
<GCONST> 9.481557e+01
<MIXTURE> 75 9.711651e-03
<MEAN> 25
 3.380682e+00 -1.201470e+00 9.824711e+00 8.034551e-01 -1.200061e+01 -7.924332e+00 -4.773140e+00 -1.329385e+00 -4.207218e+00 -3.273224e+00 3.916538e+00 1.571666e+00 1.659809e+00 -1.848054e+00 8.984165e-01 -4.150881e-01 -2.199951e+00 -9.814996e-01 -1.768487e+00 1.171568e+00 -3.589611e-01 -2.457612e-01 8.775742e-01 -3.962486e-01 4.274797e-02
<VARIANCE> 25
 8.771779e+00 1.499868e+01 2.451879e+01 1.990117e+01 2.119416e+01 2.553857e+01 2.279760e+01 2.864231e+01 2.929024e+01 2.349263e+01 1.618538e+01 1.906652e+01 1.943477e+00 1.516016e+00 4.007655e+00 1.877279e+00 2.940448e+00 3.357501e+00 2.886919e+00 2.987025e+00 3.183318e+00 2.475543e+00 2.532364e+00 1.842575e+00 1.153070e-03
<GCONST> 8.644028e+01
<MIXTURE> 76 1.052359e-02
<MEAN> 25
 -6.263684e+00 -3.095315e-01 -3.515024e+00 3.978730e+00 3.045950e+00 8.551416e-01 3.161233e+00 1.479585e+00 2.337002e+00 5.485872e-02 1.525990e+00 2.667126e+00 4.629049e-02 -7.374756e-01 -3.909422e-01 -6.069602e-01 -4.559679e-01 -8.410710e-01 -5.170663e-01 -2.682863e-01 -3.916029e-01 -7.893860e-01 -3.905140e-01 -2.037883e-01 2.330381e-02
<VARIANCE> 25
 3.072576e+01 2.902184e+01 2.891436e+01 2.501137e+01 3.470334e+01 2.904891e+01 2.106417e+01 2.069638e+01 2.585862e+01 1.941251e+01 2.604588e+01 1.851504e+01 9.845454e-01 9.488530e-01 1.793861e+00 1.094064e+00 1.791742e+00 1.511361e+00 1.435034e+00 1.503428e+00 1.347749e+00 1.846293e+00 1.776756e+00 1.294110e+00 1.029896e-03
<GCONST> 8.195139e+01
<MIXTURE> 77 1.244626e-02
<MEAN> 25
 -4.648555e-01 8.579471e+00 1.245616e+01 -1.160893e+01 -7.005802e+00 9.529926e-01 -9.273858e+00 -7.230672e+00 -3.378028e+00 -1.970180e-01 -4.646567e+00 -1.482190e+00 6.791081e-02 1.372291e-01 7.310405e-02 2.503856e-01 -2.224224e-02 7.784863e-02 -6.488813e-02 -6.012663e-02 8.301598e-02 -4.461530e-02 2.692718e-02 1.185169e-01 -9.896305e-03
<VARIANCE> 25
 1.043388e+01 2.009540e+01 2.757498e+01 4.163596e+01 3.318156e+01 3.378791e+01 3.676561e+01 3.178231e+01 3.520467e+01 3.318520e+01 3.761491e+01 3.492269e+01 2.985144e-01 7.772089e-01 6.452927e-01 1.085158e+00 1.237267e+00 9.846303e-01 1.222017e+00 1.078127e+00 1.044146e+00 1.066560e+00 9.722363e-01 9.215605e-01 5.399198e-04
<GCONST> 7.779729e+01
<MIXTURE> 78 9.702551e-03
<MEAN> 25
 -1.102192e+01 1.209533e+00 -1.950854e+00 3.422181e+00 4.160219e+00 -1.845449e+00 3.496597e+00 1.931947e+00 2.993980e+00 5.278503e-01 -5.611892e-01 2.491413e+00 2.274842e+00 -3.615095e-01 3.682225e-01 1.661411e-01 1.378633e-01 1.492141e-01 -1.620373e-01 -2.882690e-01 1.562998e-01 4.159229e-01 -3.255937e-02 -4.771977e-01 -6.087947e-02
<VARIANCE> 25
 3.807236e+01 2.816948e+01 2.926298e+01 3.542393e+01 3.592978e+01 3.223767e+01 2.967475e+01 3.244250e+01 2.656992e+01 2.501996e+01 2.419544e+01 1.807846e+01 4.292551e+00 2.214099e+00 2.604770e+00 3.682005e+00 2.728109e+00 3.142399e+00 2.817209e+00 3.017328e+00 2.338609e+00 2.984092e+00 2.555191e+00 1.888723e+00 4.145582e-03
<GCONST> 9.320557e+01
<MIXTURE> 79 1.156824e-02
<MEAN> 25
 2.421072e+00 1.577677e+00 9.192238e+00 -6.603920e+00 -1.207209e+01 -1.822418e+00 -1.910522e+00 -6.469156e+00 -6.575367e+00 3.287384e-01 -3.504228e+00 -3.287356e+00 1.219732e+00 -5.255917e-01 -1.432330e+00 2.354391e+00 3.818200e-01 -1.471305e+00 5.372917e-01 8.850874e-01 -4.367658e-01 -5.431892e-01 3.589823e-01 2.801276e-01 -3.629128e-02
<VARIANCE> 25
 1.422683e+01 2.411589e+01 3.785762e+01 4.975669e+01 3.344047e+01 4.353240e+01 4.290305e+01 3.678933e+01 3.893852e+01 3.978556e+01 4.405251e+01 3.074022e+01 9.464611e-01 2.260488e+00 1.895739e+00 2.083181e+00 2.472169e+00 2.820781e+00 3.205169e+00 3.536303e+00 2.517680e+00 2.736318e+00 2.314759e+00 2.028551e+00 1.233185e-03
<GCONST> 9.181222e+01
<MIXTURE> 80 7.550998e-03
<MEAN> 25
 -1.460518e+01 3.983643e+00 6.874225e-01 2.865867e+00 2.446939e+00 1.409991e+00 6.395323e+00 2.495666e+00 2.719327e+00 2.372177e+00 4.853848e+00 1.188690e+00 4.285446e+00 -1.653616e-02 1.638146e+00 -1.135514e+00 -2.888838e+00 -2.777091e+00 -2.322605e+00 -2.021057e+00 -1.974349e+00 -1.684572e+00 -1.650057e+00 -6.022559e-01 -4.420524e-02
<VARIANCE> 25
 2.097448e+01 1.984289e+01 3.443736e+01 3.469904e+01 3.019032e+01 2.919839e+01 2.828359e+01 2.855065e+01 2.673865e+01 2.880995e+01 2.684904e+01 1.811026e+01 2.358556e+00 2.665951e+00 2.672380e+00 4.118719e+00 3.394433e+00 2.705430e+00 3.025390e+00 3.203479e+00 2.749486e+00 2.702050e+00 2.783262e+00 2.145913e+00 1.514484e-03
<GCONST> 9.139879e+01
<MIXTURE> 81 8.025434e-03
<MEAN> 25
 -1.118531e+00 4.067221e+00 1.018000e+01 -1.480466e+01 -9.080619e+00 -1.422529e+00 -6.767250e+00 -8.426202e+00 -4.151426e+00 -4.160439e-01 -7.575066e+00 -2.246930e+00 1.338976e-01 -5.872345e-01 -2.676476e-03 -5.564435e-01 -4.640328e-01 3.352343e-01 3.198733e-01 1.368971e-01 -1.404269e-01 1.065665e-01 -4.694881e-01 -1.253195e-01 1.151109e-02
<VARIANCE> 25
 1.015240e+01 3.280857e+01 2.645125e+01 2.926390e+01 3.370658e+01 3.052368e+01 4.545210e+01 2.825692e+01 3.799417e+01 3.189005e+01 2.529873e+01 3.105197e+01 7.722617e-01 2.277437e+00 1.546018e+00 2.872816e+00 2.663353e+00 2.126377e+00 3.280946e+00 2.287936e+00 2.355629e+00 2.539297e+00 2.298678e+00 2.078612e+00 1.183490e-03
<GCONST> 8.868613e+01
<MIXTURE> 82 8.213053e-03
<MEAN> 25
 -9.942186e+00 -3.875914e+00 1.621809e+00 -2.966847e+00 3.084341e+00 6.683449e-01 1.992759e+00 9.226976e-01 2.975278e+00 1.731276e+00 1.758208e+00 3.092192e+00 -1.306443e+00 -1.269132e-01 2.941321e-01 -2.593883e+00 -1.111509e+00 -1.266504e+00 -1.015150e+00 -8.722404e-01 -3.170060e-01 -4.772147e-01 -3.093834e-01 -9.430075e-02 1.779749e-01
<VARIANCE> 25
 1.809819e+01 2.505182e+01 3.236362e+01 3.081192e+01 3.316473e+01 3.218200e+01 3.166419e+01 3.292562e+01 3.076133e+01 2.505830e+01 3.080173e+01 1.748342e+01 3.763462e+00 3.041494e+00 3.321126e+00 3.286223e+00 3.567885e+00 3.277631e+00 2.935644e+00 3.007122e+00 2.789202e+00 2.483559e+00 2.460335e+00 1.859692e+00 3.474730e-03
<GCONST> 9.308589e+01
<MIXTURE> 83 1.167529e-02
<MEAN> 25
 -2.001251e+01 5.511140e+00 -1.794965e+00 -3.805994e-01 7.785160e+00 -1.226169e+00 5.446049e+00 3.019125e+00 1.185334e+00 2.190097e+00 7.378342e-01 2.886047e+00 -2.719277e-02 -4.481146e-01 2.547710e-03 -3.618912e-01 -4.948987e-01 -1.218125e-01 -1.326991e-01 -9.696834e-02 -4.354207e-02 -4.057477e-02 -3.096441e-02 -3.570297e-02 4.417277e-03
<VARIANCE> 25
 8.994653e+00 1.640886e+01 2.841560e+01 2.257103e+01 2.171347e+01 2.402628e+01 2.201690e+01 2.347161e+01 2.039806e+01 2.215493e+01 2.316809e+01 1.447048e+01 1.059955e+00 9.354329e-01 1.239759e+00 1.068575e+00 1.357586e+00 1.298021e+00 1.280047e+00 1.385685e+00 1.350291e+00 1.318120e+00 1.217349e+00 1.070984e+00 8.900688e-04
<GCONST> 7.706799e+01
<MIXTURE> 84 1.066614e-02
<MEAN> 25
 1.010297e+00 8.865605e+00 6.823925e+00 7.726885e+00 2.666519e+00 -8.684101e-01 -1.462061e+00 -4.222392e+00 -3.772722e+00 -2.957021e+00 -2.340022e+00 -1.450151e+00 -1.781931e+00 -1.105978e+00 -1.174892e+00 1.112759e+00 2.208574e+00 1.571594e+00 1.486294e+00 1.161000e+00 1.105611e+00 4.097185e-01 4.086295e-01 3.492195e-01 -6.909413e-02
<VARIANCE> 25
 2.243287e+01 1.780064e+01 2.275644e+01 2.419897e+01 2.863470e+01 2.778078e+01 2.622621e+01 2.566875e+01 2.585257e+01 2.839664e+01 2.256674e+01 2.326589e+01 1.988124e+00 2.514796e+00 3.687233e+00 3.498025e+00 3.101614e+00 3.297185e+00 3.112462e+00 3.384725e+00 3.351071e+00 3.048907e+00 3.539096e+00 2.699237e+00 3.415396e-03
<GCONST> 9.204857e+01
<MIXTURE> 85 7.591393e-03
<MEAN> 25
 -2.867722e+00 7.825303e+00 5.656691e+00 1.422172e+00 -3.293910e+00 -5.214715e+00 -2.898783e+00 -6.099502e+00 -3.603938e+00 -3.223959e+00 -5.782591e-01 -1.903587e+00 3.864390e+00 2.203376e-01 1.690199e+00 -2.028399e+00 -3.330395e+00 -2.599625e+00 -2.918204e+00 -2.262298e+00 -2.171216e+00 -1.210780e+00 -2.226970e+00 -5.925483e-01 1.293423e-02
<VARIANCE> 25
 4.188006e+01 2.258507e+01 3.501980e+01 3.730946e+01 4.005069e+01 3.969484e+01 3.093736e+01 2.676777e+01 2.600183e+01 2.537874e+01 2.699892e+01 1.993021e+01 2.720037e+00 4.366831e+00 4.246858e+00 5.069327e+00 4.464691e+00 3.716357e+00 3.757622e+00 3.945718e+00 3.862344e+00 3.936264e+00 3.981425e+00 3.348083e+00 5.501559e-03
<GCONST> 9.800307e+01
<MIXTURE> 86 1.273941e-02
<MEAN> 25
 -4.062378e+00 -7.973372e-01 -4.428113e-01 5.241871e+00 4.638536e+00 4.357516e+00 4.854885e+00 3.987231e+00 4.642911e+00 3.852217e+00 4.667019e+00 2.217497e+00 -9.268029e-03 1.002444e-02 5.394265e-03 -5.119675e-03 -4.210645e-02 -1.753229e-01 -1.694514e-01 -2.087756e-01 -4.123563e-01 -3.293967e-01 -2.582363e-01 -1.660158e-01 -6.611911e-04
<VARIANCE> 25
 9.580601e+00 5.361400e+00 8.996367e+00 1.458125e+01 1.386582e+01 1.235038e+01 1.195041e+01 1.270628e+01 1.312668e+01 1.272582e+01 1.472030e+01 1.260350e+01 9.303468e-02 2.156518e-01 3.116068e-01 4.627801e-01 5.850493e-01 6.939090e-01 6.846839e-01 7.638957e-01 7.742312e-01 8.244888e-01 9.094407e-01 8.705261e-01 7.079884e-05
<GCONST> 5.763679e+01
<MIXTURE> 87 1.100681e-02
<MEAN> 25
 -3.097918e+00 4.141909e+00 3.300536e+00 6.468825e+00 5.333190e+00 9.564615e-01 1.613436e+00 -1.011189e+00 -6.025233e-01 -7.698634e-01 -7.550598e-01 -4.015064e-01 -1.890091e+00 -2.613628e+00 -2.293907e+00 -1.732451e+00 -1.184835e-02 -6.147421e-01 2.842750e-01 1.177455e+00 1.658719e+00 8.332357e-01 8.217805e-01 9.944326e-01 1.016056e-01
<VARIANCE> 25
 3.367281e+01 2.731670e+01 2.553791e+01 3.152676e+01 2.590248e+01 2.871500e+01 2.515923e+01 2.394228e+01 2.399461e+01 2.244367e+01 2.261202e+01 2.146144e+01 3.823973e+00 2.566494e+00 3.811017e+00 4.779546e+00 4.296415e+00 5.176280e+00 4.395247e+00 3.506070e+00 3.884238e+00 3.228495e+00 3.157500e+00 2.400834e+00 4.504381e-03
<GCONST> 9.512312e+01
<MIXTURE> 88 1.256585e-02
<MEAN> 25
 -3.960981e+00 1.027112e-02 -9.055259e-01 4.550770e+00 4.382801e+00 3.210311e+00 4.427498e+00 2.333271e+00 2.980206e+00 2.155553e+00 2.377845e+00 2.024656e+00 1.826555e-01 1.322340e-01 3.545369e-01 2.803482e-01 3.197756e-01 1.454185e-01 -1.030697e-02 -1.783957e-01 -3.188609e-01 -2.636312e-01 -5.657918e-02 -9.641390e-02 -9.943830e-03
<VARIANCE> 25
 1.101251e+01 9.608401e+00 1.574363e+01 1.793965e+01 1.820040e+01 1.667047e+01 1.799603e+01 1.881057e+01 1.559211e+01 1.710037e+01 1.889817e+01 1.329285e+01 1.248438e+00 1.548333e+00 2.148314e+00 2.483674e+00 2.271103e+00 2.250363e+00 2.140306e+00 2.236246e+00 2.181079e+00 2.933195e+00 2.625256e+00 1.988790e+00 1.602396e-03
<GCONST> 8.150682e+01
<MIXTURE> 89 9.333527e-03
<MEAN> 25
 6.101367e+00 -6.859929e+00 -3.561718e+00 -3.209733e+00 -1.594313e+00 -5.538372e+00 -6.135098e+00 4.143885e+00 3.487097e+00 -2.824026e+00 -6.099449e+00 -3.255681e+00 -5.657747e-01 1.645377e-01 1.980699e+00 9.022998e-01 -1.875665e+00 -1.639659e+00 9.017765e-01 1.225520e+00 -7.856540e-01 -1.289316e+00 3.932182e-01 1.531317e+00 -5.066757e-03
<VARIANCE> 25
 8.974081e+00 2.659344e+01 3.080659e+01 3.014441e+01 3.593774e+01 4.162745e+01 5.935972e+01 4.208523e+01 3.876273e+01 4.219981e+01 3.613273e+01 3.226793e+01 3.542382e-01 8.425051e-01 1.472320e+00 1.306817e+00 1.908814e+00 2.121351e+00 2.597418e+00 2.195290e+00 2.235605e+00 2.201396e+00 2.334802e+00 1.461459e+00 3.679624e-04
<GCONST> 8.534875e+01
<MIXTURE> 90 7.114505e-03
<MEAN> 25
 2.453630e+00 -9.723241e+00 -4.761775e+00 -4.031163e+00 -3.261696e+00 -1.780612e+00 3.275559e+00 1.188493e+00 -7.447372e+00 -1.009192e+01 -3.498378e+00 -8.005047e-01 -1.676727e-01 9.097909e-01 1.161581e+00 -8.614736e-01 -1.604346e+00 -2.032284e-01 6.380001e-01 -2.246434e-01 -1.810458e-01 7.192909e-01 1.611636e-01 -5.658401e-01 -1.135182e-02
<VARIANCE> 25
 8.526797e+00 1.766974e+01 1.970055e+01 2.859433e+01 3.745818e+01 3.211555e+01 3.861278e+01 3.618562e+01 3.547671e+01 2.841077e+01 2.712580e+01 2.604518e+01 2.239131e-01 6.137959e-01 7.796276e-01 1.063798e+00 1.460061e+00 1.576918e+00 1.768370e+00 1.650577e+00 1.796025e+00 1.684668e+00 1.507050e+00 1.321566e+00 2.179860e-04
<GCONST> 7.820511e+01
<MIXTURE> 91 7.852945e-03
<MEAN> 25
 6.497746e+00 -8.268031e+00 -7.827990e+00 -6.299643e+00 3.697003e+00 6.341409e-01 -2.667354e+00 1.584975e+00 1.080398e+00 -2.801785e+00 -5.120140e+00 -5.096531e+00 1.433438e-01 1.072209e+00 2.652845e-01 2.399706e-01 -1.902630e-01 -4.418198e-01 -1.443494e-01 -2.757649e-01 -1.178947e-01 4.890352e-01 -2.933371e-01 1.127271e-01 -3.510837e-02
<VARIANCE> 25
 9.328497e+00 2.425378e+01 2.030364e+01 4.392527e+01 3.110193e+01 5.313227e+01 5.215771e+01 4.041263e+01 4.568113e+01 5.842220e+01 3.669649e+01 3.840811e+01 4.864619e-01 8.592842e-01 1.033320e+00 1.821006e+00 2.173096e+00 2.162782e+00 2.498897e+00 2.466459e+00 2.056301e+00 2.019903e+00 1.967814e+00 1.897115e+00 5.612158e-04
<GCONST> 8.674757e+01
<MIXTURE> 92 7.852945e-03
<MEAN> 25
 6.497746e+00 -8.268031e+00 -7.827990e+00 -6.299643e+00 3.697003e+00 6.341409e-01 -2.667354e+00 1.584975e+00 1.080398e+00 -2.801785e+00 -5.120140e+00 -5.096531e+00 1.433438e-01 1.072209e+00 2.652845e-01 2.399706e-01 -1.902630e-01 -4.418198e-01 -1.443494e-01 -2.757649e-01 -1.178947e-01 4.890352e-01 -2.933371e-01 1.127271e-01 -3.510837e-02
<VARIANCE> 25
 9.328497e+00 2.425378e+01 2.030364e+01 4.392527e+01 3.110193e+01 5.313227e+01 5.215771e+01 4.041263e+01 4.568113e+01 5.842220e+01 3.669649e+01 3.840811e+01 4.864619e-01 8.592842e-01 1.033320e+00 1.821006e+00 2.173096e+00 2.162782e+00 2.498897e+00 2.466459e+00 2.056301e+00 2.019903e+00 1.967814e+00 1.897115e+00 5.612158e-04
<GCONST> 8.674757e+01
<MIXTURE> 93 6.122769e-03
<MEAN> 25
 -6.708332e+00 -9.365370e-01 -2.331227e+00 5.775515e+00 5.899350e+00 3.928873e+00 6.138880e+00 3.580364e+00 4.072396e+00 2.527051e+00 1.782811e+00 3.589114e+00 -6.372921e-02 -1.548409e-01 -2.474082e-01 -3.315952e-01 -3.423510e-01 -2.840237e-01 -2.107377e-01 -1.565424e-01 -1.525532e-01 -1.365325e-01 -1.121097e-01 -5.317437e-02 -1.474890e-05
<VARIANCE> 25
 9.728752e+00 5.972584e+00 8.327793e+00 1.127832e+01 1.131177e+01 1.573555e+01 1.511924e+01 1.627930e+01 1.464057e+01 1.434542e+01 1.664711e+01 1.399535e+01 8.192921e-02 1.524713e-01 2.671570e-01 3.749878e-01 4.963141e-01 6.386312e-01 7.755122e-01 8.993965e-01 9.135851e-01 8.855600e-01 9.068863e-01 9.276401e-01 9.978240e-07
<GCONST> 5.364234e+01
<MIXTURE> 94 6.122769e-03
<MEAN> 25
 -6.708332e+00 -9.365370e-01 -2.331227e+00 5.775515e+00 5.899350e+00 3.928873e+00 6.138880e+00 3.580364e+00 4.072396e+00 2.527051e+00 1.782811e+00 3.589114e+00 -6.372921e-02 -1.548409e-01 -2.474082e-01 -3.315952e-01 -3.423510e-01 -2.840237e-01 -2.107377e-01 -1.565424e-01 -1.525532e-01 -1.365325e-01 -1.121097e-01 -5.317437e-02 -1.474890e-05
<VARIANCE> 25
 9.728752e+00 5.972584e+00 8.327793e+00 1.127832e+01 1.131177e+01 1.573555e+01 1.511924e+01 1.627930e+01 1.464057e+01 1.434542e+01 1.664711e+01 1.399535e+01 8.192921e-02 1.524713e-01 2.671570e-01 3.749878e-01 4.963141e-01 6.386312e-01 7.755122e-01 8.993965e-01 9.135851e-01 8.855600e-01 9.068863e-01 9.276401e-01 9.978240e-07
<GCONST> 5.364234e+01
<MIXTURE> 95 5.258835e-03
<MEAN> 25
 -4.671392e+00 -3.121880e-01 -1.566649e+00 4.019957e+00 4.300780e+00 3.090078e+00 4.486088e+00 6.068563e-01 1.585724e+00 1.024467e+00 1.053971e+00 1.791635e+00 1.163785e-01 9.470246e-02 1.193693e-01 2.215699e-02 -3.264422e-01 -6.607499e-01 -9.510260e-01 -1.123204e+00 -1.392714e+00 -1.073503e+00 -6.917419e-01 -5.431471e-01 -2.178535e-03
<VARIANCE> 25
 1.302851e+01 6.082092e+00 1.143341e+01 1.305654e+01 1.223595e+01 1.501973e+01 1.547145e+01 1.692033e+01 1.362841e+01 1.323159e+01 1.866438e+01 1.951099e+01 1.825336e-01 2.732710e-01 4.057055e-01 5.756250e-01 6.767024e-01 7.977742e-01 7.878048e-01 8.522304e-01 9.039247e-01 9.596941e-01 1.098717e+00 1.335617e+00 5.326660e-05
<GCONST> 6.213264e+01
<MIXTURE> 96 7.034694e-03
<MEAN> 25
 -5.041431e+00 -2.413853e-01 -2.251414e+00 5.181122e+00 3.681110e+00 1.895908e+00 3.533939e+00 1.639979e+00 2.131892e+00 6.641943e-01 6.484059e-01 2.336676e+00 -3.117253e-02 8.213035e-02 2.412503e-01 4.282213e-01 4.628128e-01 4.283065e-01 2.407508e-01 2.155876e-02 -3.911429e-01 -7.765734e-01 -7.632240e-01 -4.063266e-01 -1.463970e-05
<VARIANCE> 25
 1.386123e+01 9.280621e+00 1.230969e+01 1.490045e+01 1.470879e+01 1.756528e+01 1.625968e+01 2.037309e+01 1.702711e+01 2.033436e+01 2.061727e+01 1.579753e+01 1.096583e-01 2.121160e-01 3.099955e-01 4.169374e-01 4.974821e-01 6.390336e-01 8.398445e-01 1.087929e+00 9.662992e-01 9.484311e-01 1.146347e+00 9.015080e-01 1.145213e-06
<GCONST> 5.822858e+01
<MIXTURE> 97 7.034694e-03
<MEAN> 25
 -5.041431e+00 -2.413853e-01 -2.251414e+00 5.181122e+00 3.681110e+00 1.895908e+00 3.533939e+00 1.639979e+00 2.131892e+00 6.641943e-01 6.484059e-01 2.336676e+00 -3.117253e-02 8.213035e-02 2.412503e-01 4.282213e-01 4.628128e-01 4.283065e-01 2.407508e-01 2.155876e-02 -3.911429e-01 -7.765734e-01 -7.632240e-01 -4.063266e-01 -1.463970e-05
<VARIANCE> 25
 1.386123e+01 9.280621e+00 1.230969e+01 1.490045e+01 1.470879e+01 1.756528e+01 1.625968e+01 2.037309e+01 1.702711e+01 2.033436e+01 2.061727e+01 1.579753e+01 1.096583e-01 2.121160e-01 3.099955e-01 4.169374e-01 4.974821e-01 6.390336e-01 8.398445e-01 1.087929e+00 9.662992e-01 9.484311e-01 1.146347e+00 9.015080e-01 1.145213e-06
<GCONST> 5.822858e+01
<MIXTURE> 98 9.917808e-03
<MEAN> 25
 -1.575199e+00 1.718997e+00 -1.041642e-01 4.302238e+00 3.139400e+00 2.363525e+00 2.825195e+00 1.302682e+00 1.473591e+00 5.468205e-01 4.140783e-01 8.523222e-01 -1.743024e+00 -1.328793e+00 -9.952599e-01 -2.139673e-02 7.134879e-01 9.445239e-01 1.279495e+00 1.163848e+00 1.503428e+00 1.049320e+00 1.238017e+00 8.151439e-01 -3.242273e-02
<VARIANCE> 25
 1.326908e+01 2.118087e+01 2.839604e+01 3.115165e+01 4.035712e+01 3.303524e+01 2.858726e+01 2.595757e+01 2.528103e+01 3.396465e+01 2.415342e+01 2.069003e+01 1.290171e+00 1.535269e+00 2.243640e+00 2.390561e+00 2.612967e+00 3.024866e+00 2.684386e+00 2.764652e+00 2.674109e+00 2.819946e+00 2.872184e+00 2.055531e+00 2.200068e-03
<GCONST> 8.925629e+01
<MIXTURE> 99 6.696178e-03
<MEAN> 25
 -6.118215e+00 9.474664e+00 5.521222e+00 3.552616e+00 4.707293e-03 -4.706654e+00 -1.556178e+00 -3.812233e+00 -3.209343e+00 -3.799119e+00 -1.017706e+00 7.967200e-01 6.391628e-01 -7.740673e-01 4.176214e-01 -4.822869e-01 -1.172826e+00 -7.109127e-01 -3.419829e-01 -2.988391e-01 -1.075365e-01 6.462747e-02 2.983718e-01 3.076850e-01 1.340740e-02
<VARIANCE> 25
 3.219890e+01 2.341723e+01 4.954999e+01 2.803957e+01 3.737316e+01 3.304775e+01 2.461001e+01 2.672377e+01 2.445115e+01 2.475540e+01 2.186138e+01 2.661489e+01 2.191724e+00 1.749872e+00 1.542645e+00 1.626005e+00 2.359265e+00 2.221521e+00 1.554484e+00 1.468244e+00 1.421057e+00 1.529000e+00 1.286650e+00 1.256959e+00 1.534345e-03
<GCONST> 8.571119e+01
<MIXTURE> 100 4.498084e-03
<MEAN> 25
 -1.591827e+00 6.340848e+00 1.025370e+01 -7.434741e+00 -1.077010e+01 -5.075799e+00 -4.926842e+00 -9.954284e+00 -4.707962e+00 -8.587239e-01 -2.719181e+00 -2.689476e+00 2.917490e+00 -1.264491e+00 1.305655e+00 -2.181483e+00 -3.415493e+00 -7.909132e-01 -1.220961e+00 -8.175571e-01 -1.471800e+00 3.478847e-01 -1.649950e+00 -2.844750e-01 2.211557e-03
<VARIANCE> 25
 1.361628e+01 2.101695e+01 2.257496e+01 2.658344e+01 2.300633e+01 2.366097e+01 2.909534e+01 2.171355e+01 2.750206e+01 2.259058e+01 2.246150e+01 2.139154e+01 1.795087e+00 3.946430e+00 2.922295e+00 4.281901e+00 4.179589e+00 4.536886e+00 4.005030e+00 4.329329e+00 4.165344e+00 3.886404e+00 3.910720e+00 3.216752e+00 1.682288e-03
<GCONST> 9.256417e+01
<MIXTURE> 101 6.007792e-03
<MEAN> 25
 8.095642e+00 -3.490239e+00 -6.311609e+00 -6.869179e+00 8.471653e-01 -1.257471e+00 -1.058788e+01 -2.057599e+00 1.622670e+00 2.713761e+00 -2.387940e+00 -5.143001e+00 6.732080e-01 6.513180e-01 -1.456668e+00 -1.610999e+00 1.032118e+00 2.318464e+00 1.971088e-01 -1.460465e+00 -1.064584e+00 1.036662e+00 1.372868e+00 -4.160576e-01 -4.816231e-03
<VARIANCE> 25
 9.270555e+00 1.672919e+01 2.984228e+01 4.280357e+01 3.622202e+01 3.582143e+01 3.703259e+01 3.623464e+01 3.785870e+01 4.398419e+01 5.177165e+01 2.422511e+01 2.941335e-01 6.695083e-01 1.173033e+00 1.551794e+00 1.687708e+00 2.096269e+00 2.086008e+00 1.992108e+00 2.348733e+00 2.216318e+00 1.786780e+00 1.936068e+00 3.451816e-04
<GCONST> 8.364682e+01
<MIXTURE> 102 6.007792e-03
<MEAN> 25
 8.095642e+00 -3.490239e+00 -6.311609e+00 -6.869179e+00 8.471653e-01 -1.257471e+00 -1.058788e+01 -2.057599e+00 1.622670e+00 2.713761e+00 -2.387940e+00 -5.143001e+00 6.732080e-01 6.513180e-01 -1.456668e+00 -1.610999e+00 1.032118e+00 2.318464e+00 1.971088e-01 -1.460465e+00 -1.064584e+00 1.036662e+00 1.372868e+00 -4.160576e-01 -4.816231e-03
<VARIANCE> 25
 9.270555e+00 1.672919e+01 2.984228e+01 4.280357e+01 3.622202e+01 3.582143e+01 3.703259e+01 3.623464e+01 3.785870e+01 4.398419e+01 5.177165e+01 2.422511e+01 2.941335e-01 6.695083e-01 1.173033e+00 1.551794e+00 1.687708e+00 2.096269e+00 2.086008e+00 1.992108e+00 2.348733e+00 2.216318e+00 1.786780e+00 1.936068e+00 3.451816e-04
<GCONST> 8.364682e+01
<MIXTURE> 103 5.694618e-03
<MEAN> 25
 3.369537e+00 -9.474593e+00 -6.138447e+00 -3.087922e+00 -1.266568e+00 -1.960538e+00 2.399416e+00 2.557173e+00 -4.566874e+00 -9.196442e+00 -5.083622e+00 3.482006e-01 -1.547741e-01 -1.490517e+00 -9.833089e-01 3.661343e-01 1.205768e+00 1.014104e+00 1.488986e-01 -2.639144e-01 -7.765518e-01 -9.514259e-01 -4.297918e-02 1.151691e-01 2.696336e-02
<VARIANCE> 25
 1.038095e+01 2.026565e+01 2.278155e+01 3.161677e+01 4.833840e+01 3.479112e+01 4.651716e+01 3.688897e+01 4.213054e+01 2.964377e+01 2.994972e+01 2.625102e+01 6.401583e-01 1.245198e+00 1.535522e+00 1.938164e+00 2.920033e+00 2.413468e+00 2.883348e+00 2.573882e+00 2.550932e+00 2.513014e+00 2.098640e+00 2.007769e+00 8.037706e-04
<GCONST> 8.753899e+01
<MIXTURE> 104 5.694618e-03
<MEAN> 25
 3.369537e+00 -9.474593e+00 -6.138447e+00 -3.087922e+00 -1.266568e+00 -1.960538e+00 2.399416e+00 2.557173e+00 -4.566874e+00 -9.196442e+00 -5.083622e+00 3.482006e-01 -1.547741e-01 -1.490517e+00 -9.833089e-01 3.661343e-01 1.205768e+00 1.014104e+00 1.488986e-01 -2.639144e-01 -7.765518e-01 -9.514259e-01 -4.297918e-02 1.151691e-01 2.696336e-02
<VARIANCE> 25
 1.038095e+01 2.026565e+01 2.278155e+01 3.161677e+01 4.833840e+01 3.479112e+01 4.651716e+01 3.688897e+01 4.213054e+01 2.964377e+01 2.994972e+01 2.625102e+01 6.401583e-01 1.245198e+00 1.535522e+00 1.938164e+00 2.920033e+00 2.413468e+00 2.883348e+00 2.573882e+00 2.550932e+00 2.513014e+00 2.098640e+00 2.007769e+00 8.037706e-04
<GCONST> 8.753899e+01
<MIXTURE> 105 4.710235e-03
<MEAN> 25
 2.472812e+00 -1.648449e+00 9.188288e+00 -2.777235e+00 -1.159110e+01 -5.309714e+00 -4.756589e+00 -2.495343e-01 -3.842978e+00 -3.102212e+00 2.072577e+00 -8.128474e-01 1.913276e-02 1.990090e-02 4.337793e-02 -1.690149e-02 3.555284e-02 3.291544e-02 -2.979821e-02 7.251351e-02 -5.912546e-02 -1.493372e-02 1.007788e-01 -2.606230e-02 -2.318056e-03
<VARIANCE> 25
 1.341273e+01 2.721557e+01 3.835897e+01 4.184049e+01 3.540729e+01 5.135611e+01 4.279115e+01 4.566877e+01 3.725899e+01 3.940253e+01 4.278816e+01 3.015622e+01 8.108830e-02 1.744363e-01 3.310279e-01 2.916711e-01 3.598595e-01 4.033782e-01 4.690284e-01 6.700087e-01 5.430866e-01 5.125961e-01 5.001359e-01 3.939888e-01 8.479800e-05
<GCONST> 6.680371e+01
<MIXTURE> 106 4.710235e-03
<MEAN> 25
 2.472812e+00 -1.648449e+00 9.188288e+00 -2.777235e+00 -1.159110e+01 -5.309714e+00 -4.756589e+00 -2.495343e-01 -3.842978e+00 -3.102212e+00 2.072577e+00 -8.128474e-01 1.913276e-02 1.990090e-02 4.337793e-02 -1.690149e-02 3.555284e-02 3.291544e-02 -2.979821e-02 7.251351e-02 -5.912546e-02 -1.493372e-02 1.007788e-01 -2.606230e-02 -2.318056e-03
<VARIANCE> 25
 1.341273e+01 2.721557e+01 3.835897e+01 4.184049e+01 3.540729e+01 5.135611e+01 4.279115e+01 4.566877e+01 3.725899e+01 3.940253e+01 4.278816e+01 3.015622e+01 8.108830e-02 1.744363e-01 3.310279e-01 2.916711e-01 3.598595e-01 4.033782e-01 4.690284e-01 6.700087e-01 5.430866e-01 5.125961e-01 5.001359e-01 3.939888e-01 8.479800e-05
<GCONST> 6.680371e+01
<MIXTURE> 107 5.452374e-03
<MEAN> 25
 8.635483e+00 -2.316019e+00 -8.034433e+00 -9.563125e+00 1.966945e+00 2.964155e+00 -8.624829e+00 -4.545023e+00 -8.809446e-01 3.390828e+00 8.496470e-01 -5.075250e+00 -6.104579e-01 -7.671731e-01 8.358263e-01 1.771453e+00 2.254458e-01 -2.010564e+00 -9.205595e-01 8.480988e-01 1.767472e+00 4.973811e-02 -1.655860e+00 -8.186243e-01 -1.822242e-03
<VARIANCE> 25
 9.278546e+00 2.056516e+01 2.834137e+01 4.276279e+01 3.572212e+01 3.845424e+01 5.135378e+01 3.628156e+01 4.574276e+01 4.169452e+01 5.133956e+01 3.032882e+01 3.554417e-01 9.692008e-01 1.460407e+00 2.413473e+00 2.284832e+00 2.824782e+00 2.613449e+00 2.538795e+00 2.295552e+00 3.033118e+00 1.947130e+00 2.206660e+00 7.026684e-04
<GCONST> 8.804643e+01
<MIXTURE> 108 5.452374e-03
<MEAN> 25
 8.635483e+00 -2.316019e+00 -8.034433e+00 -9.563125e+00 1.966945e+00 2.964155e+00 -8.624829e+00 -4.545023e+00 -8.809446e-01 3.390828e+00 8.496470e-01 -5.075250e+00 -6.104579e-01 -7.671731e-01 8.358263e-01 1.771453e+00 2.254458e-01 -2.010564e+00 -9.205595e-01 8.480988e-01 1.767472e+00 4.973811e-02 -1.655860e+00 -8.186243e-01 -1.822242e-03
<VARIANCE> 25
 9.278546e+00 2.056516e+01 2.834137e+01 4.276279e+01 3.572212e+01 3.845424e+01 5.135378e+01 3.628156e+01 4.574276e+01 4.169452e+01 5.133956e+01 3.032882e+01 3.554417e-01 9.692008e-01 1.460407e+00 2.413473e+00 2.284832e+00 2.824782e+00 2.613449e+00 2.538795e+00 2.295552e+00 3.033118e+00 1.947130e+00 2.206660e+00 7.026684e-04
<GCONST> 8.804643e+01
<MIXTURE> 109 6.661064e-03
<MEAN> 25
 4.078595e+00 -1.044755e+01 -8.172227e+00 -1.597413e+00 3.006517e+00 -1.309938e-01 -4.663104e-01 1.684560e+00 -2.543458e+00 -8.177773e+00 -5.649409e+00 -1.608773e-01 -2.843950e-02 -1.049388e-01 6.458418e-03 2.422869e-01 1.200481e-01 1.549065e-01 -1.071778e-01 -1.703134e-01 -5.073518e-02 -1.585748e-01 1.333949e-01 -3.187681e-02 -3.683731e-03
<VARIANCE> 25
 9.682405e+00 1.766835e+01 1.935424e+01 3.149420e+01 3.932383e+01 3.499136e+01 4.818170e+01 3.688390e+01 4.417704e+01 3.424932e+01 2.901744e+01 2.737395e+01 1.851223e-01 4.091252e-01 5.290998e-01 6.140620e-01 1.251958e+00 9.890611e-01 1.225718e+00 1.099365e+00 1.106243e+00 9.281267e-01 9.326619e-01 8.813316e-01 1.747131e-04
<GCONST> 7.419601e+01
<MIXTURE> 110 6.661064e-03
<MEAN> 25
 4.078595e+00 -1.044755e+01 -8.172227e+00 -1.597413e+00 3.006517e+00 -1.309938e-01 -4.663104e-01 1.684560e+00 -2.543458e+00 -8.177773e+00 -5.649409e+00 -1.608773e-01 -2.843950e-02 -1.049388e-01 6.458418e-03 2.422869e-01 1.200481e-01 1.549065e-01 -1.071778e-01 -1.703134e-01 -5.073518e-02 -1.585748e-01 1.333949e-01 -3.187681e-02 -3.683731e-03
<VARIANCE> 25
 9.682405e+00 1.766835e+01 1.935424e+01 3.149420e+01 3.932383e+01 3.499136e+01 4.818170e+01 3.688390e+01 4.417704e+01 3.424932e+01 2.901744e+01 2.737395e+01 1.851223e-01 4.091252e-01 5.290998e-01 6.140620e-01 1.251958e+00 9.890611e-01 1.225718e+00 1.099365e+00 1.106243e+00 9.281267e-01 9.326619e-01 8.813316e-01 1.747131e-04
<GCONST> 7.419601e+01
<MIXTURE> 111 4.337247e-03
<MEAN> 25
 -3.057761e+00 -4.410401e-01 -9.577809e-01 1.473388e+00 1.997062e+00 1.741869e+00 1.121741e+00 -4.113319e-02 -2.782600e-01 -2.199612e-01 -5.367838e-01 7.596679e-01 -4.125398e-02 -1.041660e-02 -4.015419e-02 -2.437145e-02 -2.004035e-02 1.906773e-02 6.051131e-02 -5.219711e-02 -2.054366e-01 -2.355005e-01 -2.818372e-01 -2.262273e-01 -3.440095e-04
<VARIANCE> 25
 9.212755e+00 4.456428e+00 9.303292e+00 7.931530e+00 1.218018e+01 1.977478e+01 1.287678e+01 1.130641e+01 1.050986e+01 1.054245e+01 1.250031e+01 1.342333e+01 7.578409e-02 1.925918e-01 2.567133e-01 4.561877e-01 4.794248e-01 6.017145e-01 8.337080e-01 9.080100e-01 8.400706e-01 8.673025e-01 8.545103e-01 9.336585e-01 2.624792e-05
<GCONST> 5.527494e+01
<MIXTURE> 112 4.337247e-03
<MEAN> 25
 -3.057761e+00 -4.410401e-01 -9.577809e-01 1.473388e+00 1.997062e+00 1.741869e+00 1.121741e+00 -4.113319e-02 -2.782600e-01 -2.199612e-01 -5.367838e-01 7.596679e-01 -4.125398e-02 -1.041660e-02 -4.015419e-02 -2.437145e-02 -2.004035e-02 1.906773e-02 6.051131e-02 -5.219711e-02 -2.054366e-01 -2.355005e-01 -2.818372e-01 -2.262273e-01 -3.440095e-04
<VARIANCE> 25
 9.212755e+00 4.456428e+00 9.303292e+00 7.931530e+00 1.218018e+01 1.977478e+01 1.287678e+01 1.130641e+01 1.050986e+01 1.054245e+01 1.250031e+01 1.342333e+01 7.578409e-02 1.925918e-01 2.567133e-01 4.561877e-01 4.794248e-01 6.017145e-01 8.337080e-01 9.080100e-01 8.400706e-01 8.673025e-01 8.545103e-01 9.336585e-01 2.624792e-05
<GCONST> 5.527494e+01
<MIXTURE> 113 5.938666e-03
<MEAN> 25
 9.976969e+00 1.754424e+00 -8.780514e+00 -1.704577e+01 -1.033131e+00 5.658961e+00 -5.279649e+00 -1.465517e+00 -5.694458e+00 -4.936008e-01 2.983330e-01 -1.986272e-01 4.789012e-03 1.385257e-02 -5.941172e-02 -1.132642e-01 1.042297e-01 1.505666e-01 5.923467e-02 3.608424e-02 -5.689007e-02 -5.121885e-02 1.796348e-01 3.519292e-02 -1.411938e-03
<VARIANCE> 25
 8.881070e+00 1.639696e+01 2.967475e+01 3.421601e+01 5.273397e+01 3.386215e+01 3.972329e+01 3.914820e+01 3.738206e+01 4.640362e+01 3.629716e+01 2.844279e+01 1.218149e-01 3.205391e-01 3.161738e-01 6.314155e-01 6.128351e-01 6.537055e-01 7.767863e-01 8.451622e-01 9.593402e-01 9.051403e-01 7.245508e-01 7.135201e-01 1.247777e-04
<GCONST> 7.110625e+01
<MIXTURE> 114 5.938666e-03
<MEAN> 25
 9.976969e+00 1.754424e+00 -8.780514e+00 -1.704577e+01 -1.033131e+00 5.658961e+00 -5.279649e+00 -1.465517e+00 -5.694458e+00 -4.936008e-01 2.983330e-01 -1.986272e-01 4.789012e-03 1.385257e-02 -5.941172e-02 -1.132642e-01 1.042297e-01 1.505666e-01 5.923467e-02 3.608424e-02 -5.689007e-02 -5.121885e-02 1.796348e-01 3.519292e-02 -1.411938e-03
<VARIANCE> 25
 8.881070e+00 1.639696e+01 2.967475e+01 3.421601e+01 5.273397e+01 3.386215e+01 3.972329e+01 3.914820e+01 3.738206e+01 4.640362e+01 3.629716e+01 2.844279e+01 1.218149e-01 3.205391e-01 3.161738e-01 6.314155e-01 6.128351e-01 6.537055e-01 7.767863e-01 8.451622e-01 9.593402e-01 9.051403e-01 7.245508e-01 7.135201e-01 1.247777e-04
<GCONST> 7.110625e+01
<MIXTURE> 115 2.935202e-03
<MEAN> 25
 -3.998830e+00 -7.446873e-01 -3.086478e+00 3.644086e+00 2.430496e+00 -3.895864e-01 2.245030e+00 3.907902e-01 1.365253e+00 -1.558055e-03 1.664392e-02 2.644483e+00 2.982625e-02 -7.179388e-02 -2.269920e-01 -4.358067e-01 -6.300130e-01 -6.648697e-01 -5.804356e-01 -4.978594e-01 -4.856552e-01 -4.648902e-01 -3.548284e-01 -1.746377e-01 -9.671905e-06
<VARIANCE> 25
 9.418125e+00 9.834931e+00 1.350041e+01 1.264922e+01 1.345033e+01 1.756531e+01 1.697163e+01 2.074625e+01 1.786707e+01 1.717875e+01 1.914062e+01 1.483700e+01 2.024617e-01 3.439627e-01 4.850462e-01 5.601520e-01 6.309504e-01 7.952020e-01 1.015043e+00 1.137013e+00 1.072389e+00 1.006743e+00 1.046350e+00 1.071592e+00 1.013585e-06
<GCONST> 6.019543e+01
<MIXTURE> 116 2.935202e-03
<MEAN> 25
 -3.998830e+00 -7.446873e-01 -3.086478e+00 3.644086e+00 2.430496e+00 -3.895864e-01 2.245030e+00 3.907902e-01 1.365253e+00 -1.558055e-03 1.664392e-02 2.644483e+00 2.982625e-02 -7.179388e-02 -2.269920e-01 -4.358067e-01 -6.300130e-01 -6.648697e-01 -5.804356e-01 -4.978594e-01 -4.856552e-01 -4.648902e-01 -3.548284e-01 -1.746377e-01 -9.671905e-06
<VARIANCE> 25
 9.418125e+00 9.834931e+00 1.350041e+01 1.264922e+01 1.345033e+01 1.756531e+01 1.697163e+01 2.074625e+01 1.786707e+01 1.717875e+01 1.914062e+01 1.483700e+01 2.024617e-01 3.439627e-01 4.850462e-01 5.601520e-01 6.309504e-01 7.952020e-01 1.015043e+00 1.137013e+00 1.072389e+00 1.006743e+00 1.046350e+00 1.071592e+00 1.013585e-06
<GCONST> 6.019543e+01
<MIXTURE> 117 6.506003e-03
<MEAN> 25
 -4.627082e+00 1.117955e+00 1.057153e+00 9.726855e+00 6.256063e+00 6.252151e+00 6.462710e+00 5.034593e+00 6.360605e+00 4.918534e+00 6.348739e+00 2.679765e+00 -7.477555e-02 -2.328144e-01 -3.565005e-01 -4.204776e-01 -3.681598e-01 -2.996008e-01 -2.862124e-01 -3.251022e-01 -3.883920e-01 -3.678455e-01 -2.588544e-01 -1.200057e-01 -7.483668e-06
<VARIANCE> 25
 7.229452e+00 8.719181e+00 9.766960e+00 1.449597e+01 1.555165e+01 1.528998e+01 1.766229e+01 1.791037e+01 1.646880e+01 1.632853e+01 1.678368e+01 1.489078e+01 2.158994e-01 3.072143e-01 4.259679e-01 6.147940e-01 8.512178e-01 1.056782e+00 1.173233e+00 1.237534e+00 1.221732e+00 1.196154e+00 1.179844e+00 1.113039e+00 1.002795e-06
<GCONST> 6.044036e+01
<MIXTURE> 118 6.506003e-03
<MEAN> 25
 -4.627082e+00 1.117955e+00 1.057153e+00 9.726855e+00 6.256063e+00 6.252151e+00 6.462710e+00 5.034593e+00 6.360605e+00 4.918534e+00 6.348739e+00 2.679765e+00 -7.477555e-02 -2.328144e-01 -3.565005e-01 -4.204776e-01 -3.681598e-01 -2.996008e-01 -2.862124e-01 -3.251022e-01 -3.883920e-01 -3.678455e-01 -2.588544e-01 -1.200057e-01 -7.483668e-06
<VARIANCE> 25
 7.229452e+00 8.719181e+00 9.766960e+00 1.449597e+01 1.555165e+01 1.528998e+01 1.766229e+01 1.791037e+01 1.646880e+01 1.632853e+01 1.678368e+01 1.489078e+01 2.158994e-01 3.072143e-01 4.259679e-01 6.147940e-01 8.512178e-01 1.056782e+00 1.173233e+00 1.237534e+00 1.221732e+00 1.196154e+00 1.179844e+00 1.113039e+00 1.002795e-06
<GCONST> 6.044036e+01
<MIXTURE> 119 4.297961e-03
<MEAN> 25
 -4.961254e+00 -7.607332e+00 2.228675e+00 2.009250e+00 2.238424e+00 2.155205e-01 5.270600e+00 5.920553e+00 1.171040e+00 9.782360e-01 6.599976e+00 1.558303e+00 -4.991606e-02 -7.808984e-02 3.820689e-02 -5.650197e-02 -1.254246e-01 -1.798828e-01 -6.973107e-02 -1.462926e-02 -9.207015e-02 -1.109210e-01 -5.411370e-02 -5.856460e-02 1.120123e-03
<VARIANCE> 25
 8.542371e+00 1.002103e+01 1.652399e+01 2.014111e+01 2.280799e+01 2.316091e+01 2.493891e+01 2.653099e+01 2.500711e+01 2.805766e+01 2.041053e+01 2.041841e+01 1.602738e-01 2.826313e-01 4.596837e-01 6.338944e-01 8.033328e-01 1.001847e+00 1.098634e+00 1.276262e+00 1.283971e+00 1.248407e+00 1.192310e+00 1.112414e+00 2.312528e-04
<GCONST> 6.973000e+01
<MIXTURE> 120 4.297961e-03
<MEAN> 25
 -4.961254e+00 -7.607332e+00 2.228675e+00 2.009250e+00 2.238424e+00 2.155205e-01 5.270600e+00 5.920553e+00 1.171040e+00 9.782360e-01 6.599976e+00 1.558303e+00 -4.991606e-02 -7.808984e-02 3.820689e-02 -5.650197e-02 -1.254246e-01 -1.798828e-01 -6.973107e-02 -1.462926e-02 -9.207015e-02 -1.109210e-01 -5.411370e-02 -5.856460e-02 1.120123e-03
<VARIANCE> 25
 8.542371e+00 1.002103e+01 1.652399e+01 2.014111e+01 2.280799e+01 2.316091e+01 2.493891e+01 2.653099e+01 2.500711e+01 2.805766e+01 2.041053e+01 2.041841e+01 1.602738e-01 2.826313e-01 4.596837e-01 6.338944e-01 8.033328e-01 1.001847e+00 1.098634e+00 1.276262e+00 1.283971e+00 1.248407e+00 1.192310e+00 1.112414e+00 2.312528e-04
<GCONST> 6.973000e+01
<MIXTURE> 121 4.567511e-03
<MEAN> 25
 2.097017e-01 -2.510213e+00 5.140276e+00 -1.288005e+01 -1.260954e+01 -1.655584e+00 1.018229e+00 -5.099892e+00 -4.184503e+00 -4.844542e-01 -5.491348e+00 -4.306831e+00 2.496259e-02 1.325959e-01 -3.872174e-02 8.403372e-02 1.597932e-01 7.725716e-02 -7.859852e-02 -1.834293e-01 -2.732579e-01 -2.624473e-01 -1.121472e-01 1.913923e-03 -7.435781e-03
<VARIANCE> 25
 7.711540e+00 1.562625e+01 1.729832e+01 2.048082e+01 2.480854e+01 2.920828e+01 2.961722e+01 2.452631e+01 3.526611e+01 2.828086e+01 1.978570e+01 2.115294e+01 1.551373e-01 6.412233e-01 6.239008e-01 7.103664e-01 7.701698e-01 1.147108e+00 1.115145e+00 1.119555e+00 1.226564e+00 1.202231e+00 9.418741e-01 8.704973e-01 2.102520e-04
<GCONST> 7.142337e+01
<MIXTURE> 122 4.567511e-03
<MEAN> 25
 2.097017e-01 -2.510213e+00 5.140276e+00 -1.288005e+01 -1.260954e+01 -1.655584e+00 1.018229e+00 -5.099892e+00 -4.184503e+00 -4.844542e-01 -5.491348e+00 -4.306831e+00 2.496259e-02 1.325959e-01 -3.872174e-02 8.403372e-02 1.597932e-01 7.725716e-02 -7.859852e-02 -1.834293e-01 -2.732579e-01 -2.624473e-01 -1.121472e-01 1.913923e-03 -7.435781e-03
<VARIANCE> 25
 7.711540e+00 1.562625e+01 1.729832e+01 2.048082e+01 2.480854e+01 2.920828e+01 2.961722e+01 2.452631e+01 3.526611e+01 2.828086e+01 1.978570e+01 2.115294e+01 1.551373e-01 6.412233e-01 6.239008e-01 7.103664e-01 7.701698e-01 1.147108e+00 1.115145e+00 1.119555e+00 1.226564e+00 1.202231e+00 9.418741e-01 8.704973e-01 2.102520e-04
<GCONST> 7.142337e+01
<MIXTURE> 123 4.393044e-03
<MEAN> 25
 -3.789529e+00 1.731414e+00 7.075771e-02 5.269770e+00 4.316834e+00 3.195475e+00 3.112927e+00 5.904685e-02 -3.550969e-02 -4.796478e-01 -2.571487e-01 5.119430e-01 -5.657765e-01 -7.043667e-01 -8.648068e-01 -7.255730e-01 -2.532854e-01 2.812204e-01 4.497342e-01 5.012829e-01 7.461095e-01 6.615262e-01 8.727245e-01 6.347063e-01 -2.920121e-03
<VARIANCE> 25
 1.129819e+01 1.189087e+01 1.366611e+01 1.814762e+01 2.383739e+01 2.298441e+01 1.853585e+01 1.722258e+01 1.889187e+01 1.576475e+01 1.970364e+01 1.796367e+01 4.141865e-01 3.710676e-01 5.858973e-01 7.332674e-01 8.443328e-01 1.331964e+00 1.246229e+00 1.122177e+00 1.338476e+00 1.219891e+00 1.263830e+00 1.094117e+00 8.577656e-05
<GCONST> 6.918427e+01
<MIXTURE> 124 4.069876e-03
<MEAN> 25
 -6.264039e+00 -1.076356e+00 -2.630121e+00 4.987023e+00 5.018436e+00 3.364794e+00 5.367990e+00 2.385307e+00 3.045613e+00 1.372519e+00 9.282372e-01 2.767344e+00 -1.967348e-01 -3.112341e-01 -3.513230e-01 -2.237900e-01 9.776861e-02 5.075994e-01 8.347783e-01 8.901494e-01 6.248261e-01 2.881173e-01 9.696596e-02 -7.560354e-02 4.708677e-05
<VARIANCE> 25
 1.207540e+01 6.903407e+00 1.194733e+01 1.203572e+01 1.173457e+01 1.878222e+01 1.483703e+01 1.693591e+01 1.502233e+01 1.598597e+01 1.903718e+01 1.502374e+01 1.006867e-01 1.782642e-01 2.601300e-01 4.084569e-01 5.796522e-01 6.900857e-01 7.407429e-01 8.370429e-01 9.067735e-01 9.818427e-01 1.020777e+00 1.007446e+00 1.766727e-05
<GCONST> 5.870936e+01
<MIXTURE> 125 4.069876e-03
<MEAN> 25
 -6.264039e+00 -1.076356e+00 -2.630121e+00 4.987023e+00 5.018436e+00 3.364794e+00 5.367990e+00 2.385307e+00 3.045613e+00 1.372519e+00 9.282372e-01 2.767344e+00 -1.967348e-01 -3.112341e-01 -3.513230e-01 -2.237900e-01 9.776861e-02 5.075994e-01 8.347783e-01 8.901494e-01 6.248261e-01 2.881173e-01 9.696596e-02 -7.560354e-02 4.708677e-05
<VARIANCE> 25
 1.207540e+01 6.903407e+00 1.194733e+01 1.203572e+01 1.173457e+01 1.878222e+01 1.483703e+01 1.693591e+01 1.502233e+01 1.598597e+01 1.903718e+01 1.502374e+01 1.006867e-01 1.782642e-01 2.601300e-01 4.084569e-01 5.796522e-01 6.900857e-01 7.407429e-01 8.370429e-01 9.067735e-01 9.818427e-01 1.020777e+00 1.007446e+00 1.766727e-05
<GCONST> 5.870936e+01
<MIXTURE> 126 2.402244e-03
<MEAN> 25
 -3.743230e+00 -6.914580e+00 -5.306911e+00 2.277415e+00 4.308596e+00 -3.234329e+00 5.871971e-02 3.481413e+00 3.228605e+00 -2.692883e+00 -1.530512e+00 2.960975e+00 -3.924478e-03 -4.648064e-03 -2.867114e-02 -1.601943e-01 -3.304070e-01 -3.839400e-01 -2.757809e-01 -1.714939e-01 -1.251127e-01 -1.275918e-01 -1.093413e-01 -4.516895e-02 -1.568713e-03
<VARIANCE> 25
 7.526073e+00 1.274195e+01 1.380297e+01 1.509875e+01 2.455951e+01 2.343294e+01 2.248571e+01 2.841695e+01 3.180805e+01 2.592933e+01 2.244604e+01 1.969583e+01 1.686431e-01 3.490004e-01 4.832710e-01 5.610753e-01 7.574652e-01 9.859192e-01 1.108386e+00 1.262685e+00 1.323990e+00 1.308583e+00 1.219049e+00 1.151378e+00 2.102972e-04
<GCONST> 6.979951e+01
<MIXTURE> 127 2.402244e-03
<MEAN> 25
 -3.743230e+00 -6.914580e+00 -5.306911e+00 2.277415e+00 4.308596e+00 -3.234329e+00 5.871971e-02 3.481413e+00 3.228605e+00 -2.692883e+00 -1.530512e+00 2.960975e+00 -3.924478e-03 -4.648064e-03 -2.867114e-02 -1.601943e-01 -3.304070e-01 -3.839400e-01 -2.757809e-01 -1.714939e-01 -1.251127e-01 -1.275918e-01 -1.093413e-01 -4.516895e-02 -1.568713e-03
<VARIANCE> 25
 7.526073e+00 1.274195e+01 1.380297e+01 1.509875e+01 2.455951e+01 2.343294e+01 2.248571e+01 2.841695e+01 3.180805e+01 2.592933e+01 2.244604e+01 1.969583e+01 1.686431e-01 3.490004e-01 4.832710e-01 5.610753e-01 7.574652e-01 9.859192e-01 1.108386e+00 1.262685e+00 1.323990e+00 1.308583e+00 1.219049e+00 1.151378e+00 2.102972e-04
<GCONST> 6.979951e+01
<MIXTURE> 128 3.790457e-03
<MEAN> 25
 -4.320143e+00 1.765236e+00 -7.005897e-01 6.439793e+00 3.234415e+00 1.968837e+00 3.633430e+00 1.942508e+00 3.541731e+00 3.356223e+00 3.690876e+00 3.731823e+00 -3.585312e-01 -2.519960e-01 6.515954e-02 7.373235e-01 1.108883e+00 1.074655e+00 7.027196e-01 1.769740e-01 -5.102969e-01 -9.844204e-01 -8.060420e-01 -5.438427e-01 -1.710766e-04
<VARIANCE> 25
 1.185508e+01 1.171853e+01 1.602383e+01 1.842658e+01 2.105073e+01 2.006010e+01 2.286243e+01 2.590407e+01 2.735540e+01 2.419774e+01 2.531130e+01 1.787269e+01 8.580589e-01 1.122780e+00 1.299634e+00 1.414330e+00 1.566356e+00 1.802738e+00 2.116124e+00 2.214268e+00 2.095998e+00 2.309965e+00 1.806431e+00 1.973454e+00 1.217644e-06
<GCONST> 7.399184e+01
=======
 -2.579805e+00 3.176974e+00 2.305113e+00 8.738478e+00 4.369800e+00 3.452178e+00 4.059547e+00 3.935002e+00 5.823953e+00 5.252136e+00 5.873289e+00 3.074580e+00 -2.001823e+00 -1.633014e+00 -8.621749e-01 1.074890e+00 1.557066e+00 2.228727e+00 2.153827e+00 2.083672e+00 1.693376e+00 1.269924e+00 1.563656e+00 6.121885e-01 -4.678727e-02
<VARIANCE> 25
 1.005096e+01 1.174775e+01 1.494766e+01 1.877541e+01 2.315166e+01 2.211360e+01 2.186619e+01 2.194304e+01 2.099644e+01 2.251787e+01 2.097913e+01 1.708054e+01 1.791006e+00 2.112218e+00 3.022792e+00 3.205455e+00 3.739856e+00 3.356793e+00 3.315939e+00 3.376719e+00 3.516365e+00 3.720139e+00 3.515353e+00 2.832676e+00 3.124756e-03
<GCONST> 8.845551e+01
<MIXTURE> 2 4.549242e-03
<MEAN> 25
 -4.875278e+00 1.311713e+00 9.941621e-01 9.899129e+00 6.691978e+00 7.424337e+00 7.846705e+00 6.958115e+00 8.373286e+00 6.372909e+00 7.624398e+00 3.074931e+00 -6.201566e-02 4.154739e-02 1.424561e-01 2.258399e-01 2.651760e-01 2.812838e-01 2.953931e-01 3.196197e-01 3.498591e-01 3.089764e-01 1.972594e-01 8.010825e-02 1.084852e-06
<VARIANCE> 25
 6.954235e+00 8.901320e+00 1.065113e+01 1.591710e+01 1.723606e+01 1.556360e+01 1.690015e+01 1.848444e+01 1.658562e+01 1.738526e+01 1.810912e+01 1.433995e+01 1.252450e-01 2.266932e-01 3.365345e-01 4.671023e-01 6.494380e-01 8.149379e-01 9.298401e-01 1.003176e+00 1.051755e+00 1.077761e+00 1.075695e+00 1.013897e+00 1.000255e-06
<GCONST> 5.804443e+01
<MIXTURE> 3 4.549242e-03
<MEAN> 25
 -4.875278e+00 1.311713e+00 9.941621e-01 9.899129e+00 6.691978e+00 7.424337e+00 7.846705e+00 6.958115e+00 8.373286e+00 6.372909e+00 7.624398e+00 3.074931e+00 -6.201566e-02 4.154739e-02 1.424561e-01 2.258399e-01 2.651760e-01 2.812838e-01 2.953931e-01 3.196197e-01 3.498591e-01 3.089764e-01 1.972594e-01 8.010825e-02 1.084852e-06
<VARIANCE> 25
 6.954235e+00 8.901320e+00 1.065113e+01 1.591710e+01 1.723606e+01 1.556360e+01 1.690015e+01 1.848444e+01 1.658562e+01 1.738526e+01 1.810912e+01 1.433995e+01 1.252450e-01 2.266932e-01 3.365345e-01 4.671023e-01 6.494380e-01 8.149379e-01 9.298401e-01 1.003176e+00 1.051755e+00 1.077761e+00 1.075695e+00 1.013897e+00 1.000255e-06
<GCONST> 5.804443e+01
<MIXTURE> 4 1.671429e-02
<MEAN> 25
 3.396719e+00 2.504014e+00 -3.751737e+00 8.888211e-01 4.247372e+00 -1.772243e-01 6.926136e-02 -2.384623e-02 1.489914e+00 1.331600e+00 -1.854616e+00 3.460589e-02 -2.741703e+00 1.220416e+00 1.759149e+00 3.044151e+00 9.165534e-01 4.890256e-01 1.514199e+00 1.024322e+00 9.716452e-01 4.279497e-01 1.226192e+00 9.066597e-01 -1.026189e-01
<VARIANCE> 25
 2.100797e+01 2.937699e+01 2.897071e+01 3.938313e+01 4.533305e+01 6.789121e+01 6.442651e+01 5.309103e+01 5.475622e+01 6.169015e+01 4.955685e+01 3.580040e+01 2.374203e+00 5.023683e+00 3.700401e+00 5.006565e+00 4.960700e+00 6.076254e+00 6.033656e+00 5.550400e+00 5.919079e+00 6.373003e+00 6.089895e+00 4.399898e+00 6.117320e-03
<GCONST> 1.053242e+02
<MIXTURE> 5 3.206198e-03
<MEAN> 25
 -3.409229e+00 2.184212e+00 6.049452e-01 9.402635e+00 6.695294e+00 6.304770e+00 7.090418e+00 4.717492e+00 5.475086e+00 3.834611e+00 4.646597e+00 2.601448e+00 -3.218862e-01 7.496808e-01 1.220020e+00 1.036143e+00 3.064156e-01 -9.502441e-02 -8.417185e-02 3.803178e-02 4.598066e-01 6.805293e-01 4.093794e-01 8.458303e-02 -3.179153e-05
<VARIANCE> 25
 1.027012e+01 1.391099e+01 2.343659e+01 2.578733e+01 2.016778e+01 1.941446e+01 2.024425e+01 2.032265e+01 2.152815e+01 2.129164e+01 2.408755e+01 1.633128e+01 1.209662e+00 1.244596e+00 1.361876e+00 1.675321e+00 2.279161e+00 2.381696e+00 2.295863e+00 2.277451e+00 2.310930e+00 2.236237e+00 2.090715e+00 1.874366e+00 1.004800e-06
<GCONST> 7.518248e+01
<MIXTURE> 6 5.475854e-03
<MEAN> 25
 9.581738e+00 -4.003833e-01 -6.617221e+00 -1.090108e+01 -2.105239e+00 6.655469e+00 -5.816962e+00 -5.302080e+00 -3.645983e+00 1.810481e+00 4.568931e+00 -1.257311e+00 4.821610e-01 8.837310e-01 -3.655287e-01 -1.469492e+00 -6.102138e-01 1.313030e+00 1.516747e+00 2.388972e-01 -1.209910e+00 -1.212605e+00 3.247221e-01 1.216720e+00 -7.834150e-03
<VARIANCE> 25
 9.626307e+00 1.682189e+01 2.388250e+01 3.971535e+01 3.620468e+01 3.067571e+01 4.380222e+01 3.750671e+01 4.024908e+01 3.900320e+01 4.198032e+01 2.803459e+01 3.096641e-01 8.554696e-01 9.625163e-01 1.951956e+00 1.634108e+00 2.040254e+00 1.918833e+00 2.039160e+00 2.375693e+00 1.955569e+00 2.240120e+00 1.427656e+00 5.890926e-04
<GCONST> 8.386751e+01
<MIXTURE> 7 5.475854e-03
<MEAN> 25
 9.581738e+00 -4.003833e-01 -6.617221e+00 -1.090108e+01 -2.105239e+00 6.655469e+00 -5.816962e+00 -5.302080e+00 -3.645983e+00 1.810481e+00 4.568931e+00 -1.257311e+00 4.821610e-01 8.837310e-01 -3.655287e-01 -1.469492e+00 -6.102138e-01 1.313030e+00 1.516747e+00 2.388972e-01 -1.209910e+00 -1.212605e+00 3.247221e-01 1.216720e+00 -7.834150e-03
<VARIANCE> 25
 9.626307e+00 1.682189e+01 2.388250e+01 3.971535e+01 3.620468e+01 3.067571e+01 4.380222e+01 3.750671e+01 4.024908e+01 3.900320e+01 4.198032e+01 2.803459e+01 3.096641e-01 8.554696e-01 9.625163e-01 1.951956e+00 1.634108e+00 2.040254e+00 1.918833e+00 2.039160e+00 2.375693e+00 1.955569e+00 2.240120e+00 1.427656e+00 5.890926e-04
<GCONST> 8.386751e+01
<MIXTURE> 8 1.165917e-02
<MEAN> 25
 -4.374608e+00 1.111940e+00 1.034399e+00 8.936429e+00 6.248713e+00 5.842153e+00 5.960969e+00 6.003035e+00 6.509282e+00 5.528233e+00 6.643905e+00 3.072690e+00 -5.707083e-01 -1.582142e+00 -1.117351e+00 -1.466770e+00 -1.843293e-01 -9.703075e-01 -2.210364e-01 -5.621628e-01 -1.830404e-01 -1.093991e-01 -3.069763e-01 7.484376e-02 9.681810e-02
<VARIANCE> 25
